{"learner":{"attributes":{},"feature_names":["day_of_week","hour_of_day"],"feature_types":[],"gradient_booster":{"model":{"cats":{"enc":[],"feature_segments":[],"sorted_idx":[]},"gbtree_model_param":{"num_parallel_tree":"1","num_trees":"50"},"iteration_indptr":[0,1,2,3,4,5,6,7,8,9,10,11,12,13,14,15,16,17,18,19,20,21,22,23,24,25,26,27,28,29,30,31,32,33,34,35,36,37,38,39,40,41,42,43,44,45,46,47,48,49,50],"tree_info":[0,0,0,0,0,0,0,0,0,0,0,0,0,0,0,0,0,0,0,0,0,0,0,0,0,0,0,0,0,0,0,0,0,0,0,0,0,0,0,0,0,0,0,0,0,0,0,0,0,0],"trees":[{"base_weights":[9.7552196E-8,-1.0649837E1,1.4978356E0,-1.1200219E1,-7.1074915E0,3.1805592E0,-5.2174807E0,-1.2277197E0,-9.93862E-1,-3.4834E-1,-8.5286725E-1,-1.3672681E0,3.8305602E0,-7.578522E0,-1.8004193E0,2.6695812E-1,-7.073702E-1,4.1856405E-1,-6.513596E-2,-5.166697E-1,-1.0734824E0,4.4556838E-2,-4.4272977E-1],"categories":[],"categories_nodes":[],"categories_segments":[],"categories_sizes":[],"default_left":[0,0,0,0,0,0,0,0,0,0,0,0,0,0,0,0,0,0,0,0,0,0,0],"id":0,"left_children":[1,3,5,7,9,11,13,-1,-1,-1,-1,15,17,19,21,-1,-1,-1,-1,-1,-1,-1,-1],"loss_changes":[5.989865E4,8.230781E2,3.7216266E4,4.2010938E2,3.05073E2,7.788629E3,5.311119E3,0E0,0E0,0E0,0E0,7.6207695E3,3.6694062E3,2.9133906E3,1.6008555E3,0E0,0E0,0E0,0E0,0E0,0E0,0E0,0E0],"parents":[2147483647,0,0,1,1,2,2,3,3,4,4,5,5,6,6,11,11,12,12,13,13,14,14],"right_children":[2,4,6,8,10,12,14,-1,-1,-1,-1,16,18,20,22,-1,-1,-1,-1,-1,-1,-1,-1],"split_conditions":[4E0,3E0,2E1,5E0,2E0,7E0,4E0,-1.2277197E0,-9.93862E-1,-3.4834E-1,-8.5286725E-1,5E0,1.9E1,2.2E1,2.2E1,2.6695812E-1,-7.073702E-1,4.1856405E-1,-6.513596E-2,-5.166697E-1,-1.0734824E0,4.4556838E-2,-4.4272977E-1],"split_indices":[1,1,1,0,0,1,0,0,0,0,0,0,1,1,1,0,0,0,0,0,0,0,0],"split_type":[0,0,0,0,0,0,0,0,0,0,0,0,0,0,0,0,0,0,0,0,0,0,0],"sum_hessian":[3.753E3,4.62E2,3.291E3,3.98E2,6.4E1,2.632E3,6.59E2,2.1E2,1.88E2,1.9E1,4.5E1,3.29E2,2.303E3,3.89E2,2.7E2,1.93E2,1.36E2,2.134E3,1.69E2,2.22E2,1.67E2,1.46E2,1.24E2],"tree_param":{"num_deleted":"0","num_feature":"2","num_nodes":"23","size_leaf_vector":"1"}},{"base_weights":[-1.4644503E-3,-9.592246E0,1.3474218E0,-1.0085766E1,-6.4152226E0,2.8624704E0,-4.6987453E0,-1.1055295E0,-8.950016E-1,-3.1524768E-1,-7.6943463E-1,-1.2318761E0,3.4476578E0,-6.8247476E0,-1.6218466E0,2.4039991E-1,-6.3714963E-1,3.9725423E-1,9.3927585E-2,-2.7998993E-1,-8.376023E-1,4.0131476E-2,-3.9881095E-1],"categories":[],"categories_nodes":[],"categories_segments":[],"categories_sizes":[],"default_left":[0,0,0,0,0,0,0,0,0,0,0,0,0,0,0,0,0,0,0,0,0,0,0],"id":1,"left_children":[1,3,5,7,9,11,13,-1,-1,-1,-1,15,17,19,21,-1,-1,-1,-1,-1,-1,-1,-1],"loss_changes":[4.8577945E4,6.612461E2,3.0168951E4,3.4041016E2,2.4701831E2,6.3128086E3,4.3063154E3,0E0,0E0,0E0,0E0,6.1820327E3,3.0297441E3,2.4115723E3,1.2989673E3,0E0,0E0,0E0,0E0,0E0,0E0,0E0,0E0],"parents":[2147483647,0,0,1,1,2,2,3,3,4,4,5,5,6,6,11,11,12,12,13,13,14,14],"right_children":[2,4,6,8,10,12,14,-1,-1,-1,-1,16,18,20,22,-1,-1,-1,-1,-1,-1,-1,-1],"split_conditions":[4E0,3E0,2E1,5E0,2E0,7E0,4E0,-1.1055295E0,-8.950016E-1,-3.1524768E-1,-7.6943463E-1,5E0,1.8E1,2.1E1,2.2E1,2.4039991E-1,-6.3714963E-1,3.9725423E-1,9.3927585E-2,-2.7998993E-1,-8.376023E-1,4.0131476E-2,-3.9881095E-1],"split_indices":[1,1,1,0,0,1,0,0,0,0,0,0,1,1,1,0,0,0,0,0,0,0,0],"split_type":[0,0,0,0,0,0,0,0,0,0,0,0,0,0,0,0,0,0,0,0,0,0,0],"sum_hessian":[3.753E3,4.62E2,3.291E3,3.98E2,6.4E1,2.632E3,6.59E2,2.1E2,1.88E2,1.9E1,4.5E1,3.29E2,2.303E3,3.89E2,2.7E2,1.93E2,1.36E2,1.904E3,3.99E2,1.09E2,2.8E2,1.46E2,1.24E2],"tree_param":{"num_deleted":"0","num_feature":"2","num_nodes":"23","size_leaf_vector":"1"}},{"base_weights":[-2.5076973E-3,-8.639685E0,1.2122601E0,-9.082203E0,-5.7903876E0,2.7998734E0,-3.507995E0,-9.955005E-1,-8.059751E-1,-2.8529915E-1,-6.941638E-1,-5.6608476E-2,3.6284323E0,-1.8118358E0,-6.6210966E0,2.7312276E-1,-4.0669313E-1,4.274358E-1,2.8480998E-1,-3.5318133E-1,8.496947E-2,-8.8351136E-1,-3.5924885E-1],"categories":[],"categories_nodes":[],"categories_segments":[],"categories_sizes":[],"default_left":[0,0,0,0,0,0,0,0,0,0,0,0,0,0,0,0,0,0,0,0,0,0,0],"id":2,"left_children":[1,3,5,7,9,11,13,-1,-1,-1,-1,15,17,19,21,-1,-1,-1,-1,-1,-1,-1,-1],"loss_changes":[3.939806E4,5.311914E2,2.4679871E4,2.7583203E2,2.0000464E2,5.83191E3,4.3653857E3,0E0,0E0,0E0,0E0,6.216075E3,9.5053516E2,2.4658423E3,1.9262344E3,0E0,0E0,0E0,0E0,0E0,0E0,0E0,0E0],"parents":[2147483647,0,0,1,1,2,2,3,3,4,4,5,5,6,6,11,11,12,12,13,13,14,14],"right_children":[2,4,6,8,10,12,14,-1,-1,-1,-1,16,18,20,22,-1,-1,-1,-1,-1,-1,-1,-1],"split_conditions":[4E0,3E0,1.9E1,5E0,2E0,9E0,2.2E1,-9.955005E-1,-8.059751E-1,-2.8529915E-1,-6.941638E-1,5E0,5E0,4E0,4E0,2.7312276E-1,-4.0669313E-1,4.274358E-1,2.8480998E-1,-3.5318133E-1,8.496947E-2,-8.8351136E-1,-3.5924885E-1],"split_indices":[1,1,1,0,0,1,1,0,0,0,0,0,0,0,0,0,0,0,0,0,0,0,0],"split_type":[0,0,0,0,0,0,0,0,0,0,0,0,0,0,0,0,0,0,0,0,0,0,0],"sum_hessian":[3.753E3,4.62E2,3.291E3,3.98E2,6.4E1,2.463E3,8.28E2,2.1E2,1.88E2,1.9E1,4.5E1,5.54E2,1.909E3,5.37E2,2.91E2,3.27E2,2.27E2,1.042E3,8.67E2,3.26E2,2.11E2,1.67E2,1.24E2],"tree_param":{"num_deleted":"0","num_feature":"2","num_nodes":"23","size_leaf_vector":"1"}},{"base_weights":[-3.2462238E-3,-7.7817225E0,1.0907507E0,-8.178497E0,-5.2264175E0,2.3263154E0,-3.840056E0,-8.964223E-1,-7.25804E-1,-2.5819573E-1,-6.262565E-1,-1.1020194E0,2.816343E0,-5.5657725E0,-1.3423824E0,1.8931231E-1,-5.335272E-1,3.2569343E-1,7.109877E-2,-2.1724844E-1,-6.874299E-1,2.7706487E-2,-3.2361135E-1],"categories":[],"categories_nodes":[],"categories_segments":[],"categories_sizes":[],"default_left":[0,0,0,0,0,0,0,0,0,0,0,0,0,0,0,0,0,0,0,0,0,0,0],"id":3,"left_children":[1,3,5,7,9,11,13,-1,-1,-1,-1,15,17,19,21,-1,-1,-1,-1,-1,-1,-1,-1],"loss_changes":[3.1953637E4,4.266836E2,2.0064885E4,2.235039E2,1.6193347E2,4.4264893E3,2.8373115E3,0E0,0E0,0E0,0E0,4.1942344E3,2.134877E3,1.7167471E3,8.3199866E2,0E0,0E0,0E0,0E0,0E0,0E0,0E0,0E0],"parents":[2147483647,0,0,1,1,2,2,3,3,4,4,5,5,6,6,11,11,12,12,13,13,14,14],"right_children":[2,4,6,8,10,12,14,-1,-1,-1,-1,16,18,20,22,-1,-1,-1,-1,-1,-1,-1,-1],"split_conditions":[4E0,3E0,2E1,5E0,2E0,7E0,4E0,-8.964223E-1,-7.25804E-1,-2.5819573E-1,-6.262565E-1,5E0,1.8E1,2.1E1,2.2E1,1.8931231E-1,-5.335272E-1,3.2569343E-1,7.109877E-2,-2.1724844E-1,-6.874299E-1,2.7706487E-2,-3.2361135E-1],"split_indices":[1,1,1,0,0,1,0,0,0,0,0,0,1,1,1,0,0,0,0,0,0,0,0],"split_type":[0,0,0,0,0,0,0,0,0,0,0,0,0,0,0,0,0,0,0,0,0,0,0],"sum_hessian":[3.753E3,4.62E2,3.291E3,3.98E2,6.4E1,2.632E3,6.59E2,2.1E2,1.88E2,1.9E1,4.5E1,3.29E2,2.303E3,3.89E2,2.7E2,1.93E2,1.36E2,1.904E3,3.99E2,1.09E2,2.8E2,1.46E2,1.24E2],"tree_param":{"num_deleted":"0","num_feature":"2","num_nodes":"23","size_leaf_vector":"1"}},{"base_weights":[-3.8948746E-3,-7.008964E0,9.813272E-1,-7.364713E0,-4.7173824E0,2.2764316E0,-2.8692384E0,-8.0720484E-1,-6.5360756E0,-2.3366714E-1,-5.6499225E-1,-1.1832052E-1,2.9710972E0,-1.472603E0,-5.432665E0,-5.6422824E-1,-6.792174E-1,2.2144859E-1,-3.4737688E-1,3.5553923E-1,2.2655778E-1,-2.8923568E-1,7.242464E-2,-7.2735226E-1,-2.9150912E-1],"categories":[],"categories_nodes":[],"categories_segments":[],"categories_sizes":[],"default_left":[0,0,0,0,0,0,0,0,0,0,0,0,0,0,0,0,0,0,0,0,0,0,0,0,0],"id":4,"left_children":[1,3,5,7,9,11,13,-1,15,-1,-1,17,19,21,23,-1,-1,-1,-1,-1,-1,-1,-1,-1,-1],"loss_changes":[2.5915291E4,3.4270898E2,1.6423355E4,1.8110352E2,1.3110498E2,4.099343E3,2.9599624E3,0E0,4.9384766E0,0E0,0E0,4.3520166E3,7.7930664E2,1.6801086E3,1.3320693E3,0E0,0E0,0E0,0E0,0E0,0E0,0E0,0E0,0E0,0E0],"parents":[2147483647,0,0,1,1,2,2,3,3,4,4,5,5,6,6,8,8,11,11,12,12,13,13,14,14],"right_children":[2,4,6,8,10,12,14,-1,16,-1,-1,18,20,22,24,-1,-1,-1,-1,-1,-1,-1,-1,-1,-1],"split_conditions":[4E0,3E0,1.9E1,5E0,2E0,9E0,2.2E1,-8.0720484E-1,1E0,-2.3366714E-1,-5.6499225E-1,5E0,5E0,4E0,4E0,-5.6422824E-1,-6.792174E-1,2.2144859E-1,-3.4737688E-1,3.5553923E-1,2.2655778E-1,-2.8923568E-1,7.242464E-2,-7.2735226E-1,-2.9150912E-1],"split_indices":[1,1,1,0,0,1,1,0,1,0,0,0,0,0,0,0,0,0,0,0,0,0,0,0,0],"split_type":[0,0,0,0,0,0,0,0,0,0,0,0,0,0,0,0,0,0,0,0,0,0,0,0,0],"sum_hessian":[3.753E3,4.62E2,3.291E3,3.98E2,6.4E1,2.463E3,8.28E2,2.1E2,1.88E2,1.9E1,4.5E1,5.54E2,1.909E3,5.37E2,2.91E2,4.7E1,1.41E2,3.27E2,2.27E2,1.042E3,8.67E2,3.26E2,2.11E2,1.67E2,1.24E2],"tree_param":{"num_deleted":"0","num_feature":"2","num_nodes":"25","size_leaf_vector":"1"}},{"base_weights":[-4.472129E-3,-6.314222E0,8.829576E-1,-6.6333814E0,-4.257931E0,1.7264084E0,-3.9206784E0,-7.268669E-1,-5.889047E0,-2.1146873E-1,-5.097213E-1,-9.79213E-1,2.0868974E0,-5.6407337E0,-1.6222998E0,-5.0898093E-1,-6.1177397E-1,1.4844795E-1,-4.460798E-1,2.5160706E-1,-6.301795E-2,-4.2505455E-1,-6.5505E-1,-1.7827546E-2,-2.6259145E-1],"categories":[],"categories_nodes":[],"categories_segments":[],"categories_sizes":[],"default_left":[0,0,0,0,0,0,0,0,0,0,0,0,0,0,0,0,0,0,0,0,0,0,0,0,0],"id":5,"left_children":[1,3,5,7,9,11,13,-1,15,-1,-1,17,19,21,23,-1,-1,-1,-1,-1,-1,-1,-1,-1,-1],"loss_changes":[2.1025945E4,2.756172E2,1.3344737E4,1.4586719E2,1.0614197E2,2.7339902E3,1.9358921E3,0E0,3.4067383E0,0E0,0E0,2.8372148E3,2.8841758E3,3.2755078E2,3.0677155E2,0E0,0E0,0E0,0E0,0E0,0E0,0E0,0E0,0E0,0E0],"parents":[2147483647,0,0,1,1,2,2,3,3,4,4,5,5,6,6,8,8,11,11,12,12,13,13,14,14],"right_children":[2,4,6,8,10,12,14,-1,16,-1,-1,18,20,22,24,-1,-1,-1,-1,-1,-1,-1,-1,-1,-1],"split_conditions":[4E0,3E0,2.1E1,5E0,2E0,7E0,4E0,-7.268669E-1,1E0,-2.1146873E-1,-5.097213E-1,5E0,1.9E1,2.2E1,2.2E1,-5.0898093E-1,-6.1177397E-1,1.4844795E-1,-4.460798E-1,2.5160706E-1,-6.301795E-2,-4.2505455E-1,-6.5505E-1,-1.7827546E-2,-2.6259145E-1],"split_indices":[1,1,1,0,0,1,0,0,1,0,0,0,1,1,1,0,0,0,0,0,0,0,0,0,0],"split_type":[0,0,0,0,0,0,0,0,0,0,0,0,0,0,0,0,0,0,0,0,0,0,0,0,0],"sum_hessian":[3.753E3,4.62E2,3.291E3,3.98E2,6.4E1,2.8E3,4.91E2,2.1E2,1.88E2,1.9E1,4.5E1,3.29E2,2.471E3,2.8E2,2.11E2,4.7E1,1.41E2,1.93E2,1.36E2,2.134E3,3.37E2,1.13E2,1.67E2,8.7E1,1.24E2],"tree_param":{"num_deleted":"0","num_feature":"2","num_nodes":"25","size_leaf_vector":"1"}},{"base_weights":[-5.100782E-3,-5.688348E0,7.942153E-1,-5.9746737E0,-3.8432338E0,1.7027632E0,-2.8315434E0,-6.5452474E-1,-5.3060727E0,-1.913792E-1,-4.598573E-1,-1.4407033E0,2.0157425E0,-3.6679802E0,1.2259906E-2,-4.5914325E-1,-5.510275E-1,4.1845184E-2,-4.6936923E-1,2.3363237E-1,4.1100364E-2,-2.3929405E-1,-5.2596545E-1,6.165504E-2,-3.5591048E-1],"categories":[],"categories_nodes":[],"categories_segments":[],"categories_sizes":[],"default_left":[0,0,0,0,0,0,0,0,0,0,0,0,0,0,0,0,0,0,0,0,0,0,0,0,0],"id":6,"left_children":[1,3,5,7,9,11,13,-1,15,-1,-1,17,19,21,23,-1,-1,-1,-1,-1,-1,-1,-1,-1,-1],"loss_changes":[1.7057854E4,2.2164355E2,1.0849246E4,1.174834E2,8.592914E1,2.5933555E3,1.5699619E3,0E0,2.2807617E0,0E0,0E0,1.447391E3,1.2311445E3,1.0224321E3,3.2807376E2,0E0,0E0,0E0,0E0,0E0,0E0,0E0,0E0,0E0,0E0],"parents":[2147483647,0,0,1,1,2,2,3,3,4,4,5,5,6,6,8,8,11,11,12,12,13,13,14,14],"right_children":[2,4,6,8,10,12,14,-1,16,-1,-1,18,20,22,24,-1,-1,-1,-1,-1,-1,-1,-1,-1,-1],"split_conditions":[4E0,3E0,2E1,5E0,2E0,6E0,5E0,-6.5452474E-1,1E0,-1.913792E-1,-4.598573E-1,5E0,1.8E1,2.2E1,2.3E1,-4.5914325E-1,-5.510275E-1,4.1845184E-2,-4.6936923E-1,2.3363237E-1,4.1100364E-2,-2.3929405E-1,-5.2596545E-1,6.165504E-2,-3.5591048E-1],"split_indices":[1,1,1,0,0,1,0,0,1,0,0,0,1,1,1,0,0,0,0,0,0,0,0,0,0],"split_type":[0,0,0,0,0,0,0,0,0,0,0,0,0,0,0,0,0,0,0,0,0,0,0,0,0],"sum_hessian":[3.753E3,4.62E2,3.291E3,3.98E2,6.4E1,2.632E3,6.59E2,2.1E2,1.88E2,1.9E1,4.5E1,2.38E2,2.394E3,5.09E2,1.5E2,4.7E1,1.41E2,1.52E2,8.6E1,1.995E3,3.99E2,2.84E2,2.25E2,1.29E2,2.1E1],"tree_param":{"num_deleted":"0","num_feature":"2","num_nodes":"25","size_leaf_vector":"1"}},{"base_weights":[-5.5309194E-3,-5.124515E0,7.144251E-1,-5.3813787E0,-3.4689295E0,1.40345E0,-3.2097073E0,-5.8938247E-1,-4.7808104E0,-1.7319815E-1,-4.148713E-1,-1.2984221E0,1.6548523E0,-4.671691E0,-1.2567492E0,-4.1418543E-1,-4.9631277E-1,3.7687976E-2,-4.229718E-1,1.9822706E-1,-5.0635535E-2,-3.5920247E-1,-5.3765136E-1,-6.771005E-3,-2.0837787E-1],"categories":[],"categories_nodes":[],"categories_segments":[],"categories_sizes":[],"default_left":[0,0,0,0,0,0,0,0,0,0,0,0,0,0,0,0,0,0,0,0,0,0,0,0,0],"id":7,"left_children":[1,3,5,7,9,11,13,-1,15,-1,-1,17,19,21,23,-1,-1,-1,-1,-1,-1,-1,-1,-1,-1],"loss_changes":[1.3838815E4,1.7822754E2,8.905495E3,9.4618164E1,6.956317E1,1.9047471E3,1.3988843E3,0E0,1.4604492E0,0E0,0E0,1.1752766E3,1.8146313E3,1.9452051E2,2.083334E2,0E0,0E0,0E0,0E0,0E0,0E0,0E0,0E0,0E0,0E0],"parents":[2147483647,0,0,1,1,2,2,3,3,4,4,5,5,6,6,8,8,11,11,12,12,13,13,14,14],"right_children":[2,4,6,8,10,12,14,-1,16,-1,-1,18,20,22,24,-1,-1,-1,-1,-1,-1,-1,-1,-1,-1],"split_conditions":[4E0,3E0,2.1E1,5E0,2E0,6E0,4E0,-5.8938247E-1,1E0,-1.7319815E-1,-4.148713E-1,5E0,1.9E1,2.2E1,2.2E1,-4.1418543E-1,-4.9631277E-1,3.7687976E-2,-4.229718E-1,1.9822706E-1,-5.0635535E-2,-3.5920247E-1,-5.3765136E-1,-6.771005E-3,-2.0837787E-1],"split_indices":[1,1,1,0,0,1,0,0,1,0,0,0,1,1,1,0,0,0,0,0,0,0,0,0,0],"split_type":[0,0,0,0,0,0,0,0,0,0,0,0,0,0,0,0,0,0,0,0,0,0,0,0,0],"sum_hessian":[3.753E3,4.62E2,3.291E3,3.98E2,6.4E1,2.8E3,4.91E2,2.1E2,1.88E2,1.9E1,4.5E1,2.38E2,2.562E3,2.8E2,2.11E2,4.7E1,1.41E2,1.52E2,8.6E1,2.225E3,3.37E2,1.13E2,1.67E2,8.7E1,1.24E2],"tree_param":{"num_deleted":"0","num_feature":"2","num_nodes":"25","size_leaf_vector":"1"}},{"base_weights":[-5.8934977E-3,-4.6165733E0,6.4257264E-1,-4.8469996E0,-3.131084E0,1.2630202E0,-2.8909967E0,-5.307235E-1,-4.3075466E0,-1.5674436E-1,-3.742861E-1,-2.8042823E-1,1.6436837E0,-4.2077136E0,-1.132089E0,-3.7362978E-1,-4.47031E-1,1.5363024E-1,-2.8927407E-1,2.1891092E-1,2.755963E-3,-3.235973E-1,-4.842063E-1,-6.101591E-3,-1.8770678E-1],"categories":[],"categories_nodes":[],"categories_segments":[],"categories_sizes":[],"default_left":[0,0,0,0,0,0,0,0,0,0,0,0,0,0,0,0,0,0,0,0,0,0,0,0,0],"id":8,"left_children":[1,3,5,7,9,11,13,-1,15,-1,-1,17,19,21,23,-1,-1,-1,-1,-1,-1,-1,-1,-1,-1],"loss_changes":[1.12269375E4,1.4330566E2,7.2210137E3,7.620117E1,5.6312134E1,1.6461445E3,1.1347002E3,0E0,8.703613E-1,0E0,0E0,2.6384006E3,1.9806147E3,1.5754639E2,1.690459E2,0E0,0E0,0E0,0E0,0E0,0E0,0E0,0E0,0E0,0E0],"parents":[2147483647,0,0,1,1,2,2,3,3,4,4,5,5,6,6,8,8,11,11,12,12,13,13,14,14],"right_children":[2,4,6,8,10,12,14,-1,16,-1,-1,18,20,22,24,-1,-1,-1,-1,-1,-1,-1,-1,-1,-1],"split_conditions":[4E0,3E0,2.1E1,5E0,2E0,9E0,4E0,-5.307235E-1,1E0,-1.5674436E-1,-3.742861E-1,5E0,1.8E1,2.2E1,2.2E1,-3.7362978E-1,-4.47031E-1,1.5363024E-1,-2.8927407E-1,2.1891092E-1,2.755963E-3,-3.235973E-1,-4.842063E-1,-6.101591E-3,-1.8770678E-1],"split_indices":[1,1,1,0,0,1,0,0,1,0,0,0,1,1,1,0,0,0,0,0,0,0,0,0,0],"split_type":[0,0,0,0,0,0,0,0,0,0,0,0,0,0,0,0,0,0,0,0,0,0,0,0,0],"sum_hessian":[3.753E3,4.62E2,3.291E3,3.98E2,6.4E1,2.8E3,4.91E2,2.1E2,1.88E2,1.9E1,4.5E1,5.54E2,2.246E3,2.8E2,2.11E2,4.7E1,1.41E2,3.27E2,2.27E2,1.679E3,5.67E2,1.13E2,1.67E2,8.7E1,1.24E2],"tree_param":{"num_deleted":"0","num_feature":"2","num_nodes":"25","size_leaf_vector":"1"}},{"base_weights":[-6.049125E-3,-4.1589813E0,5.780377E-1,-4.3656864E0,-2.8261456E0,1.355133E0,-1.7323858E0,-4.779027E-1,-3.881134E0,-1.4185368E-1,-3.3767116E-1,-3.432007E-1,1.8018724E0,-2.806592E0,-1.4789103E-1,-3.370452E-1,-4.026427E-1,1.3831411E-1,-3.369387E-1,2.3523629E-1,1.16824925E-1,-1.5024196E-1,-3.789817E-1,7.625776E-2,-1.6908626E-1],"categories":[],"categories_nodes":[],"categories_segments":[],"categories_sizes":[],"default_left":[0,0,0,0,0,0,0,0,0,0,0,0,0,0,0,0,0,0,0,0,0,0,0,0,0],"id":9,"left_children":[1,3,5,7,9,11,13,-1,15,-1,-1,17,19,21,23,-1,-1,-1,-1,-1,-1,-1,-1,-1,-1],"loss_changes":[9.108381E3,1.1521973E2,5.912868E3,6.1365723E1,4.55838E1,1.8700864E3,1.4106042E3,0E0,4.5239258E-1,0E0,0E0,2.6899155E3,6.777671E2,6.2775977E2,4.7331134E2,0E0,0E0,0E0,0E0,0E0,0E0,0E0,0E0,0E0,0E0],"parents":[2147483647,0,0,1,1,2,2,3,3,4,4,5,5,6,6,8,8,11,11,12,12,13,13,14,14],"right_children":[2,4,6,8,10,12,14,-1,16,-1,-1,18,20,22,24,-1,-1,-1,-1,-1,-1,-1,-1,-1,-1],"split_conditions":[4E0,3E0,1.9E1,5E0,2E0,8E0,4E0,-4.779027E-1,1E0,-1.4185368E-1,-3.3767116E-1,5E0,5E0,2.1E1,2.2E1,-3.370452E-1,-4.026427E-1,1.3831411E-1,-3.369387E-1,2.3523629E-1,1.16824925E-1,-1.5024196E-1,-3.789817E-1,7.625776E-2,-1.6908626E-1],"split_indices":[1,1,1,0,0,1,0,0,1,0,0,0,0,1,1,0,0,0,0,0,0,0,0,0,0],"split_type":[0,0,0,0,0,0,0,0,0,0,0,0,0,0,0,0,0,0,0,0,0,0,0,0,0],"sum_hessian":[3.753E3,4.62E2,3.291E3,3.98E2,6.4E1,2.463E3,8.28E2,2.1E2,1.88E2,1.9E1,4.5E1,5.13E2,1.95E3,4.93E2,3.35E2,4.7E1,1.41E2,3.27E2,1.86E2,1.042E3,9.08E2,2.13E2,2.8E2,2.11E2,1.24E2],"tree_param":{"num_deleted":"0","num_feature":"2","num_nodes":"25","size_leaf_vector":"1"}},{"base_weights":[-6.021347E-3,-3.7467487E0,5.200913E-1,-3.9321694E0,-2.5509086E0,1.0256438E0,-2.3591216E0,-4.3033886E-1,-3.4969342E0,-1.283776E-1,-3.0463812E-1,-1.130532E0,1.2263073E0,-3.4121842E0,-9.521891E-1,-3.035374E-1,-3.6325336E-1,4.9401578E-3,-3.1925932E-1,1.5778963E-1,-1.1365082E-3,-2.5395575E-1,-3.9840132E-1,-1.740833E-1,-1.9098569E-2],"categories":[],"categories_nodes":[],"categories_segments":[],"categories_sizes":[],"default_left":[0,0,0,0,0,0,0,0,0,0,0,0,0,0,0,0,0,0,0,0,0,0,0,0,0],"id":10,"left_children":[1,3,5,7,9,11,13,-1,15,-1,-1,17,19,21,23,-1,-1,-1,-1,-1,-1,-1,-1,-1,-1],"loss_changes":[7.3899854E3,9.2632324E1,4.7942334E3,4.9416504E1,3.689804E1,1.2132825E3,7.2569214E2,0E0,8.029785E-1,0E0,0E0,5.816675E2,1.1153125E3,1.3009937E2,1.2693506E2,0E0,0E0,0E0,0E0,0E0,0E0,0E0,0E0,0E0,0E0],"parents":[2147483647,0,0,1,1,2,2,3,3,4,4,5,5,6,6,8,8,11,11,12,12,13,13,14,14],"right_children":[2,4,6,8,10,12,14,-1,16,-1,-1,18,20,22,24,-1,-1,-1,-1,-1,-1,-1,-1,-1,-1],"split_conditions":[4E0,3E0,2.1E1,5E0,2E0,6E0,4E0,-4.3033886E-1,6E0,-1.283776E-1,-3.0463812E-1,5E0,1.8E1,2.2E1,5E0,-3.035374E-1,-3.6325336E-1,4.9401578E-3,-3.1925932E-1,1.5778963E-1,-1.1365082E-3,-2.5395575E-1,-3.9840132E-1,-1.740833E-1,-1.9098569E-2],"split_indices":[1,1,1,0,0,1,0,0,0,0,0,0,1,1,0,0,0,0,0,0,0,0,0,0,0],"split_type":[0,0,0,0,0,0,0,0,0,0,0,0,0,0,0,0,0,0,0,0,0,0,0,0,0],"sum_hessian":[3.753E3,4.62E2,3.291E3,3.98E2,6.4E1,2.8E3,4.91E2,2.1E2,1.88E2,1.9E1,4.5E1,2.38E2,2.562E3,2.8E2,2.11E2,4.8E1,1.4E2,1.52E2,8.6E1,1.995E3,5.67E2,1.13E2,1.67E2,1.03E2,1.08E2],"tree_param":{"num_deleted":"0","num_feature":"2","num_nodes":"25","size_leaf_vector":"1"}},{"base_weights":[-6.0938005E-3,-3.3753788E0,4.677777E-1,-3.5417023E0,-2.3024795E0,1.1028706E0,-1.4204448E0,-3.8750896E-1,-3.1507688E0,-1.1618171E-1,-2.7483657E-1,1.7852784E0,2.4807443E-1,-3.4779718E0,-8.07397E-1,-2.7133563E-1,-3.276438E-1,1.4203535E-1,2.865359E-1,-2.971804E-1,9.101968E-2,-2.8777725E-1,-4.4657746E-1,-1.1369222E-2,-2.104084E-1],"categories":[],"categories_nodes":[],"categories_segments":[],"categories_sizes":[],"default_left":[0,0,0,0,0,0,0,0,0,0,0,0,0,0,0,0,0,0,0,0,0,0,0,0,0],"id":11,"left_children":[1,3,5,7,9,11,13,-1,15,-1,-1,17,19,21,23,-1,-1,-1,-1,-1,-1,-1,-1,-1,-1],"loss_changes":[5.995246E3,7.4467285E1,3.9493218E3,3.979248E1,2.9866272E1,1.4368564E3,1.0428611E3,0E0,1.4991455E0,0E0,0E0,5.359131E2,2.3371943E3,9.9795654E1,5.754524E2,0E0,0E0,0E0,0E0,0E0,0E0,0E0,0E0,0E0,0E0],"parents":[2147483647,0,0,1,1,2,2,3,3,4,4,5,5,6,6,8,8,11,11,12,12,13,13,14,14],"right_children":[2,4,6,8,10,12,14,-1,16,-1,-1,18,20,22,24,-1,-1,-1,-1,-1,-1,-1,-1,-1,-1],"split_conditions":[4E0,3E0,1.9E1,5E0,2E0,5E0,2E0,-3.8750896E-1,1E0,-1.1618171E-1,-2.7483657E-1,4E0,8E0,2.2E1,2.2E1,-2.7133563E-1,-3.276438E-1,1.4203535E-1,2.865359E-1,-2.971804E-1,9.101968E-2,-2.8777725E-1,-4.4657746E-1,-1.1369222E-2,-2.104084E-1],"split_indices":[1,1,1,0,0,0,0,0,1,0,0,0,1,1,1,0,0,0,0,0,0,0,0,0,0],"split_type":[0,0,0,0,0,0,0,0,0,0,0,0,0,0,0,0,0,0,0,0,0,0,0,0,0],"sum_hessian":[3.753E3,4.62E2,3.291E3,3.98E2,6.4E1,2.463E3,8.28E2,2.1E2,1.88E2,1.9E1,4.5E1,1.369E3,1.094E3,1.89E2,6.39E2,4.7E1,1.41E2,1.025E3,3.44E2,1.86E2,9.08E2,1.2E2,6.9E1,4.17E2,2.22E2],"tree_param":{"num_deleted":"0","num_feature":"2","num_nodes":"25","size_leaf_vector":"1"}},{"base_weights":[-6.0468214E-3,-3.040816E0,4.2077705E-1,-3.1900043E0,-2.0782473E0,9.166695E-1,-1.5581708E0,-3.489417E-1,-2.8388612E0,-1.0514448E-1,-2.4795039E-1,-3.4901005E-1,1.2231047E0,-2.1179688E0,3.4285682E-1,-2.4435043E-1,-2.956121E-1,9.788436E-2,-2.6762134E-1,1.580253E-1,3.2407016E-2,-1.4624982E-1,-2.9351866E-1,8.146872E-2,-2.4608162E-1],"categories":[],"categories_nodes":[],"categories_segments":[],"categories_sizes":[],"default_left":[0,0,0,0,0,0,0,0,0,0,0,0,0,0,0,0,0,0,0,0,0,0,0,0,0],"id":12,"left_children":[1,3,5,7,9,11,13,-1,15,-1,-1,17,19,21,23,-1,-1,-1,-1,-1,-1,-1,-1,-1,-1],"loss_changes":[4.863881E3,5.9858887E1,3.2320168E3,3.20437E1,2.4173645E1,1.0216328E3,7.030929E2,0E0,1.5384521E0,0E0,0E0,1.5909747E3,6.8019556E2,2.6889502E2,2.0175636E2,0E0,0E0,0E0,0E0,0E0,0E0,0E0,0E0,0E0,0E0],"parents":[2147483647,0,0,1,1,2,2,3,3,4,4,5,5,6,6,8,8,11,11,12,12,13,13,14,14],"right_children":[2,4,6,8,10,12,14,-1,16,-1,-1,18,20,22,24,-1,-1,-1,-1,-1,-1,-1,-1,-1,-1],"split_conditions":[4E0,3E0,2E1,5E0,2E0,8E0,5E0,-3.489417E-1,6E0,-1.0514448E-1,-2.4795039E-1,5E0,1.7E1,2.2E1,2.3E1,-2.4435043E-1,-2.956121E-1,9.788436E-2,-2.6762134E-1,1.580253E-1,3.2407016E-2,-1.4624982E-1,-2.9351866E-1,8.146872E-2,-2.4608162E-1],"split_indices":[1,1,1,0,0,1,0,0,0,0,0,0,1,1,1,0,0,0,0,0,0,0,0,0,0],"split_type":[0,0,0,0,0,0,0,0,0,0,0,0,0,0,0,0,0,0,0,0,0,0,0,0,0],"sum_hessian":[3.753E3,4.62E2,3.291E3,3.98E2,6.4E1,2.632E3,6.59E2,2.1E2,1.88E2,1.9E1,4.5E1,5.13E2,2.119E3,5.09E2,1.5E2,4.8E1,1.4E2,3.27E2,1.86E2,1.516E3,6.03E2,2.84E2,2.25E2,1.29E2,2.1E1],"tree_param":{"num_deleted":"0","num_feature":"2","num_nodes":"25","size_leaf_vector":"1"}},{"base_weights":[-5.9287627E-3,-2.1487007E0,4.859144E-1,-2.873232E0,-1.1875237E0,1.0997192E0,-1.1628373E0,-3.142129E-1,-2.557832E0,-7.39846E-1,-3.9519055E0,1.7014145E0,3.7230128E-1,-1.9968505E0,6.682137E-2,-2.1827827E-1,-2.6665965E-1,6.509968E-2,-9.860068E-2,-2.573432E-1,-4.9787566E-1,1.3827246E-1,2.671996E-1,-2.4648316E-1,6.871287E-2,-2.9830334E-1,-1.37596E-1,1.2444627E-1,-6.278579E-2],"categories":[],"categories_nodes":[],"categories_segments":[],"categories_sizes":[],"default_left":[0,0,0,0,0,0,0,0,0,0,0,0,0,0,0,0,0,0,0,0,0,0,0,0,0,0,0,0,0],"id":13,"left_children":[1,3,5,7,9,11,13,-1,15,17,19,21,23,25,27,-1,-1,-1,-1,-1,-1,-1,-1,-1,-1,-1,-1,-1,-1],"loss_changes":[3.957414E3,4.847661E2,3.0919624E3,2.5802246E1,3.7205447E2,9.7365063E2,8.5031555E2,0E0,1.8891602E0,9.0343094E1,4.6638E1,3.7305054E2,9.029397E2,2.9837732E2,2.7565723E2,0E0,0E0,0E0,0E0,0E0,0E0,0E0,0E0,0E0,0E0,0E0,0E0,0E0,0E0],"parents":[2147483647,0,0,1,1,2,2,3,3,4,4,5,5,6,6,8,8,9,9,10,10,11,11,12,12,13,13,14,14],"right_children":[2,4,6,8,10,12,14,-1,16,18,20,22,24,26,28,-1,-1,-1,-1,-1,-1,-1,-1,-1,-1,-1,-1,-1,-1],"split_conditions":[6E0,3E0,1.9E1,5E0,7E0,5E0,4E0,-3.142129E-1,1E0,2E0,4E0,4E0,8E0,2E0,2.1E1,-2.1827827E-1,-2.6665965E-1,6.509968E-2,-9.860068E-2,-2.573432E-1,-4.9787566E-1,1.3827246E-1,2.671996E-1,-2.4648316E-1,6.871287E-2,-2.9830334E-1,-1.37596E-1,1.2444627E-1,-6.278579E-2],"split_indices":[1,1,1,0,0,0,0,0,1,0,1,0,1,0,1,0,0,0,0,0,0,0,0,0,0,0,0,0,0],"split_type":[0,0,0,0,0,0,0,0,0,0,0,0,0,0,0,0,0,0,0,0,0,0,0,0,0,0,0,0,0],"sum_hessian":[3.753E3,7E2,3.053E3,3.98E2,3.02E2,2.225E3,8.28E2,2.1E2,1.88E2,2.61E2,4.1E1,1.217E3,1.008E3,4.93E2,3.35E2,4.7E1,1.41E2,3.9E1,2.22E2,1.9E1,2.2E1,9.18E2,2.99E2,1E2,9.08E2,1.89E2,3.04E2,1.24E2,2.11E2],"tree_param":{"num_deleted":"0","num_feature":"2","num_nodes":"29","size_leaf_vector":"1"}},{"base_weights":[-5.798002E-3,-2.4801102E0,3.4220088E-1,-2.5879116E0,-1.78022E0,6.860245E-1,-1.6159132E0,-2.8294054E-1,-2.3046145E0,-1.0134023E-1,-2.0749187E-1,-8.7410957E-1,8.3123946E-1,-2.4027448E0,-5.653679E-1,-1.9656324E-1,-2.4060722E-1,-4.8550256E-2,-4.5025277E-1,1.13979094E-1,1.1393968E-2,-1.81499E-1,-2.7872762E-1,-2.316366E-2,-1.8343502E-1],"categories":[],"categories_nodes":[],"categories_segments":[],"categories_sizes":[],"default_left":[0,0,0,0,0,0,0,0,0,0,0,0,0,0,0,0,0,0,0,0,0,0,0,0,0],"id":14,"left_children":[1,3,5,7,9,11,13,-1,15,-1,-1,17,19,21,23,-1,-1,-1,-1,-1,-1,-1,-1,-1,-1],"loss_changes":[3.23326E3,3.0325684E1,2.2174336E3,2.0776855E1,1.2585983E1,6.3530664E2,4.0532996E2,0E0,1.770752E0,0E0,0E0,3.3481094E2,5.671233E2,5.844995E1,8.935691E1,0E0,0E0,0E0,0E0,0E0,0E0,0E0,0E0,0E0,0E0],"parents":[2147483647,0,0,1,1,2,2,3,3,4,4,5,5,6,6,8,8,11,11,12,12,13,13,14,14],"right_children":[2,4,6,8,10,12,14,-1,16,-1,-1,18,20,22,24,-1,-1,-1,-1,-1,-1,-1,-1,-1,-1],"split_conditions":[4E0,3E0,2.1E1,5E0,2E0,6E0,4E0,-2.8294054E-1,6E0,-1.0134023E-1,-2.0749187E-1,7E0,1.7E1,2.2E1,2.3E1,-1.9656324E-1,-2.4060722E-1,-4.8550256E-2,-4.5025277E-1,1.13979094E-1,1.1393968E-2,-1.81499E-1,-2.7872762E-1,-2.316366E-2,-1.8343502E-1],"split_indices":[1,1,1,0,0,1,0,0,0,0,0,0,1,1,1,0,0,0,0,0,0,0,0,0,0],"split_type":[0,0,0,0,0,0,0,0,0,0,0,0,0,0,0,0,0,0,0,0,0,0,0,0,0],"sum_hessian":[3.753E3,4.62E2,3.291E3,3.98E2,6.4E1,2.8E3,4.91E2,2.1E2,1.88E2,1.9E1,4.5E1,2.38E2,2.562E3,2.8E2,2.11E2,4.8E1,1.4E2,2.16E2,2.2E1,1.791E3,7.71E2,1.13E2,1.67E2,1.68E2,4.3E1],"tree_param":{"num_deleted":"0","num_feature":"2","num_nodes":"25","size_leaf_vector":"1"}},{"base_weights":[-5.7695396E-3,-2.2343216E0,3.0766463E-1,-2.3309252E0,-1.6069493E0,6.1728853E-1,-1.4556772E0,-2.5478062E-1,-2.076466E0,-9.171289E-2,-1.8719375E-1,-2.5464153E-1,8.32377E-1,-2.1641083E0,-5.0980544E-1,-1.7545617E-1,-2.170656E-1,7.883723E-2,-1.7540006E-1,1.2135329E-1,1.0256037E-2,-2.6765355E-1,-1.7876346E-1,-2.0860983E-2,-1.6550839E-1],"categories":[],"categories_nodes":[],"categories_segments":[],"categories_sizes":[],"default_left":[0,0,0,0,0,0,0,0,0,0,0,0,0,0,0,0,0,0,0,0,0,0,0,0,0],"id":15,"left_children":[1,3,5,7,9,11,13,-1,15,-1,-1,17,19,21,23,-1,-1,-1,-1,-1,-1,-1,-1,-1,-1],"loss_changes":[2.6228728E3,2.4315186E1,1.798241E3,1.6729248E1,1.0164825E1,5.255176E2,3.285785E2,0E0,1.921936E0,0E0,0E0,8.6932086E2,6.249324E2,4.942456E1,7.278474E1,0E0,0E0,0E0,0E0,0E0,0E0,0E0,0E0,0E0,0E0],"parents":[2147483647,0,0,1,1,2,2,3,3,4,4,5,5,6,6,8,8,11,11,12,12,13,13,14,14],"right_children":[2,4,6,8,10,12,14,-1,16,-1,-1,18,20,22,24,-1,-1,-1,-1,-1,-1,-1,-1,-1,-1],"split_conditions":[4E0,3E0,2.1E1,5E0,2E0,9E0,4E0,-2.5478062E-1,1E0,-9.171289E-2,-1.8719375E-1,5E0,1.7E1,2E0,2.3E1,-1.7545617E-1,-2.170656E-1,7.883723E-2,-1.7540006E-1,1.2135329E-1,1.0256037E-2,-2.6765355E-1,-1.7876346E-1,-2.0860983E-2,-1.6550839E-1],"split_indices":[1,1,1,0,0,1,0,0,1,0,0,0,1,0,1,0,0,0,0,0,0,0,0,0,0],"split_type":[0,0,0,0,0,0,0,0,0,0,0,0,0,0,0,0,0,0,0,0,0,0,0,0,0],"sum_hessian":[3.753E3,4.62E2,3.291E3,3.98E2,6.4E1,2.8E3,4.91E2,2.1E2,1.88E2,1.9E1,4.5E1,5.54E2,2.246E3,2.8E2,2.11E2,4.7E1,1.41E2,3.27E2,2.27E2,1.475E3,7.71E2,1.16E2,1.64E2,1.68E2,4.3E1],"tree_param":{"num_deleted":"0","num_feature":"2","num_nodes":"25","size_leaf_vector":"1"}},{"base_weights":[-5.598413E-3,-1.5939894E0,3.5899478E-1,-2.0128896E0,-7.7581E-1,8.1842333E-1,-8.7507874E-1,-2.0994549E0,-1.4505452E0,-4.4066736E-1,-3.9040774E-1,1.3460828E0,1.8065551E-1,-1.8442081E0,-1.665988E-1,-2.2942328E-1,-1.8708962E-1,-8.300017E-2,-1.6888131E-1,2.055395E-1,-7.045082E-2,1.0624142E-1,2.2105674E-1,-2.159977E-1,4.40527E-2,-1.355557E-1,-2.7578077E-1,-6.6386014E-2,7.358434E-2],"categories":[],"categories_nodes":[],"categories_segments":[],"categories_sizes":[],"default_left":[0,0,0,0,0,0,0,0,0,0,0,0,0,0,0,0,0,0,0,0,0,0,0,0,0,0,0,0,0],"id":16,"left_children":[1,3,5,7,9,11,13,15,17,19,-1,21,23,25,27,-1,-1,-1,-1,-1,-1,-1,-1,-1,-1,-1,-1,-1,-1],"loss_changes":[2.1745757E3,2.3869604E2,1.7322382E3,1.9493164E1,2.48851E2,7.4885974E2,5.688914E2,1.3470459E1,8.208908E0,1.4435625E2,0E0,2.9633813E2,6.1468964E2,1.525127E2,2.1588832E2,0E0,0E0,0E0,0E0,0E0,0E0,0E0,0E0,0E0,0E0,0E0,0E0,0E0,0E0],"parents":[2147483647,0,0,1,1,2,2,3,3,4,4,5,5,6,6,7,7,8,8,9,9,11,11,12,12,13,13,14,14],"right_children":[2,4,6,8,10,12,14,16,18,20,-1,22,24,26,28,-1,-1,-1,-1,-1,-1,-1,-1,-1,-1,-1,-1,-1,-1],"split_conditions":[6E0,4E0,1.9E1,3E0,7E0,5E0,3E0,5E0,2E0,2E0,-3.9040774E-1,4E0,8E0,2.2E1,5E0,-2.2942328E-1,-1.8708962E-1,-8.300017E-2,-1.6888131E-1,2.055395E-1,-7.045082E-2,1.0624142E-1,2.2105674E-1,-2.159977E-1,4.40527E-2,-1.355557E-1,-2.7578077E-1,-6.6386014E-2,7.358434E-2],"split_indices":[1,1,1,1,0,0,0,0,0,0,0,0,1,1,0,0,0,0,0,0,0,0,0,0,0,0,0,0,0],"split_type":[0,0,0,0,0,0,0,0,0,0,0,0,0,0,0,0,0,0,0,0,0,0,0,0,0,0,0,0,0],"sum_hessian":[3.753E3,7E2,3.053E3,4.62E2,2.38E2,2.225E3,8.28E2,3.98E2,6.4E1,2.16E2,2.2E1,1.217E3,1.008E3,3.49E2,4.79E2,2.1E2,1.88E2,1.9E1,4.5E1,2E1,1.96E2,9.18E2,2.99E2,1E2,9.08E2,2.29E2,1.2E2,3.09E2,1.7E2],"tree_param":{"num_deleted":"0","num_feature":"2","num_nodes":"29","size_leaf_vector":"1"}},{"base_weights":[-5.3506866E-3,-1.4359081E0,3.230141E-1,-1.8130444E0,-6.9929713E-1,6.791046E-1,-9.696522E-1,-1.8905534E0,-1.3093656E0,-3.959779E-1,-3.530644E-1,1.0215425E0,2.2352464E-1,-1.3473828E0,3.1254825E-1,-2.0658968E-1,-1.6847967E-1,-7.5115144E-2,-1.523603E-1,1.8596427E-1,-6.344148E-2,1.3799062E-1,-3.3181157E-2,-1.9461177E-1,4.5916554E-2,-9.102594E-2,-1.8926606E-1,6.8510756E-2,-1.9031453E-1],"categories":[],"categories_nodes":[],"categories_segments":[],"categories_sizes":[],"default_left":[0,0,0,0,0,0,0,0,0,0,0,0,0,0,0,0,0,0,0,0,0,0,0,0,0,0,0,0,0],"id":17,"left_children":[1,3,5,7,9,11,13,15,17,19,-1,21,23,25,27,-1,-1,-1,-1,-1,-1,-1,-1,-1,-1,-1,-1,-1,-1],"loss_changes":[1.7638855E3,1.9347192E2,1.4064333E3,1.5599976E1,2.0385562E2,3.7341052E2,3.200766E2,1.0914429E1,6.6289062E0,1.1788738E2,0E0,6.634431E2,5.2697644E2,1.1983746E2,1.2595092E2,0E0,0E0,0E0,0E0,0E0,0E0,0E0,0E0,0E0,0E0,0E0,0E0,0E0,0E0],"parents":[2147483647,0,0,1,1,2,2,3,3,4,4,5,5,6,6,7,7,8,8,9,9,11,11,12,12,13,13,14,14],"right_children":[2,4,6,8,10,12,14,16,18,20,-1,22,24,26,28,-1,-1,-1,-1,-1,-1,-1,-1,-1,-1,-1,-1,-1,-1],"split_conditions":[6E0,4E0,2E1,3E0,7E0,5E0,5E0,5E0,2E0,2E0,-3.530644E-1,1.8E1,8E0,2.2E1,2.3E1,-2.0658968E-1,-1.6847967E-1,-7.5115144E-2,-1.523603E-1,1.8596427E-1,-6.344148E-2,1.3799062E-1,-3.3181157E-2,-1.9461177E-1,4.5916554E-2,-9.102594E-2,-1.8926606E-1,6.8510756E-2,-1.9031453E-1],"split_indices":[1,1,1,1,0,0,0,0,0,0,0,1,1,1,1,0,0,0,0,0,0,0,0,0,0,0,0,0,0],"split_type":[0,0,0,0,0,0,0,0,0,0,0,0,0,0,0,0,0,0,0,0,0,0,0,0,0,0,0,0,0],"sum_hessian":[3.753E3,7E2,3.053E3,4.62E2,2.38E2,2.394E3,6.59E2,3.98E2,6.4E1,2.16E2,2.2E1,1.366E3,1.028E3,5.09E2,1.5E2,2.1E2,1.88E2,1.9E1,4.5E1,2E1,1.96E2,1.08E3,2.86E2,1E2,9.28E2,2.84E2,2.25E2,1.29E2,2.1E1],"tree_param":{"num_deleted":"0","num_feature":"2","num_nodes":"29","size_leaf_vector":"1"}},{"base_weights":[-5.1562353E-3,-1.2935058E0,2.905668E-1,-1.6330414E0,-6.303321E-1,6.1117595E-1,-8.73296E-1,-1.7024381E0,-1.1819286E0,-3.5581556E-1,-3.19293E-1,9.194646E-1,2.0102847E-1,-1.2131938E0,2.8048655E-1,-1.8602861E-1,-1.5172087E-1,-9.532363E-2,-1.6488247E-1,1.6825336E-1,-5.7129532E-2,-1.2640099E-2,1.3034236E-1,-1.7534332E-1,4.1329928E-2,-8.195525E-2,-1.7042318E-1,6.1712362E-2,-1.7214817E-1],"categories":[],"categories_nodes":[],"categories_segments":[],"categories_sizes":[],"default_left":[0,0,0,0,0,0,0,0,0,0,0,0,0,0,0,0,0,0,0,0,0,0,0,0,0,0,0,0,0],"id":18,"left_children":[1,3,5,7,9,11,13,15,17,19,-1,21,23,25,27,-1,-1,-1,-1,-1,-1,-1,-1,-1,-1,-1,-1,-1,-1],"loss_changes":[1.4306298E3,1.5681555E2,1.1401187E3,1.2482422E1,1.6699457E2,3.0264807E2,2.5917126E2,8.843628E0,5.3686905E0,9.627263E1,0E0,5.4911035E2,4.2763123E2,9.718268E1,1.028268E2,0E0,0E0,0E0,0E0,0E0,0E0,0E0,0E0,0E0,0E0,0E0,0E0,0E0,0E0],"parents":[2147483647,0,0,1,1,2,2,3,3,4,4,5,5,6,6,7,7,8,8,9,9,11,11,12,12,13,13,14,14],"right_children":[2,4,6,8,10,12,14,16,18,20,-1,22,24,26,28,-1,-1,-1,-1,-1,-1,-1,-1,-1,-1,-1,-1,-1,-1],"split_conditions":[6E0,4E0,2E1,3E0,7E0,5E0,5E0,5E0,7E0,2E0,-3.19293E-1,2E0,8E0,2.2E1,2.3E1,-1.8602861E-1,-1.5172087E-1,-9.532363E-2,-1.6488247E-1,1.6825336E-1,-5.7129532E-2,-1.2640099E-2,1.3034236E-1,-1.7534332E-1,4.1329928E-2,-8.195525E-2,-1.7042318E-1,6.1712362E-2,-1.7214817E-1],"split_indices":[1,1,1,1,0,0,0,0,0,0,0,0,1,1,1,0,0,0,0,0,0,0,0,0,0,0,0,0,0],"split_type":[0,0,0,0,0,0,0,0,0,0,0,0,0,0,0,0,0,0,0,0,0,0,0,0,0,0,0,0,0],"sum_hessian":[3.753E3,7E2,3.053E3,4.62E2,2.38E2,2.394E3,6.59E2,3.98E2,6.4E1,2.16E2,2.2E1,1.366E3,1.028E3,5.09E2,1.5E2,2.1E2,1.88E2,4.5E1,1.9E1,2E1,1.96E2,3.67E2,9.99E2,1E2,9.28E2,2.84E2,2.25E2,1.29E2,2.1E1],"tree_param":{"num_deleted":"0","num_feature":"2","num_nodes":"29","size_leaf_vector":"1"}},{"base_weights":[-4.9564564E-3,-1.165305E0,2.613858E-1,-1.4710287E0,-5.6816953E-1,6.6837966E-1,-5.0596184E-1,-1.5330406E0,-1.0677389E0,-3.1972155E-1,-2.8875193E-1,1.1505756E0,9.85955E-2,-1.3378642E0,5.157544E-1,-1.675139E-1,-1.3662905E-1,-5.8923464E-2,-1.2525725E-1,1.5222926E-1,-5.1445544E-2,6.337633E-2,2.1753113E-1,-1.5798257E-1,3.0622045E-2,-2.099813E-1,-8.979907E-2,1.2042918E-1,-3.4735005E-2],"categories":[],"categories_nodes":[],"categories_segments":[],"categories_sizes":[],"default_left":[0,0,0,0,0,0,0,0,0,0,0,0,0,0,0,0,0,0,0,0,0,0,0,0,0,0,0,0,0],"id":19,"left_children":[1,3,5,7,9,11,13,15,17,19,-1,21,23,25,27,-1,-1,-1,-1,-1,-1,-1,-1,-1,-1,-1,-1,-1,-1],"loss_changes":[1.1604778E3,1.27137634E2,9.5411993E2,9.9422E0,1.3679764E2,5.4828296E2,9.008063E2,7.1655884E0,5.0107803E0,7.862162E1,0E0,5.7111475E2,3.1969333E2,1.9384839E2,2.8329547E2,0E0,0E0,0E0,0E0,0E0,0E0,0E0,0E0,0E0,0E0,0E0,0E0,0E0,0E0],"parents":[2147483647,0,0,1,1,2,2,3,3,4,4,5,5,6,6,7,7,8,8,9,9,11,11,12,12,13,13,14,14],"right_children":[2,4,6,8,10,12,14,16,18,20,-1,22,24,26,28,-1,-1,-1,-1,-1,-1,-1,-1,-1,-1,-1,-1,-1,-1],"split_conditions":[6E0,4E0,1.8E1,3E0,7E0,5E0,4E0,5E0,2E0,2E0,-2.8875193E-1,1.4E1,8E0,2E0,2.1E1,-1.675139E-1,-1.3662905E-1,-5.8923464E-2,-1.2525725E-1,1.5222926E-1,-5.1445544E-2,6.337633E-2,2.1753113E-1,-1.5798257E-1,3.0622045E-2,-2.099813E-1,-8.979907E-2,1.2042918E-1,-3.4735005E-2],"split_indices":[1,1,1,1,0,0,0,0,0,0,0,1,1,0,1,0,0,0,0,0,0,0,0,0,0,0,0,0,0],"split_type":[0,0,0,0,0,0,0,0,0,0,0,0,0,0,0,0,0,0,0,0,0,0,0,0,0,0,0,0,0],"sum_hessian":[3.753E3,7E2,3.053E3,4.62E2,2.38E2,1.995E3,1.058E3,3.98E2,6.4E1,2.16E2,2.2E1,1.08E3,9.15E2,5.83E2,4.75E2,2.1E2,1.88E2,1.9E1,4.5E1,2E1,1.96E2,7.19E2,3.61E2,1E2,8.15E2,2.12E2,3.71E2,2.64E2,2.11E2],"tree_param":{"num_deleted":"0","num_feature":"2","num_nodes":"29","size_leaf_vector":"1"}},{"base_weights":[-4.657034E-3,-1.0497391E0,2.3522744E-1,-1.3249805E0,-5.121387E-1,6.0161877E-1,-4.5556793E-1,-1.3804989E0,-9.6379846E-1,-2.8728458E-1,-2.6113218E-1,1.0357785E0,8.859654E-2,-1.204591E0,4.643587E-1,-1.06794775E-1,-1.4426143E-1,-7.648492E-2,-1.3731919E-1,1.3773124E-1,-4.6327066E-2,5.7047587E-2,1.9583811E-1,-1.423407E-1,2.7563546E-2,-1.8908174E-1,-8.084329E-2,1.2739675E-1,-1.52777005E-2],"categories":[],"categories_nodes":[],"categories_segments":[],"categories_sizes":[],"default_left":[0,0,0,0,0,0,0,0,0,0,0,0,0,0,0,0,0,0,0,0,0,0,0,0,0,0,0,0,0],"id":20,"left_children":[1,3,5,7,9,11,13,15,17,19,-1,21,23,25,27,-1,-1,-1,-1,-1,-1,-1,-1,-1,-1,-1,-1,-1,-1],"loss_changes":[9.4137085E2,1.0304822E2,7.732458E2,7.9536743E0,1.1206021E2,4.4448456E2,7.302594E2,6.2056274E0,4.243862E0,6.420731E1,0E0,4.6294458E2,2.5944034E2,1.5723419E2,2.3802252E2,0E0,0E0,0E0,0E0,0E0,0E0,0E0,0E0,0E0,0E0,0E0,0E0,0E0,0E0],"parents":[2147483647,0,0,1,1,2,2,3,3,4,4,5,5,6,6,7,7,8,8,9,9,11,11,12,12,13,13,14,14],"right_children":[2,4,6,8,10,12,14,16,18,20,-1,22,24,26,28,-1,-1,-1,-1,-1,-1,-1,-1,-1,-1,-1,-1,-1,-1],"split_conditions":[6E0,4E0,1.8E1,3E0,7E0,5E0,4E0,1E0,7E0,2E0,-2.6113218E-1,1.4E1,8E0,2E0,2E1,-1.06794775E-1,-1.4426143E-1,-7.648492E-2,-1.3731919E-1,1.3773124E-1,-4.6327066E-2,5.7047587E-2,1.9583811E-1,-1.423407E-1,2.7563546E-2,-1.8908174E-1,-8.084329E-2,1.2739675E-1,-1.52777005E-2],"split_indices":[1,1,1,1,0,0,0,1,0,0,0,1,1,0,1,0,0,0,0,0,0,0,0,0,0,0,0,0,0],"split_type":[0,0,0,0,0,0,0,0,0,0,0,0,0,0,0,0,0,0,0,0,0,0,0,0,0,0,0,0,0],"sum_hessian":[3.753E3,7E2,3.053E3,4.62E2,2.38E2,1.995E3,1.058E3,3.98E2,6.4E1,2.16E2,2.2E1,1.08E3,9.15E2,5.83E2,4.75E2,6.9E1,3.29E2,4.5E1,1.9E1,2E1,1.96E2,7.19E2,3.61E2,1E2,8.15E2,2.12E2,3.71E2,2.05E2,2.7E2],"tree_param":{"num_deleted":"0","num_feature":"2","num_nodes":"29","size_leaf_vector":"1"}},{"base_weights":[-4.365532E-3,-9.456706E-1,2.116984E-1,-1.1934865E0,-4.616354E-1,6.004749E-1,-3.4008244E-1,-1.2430782E0,-8.7070805E-1,-2.5813535E-1,-2.3615432E-1,3.1772286E-1,1.4898847E0,-1.7197784E0,1.0653925E-2,-1.368748E-1,-1.09620325E-1,-4.6059664E-2,-1.0300889E-1,1.24613956E-1,-4.171792E-2,4.1823663E-2,-1.08964756E-1,2.0227723E-1,-5.2920796E-2,-2.1473134E-1,-1.3444626E-1,3.7969045E-2,-6.1065134E-2],"categories":[],"categories_nodes":[],"categories_segments":[],"categories_sizes":[],"default_left":[0,0,0,0,0,0,0,0,0,0,0,0,0,0,0,0,0,0,0,0,0,0,0,0,0,0,0,0,0],"id":21,"left_children":[1,3,5,7,9,11,13,15,17,19,-1,21,23,25,27,-1,-1,-1,-1,-1,-1,-1,-1,-1,-1,-1,-1,-1,-1],"loss_changes":[7.6369653E2,8.3535095E1,6.553465E2,6.3289795E0,9.179529E1,4.5018323E2,6.111961E2,5.864197E0,3.7741966E0,5.2436172E1,0E0,1.9298291E2,4.658806E2,3.8190918E1,2.3135046E2,0E0,0E0,0E0,0E0,0E0,0E0,0E0,0E0,0E0,0E0,0E0,0E0,0E0,0E0],"parents":[2147483647,0,0,1,1,2,2,3,3,4,4,5,5,6,6,7,7,8,8,9,9,11,11,12,12,13,13,14,14],"right_children":[2,4,6,8,10,12,14,16,18,20,-1,22,24,26,28,-1,-1,-1,-1,-1,-1,-1,-1,-1,-1,-1,-1,-1,-1],"split_conditions":[6E0,4E0,1.7E1,3E0,7E0,1.5E1,2E0,5E0,2E0,2E0,-2.3615432E-1,1.4E1,6E0,2E1,2.1E1,-1.368748E-1,-1.09620325E-1,-4.6059664E-2,-1.0300889E-1,1.24613956E-1,-4.171792E-2,4.1823663E-2,-1.08964756E-1,2.0227723E-1,-5.2920796E-2,-2.1473134E-1,-1.3444626E-1,3.7969045E-2,-6.1065134E-2],"split_indices":[1,1,1,1,0,1,0,0,0,0,0,1,0,1,1,0,0,0,0,0,0,0,0,0,0,0,0,0,0],"split_type":[0,0,0,0,0,0,0,0,0,0,0,0,0,0,0,0,0,0,0,0,0,0,0,0,0,0,0,0,0],"sum_hessian":[3.753E3,7E2,3.053E3,4.62E2,2.38E2,1.791E3,1.262E3,3.98E2,6.4E1,2.16E2,2.2E1,1.36E3,4.31E2,2.55E2,1.007E3,2.1E2,1.88E2,1.9E1,4.5E1,2E1,1.96E2,1.27E3,9E1,3.41E2,9E1,1.17E2,1.38E2,6.32E2,3.75E2],"tree_param":{"num_deleted":"0","num_feature":"2","num_nodes":"29","size_leaf_vector":"1"}},{"base_weights":[-4.152812E-3,-8.518867E-1,1.9043317E-1,-1.0749924E0,-4.1611347E-1,5.4047275E-1,-3.0636916E-1,-1.1193883E0,-7.8593075E-1,-2.3194022E-1,-2.1356562E-1,2.859007E-1,1.3412414E0,-1.5491647E0,9.5654065E-3,-8.4605865E-2,-1.1739754E-1,-6.1278023E-2,-1.1448804E-1,1.1274588E-1,-3.7567344E-2,3.764453E-2,-9.8188005E-2,1.8210857E-1,-4.7686823E-2,-1.9344018E-1,-1.2109838E-1,2.412901E-2,-8.072292E-2],"categories":[],"categories_nodes":[],"categories_segments":[],"categories_sizes":[],"default_left":[0,0,0,0,0,0,0,0,0,0,0,0,0,0,0,0,0,0,0,0,0,0,0,0,0,0,0,0,0],"id":22,"left_children":[1,3,5,7,9,11,13,15,17,19,-1,21,23,25,27,-1,-1,-1,-1,-1,-1,-1,-1,-1,-1,-1,-1,-1,-1],"loss_changes":[6.194113E2,6.77063E1,5.312576E2,5.0620117E0,7.519446E1,3.6492163E2,4.9592172E2,4.959961E0,3.3383408E0,4.2823353E1,0E0,1.5659972E2,3.777494E2,3.1009094E1,1.9098042E2,0E0,0E0,0E0,0E0,0E0,0E0,0E0,0E0,0E0,0E0,0E0,0E0,0E0,0E0],"parents":[2147483647,0,0,1,1,2,2,3,3,4,4,5,5,6,6,7,7,8,8,9,9,11,11,12,12,13,13,14,14],"right_children":[2,4,6,8,10,12,14,16,18,20,-1,22,24,26,28,-1,-1,-1,-1,-1,-1,-1,-1,-1,-1,-1,-1,-1,-1],"split_conditions":[6E0,4E0,1.7E1,3E0,7E0,1.5E1,2E0,1E0,7E0,2E0,-2.1356562E-1,1.4E1,6E0,2E1,2.2E1,-8.4605865E-2,-1.1739754E-1,-6.1278023E-2,-1.1448804E-1,1.1274588E-1,-3.7567344E-2,3.764453E-2,-9.8188005E-2,1.8210857E-1,-4.7686823E-2,-1.9344018E-1,-1.2109838E-1,2.412901E-2,-8.072292E-2],"split_indices":[1,1,1,1,0,1,0,1,0,0,0,1,0,1,1,0,0,0,0,0,0,0,0,0,0,0,0,0,0],"split_type":[0,0,0,0,0,0,0,0,0,0,0,0,0,0,0,0,0,0,0,0,0,0,0,0,0,0,0,0,0],"sum_hessian":[3.753E3,7E2,3.053E3,4.62E2,2.38E2,1.791E3,1.262E3,3.98E2,6.4E1,2.16E2,2.2E1,1.36E3,4.31E2,2.55E2,1.007E3,6.9E1,3.29E2,4.5E1,1.9E1,2E1,1.96E2,1.27E3,9E1,3.41E2,9E1,1.17E2,1.38E2,7.85E2,2.22E2],"tree_param":{"num_deleted":"0","num_feature":"2","num_nodes":"29","size_leaf_vector":"1"}},{"base_weights":[-3.9544497E-3,-7.674344E-1,1.7129225E-1,-9.683091E-1,-3.7508124E-1,3.3688143E-1,-6.916678E-1,-1.0079559E0,-7.100417E-1,-2.0839989E-1,-1.9313757E-1,4.8646638E-1,-1.0778074E-2,-9.2858005E-1,1.4930436E-1,-1.11909986E-1,-8.785415E-2,-3.586256E-2,-8.473956E-2,-6.2039968E-2,1.980035E-2,2.5726555E-2,1.2074291E-1,-1.4958455E-1,3.176899E-2,-6.0801305E-2,-1.15000285E-1,5.2845307E-2,-1.3740769E-1],"categories":[],"categories_nodes":[],"categories_segments":[],"categories_sizes":[],"default_left":[0,0,0,0,0,0,0,0,0,0,0,0,0,0,0,0,0,0,0,0,0,0,0,0,0,0,0,0,0],"id":23,"left_children":[1,3,5,7,9,11,13,15,17,19,-1,21,23,25,27,-1,-1,-1,-1,-1,-1,-1,-1,-1,-1,-1,-1,-1,-1],"loss_changes":[5.0240668E2,5.4885284E1,4.3663992E2,4.025177E0,6.1595364E1,1.3329312E2,9.8163055E1,4.755951E0,2.8335419E0,3.645691E1,0E0,2.9580887E2,3.770545E2,2.6557404E1,6.3683224E1,0E0,0E0,0E0,0E0,0E0,0E0,0E0,0E0,0E0,0E0,0E0,0E0,0E0,0E0],"parents":[2147483647,0,0,1,1,2,2,3,3,4,4,5,5,6,6,7,7,8,8,9,9,11,11,12,12,13,13,14,14],"right_children":[2,4,6,8,10,12,14,16,18,20,-1,22,24,26,28,-1,-1,-1,-1,-1,-1,-1,-1,-1,-1,-1,-1,-1,-1],"split_conditions":[6E0,4E0,2.1E1,3E0,7E0,1.7E1,5E0,5E0,2E0,4E0,-1.9313757E-1,1.5E1,2E0,2.2E1,2.3E1,-1.11909986E-1,-8.785415E-2,-3.586256E-2,-8.473956E-2,-6.2039968E-2,1.980035E-2,2.5726555E-2,1.2074291E-1,-1.4958455E-1,3.176899E-2,-6.0801305E-2,-1.15000285E-1,5.2845307E-2,-1.3740769E-1],"split_indices":[1,1,1,1,0,1,0,0,0,0,0,1,0,1,1,0,0,0,0,0,0,0,0,0,0,0,0,0,0],"split_type":[0,0,0,0,0,0,0,0,0,0,0,0,0,0,0,0,0,0,0,0,0,0,0,0,0,0,0,0,0],"sum_hessian":[3.753E3,7E2,3.053E3,4.62E2,2.38E2,2.562E3,4.91E2,3.98E2,6.4E1,2.16E2,2.2E1,1.791E3,7.71E2,3.83E2,1.08E2,2.1E2,1.88E2,1.9E1,4.5E1,1.07E2,1.09E2,1.36E3,4.31E2,1.39E2,6.32E2,1.58E2,2.25E2,8.7E1,2.1E1],"tree_param":{"num_deleted":"0","num_feature":"2","num_nodes":"29","size_leaf_vector":"1"}},{"base_weights":[-3.7685926E-3,-6.914836E-1,1.5408733E-1,-8.7217003E-1,-3.385577E-1,3.0320466E-1,-6.2303007E-1,-9.076609E-1,-6.4089274E-1,2.3131931E-2,-9.707411E-1,4.7925872E-1,5.749789E-2,-8.3617973E-1,1.335983E-1,-6.685021E-2,-9.5564105E-2,-4.90125E-2,-9.556139E-2,-5.589336E-2,1.3892178E-1,-6.812594E-2,-1.7466354E-1,7.619282E-2,-2.6177008E-2,-1.3866283E-1,2.076516E-2,-5.4759394E-2,-1.0355114E-1,4.7620855E-2,-1.2429153E-1],"categories":[],"categories_nodes":[],"categories_segments":[],"categories_sizes":[],"default_left":[0,0,0,0,0,0,0,0,0,0,0,0,0,0,0,0,0,0,0,0,0,0,0,0,0,0,0,0,0,0,0],"id":24,"left_children":[1,3,5,7,9,11,13,15,17,19,21,23,25,27,29,-1,-1,-1,-1,-1,-1,-1,-1,-1,-1,-1,-1,-1,-1,-1,-1],"loss_changes":[4.0764038E2,4.440674E1,3.540915E2,3.218689E0,5.4670807E1,1.1084186E2,7.9459045E1,3.9396362E0,2.6158657E0,1.2243465E2,1.8350914E1,3.1293243E2,2.325245E2,2.1522308E1,5.199712E1,0E0,0E0,0E0,0E0,0E0,0E0,0E0,0E0,0E0,0E0,0E0,0E0,0E0,0E0,0E0,0E0],"parents":[2147483647,0,0,1,1,2,2,3,3,4,4,5,5,6,6,7,7,8,8,9,9,10,10,11,11,12,12,13,13,14,14],"right_children":[2,4,6,8,10,12,14,16,18,20,22,24,26,28,30,-1,-1,-1,-1,-1,-1,-1,-1,-1,-1,-1,-1,-1,-1,-1,-1],"split_conditions":[6E0,4E0,2.1E1,3E0,5E0,5E0,5E0,1E0,7E0,4E0,7E0,1.8E1,8E0,2.2E1,2.3E1,-6.685021E-2,-9.5564105E-2,-4.90125E-2,-9.556139E-2,-5.589336E-2,1.3892178E-1,-6.812594E-2,-1.7466354E-1,7.619282E-2,-2.6177008E-2,-1.3866283E-1,2.076516E-2,-5.4759394E-2,-1.0355114E-1,4.7620855E-2,-1.2429153E-1],"split_indices":[1,1,1,1,0,0,0,1,0,0,0,1,1,1,1,0,0,0,0,0,0,0,0,0,0,0,0,0,0,0,0],"split_type":[0,0,0,0,0,0,0,0,0,0,0,0,0,0,0,0,0,0,0,0,0,0,0,0,0,0,0,0,0,0,0],"sum_hessian":[3.753E3,7E2,3.053E3,4.62E2,2.38E2,2.562E3,4.91E2,3.98E2,6.4E1,1.52E2,8.6E1,1.492E3,1.07E3,3.83E2,1.08E2,6.9E1,3.29E2,4.5E1,1.9E1,1.07E2,4.5E1,6.4E1,2.2E1,1.08E3,4.12E2,1E2,9.7E2,1.58E2,2.25E2,8.7E1,2.1E1],"tree_param":{"num_deleted":"0","num_feature":"2","num_nodes":"31","size_leaf_vector":"1"}},{"base_weights":[-3.596805E-3,-6.2300116E-1,1.3857938E-1,-7.856161E-1,-3.053706E-1,3.9607292E-1,-2.2687353E-1,-6.19917E-1,-8.307169E-1,1.1323998E-1,-4.4184458E-1,1.9324043E-1,1.0341724E0,-1.2371159E0,2.9921027E-2,-1.0891068E-2,-7.417389E-2,-1.0539111E-1,-7.050777E-2,-3.067713E-2,-1.5795659E-1,2.7356302E-2,-9.3075134E-2,1.7503127E-1,4.0846053E-3,-1.6056332E-1,-9.153738E-2,3.925666E-2,-3.0846654E-2],"categories":[],"categories_nodes":[],"categories_segments":[],"categories_sizes":[],"default_left":[0,0,0,0,0,0,0,0,0,0,0,0,0,0,0,0,0,0,0,0,0,0,0,0,0,0,0,0,0],"id":25,"left_children":[1,3,5,7,9,11,13,15,17,-1,19,21,23,25,27,-1,-1,-1,-1,-1,-1,-1,-1,-1,-1,-1,-1,-1,-1],"loss_changes":[3.3068066E2,3.5967773E1,2.8747668E2,2.9451294E0,4.7396515E1,2.3173389E2,3.276905E2,6.3311424E0,9.380035E0,0E0,3.317043E1,1.2312833E2,3.0723645E2,2.8883545E1,1.2381754E2,0E0,0E0,0E0,0E0,0E0,0E0,0E0,0E0,0E0,0E0,0E0,0E0,0E0,0E0],"parents":[2147483647,0,0,1,1,2,2,3,3,4,4,5,5,6,6,7,7,8,8,10,10,11,11,12,12,13,13,14,14],"right_children":[2,4,6,8,10,12,14,16,18,-1,20,22,24,26,28,-1,-1,-1,-1,-1,-1,-1,-1,-1,-1,-1,-1,-1,-1],"split_conditions":[6E0,4E0,1.7E1,2E0,2E0,1.5E1,2E0,2E0,5E0,1.1323998E-1,7E0,1.4E1,5E0,2E1,2E1,-1.0891068E-2,-7.417389E-2,-1.0539111E-1,-7.050777E-2,-3.067713E-2,-1.5795659E-1,2.7356302E-2,-9.3075134E-2,1.7503127E-1,4.0846053E-3,-1.6056332E-1,-9.153738E-2,3.925666E-2,-3.0846654E-2],"split_indices":[1,1,1,0,0,1,0,1,0,0,0,1,0,1,1,0,0,0,0,0,0,0,0,0,0,0,0,0,0],"split_type":[0,0,0,0,0,0,0,0,0,0,0,0,0,0,0,0,0,0,0,0,0,0,0,0,0,0,0,0,0],"sum_hessian":[3.753E3,7E2,3.053E3,4.62E2,2.38E2,1.791E3,1.262E3,1.02E2,3.6E2,2E1,2.18E2,1.36E3,4.31E2,2.55E2,1.007E3,2E1,8.2E1,1.27E2,2.33E2,1.96E2,2.2E1,1.27E3,9E1,2.5E2,1.81E2,1.17E2,1.38E2,4.86E2,5.21E2],"tree_param":{"num_deleted":"0","num_feature":"2","num_nodes":"29","size_leaf_vector":"1"}},{"base_weights":[-3.3618023E-3,-5.611809E-1,1.24678314E-1,-7.0761806E-1,-2.751491E-1,2.4763735E-1,-5.161117E-1,-7.3827696E-1,-5.085329E-1,3.302488E-2,-8.139476E-1,-2.2384392E-1,3.321038E-1,-8.2838595E-1,-9.976643E-2,-5.221429E-2,-7.818864E-2,-3.7168868E-2,-7.9784796E-2,-4.998166E-2,1.283326E-1,-5.8397647E-2,-1.428477E-1,3.7956592E-1,-4.285394E-2,1.0811658E-1,1.8973147E-2,-5.6976836E-2,-9.989455E-2,2.7323311E-2,-3.6156E-2],"categories":[],"categories_nodes":[],"categories_segments":[],"categories_sizes":[],"default_left":[0,0,0,0,0,0,0,0,0,0,0,0,0,0,0,0,0,0,0,0,0,0,0,0,0,0,0,0,0,0,0],"id":26,"left_children":[1,3,5,7,9,11,13,15,17,19,21,23,25,27,29,-1,-1,-1,-1,-1,-1,-1,-1,-1,-1,-1,-1,-1,-1,-1,-1],"loss_changes":[2.6819275E2,2.916716E1,2.4075523E2,2.450592E0,3.9711323E1,1.0214415E2,6.38842E1,3.3525085E0,2.2768688E0,1.02571915E2,1.1460987E1,3.2250845E2,2.3164255E2,1.1825653E1,2.0800352E1,0E0,0E0,0E0,0E0,0E0,0E0,0E0,0E0,0E0,0E0,0E0,0E0,0E0,0E0,0E0,0E0],"parents":[2147483647,0,0,1,1,2,2,3,3,4,4,5,5,6,6,7,7,8,8,9,9,10,10,11,11,12,12,13,13,14,14],"right_children":[2,4,6,8,10,12,14,16,18,20,22,24,26,28,30,-1,-1,-1,-1,-1,-1,-1,-1,-1,-1,-1,-1,-1,-1,-1,-1],"split_conditions":[6E0,4E0,2.1E1,3E0,5E0,2E0,4E0,1E0,7E0,4E0,7E0,7E0,3E0,2.2E1,2.2E1,-5.221429E-2,-7.818864E-2,-3.7168868E-2,-7.9784796E-2,-4.998166E-2,1.283326E-1,-5.8397647E-2,-1.428477E-1,3.7956592E-1,-4.285394E-2,1.0811658E-1,1.8973147E-2,-5.6976836E-2,-9.989455E-2,2.7323311E-2,-3.6156E-2],"split_indices":[1,1,1,1,0,0,0,1,0,0,0,1,0,1,1,0,0,0,0,0,0,0,0,0,0,0,0,0,0,0,0],"split_type":[0,0,0,0,0,0,0,0,0,0,0,0,0,0,0,0,0,0,0,0,0,0,0,0,0,0,0,0,0,0,0],"sum_hessian":[3.753E3,7E2,3.053E3,4.62E2,2.38E2,2.562E3,4.91E2,3.98E2,6.4E1,1.52E2,8.6E1,3.89E2,2.173E3,2.8E2,2.11E2,6.9E1,3.29E2,4.5E1,1.9E1,1.07E2,4.5E1,6.4E1,2.2E1,1.8E1,3.71E2,3.46E2,1.827E3,1.13E2,1.67E2,8.7E1,1.24E2],"tree_param":{"num_deleted":"0","num_feature":"2","num_nodes":"31","size_leaf_vector":"1"}},{"base_weights":[-3.0444893E-3,-5.055909E-1,1.1230852E-1,-6.3739055E-1,-2.4814805E-1,3.3150217E-1,-1.9878201E-1,-4.888884E-1,-6.779954E-1,1.0721549E-1,-3.7361935E-1,2.2102408E-1,1.3911761E0,-1.0537353E0,1.8546196E-2,-2.407292E-3,-6.006021E-2,-8.7623E-2,-5.6666195E-2,-8.0849275E-2,-8.0873305E-3,7.783442E-2,1.6471846E-3,2.1181408E-1,4.7373068E-2,-1.4039396E-1,-7.488587E-2,3.170671E-2,-2.5999447E-2],"categories":[],"categories_nodes":[],"categories_segments":[],"categories_sizes":[],"default_left":[0,0,0,0,0,0,0,0,0,0,0,0,0,0,0,0,0,0,0,0,0,0,0,0,0,0,0,0,0],"id":27,"left_children":[1,3,5,7,9,11,13,15,17,-1,19,21,23,25,27,-1,-1,-1,-1,-1,-1,-1,-1,-1,-1,-1,-1,-1,-1],"loss_changes":[2.1767706E2,2.362738E1,2.0831529E2,2.4603882E0,3.9993347E1,2.094833E2,2.3469185E2,5.3339424E0,7.4707947E0,0E0,2.7814953E1,1.8512494E2,1.1171118E2,2.6281525E1,8.389785E1,0E0,0E0,0E0,0E0,0E0,0E0,0E0,0E0,0E0,0E0,0E0,0E0,0E0,0E0],"parents":[2147483647,0,0,1,1,2,2,3,3,4,4,5,5,6,6,7,7,8,8,10,10,11,11,12,12,13,13,14,14],"right_children":[2,4,6,8,10,12,14,16,18,-1,20,22,24,26,28,-1,-1,-1,-1,-1,-1,-1,-1,-1,-1,-1,-1,-1,-1],"split_conditions":[6E0,4E0,1.7E1,2E0,2E0,1.6E1,2E0,2E0,5E0,1.0721549E-1,4E0,3E0,5E0,2E1,2E1,-2.407292E-3,-6.006021E-2,-8.7623E-2,-5.6666195E-2,-8.0849275E-2,-8.0873305E-3,7.783442E-2,1.6471846E-3,2.1181408E-1,4.7373068E-2,-1.4039396E-1,-7.488587E-2,3.170671E-2,-2.5999447E-2],"split_indices":[1,1,1,0,0,1,0,1,0,0,0,0,0,1,1,0,0,0,0,0,0,0,0,0,0,0,0,0,0],"split_type":[0,0,0,0,0,0,0,0,0,0,0,0,0,0,0,0,0,0,0,0,0,0,0,0,0,0,0,0,0],"sum_hessian":[3.753E3,7E2,3.053E3,4.62E2,2.38E2,1.791E3,1.262E3,1.02E2,3.6E2,2E1,2.18E2,1.623E3,1.68E2,2.55E2,1.007E3,2E1,8.2E1,1.27E2,2.33E2,8.7E1,1.31E2,4.35E2,1.188E3,9.3E1,7.5E1,1.17E2,1.38E2,4.86E2,5.21E2],"tree_param":{"num_deleted":"0","num_feature":"2","num_nodes":"29","size_leaf_vector":"1"}},{"base_weights":[-2.7560897E-3,-4.553006E-1,1.0111963E-1,-6.005823E-1,-2.6248634E-1,2.9854032E-1,-1.790696E-1,-4.0508857E-1,-6.402308E-1,4.4047847E-2,-6.5992117E-1,1.9896996E-1,1.2535919E0,-9.492026E-1,1.6697384E-2,-2.4131423E-2,-6.9022976E-2,-6.995026E-2,-4.8624784E-2,-3.6256492E-2,1.1656951E-1,-4.8583303E-2,-1.0213997E-1,7.006877E-2,1.4825399E-3,1.9085793E-1,4.2698123E-2,-1.2647353E-1,-6.745116E-2,-2.786913E-2,2.450881E-2],"categories":[],"categories_nodes":[],"categories_segments":[],"categories_sizes":[],"default_left":[0,0,0,0,0,0,0,0,0,0,0,0,0,0,0,0,0,0,0,0,0,0,0,0,0,0,0,0,0,0,0],"id":28,"left_children":[1,3,5,7,9,11,13,15,17,19,21,23,25,27,29,-1,-1,-1,-1,-1,-1,-1,-1,-1,-1,-1,-1,-1,-1,-1,-1],"loss_changes":[1.765155E2,1.947905E1,1.6898593E2,2.8332977E0,3.694276E1,1.7016048E2,1.9043408E2,3.102356E0,2.6717377E0,7.886773E1,7.810417E0,1.5002869E2,9.068497E1,2.1335464E1,6.807204E1,0E0,0E0,0E0,0E0,0E0,0E0,0E0,0E0,0E0,0E0,0E0,0E0,0E0,0E0,0E0,0E0],"parents":[2147483647,0,0,1,1,2,2,3,3,4,4,5,5,6,6,7,7,8,8,9,9,10,10,11,11,12,12,13,13,14,14],"right_children":[2,4,6,8,10,12,14,16,18,20,22,24,26,28,30,-1,-1,-1,-1,-1,-1,-1,-1,-1,-1,-1,-1,-1,-1,-1,-1],"split_conditions":[6E0,3E0,1.7E1,1E0,5E0,1.6E1,2E0,6E0,7E0,4E0,7E0,3E0,5E0,2E1,4E0,-2.4131423E-2,-6.9022976E-2,-6.995026E-2,-4.8624784E-2,-3.6256492E-2,1.1656951E-1,-4.8583303E-2,-1.0213997E-1,7.006877E-2,1.4825399E-3,1.9085793E-1,4.2698123E-2,-1.2647353E-1,-6.745116E-2,-2.786913E-2,2.450881E-2],"split_indices":[1,1,1,1,0,1,0,0,0,0,0,0,0,1,0,0,0,0,0,0,0,0,0,0,0,0,0,0,0,0,0],"split_type":[0,0,0,0,0,0,0,0,0,0,0,0,0,0,0,0,0,0,0,0,0,0,0,0,0,0,0,0,0,0,0],"sum_hessian":[3.753E3,7E2,3.053E3,3.98E2,3.02E2,1.791E3,1.262E3,6.9E1,3.29E2,1.71E2,1.31E2,1.623E3,1.68E2,2.55E2,1.007E3,4.5E1,2.4E1,2.35E2,9.4E1,1.26E2,4.5E1,9E1,4.1E1,4.35E2,1.188E3,9.3E1,7.5E1,1.17E2,1.38E2,4.39E2,5.68E2],"tree_param":{"num_deleted":"0","num_feature":"2","num_nodes":"31","size_leaf_vector":"1"}},{"base_weights":[-2.5267527E-3,-4.1017288E-1,9.1043144E-2,-5.4105467E-1,-2.364699E-1,1.645359E-1,-6.0468125E-1,-6.181371E-1,-4.5213693E-1,4.0110305E-2,-5.9507084E-1,-2.3273644E-1,2.3907113E-1,-1.1377283E-1,-2.2617316E-1,-4.4372987E-2,-7.277627E-2,-2.1628244E-2,-5.308939E-2,-3.2659348E-2,1.0516597E-1,-4.377835E-2,-9.216918E-2,3.2959506E-1,-3.9219305E-2,8.009022E-2,1.2623392E-2,-7.853842E-3,-6.538711E-2],"categories":[],"categories_nodes":[],"categories_segments":[],"categories_sizes":[],"default_left":[0,0,0,0,0,0,0,0,0,0,0,0,0,0,0,0,0,0,0,0,0,0,0,0,0,0,0,0,0],"id":29,"left_children":[1,3,5,7,9,11,13,15,17,19,21,23,25,-1,27,-1,-1,-1,-1,-1,-1,-1,-1,-1,-1,-1,-1,-1,-1],"loss_changes":[1.4322769E2,1.58089905E1,1.5625264E2,2.4552612E0,3.0075989E1,8.187025E1,5.865737E1,3.7112732E0,3.3958893E0,6.414498E1,6.377781E0,2.4718054E2,1.4742007E2,0E0,1.0809255E1,0E0,0E0,0E0,0E0,0E0,0E0,0E0,0E0,0E0,0E0,0E0,0E0,0E0,0E0],"parents":[2147483647,0,0,1,1,2,2,3,3,4,4,5,5,6,6,7,7,8,8,9,9,10,10,11,11,12,12,14,14],"right_children":[2,4,6,8,10,12,14,16,18,20,22,24,26,-1,28,-1,-1,-1,-1,-1,-1,-1,-1,-1,-1,-1,-1,-1,-1],"split_conditions":[6E0,3E0,2.2E1,5E0,5E0,2E0,3E0,2E0,6E0,4E0,7E0,7E0,3E0,-1.1377283E-1,2.3E1,-4.4372987E-2,-7.277627E-2,-2.1628244E-2,-5.308939E-2,-3.2659348E-2,1.0516597E-1,-4.377835E-2,-9.216918E-2,3.2959506E-1,-3.9219305E-2,8.009022E-2,1.2623392E-2,-7.853842E-3,-6.538711E-2],"split_indices":[1,1,1,0,0,0,0,0,0,0,0,1,0,0,1,0,0,0,0,0,0,0,0,0,0,0,0,0,0],"split_type":[0,0,0,0,0,0,0,0,0,0,0,0,0,0,0,0,0,0,0,0,0,0,0,0,0,0,0,0,0],"sum_hessian":[3.753E3,7E2,3.053E3,3.98E2,3.02E2,2.762E3,2.91E2,2.1E2,1.88E2,1.71E2,1.31E2,4.36E2,2.326E3,1.2E2,1.71E2,8.3E1,1.27E2,4.8E1,1.4E2,1.26E2,4.5E1,9E1,4.1E1,1.8E1,4.18E2,3.88E2,1.938E3,1.28E2,4.3E1],"tree_param":{"num_deleted":"0","num_feature":"2","num_nodes":"29","size_leaf_vector":"1"}},{"base_weights":[-2.2896624E-3,-3.6951965E-1,8.2003236E-2,-4.8742995E-1,-2.1303211E-1,1.482212E-1,-5.448537E-1,-3.1772923E-1,-5.2195E-1,5.188861E-1,-3.2312188E-1,-2.0879866E-1,2.1520421E-1,-1.0248958E-1,-2.0398189E-1,-1.720871E-2,-5.7300158E-2,-5.7462342E-2,-3.8560394E-2,-4.9690963E-3,1.0356791E-1,-6.604288E-2,-1.5359573E-2,2.9837024E-1,-3.530677E-2,7.2101824E-2,1.1361739E-2,-7.074566E-3,-5.8997035E-2],"categories":[],"categories_nodes":[],"categories_segments":[],"categories_sizes":[],"default_left":[0,0,0,0,0,0,0,0,0,0,0,0,0,0,0,0,0,0,0,0,0,0,0,0,0,0,0,0,0],"id":30,"left_children":[1,3,5,7,9,11,13,15,17,19,21,23,25,-1,27,-1,-1,-1,-1,-1,-1,-1,-1,-1,-1,-1,-1,-1,-1],"loss_changes":[1.16234924E2,1.283065E1,1.2684982E2,2.1715317E0,2.4582401E1,6.612005E1,4.7571716E1,2.5038824E0,2.1484146E0,1.1804931E1,1.4994698E1,2.0232649E2,1.1948873E2,0E0,8.80382E0,0E0,0E0,0E0,0E0,0E0,0E0,0E0,0E0,0E0,0E0,0E0,0E0,0E0,0E0],"parents":[2147483647,0,0,1,1,2,2,3,3,4,4,5,5,6,6,7,7,8,8,9,9,10,10,11,11,12,12,14,14],"right_children":[2,4,6,8,10,12,14,16,18,20,22,24,26,-1,28,-1,-1,-1,-1,-1,-1,-1,-1,-1,-1,-1,-1,-1,-1],"split_conditions":[6E0,3E0,2.2E1,1E0,2E0,2E0,3E0,6E0,7E0,4E0,4E0,7E0,3E0,-1.0248958E-1,2.3E1,-1.720871E-2,-5.7300158E-2,-5.7462342E-2,-3.8560394E-2,-4.9690963E-3,1.0356791E-1,-6.604288E-2,-1.5359573E-2,2.9837024E-1,-3.530677E-2,7.2101824E-2,1.1361739E-2,-7.074566E-3,-5.8997035E-2],"split_indices":[1,1,1,1,0,0,0,0,0,1,0,1,0,0,1,0,0,0,0,0,0,0,0,0,0,0,0,0,0],"split_type":[0,0,0,0,0,0,0,0,0,0,0,0,0,0,0,0,0,0,0,0,0,0,0,0,0,0,0,0,0],"sum_hessian":[3.753E3,7E2,3.053E3,3.98E2,3.02E2,2.762E3,2.91E2,6.9E1,3.29E2,3.9E1,2.63E2,4.36E2,2.326E3,1.2E2,1.71E2,4.5E1,2.4E1,2.35E2,9.4E1,1.9E1,2E1,8.7E1,1.76E2,1.8E1,4.18E2,3.88E2,1.938E3,1.28E2,4.3E1],"tree_param":{"num_deleted":"0","num_feature":"2","num_nodes":"29","size_leaf_vector":"1"}},{"base_weights":[-2.0542801E-3,-2.766353E-1,9.438082E-2,2.2201783E-3,-6.457921E-1,3.0363002E-1,-1.570249E-1,-5.038855E-1,3.0996102E-1,-4.3032825E-1,-1.3220559E0,2.0108868E-1,1.1203438E0,-4.6009308E-1,2.13431E-1,-3.4310665E-2,-6.0546E-2,6.2044125E-2,1.509446E-3,-3.674106E-2,-5.946088E-2,-1.5528423E-1,-1.0653471E-1,6.184947E-2,2.6373684E-3,1.7222208E-1,3.611758E-2,6.218338E-2,-6.6679806E-2,-7.688988E-2,4.0697213E-2],"categories":[],"categories_nodes":[],"categories_segments":[],"categories_sizes":[],"default_left":[0,0,0,0,0,0,0,0,0,0,0,0,0,0,0,0,0,0,0,0,0,0,0,0,0,0,0,0,0,0,0],"id":31,"left_children":[1,3,5,7,9,11,13,15,17,19,21,23,25,27,29,-1,-1,-1,-1,-1,-1,-1,-1,-1,-1,-1,-1,-1,-1,-1,-1],"loss_changes":[9.94292E1,1.0047224E2,1.4624098E2,8.690859E1,6.0629486E1,1.2681882E2,1.418995E2,3.2381096E0,3.1758572E1,3.0891E0,4.329422E0,9.8362335E1,7.6598404E1,1.5584421E2,1.0849188E2,0E0,0E0,0E0,0E0,0E0,0E0,0E0,0E0,0E0,0E0,0E0,0E0,0E0,0E0,0E0,0E0],"parents":[2147483647,0,0,1,1,2,2,3,3,4,4,5,5,6,6,7,7,8,8,9,9,10,10,11,11,12,12,13,13,14,14],"right_children":[2,4,6,8,10,12,14,16,18,20,22,24,26,28,30,-1,-1,-1,-1,-1,-1,-1,-1,-1,-1,-1,-1,-1,-1,-1,-1],"split_conditions":[8E0,5E0,1.7E1,3E0,6E0,1.6E1,4E0,2E0,3E0,4E0,6E0,1.1E1,5E0,1.8E1,1.8E1,-3.4310665E-2,-6.0546E-2,6.2044125E-2,1.509446E-3,-3.674106E-2,-5.946088E-2,-1.5528423E-1,-1.0653471E-1,6.184947E-2,2.6373684E-3,1.7222208E-1,3.611758E-2,6.218338E-2,-6.6679806E-2,-7.688988E-2,4.0697213E-2],"split_indices":[1,0,1,1,1,1,0,0,0,1,0,1,0,1,1,0,0,0,0,0,0,0,0,0,0,0,0,0,0,0,0],"split_type":[0,0,0,0,0,0,0,0,0,0,0,0,0,0,0,0,0,0,0,0,0,0,0,0,0,0,0,0,0,0,0],"sum_hessian":[3.753E3,9.75E2,2.778E3,5.56E2,4.19E2,1.516E3,1.262E3,2.1E2,3.46E2,3.19E2,1E2,1.348E3,1.68E2,6.94E2,5.68E2,8.3E1,1.27E2,1.68E2,1.78E2,2.33E2,8.6E1,5E1,5E1,3.97E2,9.51E2,9.3E1,7.5E1,1.11E2,5.83E2,9.3E1,4.75E2],"tree_param":{"num_deleted":"0","num_feature":"2","num_nodes":"31","size_leaf_vector":"1"}},{"base_weights":[-1.8908398E-3,-2.433031E-1,8.777978E-2,1.9420628E-3,-5.390911E-1,-4.005475E-1,1.870802E-1,-4.2548254E-1,3.0165464E-1,-3.8759598E-1,-8.766921E-1,-9.265722E-1,-1.7893916E-1,8.605284E-1,7.926063E-2,-2.7234405E-2,-5.453871E-2,9.732648E-2,1.3831613E-2,-3.3082634E-2,-5.3583156E-2,-1.1924427E-1,-9.651362E-3,-9.723081E-2,-6.827832E-2,1.6684845E-1,-6.978281E-2,2.3746143E-1,6.0499366E-2,-1.9951168E-2,2.4267698E-2],"categories":[],"categories_nodes":[],"categories_segments":[],"categories_sizes":[],"default_left":[0,0,0,0,0,0,0,0,0,0,0,0,0,0,0,0,0,0,0,0,0,0,0,0,0,0,0,0,0,0,0],"id":32,"left_children":[1,3,5,7,9,11,13,15,17,19,21,23,25,27,29,-1,-1,-1,-1,-1,-1,-1,-1,-1,-1,-1,-1,-1,-1,-1,-1],"loss_changes":[8.128641E1,7.377481E1,1.3284358E2,7.148257E1,2.3237991E1,5.3806786E1,1.651942E2,4.074726E0,3.5846916E1,2.5156212E0,3.486544E1,8.636551E-1,3.14629E2,1.2005049E2,8.9474754E1,0E0,0E0,0E0,0E0,0E0,0E0,0E0,0E0,0E0,0E0,0E0,0E0,0E0,0E0,0E0,0E0],"parents":[2147483647,0,0,1,1,2,2,3,3,4,4,5,5,6,6,7,7,8,8,9,9,10,10,11,11,12,12,13,13,14,14],"right_children":[2,4,6,8,10,12,14,16,18,20,22,24,26,28,30,-1,-1,-1,-1,-1,-1,-1,-1,-1,-1,-1,-1,-1,-1,-1,-1],"split_conditions":[9E0,5E0,2E0,4E0,6E0,1.4E1,1.1E1,2E0,2E0,4E0,8E0,1.3E1,1.7E1,3E0,4E0,-2.7234405E-2,-5.453871E-2,9.732648E-2,1.3831613E-2,-3.3082634E-2,-5.3583156E-2,-1.1924427E-1,-9.651362E-3,-9.723081E-2,-6.827832E-2,1.6684845E-1,-6.978281E-2,2.3746143E-1,6.0499366E-2,-1.9951168E-2,2.4267698E-2],"split_indices":[1,0,0,1,1,1,1,0,0,1,1,1,1,0,0,0,0,0,0,0,0,0,0,0,0,0,0,0,0,0,0],"split_type":[0,0,0,0,0,0,0,0,0,0,0,0,0,0,0,0,0,0,0,0,0,0,0,0,0,0,0,0,0,0,0],"sum_hessian":[3.753E3,1.016E3,2.737E3,5.56E2,4.6E2,4.62E2,2.275E3,2.29E2,3.27E2,3.19E2,1.41E2,1.36E2,3.26E2,3.13E2,1.962E3,1.02E2,1.27E2,6.3E1,2.64E2,2.33E2,8.6E1,1E2,4.1E1,1.12E2,2.4E1,7.1E1,2.55E2,4.4E1,2.69E2,7.25E2,1.237E3],"tree_param":{"num_deleted":"0","num_feature":"2","num_nodes":"31","size_leaf_vector":"1"}},{"base_weights":[-1.6890267E-3,-2.8479388E-1,6.1367117E-2,-7.140677E-2,-3.309893E-1,1.1581456E-1,-4.572125E-1,-2.4537419E-1,7.8526236E-2,-5.579855E-1,-2.2690064E-1,-1.7281197E-1,1.6957478E-1,-8.089219E-2,-2.0713085E-1,2.0043949E-2,-3.552141E-2,-4.593913E-2,-6.4709336E-2,2.6655827E-2,-3.6458086E-2,2.5500533E-1,-2.9587075E-2,6.357424E-2,7.6778904E-3,-7.2954902E-3,-5.9580285E-2],"categories":[],"categories_nodes":[],"categories_segments":[],"categories_sizes":[],"default_left":[0,0,0,0,0,0,0,0,0,0,0,0,0,0,0,0,0,0,0,0,0,0,0,0,0,0,0],"id":33,"left_children":[1,3,5,7,9,11,13,15,-1,17,19,21,23,-1,25,-1,-1,-1,-1,-1,-1,-1,-1,-1,-1,-1,-1],"loss_changes":[6.703201E1,6.718899E0,8.6763664E1,1.8523682E1,1.3152176E1,4.3165535E1,2.5515617E1,5.1149173E0,0E0,1.2489815E0,2.638978E1,1.4718115E2,1.01348946E2,0E0,8.926407E0,0E0,0E0,0E0,0E0,0E0,0E0,0E0,0E0,0E0,0E0,0E0,0E0],"parents":[2147483647,0,0,1,1,2,2,3,3,4,4,5,5,6,6,7,7,9,9,10,10,11,11,12,12,14,14],"right_children":[2,4,6,8,10,12,14,16,-1,18,20,22,24,-1,26,-1,-1,-1,-1,-1,-1,-1,-1,-1,-1,-1,-1],"split_conditions":[5E0,2E0,2.2E1,4E0,4E0,2E0,3E0,2E0,7.8526236E-2,3E0,5E0,7E0,3E0,-8.089219E-2,2.3E1,2.0043949E-2,-3.552141E-2,-4.593913E-2,-6.4709336E-2,2.6655827E-2,-3.6458086E-2,2.5500533E-1,-2.9587075E-2,6.357424E-2,7.6778904E-3,-7.2954902E-3,-5.9580285E-2],"split_indices":[1,0,1,1,0,0,0,1,0,0,0,1,0,0,1,0,0,0,0,0,0,0,0,0,0,0,0],"split_type":[0,0,0,0,0,0,0,0,0,0,0,0,0,0,0,0,0,0,0,0,0,0,0,0,0,0,0],"sum_hessian":[3.753E3,6.83E2,3.07E3,1.22E2,5.61E2,2.779E3,2.91E2,1.02E2,2E1,1.75E2,3.86E2,4.36E2,2.343E3,1.2E2,1.71E2,2E1,8.2E1,8.6E1,8.9E1,8.4E1,3.02E2,1.8E1,4.18E2,3.88E2,1.955E3,1.28E2,4.3E1],"tree_param":{"num_deleted":"0","num_feature":"2","num_nodes":"27","size_leaf_vector":"1"}},{"base_weights":[-1.49542E-3,-2.0839673E-1,7.535634E-2,3.8560105E-3,-4.6439755E-1,-1.271749E-1,2.5272766E-1,-3.834652E-1,2.3936298E-1,-3.1510797E-1,-7.9755443E-1,2.309037E-1,-5.537084E-1,6.987593E-1,7.071984E-2,-2.604257E-2,-4.6121407E-2,4.8593625E-2,5.227542E-4,-1.0642871E-2,-3.506446E-2,-1.0819807E-1,-9.458737E-3,5.105853E-2,-3.3797547E-2,-1.5969732E-1,-3.6040712E-2,-1.9139317E-1,9.841893E-2,1.0128801E-1,-1.2944805E-2],"categories":[],"categories_nodes":[],"categories_segments":[],"categories_sizes":[],"default_left":[0,0,0,0,0,0,0,0,0,0,0,0,0,0,0,0,0,0,0,0,0,0,0,0,0,0,0,0,0,0,0],"id":34,"left_children":[1,3,5,7,9,11,13,15,17,19,21,23,25,27,29,-1,-1,-1,-1,-1,-1,-1,-1,-1,-1,-1,-1,-1,-1,-1,-1],"loss_changes":[5.9707043E1,5.5262394E1,9.8389946E1,5.0899574E1,2.2677383E1,1.9547272E2,1.18475204E2,1.8983536E0,2.0030304E1,2.3357239E0,2.8289474E1,1.1090967E2,1.1719643E2,3.1733185E2,1.9588779E2,0E0,0E0,0E0,0E0,0E0,0E0,0E0,0E0,0E0,0E0,0E0,0E0,0E0,0E0,0E0,0E0],"parents":[2147483647,0,0,1,1,2,2,3,3,4,4,5,5,6,6,7,7,8,8,9,9,10,10,11,11,12,12,13,13,14,14],"right_children":[2,4,6,8,10,12,14,16,18,20,22,24,26,28,30,-1,-1,-1,-1,-1,-1,-1,-1,-1,-1,-1,-1,-1,-1,-1,-1],"split_conditions":[9E0,5E0,4E0,3E0,6E0,1.8E1,5E0,2E0,3E0,1E0,8E0,3E0,1.9E1,1E1,1.1E1,-2.604257E-2,-4.6121407E-2,4.8593625E-2,5.227542E-4,-1.0642871E-2,-3.506446E-2,-1.0819807E-1,-9.458737E-3,5.105853E-2,-3.3797547E-2,-1.5969732E-1,-3.6040712E-2,-1.9139317E-1,9.841893E-2,1.0128801E-1,-1.2944805E-2],"split_indices":[1,0,0,1,1,1,0,0,0,1,1,0,1,1,1,0,0,0,0,0,0,0,0,0,0,0,0,0,0,0,0],"split_type":[0,0,0,0,0,0,0,0,0,0,0,0,0,0,0,0,0,0,0,0,0,0,0,0,0,0,0,0,0,0,0],"sum_hessian":[3.753E3,1.016E3,2.737E3,5.56E2,4.6E2,1.278E3,1.459E3,2.1E2,3.46E2,3.19E2,1.41E2,6.95E2,5.83E2,4.22E2,1.037E3,8.3E1,1.27E2,1.68E2,1.78E2,4.7E1,2.72E2,1E2,4.1E1,4.66E2,2.29E2,9E1,4.93E2,4.1E1,3.81E2,1.81E2,8.56E2],"tree_param":{"num_deleted":"0","num_feature":"2","num_nodes":"31","size_leaf_vector":"1"}},{"base_weights":[-1.4441357E-3,3.283773E-2,-4.0800804E-1,-1.877403E-1,1.24498956E-1,-6.929554E-1,-2.0517877E-1,3.4290724E-3,-4.183121E-1,-2.749356E-1,2.0105822E-1,-6.2460747E-2,-7.716362E-2,1.7573299E-2,-3.4980744E-1,-1.8830111E-2,4.1955125E-2,-2.837399E-2,-7.186275E-2,-8.5643716E-2,3.4911837E-3,7.244489E-2,1.0654602E-2,-5.800196E-2,-1.41862305E-2],"categories":[],"categories_nodes":[],"categories_segments":[],"categories_sizes":[],"default_left":[0,0,0,0,0,0,0,0,0,0,0,0,0,0,0,0,0,0,0,0,0,0,0,0,0],"id":35,"left_children":[1,3,5,7,9,11,13,15,17,19,21,-1,-1,-1,23,-1,-1,-1,-1,-1,-1,-1,-1,-1,-1],"loss_changes":[5.233579E1,7.003987E1,1.6734154E1,4.482903E1,7.488555E1,1.6872787E-1,9.537085E0,4.4518234E1,1.8427002E1,7.101955E1,1.01527626E2,0E0,0E0,0E0,5.901657E0,0E0,0E0,0E0,0E0,0E0,0E0,0E0,0E0,0E0,0E0],"parents":[2147483647,0,0,1,1,2,2,3,3,4,4,5,5,6,6,7,7,8,8,9,9,10,10,14,14],"right_children":[2,4,6,8,10,12,14,16,18,20,22,-1,-1,-1,24,-1,-1,-1,-1,-1,-1,-1,-1,-1,-1],"split_conditions":[2.2E1,9E0,3E0,5E0,2E0,2E0,4E0,5E0,6E0,1.4E1,1.1E1,-6.2460747E-2,-7.716362E-2,1.7573299E-2,5E0,-1.8830111E-2,4.1955125E-2,-2.837399E-2,-7.186275E-2,-8.5643716E-2,3.4911837E-3,7.244489E-2,1.0654602E-2,-5.800196E-2,-1.41862305E-2],"split_indices":[1,1,0,0,0,0,0,1,1,1,1,0,0,0,0,0,0,0,0,0,0,0,0,0,0],"split_type":[0,0,0,0,0,0,0,0,0,0,0,0,0,0,0,0,0,0,0,0,0,0,0,0,0],"sum_hessian":[3.753E3,3.462E3,2.91E2,1.016E3,2.446E3,1.2E2,1.71E2,5.56E2,4.6E2,3.93E2,2.053E3,6.9E1,5.1E1,4.7E1,1.24E2,3.81E2,1.75E2,3.19E2,1.41E2,1.36E2,2.57E2,3.13E2,1.74E3,5.8E1,6.6E1],"tree_param":{"num_deleted":"0","num_feature":"2","num_nodes":"25","size_leaf_vector":"1"}},{"base_weights":[-1.3717003E-3,4.031671E-2,-2.778512E-1,-1.7548911E-1,1.3235612E-1,-3.9809176E-1,1.4829773E-1,3.1273395E-3,-4.1195074E-1,-2.7644908E-1,2.0533401E-1,-3.397291E-1,-4.3739074E-1,4.135386E-1,-9.1940664E-2,-3.0604048E-2,2.199123E-2,-2.5545433E-2,-9.037022E-2,-7.714185E-2,4.6239323E-3,3.806581E-2,2.961788E-3,-3.3262093E-3,-7.289048E-2,-6.248138E-2,-2.1931924E-2,5.7518512E-2,2.534443E-2],"categories":[],"categories_nodes":[],"categories_segments":[],"categories_sizes":[],"default_left":[0,0,0,0,0,0,0,0,0,0,0,0,0,0,0,0,0,0,0,0,0,0,0,0,0,0,0,0,0],"id":36,"left_children":[1,3,5,7,9,11,13,15,17,19,21,23,25,27,-1,-1,-1,-1,-1,-1,-1,-1,-1,-1,-1,-1,-1,-1,-1],"loss_changes":[4.3279766E1,6.483502E1,2.5269314E1,4.1223557E1,6.831636E1,7.321396E-1,3.1248882E1,3.739908E1,3.2091225E1,5.5458824E1,5.9816452E1,1.8939606E1,9.0999565E0,2.131547E0,0E0,0E0,0E0,0E0,0E0,0E0,0E0,0E0,0E0,0E0,0E0,0E0,0E0,0E0,0E0],"parents":[2147483647,0,0,1,1,2,2,3,3,4,4,5,5,6,6,7,7,8,8,9,9,10,10,11,11,12,12,13,13],"right_children":[2,4,6,8,10,12,14,16,18,20,22,24,26,28,-1,-1,-1,-1,-1,-1,-1,-1,-1,-1,-1,-1,-1,-1,-1],"split_conditions":[2.1E1,8E0,5E0,5E0,2E0,2.2E1,2.3E1,4E0,6E0,1.4E1,5E0,3E0,3E0,2.2E1,-9.1940664E-2,-3.0604048E-2,2.199123E-2,-2.5545433E-2,-9.037022E-2,-7.714185E-2,4.6239323E-3,3.806581E-2,2.961788E-3,-3.3262093E-3,-7.289048E-2,-6.248138E-2,-2.1931924E-2,5.7518512E-2,2.534443E-2],"split_indices":[1,1,0,0,0,1,1,1,1,1,0,0,0,1,0,0,0,0,0,0,0,0,0,0,0,0,0,0,0],"split_type":[0,0,0,0,0,0,0,0,0,0,0,0,0,0,0,0,0,0,0,0,0,0,0,0,0,0,0,0,0],"sum_hessian":[3.753E3,3.262E3,4.91E2,9.75E2,2.287E3,3.83E2,1.08E2,5.56E2,4.19E2,3.46E2,1.941E3,1.58E2,2.25E2,8.7E1,2.1E1,2.29E2,3.27E2,3.19E2,1E2,1.36E2,2.1E2,9.71E2,9.7E2,8.9E1,6.9E1,1.2E2,1.05E2,4.2E1,4.5E1],"tree_param":{"num_deleted":"0","num_feature":"2","num_nodes":"29","size_leaf_vector":"1"}},{"base_weights":[-1.3211909E-3,3.6237355E-2,-2.5041106E-1,-6.1007854E-2,2.0280938E-1,-3.5870087E-1,1.3338432E-1,-2.1357113E-2,-9.191463E-1,6.290929E-1,-3.5995398E-2,-3.062355E-1,-3.9402518E-1,3.7312588E-1,-8.316448E-2,-1.5806781E-2,1.1262983E-2,-1.7296608E-1,6.763631E-3,9.771504E-2,-6.859046E-2,-6.9570415E-2,1.0996861E-2,-2.997264E-3,-6.570558E-2,-5.6284875E-2,-1.9759424E-2,5.190037E-2,2.2865042E-2],"categories":[],"categories_nodes":[],"categories_segments":[],"categories_sizes":[],"default_left":[0,0,0,0,0,0,0,0,0,0,0,0,0,0,0,0,0,0,0,0,0,0,0,0,0,0,0,0,0],"id":37,"left_children":[1,3,5,7,9,11,13,15,17,19,21,23,25,27,-1,-1,-1,-1,-1,-1,-1,-1,-1,-1,-1,-1,-1,-1,-1],"loss_changes":[3.5129448E1,5.2867527E1,2.0495916E1,7.010759E1,1.2248628E2,5.9100723E-1,2.5528284E1,3.61215E1,7.2898926E1,1.9839436E2,7.441526E1,1.5390366E1,7.383438E0,1.7359962E0,0E0,0E0,0E0,0E0,0E0,0E0,0E0,0E0,0E0,0E0,0E0,0E0,0E0,0E0,0E0],"parents":[2147483647,0,0,1,1,2,2,3,3,4,4,5,5,6,6,7,7,8,8,9,9,10,10,11,11,12,12,13,13],"right_children":[2,4,6,8,10,12,14,16,18,20,22,24,26,28,-1,-1,-1,-1,-1,-1,-1,-1,-1,-1,-1,-1,-1,-1,-1],"split_conditions":[2.1E1,1.5E1,5E0,1.4E1,1.7E1,2.2E1,2.3E1,8E0,6E0,6E0,2E0,3E0,3E0,2.2E1,-8.316448E-2,-1.5806781E-2,1.1262983E-2,-1.7296608E-1,6.763631E-3,9.771504E-2,-6.859046E-2,-6.9570415E-2,1.0996861E-2,-2.997264E-3,-6.570558E-2,-5.6284875E-2,-1.9759424E-2,5.190037E-2,2.2865042E-2],"split_indices":[1,1,0,1,1,1,1,1,0,0,0,0,0,1,0,0,0,0,0,0,0,0,0,0,0,0,0,0,0],"split_type":[0,0,0,0,0,0,0,0,0,0,0,0,0,0,0,0,0,0,0,0,0,0,0,0,0,0,0,0,0],"sum_hessian":[3.753E3,3.262E3,4.91E2,2.06E3,1.202E3,3.83E2,1.08E2,1.97E3,9E1,4.31E2,7.71E2,1.58E2,2.25E2,8.7E1,2.1E1,9.75E2,9.95E2,4.9E1,4.1E1,3.41E2,9E1,1.39E2,6.32E2,8.9E1,6.9E1,1.2E2,1.05E2,4.2E1,4.5E1],"tree_param":{"num_deleted":"0","num_feature":"2","num_nodes":"29","size_leaf_vector":"1"}},{"base_weights":[-1.2833189E-3,3.2552123E-2,-2.256812E-1,-5.4989927E-2,1.8250358E-1,-3.232077E-1,1.19968906E-1,-1.9223722E-2,-8.29058E-1,5.662507E-1,-3.2472126E-2,-2.7604398E-1,-3.5495916E-1,3.3666304E-1,-7.522608E-2,-6.1900145E-3,3.389433E-2,-1.5601541E-1,6.1033885E-3,8.7972075E-2,-6.1806824E-2,-3.0274993E-2,2.8092941E-2,-2.7008483E-3,-5.9228905E-2,-5.0702907E-2,-1.7802127E-2,4.6831086E-2,2.062822E-2],"categories":[],"categories_nodes":[],"categories_segments":[],"categories_sizes":[],"default_left":[0,0,0,0,0,0,0,0,0,0,0,0,0,0,0,0,0,0,0,0,0,0,0,0,0,0,0,0,0],"id":38,"left_children":[1,3,5,7,9,11,13,15,17,19,21,23,25,27,-1,-1,-1,-1,-1,-1,-1,-1,-1,-1,-1,-1,-1,-1,-1],"loss_changes":[2.8509972E1,4.2843624E1,1.662412E1,5.704383E1,9.926144E1,4.7706223E-1,2.085503E1,3.0148281E1,5.9312805E1,1.6092308E2,6.5477684E1,1.2506245E1,5.9907017E0,1.4138584E0,0E0,0E0,0E0,0E0,0E0,0E0,0E0,0E0,0E0,0E0,0E0,0E0,0E0,0E0,0E0],"parents":[2147483647,0,0,1,1,2,2,3,3,4,4,5,5,6,6,7,7,8,8,9,9,10,10,11,11,12,12,13,13],"right_children":[2,4,6,8,10,12,14,16,18,20,22,24,26,28,-1,-1,-1,-1,-1,-1,-1,-1,-1,-1,-1,-1,-1,-1,-1],"split_conditions":[2.1E1,1.5E1,5E0,1.4E1,1.7E1,2.2E1,2.3E1,1.3E1,6E0,6E0,4E0,3E0,3E0,2.2E1,-7.522608E-2,-6.1900145E-3,3.389433E-2,-1.5601541E-1,6.1033885E-3,8.7972075E-2,-6.1806824E-2,-3.0274993E-2,2.8092941E-2,-2.7008483E-3,-5.9228905E-2,-5.0702907E-2,-1.7802127E-2,4.6831086E-2,2.062822E-2],"split_indices":[1,1,0,1,1,1,1,1,0,0,0,0,0,1,0,0,0,0,0,0,0,0,0,0,0,0,0,0,0],"split_type":[0,0,0,0,0,0,0,0,0,0,0,0,0,0,0,0,0,0,0,0,0,0,0,0,0,0,0,0,0],"sum_hessian":[3.753E3,3.262E3,4.91E2,2.06E3,1.202E3,3.83E2,1.08E2,1.97E3,9E1,4.31E2,7.71E2,1.58E2,2.25E2,8.7E1,2.1E1,1.761E3,2.09E2,4.9E1,4.1E1,3.41E2,9E1,4.14E2,3.57E2,8.9E1,6.9E1,1.2E2,1.05E2,4.2E1,4.5E1],"tree_param":{"num_deleted":"0","num_feature":"2","num_nodes":"29","size_leaf_vector":"1"}},{"base_weights":[-1.2181262E-3,-1.7514564E-1,3.752093E-2,7.10247E-4,-2.1332203E-1,1.3148724E-1,-9.709711E-2,-1.382275E-1,6.821331E-2,-4.4673073E-1,-1.0662112E-1,1.2827376E-2,5.096859E-1,-2.7378288E-1,1.188848E-1,2.741819E-2,-2.4090666E-2,-2.9959455E-2,-5.9046246E-2,3.038459E-2,-2.2141675E-2,-1.2159563E-2,3.8623035E-2,7.920053E-2,-5.569398E-2,5.624898E-2,-4.3369513E-2,-7.637717E-2,2.9294116E-2],"categories":[],"categories_nodes":[],"categories_segments":[],"categories_sizes":[],"default_left":[0,0,0,0,0,0,0,0,0,0,0,0,0,0,0,0,0,0,0,0,0,0,0,0,0,0,0,0,0],"id":39,"left_children":[1,3,5,7,9,11,13,15,-1,17,19,21,23,25,27,-1,-1,-1,-1,-1,-1,-1,-1,-1,-1,-1,-1,-1,-1],"loss_changes":[2.5300228E1,4.5922165E0,3.8859566E1,1.1739356E1,1.3948936E1,8.117595E1,4.8229805E1,4.427675E0,0E0,3.5451736E0,1.8302647E1,6.9214226E1,1.3052888E2,9.318647E1,8.764033E1,0E0,0E0,0E0,0E0,0E0,0E0,0E0,0E0,0E0,0E0,0E0,0E0,0E0,0E0],"parents":[2147483647,0,0,1,1,2,2,3,3,4,4,5,5,6,6,7,7,9,9,10,10,11,11,12,12,13,13,14,14],"right_children":[2,4,6,8,10,12,14,16,-1,18,20,22,24,26,28,-1,-1,-1,-1,-1,-1,-1,-1,-1,-1,-1,-1,-1,-1],"split_conditions":[5E0,2E0,1.7E1,4E0,4E0,1.5E1,4E0,2E0,6.821331E-2,2E0,5E0,6E0,6E0,1.8E1,1.8E1,2.741819E-2,-2.4090666E-2,-2.9959455E-2,-5.9046246E-2,3.038459E-2,-2.2141675E-2,-1.2159563E-2,3.8623035E-2,7.920053E-2,-5.569398E-2,5.624898E-2,-4.3369513E-2,-7.637717E-2,2.9294116E-2],"split_indices":[1,0,1,1,0,1,0,1,0,1,0,0,0,1,1,0,0,0,0,0,0,0,0,0,0,0,0,0,0],"split_type":[0,0,0,0,0,0,0,0,0,0,0,0,0,0,0,0,0,0,0,0,0,0,0,0,0,0,0,0,0],"sum_hessian":[3.753E3,6.83E2,3.07E3,1.22E2,5.61E2,1.808E3,1.262E3,1.02E2,2E1,1.75E2,3.86E2,1.377E3,4.31E2,6.94E2,5.68E2,2E1,8.2E1,8.8E1,8.7E1,8.4E1,3.02E2,1.013E3,3.64E2,3.41E2,9E1,1.11E2,5.83E2,9.3E1,4.75E2],"tree_param":{"num_deleted":"0","num_feature":"2","num_nodes":"29","size_leaf_vector":"1"}},{"base_weights":[-1.0947492E-3,2.0489903E-2,-2.570761E-1,-1.2035095E-1,7.901653E-2,-4.1373417E-1,-1.4537436E-1,3.806264E-2,-3.11492E-1,4.5574686E-1,1.4658927E-2,-3.53241E-2,-4.8721086E-2,2.5924597E-2,-2.9958558E-1,-1.2415286E-2,3.8992774E-2,-1.8651884E-2,-5.90928E-2,-7.723542E-2,6.26386E-2,-1.9650053E-2,2.0002631E-2,-4.9331393E-2,-1.2451754E-2],"categories":[],"categories_nodes":[],"categories_segments":[],"categories_sizes":[],"default_left":[0,0,0,0,0,0,0,0,0,0,0,0,0,0,0,0,0,0,0,0,0,0,0,0,0],"id":40,"left_children":[1,3,5,7,9,11,13,15,17,19,21,-1,-1,-1,23,-1,-1,-1,-1,-1,-1,-1,-1,-1,-1],"loss_changes":[2.0747126E1,2.8554811E1,5.0495567E0,3.080594E1,5.932197E1,3.6572266E-1,1.0809949E1,3.1840843E1,1.5988819E1,7.529748E1,8.188538E1,0E0,0E0,0E0,4.178029E0,0E0,0E0,0E0,0E0,0E0,0E0,0E0,0E0,0E0,0E0],"parents":[2147483647,0,0,1,1,2,2,3,3,4,4,5,5,6,6,7,7,8,8,9,9,10,10,14,14],"right_children":[2,4,6,8,10,12,14,16,18,20,22,-1,-1,-1,24,-1,-1,-1,-1,-1,-1,-1,-1,-1,-1],"split_conditions":[2.2E1,9E0,3E0,5E0,1.1E1,2E0,4E0,5E0,6E0,2E0,4E0,-3.53241E-2,-4.8721086E-2,2.5924597E-2,5E0,-1.2415286E-2,3.8992774E-2,-1.8651884E-2,-5.90928E-2,-7.723542E-2,6.26386E-2,-1.9650053E-2,2.0002631E-2,-4.9331393E-2,-1.2451754E-2],"split_indices":[1,1,0,0,1,0,0,1,1,0,0,0,0,0,0,0,0,0,0,0,0,0,0,0,0],"split_type":[0,0,0,0,0,0,0,0,0,0,0,0,0,0,0,0,0,0,0,0,0,0,0,0,0],"sum_hessian":[3.753E3,3.462E3,2.91E2,1.016E3,2.446E3,1.2E2,1.71E2,5.56E2,4.6E2,3.56E2,2.09E3,6.9E1,5.1E1,4.7E1,1.24E2,3.81E2,1.75E2,3.19E2,1.41E2,4.3E1,3.13E2,9.77E2,1.113E3,5.8E1,6.6E1],"tree_param":{"num_deleted":"0","num_feature":"2","num_nodes":"25","size_leaf_vector":"1"}},{"base_weights":[-1.0346392E-3,5.681564E-2,-8.819555E-2,-5.559258E-2,4.0663138E-1,-1.6069287E-1,4.753403E-1,1.0755572E-1,-3.700607E-1,-3.4998584E-1,9.1749233E-1,2.052316E-2,-3.951511E-1,2.4346815E-1,1.997012E-1,3.163162E-2,-3.2680027E-2,-1.3751972E-1,-1.841549E-2,-1.1688763E-2,-4.4194636E-1,2.1679763E-1,-3.1591963E-2,-2.8051147E-2,4.9899366E-2,-5.0619956E-2,-2.9303102E-2,3.498351E-2,-6.965307E-2],"categories":[],"categories_nodes":[],"categories_segments":[],"categories_sizes":[],"default_left":[0,0,0,0,0,0,0,0,0,0,0,0,0,0,0,0,0,0,0,0,0,0,0,0,0,0,0,0,0],"id":41,"left_children":[1,3,5,7,9,11,13,15,17,19,21,23,25,-1,27,-1,-1,-1,-1,-1,-1,-1,-1,-1,-1,-1,-1,-1,-1],"loss_changes":[1.893374E1,8.877273E1,6.1276936E1,8.7719955E1,2.1252399E2,5.643164E1,9.186595E1,1.02204956E2,1.0887341E2,2.1006996E2,5.0657962E2,1.0816711E2,6.4176865E0,0E0,2.0561438E1,0E0,0E0,0E0,0E0,0E0,0E0,0E0,0E0,0E0,0E0,0E0,0E0,0E0,0E0],"parents":[2147483647,0,0,1,1,2,2,3,3,4,4,5,5,6,6,7,7,8,8,9,9,10,10,11,11,12,12,14,14],"right_children":[2,4,6,8,10,12,14,16,18,20,22,24,26,-1,28,-1,-1,-1,-1,-1,-1,-1,-1,-1,-1,-1,-1,-1,-1],"split_conditions":[5E0,4E0,1.9E1,1.8E1,1.3E1,1.2E1,2E1,3E0,1.9E1,1.2E1,1.9E1,9E0,6E0,2.4346815E-1,2.3E1,3.163162E-2,-3.2680027E-2,-1.3751972E-1,-1.841549E-2,-1.1688763E-2,-4.4194636E-1,2.1679763E-1,-3.1591963E-2,-2.8051147E-2,4.9899366E-2,-5.0619956E-2,-2.9303102E-2,3.498351E-2,-6.965307E-2],"split_indices":[0,0,1,1,1,1,1,0,1,1,1,1,0,0,1,0,0,0,0,0,0,0,0,0,0,0,0,0,0],"split_type":[0,0,0,0,0,0,0,0,0,0,0,0,0,0,0,0,0,0,0,0,0,0,0,0,0,0,0,0,0],"sum_hessian":[3.753E3,2.256E3,1.497E3,1.708E3,5.48E2,1.327E3,1.7E2,1.125E3,5.83E2,2.21E2,3.27E2,7.49E2,5.78E2,2E1,1.5E2,7.6E2,3.65E2,9E1,4.93E2,2.1E2,1.1E1,1.62E2,1.65E2,4.6E2,2.89E2,2.75E2,3.03E2,1.29E2,2.1E1],"tree_param":{"num_deleted":"0","num_feature":"2","num_nodes":"29","size_leaf_vector":"1"}},{"base_weights":[-1.0044109E-3,5.094571E-2,-7.927572E-2,-5.0125074E-2,3.6547947E-1,-1.4466769E-1,4.2902726E-1,9.679939E-2,-3.333217E-1,-4.8776048E-1,7.397696E-1,-3.7539068E-1,1.7911267E-2,2.2028072E-1,1.795014E-1,2.8472627E-2,-2.9420922E-2,-1.2391885E-1,-1.6577674E-2,-2.4223335E-3,-1.8777953E-1,1.5199167E-1,-2.8451756E-2,-1.3133309E-2,-5.4574884E-2,1.9742878E-2,-2.638248E-2,3.1512048E-2,-6.300433E-2],"categories":[],"categories_nodes":[],"categories_segments":[],"categories_sizes":[],"default_left":[0,0,0,0,0,0,0,0,0,0,0,0,0,0,0,0,0,0,0,0,0,0,0,0,0,0,0,0,0],"id":42,"left_children":[1,3,5,7,9,11,13,15,17,19,21,23,25,-1,27,-1,-1,-1,-1,-1,-1,-1,-1,-1,-1,-1,-1,-1,-1],"loss_changes":[1.5268569E1,7.1768745E1,4.9853985E1,7.114121E1,1.7568907E2,4.9820946E1,7.528987E1,8.28234E1,8.843025E1,1.0820242E2,3.0568655E2,2.2754204E1,3.9501804E1,0E0,1.6776785E1,0E0,0E0,0E0,0E0,0E0,0E0,0E0,0E0,0E0,0E0,0E0,0E0,0E0,0E0],"parents":[2147483647,0,0,1,1,2,2,3,3,4,4,5,5,6,6,7,7,8,8,9,9,10,10,11,11,12,12,14,14],"right_children":[2,4,6,8,10,12,14,16,18,20,22,24,26,-1,28,-1,-1,-1,-1,-1,-1,-1,-1,-1,-1,-1,-1,-1,-1],"split_conditions":[5E0,4E0,1.9E1,1.8E1,1E1,6E0,2E1,3E0,1.9E1,8E0,1.9E1,1.1E1,1.2E1,2.2028072E-1,2.3E1,2.8472627E-2,-2.9420922E-2,-1.2391885E-1,-1.6577674E-2,-2.4223335E-3,-1.8777953E-1,1.5199167E-1,-2.8451756E-2,-1.3133309E-2,-5.4574884E-2,1.9742878E-2,-2.638248E-2,3.1512048E-2,-6.300433E-2],"split_indices":[0,0,1,1,1,0,1,0,1,1,1,1,1,0,1,0,0,0,0,0,0,0,0,0,0,0,0,0,0],"split_type":[0,0,0,0,0,0,0,0,0,0,0,0,0,0,0,0,0,0,0,0,0,0,0,0,0,0,0,0,0],"sum_hessian":[3.753E3,2.256E3,1.497E3,1.708E3,5.48E2,1.327E3,1.7E2,1.125E3,5.83E2,1.67E2,3.81E2,5.48E2,7.79E2,2E1,1.5E2,7.6E2,3.65E2,9E1,4.93E2,1.26E2,4.1E1,2.16E2,1.65E2,2.26E2,3.22E2,4.76E2,3.03E2,1.29E2,2.1E1],"tree_param":{"num_deleted":"0","num_feature":"2","num_nodes":"29","size_leaf_vector":"1"}},{"base_weights":[-9.2890725E-4,-1.4382909E-1,3.0899374E-2,-2.4828346E-1,-6.302486E-2,1.9080427E-1,-1.5433656E-2,-4.6080522E-2,-3.8818505E-1,3.0003285E-1,-1.6466473E-1,6.505204E-1,-1.00909024E-1,-3.4218603E-1,4.8514593E-2,-1.7159859E-2,5.7175E-2,-2.5533576E-2,-5.1813282E-2,-4.3982055E-2,9.368612E-2,-1.0034578E-2,-3.7732147E-2,-5.818628E-3,9.857234E-2,-1.1838374E-1,1.6693478E-2,-5.6658607E-2,4.3435268E-2,2.3178069E-2,-5.7594692E-3],"categories":[],"categories_nodes":[],"categories_segments":[],"categories_sizes":[],"default_left":[0,0,0,0,0,0,0,0,0,0,0,0,0,0,0,0,0,0,0,0,0,0,0,0,0,0,0,0,0,0,0],"id":43,"left_children":[1,3,5,7,9,11,13,15,17,19,21,23,25,27,29,-1,-1,-1,-1,-1,-1,-1,-1,-1,-1,-1,-1,-1,-1,-1,-1],"loss_changes":[1.707864E1,5.757556E0,2.2755611E1,8.41209E0,1.4330145E1,9.25983E1,4.978907E1,9.636625E0,2.9060726E0,4.0460617E1,4.1065283E0,6.3723618E1,1.22891174E2,6.820569E1,3.876969E1,0E0,0E0,0E0,0E0,0E0,0E0,0E0,0E0,0E0,0E0,0E0,0E0,0E0,0E0,0E0,0E0],"parents":[2147483647,0,0,1,1,2,2,3,3,4,4,5,5,6,6,7,7,8,8,9,9,10,10,11,11,12,12,13,13,14,14],"right_children":[2,4,6,8,10,12,14,16,18,20,22,24,26,28,30,-1,-1,-1,-1,-1,-1,-1,-1,-1,-1,-1,-1,-1,-1,-1,-1],"split_conditions":[5E0,4E0,1.1E1,2E0,5E0,4E0,1.3E1,4E0,2E0,2E0,4E0,2E0,5E0,6E0,1.7E1,-1.7159859E-2,5.7175E-2,-2.5533576E-2,-5.1813282E-2,-4.3982055E-2,9.368612E-2,-1.0034578E-2,-3.7732147E-2,-5.818628E-3,9.857234E-2,-1.1838374E-1,1.6693478E-2,-5.6658607E-2,4.3435268E-2,2.3178069E-2,-5.7594692E-3],"split_indices":[1,0,1,0,0,0,1,1,1,1,1,0,0,0,1,0,0,0,0,0,0,0,0,0,0,0,0,0,0,0,0],"split_type":[0,0,0,0,0,0,0,0,0,0,0,0,0,0,0,0,0,0,0,0,0,0,0,0,0,0,0,0,0,0,0],"sum_hessian":[3.753E3,6.83E2,3.07E3,2.97E2,3.86E2,6.89E2,2.381E3,1.22E2,1.75E2,8.4E1,3.02E2,2.67E2,4.22E2,3.89E2,1.992E3,1.02E2,2E1,8.8E1,8.7E1,3.9E1,4.5E1,2.33E2,6.9E1,8.6E1,1.81E2,8.3E1,3.39E2,3.02E2,8.7E1,7.3E2,1.262E3],"tree_param":{"num_deleted":"0","num_feature":"2","num_nodes":"31","size_leaf_vector":"1"}},{"base_weights":[-8.467099E-4,-1.0786417E-1,3.6738712E-2,2.3109896E-2,-2.813039E-1,3.3964714E-1,-1.3888614E-2,-2.2730346E-1,1.9863418E-1,-1.3594341E-1,-7.3906684E-1,-7.499247E-2,4.737359E-1,-3.0800214E-1,4.3671932E-2,-1.9058783E-2,-3.969381E-2,6.140343E-2,9.756156E-3,5.198498E-3,-1.684878E-2,-9.106632E-2,-5.52979E-2,1.7128228E-1,2.9292354E-2,-5.101153E-2,3.9141018E-2,1.4702431E-2,-1.4660576E-2],"categories":[],"categories_nodes":[],"categories_segments":[],"categories_sizes":[],"default_left":[0,0,0,0,0,0,0,0,0,0,0,0,0,0,0,0,0,0,0,0,0,0,0,0,0,0,0,0,0],"id":44,"left_children":[1,3,5,7,9,11,13,15,17,19,21,-1,23,25,27,-1,-1,-1,-1,-1,-1,-1,-1,-1,-1,-1,-1,-1,-1],"loss_changes":[1.5103663E1,2.2177422E1,4.2621914E1,2.4527317E1,2.7846603E1,5.8502804E1,4.0339127E1,1.3568459E0,1.3711364E1,1.9658837E0,2.7215538E0,0E0,7.9033264E1,5.5330223E1,3.9215195E1,0E0,0E0,0E0,0E0,0E0,0E0,0E0,0E0,0E0,0E0,0E0,0E0,0E0,0E0],"parents":[2147483647,0,0,1,1,2,2,3,3,4,4,5,5,6,6,7,7,8,8,9,9,10,10,12,12,13,13,14,14],"right_children":[2,4,6,8,10,12,14,16,18,20,22,-1,24,26,28,-1,-1,-1,-1,-1,-1,-1,-1,-1,-1,-1,-1,-1,-1],"split_conditions":[8E0,5E0,1.1E1,4E0,6E0,2E0,1.3E1,4E0,2E0,1E0,6E0,-7.499247E-2,3E0,6E0,5E0,-1.9058783E-2,-3.969381E-2,6.140343E-2,9.756156E-3,5.198498E-3,-1.684878E-2,-9.106632E-2,-5.52979E-2,1.7128228E-1,2.9292354E-2,-5.101153E-2,3.9141018E-2,1.4702431E-2,-1.4660576E-2],"split_indices":[1,0,1,1,1,0,1,0,0,1,0,0,0,0,0,0,0,0,0,0,0,0,0,0,0,0,0,0,0],"split_type":[0,0,0,0,0,0,0,0,0,0,0,0,0,0,0,0,0,0,0,0,0,0,0,0,0,0,0,0,0],"sum_hessian":[3.753E3,9.75E2,2.778E3,5.56E2,4.19E2,3.97E2,2.381E3,2.29E2,3.27E2,3.19E2,1E2,4.3E1,3.54E2,3.89E2,1.992E3,1.9E2,3.9E1,6.3E1,2.64E2,4.7E1,2.72E2,5E1,5E1,4.4E1,3.1E2,3.02E2,8.7E1,1.291E3,7.01E2],"tree_param":{"num_deleted":"0","num_feature":"2","num_nodes":"29","size_leaf_vector":"1"}},{"base_weights":[-7.7053567E-4,1.6266651E-2,-2.0282194E-1,-4.9881544E-2,1.1342643E-1,-3.4722027E-1,-1.0006019E-1,-1.960379E-2,-7.0512956E-1,-8.852719E-2,3.2046193E-1,-2.9274333E-2,-4.1387733E-2,2.5936881E-2,-2.3728044E-1,-7.6726465E-3,1.2664089E-2,-1.3202028E-1,4.3889186E-3,2.9844547E-2,-3.6207255E-2,1.0773627E-1,-3.6216972E-3,-3.9458383E-2,-9.521807E-3],"categories":[],"categories_nodes":[],"categories_segments":[],"categories_sizes":[],"default_left":[0,0,0,0,0,0,0,0,0,0,0,0,0,0,0,0,0,0,0,0,0,0,0,0,0],"id":45,"left_children":[1,3,5,7,9,11,13,15,17,19,21,-1,-1,-1,23,-1,-1,-1,-1,-1,-1,-1,-1,-1,-1],"loss_changes":[1.2926023E1,2.2262167E1,4.2981367E0,4.0875256E1,5.869E1,3.1822395E-1,8.544745E0,1.6475227E1,4.198177E1,7.537065E1,1.871286E2,0E0,0E0,0E0,2.7557898E0,0E0,0E0,0E0,0E0,0E0,0E0,0E0,0E0,0E0,0E0],"parents":[2147483647,0,0,1,1,2,2,3,3,4,4,5,5,6,6,7,7,8,8,9,9,10,10,14,14],"right_children":[2,4,6,8,10,12,14,16,18,20,22,-1,-1,-1,24,-1,-1,-1,-1,-1,-1,-1,-1,-1,-1],"split_conditions":[2.2E1,1.5E1,3E0,1.4E1,4E0,2E0,4E0,6E0,6E0,1.8E1,5E0,-2.9274333E-2,-4.1387733E-2,2.5936881E-2,5E0,-7.6726465E-3,1.2664089E-2,-1.3202028E-1,4.3889186E-3,2.9844547E-2,-3.6207255E-2,1.0773627E-1,-3.6216972E-3,-3.9458383E-2,-9.521807E-3],"split_indices":[1,1,0,1,0,0,0,0,0,1,0,0,0,0,0,0,0,0,0,0,0,0,0,0,0],"split_type":[0,0,0,0,0,0,0,0,0,0,0,0,0,0,0,0,0,0,0,0,0,0,0,0,0],"sum_hessian":[3.753E3,3.462E3,2.91E2,2.06E3,1.402E3,1.2E2,1.71E2,1.97E3,9E1,7.1E2,6.92E2,6.9E1,5.1E1,4.7E1,1.24E2,1.417E3,5.53E2,4.9E1,4.1E1,2.94E2,4.16E2,2.21E2,4.71E2,5.8E1,6.6E1],"tree_param":{"num_deleted":"0","num_feature":"2","num_nodes":"25","size_leaf_vector":"1"}},{"base_weights":[-7.2493276E-4,-9.3706466E-2,3.38123E-2,2.84803E-2,-2.411345E-1,3.4812424E-1,-1.33091E-2,-2.1463096E-1,1.7622669E-1,-1.2935397E-1,-4.9133614E-1,1.0236084E-1,1.0248364E0,-1.4270304E-1,1.0637537E-1,-2.7368058E-2,-1.2387882E-2,3.0709404E-2,-3.1558312E-3,4.423918E-3,-1.5940202E-2,-6.690804E-2,-5.2205133E-3,5.3732842E-2,-3.5363134E-2,1.9754498E-1,-3.0717975E-3,-1.0194917E-3,-4.1584093E-2,6.1068065E-2,-1.1853828E-2],"categories":[],"categories_nodes":[],"categories_segments":[],"categories_sizes":[],"default_left":[0,0,0,0,0,0,0,0,0,0,0,0,0,0,0,0,0,0,0,0,0,0,0,0,0,0,0,0,0,0,0],"id":46,"left_children":[1,3,5,7,9,11,13,15,17,19,21,23,25,27,29,-1,-1,-1,-1,-1,-1,-1,-1,-1,-1,-1,-1,-1,-1,-1,-1],"loss_changes":[1.2058482E1,1.8326857E1,4.0556652E1,2.0044601E1,1.2829544E1,5.9268154E1,3.6903893E1,1.0968208E0,9.44541E0,1.6762152E0,1.1048595E1,5.2353912E1,9.5385956E1,4.143673E1,1.4049272E2,0E0,0E0,0E0,0E0,0E0,0E0,0E0,0E0,0E0,0E0,0E0,0E0,0E0,0E0,0E0,0E0],"parents":[2147483647,0,0,1,1,2,2,3,3,4,4,5,5,6,6,7,7,8,8,9,9,10,10,11,11,12,12,13,13,14,14],"right_children":[2,4,6,8,10,12,14,16,18,20,22,24,26,28,30,-1,-1,-1,-1,-1,-1,-1,-1,-1,-1,-1,-1,-1,-1,-1,-1],"split_conditions":[9E0,5E0,1.1E1,3E0,6E0,6E0,4E0,3E0,7E0,1E0,8E0,4E0,1E1,3E0,5E0,-2.7368058E-2,-1.2387882E-2,3.0709404E-2,-3.1558312E-3,4.423918E-3,-1.5940202E-2,-6.690804E-2,-5.2205133E-3,5.3732842E-2,-3.5363134E-2,1.9754498E-1,-3.0717975E-3,-1.0194917E-3,-4.1584093E-2,6.1068065E-2,-1.1853828E-2],"split_indices":[1,0,1,1,1,0,0,0,1,1,1,0,1,0,0,0,0,0,0,0,0,0,0,0,0,0,0,0,0,0,0],"split_type":[0,0,0,0,0,0,0,0,0,0,0,0,0,0,0,0,0,0,0,0,0,0,0,0,0,0,0,0,0,0,0],"sum_hessian":[3.753E3,1.016E3,2.737E3,5.56E2,4.6E2,3.56E2,2.381E3,2.1E2,3.46E2,3.19E2,1.41E2,2.62E2,9.4E1,1.144E3,1.237E3,1.26E2,8.4E1,2.12E2,1.34E2,4.7E1,2.72E2,1E2,4.1E1,1.34E2,1.28E2,4.9E1,4.5E1,7.71E2,3.73E2,3.81E2,8.56E2],"tree_param":{"num_deleted":"0","num_feature":"2","num_nodes":"31","size_leaf_vector":"1"}},{"base_weights":[-6.193097E-4,2.1076407E-2,-1.4450651E-1,-4.5566306E-2,1.3523231E-1,-2.1078962E-1,9.033033E-2,-1.8823607E-2,-6.242948E-1,2.1947816E-1,-3.2658222E-1,-1.4819099E-1,-3.7789947E-1,2.443881E-1,-5.3000666E-2,-2.1880267E-2,1.7351542E-3,-1.1792052E-1,5.11768E-3,-4.905016E-3,6.0038187E-2,-8.550784E-2,-2.8783686E-3,-1.3717397E-2,-2.6580904E-2,-4.6285525E-2,-5.85833E-3,3.4453075E-2,1.4546369E-2],"categories":[],"categories_nodes":[],"categories_segments":[],"categories_sizes":[],"default_left":[0,0,0,0,0,0,0,0,0,0,0,0,0,0,0,0,0,0,0,0,0,0,0,0,0,0,0,0,0],"id":47,"left_children":[1,3,5,7,9,11,13,15,17,19,21,23,25,27,-1,-1,-1,-1,-1,-1,-1,-1,-1,-1,-1,-1,-1,-1,-1],"loss_changes":[1.1722042E1,2.4829956E1,7.677373E0,3.1885859E1,4.687554E1,3.960966E0,1.054641E1,1.42625475E1,3.416953E1,1.0415398E2,2.9249071E1,3.2765675E-1,2.7941694E0,8.216605E-1,0E0,0E0,0E0,0E0,0E0,0E0,0E0,0E0,0E0,0E0,0E0,0E0,0E0,0E0,0E0],"parents":[2147483647,0,0,1,1,2,2,3,3,4,4,5,5,6,6,7,7,8,8,9,9,10,10,11,11,12,12,13,13],"right_children":[2,4,6,8,10,12,14,16,18,20,22,24,26,28,-1,-1,-1,-1,-1,-1,-1,-1,-1,-1,-1,-1,-1,-1,-1],"split_conditions":[2.1E1,1.5E1,5E0,1.4E1,6E0,4E0,2.3E1,2E0,6E0,4E0,1.6E1,2.3E1,2.3E1,2.2E1,-5.3000666E-2,-2.1880267E-2,1.7351542E-3,-1.1792052E-1,5.11768E-3,-4.905016E-3,6.0038187E-2,-8.550784E-2,-2.8783686E-3,-1.3717397E-2,-2.6580904E-2,-4.6285525E-2,-5.85833E-3,3.4453075E-2,1.4546369E-2],"split_indices":[1,1,0,1,0,0,1,0,0,0,1,1,1,1,0,0,0,0,0,0,0,0,0,0,0,0,0,0,0],"split_type":[0,0,0,0,0,0,0,0,0,0,0,0,0,0,0,0,0,0,0,0,0,0,0,0,0,0,0,0,0],"sum_hessian":[3.753E3,3.262E3,4.91E2,2.06E3,1.202E3,3.83E2,1.08E2,1.97E3,9E1,1.017E3,1.85E2,2.8E2,1.03E2,8.7E1,2.1E1,3.01E2,1.669E3,4.9E1,4.1E1,5.97E2,4.2E2,6.6E1,1.19E2,2.58E2,2.2E1,8.1E1,2.2E1,4.2E1,4.5E1],"tree_param":{"num_deleted":"0","num_feature":"2","num_nodes":"29","size_leaf_vector":"1"}},{"base_weights":[-6.273471E-4,-1.118682E-1,2.4149394E-2,-2.0235462E-1,-4.190225E-2,8.381056E-2,-6.132265E-2,2.7168165E-3,-3.4452185E-1,2.7895445E-1,-1.3177326E-1,3.9498264E-1,-2.2589842E-2,-3.2461587E-1,5.6062983E-3,-9.0076765E-3,4.577179E-2,-1.8588739E-2,-5.01044E-2,-3.403694E-2,8.114327E-2,-7.6390007E-3,-3.150291E-2,1.5416184E-2,1.1440211E-1,-7.164945E-3,3.884412E-2,-7.495014E-2,3.8413734E-3,1.5702797E-2,-1.3567331E-2],"categories":[],"categories_nodes":[],"categories_segments":[],"categories_sizes":[],"default_left":[0,0,0,0,0,0,0,0,0,0,0,0,0,0,0,0,0,0,0,0,0,0,0,0,0,0,0,0,0,0,0],"id":48,"left_children":[1,3,5,7,9,11,13,15,17,19,21,23,25,27,29,-1,-1,-1,-1,-1,-1,-1,-1,-1,-1,-1,-1,-1,-1,-1,-1],"loss_changes":[1.0349423E1,4.321903E0,1.56652775E1,8.688959E0,1.1196181E1,5.99028E1,2.2258327E1,5.234435E0,4.276907E0,2.8307184E1,3.0511742E0,8.298067E1,2.7230446E1,3.9515774E1,2.1585241E1,0E0,0E0,0E0,0E0,0E0,0E0,0E0,0E0,0E0,0E0,0E0,0E0,0E0,0E0,0E0,0E0],"parents":[2147483647,0,0,1,1,2,2,3,3,4,4,5,5,6,6,7,7,8,8,9,9,10,10,11,11,12,12,13,13,14,14],"right_children":[2,4,6,8,10,12,14,16,18,20,22,24,26,28,30,-1,-1,-1,-1,-1,-1,-1,-1,-1,-1,-1,-1,-1,-1,-1,-1],"split_conditions":[5E0,4E0,1.7E1,2E0,5E0,3E0,2E0,4E0,2E0,2E0,4E0,1.4E1,1.6E1,2E1,2E1,-9.0076765E-3,4.577179E-2,-1.8588739E-2,-5.01044E-2,-3.403694E-2,8.114327E-2,-7.6390007E-3,-3.150291E-2,1.5416184E-2,1.1440211E-1,-7.164945E-3,3.884412E-2,-7.495014E-2,3.8413734E-3,1.5702797E-2,-1.3567331E-2],"split_indices":[1,0,1,0,0,0,0,1,1,1,1,1,1,1,1,0,0,0,0,0,0,0,0,0,0,0,0,0,0,0,0],"split_type":[0,0,0,0,0,0,0,0,0,0,0,0,0,0,0,0,0,0,0,0,0,0,0,0,0,0,0,0,0,0,0],"sum_hessian":[3.753E3,6.83E2,3.07E3,2.97E2,3.86E2,1.808E3,1.262E3,1.22E2,1.75E2,8.4E1,3.02E2,4.6E2,1.348E3,2.55E2,1.007E3,1.02E2,2E1,8.8E1,8.7E1,3.9E1,4.5E1,2.33E2,6.9E1,3.49E2,1.11E2,1.205E3,1.43E2,1.17E2,1.38E2,4.86E2,5.21E2],"tree_param":{"num_deleted":"0","num_feature":"2","num_nodes":"31","size_leaf_vector":"1"}},{"base_weights":[-5.468503E-4,-1.0071644E-1,2.1763977E-2,-1.8222637E-1,-3.7691437E-2,1.5402699E-1,-1.6558124E-2,2.7438896E-3,-3.1046E-1,2.5161365E-1,-1.1872523E-1,5.270352E-1,-8.266386E-2,-2.670461E-1,3.2466892E-2,-8.115657E-3,4.14125E-2,-1.6750747E-2,-4.5150902E-2,-3.0718332E-2,7.320543E-2,-6.8783737E-3,-2.8397648E-2,-6.374611E-3,8.0654584E-2,-1.05425514E-1,1.5761947E-2,-4.4748705E-2,3.5727948E-2,1.8396895E-2,-5.524527E-3],"categories":[],"categories_nodes":[],"categories_segments":[],"categories_sizes":[],"default_left":[0,0,0,0,0,0,0,0,0,0,0,0,0,0,0,0,0,0,0,0,0,0,0,0,0,0,0,0,0,0,0],"id":49,"left_children":[1,3,5,7,9,11,13,15,17,19,21,23,25,27,29,-1,-1,-1,-1,-1,-1,-1,-1,-1,-1,-1,-1,-1,-1,-1,-1],"loss_changes":[8.39188E0,3.5069513E0,1.556821E1,7.069236E0,9.102505E0,6.096203E1,2.9260052E1,4.2789617E0,3.473112E0,2.3044718E1,2.4810934E0,4.4306168E1,9.891856E1,4.4094894E1,2.649429E1,0E0,0E0,0E0,0E0,0E0,0E0,0E0,0E0,0E0,0E0,0E0,0E0,0E0,0E0,0E0,0E0],"parents":[2147483647,0,0,1,1,2,2,3,3,4,4,5,5,6,6,7,7,8,8,9,9,10,10,11,11,12,12,13,13,14,14],"right_children":[2,4,6,8,10,12,14,16,18,20,22,24,26,28,30,-1,-1,-1,-1,-1,-1,-1,-1,-1,-1,-1,-1,-1,-1,-1,-1],"split_conditions":[5E0,4E0,1.1E1,2E0,5E0,4E0,1.3E1,4E0,2E0,2E0,4E0,2E0,5E0,6E0,1.7E1,-8.115657E-3,4.14125E-2,-1.6750747E-2,-4.5150902E-2,-3.0718332E-2,7.320543E-2,-6.8783737E-3,-2.8397648E-2,-6.374611E-3,8.0654584E-2,-1.05425514E-1,1.5761947E-2,-4.4748705E-2,3.5727948E-2,1.8396895E-2,-5.524527E-3],"split_indices":[1,0,1,0,0,0,1,1,1,1,1,0,0,0,1,0,0,0,0,0,0,0,0,0,0,0,0,0,0,0,0],"split_type":[0,0,0,0,0,0,0,0,0,0,0,0,0,0,0,0,0,0,0,0,0,0,0,0,0,0,0,0,0,0,0],"sum_hessian":[3.753E3,6.83E2,3.07E3,2.97E2,3.86E2,6.89E2,2.381E3,1.22E2,1.75E2,8.4E1,3.02E2,2.67E2,4.22E2,3.89E2,1.992E3,1.02E2,2E1,8.8E1,8.7E1,3.9E1,4.5E1,2.33E2,6.9E1,8.6E1,1.81E2,8.3E1,3.39E2,3.02E2,8.7E1,7.3E2,1.262E3],"tree_param":{"num_deleted":"0","num_feature":"2","num_nodes":"31","size_leaf_vector":"1"}}]},"name":"gbtree"},"learner_model_param":{"base_score":"[1.4140421E1]","boost_from_average":"1","num_class":"0","num_feature":"2","num_target":"1"},"objective":{"name":"reg:squarederror","reg_loss_param":{"scale_pos_weight":"1"}}},"version":[3,2,0]}