{"learner":{"attributes":{},"feature_names":["day_of_week","hour_of_day"],"feature_types":[],"gradient_booster":{"model":{"cats":{"enc":[],"feature_segments":[],"sorted_idx":[]},"gbtree_model_param":{"num_parallel_tree":"1","num_trees":"50"},"iteration_indptr":[0,1,2,3,4,5,6,7,8,9,10,11,12,13,14,15,16,17,18,19,20,21,22,23,24,25,26,27,28,29,30,31,32,33,34,35,36,37,38,39,40,41,42,43,44,45,46,47,48,49,50],"tree_info":[0,0,0,0,0,0,0,0,0,0,0,0,0,0,0,0,0,0,0,0,0,0,0,0,0,0,0,0,0,0,0,0,0,0,0,0,0,0,0,0,0,0,0,0,0,0,0,0,0,0],"trees":[{"base_weights":[2.1823767E-7,-1.1279683E1,1.2701988E0,-1.1711131E1,-8.6099825E0,2.5419078E0,-5.619027E0,-1.281485E0,-1.0290107E0,-4.823896E-1,-1.0134144E0,-1.9681026E0,3.0035453E0,-7.9534607E0,-2.6212366E0,2.3237698E-1,-8.24827E-1,3.2460675E-1,-2.3463695E-1,-3.3957836E-1,-9.770574E-1,-7.090285E-2,-4.7222993E-1],"categories":[],"categories_nodes":[],"categories_segments":[],"categories_sizes":[],"default_left":[0,0,0,0,0,0,0,0,0,0,0,0,0,0,0,0,0,0,0,0,0,0,0],"id":0,"left_children":[1,3,5,7,9,11,13,-1,-1,-1,-1,15,17,19,21,-1,-1,-1,-1,-1,-1,-1,-1],"loss_changes":[6.738194E4,4.474453E2,3.7047414E4,5.0647656E2,3.5505615E2,7.436533E3,4.5909297E3,0E0,0E0,0E0,0E0,8.967787E3,4.208836E3,3.0310938E3,1.1617756E3,0E0,0E0,0E0,0E0,0E0,0E0,0E0,0E0],"parents":[2147483647,0,0,1,1,2,2,3,3,4,4,5,5,6,6,11,11,12,12,13,13,14,14],"right_children":[2,4,6,8,10,12,14,-1,-1,-1,-1,16,18,20,22,-1,-1,-1,-1,-1,-1,-1,-1],"split_conditions":[4E0,3E0,2E1,5E0,2E0,7E0,4E0,-1.281485E0,-1.0290107E0,-4.823896E-1,-1.0134144E0,5E0,7E0,2.1E1,2.2E1,2.3237698E-1,-8.24827E-1,3.2460675E-1,-2.3463695E-1,-3.3957836E-1,-9.770574E-1,-7.090285E-2,-4.7222993E-1],"split_indices":[1,1,1,0,0,1,0,0,0,0,0,0,0,1,1,0,0,0,0,0,0,0,0],"split_type":[0,0,0,0,0,0,0,0,0,0,0,0,0,0,0,0,0,0,0,0,0,0,0],"sum_hessian":[4.701E3,4.75E2,4.226E3,4.06E2,6.9E1,3.568E3,6.58E2,2.24E2,1.82E2,2.1E1,4.8E1,3.31E2,3.237E3,3.69E2,2.89E2,1.97E2,1.34E2,3.097E3,1.4E2,1.06E2,2.63E2,1.52E2,1.37E2],"tree_param":{"num_deleted":"0","num_feature":"2","num_nodes":"23","size_leaf_vector":"1"}},{"base_weights":[-1.3118654E-3,-1.0159712E1,1.1426198E0,-1.0545695E1,-7.770353E0,2.472458E0,-4.3607106E0,-1.153906E0,-9.266719E-1,-4.3634334E-1,-9.141412E-1,3.231683E-1,3.510454E0,-2.6180496E0,-7.4382253E0,2.4851473E-1,-1.7220013E-1,3.7983766E-1,2.2449453E-1,-4.2734727E-1,-3.0658772E-2,-1.013857E0,-4.253491E-1],"categories":[],"categories_nodes":[],"categories_segments":[],"categories_sizes":[],"default_left":[0,0,0,0,0,0,0,0,0,0,0,0,0,0,0,0,0,0,0,0,0,0,0],"id":1,"left_children":[1,3,5,7,9,11,13,-1,-1,-1,-1,15,17,19,21,-1,-1,-1,-1,-1,-1,-1,-1],"loss_changes":[5.4651277E4,3.5704688E2,3.0946242E4,4.1016016E2,2.8708838E2,7.5952656E3,4.39433E3,0E0,0E0,0E0,0E0,4.9122705E3,8.280625E2,2.0152278E3,2.511041E3,0E0,0E0,0E0,0E0,0E0,0E0,0E0,0E0],"parents":[2147483647,0,0,1,1,2,2,3,3,4,4,5,5,6,6,11,11,12,12,13,13,14,14],"right_children":[2,4,6,8,10,12,14,-1,-1,-1,-1,16,18,20,22,-1,-1,-1,-1,-1,-1,-1,-1],"split_conditions":[4E0,3E0,1.9E1,5E0,2E0,9E0,2.2E1,-1.153906E0,-9.266719E-1,-4.3634334E-1,-9.141412E-1,5E0,1.7E1,4E0,4E0,2.4851473E-1,-1.7220013E-1,3.7983766E-1,2.2449453E-1,-4.2734727E-1,-3.0658772E-2,-1.013857E0,-4.253491E-1],"split_indices":[1,1,1,0,0,1,1,0,0,0,0,0,1,0,0,0,0,0,0,0,0,0,0],"split_type":[0,0,0,0,0,0,0,0,0,0,0,0,0,0,0,0,0,0,0,0,0,0,0],"sum_hessian":[4.701E3,4.75E2,4.226E3,4.06E2,6.9E1,3.404E3,8.22E2,2.24E2,1.82E2,2.1E1,4.8E1,1.109E3,2.295E3,5.26E2,2.96E2,5.39E2,5.7E2,1.868E3,4.27E2,3.06E2,2.2E2,1.59E2,1.37E2],"tree_param":{"num_deleted":"0","num_feature":"2","num_nodes":"23","size_leaf_vector":"1"}},{"base_weights":[-2.1692605E-3,-9.150949E0,1.02807E0,-9.496238E0,-7.0126104E0,2.225412E0,-3.926945E0,-1.0390282E0,-8.345111E-1,-3.946924E-1,-8.245927E-1,2.909201E-1,3.1596715E0,-1.4058698E0,-5.6898346E0,2.2370923E-1,-1.5501025E-1,3.418742E-1,2.0209749E-1,-4.2948198E-1,-6.137087E-2,-8.0182505E-1,-2.882633E-1],"categories":[],"categories_nodes":[],"categories_segments":[],"categories_sizes":[],"default_left":[0,0,0,0,0,0,0,0,0,0,0,0,0,0,0,0,0,0,0,0,0,0,0],"id":2,"left_children":[1,3,5,7,9,11,13,-1,-1,-1,-1,15,17,19,21,-1,-1,-1,-1,-1,-1,-1,-1],"loss_changes":[4.432778E4,2.8485938E2,2.5086883E4,3.3216406E2,2.321211E2,6.152996E3,3.6497236E3,0E0,0E0,0E0,0E0,3.980539E3,6.7041797E2,7.754589E2,3.1404717E3,0E0,0E0,0E0,0E0,0E0,0E0,0E0,0E0],"parents":[2147483647,0,0,1,1,2,2,3,3,4,4,5,5,6,6,11,11,12,12,13,13,14,14],"right_children":[2,4,6,8,10,12,14,-1,-1,-1,-1,16,18,20,22,-1,-1,-1,-1,-1,-1,-1,-1],"split_conditions":[4E0,3E0,1.9E1,5E0,2E0,9E0,2.1E1,-1.0390282E0,-8.345111E-1,-3.946924E-1,-8.245927E-1,5E0,1.7E1,2E0,4E0,2.2370923E-1,-1.5501025E-1,3.418742E-1,2.0209749E-1,-4.2948198E-1,-6.137087E-2,-8.0182505E-1,-2.882633E-1],"split_indices":[1,1,1,0,0,1,1,0,0,0,0,0,1,0,0,0,0,0,0,0,0,0,0],"split_type":[0,0,0,0,0,0,0,0,0,0,0,0,0,0,0,0,0,0,0,0,0,0,0],"sum_hessian":[4.701E3,4.75E2,4.226E3,4.06E2,6.9E1,3.404E3,8.22E2,2.24E2,1.82E2,2.1E1,4.8E1,1.109E3,2.295E3,3.39E2,4.83E2,5.39E2,5.7E2,1.868E3,4.27E2,7.2E1,2.67E2,2.63E2,2.2E2],"tree_param":{"num_deleted":"0","num_feature":"2","num_nodes":"23","size_leaf_vector":"1"}},{"base_weights":[-2.8159388E-3,-8.242352E0,9.25034E-1,-8.551217E0,-6.328768E0,2.0030508E0,-3.5361712E0,-9.355872E-1,-7.5151604E-1,-3.5701722E-1,-7.438163E-1,-1.9212153E0,2.42623E0,-2.0637088E0,-6.137018E0,1.622727E-1,-7.104766E-1,2.6279518E-1,-1.7885065E-1,-3.4491765E-1,-1.2976164E-2,-8.3342355E-1,-3.5450497E-1],"categories":[],"categories_nodes":[],"categories_segments":[],"categories_sizes":[],"default_left":[0,0,0,0,0,0,0,0,0,0,0,0,0,0,0,0,0,0,0,0,0,0,0],"id":3,"left_children":[1,3,5,7,9,11,13,-1,-1,-1,-1,15,17,19,21,-1,-1,-1,-1,-1,-1,-1,-1],"loss_changes":[3.595466E4,2.2721484E2,2.0335799E4,2.689922E2,1.8767041E2,5.6592383E3,3.1391367E3,0E0,0E0,0E0,0E0,6.1104365E3,2.6182285E3,1.4116074E3,1.6619043E3,0E0,0E0,0E0,0E0,0E0,0E0,0E0,0E0],"parents":[2147483647,0,0,1,1,2,2,3,3,4,4,5,5,6,6,11,11,12,12,13,13,14,14],"right_children":[2,4,6,8,10,12,14,-1,-1,-1,-1,16,18,20,22,-1,-1,-1,-1,-1,-1,-1,-1],"split_conditions":[4E0,3E0,1.9E1,5E0,2E0,7E0,2.2E1,-9.355872E-1,-7.5151604E-1,-3.5701722E-1,-7.438163E-1,5E0,7E0,4E0,4E0,1.622727E-1,-7.104766E-1,2.6279518E-1,-1.7885065E-1,-3.4491765E-1,-1.2976164E-2,-8.3342355E-1,-3.5450497E-1],"split_indices":[1,1,1,0,0,1,1,0,0,0,0,0,0,0,0,0,0,0,0,0,0,0,0],"split_type":[0,0,0,0,0,0,0,0,0,0,0,0,0,0,0,0,0,0,0,0,0,0,0],"sum_hessian":[4.701E3,4.75E2,4.226E3,4.06E2,6.9E1,3.404E3,8.22E2,2.24E2,1.82E2,2.1E1,4.8E1,3.31E2,3.073E3,5.26E2,2.96E2,1.97E2,1.34E2,2.933E3,1.4E2,3.06E2,2.2E2,1.59E2,1.37E2],"tree_param":{"num_deleted":"0","num_feature":"2","num_nodes":"23","size_leaf_vector":"1"}},{"base_weights":[-3.5550783E-3,-7.423973E0,8.320547E-1,-7.7002406E0,-5.711617E0,1.5434421E0,-4.6726284E0,-8.4244436E-1,-6.7677504E-1,-3.229383E-1,-6.709526E-1,-1.7307447E0,1.8614868E0,-6.5816374E0,-2.37104E0,1.461274E-1,-6.399552E-1,2.1836339E-1,-1.0565766E-1,-5.110371E-1,-7.5060207E-1,-9.922635E-2,-3.1931138E-1],"categories":[],"categories_nodes":[],"categories_segments":[],"categories_sizes":[],"default_left":[0,0,0,0,0,0,0,0,0,0,0,0,0,0,0,0,0,0,0,0,0,0,0],"id":4,"left_children":[1,3,5,7,9,11,13,-1,-1,-1,-1,15,17,19,21,-1,-1,-1,-1,-1,-1,-1,-1],"loss_changes":[2.9161277E4,1.8120117E2,1.6559984E4,2.1783594E2,1.5172559E2,3.9019902E3,2.1109707E3,0E0,0E0,0E0,0E0,4.9571206E3,3.2106836E3,3.2068555E2,2.4732532E2,0E0,0E0,0E0,0E0,0E0,0E0,0E0,0E0],"parents":[2147483647,0,0,1,1,2,2,3,3,4,4,5,5,6,6,11,11,12,12,13,13,14,14],"right_children":[2,4,6,8,10,12,14,-1,-1,-1,-1,16,18,20,22,-1,-1,-1,-1,-1,-1,-1,-1],"split_conditions":[4E0,3E0,2.1E1,5E0,2E0,7E0,4E0,-8.4244436E-1,-6.7677504E-1,-3.229383E-1,-6.709526E-1,5E0,1.9E1,2.2E1,2.2E1,1.461274E-1,-6.399552E-1,2.1836339E-1,-1.0565766E-1,-5.110371E-1,-7.5060207E-1,-9.922635E-2,-3.1931138E-1],"split_indices":[1,1,1,0,0,1,0,0,0,0,0,0,1,1,1,0,0,0,0,0,0,0,0],"split_type":[0,0,0,0,0,0,0,0,0,0,0,0,0,0,0,0,0,0,0,0,0,0,0],"sum_hessian":[4.701E3,4.75E2,4.226E3,4.06E2,6.9E1,3.743E3,4.83E2,2.24E2,1.82E2,2.1E1,4.8E1,3.31E2,3.412E3,2.63E2,2.2E2,1.97E2,1.34E2,3.073E3,3.39E2,1.04E2,1.59E2,8.3E1,1.37E2],"tree_param":{"num_deleted":"0","num_feature":"2","num_nodes":"23","size_leaf_vector":"1"}},{"base_weights":[-4.1722846E-3,-6.6868553E0,7.4836177E-1,-6.9339495E0,-5.154654E0,1.3889964E0,-4.208837E0,-7.585743E-1,-6.094674E-1,-2.9211238E-1,-6.0522664E-1,-2.124976E0,1.6356521E0,-5.9282527E0,-2.1358302E0,3.7468325E-2,-6.313261E-1,1.9134699E-1,-9.5122986E-2,-4.6042013E-1,-6.76011E-1,-8.942189E-2,-2.876117E-1],"categories":[],"categories_nodes":[],"categories_segments":[],"categories_sizes":[],"default_left":[0,0,0,0,0,0,0,0,0,0,0,0,0,0,0,0,0,0,0,0,0,0,0],"id":5,"left_children":[1,3,5,7,9,11,13,-1,-1,-1,-1,15,17,19,21,-1,-1,-1,-1,-1,-1,-1,-1],"loss_changes":[2.365111E4,1.4446875E2,1.3429755E4,1.7641406E2,1.2265967E2,3.2485547E3,1.7124883E3,0E0,0E0,0E0,0E0,2.5778093E3,2.5164873E3,2.5965137E2,2.0055981E2,0E0,0E0,0E0,0E0,0E0,0E0,0E0,0E0],"parents":[2147483647,0,0,1,1,2,2,3,3,4,4,5,5,6,6,11,11,12,12,13,13,14,14],"right_children":[2,4,6,8,10,12,14,-1,-1,-1,-1,16,18,20,22,-1,-1,-1,-1,-1,-1,-1,-1],"split_conditions":[4E0,3E0,2.1E1,5E0,2E0,6E0,4E0,-7.585743E-1,-6.094674E-1,-2.9211238E-1,-6.0522664E-1,5E0,1.9E1,2.2E1,2.2E1,3.7468325E-2,-6.313261E-1,1.9134699E-1,-9.5122986E-2,-4.6042013E-1,-6.76011E-1,-8.942189E-2,-2.876117E-1],"split_indices":[1,1,1,0,0,1,0,0,0,0,0,0,1,1,1,0,0,0,0,0,0,0,0],"split_type":[0,0,0,0,0,0,0,0,0,0,0,0,0,0,0,0,0,0,0,0,0,0,0],"sum_hessian":[4.701E3,4.75E2,4.226E3,4.06E2,6.9E1,3.743E3,4.83E2,2.24E2,1.82E2,2.1E1,4.8E1,2.45E2,3.498E3,2.63E2,2.2E2,1.54E2,9.1E1,3.159E3,3.39E2,1.04E2,1.59E2,8.3E1,1.37E2],"tree_param":{"num_deleted":"0","num_feature":"2","num_nodes":"23","size_leaf_vector":"1"}},{"base_weights":[-4.664604E-3,-6.022929E0,6.7304975E-1,-6.2439156E0,-4.6520076E0,1.2499636E0,-3.7910802E0,-6.83054E-1,-5.4885364E-1,-2.642289E-1,-5.4593915E-1,1.4330837E0,-2.7307596E0,-5.339732E0,-1.9239528E0,-1.02707855E-1,1.6641551E-1,-6.6430175E-1,-2.01773E-1,-4.1481668E-1,-6.088324E-1,-8.05861E-2,-2.590589E-1],"categories":[],"categories_nodes":[],"categories_segments":[],"categories_sizes":[],"default_left":[0,0,0,0,0,0,0,0,0,0,0,0,0,0,0,0,0,0,0,0,0,0,0],"id":6,"left_children":[1,3,5,7,9,11,13,-1,-1,-1,-1,15,17,19,21,-1,-1,-1,-1,-1,-1,-1,-1],"loss_changes":[1.9181934E4,1.151582E2,1.0891035E4,1.4286328E2,9.915784E1,2.7331016E3,1.3892275E3,0E0,0E0,0E0,0E0,2.0368438E3,4.4687292E2,2.1023145E2,1.6263696E2,0E0,0E0,0E0,0E0,0E0,0E0,0E0,0E0],"parents":[2147483647,0,0,1,1,2,2,3,3,4,4,5,5,6,6,11,11,12,12,13,13,14,14],"right_children":[2,4,6,8,10,12,14,-1,-1,-1,-1,16,18,20,22,-1,-1,-1,-1,-1,-1,-1,-1],"split_conditions":[4E0,3E0,2.1E1,5E0,2E0,7E0,4E0,-6.83054E-1,-5.4885364E-1,-2.642289E-1,-5.4593915E-1,7E0,5E0,2.2E1,2.2E1,-1.02707855E-1,1.6641551E-1,-6.6430175E-1,-2.01773E-1,-4.1481668E-1,-6.088324E-1,-8.05861E-2,-2.590589E-1],"split_indices":[1,1,1,0,0,0,0,0,0,0,0,1,1,1,1,0,0,0,0,0,0,0,0],"split_type":[0,0,0,0,0,0,0,0,0,0,0,0,0,0,0,0,0,0,0,0,0,0,0],"sum_hessian":[4.701E3,4.75E2,4.226E3,4.06E2,6.9E1,3.743E3,4.83E2,2.24E2,1.82E2,2.1E1,4.8E1,3.579E3,1.64E2,2.63E2,2.2E2,3.07E2,3.272E3,2.4E1,1.4E2,1.04E2,1.59E2,8.3E1,1.37E2],"tree_param":{"num_deleted":"0","num_feature":"2","num_nodes":"23","size_leaf_vector":"1"}},{"base_weights":[-5.093361E-3,-5.424926E0,6.0523206E-1,-5.622551E0,-4.1983805E0,1.3388134E0,-2.4305515E0,-6.1505216E-1,-4.9426818E-1,-2.3900707E-1,-4.9245936E-1,-4.117504E-2,2.005385E0,-3.6042182E0,-8.9602864E-1,1.3815181E-1,-1.386557E-1,2.238578E-1,9.82387E-2,-2.018826E-1,-4.8096368E-1,5.5742566E-4,-2.3334073E-1],"categories":[],"categories_nodes":[],"categories_segments":[],"categories_sizes":[],"default_left":[0,0,0,0,0,0,0,0,0,0,0,0,0,0,0,0,0,0,0,0,0,0,0],"id":7,"left_children":[1,3,5,7,9,11,13,-1,-1,-1,-1,15,17,19,21,-1,-1,-1,-1,-1,-1,-1,-1],"loss_changes":[1.5556849E4,9.1774414E1,9.416759E3,1.1569238E2,8.015503E1,3.1322095E3,1.4790083E3,0E0,0E0,0E0,0E0,2.1265286E3,5.455254E2,8.808447E2,4.6396124E2,0E0,0E0,0E0,0E0,0E0,0E0,0E0,0E0],"parents":[2147483647,0,0,1,1,2,2,3,3,4,4,5,5,6,6,11,11,12,12,13,13,14,14],"right_children":[2,4,6,8,10,12,14,-1,-1,-1,-1,16,18,20,22,-1,-1,-1,-1,-1,-1,-1,-1],"split_conditions":[4E0,3E0,1.9E1,5E0,2E0,9E0,4E0,-6.1505216E-1,-4.9426818E-1,-2.3900707E-1,-4.9245936E-1,5E0,1.7E1,2.1E1,2.2E1,1.3815181E-1,-1.386557E-1,2.238578E-1,9.82387E-2,-2.018826E-1,-4.8096368E-1,5.5742566E-4,-2.3334073E-1],"split_indices":[1,1,1,0,0,1,0,0,0,0,0,0,1,1,1,0,0,0,0,0,0,0,0],"split_type":[0,0,0,0,0,0,0,0,0,0,0,0,0,0,0,0,0,0,0,0,0,0,0],"sum_hessian":[4.701E3,4.75E2,4.226E3,4.06E2,6.9E1,3.404E3,8.22E2,2.24E2,1.82E2,2.1E1,4.8E1,1.109E3,2.295E3,4.65E2,3.57E2,5.39E2,5.7E2,1.868E3,4.27E2,2.02E2,2.63E2,2.2E2,1.37E2],"tree_param":{"num_deleted":"0","num_feature":"2","num_nodes":"23","size_leaf_vector":"1"}},{"base_weights":[-5.101798E-3,-4.8863006E0,5.4456836E-1,-5.063021E0,-3.7889922E0,1.2050266E0,-2.1886091E0,-5.538203E0,-4.4511142E-1,-2.1619277E-1,-4.4421846E-1,-3.705785E-2,1.804987E0,-3.2452617E0,-8.070765E-1,-5.069716E-1,-5.8185214E-1,1.24362245E-1,-1.2481441E-1,1.9471593E-1,4.054928E-2,-2.3173869E-1,-5.0053394E-1,5.018899E-4,-2.1017578E-1],"categories":[],"categories_nodes":[],"categories_segments":[],"categories_sizes":[],"default_left":[0,0,0,0,0,0,0,0,0,0,0,0,0,0,0,0,0,0,0,0,0,0,0,0,0],"id":8,"left_children":[1,3,5,7,9,11,13,15,-1,-1,-1,17,19,21,23,-1,-1,-1,-1,-1,-1,-1,-1,-1,-1],"loss_changes":[1.2618358E4,7.312109E1,7.6330054E3,9.368945E1,6.479132E1,2.5374775E3,1.1987964E3,5.029297E-2,0E0,0E0,0E0,1.7231782E3,4.5604443E2,7.4943994E2,3.764134E2,0E0,0E0,0E0,0E0,0E0,0E0,0E0,0E0,0E0,0E0],"parents":[2147483647,0,0,1,1,2,2,3,3,4,4,5,5,6,6,7,7,11,11,12,12,13,13,14,14],"right_children":[2,4,6,8,10,12,14,16,-1,-1,-1,18,20,22,24,-1,-1,-1,-1,-1,-1,-1,-1,-1,-1],"split_conditions":[4E0,3E0,1.9E1,5E0,2E0,9E0,4E0,2E0,-4.4511142E-1,-2.1619277E-1,-4.4421846E-1,5E0,1.8E1,2.2E1,2.2E1,-5.069716E-1,-5.8185214E-1,1.24362245E-1,-1.2481441E-1,1.9471593E-1,4.054928E-2,-2.3173869E-1,-5.0053394E-1,5.018899E-4,-2.1017578E-1],"split_indices":[1,1,1,0,0,1,0,0,0,0,0,0,1,1,1,0,0,0,0,0,0,0,0,0,0],"split_type":[0,0,0,0,0,0,0,0,0,0,0,0,0,0,0,0,0,0,0,0,0,0,0,0,0],"sum_hessian":[4.701E3,4.75E2,4.226E3,4.06E2,6.9E1,3.404E3,8.22E2,2.24E2,1.82E2,2.1E1,4.8E1,1.109E3,2.295E3,4.65E2,3.57E2,9.1E1,1.33E2,5.39E2,5.7E2,2.083E3,2.12E2,3.06E2,1.59E2,2.2E2,1.37E2],"tree_param":{"num_deleted":"0","num_feature":"2","num_nodes":"25","size_leaf_vector":"1"}},{"base_weights":[-5.208536E-3,-3.5289304E0,6.3281476E-1,-4.4022803E0,-1.8246882E0,1.3107319E0,-1.9708927E0,-4.560488E0,-3.419527E0,1.786816E-1,-5.180097E-1,1.4441321E0,-1.5557872E-1,-2.9223068E0,-7.2695446E-1,-4.989222E-1,-4.0084353E-1,-1.9555615E-1,-4.0070316E-1,1.4564754E-1,-7.852607E-2,1.8454659E-1,8.8739686E-2,-1.5873407E-1,-3.9377454E-1,4.4993054E-2,-1.4585526E-1],"categories":[],"categories_nodes":[],"categories_segments":[],"categories_sizes":[],"default_left":[0,0,0,0,0,0,0,0,0,0,0,0,0,0,0,0,0,0,0,0,0,0,0,0,0,0,0],"id":9,"left_children":[1,3,5,7,9,11,13,15,17,19,-1,21,-1,23,25,-1,-1,-1,-1,-1,-1,-1,-1,-1,-1,-1,-1],"loss_changes":[1.0573347E4,1.0651035E3,7.0312036E3,5.8413086E1,1.6545684E3,1.2106118E3,9.7189624E2,7.6331055E1,5.2370056E1,1.9206021E2,0E0,6.731416E2,0E0,6.25448E2,3.0889667E2,0E0,0E0,0E0,0E0,0E0,0E0,0E0,0E0,0E0,0E0,0E0,0E0],"parents":[2147483647,0,0,1,1,2,2,3,3,4,4,5,5,6,6,7,7,8,8,9,9,11,11,13,13,14,14],"right_children":[2,4,6,8,10,12,14,16,18,20,-1,22,-1,24,26,-1,-1,-1,-1,-1,-1,-1,-1,-1,-1,-1,-1],"split_conditions":[6E0,4E0,1.9E1,3E0,5E0,7E0,4E0,5E0,2E0,3E0,-5.180097E-1,5E0,-1.5557872E-1,2.1E1,2.1E1,-4.989222E-1,-4.0084353E-1,-1.9555615E-1,-4.0070316E-1,1.4564754E-1,-7.852607E-2,1.8454659E-1,8.8739686E-2,-1.5873407E-1,-3.9377454E-1,4.4993054E-2,-1.4585526E-1],"split_indices":[1,1,1,1,0,0,0,0,0,0,0,0,0,1,1,0,0,0,0,0,0,0,0,0,0,0,0],"split_type":[0,0,0,0,0,0,0,0,0,0,0,0,0,0,0,0,0,0,0,0,0,0,0,0,0,0,0],"sum_hessian":[4.701E3,7.2E2,3.981E3,4.75E2,2.45E2,3.159E3,8.22E2,4.06E2,6.9E1,1.54E2,9.1E1,3.019E3,1.4E2,4.65E2,3.57E2,2.24E2,1.82E2,2.1E1,4.8E1,6.6E1,8.8E1,1.753E3,1.266E3,2.02E2,2.63E2,1.37E2,2.2E2],"tree_param":{"num_deleted":"0","num_feature":"2","num_nodes":"27","size_leaf_vector":"1"}},{"base_weights":[-5.2158562E-3,-3.1787374E0,5.6939846E-1,-3.9651952E0,-1.6440517E0,1.1796956E0,-1.7745973E0,-4.10665E0,-3.0860922E0,1.6124701E-1,-4.6677175E-1,5.183158E-1,1.6797621E0,-3.6858985E0,-1.2261688E0,-4.492517E-1,-3.6097822E-1,-1.7688946E-1,-3.6145058E-1,1.3130023E-1,-7.076164E-2,7.393872E-2,-1.4013118E-1,2.3722175E-1,7.513093E-2,-3.113468E-1,-4.5865303E-1,-4.903612E-2,-2.5478384E-1],"categories":[],"categories_nodes":[],"categories_segments":[],"categories_sizes":[],"default_left":[0,0,0,0,0,0,0,0,0,0,0,0,0,0,0,0,0,0,0,0,0,0,0,0,0,0,0,0,0],"id":10,"left_children":[1,3,5,7,9,11,13,15,17,19,-1,21,23,25,27,-1,-1,-1,-1,-1,-1,-1,-1,-1,-1,-1,-1,-1,-1],"loss_changes":[8.576146E3,8.637036E2,5.69848E3,4.6518555E1,1.3435731E3,1.0442485E3,8.581587E2,6.181494E1,4.2328064E1,1.5604037E2,0E0,5.790343E2,1.1548164E3,8.0065674E1,6.221195E2,0E0,0E0,0E0,0E0,0E0,0E0,0E0,0E0,0E0,0E0,0E0,0E0,0E0,0E0],"parents":[2147483647,0,0,1,1,2,2,3,3,4,4,5,5,6,6,7,7,8,8,9,9,11,11,12,12,13,13,14,14],"right_children":[2,4,6,8,10,12,14,16,18,20,-1,22,24,26,28,-1,-1,-1,-1,-1,-1,-1,-1,-1,-1,-1,-1,-1,-1],"split_conditions":[6E0,4E0,1.9E1,3E0,5E0,1E1,2E0,5E0,2E0,3E0,-4.6677175E-1,7E0,5E0,2.2E1,2.2E1,-4.492517E-1,-3.6097822E-1,-1.7688946E-1,-3.6145058E-1,1.3130023E-1,-7.076164E-2,7.393872E-2,-1.4013118E-1,2.3722175E-1,7.513093E-2,-3.113468E-1,-4.5865303E-1,-4.903612E-2,-2.5478384E-1],"split_indices":[1,1,1,1,0,1,0,0,0,0,0,0,0,1,1,0,0,0,0,0,0,0,0,0,0,0,0,0,0],"split_type":[0,0,0,0,0,0,0,0,0,0,0,0,0,0,0,0,0,0,0,0,0,0,0,0,0,0,0,0,0],"sum_hessian":[4.701E3,7.2E2,3.981E3,4.75E2,2.45E2,3.159E3,8.22E2,4.06E2,6.9E1,1.54E2,9.1E1,1.361E3,1.798E3,1.82E2,6.4E2,2.24E2,1.82E2,2.1E1,4.8E1,6.6E1,8.8E1,1.221E3,1.4E2,1.029E3,7.69E2,1.14E2,6.8E1,4.12E2,2.28E2],"tree_param":{"num_deleted":"0","num_feature":"2","num_nodes":"29","size_leaf_vector":"1"}},{"base_weights":[-5.2435603E-3,-2.8632975E0,5.122507E-1,-3.571509E0,-1.4812977E0,1.0618039E0,-1.5984423E0,-3.6979756E0,-2.7851737E0,1.4551294E-1,-4.206019E-1,4.6643585E-1,1.5119593E0,-2.4182096E0,-5.269062E-1,-4.0452623E-1,-3.2507765E-1,-1.6000457E-1,-3.2604316E-1,1.1836618E-1,-6.376499E-2,6.6550925E-2,-1.2621747E-1,2.1352251E-1,6.762764E-2,-1.2875573E-1,-3.2784528E-1,4.5394387E-2,-1.1369985E-1],"categories":[],"categories_nodes":[],"categories_segments":[],"categories_sizes":[],"default_left":[0,0,0,0,0,0,0,0,0,0,0,0,0,0,0,0,0,0,0,0,0,0,0,0,0,0,0,0,0],"id":11,"left_children":[1,3,5,7,9,11,13,15,17,19,-1,21,23,25,27,-1,-1,-1,-1,-1,-1,-1,-1,-1,-1,-1,-1,-1,-1],"loss_changes":[6.955849E3,7.003867E2,4.620571E3,3.703662E1,1.091033E3,8.462002E2,7.216575E2,5.0059082E1,3.4210083E1,1.267759E2,0E0,4.6953186E2,9.355698E2,4.490271E2,2.147466E2,0E0,0E0,0E0,0E0,0E0,0E0,0E0,0E0,0E0,0E0,0E0,0E0,0E0,0E0],"parents":[2147483647,0,0,1,1,2,2,3,3,4,4,5,5,6,6,7,7,8,8,9,9,11,11,12,12,13,13,14,14],"right_children":[2,4,6,8,10,12,14,16,18,20,-1,22,24,26,28,-1,-1,-1,-1,-1,-1,-1,-1,-1,-1,-1,-1,-1,-1],"split_conditions":[6E0,4E0,1.9E1,3E0,5E0,1E1,4E0,5E0,2E0,3E0,-4.206019E-1,7E0,5E0,2.1E1,2.1E1,-4.0452623E-1,-3.2507765E-1,-1.6000457E-1,-3.2604316E-1,1.1836618E-1,-6.376499E-2,6.6550925E-2,-1.2621747E-1,2.1352251E-1,6.762764E-2,-1.2875573E-1,-3.2784528E-1,4.5394387E-2,-1.1369985E-1],"split_indices":[1,1,1,1,0,1,0,0,0,0,0,0,0,1,1,0,0,0,0,0,0,0,0,0,0,0,0,0,0],"split_type":[0,0,0,0,0,0,0,0,0,0,0,0,0,0,0,0,0,0,0,0,0,0,0,0,0,0,0,0,0],"sum_hessian":[4.701E3,7.2E2,3.981E3,4.75E2,2.45E2,3.159E3,8.22E2,4.06E2,6.9E1,1.54E2,9.1E1,1.361E3,1.798E3,4.65E2,3.57E2,2.24E2,1.82E2,2.1E1,4.8E1,6.6E1,8.8E1,1.221E3,1.4E2,1.029E3,7.69E2,2.02E2,2.63E2,1.37E2,2.2E2],"tree_param":{"num_deleted":"0","num_feature":"2","num_nodes":"29","size_leaf_vector":"1"}},{"base_weights":[-5.1199542E-3,-2.5791616E0,4.6094963E-1,-3.216912E0,-1.3346559E0,9.5569384E-1,-1.4392359E0,-3.3299708E0,-2.5135999E0,1.3131368E-1,-3.789989E0,4.1974825E-1,1.3609202E0,-3.0737927E0,-9.7033864E-1,-3.6425337E-1,-2.9274756E-1,-1.447314E-1,-2.9410425E-1,1.0670624E-1,-5.7460178E-2,-3.508813E-1,-4.403188E-1,5.990125E-2,-1.13685206E-1,1.9219105E-1,6.087373E-2,-2.6044813E-1,-3.8114306E-1,-3.4390688E-2,-2.095867E-1],"categories":[],"categories_nodes":[],"categories_segments":[],"categories_sizes":[],"default_left":[0,0,0,0,0,0,0,0,0,0,0,0,0,0,0,0,0,0,0,0,0,0,0,0,0,0,0,0,0,0,0],"id":12,"left_children":[1,3,5,7,9,11,13,15,17,19,21,23,25,27,29,-1,-1,-1,-1,-1,-1,-1,-1,-1,-1,-1,-1,-1,-1,-1,-1],"loss_changes":[5.642096E3,5.6795215E2,3.7448765E3,2.9479492E1,8.859608E2,6.857151E2,6.277969E2,4.053955E1,2.7647675E1,1.02999855E2,4.1235352E-1,3.8073718E2,7.5794946E2,5.342456E1,4.512268E2,0E0,0E0,0E0,0E0,0E0,0E0,0E0,0E0,0E0,0E0,0E0,0E0,0E0,0E0,0E0,0E0],"parents":[2147483647,0,0,1,1,2,2,3,3,4,4,5,5,6,6,7,7,8,8,9,9,10,10,11,11,12,12,13,13,14,14],"right_children":[2,4,6,8,10,12,14,16,18,20,22,24,26,28,30,-1,-1,-1,-1,-1,-1,-1,-1,-1,-1,-1,-1,-1,-1,-1,-1],"split_conditions":[6E0,4E0,1.9E1,3E0,5E0,1E1,2E0,5E0,2E0,3E0,7E0,7E0,5E0,2.2E1,2.2E1,-3.6425337E-1,-2.9274756E-1,-1.447314E-1,-2.9410425E-1,1.0670624E-1,-5.7460178E-2,-3.508813E-1,-4.403188E-1,5.990125E-2,-1.13685206E-1,1.9219105E-1,6.087373E-2,-2.6044813E-1,-3.8114306E-1,-3.4390688E-2,-2.095867E-1],"split_indices":[1,1,1,1,0,1,0,0,0,0,0,0,0,1,1,0,0,0,0,0,0,0,0,0,0,0,0,0,0,0,0],"split_type":[0,0,0,0,0,0,0,0,0,0,0,0,0,0,0,0,0,0,0,0,0,0,0,0,0,0,0,0,0,0,0],"sum_hessian":[4.701E3,7.2E2,3.981E3,4.75E2,2.45E2,3.159E3,8.22E2,4.06E2,6.9E1,1.54E2,9.1E1,1.361E3,1.798E3,1.82E2,6.4E2,2.24E2,1.82E2,2.1E1,4.8E1,6.6E1,8.8E1,6.7E1,2.4E1,1.221E3,1.4E2,1.029E3,7.69E2,1.14E2,6.8E1,4.12E2,2.28E2],"tree_param":{"num_deleted":"0","num_feature":"2","num_nodes":"31","size_leaf_vector":"1"}},{"base_weights":[-5.1446287E-3,-2.3237944E0,4.1468248E-1,-2.897523E0,-1.2042065E0,9.402872E-1,-1.0828028E0,-3.1487174E0,-2.6174736E0,1.1849971E-1,-3.4195898E0,6.5461403E-1,1.9354508E0,-2.0270135E0,8.922259E-3,-3.458442E-1,-2.5634906E-1,-2.7521035E-1,-2.268509E-1,9.619483E-2,-5.1778745E-2,-3.1630915E-1,-3.9804816E-1,7.642916E-2,-1.0239728E-1,3.1330797E-1,3.0162698E-2,-1.5601629E-1,-3.1698E-1,7.6240025E-2,-8.809722E-2],"categories":[],"categories_nodes":[],"categories_segments":[],"categories_sizes":[],"default_left":[0,0,0,0,0,0,0,0,0,0,0,0,0,0,0,0,0,0,0,0,0,0,0,0,0,0,0,0,0,0,0],"id":13,"left_children":[1,3,5,7,9,11,13,15,17,19,21,23,25,27,29,-1,-1,-1,-1,-1,-1,-1,-1,-1,-1,-1,-1,-1,-1,-1,-1],"loss_changes":[4.5780405E3,4.5963745E2,3.1351917E3,2.5243652E1,7.212593E2,8.368242E2,1.0669153E3,3.572412E1,4.609375E0,8.368279E1,6.451416E-1,4.2274744E2,1.2846167E3,2.9115308E2,3.231898E2,0E0,0E0,0E0,0E0,0E0,0E0,0E0,0E0,0E0,0E0,0E0,0E0,0E0,0E0,0E0,0E0],"parents":[2147483647,0,0,1,1,2,2,3,3,4,4,5,5,6,6,7,7,8,8,9,9,10,10,11,11,12,12,13,13,14,14],"right_children":[2,4,6,8,10,12,14,16,18,20,22,24,26,28,30,-1,-1,-1,-1,-1,-1,-1,-1,-1,-1,-1,-1,-1,-1,-1,-1],"split_conditions":[6E0,4E0,1.8E1,2E0,5E0,1.5E1,4E0,5E0,3E0,3E0,7E0,7E0,5E0,2.2E1,2.1E1,-3.458442E-1,-2.5634906E-1,-2.7521035E-1,-2.268509E-1,9.619483E-2,-5.1778745E-2,-3.1630915E-1,-3.9804816E-1,7.642916E-2,-1.0239728E-1,3.1330797E-1,3.0162698E-2,-1.5601629E-1,-3.1698E-1,7.6240025E-2,-8.809722E-2],"split_indices":[1,1,1,1,0,1,0,0,1,0,0,0,0,1,1,0,0,0,0,0,0,0,0,0,0,0,0,0,0,0,0],"split_type":[0,0,0,0,0,0,0,0,0,0,0,0,0,0,0,0,0,0,0,0,0,0,0,0,0,0,0,0,0,0,0],"sum_hessian":[4.701E3,7.2E2,3.981E3,4.75E2,2.45E2,2.947E3,1.034E3,2.45E2,2.3E2,1.54E2,9.1E1,2.291E3,6.56E2,5.54E2,4.8E2,1.57E2,8.8E1,1.61E2,6.9E1,6.6E1,8.8E1,6.7E1,2.4E1,2.151E3,1.4E2,3.78E2,2.78E2,3.95E2,1.59E2,2.6E2,2.2E2],"tree_param":{"num_deleted":"0","num_feature":"2","num_nodes":"31","size_leaf_vector":"1"}},{"base_weights":[-5.0432617E-3,-2.0938756E0,3.7317201E-1,-2.6100905E0,-1.0865093E0,8.4636587E-1,-9.7499096E-1,-2.8362937E0,-2.3578997E0,1.06936045E-1,-3.0853956E0,3.197417E-1,1.2977936E0,-1.8251646E0,8.005531E-3,-3.1147867E-1,-2.310022E-1,-2.4785922E-1,-2.0448987E-1,1.7016023E-1,-1.838134E-2,-2.851434E-1,-3.598355E-1,4.6279278E-2,-9.22302E-2,1.8683554E-1,5.495329E-2,-1.4045408E-1,-2.854801E-1,6.864523E-2,-7.932733E-2],"categories":[],"categories_nodes":[],"categories_segments":[],"categories_sizes":[],"default_left":[0,0,0,0,0,0,0,0,0,0,0,0,0,0,0,0,0,0,0,0,0,0,0,0,0,0,0,0,0,0,0],"id":14,"left_children":[1,3,5,7,9,11,13,15,17,19,21,23,25,27,29,-1,-1,-1,-1,-1,-1,-1,-1,-1,-1,-1,-1,-1,-1,-1,-1],"loss_changes":[3.7154946E3,3.7209644E2,2.5411123E3,2.0466553E1,5.871781E2,7.004209E2,8.6498254E2,2.8859253E1,3.657959E0,7.217826E1,7.807007E-1,2.4242113E2,6.7650977E2,2.3635498E2,2.6202817E2,0E0,0E0,0E0,0E0,0E0,0E0,0E0,0E0,0E0,0E0,0E0,0E0,0E0,0E0,0E0,0E0],"parents":[2147483647,0,0,1,1,2,2,3,3,4,4,5,5,6,6,7,7,8,8,9,9,10,10,11,11,12,12,13,13,14,14],"right_children":[2,4,6,8,10,12,14,16,18,20,22,24,26,28,30,-1,-1,-1,-1,-1,-1,-1,-1,-1,-1,-1,-1,-1,-1,-1,-1],"split_conditions":[6E0,4E0,1.8E1,2E0,5E0,1E1,4E0,5E0,3E0,2E0,7E0,7E0,5E0,2.2E1,2.1E1,-3.1147867E-1,-2.310022E-1,-2.4785922E-1,-2.0448987E-1,1.7016023E-1,-1.838134E-2,-2.851434E-1,-3.598355E-1,4.6279278E-2,-9.22302E-2,1.8683554E-1,5.495329E-2,-1.4045408E-1,-2.854801E-1,6.864523E-2,-7.932733E-2],"split_indices":[1,1,1,1,0,1,0,0,1,0,0,0,0,1,1,0,0,0,0,0,0,0,0,0,0,0,0,0,0,0,0],"split_type":[0,0,0,0,0,0,0,0,0,0,0,0,0,0,0,0,0,0,0,0,0,0,0,0,0,0,0,0,0,0,0],"sum_hessian":[4.701E3,7.2E2,3.981E3,4.75E2,2.45E2,2.947E3,1.034E3,2.45E2,2.3E2,1.54E2,9.1E1,1.361E3,1.586E3,5.54E2,4.8E2,1.57E2,8.8E1,1.61E2,6.9E1,2.3E1,1.31E2,6.7E1,2.4E1,1.221E3,1.4E2,8.99E2,6.87E2,3.95E2,1.59E2,2.6E2,2.2E2],"tree_param":{"num_deleted":"0","num_feature":"2","num_nodes":"31","size_leaf_vector":"1"}},{"base_weights":[-4.9067694E-3,-1.886552E0,3.3579415E-1,-2.3511715E0,-9.798632E-1,7.6179546E-1,-8.779138E-1,-2.5548694E0,-2.1240683E0,9.722159E-2,-2.7838664E0,5.1784414E-1,1.6116809E0,-1.6434156E0,7.182736E-3,-2.8052795E-1,-2.081615E-1,-2.2322631E-1,-1.8433304E-1,8.205725E-2,-4.4841584E-2,-2.5704834E-1,-3.252913E-1,6.0596246E-2,-8.307262E-2,2.6342544E-1,2.1681663E-2,-1.2644415E-1,-2.5711057E-1,6.1806984E-2,-7.143047E-2],"categories":[],"categories_nodes":[],"categories_segments":[],"categories_sizes":[],"default_left":[0,0,0,0,0,0,0,0,0,0,0,0,0,0,0,0,0,0,0,0,0,0,0,0,0,0,0,0,0,0,0],"id":15,"left_children":[1,3,5,7,9,11,13,15,17,19,21,23,25,27,29,-1,-1,-1,-1,-1,-1,-1,-1,-1,-1,-1,-1,-1,-1,-1,-1],"loss_changes":[3.0149834E3,3.0142822E2,2.0595269E3,1.6593506E1,4.7826447E2,6.103762E2,7.0126886E2,2.3313354E1,2.9017334E0,6.1544495E1,8.4643555E-1,2.728703E2,9.36542E2,1.9187048E2,2.1244098E2,0E0,0E0,0E0,0E0,0E0,0E0,0E0,0E0,0E0,0E0,0E0,0E0,0E0,0E0,0E0,0E0],"parents":[2147483647,0,0,1,1,2,2,3,3,4,4,5,5,6,6,7,7,8,8,9,9,10,10,11,11,12,12,13,13,14,14],"right_children":[2,4,6,8,10,12,14,16,18,20,22,24,26,28,30,-1,-1,-1,-1,-1,-1,-1,-1,-1,-1,-1,-1,-1,-1,-1,-1],"split_conditions":[6E0,4E0,1.8E1,2E0,5E0,1.5E1,4E0,5E0,3E0,3E0,7E0,7E0,5E0,2.2E1,2.1E1,-2.8052795E-1,-2.081615E-1,-2.2322631E-1,-1.8433304E-1,8.205725E-2,-4.4841584E-2,-2.5704834E-1,-3.252913E-1,6.0596246E-2,-8.307262E-2,2.6342544E-1,2.1681663E-2,-1.2644415E-1,-2.5711057E-1,6.1806984E-2,-7.143047E-2],"split_indices":[1,1,1,1,0,1,0,0,1,0,0,0,0,1,1,0,0,0,0,0,0,0,0,0,0,0,0,0,0,0,0],"split_type":[0,0,0,0,0,0,0,0,0,0,0,0,0,0,0,0,0,0,0,0,0,0,0,0,0,0,0,0,0,0,0],"sum_hessian":[4.701E3,7.2E2,3.981E3,4.75E2,2.45E2,2.947E3,1.034E3,2.45E2,2.3E2,1.54E2,9.1E1,2.291E3,6.56E2,5.54E2,4.8E2,1.57E2,8.8E1,1.61E2,6.9E1,6.6E1,8.8E1,6.7E1,2.4E1,2.151E3,1.4E2,3.78E2,2.78E2,3.95E2,1.59E2,2.6E2,2.2E2],"tree_param":{"num_deleted":"0","num_feature":"2","num_nodes":"31","size_leaf_vector":"1"}},{"base_weights":[-4.7505307E-3,-1.699896E0,3.0218184E-1,-2.1179373E0,-8.840929E-1,5.9046084E-1,-1.1523579E0,-2.301369E0,-1.9134259E0,8.773931E-2,-2.5118093E0,7.3267794E-1,-6.708929E-2,-1.5234743E0,-4.405322E-3,-2.5265267E-1,-1.8757926E-1,-2.010415E-1,-1.6616309E-1,1.4598931E-1,-1.6240789E-2,-2.317215E-1,-2.9406333E-1,4.6604972E-2,2.1136263E-1,-1.8398617E-1,3.8751356E-2,-1.1131076E-1,-2.0204715E-1,4.3049265E-2,-2.2958136E-1],"categories":[],"categories_nodes":[],"categories_segments":[],"categories_sizes":[],"default_left":[0,0,0,0,0,0,0,0,0,0,0,0,0,0,0,0,0,0,0,0,0,0,0,0,0,0,0,0,0,0,0],"id":16,"left_children":[1,3,5,7,9,11,13,15,17,19,21,23,25,27,29,-1,-1,-1,-1,-1,-1,-1,-1,-1,-1,-1,-1,-1,-1,-1,-1],"loss_changes":[2.4469407E3,2.4401685E2,1.670386E3,1.3453125E1,3.8935977E2,3.1089246E2,2.8074304E2,1.8832886E1,2.3007202E0,5.343936E1,8.630371E-1,1.0053047E3,4.7781015E2,9.9318726E1,1.62426E2,0E0,0E0,0E0,0E0,0E0,0E0,0E0,0E0,0E0,0E0,0E0,0E0,0E0,0E0,0E0,0E0],"parents":[2147483647,0,0,1,1,2,2,3,3,4,4,5,5,6,6,7,7,8,8,9,9,10,10,11,11,12,12,13,13,14,14],"right_children":[2,4,6,8,10,12,14,16,18,20,22,24,26,28,30,-1,-1,-1,-1,-1,-1,-1,-1,-1,-1,-1,-1,-1,-1,-1,-1],"split_conditions":[6E0,4E0,2E1,2E0,5E0,1.7E1,5E0,5E0,3E0,2E0,7E0,1.5E1,2E0,2.2E1,2.3E1,-2.5265267E-1,-1.8757926E-1,-2.010415E-1,-1.6616309E-1,1.4598931E-1,-1.6240789E-2,-2.317215E-1,-2.9406333E-1,4.6604972E-2,2.1136263E-1,-1.8398617E-1,3.8751356E-2,-1.1131076E-1,-2.0204715E-1,4.3049265E-2,-2.2958136E-1],"split_indices":[1,1,1,1,0,1,0,0,1,0,0,1,0,1,1,0,0,0,0,0,0,0,0,0,0,0,0,0,0,0,0],"split_type":[0,0,0,0,0,0,0,0,0,0,0,0,0,0,0,0,0,0,0,0,0,0,0,0,0,0,0,0,0,0,0],"sum_hessian":[4.701E3,7.2E2,3.981E3,4.75E2,2.45E2,3.323E3,6.58E2,2.45E2,2.3E2,1.54E2,9.1E1,2.732E3,5.91E2,4.97E2,1.61E2,1.57E2,8.8E1,1.61E2,6.9E1,2.3E1,1.31E2,6.7E1,2.4E1,2.291E3,4.41E2,1.2E2,4.71E2,2.74E2,2.23E2,1.36E2,2.5E1],"tree_param":{"num_deleted":"0","num_feature":"2","num_nodes":"31","size_leaf_vector":"1"}},{"base_weights":[-4.6134503E-3,-1.5315754E0,2.7186677E-1,-1.9078399E0,-7.972933E-1,6.187446E-1,-7.1641123E-1,-2.0730217E0,-1.7236727E0,7.980272E-2,-2.2663434E0,1.9537893E-1,9.816969E-1,-1.3641866E0,3.2511365E-2,-2.2754733E-1,-1.6903211E-1,-1.8106143E-1,-1.4978415E-1,7.0004724E-2,-3.8801953E-2,-2.0889008E-1,-2.658333E-1,3.0943785E-2,-7.945173E-2,1.4557835E-1,3.600986E-2,-2.0374742E-1,-9.640112E-2,2.1022553E-2,-1.7372912E-1],"categories":[],"categories_nodes":[],"categories_segments":[],"categories_sizes":[],"default_left":[0,0,0,0,0,0,0,0,0,0,0,0,0,0,0,0,0,0,0,0,0,0,0,0,0,0,0,0,0,0,0],"id":17,"left_children":[1,3,5,7,9,11,13,15,17,19,21,23,25,27,29,-1,-1,-1,-1,-1,-1,-1,-1,-1,-1,-1,-1,-1,-1,-1,-1],"loss_changes":[1.9854823E3,1.9767981E2,1.3655195E3,1.09071045E1,3.1715137E2,4.528025E2,5.021577E2,1.5213379E1,1.8234863E0,4.5247078E1,8.461304E-1,1.5402448E2,4.6715112E2,1.4757129E2,1.5164886E2,0E0,0E0,0E0,0E0,0E0,0E0,0E0,0E0,0E0,0E0,0E0,0E0,0E0,0E0,0E0,0E0],"parents":[2147483647,0,0,1,1,2,2,3,3,4,4,5,5,6,6,7,7,8,8,9,9,10,10,11,11,12,12,13,13,14,14],"right_children":[2,4,6,8,10,12,14,16,18,20,22,24,26,28,30,-1,-1,-1,-1,-1,-1,-1,-1,-1,-1,-1,-1,-1,-1,-1,-1],"split_conditions":[6E0,4E0,1.8E1,2E0,5E0,1E1,4E0,5E0,3E0,3E0,7E0,7E0,5E0,2E0,6E0,-2.2754733E-1,-1.6903211E-1,-1.8106143E-1,-1.4978415E-1,7.0004724E-2,-3.8801953E-2,-2.0889008E-1,-2.658333E-1,3.0943785E-2,-7.945173E-2,1.4557835E-1,3.600986E-2,-2.0374742E-1,-9.640112E-2,2.1022553E-2,-1.7372912E-1],"split_indices":[1,1,1,1,0,1,0,0,1,0,0,0,0,0,0,0,0,0,0,0,0,0,0,0,0,0,0,0,0,0,0],"split_type":[0,0,0,0,0,0,0,0,0,0,0,0,0,0,0,0,0,0,0,0,0,0,0,0,0,0,0,0,0,0,0],"sum_hessian":[4.701E3,7.2E2,3.981E3,4.75E2,2.45E2,2.947E3,1.034E3,2.45E2,2.3E2,1.54E2,9.1E1,1.361E3,1.586E3,5.54E2,4.8E2,1.57E2,8.8E1,1.61E2,6.9E1,6.6E1,8.8E1,6.7E1,2.4E1,1.221E3,1.4E2,8.99E2,6.87E2,2.05E2,3.49E2,4.37E2,4.3E1],"tree_param":{"num_deleted":"0","num_feature":"2","num_nodes":"31","size_leaf_vector":"1"}},{"base_weights":[-4.469162E-3,-1.2997606E0,2.6383287E-1,-2.558539E-1,-1.8212384E0,5.1512516E-1,-9.712934E-1,-1.6830058E0,1.8353035E0,-1.5481397E0,-4.8522067E-1,4.53775E-2,7.1365404E-1,-1.2768452E0,-2.6008835E-2,-1.8694745E-1,-4.1988704E-2,6.310867E-2,3.6272863E-1,-1.20191574E-1,-1.730422E-1,-4.818977E-2,8.0807164E-2,1.1881896E-1,4.0808056E-2,-5.7535376E-2,-1.5256737E-1,3.6688868E-2,-2.0952761E-1],"categories":[],"categories_nodes":[],"categories_segments":[],"categories_sizes":[],"default_left":[0,0,0,0,0,0,0,0,0,0,0,0,0,0,0,0,0,0,0,0,0,0,0,0,0,0,0,0,0],"id":18,"left_children":[1,3,5,7,9,11,13,15,17,19,-1,21,23,25,27,-1,-1,-1,-1,-1,-1,-1,-1,-1,-1,-1,-1,-1,-1],"loss_changes":[1.6344258E3,4.38844E2,1.2097318E3,8.088768E2,4.3781946E2,3.019386E2,1.9030798E2,3.713571E1,2.3508374E2,2.915979E1,0E0,3.8765952E2,3.295475E2,8.6048645E1,1.3247635E2,0E0,0E0,0E0,0E0,0E0,0E0,0E0,0E0,0E0,0E0,0E0,0E0,0E0,0E0],"parents":[2147483647,0,0,1,1,2,2,3,3,4,4,5,5,6,6,7,7,8,8,9,9,11,11,12,12,13,13,14,14],"right_children":[2,4,6,8,10,12,14,16,18,20,-1,22,24,26,28,-1,-1,-1,-1,-1,-1,-1,-1,-1,-1,-1,-1,-1,-1],"split_conditions":[7E0,3E0,2E1,4E0,6E0,3E0,5E0,3E0,5E0,5E0,-4.8522067E-1,1.3E1,5E0,2.1E1,2.3E1,-1.8694745E-1,-4.1988704E-2,6.310867E-2,3.6272863E-1,-1.20191574E-1,-1.730422E-1,-4.818977E-2,8.0807164E-2,1.1881896E-1,4.0808056E-2,-5.7535376E-2,-1.5256737E-1,3.6688868E-2,-2.0952761E-1],"split_indices":[1,0,1,1,1,0,0,1,1,0,0,1,0,1,1,0,0,0,0,0,0,0,0,0,0,0,0,0,0],"split_type":[0,0,0,0,0,0,0,0,0,0,0,0,0,0,0,0,0,0,0,0,0,0,0,0,0,0,0,0,0],"sum_hessian":[4.701E3,8.06E2,3.895E3,2.69E2,5.37E2,3.237E3,6.58E2,1.6E2,1.09E2,4.94E2,4.3E1,9.62E2,2.275E3,4.97E2,1.61E2,1.39E2,2.1E1,6.6E1,4.3E1,1.73E2,3.21E2,5.69E2,3.93E2,8.9E2,1.385E3,1.31E2,3.66E2,1.36E2,2.5E1],"tree_param":{"num_deleted":"0","num_feature":"2","num_nodes":"29","size_leaf_vector":"1"}},{"base_weights":[-4.1862936E-3,-1.1705052E0,2.3740084E-1,-2.2953919E-1,-1.6405615E0,5.951172E-1,-5.2028924E-1,-1.5161273E0,1.6556448E0,-1.393918E0,-4.3780136E-1,3.6804312E-1,1.7270862E0,-1.71423E0,-2.1408927E-1,-1.6838625E-1,-3.798072E-2,5.6892015E-2,3.2728016E-1,-1.5729938E-1,-1.0717966E-1,-3.3329066E-2,6.523626E-2,2.6886663E-1,3.891657E-2,-1.5943053E-1,-2.8020748E-1,1.6953815E-2,-8.52554E-2],"categories":[],"categories_nodes":[],"categories_segments":[],"categories_sizes":[],"default_left":[0,0,0,0,0,0,0,0,0,0,0,0,0,0,0,0,0,0,0,0,0,0,0,0,0,0,0,0,0],"id":19,"left_children":[1,3,5,7,9,11,13,15,17,19,-1,21,23,25,27,-1,-1,-1,-1,-1,-1,-1,-1,-1,-1,-1,-1,-1,-1],"loss_changes":[1.3251493E3,3.565652E2,1.0562742E3,6.573831E2,3.571411E2,6.797512E2,4.5661374E2,3.004718E1,1.9145248E2,2.6867737E1,0E0,4.401001E2,5.675946E2,2.8799744E1,2.4409738E2,0E0,0E0,0E0,0E0,0E0,0E0,0E0,0E0,0E0,0E0,0E0,0E0,0E0,0E0],"parents":[2147483647,0,0,1,1,2,2,3,3,4,4,5,5,6,6,7,7,8,8,9,9,11,11,12,12,13,13,14,14],"right_children":[2,4,6,8,10,12,14,16,18,20,-1,22,24,26,28,-1,-1,-1,-1,-1,-1,-1,-1,-1,-1,-1,-1,-1,-1],"split_conditions":[7E0,3E0,1.7E1,4E0,6E0,1.5E1,2E0,3E0,5E0,4E0,-4.3780136E-1,3E0,5E0,2.3E1,2.1E1,-1.6838625E-1,-3.798072E-2,5.6892015E-2,3.2728016E-1,-1.5729938E-1,-1.0717966E-1,-3.3329066E-2,6.523626E-2,2.6886663E-1,3.891657E-2,-1.5943053E-1,-2.8020748E-1,1.6953815E-2,-8.52554E-2],"split_indices":[1,0,1,1,1,1,0,1,1,1,0,0,0,1,1,0,0,0,0,0,0,0,0,0,0,0,0,0,0],"split_type":[0,0,0,0,0,0,0,0,0,0,0,0,0,0,0,0,0,0,0,0,0,0,0,0,0,0,0,0,0],"sum_hessian":[4.701E3,8.06E2,3.895E3,2.69E2,5.37E2,2.646E3,1.249E3,1.6E2,1.09E2,4.94E2,4.3E1,2.205E3,4.41E2,2.54E2,9.95E2,1.39E2,2.1E1,6.6E1,4.3E1,3.15E2,1.79E2,6.36E2,1.569E3,2.56E2,1.85E2,2.31E2,2.3E1,6.22E2,3.73E2],"tree_param":{"num_deleted":"0","num_feature":"2","num_nodes":"29","size_leaf_vector":"1"}},{"base_weights":[-3.9151805E-3,-1.0541044E0,2.1361734E-1,-4.9918324E-1,-1.7247237E0,5.3573346E-1,-4.6866664E-1,-1.6300557E0,6.649514E-1,-1.4152702E0,-3.9501622E-1,3.3125287E-1,1.5550739E0,-1.5445307E0,-1.9274896E-1,-1.3267979E-1,-1.826098E-1,8.917115E-3,2.95296E-1,-1.2687847E-1,-1.767693E-1,-3.00014E-2,5.8716733E-2,2.420845E-1,3.504593E-2,-1.4355616E-1,-2.5335428E-1,5.442628E-3,-1.0208618E-1],"categories":[],"categories_nodes":[],"categories_segments":[],"categories_sizes":[],"default_left":[0,0,0,0,0,0,0,0,0,0,0,0,0,0,0,0,0,0,0,0,0,0,0,0,0,0,0,0,0],"id":20,"left_children":[1,3,5,7,9,11,13,15,17,19,-1,21,23,25,27,-1,-1,-1,-1,-1,-1,-1,-1,-1,-1,-1,-1,-1,-1],"loss_changes":[1.0743987E3,2.9945673E2,8.5649316E2,5.8428796E2,2.457738E2,5.5121326E2,3.7076474E2,1.0953735E1,2.8824515E2,1.4380371E1,0E0,3.5655612E2,4.6012256E2,2.3844666E1,2.0392578E2,0E0,0E0,0E0,0E0,0E0,0E0,0E0,0E0,0E0,0E0,0E0,0E0,0E0,0E0],"parents":[2147483647,0,0,1,1,2,2,3,3,4,4,5,5,6,6,7,7,8,8,9,9,11,11,12,12,13,13,14,14],"right_children":[2,4,6,8,10,12,14,16,18,20,-1,22,24,26,28,-1,-1,-1,-1,-1,-1,-1,-1,-1,-1,-1,-1,-1,-1],"split_conditions":[7E0,5E0,1.7E1,3E0,6E0,1.5E1,2E0,2E0,5E0,4E0,-3.9501622E-1,3E0,5E0,2.3E1,2.2E1,-1.3267979E-1,-1.826098E-1,8.917115E-3,2.95296E-1,-1.2687847E-1,-1.767693E-1,-3.00014E-2,5.8716733E-2,2.420845E-1,3.504593E-2,-1.4355616E-1,-2.5335428E-1,5.442628E-3,-1.0208618E-1],"split_indices":[1,0,1,1,1,1,0,0,1,1,0,0,0,1,1,0,0,0,0,0,0,0,0,0,0,0,0,0,0],"split_type":[0,0,0,0,0,0,0,0,0,0,0,0,0,0,0,0,0,0,0,0,0,0,0,0,0,0,0,0,0],"sum_hessian":[4.701E3,8.06E2,3.895E3,4.42E2,3.64E2,2.646E3,1.249E3,2.24E2,2.18E2,3.21E2,4.3E1,2.205E3,4.41E2,2.54E2,9.95E2,9.1E1,1.33E2,1.75E2,4.3E1,2.3E2,9.1E1,6.36E2,1.569E3,2.56E2,1.85E2,2.31E2,2.3E1,7.67E2,2.28E2],"tree_param":{"num_deleted":"0","num_feature":"2","num_nodes":"29","size_leaf_vector":"1"}},{"base_weights":[-3.7143978E-3,-9.495735E-1,1.9220757E-1,-4.4928983E-1,-1.5541656E0,4.82276E-1,-4.2219505E-1,-1.4684515E0,5.998456E-1,-1.2746863E0,-3.5641232E-1,2.9814097E-1,1.4001936E0,-1.391634E0,-1.7357145E-1,-1.1955603E-1,-1.644851E-1,8.030494E-3,2.6643756E-1,-1.1424557E-1,-1.5928452E-1,-2.700604E-2,5.2848883E-2,2.1797025E-1,3.156021E-2,-1.292624E-1,-2.2907451E-1,1.4717691E-2,-7.0740215E-2],"categories":[],"categories_nodes":[],"categories_segments":[],"categories_sizes":[],"default_left":[0,0,0,0,0,0,0,0,0,0,0,0,0,0,0,0,0,0,0,0,0,0,0,0,0,0,0,0,0],"id":21,"left_children":[1,3,5,7,9,11,13,15,17,19,-1,21,23,25,27,-1,-1,-1,-1,-1,-1,-1,-1,-1,-1,-1,-1,-1,-1],"loss_changes":[8.715317E2,2.4339307E2,6.9454407E2,4.7455353E2,2.0049243E2,4.469804E2,3.010402E2,8.864502E0,2.3468701E2,1.1726868E1,0E0,2.8887274E2,3.7300055E2,1.9739258E1,1.7064452E2,0E0,0E0,0E0,0E0,0E0,0E0,0E0,0E0,0E0,0E0,0E0,0E0,0E0,0E0],"parents":[2147483647,0,0,1,1,2,2,3,3,4,4,5,5,6,6,7,7,8,8,9,9,11,11,12,12,13,13,14,14],"right_children":[2,4,6,8,10,12,14,16,18,20,-1,22,24,26,28,-1,-1,-1,-1,-1,-1,-1,-1,-1,-1,-1,-1,-1,-1],"split_conditions":[7E0,5E0,1.7E1,3E0,6E0,1.5E1,2E0,2E0,5E0,4E0,-3.5641232E-1,3E0,5E0,2.3E1,2.1E1,-1.1955603E-1,-1.644851E-1,8.030494E-3,2.6643756E-1,-1.1424557E-1,-1.5928452E-1,-2.700604E-2,5.2848883E-2,2.1797025E-1,3.156021E-2,-1.292624E-1,-2.2907451E-1,1.4717691E-2,-7.0740215E-2],"split_indices":[1,0,1,1,1,1,0,0,1,1,0,0,0,1,1,0,0,0,0,0,0,0,0,0,0,0,0,0,0],"split_type":[0,0,0,0,0,0,0,0,0,0,0,0,0,0,0,0,0,0,0,0,0,0,0,0,0,0,0,0,0],"sum_hessian":[4.701E3,8.06E2,3.895E3,4.42E2,3.64E2,2.646E3,1.249E3,2.24E2,2.18E2,3.21E2,4.3E1,2.205E3,4.41E2,2.54E2,9.95E2,9.1E1,1.33E2,1.75E2,4.3E1,2.3E2,9.1E1,6.36E2,1.569E3,2.56E2,1.85E2,2.31E2,2.3E1,6.22E2,3.73E2],"tree_param":{"num_deleted":"0","num_feature":"2","num_nodes":"29","size_leaf_vector":"1"}},{"base_weights":[-3.5085087E-3,-8.5540867E-1,1.7295118E-1,-1.5413018E-1,-1.2057614E0,4.018656E-1,-4.6021402E-1,-1.1219572E0,1.2638179E0,-1.0246545E0,-3.2158116E-1,4.707966E-1,-9.316953E-2,-9.5723635E-1,1.1423005E-1,-1.2337219E-1,-3.5972998E-2,4.96183E-2,2.4039935E-1,-7.90381E-2,-1.14806734E-1,2.0707171E-2,6.592785E-2,-7.582279E-2,-1.4437996E-1,2.905612E-2,-1.6436626E-1],"categories":[],"categories_nodes":[],"categories_segments":[],"categories_sizes":[],"default_left":[0,0,0,0,0,0,0,0,0,0,0,0,0,0,0,0,0,0,0,0,0,0,0,0,0,0,0],"id":22,"left_children":[1,3,5,7,9,11,13,15,17,19,-1,21,-1,23,25,-1,-1,-1,-1,-1,-1,-1,-1,-1,-1,-1,-1],"loss_changes":[7.06981E2,1.980899E2,5.6487366E2,3.7194662E2,1.9255524E2,2.6352432E2,2.9561377E2,1.327179E1,9.5083405E1,1.3404175E1,0E0,1.3516687E2,0E0,5.2645996E1,1.4957375E2,0E0,0E0,0E0,0E0,0E0,0E0,0E0,0E0,0E0,0E0,0E0,0E0],"parents":[2147483647,0,0,1,1,2,2,3,3,4,4,5,5,6,6,7,7,8,8,9,9,11,11,13,13,14,14],"right_children":[2,4,6,8,10,12,14,16,18,20,-1,22,-1,24,26,-1,-1,-1,-1,-1,-1,-1,-1,-1,-1,-1,-1],"split_conditions":[7E0,3E0,1.8E1,4E0,6E0,7E0,4E0,3E0,5E0,5E0,-3.2158116E-1,1E1,-9.316953E-2,2.2E1,6E0,-1.2337219E-1,-3.5972998E-2,4.96183E-2,2.4039935E-1,-7.90381E-2,-1.14806734E-1,2.0707171E-2,6.592785E-2,-7.582279E-2,-1.4437996E-1,2.905612E-2,-1.6436626E-1],"split_indices":[1,0,1,1,1,0,0,1,1,0,0,1,0,1,0,0,0,0,0,0,0,0,0,0,0,0,0],"split_type":[0,0,0,0,0,0,0,0,0,0,0,0,0,0,0,0,0,0,0,0,0,0,0,0,0,0,0],"sum_hessian":[4.701E3,8.06E2,3.895E3,2.69E2,5.37E2,2.861E3,1.034E3,1.6E2,1.09E2,4.94E2,4.3E1,2.721E3,1.4E2,5.54E2,4.8E2,1.39E2,2.1E1,6.6E1,4.3E1,1.73E2,3.21E2,1.135E3,1.586E3,3.95E2,1.59E2,4.37E2,4.3E1],"tree_param":{"num_deleted":"0","num_feature":"2","num_nodes":"27","size_leaf_vector":"1"}},{"base_weights":[-3.3166395E-3,-7.703446E-1,1.5556295E-1,-1.38233E-1,-1.0861435E0,3.9605403E-1,-3.5382542E-1,-1.0107514E0,1.1400733E0,-9.225807E-1,-2.9015392E-1,2.3580351E-1,1.1949604E0,-1.1873066E0,-1.4007889E-1,-1.111231E-1,-3.2539252E-2,4.473058E-2,2.1690586E-1,-1.0425045E-1,-7.0692234E-2,-2.8584948E-2,4.4730492E-2,1.8969099E-1,2.1863783E-2,-1.1050637E-1,-1.9328511E-1,5.950079E-3,-8.087999E-2],"categories":[],"categories_nodes":[],"categories_segments":[],"categories_sizes":[],"default_left":[0,0,0,0,0,0,0,0,0,0,0,0,0,0,0,0,0,0,0,0,0,0,0,0,0,0,0,0,0],"id":23,"left_children":[1,3,5,7,9,11,13,15,17,19,-1,21,23,25,27,-1,-1,-1,-1,-1,-1,-1,-1,-1,-1,-1,-1,-1,-1],"loss_changes":[5.731295E2,1.6094327E2,4.774132E2,3.022957E2,1.5707202E2,3.386008E2,2.2252586E2,1.0725616E1,7.744301E1,1.2065002E1,0E0,2.4351657E2,3.0250067E2,1.3499603E1,1.3297737E2,0E0,0E0,0E0,0E0,0E0,0E0,0E0,0E0,0E0,0E0,0E0,0E0,0E0,0E0],"parents":[2147483647,0,0,1,1,2,2,3,3,4,4,5,5,6,6,7,7,8,8,9,9,11,11,12,12,13,13,14,14],"right_children":[2,4,6,8,10,12,14,16,18,20,-1,22,24,26,28,-1,-1,-1,-1,-1,-1,-1,-1,-1,-1,-1,-1,-1,-1],"split_conditions":[7E0,3E0,1.7E1,4E0,6E0,1.5E1,2E0,3E0,5E0,4E0,-2.9015392E-1,3E0,5E0,2.3E1,2.2E1,-1.111231E-1,-3.2539252E-2,4.473058E-2,2.1690586E-1,-1.0425045E-1,-7.0692234E-2,-2.8584948E-2,4.4730492E-2,1.8969099E-1,2.1863783E-2,-1.1050637E-1,-1.9328511E-1,5.950079E-3,-8.087999E-2],"split_indices":[1,0,1,1,1,1,0,1,1,1,0,0,0,1,1,0,0,0,0,0,0,0,0,0,0,0,0,0,0],"split_type":[0,0,0,0,0,0,0,0,0,0,0,0,0,0,0,0,0,0,0,0,0,0,0,0,0,0,0,0,0],"sum_hessian":[4.701E3,8.06E2,3.895E3,2.69E2,5.37E2,2.646E3,1.249E3,1.6E2,1.09E2,4.94E2,4.3E1,2.205E3,4.41E2,2.54E2,9.95E2,1.39E2,2.1E1,6.6E1,4.3E1,3.15E2,1.79E2,6.36E2,1.569E3,2.56E2,1.85E2,2.31E2,2.3E1,7.67E2,2.28E2],"tree_param":{"num_deleted":"0","num_feature":"2","num_nodes":"29","size_leaf_vector":"1"}},{"base_weights":[-3.0911504E-3,-6.9374037E-1,1.3996764E-1,-3.2109073E-1,-1.144124E0,2.8329495E-1,-5.6448436E-1,-1.0404326E0,5.742586E-1,-9.391744E-1,-2.61798E-1,3.3631268E-1,-8.835999E-2,-7.8828126E-1,1.2696844E-1,-7.455594E-2,-1.2813298E-1,1.7801015E-2,1.9570826E-1,-8.1059605E-2,-1.2518094E-1,-9.834519E-3,4.256503E-2,-3.9909486E-2,-9.261133E-2,4.5299444E-2,-1.5958212E-1],"categories":[],"categories_nodes":[],"categories_segments":[],"categories_sizes":[],"default_left":[0,0,0,0,0,0,0,0,0,0,0,0,0,0,0,0,0,0,0,0,0,0,0,0,0,0,0],"id":24,"left_children":[1,3,5,7,9,11,13,15,17,19,-1,21,-1,23,25,-1,-1,-1,-1,-1,-1,-1,-1,-1,-1,-1,-1],"loss_changes":[4.6467087E2,1.3507571E2,3.935282E2,2.8591705E2,1.077955E2,2.0061957E2,1.0207704E2,1.6519073E1,1.0814411E2,1.1929077E1,0E0,1.2034125E2,0E0,2.63443E1,9.171413E1,0E0,0E0,0E0,0E0,0E0,0E0,0E0,0E0,0E0,0E0,0E0,0E0],"parents":[2147483647,0,0,1,1,2,2,3,3,4,4,5,5,6,6,7,7,8,8,9,9,11,11,13,13,14,14],"right_children":[2,4,6,8,10,12,14,16,18,20,-1,22,-1,24,26,-1,-1,-1,-1,-1,-1,-1,-1,-1,-1,-1,-1],"split_conditions":[7E0,5E0,2E1,4E0,6E0,7E0,5E0,2E0,5E0,4E0,-2.61798E-1,2E0,-8.835999E-2,2.1E1,2.3E1,-7.455594E-2,-1.2813298E-1,1.7801015E-2,1.9570826E-1,-8.1059605E-2,-1.2518094E-1,-9.834519E-3,4.256503E-2,-3.9909486E-2,-9.261133E-2,4.5299444E-2,-1.5958212E-1],"split_indices":[1,0,1,1,1,0,0,0,1,1,0,0,0,1,1,0,0,0,0,0,0,0,0,0,0,0,0],"split_type":[0,0,0,0,0,0,0,0,0,0,0,0,0,0,0,0,0,0,0,0,0,0,0,0,0,0,0],"sum_hessian":[4.701E3,8.06E2,3.895E3,4.42E2,3.64E2,3.237E3,6.58E2,2.45E2,1.97E2,3.21E2,4.3E1,3.097E3,1.4E2,4.97E2,1.61E2,1.12E2,1.33E2,1.54E2,4.3E1,2.3E2,9.1E1,5.28E2,2.569E3,1.31E2,3.66E2,1.36E2,2.5E1],"tree_param":{"num_deleted":"0","num_feature":"2","num_nodes":"27","size_leaf_vector":"1"}},{"base_weights":[-2.943317E-3,-6.2493294E-1,1.258936E-1,-2.889572E-1,-1.0309942E0,3.289872E-1,-3.0427817E-1,-1.0028658E0,4.4583002E-1,-8.458977E-1,-2.362132E-1,1.8606995E-1,1.0415357E0,-1.0214334E0,-1.2036364E-1,-7.7161215E-2,-1.154153E-1,1.1329859E-2,1.7658232E-1,-6.839545E-2,-1.0515385E-1,-2.718386E-2,3.7173983E-2,1.4477043E-1,-4.374436E-2,-9.510893E-2,-1.6588672E-1,4.000311E-3,-6.5766186E-2],"categories":[],"categories_nodes":[],"categories_segments":[],"categories_sizes":[],"default_left":[0,0,0,0,0,0,0,0,0,0,0,0,0,0,0,0,0,0,0,0,0,0,0,0,0,0,0,0,0],"id":25,"left_children":[1,3,5,7,9,11,13,15,17,19,-1,21,23,25,27,-1,-1,-1,-1,-1,-1,-1,-1,-1,-1,-1,-1,-1,-1],"loss_changes":[3.768745E2,1.0979837E2,3.4047467E2,2.3283202E2,8.793387E1,2.6936475E2,1.6474612E2,6.9812317E0,9.592761E1,1.0004074E1,0E0,1.8765479E2,2.6614923E2,9.856384E0,8.584641E1,0E0,0E0,0E0,0E0,0E0,0E0,0E0,0E0,0E0,0E0,0E0,0E0,0E0,0E0],"parents":[2147483647,0,0,1,1,2,2,3,3,4,4,5,5,6,6,7,7,8,8,9,9,11,11,12,12,13,13,14,14],"right_children":[2,4,6,8,10,12,14,16,18,20,-1,22,24,26,28,-1,-1,-1,-1,-1,-1,-1,-1,-1,-1,-1,-1,-1,-1],"split_conditions":[7E0,5E0,1.7E1,3E0,6E0,1.5E1,2E0,2E0,5E0,3E0,-2.362132E-1,3E0,6E0,2.3E1,2.2E1,-7.7161215E-2,-1.154153E-1,1.1329859E-2,1.7658232E-1,-6.839545E-2,-1.0515385E-1,-2.718386E-2,3.7173983E-2,1.4477043E-1,-4.374436E-2,-9.510893E-2,-1.6588672E-1,4.000311E-3,-6.5766186E-2],"split_indices":[1,0,1,1,1,1,0,0,1,1,0,0,0,1,1,0,0,0,0,0,0,0,0,0,0,0,0,0,0],"split_type":[0,0,0,0,0,0,0,0,0,0,0,0,0,0,0,0,0,0,0,0,0,0,0,0,0,0,0,0,0],"sum_hessian":[4.701E3,8.06E2,3.895E3,4.42E2,3.64E2,2.646E3,1.249E3,2.24E2,2.18E2,3.21E2,4.3E1,2.205E3,4.41E2,2.54E2,9.95E2,9.1E1,1.33E2,1.75E2,4.3E1,1.82E2,1.39E2,6.36E2,1.569E3,3.46E2,9.5E1,2.31E2,2.3E1,7.67E2,2.28E2],"tree_param":{"num_deleted":"0","num_feature":"2","num_nodes":"29","size_leaf_vector":"1"}},{"base_weights":[-2.782175E-3,-5.629531E-1,1.1324984E-1,-9.10349E-2,-7.98743E-1,2.9613033E-1,-2.741085E-1,-7.4395776E-1,8.654343E-1,-6.7868096E-1,-2.1312879E-1,1.6746722E-1,9.376115E-1,-9.203137E-1,-1.08389184E-1,-8.187832E-2,-2.3397949E-2,1.5918599E-1,3.3803407E-2,-5.2087612E-2,-7.618467E-2,-2.4469776E-2,3.345893E-2,1.5352155E-1,1.0684894E-2,-8.5639045E-2,-1.4998925E-1,1.8486436E-2,-3.718316E-2],"categories":[],"categories_nodes":[],"categories_segments":[],"categories_sizes":[],"default_left":[0,0,0,0,0,0,0,0,0,0,0,0,0,0,0,0,0,0,0,0,0,0,0,0,0,0,0,0,0],"id":26,"left_children":[1,3,5,7,9,11,13,15,17,19,-1,21,23,25,27,-1,-1,-1,-1,-1,-1,-1,-1,-1,-1,-1,-1,-1,-1],"loss_changes":[3.0568323E2,8.972504E1,2.760749E2,1.69259E2,8.462714E1,2.18313E2,1.3376111E2,5.95208E0,4.1604767E1,6.099533E0,0E0,1.5203528E2,2.1927441E2,8.162903E0,7.701514E1,0E0,0E0,0E0,0E0,0E0,0E0,0E0,0E0,0E0,0E0,0E0,0E0,0E0,0E0],"parents":[2147483647,0,0,1,1,2,2,3,3,4,4,5,5,6,6,7,7,8,8,9,9,11,11,12,12,13,13,14,14],"right_children":[2,4,6,8,10,12,14,16,18,20,-1,22,24,26,28,-1,-1,-1,-1,-1,-1,-1,-1,-1,-1,-1,-1,-1,-1],"split_conditions":[7E0,3E0,1.7E1,4E0,6E0,1.5E1,2E0,3E0,2E0,5E0,-2.1312879E-1,3E0,5E0,2.3E1,2E1,-8.187832E-2,-2.3397949E-2,1.5918599E-1,3.3803407E-2,-5.2087612E-2,-7.618467E-2,-2.4469776E-2,3.345893E-2,1.5352155E-1,1.0684894E-2,-8.5639045E-2,-1.4998925E-1,1.8486436E-2,-3.718316E-2],"split_indices":[1,0,1,1,1,1,0,1,0,0,0,0,0,1,1,0,0,0,0,0,0,0,0,0,0,0,0,0,0],"split_type":[0,0,0,0,0,0,0,0,0,0,0,0,0,0,0,0,0,0,0,0,0,0,0,0,0,0,0,0,0],"sum_hessian":[4.701E3,8.06E2,3.895E3,2.69E2,5.37E2,2.646E3,1.249E3,1.6E2,1.09E2,4.94E2,4.3E1,2.205E3,4.41E2,2.54E2,9.95E2,1.39E2,2.1E1,4.5E1,6.4E1,1.73E2,3.21E2,6.36E2,1.569E3,2.56E2,1.85E2,2.31E2,2.3E1,4.71E2,5.24E2],"tree_param":{"num_deleted":"0","num_feature":"2","num_nodes":"29","size_leaf_vector":"1"}},{"base_weights":[-2.575171E-3,-5.069721E-1,1.01904005E-1,-8.1606485E-2,-7.1950316E-1,2.6658267E-1,-2.4690104E-1,-6.7021567E-1,7.806452E-1,-6.1107194E-1,-1.9230027E-1,-1.4587337E-2,5.2788466E-1,-8.292062E-1,-9.7568974E-2,-5.413441E-2,-9.5373146E-2,2.9820535E-2,1.4975277E-1,-6.8924665E-2,-4.7043692E-2,8.145433E-2,-1.8714566E-2,8.5560285E-2,9.848523E-3,-7.711204E-2,-1.3561527E-1,9.657185E-3,-4.207031E-2],"categories":[],"categories_nodes":[],"categories_segments":[],"categories_sizes":[],"default_left":[0,0,0,0,0,0,0,0,0,0,0,0,0,0,0,0,0,0,0,0,0,0,0,0,0,0,0,0,0],"id":27,"left_children":[1,3,5,7,9,11,13,15,17,19,-1,21,23,25,27,-1,-1,-1,-1,-1,-1,-1,-1,-1,-1,-1,-1,-1,-1],"loss_changes":[2.4784222E2,7.2896835E1,2.2385495E2,1.3755612E2,6.903232E1,1.944835E2,1.0861513E2,5.3661804E0,3.759722E1,5.1178284E0,0E0,1.8271408E2,1.9298639E2,6.759323E0,6.2523216E1,0E0,0E0,0E0,0E0,0E0,0E0,0E0,0E0,0E0,0E0,0E0,0E0,0E0,0E0],"parents":[2147483647,0,0,1,1,2,2,3,3,4,4,5,5,6,6,7,7,8,8,9,9,11,11,12,12,13,13,14,14],"right_children":[2,4,6,8,10,12,14,16,18,20,-1,22,24,26,28,-1,-1,-1,-1,-1,-1,-1,-1,-1,-1,-1,-1,-1,-1],"split_conditions":[7E0,3E0,1.7E1,4E0,6E0,1E1,2E0,2E0,5E0,4E0,-1.9230027E-1,8E0,5E0,2.3E1,2.1E1,-5.413441E-2,-9.5373146E-2,2.9820535E-2,1.4975277E-1,-6.8924665E-2,-4.7043692E-2,8.145433E-2,-1.8714566E-2,8.5560285E-2,9.848523E-3,-7.711204E-2,-1.3561527E-1,9.657185E-3,-4.207031E-2],"split_indices":[1,0,1,1,1,1,0,0,1,1,0,1,0,1,1,0,0,0,0,0,0,0,0,0,0,0,0,0,0],"split_type":[0,0,0,0,0,0,0,0,0,0,0,0,0,0,0,0,0,0,0,0,0,0,0,0,0,0,0,0,0],"sum_hessian":[4.701E3,8.06E2,3.895E3,2.69E2,5.37E2,2.646E3,1.249E3,1.6E2,1.09E2,4.94E2,4.3E1,1.275E3,1.371E3,2.54E2,9.95E2,1.12E2,4.8E1,6.6E1,4.3E1,3.15E2,1.79E2,2.19E2,1.056E3,7.77E2,5.94E2,2.31E2,2.3E1,6.22E2,3.73E2],"tree_param":{"num_deleted":"0","num_feature":"2","num_nodes":"29","size_leaf_vector":"1"}},{"base_weights":[-2.395081E-3,-4.5661977E-1,9.16916E-2,-2.0637299E-1,-7.590929E-1,2.3998453E-1,-2.2240686E-1,-7.648961E-1,3.6839446E-1,-6.2337166E-1,-1.7350733E-1,3.0104697E-1,-8.474165E-2,-7.4711967E-1,-8.784444E-2,-5.607552E-2,-8.993444E-2,1.2060553E-2,1.3511777E-1,-5.096687E-2,-9.020893E-2,1.9617816E-2,7.905445E-2,-6.9434054E-2,-1.22618794E-1,3.912371E-3,-5.1327545E-2],"categories":[],"categories_nodes":[],"categories_segments":[],"categories_sizes":[],"default_left":[0,0,0,0,0,0,0,0,0,0,0,0,0,0,0,0,0,0,0,0,0,0,0,0,0,0,0],"id":28,"left_children":[1,3,5,7,9,11,13,15,17,19,-1,21,-1,23,25,-1,-1,-1,-1,-1,-1,-1,-1,-1,-1,-1,-1],"loss_changes":[2.0098885E2,6.0927536E1,1.8152351E2,1.4249405E2,4.7266754E1,1.7601425E2,8.819264E1,5.6711273E0,5.3168533E1,9.744751E0,0E0,1.285368E2,0E0,5.596237E0,5.38202E1,0E0,0E0,0E0,0E0,0E0,0E0,0E0,0E0,0E0,0E0,0E0,0E0],"parents":[2147483647,0,0,1,1,2,2,3,3,4,4,5,5,6,6,7,7,8,8,9,9,11,11,13,13,14,14],"right_children":[2,4,6,8,10,12,14,16,18,20,-1,22,-1,24,26,-1,-1,-1,-1,-1,-1,-1,-1,-1,-1,-1,-1],"split_conditions":[7E0,5E0,1.7E1,3E0,6E0,7E0,2E0,2E0,5E0,4E0,-1.7350733E-1,1.5E1,-8.474165E-2,2.3E1,2.2E1,-5.607552E-2,-8.993444E-2,1.2060553E-2,1.3511777E-1,-5.096687E-2,-9.020893E-2,1.9617816E-2,7.905445E-2,-6.9434054E-2,-1.22618794E-1,3.912371E-3,-5.1327545E-2],"split_indices":[1,0,1,1,1,0,0,0,1,1,0,1,0,1,1,0,0,0,0,0,0,0,0,0,0,0,0],"split_type":[0,0,0,0,0,0,0,0,0,0,0,0,0,0,0,0,0,0,0,0,0,0,0,0,0,0,0],"sum_hessian":[4.701E3,8.06E2,3.895E3,4.42E2,3.64E2,2.646E3,1.249E3,2.24E2,2.18E2,3.21E2,4.3E1,2.506E3,1.4E2,2.54E2,9.95E2,9.1E1,1.33E2,1.75E2,4.3E1,2.3E2,9.1E1,2.065E3,4.41E2,2.31E2,2.3E1,7.67E2,2.28E2],"tree_param":{"num_deleted":"0","num_feature":"2","num_nodes":"27","size_leaf_vector":"1"}},{"base_weights":[-2.2697567E-3,-4.113462E-1,8.246509E-2,-1.8573295E-1,-6.8404573E-1,2.15992E-1,-2.0035748E-1,-6.455695E-1,3.865172E-1,-5.61473E-1,-1.565509E-1,2.7098235E-1,-7.6327585E-2,-6.73161E-1,-7.910725E-2,-4.447719E-2,-8.100812E-2,1.2789512E-1,1.1567747E-2,-4.589226E-2,-8.128607E-2,1.7657058E-2,7.1166955E-2,-6.2520586E-2,-1.10867836E-1,1.5287737E-2,-2.8752178E-2],"categories":[],"categories_nodes":[],"categories_segments":[],"categories_sizes":[],"default_left":[0,0,0,0,0,0,0,0,0,0,0,0,0,0,0,0,0,0,0,0,0,0,0,0,0,0,0],"id":29,"left_children":[1,3,5,7,9,11,13,15,17,19,-1,21,-1,23,25,-1,-1,-1,-1,-1,-1,-1,-1,-1,-1,-1,-1],"loss_changes":[1.630195E2,4.9523315E1,1.4717346E2,1.1682122E2,3.855684E1,1.427485E2,7.160617E1,7.765953E0,4.7709953E1,7.928093E0,0E0,1.0418071E2,0E0,4.6325836E0,4.8199528E1,0E0,0E0,0E0,0E0,0E0,0E0,0E0,0E0,0E0,0E0,0E0,0E0],"parents":[2147483647,0,0,1,1,2,2,3,3,4,4,5,5,6,6,7,7,8,8,9,9,11,11,13,13,14,14],"right_children":[2,4,6,8,10,12,14,16,18,20,-1,22,-1,24,26,-1,-1,-1,-1,-1,-1,-1,-1,-1,-1,-1,-1],"split_conditions":[7E0,5E0,1.7E1,4E0,6E0,7E0,2E0,2E0,2E0,4E0,-1.565509E-1,1.5E1,-7.6327585E-2,2.3E1,2E1,-4.447719E-2,-8.100812E-2,1.2789512E-1,1.1567747E-2,-4.589226E-2,-8.128607E-2,1.7657058E-2,7.1166955E-2,-6.2520586E-2,-1.10867836E-1,1.5287737E-2,-2.8752178E-2],"split_indices":[1,0,1,1,1,0,0,0,0,1,0,1,0,1,1,0,0,0,0,0,0,0,0,0,0,0,0],"split_type":[0,0,0,0,0,0,0,0,0,0,0,0,0,0,0,0,0,0,0,0,0,0,0,0,0,0,0],"sum_hessian":[4.701E3,8.06E2,3.895E3,4.42E2,3.64E2,2.646E3,1.249E3,2.45E2,1.97E2,3.21E2,4.3E1,2.506E3,1.4E2,2.54E2,9.95E2,1.12E2,1.33E2,4.5E1,1.52E2,2.3E2,9.1E1,2.065E3,4.41E2,2.31E2,2.3E1,4.71E2,5.24E2],"tree_param":{"num_deleted":"0","num_feature":"2","num_nodes":"27","size_leaf_vector":"1"}},{"base_weights":[-2.136875E-3,-3.9870316E-1,6.966785E-2,-5.010724E-1,-1.9900207E-1,1.3318539E-1,-3.896659E-1,-2.0472941E-1,-5.499611E-1,1.18913926E-1,-7.3245835E-1,1.6759504E-1,-6.874899E-2,-5.758026E-1,1.9255315E-1,-2.5721614E-3,-5.1875424E-2,-6.973852E-2,-4.339808E-2,6.8806715E-2,1.4530666E-3,-5.7576228E-2,-1.1293733E-1,2.3136992E-2,-4.8227436E-3,-6.78067E-2,-3.1067207E-2,5.8704924E-2,-1.225935E-1],"categories":[],"categories_nodes":[],"categories_segments":[],"categories_sizes":[],"default_left":[0,0,0,0,0,0,0,0,0,0,0,0,0,0,0,0,0,0,0,0,0,0,0,0,0,0,0,0,0],"id":30,"left_children":[1,3,5,7,9,11,13,15,17,19,21,23,-1,25,27,-1,-1,-1,-1,-1,-1,-1,-1,-1,-1,-1,-1,-1,-1],"loss_changes":[1.339188E2,1.4639862E1,1.1622975E2,6.783615E0,4.180729E1,9.892403E1,5.2563087E1,3.8653474E0,6.6734467E0,9.198562E0,5.0716934E0,4.62446E1,0E0,9.739952E0,6.6751076E1,0E0,0E0,0E0,0E0,0E0,0E0,0E0,0E0,0E0,0E0,0E0,0E0,0E0,0E0],"parents":[2147483647,0,0,1,1,2,2,3,3,4,4,5,5,6,6,7,7,8,8,9,9,10,10,11,11,13,13,14,14],"right_children":[2,4,6,8,10,12,14,16,18,20,22,24,-1,26,28,-1,-1,-1,-1,-1,-1,-1,-1,-1,-1,-1,-1,-1,-1],"split_conditions":[6E0,4E0,2.1E1,1E0,5E0,7E0,5E0,6E0,2E0,2E0,7E0,1.7E1,-6.874899E-2,4E0,2.3E1,-2.5721614E-3,-5.1875424E-2,-6.973852E-2,-4.339808E-2,6.8806715E-2,1.4530666E-3,-5.7576228E-2,-1.1293733E-1,2.3136992E-2,-4.8227436E-3,-6.78067E-2,-3.1067207E-2,5.8704924E-2,-1.225935E-1],"split_indices":[1,1,1,1,0,0,0,0,1,0,0,1,0,0,1,0,0,0,0,0,0,0,0,0,0,0,0,0,0],"split_type":[0,0,0,0,0,0,0,0,0,0,0,0,0,0,0,0,0,0,0,0,0,0,0,0,0,0,0,0,0],"sum_hessian":[4.701E3,7.2E2,3.981E3,4.75E2,2.45E2,3.498E3,4.83E2,6.8E1,4.07E2,1.54E2,9.1E1,3.358E3,1.4E2,3.66E2,1.17E2,4.4E1,2.4E1,1.77E2,2.3E2,2.3E1,1.31E2,6.7E1,2.4E1,2.592E3,7.66E2,2.63E2,1.03E2,9.2E1,2.5E1],"tree_param":{"num_deleted":"0","num_feature":"2","num_nodes":"29","size_leaf_vector":"1"}},{"base_weights":[-2.0249677E-3,-3.377221E-1,6.751035E-2,-1.4383024E-1,-5.721231E-1,1.7613052E-1,-1.6255772E-1,-5.690599E-1,2.9370633E-1,-4.5242035E-1,-1.4351268E-1,-4.1598313E-2,3.784963E-1,-5.7455105E-1,-5.6914292E-2,-1.5677532E-2,-6.198116E-2,8.370141E-3,1.1270509E-1,-3.2877542E-2,-6.1081033E-2,-6.5634124E-2,1.6917748E-2,6.726559E-2,-6.771988E-4,-7.197403E-2,-4.4016253E-2,1.1621875E-3,-7.64215E-2],"categories":[],"categories_nodes":[],"categories_segments":[],"categories_sizes":[],"default_left":[0,0,0,0,0,0,0,0,0,0,0,0,0,0,0,0,0,0,0,0,0,0,0,0,0,0,0,0,0],"id":31,"left_children":[1,3,5,7,9,11,13,15,17,19,-1,21,23,25,27,-1,-1,-1,-1,-1,-1,-1,-1,-1,-1,-1,-1,-1,-1],"loss_changes":[1.0978068E2,3.6594612E1,9.73898E1,8.258885E1,3.705665E1,1.1664487E2,5.4372787E1,4.6107483E0,3.823208E1,6.1052704E0,0E0,1.6544609E2,1.5549377E2,4.658699E0,4.8290657E1,0E0,0E0,0E0,0E0,0E0,0E0,0E0,0E0,0E0,0E0,0E0,0E0,0E0,0E0],"parents":[2147483647,0,0,1,1,2,2,3,3,4,4,5,5,6,6,7,7,8,8,9,9,11,11,12,12,13,13,14,14],"right_children":[2,4,6,8,10,12,14,16,18,20,-1,22,24,26,28,-1,-1,-1,-1,-1,-1,-1,-1,-1,-1,-1,-1,-1,-1],"split_conditions":[7E0,5E0,1.7E1,3E0,6E0,1E1,2E0,1E0,5E0,3E0,-1.4351268E-1,3E0,5E0,2E1,6E0,-1.5677532E-2,-6.198116E-2,8.370141E-3,1.1270509E-1,-3.2877542E-2,-6.1081033E-2,-6.5634124E-2,1.6917748E-2,6.726559E-2,-6.771988E-4,-7.197403E-2,-4.4016253E-2,1.1621875E-3,-7.64215E-2],"split_indices":[1,0,1,1,1,1,0,1,1,1,0,0,0,1,0,0,0,0,0,0,0,0,0,0,0,0,0,0,0],"split_type":[0,0,0,0,0,0,0,0,0,0,0,0,0,0,0,0,0,0,0,0,0,0,0,0,0,0,0,0,0],"sum_hessian":[4.701E3,8.06E2,3.895E3,4.42E2,3.64E2,2.646E3,1.249E3,2.24E2,2.18E2,3.21E2,4.3E1,1.275E3,1.371E3,2.54E2,9.95E2,2.5E1,1.99E2,1.75E2,4.3E1,1.82E2,1.39E2,3.25E2,9.5E2,7.77E2,5.94E2,1.2E2,1.34E2,9.08E2,8.7E1],"tree_param":{"num_deleted":"0","num_feature":"2","num_nodes":"29","size_leaf_vector":"1"}},{"base_weights":[-1.9008882E-3,-3.0419037E-1,6.0714487E-2,8.855935E-2,-3.9919075E-1,1.17795706E-1,-3.4192792E-1,-3.0372125E-1,1.05028E0,-2.492799E-1,-5.1556146E-1,1.5023416E-1,-6.360262E-2,-5.0610983E-1,1.7160347E-1,-3.5019003E-2,-9.559181E-3,6.1410572E-2,1.459754E-1,-6.2011052E-2,7.7129104E-3,-4.074702E-2,-1.2948757E-1,6.729924E-2,1.1252722E-2,-5.9285063E-2,-2.8105525E-2,5.2782513E-2,-1.1091741E-1],"categories":[],"categories_nodes":[],"categories_segments":[],"categories_sizes":[],"default_left":[0,0,0,0,0,0,0,0,0,0,0,0,0,0,0,0,0,0,0,0,0,0,0,0,0,0,0,0,0],"id":32,"left_children":[1,3,5,7,9,11,13,15,17,19,21,23,-1,25,27,-1,-1,-1,-1,-1,-1,-1,-1,-1,-1,-1,-1,-1,-1],"loss_changes":[8.901778E1,3.014563E1,8.958329E1,5.9926754E1,1.1210899E1,8.355304E1,4.089414E1,1.0594063E0,7.319252E0,3.4665962E1,3.0218903E1,6.444041E1,0E0,6.997734E0,5.4421856E1,0E0,0E0,0E0,0E0,0E0,0E0,0E0,0E0,0E0,0E0,0E0,0E0,0E0,0E0],"parents":[2147483647,0,0,1,1,2,2,3,3,4,4,5,5,6,6,7,7,8,8,9,9,10,10,11,11,13,13,14,14],"right_children":[2,4,6,8,10,12,14,16,18,20,22,24,-1,26,28,-1,-1,-1,-1,-1,-1,-1,-1,-1,-1,-1,-1,-1,-1],"split_conditions":[7E0,2E0,2.1E1,4E0,5E0,7E0,5E0,3E0,5E0,2E0,6E0,8E0,-6.360262E-2,4E0,2.3E1,-3.5019003E-2,-9.559181E-3,6.1410572E-2,1.459754E-1,-6.2011052E-2,7.7129104E-3,-4.074702E-2,-1.2948757E-1,6.729924E-2,1.1252722E-2,-5.9285063E-2,-2.8105525E-2,5.2782513E-2,-1.1091741E-1],"split_indices":[1,0,1,1,0,0,0,1,1,1,1,1,0,0,1,0,0,0,0,0,0,0,0,0,0,0,0,0,0],"split_type":[0,0,0,0,0,0,0,0,0,0,0,0,0,0,0,0,0,0,0,0,0,0,0,0,0,0,0,0,0],"sum_hessian":[4.701E3,8.06E2,3.895E3,1.57E2,6.49E2,3.412E3,4.83E2,1.12E2,4.5E1,2.85E2,3.64E2,3.272E3,1.4E2,3.66E2,1.17E2,9.1E1,2.1E1,2.3E1,2.2E1,1.33E2,1.52E2,3.21E2,4.3E1,2.19E2,3.053E3,2.63E2,1.03E2,9.2E1,2.5E1],"tree_param":{"num_deleted":"0","num_feature":"2","num_nodes":"29","size_leaf_vector":"1"}},{"base_weights":[-1.7520094E-3,-1.8124563E-1,8.94921E-2,6.0304385E-1,-3.141404E-1,-4.0207452E-1,2.0437595E-1,-1.2946278E-1,1.6453371E0,-1.7823692E-1,-5.371198E-1,-9.032925E-2,-5.3729796E-1,3.1587043E-1,-2.2160375E-1,-2.737436E-2,5.552537E-2,1.3201258E-1,1.7252623E-1,4.1022815E-2,-6.8224385E-2,-1.5872377E-1,-3.0183715E-3,-4.0072095E-2,1.1083565E-2,-1.23540394E-1,-3.4111585E-2,4.3952506E-2,1.7821623E-2,-4.198214E-2,2.2514204E-2],"categories":[],"categories_nodes":[],"categories_segments":[],"categories_sizes":[],"default_left":[0,0,0,0,0,0,0,0,0,0,0,0,0,0,0,0,0,0,0,0,0,0,0,0,0,0,0,0,0,0,0],"id":33,"left_children":[1,3,5,7,9,11,13,15,17,19,21,23,25,27,29,-1,-1,-1,-1,-1,-1,-1,-1,-1,-1,-1,-1,-1,-1,-1,-1],"loss_changes":[7.702432E1,1.653908E2,1.761652E2,1.7581497E2,4.0996063E1,2.4865234E1,1.2013582E2,1.3587633E1,1.9171143E-1,2.506022E2,2.7304385E2,1.1283599E1,5.6004402E1,3.4032913E1,4.658478E1,0E0,0E0,0E0,0E0,0E0,0E0,0E0,0E0,0E0,0E0,0E0,0E0,0E0,0E0,0E0,0E0],"parents":[2147483647,0,0,1,1,2,2,3,3,4,4,5,5,6,6,7,7,8,8,9,9,10,10,11,11,12,12,13,13,14,14],"right_children":[2,4,6,8,10,12,14,16,18,20,22,24,26,28,30,-1,-1,-1,-1,-1,-1,-1,-1,-1,-1,-1,-1,-1,-1,-1,-1],"split_conditions":[9E0,2E0,2E0,5E0,8E0,1.1E1,2E1,4E0,7E0,5E0,5E0,1E1,1.4E1,5E0,5E0,-2.737436E-2,5.552537E-2,1.3201258E-1,1.7252623E-1,4.1022815E-2,-6.8224385E-2,-1.5872377E-1,-3.0183715E-3,-4.0072095E-2,1.1083565E-2,-1.23540394E-1,-3.4111585E-2,4.3952506E-2,1.7821623E-2,-4.198214E-2,2.2514204E-2],"split_indices":[1,0,0,1,1,1,1,1,1,0,0,1,1,0,0,0,0,0,0,0,0,0,0,0,0,0,0,0,0,0,0],"split_type":[0,0,0,0,0,0,0,0,0,0,0,0,0,0,0,0,0,0,0,0,0,0,0,0,0,0,0,0,0,0,0],"sum_hessian":[4.701E3,1.584E3,3.117E3,2.29E2,1.355E3,5.9E2,2.527E3,1.35E2,9.4E1,8.43E2,5.12E2,1.79E2,4.11E2,2.003E3,5.24E2,1.12E2,2.3E1,2.2E1,7.2E1,3.89E2,4.54E2,1.66E2,3.46E2,7E1,1.09E2,8.9E1,3.22E2,1.054E3,9.49E2,3.63E2,1.61E2],"tree_param":{"num_deleted":"0","num_feature":"2","num_nodes":"31","size_leaf_vector":"1"}},{"base_weights":[-1.5772543E-3,-2.589449E-1,5.1733132E-2,7.367407E-2,-3.393985E-1,5.949113E-1,1.9219963E-2,-2.4661158E-1,8.588611E-1,-8.336223E-2,-3.6917016E-1,2.043301E0,-1.4807545E-1,-2.2302248E-1,1.3464451E-1,-2.88475E-2,-6.033672E-3,5.020423E-2,1.193852E-1,5.7054935E-3,-3.3277865E-2,-5.7914954E-2,-2.9293243E-2,2.535846E-1,1.7618147E-1,-1.117283E-1,5.556966E-3,3.987721E-2,-7.1807294E-3],"categories":[],"categories_nodes":[],"categories_segments":[],"categories_sizes":[],"default_left":[0,0,0,0,0,0,0,0,0,0,0,0,0,0,0,0,0,0,0,0,0,0,0,0,0,0,0,0,0],"id":34,"left_children":[1,3,5,7,9,11,13,15,17,19,21,23,-1,25,27,-1,-1,-1,-1,-1,-1,-1,-1,-1,-1,-1,-1,-1,-1],"loss_changes":[6.452657E1,2.1620644E1,6.879364E1,3.9946297E1,4.923935E0,6.644277E2,1.0284161E2,8.6378E-1,4.899063E0,2.4355283E0,9.147209E0,1.3556152E1,0E0,2.957841E2,1.3586191E2,0E0,0E0,0E0,0E0,0E0,0E0,0E0,0E0,0E0,0E0,0E0,0E0,0E0,0E0],"parents":[2147483647,0,0,1,1,2,2,3,3,4,4,5,5,6,6,7,7,8,8,9,9,10,10,11,11,13,13,14,14],"right_children":[2,4,6,8,10,12,14,16,18,20,22,24,-1,26,28,-1,-1,-1,-1,-1,-1,-1,-1,-1,-1,-1,-1,-1,-1],"split_conditions":[7E0,2E0,8E0,4E0,1E0,5E0,3E0,3E0,5E0,6E0,2E0,3E0,-1.4807545E-1,1E1,1.2E1,-2.88475E-2,-6.033672E-3,5.020423E-2,1.193852E-1,5.7054935E-3,-3.3277865E-2,-5.7914954E-2,-2.9293243E-2,2.535846E-1,1.7618147E-1,-1.117283E-1,5.556966E-3,3.987721E-2,-7.1807294E-3],"split_indices":[1,0,1,1,1,0,0,1,1,0,1,0,0,1,1,0,0,0,0,0,0,0,0,0,0,0,0,0,0],"split_type":[0,0,0,0,0,0,0,0,0,0,0,0,0,0,0,0,0,0,0,0,0,0,0,0,0,0,0,0,0],"sum_hessian":[4.701E3,8.06E2,3.895E3,1.57E2,6.49E2,2.19E2,3.676E3,1.12E2,4.5E1,6.8E1,5.81E2,1.29E2,9E1,1.186E3,2.49E3,9.1E1,2.1E1,2.3E1,2.2E1,4.4E1,2.4E1,1.53E2,4.28E2,4.4E1,8.5E1,2.81E2,9.05E2,1.092E3,1.398E3],"tree_param":{"num_deleted":"0","num_feature":"2","num_nodes":"29","size_leaf_vector":"1"}},{"base_weights":[-1.3707185E-3,2.799809E-2,-4.6005893E-1,6.604426E-2,-2.8153867E-1,-1.9766036E-1,-6.465157E-1,-2.1622658E-1,1.2337518E-1,-4.1590443E-1,1.3874753E-1,-1.785072E-2,-2.6253602E-2,-8.295816E-2,-6.0947206E-2,6.7159445E-3,-3.0394068E-2,5.3670045E-2,9.356021E-3,-4.9759787E-2,-2.0452961E-2,4.6044234E-2,-1.0172665E-1],"categories":[],"categories_nodes":[],"categories_segments":[],"categories_sizes":[],"default_left":[0,0,0,0,0,0,0,0,0,0,0,0,0,0,0,0,0,0,0,0,0,0,0],"id":35,"left_children":[1,3,5,7,9,11,13,15,17,19,21,-1,-1,-1,-1,-1,-1,-1,-1,-1,-1,-1,-1],"loss_changes":[6.335412E1,5.2071564E1,1.3718262E1,6.3738533E1,2.739019E1,1.0100174E-1,6.1333466E-1,1.6550285E1,4.0283886E1,6.2355576E0,4.435067E1,0E0,0E0,0E0,0E0,0E0,0E0,0E0,0E0,0E0,0E0,0E0,0E0],"parents":[2147483647,0,0,1,1,2,2,3,3,4,4,5,5,6,6,7,7,8,8,9,9,10,10],"right_children":[2,4,6,8,10,12,14,16,18,20,22,-1,-1,-1,-1,-1,-1,-1,-1,-1,-1,-1,-1],"split_conditions":[7E0,2.1E1,4E0,7E0,5E0,3E0,5E0,2E0,8E0,4E0,2.3E1,-1.785072E-2,-2.6253602E-2,-8.295816E-2,-6.0947206E-2,6.7159445E-3,-3.0394068E-2,5.3670045E-2,9.356021E-3,-4.9759787E-2,-2.0452961E-2,4.6044234E-2,-1.0172665E-1],"split_indices":[0,1,1,1,0,1,1,0,1,0,1,0,0,0,0,0,0,0,0,0,0,0,0],"split_type":[0,0,0,0,0,0,0,0,0,0,0,0,0,0,0,0,0,0,0,0,0,0,0],"sum_hessian":[4.701E3,4.419E3,2.82E2,3.936E3,4.83E2,1.18E2,1.64E2,6.64E2,3.272E3,3.66E2,1.17E2,9.4E1,2.4E1,2.4E1,1.4E2,1.57E2,5.07E2,2.19E2,3.053E3,2.63E2,1.03E2,9.2E1,2.5E1],"tree_param":{"num_deleted":"0","num_feature":"2","num_nodes":"23","size_leaf_vector":"1"}},{"base_weights":[-1.2917935E-3,-1.529487E-1,7.580169E-2,5.22649E-1,-2.6742846E-1,-3.5217524E-1,1.7582487E-1,-1.1123225E-1,1.4245986E0,-1.3109034E-1,-4.912139E-1,-5.067572E-2,-4.8304352E-1,2.6973173E-1,-1.8296593E-1,-2.2891564E-2,4.47495E-2,1.073234E-1,1.5157874E-1,3.535452E-2,-5.4620415E-2,-1.4094079E-1,-4.7900924E-3,-2.602826E-2,8.507668E-3,-1.1279817E-1,-3.0184394E-2,1.9736316E-3,3.374098E-2,-3.5153E-2,1.9691238E-2],"categories":[],"categories_nodes":[],"categories_segments":[],"categories_sizes":[],"default_left":[0,0,0,0,0,0,0,0,0,0,0,0,0,0,0,0,0,0,0,0,0,0,0,0,0,0,0,0,0,0,0],"id":36,"left_children":[1,3,5,7,9,11,13,15,17,19,21,23,25,27,29,-1,-1,-1,-1,-1,-1,-1,-1,-1,-1,-1,-1,-1,-1,-1,-1],"loss_changes":[5.498625E1,1.2272724E2,1.3353604E2,1.3165613E2,4.1307823E1,2.3294441E1,8.5225044E1,9.044834E0,1.417038E0,1.699881E2,2.0874776E2,5.1439786E0,4.7806877E1,3.3899445E1,3.3686985E1,0E0,0E0,0E0,0E0,0E0,0E0,0E0,0E0,0E0,0E0,0E0,0E0,0E0,0E0,0E0,0E0],"parents":[2147483647,0,0,1,1,2,2,3,3,4,4,5,5,6,6,7,7,8,8,9,9,10,10,11,11,12,12,13,13,14,14],"right_children":[2,4,6,8,10,12,14,16,18,20,22,24,26,28,30,-1,-1,-1,-1,-1,-1,-1,-1,-1,-1,-1,-1,-1,-1,-1,-1],"split_conditions":[9E0,2E0,2E0,5E0,8E0,1.1E1,2E1,4E0,7E0,5E0,5E0,1E1,1.4E1,1E1,5E0,-2.2891564E-2,4.47495E-2,1.073234E-1,1.5157874E-1,3.535452E-2,-5.4620415E-2,-1.4094079E-1,-4.7900924E-3,-2.602826E-2,8.507668E-3,-1.1279817E-1,-3.0184394E-2,1.9736316E-3,3.374098E-2,-3.5153E-2,1.9691238E-2],"split_indices":[1,0,0,1,1,1,1,1,1,0,0,1,1,1,0,0,0,0,0,0,0,0,0,0,0,0,0,0,0,0,0],"split_type":[0,0,0,0,0,0,0,0,0,0,0,0,0,0,0,0,0,0,0,0,0,0,0,0,0,0,0,0,0,0,0],"sum_hessian":[4.701E3,1.584E3,3.117E3,2.29E2,1.355E3,5.9E2,2.527E3,1.35E2,9.4E1,8.43E2,5.12E2,1.79E2,4.11E2,2.003E3,5.24E2,1.12E2,2.3E1,2.2E1,7.2E1,3.89E2,4.54E2,1.66E2,3.46E2,7E1,1.09E2,8.9E1,3.22E2,4.27E2,1.576E3,3.63E2,1.61E2],"tree_param":{"num_deleted":"0","num_feature":"2","num_nodes":"31","size_leaf_vector":"1"}},{"base_weights":[-1.1678525E-3,-1.3758081E-1,6.817651E-2,4.7160476E-1,-2.408073E-1,-3.1722918E-1,1.5825032E-1,-9.9948406E-2,1.2848641E0,-1.18004166E-1,-4.4237658E-1,-4.570517E-2,-4.350862E-1,2.9488537E-1,-5.2211307E-2,-2.062266E-2,4.046092E-2,9.705775E-2,1.366285E-1,3.1828128E-2,-4.9170375E-2,-1.8539332E-1,-1.9264605E-2,-2.3462152E-2,7.664724E-3,-1.0164362E-1,-2.7175307E-2,1.7766824E-3,4.018581E-2,1.5680948E-3,-7.529142E-2],"categories":[],"categories_nodes":[],"categories_segments":[],"categories_sizes":[],"default_left":[0,0,0,0,0,0,0,0,0,0,0,0,0,0,0,0,0,0,0,0,0,0,0,0,0,0,0,0,0,0,0],"id":37,"left_children":[1,3,5,7,9,11,13,15,17,19,21,23,25,27,29,-1,-1,-1,-1,-1,-1,-1,-1,-1,-1,-1,-1,-1,-1,-1,-1],"loss_changes":[4.448781E1,9.9784836E1,1.08291435E2,1.0703723E2,3.351333E1,1.8892712E1,7.271167E1,7.3762317E0,1.1049194E0,1.37762E2,1.8047986E2,4.1785693E0,3.884471E1,4.54373E1,4.7393814E1,0E0,0E0,0E0,0E0,0E0,0E0,0E0,0E0,0E0,0E0,0E0,0E0,0E0,0E0,0E0,0E0],"parents":[2147483647,0,0,1,1,2,2,3,3,4,4,5,5,6,6,7,7,8,8,9,9,10,10,11,11,12,12,13,13,14,14],"right_children":[2,4,6,8,10,12,14,16,18,20,22,24,26,28,30,-1,-1,-1,-1,-1,-1,-1,-1,-1,-1,-1,-1,-1,-1,-1,-1],"split_conditions":[9E0,2E0,2E0,5E0,8E0,1.1E1,1.7E1,4E0,7E0,5E0,3E0,1E1,1.4E1,1E1,6E0,-2.062266E-2,4.046092E-2,9.705775E-2,1.366285E-1,3.1828128E-2,-4.9170375E-2,-1.8539332E-1,-1.9264605E-2,-2.3462152E-2,7.664724E-3,-1.0164362E-1,-2.7175307E-2,1.7766824E-3,4.018581E-2,1.5680948E-3,-7.529142E-2],"split_indices":[1,0,0,1,1,1,1,1,1,0,0,1,1,1,0,0,0,0,0,0,0,0,0,0,0,0,0,0,0,0,0],"split_type":[0,0,0,0,0,0,0,0,0,0,0,0,0,0,0,0,0,0,0,0,0,0,0,0,0,0,0,0,0,0,0],"sum_hessian":[4.701E3,1.584E3,3.117E3,2.29E2,1.355E3,5.9E2,2.527E3,1.35E2,9.4E1,8.43E2,5.12E2,1.79E2,4.11E2,1.532E3,9.95E2,1.12E2,2.3E1,2.2E1,7.2E1,3.89E2,4.54E2,7.6E1,4.36E2,7E1,1.09E2,8.9E1,3.22E2,4.27E2,1.105E3,9.08E2,8.7E1],"tree_param":{"num_deleted":"0","num_feature":"2","num_nodes":"31","size_leaf_vector":"1"}},{"base_weights":[-1.0818436E-3,2.1305934E-2,-3.507387E-1,-3.1687856E-1,4.7067966E-2,-7.5346224E-2,-5.472294E-1,-4.4288903E-1,5.2477377E-3,1.1939731E-1,-1.18401356E-1,-5.8145984E-3,-1.3769328E-2,-6.5030254E-2,-5.25073E-2,-2.2354286E-2,-5.9017982E-2,2.701757E-2,-2.4827568E-2,5.2003656E-3,4.878101E-2,-7.59205E-3,-6.78479E-2],"categories":[],"categories_nodes":[],"categories_segments":[],"categories_sizes":[],"default_left":[0,0,0,0,0,0,0,0,0,0,0,0,0,0,0,0,0,0,0,0,0,0,0],"id":38,"left_children":[1,3,5,7,9,11,13,15,17,19,21,-1,-1,-1,-1,-1,-1,-1,-1,-1,-1,-1,-1],"loss_changes":[3.681492E1,3.852337E1,1.527248E1,1.2707399E1,4.917986E1,1.1960745E-1,3.535843E-2,7.137295E0,6.044802E0,7.095985E1,2.9689213E1,0E0,0E0,0E0,0E0,0E0,0E0,0E0,0E0,0E0,0E0,0E0,0E0],"parents":[2147483647,0,0,1,1,2,2,3,3,4,4,5,5,6,6,7,7,8,8,9,9,10,10],"right_children":[2,4,6,8,10,12,14,16,18,20,22,-1,-1,-1,-1,-1,-1,-1,-1,-1,-1,-1,-1],"split_conditions":[7E0,3E0,4E0,5E0,1.7E1,3E0,5E0,2E0,6E0,1.5E1,6E0,-5.8145984E-3,-1.3769328E-2,-6.5030254E-2,-5.25073E-2,-2.2354286E-2,-5.9017982E-2,2.701757E-2,-2.4827568E-2,5.2003656E-3,4.878101E-2,-7.59205E-3,-6.78479E-2],"split_indices":[0,1,1,0,1,1,1,0,0,1,0,0,0,0,0,0,0,0,0,0,0,0,0],"split_type":[0,0,0,0,0,0,0,0,0,0,0,0,0,0,0,0,0,0,0,0,0,0,0],"sum_hessian":[4.701E3,4.419E3,2.82E2,3.12E2,4.107E3,1.18E2,1.64E2,2.24E2,8.8E1,2.858E3,1.249E3,9.4E1,2.4E1,2.4E1,1.4E2,9.1E1,1.33E2,4.3E1,4.5E1,2.417E3,4.41E2,1.162E3,8.7E1],"tree_param":{"num_deleted":"0","num_feature":"2","num_nodes":"23","size_leaf_vector":"1"}},{"base_weights":[-1.0237617E-3,-9.2459865E-2,7.16092E-2,2.7937552E-1,-1.5497145E-1,4.9490392E-1,-3.9496828E-2,-1.6875073E-1,5.47242E-1,-9.4176894E-1,1.6461771E-3,-8.998503E-4,8.4882957E-1,-1.2431425E0,1.4381482E-2,-2.014315E-2,-2.4415278E-3,1.0022137E-1,-2.1661587E-2,2.8856713E-2,-1.9203302E-1,-1.653373E-2,5.659473E-2,1.9654347E-2,-2.844525E-2,1.1668334E-1,6.6293165E-2,-1.746775E-1,1.1602784E-2,2.2010557E-2,-3.5896845E-2],"categories":[],"categories_nodes":[],"categories_segments":[],"categories_sizes":[],"default_left":[0,0,0,0,0,0,0,0,0,0,0,0,0,0,0,0,0,0,0,0,0,0,0,0,0,0,0,0,0,0,0],"id":39,"left_children":[1,3,5,7,9,11,13,15,17,19,21,23,25,27,29,-1,-1,-1,-1,-1,-1,-1,-1,-1,-1,-1,-1,-1,-1,-1,-1],"loss_changes":[3.1233894E1,4.843735E1,1.2328673E2,3.6103745E1,2.1971417E2,9.563609E1,1.3471214E2,5.2810216E-1,6.555344E1,3.5692603E2,1.4030629E2,1.282062E1,1.8025436E1,6.1125183E1,1.528483E2,0E0,0E0,0E0,0E0,0E0,0E0,0E0,0E0,0E0,0E0,0E0,0E0,0E0,0E0,0E0,0E0],"parents":[2147483647,0,0,1,1,2,2,3,3,4,4,5,5,6,6,7,7,8,8,9,9,10,10,11,11,12,12,13,13,14,14],"right_children":[2,4,6,8,10,12,14,16,18,20,22,24,26,28,30,-1,-1,-1,-1,-1,-1,-1,-1,-1,-1,-1,-1,-1,-1,-1,-1],"split_conditions":[1E1,2E0,1.2E1,4E0,3E0,3E0,1.3E1,3E0,9E0,8E0,9E0,1.1E1,5E0,6E0,5E0,-2.014315E-2,-2.4415278E-3,1.0022137E-1,-2.1661587E-2,2.8856713E-2,-1.9203302E-1,-1.653373E-2,5.659473E-2,1.9654347E-2,-2.844525E-2,1.1668334E-1,6.6293165E-2,-1.746775E-1,1.1602784E-2,2.2010557E-2,-3.5896845E-2],"split_indices":[1,0,1,1,0,0,1,1,1,1,1,1,0,0,0,0,0,0,0,0,0,0,0,0,0,0,0,0,0,0,0],"split_type":[0,0,0,0,0,0,0,0,0,0,0,0,0,0,0,0,0,0,0,0,0,0,0,0,0,0,0,0,0,0,0],"sum_hessian":[4.701E3,2.081E3,2.62E3,2.99E2,1.782E3,5.44E2,2.076E3,1.12E2,1.87E2,2.95E2,1.487E3,2.27E2,3.17E2,8.8E1,1.988E3,9.1E1,2.1E1,1.17E2,7E1,1.31E2,1.64E2,1.148E3,3.39E2,1.34E2,9.3E1,1.15E2,2.02E2,6.4E1,2.4E1,1.282E3,7.06E2],"tree_param":{"num_deleted":"0","num_feature":"2","num_nodes":"31","size_leaf_vector":"1"}},{"base_weights":[-9.364464E-4,1.9885022E-2,-3.0982015E-1,-8.3246246E-2,1.1222886E-1,-7.018098E-1,-5.112791E-2,2.5162446E-1,-1.3954349E-1,-3.0177674E-1,2.122995E-1,-3.61581E-1,-1.1572894E-1,1.12147525E-1,-5.2919436E-1,-1.5207562E-2,4.929356E-2,-8.481428E-2,1.5082241E-4,4.4422653E-3,-4.1160278E-2,5.236424E-2,-1.3961776E-2,-1.6554642E-2,-7.22248E-2,-9.972579E-3,4.86042E-2,-4.7282265E-3,-8.980774E-2],"categories":[],"categories_nodes":[],"categories_segments":[],"categories_sizes":[],"default_left":[0,0,0,0,0,0,0,0,0,0,0,0,0,0,0,0,0,0,0,0,0,0,0,0,0,0,0,0,0],"id":40,"left_children":[1,3,5,7,9,11,13,15,17,19,21,23,-1,25,27,-1,-1,-1,-1,-1,-1,-1,-1,-1,-1,-1,-1,-1,-1],"loss_changes":[3.024666E1,4.1970047E1,3.0081312E1,3.928559E1,9.638836E1,1.7867683E1,1.4109517E1,2.9300158E1,1.782106E2,1.7242119E1,2.0529202E2,4.758956E0,0E0,1.0742937E1,8.134918E0,0E0,0E0,0E0,0E0,0E0,0E0,0E0,0E0,0E0,0E0,0E0,0E0,0E0,0E0],"parents":[2147483647,0,0,1,1,2,2,3,3,4,4,5,5,6,6,7,7,8,8,9,9,10,10,11,11,13,13,14,14],"right_children":[2,4,6,8,10,12,14,16,18,20,22,24,-1,26,28,-1,-1,-1,-1,-1,-1,-1,-1,-1,-1,-1,-1,-1,-1],"split_conditions":[2.2E1,1E1,3E0,2E0,2E0,2E0,2.3E1,4E0,3E0,1.1E1,5E0,2.3E1,-1.1572894E-1,5E0,5E0,-1.5207562E-2,4.929356E-2,-8.481428E-2,1.5082241E-4,4.4422653E-3,-4.1160278E-2,5.236424E-2,-1.3961776E-2,-1.6554642E-2,-7.22248E-2,-9.972579E-3,4.86042E-2,-4.7282265E-3,-8.980774E-2],"split_indices":[1,1,0,0,0,0,1,1,0,1,0,1,0,0,0,0,0,0,0,0,0,0,0,0,0,0,0,0,0],"split_type":[0,0,0,0,0,0,0,0,0,0,0,0,0,0,0,0,0,0,0,0,0,0,0,0,0,0,0,0,0],"sum_hessian":[4.701E3,4.405E3,2.96E2,2.081E3,2.324E3,1.17E2,1.79E2,2.99E2,1.782E3,4.52E2,1.872E3,6.8E1,4.9E1,1.34E2,4.5E1,1.12E2,1.87E2,2.95E2,1.487E3,1.09E2,3.43E2,9.93E2,8.79E2,4.5E1,2.3E1,8.6E1,4.8E1,2E1,2.5E1],"tree_param":{"num_deleted":"0","num_feature":"2","num_nodes":"29","size_leaf_vector":"1"}},{"base_weights":[-9.085572E-4,1.8230356E-2,-2.9982406E-1,6.665433E-2,-1.4020617E-1,-5.173077E-2,-4.7693482E-1,-1.6468702E-1,1.23147845E-1,-4.330347E-1,1.9796439E-1,-3.6181924E-3,-1.0874716E-2,-5.7214584E-2,-4.5667093E-2,4.129487E-3,-2.2842808E-2,4.5692112E-2,9.37618E-3,-1.5263523E-1,-2.2094969E-2,3.5564005E-2,-1.3761245E-1],"categories":[],"categories_nodes":[],"categories_segments":[],"categories_sizes":[],"default_left":[0,0,0,0,0,0,0,0,0,0,0,0,0,0,0,0,0,0,0,0,0,0,0],"id":41,"left_children":[1,3,5,7,9,11,13,15,17,19,21,-1,-1,-1,-1,-1,-1,-1,-1,-1,-1,-1,-1],"loss_changes":[2.6905222E1,3.3920147E1,1.2410345E1,4.427289E1,1.0257762E2,1.0156348E-1,5.706024E-2,8.740551E0,2.6655281E1,1.283541E2,1.19871445E2,0E0,0E0,0E0,0E0,0E0,0E0,0E0,0E0,0E0,0E0,0E0,0E0],"parents":[2147483647,0,0,1,1,2,2,3,3,4,4,5,5,6,6,7,7,8,8,9,9,10,10],"right_children":[2,4,6,8,10,12,14,16,18,20,22,-1,-1,-1,-1,-1,-1,-1,-1,-1,-1,-1,-1],"split_conditions":[7E0,1.8E1,4E0,7E0,4E0,3E0,5E0,2E0,8E0,1.9E1,6E0,-3.6181924E-3,-1.0874716E-2,-5.7214584E-2,-4.5667093E-2,4.129487E-3,-2.2842808E-2,4.5692112E-2,9.37618E-3,-1.5263523E-1,-2.2094969E-2,3.5564005E-2,-1.3761245E-1],"split_indices":[0,1,1,1,0,1,1,0,1,1,0,0,0,0,0,0,0,0,0,0,0,0,0],"split_type":[0,0,0,0,0,0,0,0,0,0,0,0,0,0,0,0,0,0,0,0,0,0,0],"sum_hessian":[4.701E3,4.419E3,2.82E2,3.385E3,1.034E3,1.18E2,1.64E2,6.64E2,2.721E3,5.54E2,4.8E2,9.4E1,2.4E1,2.4E1,1.4E2,1.57E2,5.07E2,2.19E2,2.502E3,8.9E1,4.65E2,4.37E2,4.3E1],"tree_param":{"num_deleted":"0","num_feature":"2","num_nodes":"23","size_leaf_vector":"1"}},{"base_weights":[-8.9403585E-4,2.425858E-2,-2.2014609E-1,-7.460723E-2,1.2052348E-1,-3.2751063E-1,1.1564144E-1,-1.9024573E-1,6.100515E-2,2.9927665E-1,-1.582276E-1,-3.7058386E-1,-2.1502173E-1,3.8322177E-2,-8.459206E-2,2.854008E-2,-6.818905E-2,-2.2683067E-2,1.5106623E-1,-2.6995946E-2,5.6093037E-2,6.0152717E-2,-4.0124338E-2,-2.7101217E-2,-4.399467E-2,-2.470549E-2,-7.6649985E-3],"categories":[],"categories_nodes":[],"categories_segments":[],"categories_sizes":[],"default_left":[0,0,0,0,0,0,0,0,0,0,0,0,0,0,0,0,0,0,0,0,0,0,0,0,0,0,0],"id":42,"left_children":[1,3,5,7,9,11,13,15,17,19,21,23,25,-1,-1,-1,-1,-1,-1,-1,-1,-1,-1,-1,-1,-1,-1],"loss_changes":[2.5935757E1,4.0162518E1,1.7486881E1,3.2661556E1,1.0657884E2,1.6985283E0,3.0684994E1,2.6304102E2,4.0049814E2,1.9422379E2,1.5459404E2,1.7041016E0,4.420414E-1,0E0,0E0,0E0,0E0,0E0,0E0,0E0,0E0,0E0,0E0,0E0,0E0,0E0,0E0],"parents":[2147483647,0,0,1,1,2,2,3,3,4,4,5,5,6,6,7,7,8,8,9,9,10,10,11,11,12,12],"right_children":[2,4,6,8,10,12,14,16,18,20,22,24,26,-1,-1,-1,-1,-1,-1,-1,-1,-1,-1,-1,-1,-1,-1],"split_conditions":[2.1E1,1E1,5E0,5E0,5E0,4E0,2.3E1,8E0,9E0,2E0,1.2E1,2E0,2.3E1,3.8322177E-2,-8.459206E-2,2.854008E-2,-6.818905E-2,-2.2683067E-2,1.5106623E-1,-2.6995946E-2,5.6093037E-2,6.0152717E-2,-4.0124338E-2,-2.7101217E-2,-4.399467E-2,-2.470549E-2,-7.6649985E-3],"split_indices":[1,1,0,0,0,0,1,1,1,0,1,0,1,0,0,0,0,0,0,0,0,0,0,0,0,0,0],"split_type":[0,0,0,0,0,0,0,0,0,0,0,0,0,0,0,0,0,0,0,0,0,0,0,0,0,0,0],"sum_hessian":[4.701E3,4.218E3,4.83E2,2.081E3,2.137E3,3.66E2,1.17E2,1.123E3,9.58E2,1.302E3,8.35E2,2.63E2,1.03E2,9.2E1,2.5E1,5.71E2,5.52E2,8E2,1.58E2,4.1E2,8.92E2,2.02E2,6.33E2,1.1E2,1.53E2,8.3E1,2E1],"tree_param":{"num_deleted":"0","num_feature":"2","num_nodes":"27","size_leaf_vector":"1"}},{"base_weights":[-8.070068E-4,-1.5046749E-1,3.0193202E-2,8.832301E-3,-1.889581E-1,8.6226426E-2,-1.2478001E-1,-1.07868224E-1,6.9850355E-2,-3.3075055E-1,-1.2520424E-1,1.8953986E-1,-4.125E-2,-3.877349E-1,1.788889E-1,-1.6938305E-2,1.8625855E-2,-4.30088E-2,4.970443E-2,-4.259703E-3,-8.864753E-2,-1.0768267E-2,8.067464E-2,2.8139262E-2,-5.7027247E-2,-1.409649E-1,-1.895375E-2,3.172427E-2,-1.2024259E-1],"categories":[],"categories_nodes":[],"categories_segments":[],"categories_sizes":[],"default_left":[0,0,0,0,0,0,0,0,0,0,0,0,0,0,0,0,0,0,0,0,0,0,0,0,0,0,0,0,0],"id":43,"left_children":[1,3,5,7,9,11,13,15,-1,17,19,21,23,25,27,-1,-1,-1,-1,-1,-1,-1,-1,-1,-1,-1,-1,-1,-1],"loss_changes":[2.1819502E1,4.949827E0,3.384225E1,1.2791977E1,5.8344707E0,3.770044E1,8.271538E1,2.4922183E0,0E0,1.6742203E1,2.8261147E1,2.9011765E2,2.1897888E2,1.121429E2,9.2305435E1,0E0,0E0,0E0,0E0,0E0,0E0,0E0,0E0,0E0,0E0,0E0,0E0,0E0,0E0],"parents":[2147483647,0,0,1,1,2,2,3,3,4,4,5,5,6,6,7,7,9,9,10,10,11,11,12,12,13,13,14,14],"right_children":[2,4,6,8,10,12,14,16,-1,18,20,22,24,26,28,-1,-1,-1,-1,-1,-1,-1,-1,-1,-1,-1,-1,-1,-1],"split_conditions":[7E0,2E0,1.8E1,5E0,4E0,5E0,4E0,4E0,6.9850355E-2,5E0,6E0,1.3E1,1.2E1,1.9E1,6E0,-1.6938305E-2,1.8625855E-2,-4.30088E-2,4.970443E-2,-4.259703E-3,-8.864753E-2,-1.0768267E-2,8.067464E-2,2.8139262E-2,-5.7027247E-2,-1.409649E-1,-1.895375E-2,3.172427E-2,-1.2024259E-1],"split_indices":[1,0,1,1,0,0,0,1,0,1,1,1,1,1,0,0,0,0,0,0,0,0,0,0,0,0,0,0,0],"split_type":[0,0,0,0,0,0,0,0,0,0,0,0,0,0,0,0,0,0,0,0,0,0,0,0,0,0,0,0,0],"sum_hessian":[4.701E3,8.06E2,3.895E3,1.57E2,6.49E2,2.861E3,1.034E3,1.35E2,2.2E1,2E2,4.49E2,1.58E3,1.281E3,5.54E2,4.8E2,1.12E2,2.3E1,1.79E2,2.1E1,4.06E2,4.3E1,1.067E3,5.13E2,7.96E2,4.85E2,8.9E1,4.65E2,4.37E2,4.3E1],"tree_param":{"num_deleted":"0","num_feature":"2","num_nodes":"29","size_leaf_vector":"1"}},{"base_weights":[-7.733691E-4,2.7130334E-2,-1.7200524E-1,-6.578434E-2,1.2566382E-1,-2.8010502E-1,1.6136324E-1,2.311003E-1,-1.1569999E-1,3.0675086E-1,-1.424671E-1,-1.347459E-1,-3.3324614E-1,3.4170133E-1,-7.95086E-2,-9.7068995E-3,5.001908E-2,-7.215964E-2,4.90554E-4,-2.8814873E-2,5.9926916E-2,5.1367093E-2,-3.679816E-2,-3.6476476E-3,-5.8772214E-2,-4.6824265E-2,-2.5256021E-2,3.9150506E-2,3.1392854E-2],"categories":[],"categories_nodes":[],"categories_segments":[],"categories_sizes":[],"default_left":[0,0,0,0,0,0,0,0,0,0,0,0,0,0,0,0,0,0,0,0,0,0,0,0,0,0,0,0,0],"id":44,"left_children":[1,3,5,7,9,11,13,15,17,19,21,23,25,27,-1,-1,-1,-1,-1,-1,-1,-1,-1,-1,-1,-1,-1,-1,-1],"loss_changes":[2.2470839E1,3.703192E1,2.3793621E1,3.0880299E1,9.535724E1,3.801918E0,2.8214127E1,2.654072E1,1.3029529E2,2.0412296E2,1.1738017E2,5.9879136E0,3.8465462E0,6.659126E-2,0E0,0E0,0E0,0E0,0E0,0E0,0E0,0E0,0E0,0E0,0E0,0E0,0E0,0E0,0E0],"parents":[2147483647,0,0,1,1,2,2,3,3,4,4,5,5,6,6,7,7,8,8,9,9,10,10,11,11,12,12,13,13],"right_children":[2,4,6,8,10,12,14,16,18,20,22,24,26,28,-1,-1,-1,-1,-1,-1,-1,-1,-1,-1,-1,-1,-1,-1,-1],"split_conditions":[2E1,1E1,5E0,2E0,5E0,2E0,2.3E1,5E0,3E0,2E0,1.2E1,2.3E1,3E0,2.1E1,-7.95086E-2,-9.7068995E-3,5.001908E-2,-7.215964E-2,4.90554E-4,-2.8814873E-2,5.9926916E-2,5.1367093E-2,-3.679816E-2,-3.6476476E-3,-5.8772214E-2,-4.6824265E-2,-2.5256021E-2,3.9150506E-2,3.1392854E-2],"split_indices":[1,1,0,0,0,0,1,1,0,0,1,1,0,1,0,0,0,0,0,0,0,0,0,0,0,0,0,0,0],"split_type":[0,0,0,0,0,0,0,0,0,0,0,0,0,0,0,0,0,0,0,0,0,0,0,0,0,0,0,0,0],"sum_hessian":[4.701E3,4.043E3,6.58E2,2.081E3,1.962E3,4.97E2,1.61E2,2.99E2,1.782E3,1.171E3,7.91E2,1.34E2,3.63E2,1.36E2,2.5E1,1.35E2,1.64E2,2.95E2,1.487E3,3.86E2,7.85E2,2.02E2,5.89E2,1.11E2,2.3E1,1.34E2,2.29E2,4.4E1,9.2E1],"tree_param":{"num_deleted":"0","num_feature":"2","num_nodes":"29","size_leaf_vector":"1"}},{"base_weights":[-7.23421E-4,1.5872704E-2,-2.5992537E-1,4.580464E-2,-1.5502231E-1,-2.0449642E-2,-4.3106284E-2,-2.070625E-1,7.237751E-2,-2.5236446E-1,1.451716E-1,-6.4281264E-4,-7.2913417E-3,1.1831475E-2,-2.8376583E-2,3.7020997E-3,1.5352817E-2,-1.2173361E-2,-3.001194E-2,3.080461E-2,-7.1863525E-2],"categories":[],"categories_nodes":[],"categories_segments":[],"categories_sizes":[],"default_left":[0,0,0,0,0,0,0,0,0,0,0,0,0,0,0,0,0,0,0,0,0],"id":45,"left_children":[1,3,5,7,9,11,-1,13,15,17,19,-1,-1,-1,-1,-1,-1,-1,-1,-1,-1],"loss_changes":[2.0230946E1,2.2616367E1,1.1589451E1,2.5293392E1,1.9293617E1,8.707028E-2,0E0,8.968368E0,9.763958E0,3.0701256E0,2.3013496E1,0E0,0E0,0E0,0E0,0E0,0E0,0E0,0E0,0E0,0E0],"parents":[2147483647,0,0,1,1,2,2,3,3,4,4,5,5,7,7,8,8,9,9,10,10],"right_children":[2,4,6,8,10,12,-1,14,16,18,20,-1,-1,-1,-1,-1,-1,-1,-1,-1,-1],"split_conditions":[7E0,2E1,4E0,4E0,5E0,3E0,-4.3106284E-2,1E0,1.5E1,2E0,2.3E1,-6.4281264E-4,-7.2913417E-3,1.1831475E-2,-2.8376583E-2,3.7020997E-3,1.5352817E-2,-1.2173361E-2,-3.001194E-2,3.080461E-2,-7.1863525E-2],"split_indices":[0,1,1,1,0,1,0,1,1,0,1,0,0,0,0,0,0,0,0,0,0],"split_type":[0,0,0,0,0,0,0,0,0,0,0,0,0,0,0,0,0,0,0,0,0],"sum_hessian":[4.701E3,4.419E3,2.82E2,3.761E3,6.58E2,1.18E2,1.64E2,3.57E2,3.404E3,4.97E2,1.61E2,9.4E1,2.4E1,6.8E1,2.89E2,2.372E3,1.032E3,1.34E2,3.63E2,1.36E2,2.5E1],"tree_param":{"num_deleted":"0","num_feature":"2","num_nodes":"21","size_leaf_vector":"1"}},{"base_weights":[-6.790438E-4,1.4267241E-2,-2.341133E-1,5.6192566E-2,-9.210034E-2,-1.8471373E-2,-3.88218E-2,4.5191315E-3,3.7522486E-1,-2.8644404E-1,-4.2251196E-2,-5.7921157E-4,-6.59137E-3,3.8855092E-3,-9.2790805E-2,1.3736002E-1,3.221991E-3,-4.8132583E-2,-1.0965038E-2,7.4453256E-3,-1.4709358E-2],"categories":[],"categories_nodes":[],"categories_segments":[],"categories_sizes":[],"default_left":[0,0,0,0,0,0,0,0,0,0,0,0,0,0,0,0,0,0,0,0,0],"id":46,"left_children":[1,3,5,7,9,11,-1,13,15,17,19,-1,-1,-1,-1,-1,-1,-1,-1,-1,-1],"loss_changes":[1.64085E1,1.9716143E1,9.397327E0,5.2273808E1,1.209773E1,7.12007E-2,0E0,8.743914E1,1.5131761E2,8.732958E0,1.2197582E1,0E0,0E0,0E0,0E0,0E0,0E0,0E0,0E0,0E0,0E0],"parents":[2147483647,0,0,1,1,2,2,3,3,4,4,5,5,7,7,8,8,9,9,10,10],"right_children":[2,4,6,8,10,12,-1,14,16,18,20,-1,-1,-1,-1,-1,-1,-1,-1,-1,-1],"split_conditions":[7E0,1.7E1,4E0,1.5E1,2E0,3E0,-3.88218E-2,1.4E1,3E0,2E1,2E1,-5.7921157E-4,-6.59137E-3,3.8855092E-3,-9.2790805E-2,1.3736002E-1,3.221991E-3,-4.8132583E-2,-1.0965038E-2,7.4453256E-3,-1.4709358E-2],"split_indices":[0,1,1,1,0,1,0,1,0,1,1,0,0,0,0,0,0,0,0,0,0],"split_type":[0,0,0,0,0,0,0,0,0,0,0,0,0,0,0,0,0,0,0,0,0],"sum_hessian":[4.701E3,4.419E3,2.82E2,3.17E3,1.249E3,1.18E2,1.64E2,2.729E3,4.41E2,2.54E2,9.95E2,9.4E1,2.4E1,2.633E3,9.6E1,1.12E2,3.29E2,1.2E2,1.34E2,4.71E2,5.24E2],"tree_param":{"num_deleted":"0","num_feature":"2","num_nodes":"21","size_leaf_vector":"1"}},{"base_weights":[-6.2380335E-4,1.3301529E-2,-2.0720425E-1,-5.4920975E-2,7.438796E-2,-4.9457863E-1,-1.766323E-2,2.125389E-1,-9.9891834E-2,3.511125E-1,-1.03336945E-2,-2.1477439E-1,-8.708169E-2,1.0394151E-1,-3.741627E-1,-1.1869936E-2,4.105037E-2,-6.5543704E-2,1.0686985E-3,1.9233013E-3,6.817059E-2,-1.09154515E-1,4.6511046E-3,-5.6479373E-3,-5.0922424E-2,-1.1747624E-4,2.8845524E-2,-3.2918204E-3,-6.3539244E-2],"categories":[],"categories_nodes":[],"categories_segments":[],"categories_sizes":[],"default_left":[0,0,0,0,0,0,0,0,0,0,0,0,0,0,0,0,0,0,0,0,0,0,0,0,0,0,0,0,0],"id":47,"left_children":[1,3,5,7,9,11,13,15,17,19,21,23,-1,25,27,-1,-1,-1,-1,-1,-1,-1,-1,-1,-1,-1,-1,-1,-1],"loss_changes":[1.3529005E1,1.8365955E1,1.6168629E1,2.506332E1,5.4512238E1,1.2235193E1,7.8422556E0,1.9720783E1,1.0953943E2,5.978273E1,1.0951313E2,3.1873248E0,0E0,2.6187177E0,4.079671E0,0E0,0E0,0E0,0E0,0E0,0E0,0E0,0E0,0E0,0E0,0E0,0E0,0E0,0E0],"parents":[2147483647,0,0,1,1,2,2,3,3,4,4,5,5,6,6,7,7,8,8,9,9,10,10,11,11,13,13,14,14],"right_children":[2,4,6,8,10,12,14,16,18,20,22,24,-1,26,28,-1,-1,-1,-1,-1,-1,-1,-1,-1,-1,-1,-1,-1,-1],"split_conditions":[2.2E1,1E1,3E0,2E0,1.2E1,2E0,2.3E1,4E0,3E0,4E0,1.3E1,2.3E1,-8.708169E-2,5E0,5E0,-1.1869936E-2,4.105037E-2,-6.5543704E-2,1.0686985E-3,1.9233013E-3,6.817059E-2,-1.09154515E-1,4.6511046E-3,-5.6479373E-3,-5.0922424E-2,-1.1747624E-4,2.8845524E-2,-3.2918204E-3,-6.3539244E-2],"split_indices":[1,1,0,0,1,0,1,1,0,0,1,1,0,0,0,0,0,0,0,0,0,0,0,0,0,0,0,0,0],"split_type":[0,0,0,0,0,0,0,0,0,0,0,0,0,0,0,0,0,0,0,0,0,0,0,0,0,0,0,0,0],"sum_hessian":[4.701E3,4.405E3,2.96E2,2.081E3,2.324E3,1.17E2,1.79E2,2.99E2,1.782E3,5.44E2,1.78E3,6.8E1,4.9E1,1.34E2,4.5E1,1.12E2,1.87E2,2.95E2,1.487E3,2.72E2,2.72E2,8.8E1,1.692E3,4.5E1,2.3E1,8.6E1,4.8E1,2E1,2.5E1],"tree_param":{"num_deleted":"0","num_feature":"2","num_nodes":"29","size_leaf_vector":"1"}},{"base_weights":[-6.1496336E-4,1.291503E-2,-2.1192929E-1,5.021253E-2,-8.17116E-2,-1.7744016E-2,-3.5069364E-1,4.348074E-3,3.333794E-1,-2.5583443E-1,-3.7049916E-2,-6.276221E-4,-6.061188E-3,-4.1420087E-2,-3.3694636E-2,3.546546E-3,-8.4067814E-2,1.2328452E-1,2.4370234E-3,-4.3820415E-2,-9.048208E-3,-5.4178113E-4,-3.6337417E-2],"categories":[],"categories_nodes":[],"categories_segments":[],"categories_sizes":[],"default_left":[0,0,0,0,0,0,0,0,0,0,0,0,0,0,0,0,0,0,0,0,0,0,0],"id":48,"left_children":[1,3,5,7,9,11,13,15,17,19,21,-1,-1,-1,-1,-1,-1,-1,-1,-1,-1,-1,-1],"loss_changes":[1.3446139E1,1.5603771E1,7.6194935E0,4.118126E1,9.711292E0,5.811997E-2,4.4898987E-3,7.181518E1,1.2282083E2,7.6499424E0,1.0279066E1,0E0,0E0,0E0,0E0,0E0,0E0,0E0,0E0,0E0,0E0,0E0,0E0],"parents":[2147483647,0,0,1,1,2,2,3,3,4,4,5,5,6,6,7,7,8,8,9,9,10,10],"right_children":[2,4,6,8,10,12,14,16,18,20,22,-1,-1,-1,-1,-1,-1,-1,-1,-1,-1,-1,-1],"split_conditions":[7E0,1.7E1,4E0,1.5E1,2E0,3E0,5E0,1.4E1,3E0,2E1,6E0,-6.276221E-4,-6.061188E-3,-4.1420087E-2,-3.3694636E-2,3.546546E-3,-8.4067814E-2,1.2328452E-1,2.4370234E-3,-4.3820415E-2,-9.048208E-3,-5.4178113E-4,-3.6337417E-2],"split_indices":[0,1,1,1,0,1,1,1,0,1,0,0,0,0,0,0,0,0,0,0,0,0,0],"split_type":[0,0,0,0,0,0,0,0,0,0,0,0,0,0,0,0,0,0,0,0,0,0,0],"sum_hessian":[4.701E3,4.419E3,2.82E2,3.17E3,1.249E3,1.18E2,1.64E2,2.729E3,4.41E2,2.54E2,9.95E2,9.4E1,2.4E1,2.4E1,1.4E2,2.633E3,9.6E1,1.12E2,3.29E2,1.2E2,1.34E2,9.08E2,8.7E1],"tree_param":{"num_deleted":"0","num_feature":"2","num_nodes":"23","size_leaf_vector":"1"}},{"base_weights":[-5.800867E-4,-1.1162801E-1,2.242203E-2,1.0935149E-2,-1.7292991E-1,3.8800555E-1,5.4256496E-4,-9.6374914E-2,5.6430902E-2,-1.1575237E-1,-8.12247E-2,1.5923969E0,-1.3368173E-1,-9.64141E-2,7.925391E-2,-2.0707235E-2,8.082981E-3,-5.038775E-2,-3.0595385E-3,8.765966E-2,1.754477E-1,6.796654E-4,-2.9968644E-2,2.1778192E-2,-3.9937515E-3],"categories":[],"categories_nodes":[],"categories_segments":[],"categories_sizes":[],"default_left":[0,0,0,0,0,0,0,0,0,0,0,0,0,0,0,0,0,0,0,0,0,0,0,0,0],"id":49,"left_children":[1,3,5,7,9,11,13,15,-1,17,-1,19,-1,21,23,-1,-1,-1,-1,-1,-1,-1,-1,-1,-1],"loss_changes":[1.2012997E1,6.0651693E0,3.1163008E1,1.6087683E1,1.9572344E1,4.5914832E2,2.8068996E1,4.4695945E0,0E0,1.6345108E1,0E0,1.35442505E1,0E0,3.4576897E1,3.3526737E1,0E0,0E0,0E0,0E0,0E0,0E0,0E0,0E0,0E0,0E0],"parents":[2147483647,0,0,1,1,2,2,3,3,4,4,5,5,6,6,7,7,9,9,11,11,13,13,14,14],"right_children":[2,4,6,8,10,12,14,16,-1,18,-1,20,-1,22,24,-1,-1,-1,-1,-1,-1,-1,-1,-1,-1],"split_conditions":[7E0,3E0,8E0,5E0,6E0,5E0,4E0,3E0,5.6430902E-2,4E0,-8.12247E-2,2E0,-1.3368173E-1,1.8E1,1.2E1,-2.0707235E-2,8.082981E-3,-5.038775E-2,-3.0595385E-3,8.765966E-2,1.754477E-1,6.796654E-4,-2.9968644E-2,2.1778192E-2,-3.9937515E-3],"split_indices":[1,0,1,1,1,0,0,1,0,0,0,0,0,1,1,0,0,0,0,0,0,0,0,0,0],"split_type":[0,0,0,0,0,0,0,0,0,0,0,0,0,0,0,0,0,0,0,0,0,0,0,0,0],"sum_hessian":[4.701E3,8.06E2,3.895E3,2.69E2,5.37E2,2.19E2,3.676E3,2.26E2,4.3E1,4.94E2,4.3E1,1.29E2,9E1,1.647E3,2.029E3,1.39E2,8.7E1,8.8E1,4.06E2,2.5E1,1.04E2,1.093E3,5.54E2,9.38E2,1.091E3],"tree_param":{"num_deleted":"0","num_feature":"2","num_nodes":"25","size_leaf_vector":"1"}}]},"name":"gbtree"},"learner_model_param":{"base_score":"[1.4720272E1]","boost_from_average":"1","num_class":"0","num_feature":"2","num_target":"1"},"objective":{"name":"reg:squarederror","reg_loss_param":{"scale_pos_weight":"1"}}},"version":[3,2,0]}