{"learner":{"attributes":{},"feature_names":["day_of_week","hour_of_day"],"feature_types":[],"gradient_booster":{"model":{"cats":{"enc":[],"feature_segments":[],"sorted_idx":[]},"gbtree_model_param":{"num_parallel_tree":"1","num_trees":"50"},"iteration_indptr":[0,1,2,3,4,5,6,7,8,9,10,11,12,13,14,15,16,17,18,19,20,21,22,23,24,25,26,27,28,29,30,31,32,33,34,35,36,37,38,39,40,41,42,43,44,45,46,47,48,49,50],"tree_info":[0,0,0,0,0,0,0,0,0,0,0,0,0,0,0,0,0,0,0,0,0,0,0,0,0,0,0,0,0,0,0,0,0,0,0,0,0,0,0,0,0,0,0,0,0,0,0,0,0,0],"trees":[{"base_weights":[2.6024222E-7,-1.234577E1,9.8207384E-1,-1.2812369E1,-9.234202E0,2.1187086E0,-6.0315733E0,-1.3914953E0,-1.1479867E0,-4.744392E-1,-1.1124243E0,-5.413697E-1,3.0176485E0,-4.165255E0,-9.578684E0,2.840879E-2,-4.2221555E-1,3.191182E-1,-5.8256842E-2,-5.8666223E-1,-1.7345823E-1,-1.2623562E0,-5.9768265E-1],"categories":[],"categories_nodes":[],"categories_segments":[],"categories_sizes":[],"default_left":[0,0,0,0,0,0,0,0,0,0,0,0,0,0,0,0,0,0,0,0,0,0,0],"id":0,"left_children":[1,3,5,7,9,11,13,-1,-1,-1,-1,15,17,19,21,-1,-1,-1,-1,-1,-1,-1,-1],"loss_changes":[7.7499516E4,5.655078E2,4.7214723E4,4.3821875E2,4.9880762E2,1.2187445E4,5.428252E3,0E0,0E0,0E0,0E0,3.914572E3,2.3815586E3,2.2353828E3,3.0392422E3,0E0,0E0,0E0,0E0,0E0,0E0,0E0,0E0],"parents":[2147483647,0,0,1,1,2,2,3,3,4,4,5,5,6,6,11,11,12,12,13,13,14,14],"right_children":[2,4,6,8,10,12,14,-1,-1,-1,-1,16,18,20,22,-1,-1,-1,-1,-1,-1,-1,-1],"split_conditions":[4E0,3E0,1.9E1,5E0,2E0,9E0,2.2E1,-1.3914953E0,-1.1479867E0,-4.744392E-1,-1.1124243E0,7E0,7E0,4E0,4E0,2.840879E-2,-4.2221555E-1,3.191182E-1,-5.8256842E-2,-5.8666223E-1,-1.7345823E-1,-1.2623562E0,-5.9768265E-1],"split_indices":[1,1,1,0,0,1,1,0,0,0,0,0,0,0,0,0,0,0,0,0,0,0,0],"split_type":[0,0,0,0,0,0,0,0,0,0,0,0,0,0,0,0,0,0,0,0,0,0,0],"sum_hessian":[6.39E3,4.7E2,5.92E3,4.06E2,6.4E1,5.095E3,8.25E2,2.17E2,1.89E2,2E1,4.4E1,1.287E3,3.808E3,5.42E2,2.83E2,1.052E3,2.35E2,3.633E3,1.75E2,3.18E2,2.24E2,1.52E2,1.31E2],"tree_param":{"num_deleted":"0","num_feature":"2","num_nodes":"23","size_leaf_vector":"1"}},{"base_weights":[-1.0763779E-3,-1.1119953E1,8.834013E-1,-1.1537372E1,-8.335196E0,1.9068114E0,-5.431588E0,-1.252984E0,-1.0337923E0,-4.292545E-1,-1.0036539E0,-4.8753858E-1,2.7159517E0,-2.6394587E0,-7.40894E0,-3.2340074E-1,4.2750847E-2,2.872151E-1,-5.2464217E-2,-3.9546892E-1,-5.4876436E-2,-9.923301E-1,-4.4328997E-1],"categories":[],"categories_nodes":[],"categories_segments":[],"categories_sizes":[],"default_left":[0,0,0,0,0,0,0,0,0,0,0,0,0,0,0,0,0,0,0,0,0,0,0],"id":1,"left_children":[1,3,5,7,9,11,13,-1,-1,-1,-1,15,17,19,21,-1,-1,-1,-1,-1,-1,-1,-1],"loss_changes":[6.286146E4,4.5132812E2,3.827674E4,3.5496875E2,4.039839E2,9.874139E3,4.5408086E3,0E0,0E0,0E0,0E0,3.2383174E3,1.929541E3,9.4374194E2,3.5702207E3,0E0,0E0,0E0,0E0,0E0,0E0,0E0,0E0],"parents":[2147483647,0,0,1,1,2,2,3,3,4,4,5,5,6,6,11,11,12,12,13,13,14,14],"right_children":[2,4,6,8,10,12,14,-1,-1,-1,-1,16,18,20,22,-1,-1,-1,-1,-1,-1,-1,-1],"split_conditions":[4E0,3E0,1.9E1,5E0,2E0,9E0,2.1E1,-1.252984E0,-1.0337923E0,-4.292545E-1,-1.0036539E0,7E0,7E0,4E0,4E0,-3.2340074E-1,4.2750847E-2,2.872151E-1,-5.2464217E-2,-3.9546892E-1,-5.4876436E-2,-9.923301E-1,-4.4328997E-1],"split_indices":[1,1,1,0,0,1,1,0,0,0,0,1,0,0,0,0,0,0,0,0,0,0,0],"split_type":[0,0,0,0,0,0,0,0,0,0,0,0,0,0,0,0,0,0,0,0,0,0,0],"sum_hessian":[6.39E3,4.7E2,5.92E3,4.06E2,6.4E1,5.095E3,8.25E2,2.17E2,1.89E2,2E1,4.4E1,1.287E3,3.808E3,3.43E2,4.82E2,3.21E2,9.66E2,3.633E3,1.75E2,2.1E2,1.33E2,2.6E2,2.22E2],"tree_param":{"num_deleted":"0","num_feature":"2","num_nodes":"23","size_leaf_vector":"1"}},{"base_weights":[-1.8526176E-3,-1.0015856E1,7.947353E-1,-1.0389253E1,-7.5237207E0,1.7161217E0,-4.8907127E0,-1.1282605E0,-9.30957E-1,-3.883731E-1,-9.0551895E-1,-4.3900305E-1,2.4444191E0,-3.3120852E0,-7.8917828E0,3.155734E-2,-3.8039607E-1,2.61021E-1,-2.8525973E-2,-4.685498E-1,-1.350171E-1,-1.0383612E0,-4.94374E-1],"categories":[],"categories_nodes":[],"categories_segments":[],"categories_sizes":[],"default_left":[0,0,0,0,0,0,0,0,0,0,0,0,0,0,0,0,0,0,0,0,0,0,0],"id":2,"left_children":[1,3,5,7,9,11,13,-1,-1,-1,-1,15,17,19,21,-1,-1,-1,-1,-1,-1,-1,-1],"loss_changes":[5.098918E4,3.601289E2,3.1025518E4,2.8753125E2,3.2717676E2,7.9996113E3,3.8870977E3,0E0,0E0,0E0,0E0,3.2715842E3,1.7245293E3,1.4567974E3,2.0349336E3,0E0,0E0,0E0,0E0,0E0,0E0,0E0,0E0],"parents":[2147483647,0,0,1,1,2,2,3,3,4,4,5,5,6,6,11,11,12,12,13,13,14,14],"right_children":[2,4,6,8,10,12,14,-1,-1,-1,-1,16,18,20,22,-1,-1,-1,-1,-1,-1,-1,-1],"split_conditions":[4E0,3E0,1.9E1,5E0,2E0,9E0,2.2E1,-1.1282605E0,-9.30957E-1,-3.883731E-1,-9.0551895E-1,7E0,1.8E1,4E0,4E0,3.155734E-2,-3.8039607E-1,2.61021E-1,-2.8525973E-2,-4.685498E-1,-1.350171E-1,-1.0383612E0,-4.94374E-1],"split_indices":[1,1,1,0,0,1,1,0,0,0,0,0,1,0,0,0,0,0,0,0,0,0,0],"split_type":[0,0,0,0,0,0,0,0,0,0,0,0,0,0,0,0,0,0,0,0,0,0,0],"sum_hessian":[6.39E3,4.7E2,5.92E3,4.06E2,6.4E1,5.095E3,8.25E2,2.17E2,1.89E2,2E1,4.4E1,1.287E3,3.808E3,5.42E2,2.83E2,1.052E3,2.35E2,3.59E3,2.18E2,3.18E2,2.24E2,1.52E2,1.31E2],"tree_param":{"num_deleted":"0","num_feature":"2","num_nodes":"23","size_leaf_vector":"1"}},{"base_weights":[-2.544281E-3,-9.021389E0,7.1488154E-1,-9.355388E0,-6.791255E0,1.446741E0,-5.1012754E0,-1.0159519E0,-8.3835137E-1,-3.5138515E-1,-8.1697935E-1,-2.909807E0,1.730475E0,-6.699663E0,-2.9370046E0,9.399905E-2,-8.5300463E-1,2.0269255E-1,-1.7813778E-1,-4.8903957E-1,-9.3520373E-1,-1.6010632E-1,-4.4531113E-1],"categories":[],"categories_nodes":[],"categories_segments":[],"categories_sizes":[],"default_left":[0,0,0,0,0,0,0,0,0,0,0,0,0,0,0,0,0,0,0,0,0,0,0],"id":3,"left_children":[1,3,5,7,9,11,13,-1,-1,-1,-1,15,17,19,21,-1,-1,-1,-1,-1,-1,-1,-1],"loss_changes":[4.135847E4,2.8729297E2,2.5210766E4,2.3290625E2,2.6496436E2,6.506923E3,2.2704082E3,0E0,0E0,0E0,0E0,6.9750615E3,5.1455596E3,1.7778281E3,5.6606665E2,0E0,0E0,0E0,0E0,0E0,0E0,0E0,0E0],"parents":[2147483647,0,0,1,1,2,2,3,3,4,4,5,5,6,6,11,11,12,12,13,13,14,14],"right_children":[2,4,6,8,10,12,14,-1,-1,-1,-1,16,18,20,22,-1,-1,-1,-1,-1,-1,-1,-1],"split_conditions":[4E0,3E0,2E1,5E0,2E0,7E0,4E0,-1.0159519E0,-8.3835137E-1,-3.5138515E-1,-8.1697935E-1,5E0,7E0,2.2E1,2.2E1,9.399905E-2,-8.5300463E-1,2.0269255E-1,-1.7813778E-1,-4.8903957E-1,-9.3520373E-1,-1.6010632E-1,-4.4531113E-1],"split_indices":[1,1,1,0,0,1,0,0,0,0,0,0,0,1,1,0,0,0,0,0,0,0,0],"split_type":[0,0,0,0,0,0,0,0,0,0,0,0,0,0,0,0,0,0,0,0,0,0,0],"sum_hessian":[6.39E3,4.7E2,5.92E3,4.06E2,6.4E1,5.259E3,6.61E2,2.17E2,1.89E2,2E1,4.4E1,3.21E2,4.938E3,3.79E2,2.82E2,1.91E2,1.3E2,4.554E3,3.84E2,2.27E2,1.52E2,1.51E2,1.31E2],"tree_param":{"num_deleted":"0","num_feature":"2","num_nodes":"23","size_leaf_vector":"1"}},{"base_weights":[-3.1950267E-3,-8.125668E0,6.429269E-1,-8.424404E0,-6.130104E0,1.4015362E0,-4.0380855E0,-9.148227E-1,-7.5495744E-1,-3.179199E-1,-7.370969E-1,-4.1344103E-1,2.0148964E0,-1.938121E0,-5.525352E0,1.15622155E-1,-1.5019672E-1,2.4996936E-1,1.2226963E-1,-2.9063737E-1,-3.9902043E-2,-7.3891723E-1,-3.3191535E-1],"categories":[],"categories_nodes":[],"categories_segments":[],"categories_sizes":[],"default_left":[0,0,0,0,0,0,0,0,0,0,0,0,0,0,0,0,0,0,0,0,0,0,0],"id":4,"left_children":[1,3,5,7,9,11,13,-1,-1,-1,-1,15,17,19,21,-1,-1,-1,-1,-1,-1,-1,-1],"loss_changes":[3.354588E4,2.2914258E2,2.1031486E4,1.886582E2,2.1457495E2,5.673877E3,2.5690605E3,0E0,0E0,0E0,0E0,2.2024373E3,1.4598135E3,5.1148218E2,1.9615498E3,0E0,0E0,0E0,0E0,0E0,0E0,0E0,0E0],"parents":[2147483647,0,0,1,1,2,2,3,3,4,4,5,5,6,6,11,11,12,12,13,13,14,14],"right_children":[2,4,6,8,10,12,14,-1,-1,-1,-1,16,18,20,22,-1,-1,-1,-1,-1,-1,-1,-1],"split_conditions":[4E0,3E0,1.9E1,5E0,2E0,9E0,2.1E1,-9.148227E-1,-7.5495744E-1,-3.179199E-1,-7.370969E-1,5E0,5E0,4E0,4E0,1.15622155E-1,-1.5019672E-1,2.4996936E-1,1.2226963E-1,-2.9063737E-1,-3.9902043E-2,-7.3891723E-1,-3.3191535E-1],"split_indices":[1,1,1,0,0,1,1,0,0,0,0,0,0,0,0,0,0,0,0,0,0,0,0],"split_type":[0,0,0,0,0,0,0,0,0,0,0,0,0,0,0,0,0,0,0,0,0,0,0],"sum_hessian":[6.39E3,4.7E2,5.92E3,4.06E2,6.4E1,5.095E3,8.25E2,2.17E2,1.89E2,2E1,4.4E1,1.287E3,3.808E3,3.43E2,4.82E2,5.27E2,7.6E2,2.361E3,1.447E3,2.1E2,1.33E2,2.6E2,2.22E2],"tree_param":{"num_deleted":"0","num_feature":"2","num_nodes":"23","size_leaf_vector":"1"}},{"base_weights":[-3.468137E-3,-5.936823E0,7.332452E-1,-7.3188863E0,-3.1533966E0,1.475529E0,-3.635974E0,-7.5860667E0,-5.533325E0,-2.7247116E-1,-7.740888E-1,1.7377659E0,-1.5777442E0,-2.4694753E0,-5.8534837E0,-8.2376003E-1,-6.798591E-1,-2.8764185E-1,-6.650252E-1,9.8288596E-2,-5.399655E-2,1.860604E-1,-6.5906025E-2,-1.8587385E-1,2.0713161E-1,-3.486744E-1,-1.01623945E-1,-7.688858E-1,-3.6817726E-1],"categories":[],"categories_nodes":[],"categories_segments":[],"categories_sizes":[],"default_left":[0,0,0,0,0,0,0,0,0,0,0,0,0,0,0,0,0,0,0,0,0,0,0,0,0,0,0,0,0],"id":5,"left_children":[1,3,5,7,9,11,13,15,17,19,-1,21,23,25,27,-1,-1,-1,-1,-1,-1,-1,-1,-1,-1,-1,-1,-1,-1],"loss_changes":[2.7940572E4,2.6928145E3,1.8446203E4,1.8272266E2,3.116919E3,3.8948516E3,2.1221787E3,1.5281445E2,1.737633E2,4.9557655E1,0E0,1.3193516E3,3.9861554E2,7.991904E2,1.1036875E3,0E0,0E0,0E0,0E0,0E0,0E0,0E0,0E0,0E0,0E0,0E0,0E0,0E0,0E0],"parents":[2147483647,0,0,1,1,2,2,3,3,4,4,5,5,6,6,7,7,8,8,9,9,11,11,12,12,13,13,14,14],"right_children":[2,4,6,8,10,12,14,16,18,20,-1,22,24,26,28,-1,-1,-1,-1,-1,-1,-1,-1,-1,-1,-1,-1,-1,-1],"split_conditions":[6E0,4E0,1.9E1,3E0,5E0,7E0,2.2E1,5E0,2E0,2E0,-7.740888E-1,1.8E1,1E1,4E0,4E0,-8.2376003E-1,-6.798591E-1,-2.8764185E-1,-6.650252E-1,9.8288596E-2,-5.399655E-2,1.860604E-1,-6.5906025E-2,-1.8587385E-1,2.0713161E-1,-3.486744E-1,-1.01623945E-1,-7.688858E-1,-3.6817726E-1],"split_indices":[1,1,1,1,0,0,1,0,0,0,0,1,1,0,0,0,0,0,0,0,0,0,0,0,0,0,0,0,0],"split_type":[0,0,0,0,0,0,0,0,0,0,0,0,0,0,0,0,0,0,0,0,0,0,0,0,0,0,0,0,0],"sum_hessian":[6.39E3,7.05E2,5.685E3,4.7E2,2.35E2,4.86E3,8.25E2,4.06E2,6.4E1,1.45E2,9E1,4.476E3,3.84E2,5.42E2,2.83E2,2.17E2,1.89E2,2E1,4.4E1,2.5E1,1.2E2,4.258E3,2.18E2,3.57E2,2.7E1,3.18E2,2.24E2,1.52E2,1.31E2],"tree_param":{"num_deleted":"0","num_feature":"2","num_nodes":"29","size_leaf_vector":"1"}},{"base_weights":[-3.8458554E-3,-5.3476534E0,6.5966666E-1,-6.5922127E0,-2.8411496E0,1.3280056E0,-3.2742982E0,-6.8311543E0,-4.9946494E0,-2.4492113E-1,-6.9753057E-1,1.5640165E0,-1.4199146E0,-1.4931258E0,-4.5360975E0,-7.417619E-1,-6.1223096E-1,-2.602474E-1,-6.0000056E-1,8.883777E-2,-4.8641574E-2,1.9778006E-1,9.083145E-2,-1.6733839E-1,1.8715814E-1,-1.9993651E-1,6.695091E-2,-6.0610265E-1,-2.7309737E-1],"categories":[],"categories_nodes":[],"categories_segments":[],"categories_sizes":[],"default_left":[0,0,0,0,0,0,0,0,0,0,0,0,0,0,0,0,0,0,0,0,0,0,0,0,0,0,0,0,0],"id":6,"left_children":[1,3,5,7,9,11,13,15,17,19,-1,21,23,25,27,-1,-1,-1,-1,-1,-1,-1,-1,-1,-1,-1,-1,-1,-1],"loss_changes":[2.266399E4,2.1836309E3,1.4954102E4,1.4567383E2,2.5313296E3,3.1547705E3,1.8496475E3,1.2378125E2,1.4070935E2,4.0390213E1,0E0,1.2128984E3,3.2433466E2,3.7795343E2,1.3129941E3,0E0,0E0,0E0,0E0,0E0,0E0,0E0,0E0,0E0,0E0,0E0,0E0,0E0,0E0],"parents":[2147483647,0,0,1,1,2,2,3,3,4,4,5,5,6,6,7,7,8,8,9,9,11,11,12,12,13,13,14,14],"right_children":[2,4,6,8,10,12,14,16,18,20,-1,22,24,26,28,-1,-1,-1,-1,-1,-1,-1,-1,-1,-1,-1,-1,-1,-1],"split_conditions":[6E0,4E0,1.9E1,3E0,5E0,7E0,2.1E1,5E0,2E0,2E0,-6.9753057E-1,5E0,1E1,5E0,4E0,-7.417619E-1,-6.1223096E-1,-2.602474E-1,-6.0000056E-1,8.883777E-2,-4.8641574E-2,1.9778006E-1,9.083145E-2,-1.6733839E-1,1.8715814E-1,-1.9993651E-1,6.695091E-2,-6.0610265E-1,-2.7309737E-1],"split_indices":[1,1,1,1,0,0,1,0,0,0,0,0,1,0,0,0,0,0,0,0,0,0,0,0,0,0,0,0,0],"split_type":[0,0,0,0,0,0,0,0,0,0,0,0,0,0,0,0,0,0,0,0,0,0,0,0,0,0,0,0,0],"sum_hessian":[6.39E3,7.05E2,5.685E3,4.7E2,2.35E2,4.86E3,8.25E2,4.06E2,6.4E1,1.45E2,9E1,4.476E3,3.84E2,3.43E2,4.82E2,2.17E2,1.89E2,2E1,4.4E1,2.5E1,1.2E2,2.743E3,1.733E3,3.57E2,2.7E1,2.78E2,6.5E1,2.6E2,2.22E2],"tree_param":{"num_deleted":"0","num_feature":"2","num_nodes":"29","size_leaf_vector":"1"}},{"base_weights":[-4.021013E-3,-4.8169556E0,5.9357584E-1,-5.937692E0,-2.55982E0,1.2867551E0,-2.489781E0,-6.1513658E0,-4.508419E0,-2.20154E-1,-6.2854403E-1,1.518287E0,-1.2778717E0,-1.1149654E0,-4.0843077E0,-6.67926E-1,-5.513301E-1,-2.3546195E-1,-5.4133385E-1,8.0295704E-2,-4.3817658E-2,1.9190326E-1,8.840873E-2,-1.5065129E-1,1.691107E-1,-2.259099E-1,1.8507563E-2,-5.457246E-1,-2.459101E-1],"categories":[],"categories_nodes":[],"categories_segments":[],"categories_sizes":[],"default_left":[0,0,0,0,0,0,0,0,0,0,0,0,0,0,0,0,0,0,0,0,0,0,0,0,0,0,0,0,0],"id":7,"left_children":[1,3,5,7,9,11,13,15,17,19,-1,21,23,25,27,-1,-1,-1,-1,-1,-1,-1,-1,-1,-1,-1,-1,-1,-1],"loss_changes":[1.8384617E4,1.7707363E3,1.2155998E4,1.1611133E2,2.055759E3,2.7589214E3,2.284082E3,1.0026465E2,1.13939575E2,3.291878E1,0E0,1.0807393E3,2.6389752E2,8.363485E2,1.0643022E3,0E0,0E0,0E0,0E0,0E0,0E0,0E0,0E0,0E0,0E0,0E0,0E0,0E0,0E0],"parents":[2147483647,0,0,1,1,2,2,3,3,4,4,5,5,6,6,7,7,8,8,9,9,11,11,12,12,13,13,14,14],"right_children":[2,4,6,8,10,12,14,16,18,20,-1,22,24,26,28,-1,-1,-1,-1,-1,-1,-1,-1,-1,-1,-1,-1,-1,-1],"split_conditions":[6E0,4E0,1.8E1,3E0,5E0,7E0,2.1E1,5E0,2E0,2E0,-6.2854403E-1,5E0,1E1,4E0,4E0,-6.67926E-1,-5.513301E-1,-2.3546195E-1,-5.4133385E-1,8.0295704E-2,-4.3817658E-2,1.9190326E-1,8.840873E-2,-1.5065129E-1,1.691107E-1,-2.259099E-1,1.8507563E-2,-5.457246E-1,-2.459101E-1],"split_indices":[1,1,1,1,0,0,1,0,0,0,0,0,1,0,0,0,0,0,0,0,0,0,0,0,0,0,0,0,0],"split_type":[0,0,0,0,0,0,0,0,0,0,0,0,0,0,0,0,0,0,0,0,0,0,0,0,0,0,0,0,0],"sum_hessian":[6.39E3,7.05E2,5.685E3,4.7E2,2.35E2,4.642E3,1.043E3,4.06E2,6.4E1,1.45E2,9E1,4.258E3,3.84E2,5.61E2,4.82E2,2.17E2,1.89E2,2E1,4.4E1,2.5E1,1.2E2,2.608E3,1.65E3,3.57E2,2.7E1,2.98E2,2.63E2,2.6E2,2.22E2],"tree_param":{"num_deleted":"0","num_feature":"2","num_nodes":"29","size_leaf_vector":"1"}},{"base_weights":[-4.1339416E-3,-4.338926E0,5.340946E-1,-5.3481607E0,-2.306347E0,1.1581432E0,-2.2417598E0,-5.5392246E0,-4.0695276E0,-1.97889E-1,-5.663803E-1,1.3665234E0,-1.1500369E0,-1.0038378E0,-3.6775162E0,-6.0143983E-1,-4.964872E-1,-2.1303697E-1,-4.884034E-1,7.2574876E-2,-3.9472114E-2,4.3239582E-2,1.5969206E-1,-1.3562827E-1,1.5280354E-1,-2.0339441E-1,1.6663821E-2,-4.913612E-1,-2.2142942E-1],"categories":[],"categories_nodes":[],"categories_segments":[],"categories_sizes":[],"default_left":[0,0,0,0,0,0,0,0,0,0,0,0,0,0,0,0,0,0,0,0,0,0,0,0,0,0,0,0,0],"id":8,"left_children":[1,3,5,7,9,11,13,15,17,19,-1,21,23,25,27,-1,-1,-1,-1,-1,-1,-1,-1,-1,-1,-1,-1,-1,-1],"loss_changes":[1.4913213E4,1.435918E3,9.852273E3,9.2524414E1,1.6695363E3,2.2347568E3,1.8518657E3,8.121582E1,9.226001E1,2.6829498E1,0E0,9.159336E2,2.1472372E2,6.779506E2,8.6271387E2,0E0,0E0,0E0,0E0,0E0,0E0,0E0,0E0,0E0,0E0,0E0,0E0,0E0,0E0],"parents":[2147483647,0,0,1,1,2,2,3,3,4,4,5,5,6,6,7,7,8,8,9,9,11,11,12,12,13,13,14,14],"right_children":[2,4,6,8,10,12,14,16,18,20,-1,22,24,26,28,-1,-1,-1,-1,-1,-1,-1,-1,-1,-1,-1,-1,-1,-1],"split_conditions":[6E0,4E0,1.8E1,3E0,5E0,7E0,2.1E1,5E0,2E0,2E0,-5.663803E-1,9E0,1E1,4E0,4E0,-6.0143983E-1,-4.964872E-1,-2.1303697E-1,-4.884034E-1,7.2574876E-2,-3.9472114E-2,4.3239582E-2,1.5969206E-1,-1.3562827E-1,1.5280354E-1,-2.0339441E-1,1.6663821E-2,-4.913612E-1,-2.2142942E-1],"split_indices":[1,1,1,1,0,0,1,0,0,0,0,1,1,0,0,0,0,0,0,0,0,0,0,0,0,0,0,0,0],"split_type":[0,0,0,0,0,0,0,0,0,0,0,0,0,0,0,0,0,0,0,0,0,0,0,0,0,0,0,0,0],"sum_hessian":[6.39E3,7.05E2,5.685E3,4.7E2,2.35E2,4.642E3,1.043E3,4.06E2,6.4E1,1.45E2,9E1,4.258E3,3.84E2,5.61E2,4.82E2,2.17E2,1.89E2,2E1,4.4E1,2.5E1,1.2E2,8.43E2,3.415E3,3.57E2,2.7E1,2.98E2,2.63E2,2.6E2,2.22E2],"tree_param":{"num_deleted":"0","num_feature":"2","num_nodes":"29","size_leaf_vector":"1"}},{"base_weights":[-4.1921525E-3,-3.669796E0,5.142297E-1,-4.817165E0,-1.9801053E0,1.094348E0,-2.0184453E0,-4.9879994E0,-3.6733665E0,6.5509677E-1,-5.8272705E0,1.2905377E0,-1.0349882E0,-1.257203E0,-4.051146E0,-5.415717E-1,-4.4709975E-1,-1.9274779E-1,-4.406484E-1,-1.7787296E-2,3.2286817E-1,-5.103647E-1,-7.291235E-1,1.5538543E-1,8.708163E-2,-1.6891442E-1,-2.4858056E-2,-2.1928175E-1,-1.8099926E-2,-5.2925485E-1,-2.5815573E-1],"categories":[],"categories_nodes":[],"categories_segments":[],"categories_sizes":[],"default_left":[0,0,0,0,0,0,0,0,0,0,0,0,0,0,0,0,0,0,0,0,0,0,0,0,0,0,0,0,0,0,0],"id":9,"left_children":[1,3,5,7,9,11,13,15,17,19,21,23,25,27,29,-1,-1,-1,-1,-1,-1,-1,-1,-1,-1,-1,-1,-1,-1,-1,-1],"loss_changes":[1.2146891E4,1.5259111E3,8.230014E3,7.371094E1,3.268272E3,1.9050405E3,1.6103691E3,6.578613E1,7.470288E1,4.121682E2,1.0156445E2,4.598452E2,1.976369E2,7.658629E2,5.0445312E2,0E0,0E0,0E0,0E0,0E0,0E0,0E0,0E0,0E0,0E0,0E0,0E0,0E0,0E0,0E0,0E0],"parents":[2147483647,0,0,1,1,2,2,3,3,4,4,5,5,6,6,7,7,8,8,9,9,10,10,11,11,12,12,13,13,14,14],"right_children":[2,4,6,8,10,12,14,16,18,20,22,24,26,28,30,-1,-1,-1,-1,-1,-1,-1,-1,-1,-1,-1,-1,-1,-1,-1,-1],"split_conditions":[7E0,4E0,1.8E1,3E0,5E0,7E0,2.2E1,5E0,2E0,5E0,6E0,5E0,9E0,4E0,4E0,-5.415717E-1,-4.4709975E-1,-1.9274779E-1,-4.406484E-1,-1.7787296E-2,3.2286817E-1,-5.103647E-1,-7.291235E-1,1.5538543E-1,8.708163E-2,-1.6891442E-1,-2.4858056E-2,-2.1928175E-1,-1.8099926E-2,-5.2925485E-1,-2.5815573E-1],"split_indices":[1,1,1,1,0,0,1,0,0,1,1,0,1,0,0,0,0,0,0,0,0,0,0,0,0,0,0,0,0,0,0],"split_type":[0,0,0,0,0,0,0,0,0,0,0,0,0,0,0,0,0,0,0,0,0,0,0,0,0,0,0,0,0,0,0],"sum_hessian":[6.39E3,7.91E2,5.599E3,4.7E2,3.21E2,4.556E3,1.043E3,4.06E2,6.4E1,1.91E2,1.3E2,4.172E3,3.84E2,7.6E2,2.83E2,2.17E2,1.89E2,2E1,4.4E1,1.45E2,4.6E1,9E1,4E1,2.562E3,1.61E3,2.09E2,1.75E2,4.06E2,3.54E2,1.52E2,1.31E2],"tree_param":{"num_deleted":"0","num_feature":"2","num_nodes":"31","size_leaf_vector":"1"}},{"base_weights":[-4.3259216E-3,-3.3060446E0,4.6263218E-1,-4.3388925E0,-1.7849969E0,9.1705686E-1,-2.1648986E0,-4.4916286E0,-3.3157744E0,5.9117585E-1,-5.2540054E0,1.0789714E0,-9.3199223E-1,-1.384799E0,-3.648804E0,-4.8766294E-1,-4.0262508E-1,-1.7439084E-1,-3.9756283E-1,-1.6020773E-2,2.912683E-1,-4.5988902E-1,-6.579895E-1,1.21633545E-1,-2.2266911E-2,-1.1121439E-1,1.40466E-1,-2.796768E-1,-1.0113946E-1,-4.7667527E-1,-2.3253572E-1],"categories":[],"categories_nodes":[],"categories_segments":[],"categories_sizes":[],"default_left":[0,0,0,0,0,0,0,0,0,0,0,0,0,0,0,0,0,0,0,0,0,0,0,0,0,0,0,0,0,0,0],"id":10,"left_children":[1,3,5,7,9,11,13,15,17,19,21,23,25,27,29,-1,-1,-1,-1,-1,-1,-1,-1,-1,-1,-1,-1,-1,-1,-1,-1],"loss_changes":[9.854945E3,1.2364951E3,6.688468E3,5.870996E1,2.6573403E3,1.4305828E3,9.511199E2,5.328711E1,6.0484985E1,3.353803E2,8.352759E1,7.85376E2,1.6362854E2,2.834602E2,4.0910645E2,0E0,0E0,0E0,0E0,0E0,0E0,0E0,0E0,0E0,0E0,0E0,0E0,0E0,0E0,0E0,0E0],"parents":[2147483647,0,0,1,1,2,2,3,3,4,4,5,5,6,6,7,7,8,8,9,9,10,10,11,11,12,12,13,13,14,14],"right_children":[2,4,6,8,10,12,14,16,18,20,22,24,26,28,30,-1,-1,-1,-1,-1,-1,-1,-1,-1,-1,-1,-1,-1,-1,-1,-1],"split_conditions":[7E0,4E0,1.9E1,3E0,5E0,7E0,2.2E1,5E0,2E0,5E0,6E0,1.7E1,1E1,2E0,4E0,-4.8766294E-1,-4.0262508E-1,-1.7439084E-1,-3.9756283E-1,-1.6020773E-2,2.912683E-1,-4.5988902E-1,-6.579895E-1,1.21633545E-1,-2.2266911E-2,-1.1121439E-1,1.40466E-1,-2.796768E-1,-1.0113946E-1,-4.7667527E-1,-2.3253572E-1],"split_indices":[1,1,1,1,0,0,1,0,0,1,1,1,1,0,0,0,0,0,0,0,0,0,0,0,0,0,0,0,0,0,0],"split_type":[0,0,0,0,0,0,0,0,0,0,0,0,0,0,0,0,0,0,0,0,0,0,0,0,0,0,0,0,0,0,0],"sum_hessian":[6.39E3,7.91E2,5.599E3,4.7E2,3.21E2,4.774E3,8.25E2,4.06E2,6.4E1,1.91E2,1.3E2,4.39E3,3.84E2,5.42E2,2.83E2,2.17E2,1.89E2,2E1,4.4E1,1.45E2,4.6E1,9E1,4E1,3.971E3,4.19E2,3.57E2,2.7E1,1.12E2,4.3E2,1.52E2,1.31E2],"tree_param":{"num_deleted":"0","num_feature":"2","num_nodes":"31","size_leaf_vector":"1"}},{"base_weights":[-4.404472E-3,-2.9783502E0,4.161972E-1,-3.9081075E0,-1.6091138E0,8.8779366E-1,-1.6426929E0,-4.0446534E0,-2.9929962E0,5.3349197E-1,-4.7371383E0,1.0468684E0,-8.387169E-1,-6.8612224E-1,-2.7523203E0,-4.3912038E-1,-3.6257452E-1,-1.5778218E-1,-3.5869E-1,-1.4429675E-2,2.6276127E-1,-4.144055E-1,-5.937954E-1,6.8851046E-2,1.3152355E-1,-1.4103487E-1,-1.5189088E-2,-1.4926992E-1,2.299862E-2,-3.6776698E-1,-1.6569458E-1],"categories":[],"categories_nodes":[],"categories_segments":[],"categories_sizes":[],"default_left":[0,0,0,0,0,0,0,0,0,0,0,0,0,0,0,0,0,0,0,0,0,0,0,0,0,0,0,0,0,0,0],"id":11,"left_children":[1,3,5,7,9,11,13,15,17,19,21,23,25,27,29,-1,-1,-1,-1,-1,-1,-1,-1,-1,-1,-1,-1,-1,-1,-1,-1],"loss_changes":[7.9954E3,1.00197266E3,5.438864E3,4.6748047E1,2.160611E3,1.2524314E3,1.106252E3,4.3164062E1,4.8971558E1,2.7289844E2,6.868872E1,4.0041797E2,1.5094122E2,4.1561182E2,4.8347754E2,0E0,0E0,0E0,0E0,0E0,0E0,0E0,0E0,0E0,0E0,0E0,0E0,0E0,0E0,0E0,0E0],"parents":[2147483647,0,0,1,1,2,2,3,3,4,4,5,5,6,6,7,7,8,8,9,9,10,10,11,11,12,12,13,13,14,14],"right_children":[2,4,6,8,10,12,14,16,18,20,22,24,26,28,30,-1,-1,-1,-1,-1,-1,-1,-1,-1,-1,-1,-1,-1,-1,-1,-1],"split_conditions":[7E0,4E0,1.8E1,3E0,5E0,7E0,2.1E1,5E0,2E0,5E0,6E0,1E1,9E0,4E0,4E0,-4.3912038E-1,-3.6257452E-1,-1.5778218E-1,-3.5869E-1,-1.4429675E-2,2.6276127E-1,-4.144055E-1,-5.937954E-1,6.8851046E-2,1.3152355E-1,-1.4103487E-1,-1.5189088E-2,-1.4926992E-1,2.299862E-2,-3.6776698E-1,-1.6569458E-1],"split_indices":[1,1,1,1,0,0,1,0,0,1,1,1,1,0,0,0,0,0,0,0,0,0,0,0,0,0,0,0,0,0,0],"split_type":[0,0,0,0,0,0,0,0,0,0,0,0,0,0,0,0,0,0,0,0,0,0,0,0,0,0,0,0,0,0,0],"sum_hessian":[6.39E3,7.91E2,5.599E3,4.7E2,3.21E2,4.556E3,1.043E3,4.06E2,6.4E1,1.91E2,1.3E2,4.172E3,3.84E2,5.61E2,4.82E2,2.17E2,1.89E2,2E1,4.4E1,1.45E2,4.6E1,9E1,4E1,1.788E3,2.384E3,2.09E2,1.75E2,2.98E2,2.63E2,2.6E2,2.22E2],"tree_param":{"num_deleted":"0","num_feature":"2","num_nodes":"31","size_leaf_vector":"1"}},{"base_weights":[-4.3854644E-3,-2.6831388E0,3.7446758E-1,-3.5200956E0,-1.4505621E0,7.9902405E-1,-1.4790556E0,-3.6421578E0,-2.7016423E0,4.814362E-1,-4.27112E0,9.422296E-1,-7.552509E-1,-9.045954E-1,-3.0131588E0,-3.954098E-1,-3.2650787E-1,-1.4275527E-1,-3.236181E-1,-1.2996561E-2,2.370441E-1,-3.734203E-1,-5.358641E-1,1.1747592E-1,5.7170488E-2,-9.1262445E-2,1.2838557E-1,-1.6342238E-1,-6.5543675E-3,-3.9278302E-1,-1.9301446E-1],"categories":[],"categories_nodes":[],"categories_segments":[],"categories_sizes":[],"default_left":[0,0,0,0,0,0,0,0,0,0,0,0,0,0,0,0,0,0,0,0,0,0,0,0,0,0,0,0,0,0,0],"id":12,"left_children":[1,3,5,7,9,11,13,15,17,19,21,23,25,27,29,-1,-1,-1,-1,-1,-1,-1,-1,-1,-1,-1,-1,-1,-1,-1,-1],"loss_changes":[6.486936E3,8.1193164E2,4.4079634E3,3.7214355E1,1.7567354E3,1.0150122E3,9.1733203E2,3.496338E1,3.9648407E1,2.2205673E2,5.648169E1,3.5886572E2,1.2471875E2,4.6577393E2,2.737495E2,0E0,0E0,0E0,0E0,0E0,0E0,0E0,0E0,0E0,0E0,0E0,0E0,0E0,0E0,0E0,0E0],"parents":[2147483647,0,0,1,1,2,2,3,3,4,4,5,5,6,6,7,7,8,8,9,9,10,10,11,11,12,12,13,13,14,14],"right_children":[2,4,6,8,10,12,14,16,18,20,22,24,26,28,30,-1,-1,-1,-1,-1,-1,-1,-1,-1,-1,-1,-1,-1,-1,-1,-1],"split_conditions":[7E0,4E0,1.8E1,3E0,5E0,7E0,2.2E1,5E0,2E0,5E0,6E0,5E0,1E1,4E0,4E0,-3.954098E-1,-3.2650787E-1,-1.4275527E-1,-3.236181E-1,-1.2996561E-2,2.370441E-1,-3.734203E-1,-5.358641E-1,1.1747592E-1,5.7170488E-2,-9.1262445E-2,1.2838557E-1,-1.6342238E-1,-6.5543675E-3,-3.9278302E-1,-1.9301446E-1],"split_indices":[1,1,1,1,0,0,1,0,0,1,1,0,1,0,0,0,0,0,0,0,0,0,0,0,0,0,0,0,0,0,0],"split_type":[0,0,0,0,0,0,0,0,0,0,0,0,0,0,0,0,0,0,0,0,0,0,0,0,0,0,0,0,0,0,0],"sum_hessian":[6.39E3,7.91E2,5.599E3,4.7E2,3.21E2,4.556E3,1.043E3,4.06E2,6.4E1,1.91E2,1.3E2,4.172E3,3.84E2,7.6E2,2.83E2,2.17E2,1.89E2,2E1,4.4E1,1.45E2,4.6E1,9E1,4E1,2.562E3,1.61E3,3.57E2,2.7E1,4.06E2,3.54E2,1.52E2,1.31E2],"tree_param":{"num_deleted":"0","num_feature":"2","num_nodes":"31","size_leaf_vector":"1"}},{"base_weights":[-4.325093E-3,-2.4171906E0,3.3692378E-1,-3.170609E0,-1.3076338E0,6.697661E-1,-1.5876029E0,-3.2797158E0,-2.4386532E0,4.3445978E-1,-3.850949E0,7.879276E-1,-6.79629E-1,-9.956E-1,-2.7139056E0,-3.560502E-1,-2.940289E-1,-1.2915951E-1,-2.9197547E-1,-1.1705795E-2,2.1384414E-1,-3.3648857E-1,-4.835847E-1,8.971312E-2,-2.467017E-2,-1.1791569E-1,-7.973984E-3,-2.1303633E-1,-6.9577664E-2,-3.872256E-1,-1.9810984E-1],"categories":[],"categories_nodes":[],"categories_segments":[],"categories_sizes":[],"default_left":[0,0,0,0,0,0,0,0,0,0,0,0,0,0,0,0,0,0,0,0,0,0,0,0,0,0,0,0,0,0,0],"id":13,"left_children":[1,3,5,7,9,11,13,15,17,19,21,23,25,27,29,-1,-1,-1,-1,-1,-1,-1,-1,-1,-1,-1,-1,-1,-1,-1,-1],"loss_changes":[5.2630845E3,6.579346E2,3.5882212E3,2.96167E1,1.4283562E3,7.6189307E2,5.4805396E2,2.8320312E1,3.2099213E1,1.8068732E2,4.6440674E1,4.963391E2,1.15275604E2,1.8326184E2,2.3340137E2,0E0,0E0,0E0,0E0,0E0,0E0,0E0,0E0,0E0,0E0,0E0,0E0,0E0,0E0,0E0,0E0],"parents":[2147483647,0,0,1,1,2,2,3,3,4,4,5,5,6,6,7,7,8,8,9,9,10,10,11,11,12,12,13,13,14,14],"right_children":[2,4,6,8,10,12,14,16,18,20,22,24,26,28,30,-1,-1,-1,-1,-1,-1,-1,-1,-1,-1,-1,-1,-1,-1,-1,-1],"split_conditions":[7E0,4E0,1.9E1,3E0,5E0,7E0,2.2E1,5E0,2E0,5E0,6E0,1.7E1,9E0,2E0,3E0,-3.560502E-1,-2.940289E-1,-1.2915951E-1,-2.9197547E-1,-1.1705795E-2,2.1384414E-1,-3.3648857E-1,-4.835847E-1,8.971312E-2,-2.467017E-2,-1.1791569E-1,-7.973984E-3,-2.1303633E-1,-6.9577664E-2,-3.872256E-1,-1.9810984E-1],"split_indices":[1,1,1,1,0,0,1,0,0,1,1,1,1,0,0,0,0,0,0,0,0,0,0,0,0,0,0,0,0,0,0],"split_type":[0,0,0,0,0,0,0,0,0,0,0,0,0,0,0,0,0,0,0,0,0,0,0,0,0,0,0,0,0,0,0],"sum_hessian":[6.39E3,7.91E2,5.599E3,4.7E2,3.21E2,4.774E3,8.25E2,4.06E2,6.4E1,1.91E2,1.3E2,4.39E3,3.84E2,5.42E2,2.83E2,2.17E2,1.89E2,2E1,4.4E1,1.45E2,4.6E1,9E1,4E1,3.971E3,4.19E2,2.09E2,1.75E2,1.12E2,4.3E2,1.08E2,1.75E2],"tree_param":{"num_deleted":"0","num_feature":"2","num_nodes":"31","size_leaf_vector":"1"}},{"base_weights":[-4.3028677E-3,-2.1776044E0,3.0306482E-1,-2.8558226E0,-1.1787897E0,5.265102E-1,-2.0652504E0,-3.1031644E0,-2.5619824E0,3.9206612E-1,-3.4721143E0,6.8217015E-1,-3.6284965E-1,-2.769986E0,-1.231164E0,-3.3870265E-1,-2.609564E-1,-2.695005E-1,-2.2012667E-1,-1.0543292E-2,1.9291468E-1,-3.0320948E-1,-4.3640575E-1,2.4289336E-2,1.1082244E-1,-1.3952835E-1,-1.26565965E-2,-2.130721E-1,-3.2073057E-1,-8.911996E-2,-2.633545E-1],"categories":[],"categories_nodes":[],"categories_segments":[],"categories_sizes":[],"default_left":[0,0,0,0,0,0,0,0,0,0,0,0,0,0,0,0,0,0,0,0,0,0,0,0,0,0,0,0,0,0,0],"id":14,"left_children":[1,3,5,7,9,11,13,15,17,19,21,23,25,27,29,-1,-1,-1,-1,-1,-1,-1,-1,-1,-1,-1,-1,-1,-1,-1,-1],"loss_changes":[4.269865E3,5.331455E2,2.9645454E3,2.6281738E1,1.1613606E3,7.087721E2,2.805022E2,2.6329834E1,4.671997E0,1.4702505E2,3.8181763E1,8.149812E2,1.8595514E2,6.613208E1,1.0397037E2,0E0,0E0,0E0,0E0,0E0,0E0,0E0,0E0,0E0,0E0,0E0,0E0,0E0,0E0,0E0,0E0],"parents":[2147483647,0,0,1,1,2,2,3,3,4,4,5,5,6,6,7,7,8,8,9,9,10,10,11,11,12,12,13,13,14,14],"right_children":[2,4,6,8,10,12,14,16,18,20,22,24,26,28,30,-1,-1,-1,-1,-1,-1,-1,-1,-1,-1,-1,-1,-1,-1,-1,-1],"split_conditions":[7E0,4E0,2.1E1,2E0,5E0,1.7E1,4E0,5E0,3E0,5E0,6E0,1E1,2E0,2.2E1,2.3E1,-3.3870265E-1,-2.609564E-1,-2.695005E-1,-2.2012667E-1,-1.0543292E-2,1.9291468E-1,-3.0320948E-1,-4.3640575E-1,2.4289336E-2,1.1082244E-1,-1.3952835E-1,-1.26565965E-2,-2.130721E-1,-3.2073057E-1,-8.911996E-2,-2.633545E-1],"split_indices":[1,1,1,1,0,1,0,0,1,1,1,1,0,1,1,0,0,0,0,0,0,0,0,0,0,0,0,0,0,0,0],"split_type":[0,0,0,0,0,0,0,0,0,0,0,0,0,0,0,0,0,0,0,0,0,0,0,0,0,0,0,0,0,0,0],"sum_hessian":[6.39E3,7.91E2,5.599E3,4.7E2,3.21E2,5.117E3,4.82E2,2.5E2,2.2E2,1.91E2,1.3E2,4.355E3,7.62E2,2.6E2,2.22E2,1.55E2,9.5E1,1.56E2,6.4E1,1.45E2,4.6E1,9E1,4E1,2.145E3,2.21E3,1.41E2,6.21E2,1.08E2,1.52E2,1.8E2,4.2E1],"tree_param":{"num_deleted":"0","num_feature":"2","num_nodes":"31","size_leaf_vector":"1"}},{"base_weights":[-4.2718383E-3,-1.9619229E0,2.7259672E-1,-2.572553E0,-1.0626414E0,5.12939E-1,-1.5209423E0,-2.0778267E0,-2.701984E0,3.5380918E-1,-3.1305487E0,6.10469E-1,-6.422876E-1,-1.9164218E0,-2.258848E-1,-2.3390315E-1,-9.589408E-2,-3.1964824E-1,-2.4009232E-1,-9.4962E-3,1.7403364E-1,-2.7322173E-1,-3.9382955E-1,7.355977E-2,-2.416229E-2,-1.0859759E-1,-1.0923749E-2,-1.427652E-1,-2.5630376E-1,2.6354788E-2,-2.9287457E-1],"categories":[],"categories_nodes":[],"categories_segments":[],"categories_sizes":[],"default_left":[0,0,0,0,0,0,0,0,0,0,0,0,0,0,0,0,0,0,0,0,0,0,0,0,0,0,0,0,0,0,0],"id":15,"left_children":[1,3,5,7,9,11,13,15,17,19,21,23,25,27,29,-1,-1,-1,-1,-1,-1,-1,-1,-1,-1,-1,-1,-1,-1,-1,-1],"loss_changes":[3.4645337E3,4.3217578E2,2.4147341E3,2.4545166E1,9.442742E2,5.568656E2,3.386228E2,2.7567352E1,4.7408936E1,1.1963409E2,3.1389038E1,4.8583716E2,9.0937E1,1.5657617E2,2.0713933E2,0E0,0E0,0E0,0E0,0E0,0E0,0E0,0E0,0E0,0E0,0E0,0E0,0E0,0E0,0E0,0E0],"parents":[2147483647,0,0,1,1,2,2,3,3,4,4,5,5,6,6,7,7,8,8,9,9,10,10,11,11,12,12,13,13,14,14],"right_children":[2,4,6,8,10,12,14,16,18,20,22,24,26,28,30,-1,-1,-1,-1,-1,-1,-1,-1,-1,-1,-1,-1,-1,-1,-1,-1],"split_conditions":[7E0,4E0,2E1,2E0,5E0,7E0,5E0,3E0,5E0,5E0,6E0,1.7E1,9E0,2.2E1,2.3E1,-2.3390315E-1,-9.589408E-2,-3.1964824E-1,-2.4009232E-1,-9.4962E-3,1.7403364E-1,-2.7322173E-1,-3.9382955E-1,7.355977E-2,-2.416229E-2,-1.0859759E-1,-1.0923749E-2,-1.427652E-1,-2.5630376E-1,2.6354788E-2,-2.9287457E-1],"split_indices":[1,1,1,0,0,0,0,1,0,1,1,1,1,1,1,0,0,0,0,0,0,0,0,0,0,0,0,0,0,0,0],"split_type":[0,0,0,0,0,0,0,0,0,0,0,0,0,0,0,0,0,0,0,0,0,0,0,0,0,0,0,0,0,0,0],"sum_hessian":[6.39E3,7.91E2,5.599E3,4.7E2,3.21E2,4.938E3,6.61E2,1.01E2,3.69E2,1.91E2,1.3E2,4.554E3,3.84E2,5.06E2,1.55E2,8.1E1,2E1,1.36E2,2.33E2,1.45E2,4.6E1,9E1,4E1,3.971E3,5.83E2,2.09E2,1.75E2,2.9E2,2.16E2,1.32E2,2.3E1],"tree_param":{"num_deleted":"0","num_feature":"2","num_nodes":"31","size_leaf_vector":"1"}},{"base_weights":[-4.178202E-3,-1.7674884E0,2.4520499E-1,-2.3171864E0,-9.579381E-1,4.2791337E-1,-1.6913306E0,-1.8732775E0,-2.4332983E0,3.192848E-1,-2.8225858E0,5.52574E-1,-2.8434023E-1,-2.2866924E0,-9.8693234E-1,-2.107981E-1,-8.676133E-2,-2.8791672E-1,-2.1618569E-1,-8.553124E-3,1.5700053E-1,-2.4619977E-1,-3.5540718E-1,-1.7401231E-2,7.596702E-2,-1.2135353E-1,-7.1751745E-3,-1.7781487E-1,-2.6340425E-1,-7.155263E-2,-2.106411E-1],"categories":[],"categories_nodes":[],"categories_segments":[],"categories_sizes":[],"default_left":[0,0,0,0,0,0,0,0,0,0,0,0,0,0,0,0,0,0,0,0,0,0,0,0,0,0,0,0,0,0,0],"id":16,"left_children":[1,3,5,7,9,11,13,15,17,19,21,23,25,27,29,-1,-1,-1,-1,-1,-1,-1,-1,-1,-1,-1,-1,-1,-1,-1,-1],"loss_changes":[2.810811E3,3.502268E2,1.9821227E3,1.9718506E1,7.6776697E2,4.5458423E2,2.002998E2,2.224643E1,3.855591E1,9.734613E1,2.58031E1,6.5559375E2,1.5063304E2,4.141992E1,6.6247635E1,0E0,0E0,0E0,0E0,0E0,0E0,0E0,0E0,0E0,0E0,0E0,0E0,0E0,0E0,0E0,0E0],"parents":[2147483647,0,0,1,1,2,2,3,3,4,4,5,5,6,6,7,7,8,8,9,9,10,10,11,11,12,12,13,13,14,14],"right_children":[2,4,6,8,10,12,14,16,18,20,22,24,26,28,30,-1,-1,-1,-1,-1,-1,-1,-1,-1,-1,-1,-1,-1,-1,-1,-1],"split_conditions":[7E0,4E0,2.1E1,2E0,5E0,1.7E1,4E0,3E0,5E0,5E0,6E0,9E0,2E0,2.2E1,2.3E1,-2.107981E-1,-8.676133E-2,-2.8791672E-1,-2.1618569E-1,-8.553124E-3,1.5700053E-1,-2.4619977E-1,-3.5540718E-1,-1.7401231E-2,7.596702E-2,-1.2135353E-1,-7.1751745E-3,-1.7781487E-1,-2.6340425E-1,-7.155263E-2,-2.106411E-1],"split_indices":[1,1,1,0,0,1,0,1,0,1,1,1,0,1,1,0,0,0,0,0,0,0,0,0,0,0,0,0,0,0,0],"split_type":[0,0,0,0,0,0,0,0,0,0,0,0,0,0,0,0,0,0,0,0,0,0,0,0,0,0,0,0,0,0,0],"sum_hessian":[6.39E3,7.91E2,5.599E3,4.7E2,3.21E2,5.117E3,4.82E2,1.01E2,3.69E2,1.91E2,1.3E2,4.355E3,7.62E2,2.6E2,2.22E2,8.1E1,2E1,1.36E2,2.33E2,1.45E2,4.6E1,9E1,4E1,9.66E2,3.389E3,1.41E2,6.21E2,1.08E2,1.52E2,1.8E2,4.2E1],"tree_param":{"num_deleted":"0","num_feature":"2","num_nodes":"31","size_leaf_vector":"1"}},{"base_weights":[-4.081279E-3,-1.5923239E0,2.2054233E-1,-2.0871696E0,-8.6355144E-1,3.8510785E-1,-1.5236953E0,-1.6888669E0,-2.1913311E0,2.8812993E-1,-2.54492E0,4.6542278E-1,-6.034532E-1,-2.0597138E0,-8.895049E-1,-1.8997534E-1,-7.849833E-2,-2.5933522E-1,-1.9465953E-1,-7.7036405E-3,1.416346E-1,-2.2185038E-1,-3.2073334E-1,6.039014E-2,-2.5607452E-2,-7.270334E-2,9.9815905E-2,-2.553828E-1,-1.716136E-1,-6.443693E-2,-1.9006686E-1],"categories":[],"categories_nodes":[],"categories_segments":[],"categories_sizes":[],"default_left":[0,0,0,0,0,0,0,0,0,0,0,0,0,0,0,0,0,0,0,0,0,0,0,0,0,0,0,0,0,0,0],"id":17,"left_children":[1,3,5,7,9,11,13,15,17,19,21,23,25,27,29,-1,-1,-1,-1,-1,-1,-1,-1,-1,-1,-1,-1,-1,-1,-1,-1],"loss_changes":[2.2803838E3,2.8381653E2,1.6080186E3,1.5839844E1,6.242543E2,4.0663068E2,1.6235779E2,1.795166E1,3.1355713E1,7.9210526E1,2.1209717E1,4.7313782E2,7.692778E1,3.992639E1,5.405078E1,0E0,0E0,0E0,0E0,0E0,0E0,0E0,0E0,0E0,0E0,0E0,0E0,0E0,0E0,0E0,0E0],"parents":[2147483647,0,0,1,1,2,2,3,3,4,4,5,5,6,6,7,7,8,8,9,9,10,10,11,11,12,12,13,13,14,14],"right_children":[2,4,6,8,10,12,14,16,18,20,22,24,26,28,30,-1,-1,-1,-1,-1,-1,-1,-1,-1,-1,-1,-1,-1,-1,-1,-1],"split_conditions":[7E0,4E0,2.1E1,2E0,5E0,7E0,4E0,3E0,5E0,5E0,6E0,1.7E1,1E1,2E0,2.3E1,-1.8997534E-1,-7.849833E-2,-2.5933522E-1,-1.9465953E-1,-7.7036405E-3,1.416346E-1,-2.2185038E-1,-3.2073334E-1,6.039014E-2,-2.5607452E-2,-7.270334E-2,9.9815905E-2,-2.553828E-1,-1.716136E-1,-6.443693E-2,-1.9006686E-1],"split_indices":[1,1,1,0,0,0,0,1,0,1,1,1,1,0,1,0,0,0,0,0,0,0,0,0,0,0,0,0,0,0,0],"split_type":[0,0,0,0,0,0,0,0,0,0,0,0,0,0,0,0,0,0,0,0,0,0,0,0,0,0,0,0,0,0,0],"sum_hessian":[6.39E3,7.91E2,5.599E3,4.7E2,3.21E2,5.117E3,4.82E2,1.01E2,3.69E2,1.91E2,1.3E2,4.733E3,3.84E2,2.6E2,2.22E2,8.1E1,2E1,1.36E2,2.33E2,1.45E2,4.6E1,9E1,4E1,3.971E3,7.62E2,3.57E2,2.7E1,1.04E2,1.56E2,1.8E2,4.2E1],"tree_param":{"num_deleted":"0","num_feature":"2","num_nodes":"31","size_leaf_vector":"1"}},{"base_weights":[-3.9472724E-3,-1.4345195E0,1.9837722E-1,-1.8799866E0,-7.784653E-1,3.7565917E-1,-1.1245743E0,-1.5226125E0,-1.9734249E0,2.6001474E-1,-2.2945697E0,6.2819326E-1,3.395795E-2,-1.4501309E0,-5.930626E-2,-1.712095E-1,-7.102234E-2,-2.3359096E-1,-1.7527674E-1,-6.938537E-3,1.2777255E-1,-1.9990914E-1,-2.894423E-1,-2.52058E-3,9.4941534E-2,-1.9944295E-1,1.2471922E-2,-2.1678773E-1,-1.20454766E-1,3.389904E-2,-2.2640625E-1],"categories":[],"categories_nodes":[],"categories_segments":[],"categories_sizes":[],"default_left":[0,0,0,0,0,0,0,0,0,0,0,0,0,0,0,0,0,0,0,0,0,0,0,0,0,0,0,0,0,0,0],"id":18,"left_children":[1,3,5,7,9,11,13,15,17,19,21,23,25,27,29,-1,-1,-1,-1,-1,-1,-1,-1,-1,-1,-1,-1,-1,-1,-1,-1],"loss_changes":[1.8500946E3,2.2999878E2,1.3138207E3,1.2723145E1,5.0756766E2,4.2617102E2,2.2949902E2,1.4485245E1,2.5500122E1,6.445358E1,1.743274E1,5.961007E2,3.868567E2,8.675574E1,1.3775844E2,0E0,0E0,0E0,0E0,0E0,0E0,0E0,0E0,0E0,0E0,0E0,0E0,0E0,0E0,0E0,0E0],"parents":[2147483647,0,0,1,1,2,2,3,3,4,4,5,5,6,6,7,7,8,8,9,9,10,10,11,11,12,12,13,13,14,14],"right_children":[2,4,6,8,10,12,14,16,18,20,22,24,26,28,30,-1,-1,-1,-1,-1,-1,-1,-1,-1,-1,-1,-1,-1,-1,-1,-1],"split_conditions":[7E0,4E0,2E1,2E0,5E0,5E0,5E0,3E0,5E0,5E0,6E0,1E1,8E0,2E0,2.3E1,-1.712095E-1,-7.102234E-2,-2.3359096E-1,-1.7527674E-1,-6.938537E-3,1.2777255E-1,-1.9990914E-1,-2.894423E-1,-2.52058E-3,9.4941534E-2,-1.9944295E-1,1.2471922E-2,-2.1678773E-1,-1.20454766E-1,3.389904E-2,-2.2640625E-1],"split_indices":[1,1,1,0,0,0,0,1,0,1,1,1,1,0,1,0,0,0,0,0,0,0,0,0,0,0,0,0,0,0,0],"split_type":[0,0,0,0,0,0,0,0,0,0,0,0,0,0,0,0,0,0,0,0,0,0,0,0,0,0,0,0,0,0,0],"sum_hessian":[6.39E3,7.91E2,5.599E3,4.7E2,3.21E2,4.938E3,6.61E2,1.01E2,3.69E2,1.91E2,1.3E2,2.839E3,2.099E3,5.06E2,1.55E2,8.1E1,2E1,1.36E2,2.33E2,1.45E2,4.6E1,9E1,4E1,9.36E2,1.903E3,8.9E1,2.01E3,1.27E2,3.79E2,1.32E2,2.3E1],"tree_param":{"num_deleted":"0","num_feature":"2","num_nodes":"31","size_leaf_vector":"1"}},{"base_weights":[-3.8098248E-3,-1.292355E0,1.7842796E-1,-1.6933703E0,-7.017631E-1,3.945167E-1,-7.6495796E-1,-1.3727261E0,-1.7771875E0,2.3464276E-1,-2.0688484E0,6.5852827E-1,5.5140235E-2,-1.4996408E0,-3.508986E-1,-1.5429734E-1,-6.425834E-2,-2.104024E-1,-1.5782396E-1,1.1438211E-1,-7.6359897E-3,-1.8013789E-1,-2.6120406E-1,-2.2686997E-3,1.05043985E-1,-1.7972018E-1,1.4257761E-2,-1.1838309E-1,-2.2623697E-1,6.755804E-3,-8.881247E-2],"categories":[],"categories_nodes":[],"categories_segments":[],"categories_sizes":[],"default_left":[0,0,0,0,0,0,0,0,0,0,0,0,0,0,0,0,0,0,0,0,0,0,0,0,0,0,0,0,0,0,0],"id":19,"left_children":[1,3,5,7,9,11,13,15,17,19,21,23,25,27,29,-1,-1,-1,-1,-1,-1,-1,-1,-1,-1,-1,-1,-1,-1,-1,-1],"loss_changes":[1.5009755E3,1.8638611E2,1.1418903E3,1.021875E1,4.1269263E2,4.082677E2,3.170609E2,1.1687576E1,2.0737915E1,5.437666E1,1.4327393E1,6.842838E2,3.2337427E2,8.78916E1,1.5045508E2,0E0,0E0,0E0,0E0,0E0,0E0,0E0,0E0,0E0,0E0,0E0,0E0,0E0,0E0,0E0,0E0],"parents":[2147483647,0,0,1,1,2,2,3,3,4,4,5,5,6,6,7,7,8,8,9,9,10,10,11,11,12,12,13,13,14,14],"right_children":[2,4,6,8,10,12,14,16,18,20,22,24,26,28,30,-1,-1,-1,-1,-1,-1,-1,-1,-1,-1,-1,-1,-1,-1,-1,-1],"split_conditions":[7E0,4E0,1.8E1,2E0,5E0,5E0,3E0,3E0,5E0,2E0,6E0,1E1,8E0,2.2E1,2.1E1,-1.5429734E-1,-6.425834E-2,-2.104024E-1,-1.5782396E-1,1.1438211E-1,-7.6359897E-3,-1.8013789E-1,-2.6120406E-1,-2.2686997E-3,1.05043985E-1,-1.7972018E-1,1.4257761E-2,-1.1838309E-1,-2.2623697E-1,6.755804E-3,-8.881247E-2],"split_indices":[1,1,1,0,0,0,0,1,0,0,1,1,1,1,1,0,0,0,0,0,0,0,0,0,0,0,0,0,0,0,0],"split_type":[0,0,0,0,0,0,0,0,0,0,0,0,0,0,0,0,0,0,0,0,0,0,0,0,0,0,0,0,0,0,0],"sum_hessian":[6.39E3,7.91E2,5.599E3,4.7E2,3.21E2,4.556E3,1.043E3,1.01E2,3.69E2,1.91E2,1.3E2,2.562E3,1.994E3,3.75E2,6.68E2,8.1E1,2E1,1.36E2,2.33E2,4.8E1,1.43E2,9E1,4E1,9.36E2,1.626E3,8.9E1,1.905E3,2.67E2,1.08E2,3.76E2,2.92E2],"tree_param":{"num_deleted":"0","num_feature":"2","num_nodes":"31","size_leaf_vector":"1"}},{"base_weights":[-3.6494327E-3,-1.2424742E0,1.5016942E-1,-1.525279E0,-6.727983E-1,3.3879912E-1,-6.888707E-1,-1.237596E0,-1.6004639E0,-7.580357E-2,-1.6232206E0,6.020891E-1,1.0780916E-3,-1.1641514E0,-1.4078262E-1,-1.3905576E-1,-5.813847E-2,-1.8951572E-1,-1.4210902E-1,-3.1600904E-2,5.6864113E-2,-1.281191E-1,-2.3865063E-1,3.3148879E-3,9.45461E-2,-1.8646045E-1,1.28327655E-2,-9.1368996E-2,-1.8228032E-1,2.8485222E-2,-6.440419E-2],"categories":[],"categories_nodes":[],"categories_segments":[],"categories_sizes":[],"default_left":[0,0,0,0,0,0,0,0,0,0,0,0,0,0,0,0,0,0,0,0,0,0,0,0,0,0,0,0,0,0,0],"id":20,"left_children":[1,3,5,7,9,11,13,15,17,19,21,23,25,27,29,-1,-1,-1,-1,-1,-1,-1,-1,-1,-1,-1,-1,-1,-1,-1,-1],"loss_changes":[1.2180211E3,1.1271533E2,9.0014465E2,8.206787E0,1.3378268E2,4.128482E2,2.7179364E2,9.429825E0,1.6865112E1,2.2780369E1,2.0699493E1,5.0965808E2,4.833631E2,9.055109E1,1.0428693E2,0E0,0E0,0E0,0E0,0E0,0E0,0E0,0E0,0E0,0E0,0E0,0E0,0E0,0E0,0E0,0E0],"parents":[2147483647,0,0,1,1,2,2,3,3,4,4,5,5,6,6,7,7,8,8,9,9,10,10,11,11,12,12,13,13,14,14],"right_children":[2,4,6,8,10,12,14,16,18,20,22,24,26,28,30,-1,-1,-1,-1,-1,-1,-1,-1,-1,-1,-1,-1,-1,-1,-1,-1],"split_conditions":[6E0,4E0,1.8E1,2E0,5E0,5E0,4E0,3E0,5E0,4E0,7E0,1E1,8E0,2.2E1,2.1E1,-1.3905576E-1,-5.813847E-2,-1.8951572E-1,-1.4210902E-1,-3.1600904E-2,5.6864113E-2,-1.281191E-1,-2.3865063E-1,3.3148879E-3,9.45461E-2,-1.8646045E-1,1.28327655E-2,-9.1368996E-2,-1.8228032E-1,2.8485222E-2,-6.440419E-2],"split_indices":[1,1,1,0,0,0,0,1,0,0,0,1,1,1,1,0,0,0,0,0,0,0,0,0,0,0,0,0,0,0,0],"split_type":[0,0,0,0,0,0,0,0,0,0,0,0,0,0,0,0,0,0,0,0,0,0,0,0,0,0,0,0,0,0,0],"sum_hessian":[6.39E3,7.05E2,5.685E3,4.7E2,2.35E2,4.642E3,1.043E3,1.01E2,3.69E2,1.45E2,9E1,2.608E3,2.034E3,5.58E2,4.85E2,8.1E1,2E1,1.36E2,2.33E2,1.06E2,3.9E1,6.4E1,2.6E1,9.82E2,1.626E3,1.29E2,1.905E3,4.06E2,1.52E2,2.63E2,2.22E2],"tree_param":{"num_deleted":"0","num_feature":"2","num_nodes":"31","size_leaf_vector":"1"}},{"base_weights":[-3.4807406E-3,-1.1194595E0,1.3508494E-1,-1.373874E0,-6.0696536E-1,3.2567826E-1,-5.45036E-1,-1.1157696E0,-1.4413137E0,-6.80501E-2,-1.4649286E0,-1.8059604E-1,4.8284084E-1,-1.3520353E0,-3.4596914E-1,-1.2531976E-1,-5.2601445E-2,-1.7070247E-1,-1.2795886E-1,-2.8470341E-2,5.1319875E-2,-1.1550424E-1,-2.1566944E-1,5.4821227E-4,-9.2759304E-2,1.561335E-2,6.30184E-2,-1.09407626E-1,-2.0685112E-1,-5.8474066E-3,-8.16882E-2],"categories":[],"categories_nodes":[],"categories_segments":[],"categories_sizes":[],"default_left":[0,0,0,0,0,0,0,0,0,0,0,0,0,0,0,0,0,0,0,0,0,0,0,0,0,0,0,0,0,0,0],"id":21,"left_children":[1,3,5,7,9,11,13,15,17,19,21,23,25,27,29,-1,-1,-1,-1,-1,-1,-1,-1,-1,-1,-1,-1,-1,-1,-1,-1],"loss_changes":[9.884322E2,9.121863E1,7.3723376E2,6.590271E0,1.0901952E2,3.5352548E2,1.9953754E2,7.6077805E0,1.3715393E1,1.8531813E1,1.7016464E1,1.463719E2,1.6308966E2,4.3202972E1,1.3533737E2,0E0,0E0,0E0,0E0,0E0,0E0,0E0,0E0,0E0,0E0,0E0,0E0,0E0,0E0,0E0,0E0],"parents":[2147483647,0,0,1,1,2,2,3,3,4,4,5,5,6,6,7,7,8,8,9,9,10,10,11,11,12,12,13,13,14,14],"right_children":[2,4,6,8,10,12,14,16,18,20,22,24,26,28,30,-1,-1,-1,-1,-1,-1,-1,-1,-1,-1,-1,-1,-1,-1,-1,-1],"split_conditions":[6E0,4E0,1.7E1,2E0,5E0,9E0,2E0,3E0,5E0,4E0,7E0,7E0,3E0,2.2E1,2.1E1,-1.2531976E-1,-5.2601445E-2,-1.7070247E-1,-1.2795886E-1,-2.8470341E-2,5.1319875E-2,-1.1550424E-1,-2.1566944E-1,5.4821227E-4,-9.2759304E-2,1.561335E-2,6.30184E-2,-1.09407626E-1,-2.0685112E-1,-5.8474066E-3,-8.16882E-2],"split_indices":[1,1,1,0,0,1,0,1,0,0,0,0,0,1,1,0,0,0,0,0,0,0,0,0,0,0,0,0,0,0,0],"split_type":[0,0,0,0,0,0,0,0,0,0,0,0,0,0,0,0,0,0,0,0,0,0,0,0,0,0,0,0,0,0,0],"sum_hessian":[6.39E3,7.05E2,5.685E3,4.7E2,2.35E2,4.441E3,1.244E3,1.01E2,3.69E2,1.45E2,9E1,1.052E3,3.389E3,2.45E2,9.99E2,8.1E1,2E1,1.36E2,2.33E2,1.06E2,3.9E1,6.4E1,2.6E1,8.43E2,2.09E2,1.054E3,2.335E3,1.82E2,6.3E1,6.21E2,3.78E2],"tree_param":{"num_deleted":"0","num_feature":"2","num_nodes":"31","size_leaf_vector":"1"}},{"base_weights":[-3.3208954E-3,-9.466615E-1,1.30095E-1,-1.2374984E0,-5.183047E-1,3.0754104E-1,-4.908568E-1,-1.005937E0,-1.2979897E0,2.2199856E-1,-1.5993729E0,3.916293E-1,-5.607868E-1,-1.2181175E0,-3.114598E-1,-1.1294061E-1,-4.7591742E-2,-1.5375683E-1,-1.1521766E-1,-6.1088745E-3,1.09665275E-1,-1.322075E-1,-2.1758299E-1,1.0942382E-2,5.1536765E-2,-6.6588454E-2,8.029911E-2,-9.852667E-2,-1.8648922E-1,-5.2636033E-3,-7.354095E-2],"categories":[],"categories_nodes":[],"categories_segments":[],"categories_sizes":[],"default_left":[0,0,0,0,0,0,0,0,0,0,0,0,0,0,0,0,0,0,0,0,0,0,0,0,0,0,0,0,0,0,0],"id":22,"left_children":[1,3,5,7,9,11,13,15,17,19,21,23,25,27,29,-1,-1,-1,-1,-1,-1,-1,-1,-1,-1,-1,-1,-1,-1,-1,-1],"loss_changes":[8.044729E2,9.8027466E1,6.171894E2,5.291809E0,2.5805756E2,3.182782E2,1.6205374E2,6.1374893E0,1.1153931E1,4.760687E1,1.8063782E1,1.3864435E2,5.571673E1,3.5210663E1,1.0968954E2,0E0,0E0,0E0,0E0,0E0,0E0,0E0,0E0,0E0,0E0,0E0,0E0,0E0,0E0,0E0,0E0],"parents":[2147483647,0,0,1,1,2,2,3,3,4,4,5,5,6,6,7,7,8,8,9,9,10,10,11,11,12,12,13,13,14,14],"right_children":[2,4,6,8,10,12,14,16,18,20,22,24,26,28,30,-1,-1,-1,-1,-1,-1,-1,-1,-1,-1,-1,-1,-1,-1,-1,-1],"split_conditions":[7E0,4E0,1.7E1,2E0,5E0,7E0,2E0,3E0,5E0,5E0,6E0,3E0,1E1,2.2E1,2.1E1,-1.1294061E-1,-4.7591742E-2,-1.5375683E-1,-1.1521766E-1,-6.1088745E-3,1.09665275E-1,-1.322075E-1,-2.1758299E-1,1.0942382E-2,5.1536765E-2,-6.6588454E-2,8.029911E-2,-9.852667E-2,-1.8648922E-1,-5.2636033E-3,-7.354095E-2],"split_indices":[1,1,1,0,0,0,0,1,0,1,1,0,1,1,1,0,0,0,0,0,0,0,0,0,0,0,0,0,0,0,0],"split_type":[0,0,0,0,0,0,0,0,0,0,0,0,0,0,0,0,0,0,0,0,0,0,0,0,0,0,0,0,0,0,0],"sum_hessian":[6.39E3,7.91E2,5.599E3,4.7E2,3.21E2,4.355E3,1.244E3,1.01E2,3.69E2,1.91E2,1.3E2,3.971E3,3.84E2,2.45E2,9.99E2,8.1E1,2E1,1.36E2,2.33E2,1.45E2,4.6E1,9E1,4E1,1.211E3,2.76E3,3.57E2,2.7E1,1.82E2,6.3E1,6.21E2,3.78E2],"tree_param":{"num_deleted":"0","num_feature":"2","num_nodes":"31","size_leaf_vector":"1"}},{"base_weights":[-3.139455E-3,-8.528484E-1,1.1703423E-1,-1.1146605E0,-4.672387E-1,2.603564E-1,-5.086709E-1,-9.069171E-1,-1.1689177E0,2.0033844E-1,-1.4421057E0,4.7315416E-1,-1.31578995E-2,-9.0665716E-1,-4.985816E-2,-1.0178429E-1,-4.305915E-2,-1.3849337E-1,-1.03745125E-1,1.01225115E-1,-7.7328654E-3,-1.19132005E-1,-1.963554E-1,-8.867676E-3,7.964255E-2,1.7260555E-2,-8.718189E-2,-7.229361E-2,-1.3894534E-1,5.8336515E-2,-2.8273007E-2],"categories":[],"categories_nodes":[],"categories_segments":[],"categories_sizes":[],"default_left":[0,0,0,0,0,0,0,0,0,0,0,0,0,0,0,0,0,0,0,0,0,0,0,0,0,0,0,0,0,0,0],"id":23,"left_children":[1,3,5,7,9,11,13,15,17,19,21,23,25,27,29,-1,-1,-1,-1,-1,-1,-1,-1,-1,-1,-1,-1,-1,-1,-1,-1],"loss_changes":[6.527018E2,7.9437256E1,5.02326E2,4.2488403E0,2.0984618E2,2.6523834E2,1.9059042E2,4.9510803E0,9.07074E0,4.3363037E1,1.479187E1,4.655724E2,3.183686E2,4.8578735E1,7.183046E1,0E0,0E0,0E0,0E0,0E0,0E0,0E0,0E0,0E0,0E0,0E0,0E0,0E0,0E0,0E0,0E0],"parents":[2147483647,0,0,1,1,2,2,3,3,4,4,5,5,6,6,7,7,8,8,9,9,10,10,11,11,12,12,13,13,14,14],"right_children":[2,4,6,8,10,12,14,16,18,20,22,24,26,28,30,-1,-1,-1,-1,-1,-1,-1,-1,-1,-1,-1,-1,-1,-1,-1,-1],"split_conditions":[7E0,4E0,1.8E1,2E0,5E0,5E0,4E0,3E0,5E0,2E0,6E0,1E1,1.4E1,2.2E1,1.9E1,-1.0178429E-1,-4.305915E-2,-1.3849337E-1,-1.03745125E-1,1.01225115E-1,-7.7328654E-3,-1.19132005E-1,-1.963554E-1,-8.867676E-3,7.964255E-2,1.7260555E-2,-8.718189E-2,-7.229361E-2,-1.3894534E-1,5.8336515E-2,-2.8273007E-2],"split_indices":[1,1,1,0,0,0,0,1,0,0,1,1,1,1,1,0,0,0,0,0,0,0,0,0,0,0,0,0,0,0,0],"split_type":[0,0,0,0,0,0,0,0,0,0,0,0,0,0,0,0,0,0,0,0,0,0,0,0,0,0,0,0,0,0,0],"sum_hessian":[6.39E3,7.91E2,5.599E3,4.7E2,3.21E2,4.556E3,1.043E3,1.01E2,3.69E2,1.91E2,1.3E2,2.562E3,1.994E3,5.58E2,4.85E2,8.1E1,2E1,1.36E2,2.33E2,4.8E1,1.43E2,9E1,4E1,9.36E2,1.626E3,1.64E3,3.54E2,4.06E2,1.52E2,1.3E2,3.55E2],"tree_param":{"num_deleted":"0","num_feature":"2","num_nodes":"31","size_leaf_vector":"1"}},{"base_weights":[-2.9495538E-3,-8.218354E-1,9.872761E-2,-1.0040163E0,-4.5476314E-1,2.3869987E-1,-4.007547E-1,-8.1764543E-1,-1.0526807E0,-6.5999E-2,-1.0734972E0,3.1080133E-1,-5.218884E-1,-1.0380417E0,-2.4358132E-1,-9.173E-2,-3.895827E-2,-1.2474513E-1,-9.341497E-2,-2.6824439E-2,4.7665734E-2,-1.5537906E-1,-6.485808E-2,2.4770064E-2,8.524641E-2,-6.166945E-2,7.089146E-2,-8.552324E-2,-1.5445429E-1,-9.341512E-3,-7.7247754E-2],"categories":[],"categories_nodes":[],"categories_segments":[],"categories_sizes":[],"default_left":[0,0,0,0,0,0,0,0,0,0,0,0,0,0,0,0,0,0,0,0,0,0,0,0,0,0,0,0,0,0,0],"id":24,"left_children":[1,3,5,7,9,11,13,15,17,19,21,23,25,27,29,-1,-1,-1,-1,-1,-1,-1,-1,-1,-1,-1,-1,-1,-1,-1,-1],"loss_changes":[5.3220856E2,4.6756134E1,3.9762476E2,3.4110718E0,5.669697E1,2.437594E2,1.2445204E2,3.9937973E0,7.376648E0,1.6151321E1,1.7563927E1,1.3848843E2,4.536193E1,2.145697E1,7.9350174E1,0E0,0E0,0E0,0E0,0E0,0E0,0E0,0E0,0E0,0E0,0E0,0E0,0E0,0E0,0E0,0E0],"parents":[2147483647,0,0,1,1,2,2,3,3,4,4,5,5,6,6,7,7,8,8,9,9,10,10,11,11,12,12,13,13,14,14],"right_children":[2,4,6,8,10,12,14,16,18,20,22,24,26,28,30,-1,-1,-1,-1,-1,-1,-1,-1,-1,-1,-1,-1,-1,-1,-1,-1],"split_conditions":[6E0,4E0,1.7E1,2E0,5E0,7E0,2E0,3E0,5E0,4E0,6E0,1.5E1,1E1,2.2E1,2.2E1,-9.173E-2,-3.895827E-2,-1.2474513E-1,-9.341497E-2,-2.6824439E-2,4.7665734E-2,-1.5537906E-1,-6.485808E-2,2.4770064E-2,8.524641E-2,-6.166945E-2,7.089146E-2,-8.552324E-2,-1.5445429E-1,-9.341512E-3,-7.7247754E-2],"split_indices":[1,1,1,0,0,0,0,1,0,0,0,1,1,1,1,0,0,0,0,0,0,0,0,0,0,0,0,0,0,0,0],"split_type":[0,0,0,0,0,0,0,0,0,0,0,0,0,0,0,0,0,0,0,0,0,0,0,0,0,0,0,0,0,0,0],"sum_hessian":[6.39E3,7.05E2,5.685E3,4.7E2,2.35E2,4.441E3,1.244E3,1.01E2,3.69E2,1.45E2,9E1,4.057E3,3.84E2,2.45E2,9.99E2,8.1E1,2E1,1.36E2,2.33E2,1.06E2,3.9E1,4.1E1,4.9E1,3.635E3,4.22E2,3.57E2,2.7E1,1.82E2,6.3E1,7.79E2,2.2E2],"tree_param":{"num_deleted":"0","num_feature":"2","num_nodes":"31","size_leaf_vector":"1"}},{"base_weights":[-2.7732505E-3,-6.9845515E-1,9.561654E-2,-4.5354122E-1,-9.851849E-1,2.1276021E-1,-4.158004E-1,-1.0170825E0,1.2808864E-1,-8.795217E-1,-1.796153E-1,3.9829132E-1,-2.5700469E-2,-7.616171E-1,-1.7184421E-2,-8.266888E-2,-1.1236167E-1,-9.670798E-3,9.193259E-2,-8.598198E-2,-1.1228491E-1,-1.04563255E-2,6.876438E-2,1.4864533E-2,-8.315476E-2,-1.3404708E-1,-6.506201E-2,9.124264E-3,-1.1363573E-1],"categories":[],"categories_nodes":[],"categories_segments":[],"categories_sizes":[],"default_left":[0,0,0,0,0,0,0,0,0,0,0,0,0,0,0,0,0,0,0,0,0,0,0,0,0,0,0,0,0],"id":25,"left_children":[1,3,5,7,9,11,13,15,17,19,-1,21,23,25,27,-1,-1,-1,-1,-1,-1,-1,-1,-1,-1,-1,-1,-1,-1],"loss_changes":[4.375179E2,5.5170715E1,3.355803E2,1.4074463E2,2.9611206E1,2.0162048E2,1.439003E2,3.49292E0,3.7796806E1,5.878296E-1,0E0,3.7299408E2,2.8041324E2,3.504419E1,5.9079117E1,0E0,0E0,0E0,0E0,0E0,0E0,0E0,0E0,0E0,0E0,0E0,0E0,0E0,0E0],"parents":[2147483647,0,0,1,1,2,2,3,3,4,4,5,5,6,6,7,7,8,8,9,9,11,11,12,12,13,13,14,14],"right_children":[2,4,6,8,10,12,14,16,18,20,-1,22,24,26,28,-1,-1,-1,-1,-1,-1,-1,-1,-1,-1,-1,-1,-1,-1],"split_conditions":[7E0,5E0,1.8E1,3E0,6E0,5E0,4E0,2E0,5E0,5E0,-1.796153E-1,1E1,1.4E1,1.9E1,2.3E1,-8.266888E-2,-1.1236167E-1,-9.670798E-3,9.193259E-2,-8.598198E-2,-1.1228491E-1,-1.04563255E-2,6.876438E-2,1.4864533E-2,-8.315476E-2,-1.3404708E-1,-6.506201E-2,9.124264E-3,-1.1363573E-1],"split_indices":[1,0,1,1,1,0,0,0,1,1,0,1,1,1,1,0,0,0,0,0,0,0,0,0,0,0,0,0,0],"split_type":[0,0,0,0,0,0,0,0,0,0,0,0,0,0,0,0,0,0,0,0,0,0,0,0,0,0,0,0,0],"sum_hessian":[6.39E3,7.91E2,5.599E3,4.28E2,3.63E2,4.556E3,1.043E3,2.17E2,2.11E2,3.23E2,4E1,2.562E3,1.994E3,5.58E2,4.85E2,8.1E1,1.36E2,1.65E2,4.6E1,3.03E2,2E1,9.36E2,1.626E3,1.64E3,3.54E2,8.8E1,4.7E2,4.43E2,4.2E1],"tree_param":{"num_deleted":"0","num_feature":"2","num_nodes":"29","size_leaf_vector":"1"}},{"base_weights":[-2.6215445E-3,-6.292291E-1,8.599914E-2,-4.084498E-1,-8.877047E-1,1.557177E-1,-6.5293574E-1,-9.162689E-1,1.15668155E-1,-7.921816E-1,-1.620919E-1,2.0775166E-1,-4.845019E-1,-9.2291814E-1,-3.3401948E-1,-7.450282E-2,-1.0120752E-1,-8.709507E-3,8.293496E-2,-7.336574E-2,-8.611273E-2,-7.0473957E-3,3.3569027E-2,-5.7002075E-2,6.26221E-2,-6.9642216E-2,-1.0782459E-1,-1.6793203E-2,-1.02536395E-1],"categories":[],"categories_nodes":[],"categories_segments":[],"categories_sizes":[],"default_left":[0,0,0,0,0,0,0,0,0,0,0,0,0,0,0,0,0,0,0,0,0,0,0,0,0,0,0,0,0],"id":26,"left_children":[1,3,5,7,9,11,13,15,17,19,-1,21,23,25,27,-1,-1,-1,-1,-1,-1,-1,-1,-1,-1,-1,-1,-1,-1],"loss_changes":[3.5494888E2,4.483371E1,2.8859952E2,1.14287384E2,2.4210114E1,1.7059747E2,4.1278885E1,2.8224792E0,3.0750399E1,6.755676E-1,0E0,1.6853415E2,3.6927223E1,8.431351E0,2.5433485E1,0E0,0E0,0E0,0E0,0E0,0E0,0E0,0E0,0E0,0E0,0E0,0E0,0E0,0E0],"parents":[2147483647,0,0,1,1,2,2,3,3,4,4,5,5,6,6,7,7,8,8,9,9,11,11,12,12,13,13,14,14],"right_children":[2,4,6,8,10,12,14,16,18,20,-1,22,24,26,28,-1,-1,-1,-1,-1,-1,-1,-1,-1,-1,-1,-1,-1,-1],"split_conditions":[7E0,5E0,2.1E1,3E0,6E0,7E0,4E0,2E0,5E0,7E0,-1.620919E-1,3E0,1E1,2.2E1,2.3E1,-7.450282E-2,-1.0120752E-1,-8.709507E-3,8.293496E-2,-7.336574E-2,-8.611273E-2,-7.0473957E-3,3.3569027E-2,-5.7002075E-2,6.26221E-2,-6.9642216E-2,-1.0782459E-1,-1.6793203E-2,-1.02536395E-1],"split_indices":[1,0,1,1,1,0,0,0,1,0,0,0,1,1,1,0,0,0,0,0,0,0,0,0,0,0,0,0,0],"split_type":[0,0,0,0,0,0,0,0,0,0,0,0,0,0,0,0,0,0,0,0,0,0,0,0,0,0,0,0,0],"sum_hessian":[6.39E3,7.91E2,5.599E3,4.28E2,3.63E2,5.117E3,4.82E2,2.17E2,2.11E2,3.23E2,4E1,4.733E3,3.84E2,2.6E2,2.22E2,8.1E1,1.36E2,1.65E2,4.6E1,1.81E2,1.42E2,1.491E3,3.242E3,3.57E2,2.7E1,1.08E2,1.52E2,1.8E2,4.2E1],"tree_param":{"num_deleted":"0","num_feature":"2","num_nodes":"29","size_leaf_vector":"1"}},{"base_weights":[-2.4670942E-3,-3.572055E-1,1.321105E-1,-7.329106E-1,-2.1953912E-1,2.955864E-1,-3.1312278E-1,-7.724378E-1,-6.0671335E-1,7.0300627E-1,-3.114489E-1,-8.678454E-3,4.3287402E-1,-8.470983E-1,-1.814517E-1,-6.8711564E-2,-1.0926262E-1,-6.716415E-2,-3.121529E-2,1.0175301E-1,2.2967976E-2,-1.939035E-2,-7.768244E-2,-1.7222491E-1,4.345319E-2,1.4227413E-1,1.41593665E-2,-7.112454E-2,-1.2223168E-1,-1.1830252E-3,-4.59349E-2],"categories":[],"categories_nodes":[],"categories_segments":[],"categories_sizes":[],"default_left":[0,0,0,0,0,0,0,0,0,0,0,0,0,0,0,0,0,0,0,0,0,0,0,0,0,0,0,0,0,0,0],"id":27,"left_children":[1,3,5,7,9,11,13,15,17,19,21,23,25,27,29,-1,-1,-1,-1,-1,-1,-1,-1,-1,-1,-1,-1,-1,-1,-1,-1],"loss_changes":[3.0515253E2,9.076631E1,3.3737787E2,1.8808136E0,1.0942972E2,1.4161017E2,8.738116E1,8.947556E0,2.0280037E0,1.7184368E1,6.3961006E1,8.019915E2,6.7333484E2,1.167038E1,4.7131912E1,0E0,0E0,0E0,0E0,0E0,0E0,0E0,0E0,0E0,0E0,0E0,0E0,0E0,0E0,0E0,0E0],"parents":[2147483647,0,0,1,1,2,2,3,3,4,4,5,5,6,6,7,7,8,8,9,9,10,10,11,11,12,12,13,13,14,14],"right_children":[2,4,6,8,10,12,14,16,18,20,22,24,26,28,30,-1,-1,-1,-1,-1,-1,-1,-1,-1,-1,-1,-1,-1,-1,-1,-1],"split_conditions":[9E0,4E0,1.7E1,7E0,2E0,3E0,2E0,6E0,3E0,8E0,7E0,1E1,4E0,2.2E1,2.1E1,-6.8711564E-2,-1.0926262E-1,-6.716415E-2,-3.121529E-2,1.0175301E-1,2.2967976E-2,-1.939035E-2,-7.768244E-2,-1.7222491E-1,4.345319E-2,1.4227413E-1,1.41593665E-2,-7.112454E-2,-1.2223168E-1,-1.1830252E-3,-4.59349E-2],"split_indices":[1,1,1,0,0,0,0,0,1,1,0,1,0,1,1,0,0,0,0,0,0,0,0,0,0,0,0,0,0,0,0],"split_type":[0,0,0,0,0,0,0,0,0,0,0,0,0,0,0,0,0,0,0,0,0,0,0,0,0,0,0,0,0,0,0],"sum_hessian":[6.39E3,1.757E3,4.633E3,4.7E2,1.287E3,3.389E3,1.244E3,3.54E2,1.16E2,1.16E2,1.171E3,1.054E3,2.335E3,2.45E2,9.99E2,2.82E2,7.2E1,9.4E1,2.2E1,6.9E1,4.7E1,9.36E2,2.35E2,2.16E2,8.38E2,5.3E2,1.805E3,1.82E2,6.3E1,6.21E2,3.78E2],"tree_param":{"num_deleted":"0","num_feature":"2","num_nodes":"31","size_leaf_vector":"1"}},{"base_weights":[-2.292997E-3,-3.2162657E-1,1.1885303E-1,-6.602064E-1,-1.9756392E-1,2.6603538E-1,-2.8200397E-1,-4.8686138E-1,-6.9129115E-1,6.337714E-1,-2.80387E-1,-7.932884E-3,3.8965288E-1,-7.6317453E-1,-1.6335402E-1,-1.9545281E-2,-9.690311E-2,-7.489582E-2,-5.4688312E-2,9.172305E-2,2.0718997E-2,-1.7453404E-2,-6.994711E-2,-2.9953761E-2,2.3324497E-1,1.2807342E-1,1.2744144E-2,-6.4050965E-2,-1.1019949E-1,-5.7545304E-3,-5.3605743E-2],"categories":[],"categories_nodes":[],"categories_segments":[],"categories_sizes":[],"default_left":[0,0,0,0,0,0,0,0,0,0,0,0,0,0,0,0,0,0,0,0,0,0,0,0,0,0,0,0,0,0,0],"id":28,"left_children":[1,3,5,7,9,11,13,15,17,19,21,23,25,27,29,-1,-1,-1,-1,-1,-1,-1,-1,-1,-1,-1,-1,-1,-1,-1,-1],"loss_changes":[2.4728043E2,7.371454E1,2.734767E2,2.2013702E0,8.886134E1,1.1481317E2,7.095345E1,1.0348728E1,2.896469E0,1.3957413E1,5.186936E1,7.207009E2,5.456472E2,9.51828E0,3.940442E1,0E0,0E0,0E0,0E0,0E0,0E0,0E0,0E0,0E0,0E0,0E0,0E0,0E0,0E0,0E0,0E0],"parents":[2147483647,0,0,1,1,2,2,3,3,4,4,5,5,6,6,7,7,8,8,9,9,10,10,11,11,12,12,13,13,14,14],"right_children":[2,4,6,8,10,12,14,16,18,20,22,24,26,28,30,-1,-1,-1,-1,-1,-1,-1,-1,-1,-1,-1,-1,-1,-1,-1,-1],"split_conditions":[9E0,4E0,1.7E1,1E0,2E0,3E0,2E0,6E0,7E0,8E0,7E0,1.4E1,4E0,2.2E1,2.2E1,-1.9545281E-2,-9.690311E-2,-7.489582E-2,-5.4688312E-2,9.172305E-2,2.0718997E-2,-1.7453404E-2,-6.994711E-2,-2.9953761E-2,2.3324497E-1,1.2807342E-1,1.2744144E-2,-6.4050965E-2,-1.1019949E-1,-5.7545304E-3,-5.3605743E-2],"split_indices":[1,1,1,1,0,0,0,0,0,1,0,1,0,1,1,0,0,0,0,0,0,0,0,0,0,0,0,0,0,0,0],"split_type":[0,0,0,0,0,0,0,0,0,0,0,0,0,0,0,0,0,0,0,0,0,0,0,0,0,0,0,0,0,0,0],"sum_hessian":[6.39E3,1.757E3,4.633E3,4.7E2,1.287E3,3.389E3,1.244E3,7.4E1,3.96E2,1.16E2,1.171E3,1.054E3,2.335E3,2.45E2,9.99E2,4.7E1,2.7E1,2.8E2,1.16E2,6.9E1,4.7E1,9.36E2,2.35E2,9.38E2,1.16E2,5.3E2,1.805E3,1.82E2,6.3E1,7.79E2,2.2E2],"tree_param":{"num_deleted":"0","num_feature":"2","num_nodes":"31","size_leaf_vector":"1"}},{"base_weights":[-2.0811646E-3,-4.8004076E-1,6.551635E-2,-3.0096886E-1,-6.8977106E-1,1.4744142E-1,-2.921446E-1,-6.8859303E-1,9.904553E-2,-5.943716E-1,-1.4268355E-1,2.8906712E-1,-3.4580693E-2,-5.6430525E-1,2.149727E-2,-5.295779E-2,-7.787438E-2,-6.3639916E-3,6.715294E-2,-5.377431E-2,-7.3345624E-2,-1.2229546E-2,5.257959E-2,1.3116262E-2,-8.006375E-2,-1.1815703E-1,-4.4646896E-2,4.99261E-2,-1.5436943E-2],"categories":[],"categories_nodes":[],"categories_segments":[],"categories_sizes":[],"default_left":[0,0,0,0,0,0,0,0,0,0,0,0,0,0,0,0,0,0,0,0,0,0,0,0,0,0,0,0,0],"id":29,"left_children":[1,3,5,7,9,11,13,15,17,19,-1,21,23,25,27,-1,-1,-1,-1,-1,-1,-1,-1,-1,-1,-1,-1,-1,-1],"loss_changes":[2.0651752E2,2.95374E1,1.6413089E2,6.6586914E1,2.474678E1,1.1748492E2,8.912899E1,2.7127E0,1.978731E1,2.157463E0,0E0,2.4965273E2,2.5340778E2,4.0132004E1,4.0912113E1,0E0,0E0,0E0,0E0,0E0,0E0,0E0,0E0,0E0,0E0,0E0,0E0,0E0,0E0],"parents":[2147483647,0,0,1,1,2,2,3,3,4,4,5,5,6,6,7,7,8,8,9,9,11,11,12,12,13,13,14,14],"right_children":[2,4,6,8,10,12,14,16,18,20,-1,22,24,26,28,-1,-1,-1,-1,-1,-1,-1,-1,-1,-1,-1,-1,-1,-1],"split_conditions":[7E0,5E0,1.8E1,3E0,6E0,5E0,4E0,2E0,5E0,4E0,-1.4268355E-1,1E1,1.4E1,1.9E1,1.9E1,-5.295779E-2,-7.787438E-2,-6.3639916E-3,6.715294E-2,-5.377431E-2,-7.3345624E-2,-1.2229546E-2,5.257959E-2,1.3116262E-2,-8.006375E-2,-1.1815703E-1,-4.4646896E-2,4.99261E-2,-1.5436943E-2],"split_indices":[1,0,1,1,1,0,0,0,1,1,0,1,1,1,1,0,0,0,0,0,0,0,0,0,0,0,0,0,0],"split_type":[0,0,0,0,0,0,0,0,0,0,0,0,0,0,0,0,0,0,0,0,0,0,0,0,0,0,0,0,0],"sum_hessian":[6.39E3,7.91E2,5.599E3,4.28E2,3.63E2,4.556E3,1.043E3,2.17E2,2.11E2,3.23E2,4E1,2.562E3,1.994E3,5.58E2,4.85E2,8.1E1,1.36E2,1.65E2,4.6E1,2.33E2,9E1,9.36E2,1.626E3,1.64E3,3.54E2,8.8E1,4.7E2,1.3E2,3.55E2],"tree_param":{"num_deleted":"0","num_feature":"2","num_nodes":"29","size_leaf_vector":"1"}},{"base_weights":[-1.9506076E-3,-2.7051917E-1,9.9936634E-2,-5.362426E-1,-1.7313853E-1,2.2064379E-1,-2.2881614E-1,-3.7895846E-1,-5.6460553E-1,5.666226E-1,-2.4684069E-1,-4.6208583E-2,3.41067E-1,-6.55497E-1,-1.2362382E-1,-1.1161073E-2,-8.237346E-2,-4.2324346E-2,-6.114107E-2,8.1069626E-2,1.9887721E-2,-1.4922676E-2,-6.333551E-2,-1.50883E-1,3.3214074E-2,1.1241E-1,1.1065085E-2,-5.490706E-2,-9.49568E-2,1.6095964E-3,-3.526003E-2],"categories":[],"categories_nodes":[],"categories_segments":[],"categories_sizes":[],"default_left":[0,0,0,0,0,0,0,0,0,0,0,0,0,0,0,0,0,0,0,0,0,0,0,0,0,0,0,0,0,0,0],"id":30,"left_children":[1,3,5,7,9,11,13,15,17,19,21,23,25,27,29,-1,-1,-1,-1,-1,-1,-1,-1,-1,-1,-1,-1,-1,-1,-1,-1],"loss_changes":[1.7490851E2,4.539772E1,1.8394063E2,1.8871765E0,7.036418E1,1.0895416E2,5.579899E1,8.826306E0,2.3679733E0,1.0340336E1,4.4124084E1,5.843189E2,4.2134476E2,7.177658E0,3.1998215E1,0E0,0E0,0E0,0E0,0E0,0E0,0E0,0E0,0E0,0E0,0E0,0E0,0E0,0E0,0E0,0E0],"parents":[2147483647,0,0,1,1,2,2,3,3,4,4,5,5,6,6,7,7,8,8,9,9,10,10,11,11,12,12,13,13,14,14],"right_children":[2,4,6,8,10,12,14,16,18,20,22,24,26,28,30,-1,-1,-1,-1,-1,-1,-1,-1,-1,-1,-1,-1,-1,-1,-1,-1],"split_conditions":[9E0,4E0,1.7E1,1E0,2E0,3E0,2E0,6E0,2E0,8E0,7E0,1E1,4E0,2.2E1,2.1E1,-1.1161073E-2,-8.237346E-2,-4.2324346E-2,-6.114107E-2,8.1069626E-2,1.9887721E-2,-1.4922676E-2,-6.333551E-2,-1.50883E-1,3.3214074E-2,1.1241E-1,1.1065085E-2,-5.490706E-2,-9.49568E-2,1.6095964E-3,-3.526003E-2],"split_indices":[1,1,1,1,0,0,0,0,0,1,0,1,0,1,1,0,0,0,0,0,0,0,0,0,0,0,0,0,0,0,0],"split_type":[0,0,0,0,0,0,0,0,0,0,0,0,0,0,0,0,0,0,0,0,0,0,0,0,0,0,0,0,0,0,0],"sum_hessian":[6.39E3,1.757E3,4.633E3,4.7E2,1.287E3,3.389E3,1.244E3,7.4E1,3.96E2,1.16E2,1.171E3,1.054E3,2.335E3,2.45E2,9.99E2,4.7E1,2.7E1,1.01E2,2.95E2,6.9E1,4.7E1,9.36E2,2.35E2,2.16E2,8.38E2,5.3E2,1.805E3,1.82E2,6.3E1,6.21E2,3.78E2],"tree_param":{"num_deleted":"0","num_feature":"2","num_nodes":"31","size_leaf_vector":"1"}},{"base_weights":[-1.8105061E-3,-3.9900443E-1,5.4364387E-2,-2.4858047E-1,-5.7519364E-1,9.803054E-2,-4.0844667E-1,-5.7196724E-1,8.51313E-2,-4.5990112E-1,-1.1403368E0,1.3459736E-1,-3.5185358E-1,-6.096592E-1,-1.7111522E-1,-4.3545783E-2,-6.494986E-2,-5.3636585E-3,5.734364E-2,-3.8866047E-2,-5.3739127E-2,-8.2688436E-2,-1.2730724E-1,-1.792035E-2,1.9635579E-2,-4.1879244E-2,5.165735E-2,-4.5823675E-2,-7.135507E-2,-2.588154E-3,-7.7846825E-2],"categories":[],"categories_nodes":[],"categories_segments":[],"categories_sizes":[],"default_left":[0,0,0,0,0,0,0,0,0,0,0,0,0,0,0,0,0,0,0,0,0,0,0,0,0,0,0,0,0,0,0],"id":31,"left_children":[1,3,5,7,9,11,13,15,17,19,21,23,25,27,29,-1,-1,-1,-1,-1,-1,-1,-1,-1,-1,-1,-1,-1,-1,-1,-1],"loss_changes":[1.4261977E2,2.0847466E1,1.1321146E2,4.6345505E1,2.3192612E1,8.424274E1,2.2960884E1,2.0244293E0,1.4396102E1,1.4693527E0,1.4853058E0,9.1779366E1,2.2596962E1,3.778946E0,1.9650263E1,0E0,0E0,0E0,0E0,0E0,0E0,0E0,0E0,0E0,0E0,0E0,0E0,0E0,0E0,0E0,0E0],"parents":[2147483647,0,0,1,1,2,2,3,3,4,4,5,5,6,6,7,7,8,8,9,9,10,10,11,11,12,12,13,13,14,14],"right_children":[2,4,6,8,10,12,14,16,18,20,22,24,26,28,30,-1,-1,-1,-1,-1,-1,-1,-1,-1,-1,-1,-1,-1,-1,-1,-1],"split_conditions":[7E0,5E0,2.1E1,3E0,5E0,7E0,4E0,2E0,5E0,7E0,6E0,2E0,1E1,2.2E1,2.3E1,-4.3545783E-2,-6.494986E-2,-5.3636585E-3,5.734364E-2,-3.8866047E-2,-5.3739127E-2,-8.2688436E-2,-1.2730724E-1,-1.792035E-2,1.9635579E-2,-4.1879244E-2,5.165735E-2,-4.5823675E-2,-7.135507E-2,-2.588154E-3,-7.7846825E-2],"split_indices":[1,0,1,1,1,0,0,0,1,0,0,0,1,1,1,0,0,0,0,0,0,0,0,0,0,0,0,0,0,0,0],"split_type":[0,0,0,0,0,0,0,0,0,0,0,0,0,0,0,0,0,0,0,0,0,0,0,0,0,0,0,0,0,0,0],"sum_hessian":[6.39E3,7.91E2,5.599E3,4.28E2,3.63E2,5.117E3,4.82E2,2.17E2,2.11E2,3.03E2,6E1,4.733E3,3.84E2,2.6E2,2.22E2,8.1E1,1.36E2,1.65E2,4.6E1,1.61E2,1.42E2,2E1,4E1,7.78E2,3.955E3,3.57E2,2.7E1,1.08E2,1.52E2,1.8E2,4.2E1],"tree_param":{"num_deleted":"0","num_feature":"2","num_nodes":"31","size_leaf_vector":"1"}},{"base_weights":[-1.7151509E-3,-2.2781882E-1,8.406214E-2,1.1256129E-1,-2.7582338E-1,2.5291774E-1,-1.0979301E-1,-3.4570208E-1,5.111109E-1,-4.2774418E-1,-1.6685688E-1,-4.07558E-1,5.3724915E-1,-4.698201E-1,-3.4683929E-3,-2.5867892E-3,-4.1860547E-2,7.1923405E-2,1.9694984E-2,-3.0822659E-2,-5.185057E-2,-4.148196E-2,1.3843186E-3,-1.3655543E-1,-1.4552783E-3,1.3196552E-1,2.8102815E-2,2.734137E-2,-1.1673125E-1,5.695671E-2,-1.9815959E-2],"categories":[],"categories_nodes":[],"categories_segments":[],"categories_sizes":[],"default_left":[0,0,0,0,0,0,0,0,0,0,0,0,0,0,0,0,0,0,0,0,0,0,0,0,0,0,0,0,0,0,0],"id":32,"left_children":[1,3,5,7,9,11,13,15,17,19,21,23,25,27,29,-1,-1,-1,-1,-1,-1,-1,-1,-1,-1,-1,-1,-1,-1,-1,-1],"loss_changes":[1.2396978E2,2.8756416E1,1.5171495E2,3.999236E1,2.5438782E1,4.653847E2,8.260605E1,2.367505E0,7.5083027E0,6.815178E0,4.028713E1,2.808473E2,3.4684116E2,2.5537192E2,1.8609167E2,0E0,0E0,0E0,0E0,0E0,0E0,0E0,0E0,0E0,0E0,0E0,0E0,0E0,0E0,0E0,0E0],"parents":[2147483647,0,0,1,1,2,2,3,3,4,4,5,5,6,6,7,7,8,8,9,9,10,10,11,11,12,12,13,13,14,14],"right_children":[2,4,6,8,10,12,14,16,18,20,22,24,26,28,30,-1,-1,-1,-1,-1,-1,-1,-1,-1,-1,-1,-1,-1,-1,-1,-1],"split_conditions":[9E0,2E0,1.2E1,4E0,7E0,3E0,1.5E1,2E0,8E0,5E0,6E0,1E1,4E0,4E0,1.7E1,-2.5867892E-3,-4.1860547E-2,7.1923405E-2,1.9694984E-2,-3.0822659E-2,-5.185057E-2,-4.148196E-2,1.3843186E-3,-1.3655543E-1,-1.4552783E-3,1.3196552E-1,2.8102815E-2,2.734137E-2,-1.1673125E-1,5.695671E-2,-1.9815959E-2],"split_indices":[1,0,1,1,1,0,1,1,1,0,0,1,0,0,1,0,0,0,0,0,0,0,0,0,0,0,0,0,0,0,0],"split_type":[0,0,0,0,0,0,0,0,0,0,0,0,0,0,0,0,0,0,0,0,0,0,0,0,0,0,0,0,0,0,0],"sum_hessian":[6.39E3,1.757E3,4.633E3,2.17E2,1.54E3,2.476E3,2.157E3,1.01E2,1.16E2,6.42E2,8.98E2,7.45E2,1.731E3,4.91E2,1.666E3,1.9E1,8.2E1,6.9E1,4.7E1,2.79E2,3.63E2,3.78E2,5.2E2,2.16E2,5.29E2,4.26E2,1.305E3,2.38E2,2.53E2,4.22E2,1.244E3],"tree_param":{"num_deleted":"0","num_feature":"2","num_nodes":"31","size_leaf_vector":"1"}},{"base_weights":[-1.5603317E-3,-2.0508024E-1,7.564933E-2,-1.4576334E-1,-4.4159675E-1,2.2763477E-1,-9.8837964E-2,-4.2941937E-1,-4.9995385E-2,-2.7404147E-1,-5.2279323E-1,-3.6698738E-1,4.836166E-1,3.0205848E-2,-3.5660908E-1,-3.6012214E-2,-6.921824E-2,-1.9363305E-2,2.1021783E-2,-3.328877E-2,-1.9066314E-3,-1.10334575E-1,-4.456613E-2,-1.2296289E-1,-1.3100217E-3,1.1879986E-1,2.529468E-2,3.016891E-2,-4.6944715E-2,-5.588683E-2,3.7821826E-2],"categories":[],"categories_nodes":[],"categories_segments":[],"categories_sizes":[],"default_left":[0,0,0,0,0,0,0,0,0,0,0,0,0,0,0,0,0,0,0,0,0,0,0,0,0,0,0,0,0,0,0],"id":33,"left_children":[1,3,5,7,9,11,13,15,17,19,21,23,25,27,29,-1,-1,-1,-1,-1,-1,-1,-1,-1,-1,-1,-1,-1,-1,-1,-1],"loss_changes":[1.00441795E2,2.4599373E1,1.2291398E2,3.81999E1,4.6456604E0,3.772077E2,7.1793976E1,6.214836E0,3.9398067E1,1.749157E0,1.0076164E1,2.2772108E2,2.811142E2,1.9533826E2,1.072218E2,0E0,0E0,0E0,0E0,0E0,0E0,0E0,0E0,0E0,0E0,0E0,0E0,0E0,0E0,0E0,0E0],"parents":[2147483647,0,0,1,1,2,2,3,3,4,4,5,5,6,6,7,7,8,8,9,9,10,10,11,11,12,12,13,13,14,14],"right_children":[2,4,6,8,10,12,14,16,18,20,22,24,26,28,30,-1,-1,-1,-1,-1,-1,-1,-1,-1,-1,-1,-1,-1,-1,-1,-1],"split_conditions":[9E0,7E0,1.2E1,4E0,4E0,3E0,5E0,6E0,6E0,3E0,5E0,1E1,4E0,2E1,2E1,-3.6012214E-2,-6.921824E-2,-1.9363305E-2,2.1021783E-2,-3.328877E-2,-1.9066314E-3,-1.10334575E-1,-4.456613E-2,-1.2296289E-1,-1.3100217E-3,1.1879986E-1,2.529468E-2,3.016891E-2,-4.6944715E-2,-5.588683E-2,3.7821826E-2],"split_indices":[1,0,1,1,1,0,0,0,0,1,1,1,0,1,1,0,0,0,0,0,0,0,0,0,0,0,0,0,0,0,0],"split_type":[0,0,0,0,0,0,0,0,0,0,0,0,0,0,0,0,0,0,0,0,0,0,0,0,0,0,0,0,0,0,0],"sum_hessian":[6.39E3,1.757E3,4.633E3,1.406E3,3.51E2,2.476E3,2.157E3,3.54E2,1.052E3,1.16E2,2.35E2,7.45E2,1.731E3,1.438E3,7.19E2,2.82E2,7.2E1,6.78E2,3.74E2,9.4E1,2.2E1,2.6E1,2.09E2,2.16E2,5.29E2,4.26E2,1.305E3,9.32E2,5.06E2,5.64E2,1.55E2],"tree_param":{"num_deleted":"0","num_feature":"2","num_nodes":"31","size_leaf_vector":"1"}},{"base_weights":[-1.4524802E-3,-1.8473907E-1,6.808124E-2,1.285093E-1,-2.2893335E-1,-2.6728183E-1,1.3961339E-1,-2.7590838E-1,4.7998017E-1,-3.543358E-1,-1.3898595E-1,-6.368455E-1,-1.3463044E-1,3.0645996E-1,-6.885512E-2,1.0801172E-3,-3.416708E-2,6.674241E-2,1.9662488E-2,-3.1857282E-2,-5.8853757E-2,-3.5413574E-2,1.7790946E-3,-7.165058E-2,-5.9084762E-2,1.3541053E-2,-5.248742E-2,-2.6521042E-2,4.3533795E-2,5.703483E-2,-2.175973E-2],"categories":[],"categories_nodes":[],"categories_segments":[],"categories_sizes":[],"default_left":[0,0,0,0,0,0,0,0,0,0,0,0,0,0,0,0,0,0,0,0,0,0,0,0,0,0,0,0,0,0,0],"id":34,"left_children":[1,3,5,7,9,11,13,15,17,19,21,23,25,27,29,-1,-1,-1,-1,-1,-1,-1,-1,-1,-1,-1,-1,-1,-1,-1,-1],"loss_changes":[8.14633E1,2.4366802E1,1.1120346E2,3.1119177E1,1.7332657E1,3.986812E1,1.3288931E2,1.9268723E0,6.0830135E0,5.19812E0,3.0330032E1,3.6445618E-1,6.3405533E1,1.5645534E2,1.6165909E2,0E0,0E0,0E0,0E0,0E0,0E0,0E0,0E0,0E0,0E0,0E0,0E0,0E0,0E0,0E0,0E0],"parents":[2147483647,0,0,1,1,2,2,3,3,4,4,5,5,6,6,7,7,8,8,9,9,10,10,11,11,12,12,13,13,14,14],"right_children":[2,4,6,8,10,12,14,16,18,20,22,24,26,28,30,-1,-1,-1,-1,-1,-1,-1,-1,-1,-1,-1,-1,-1,-1,-1,-1],"split_conditions":[9E0,2E0,2E0,4E0,7E0,1.1E1,1.2E1,2E0,8E0,5E0,6E0,1E1,1.7E1,3E0,3E0,1.0801172E-3,-3.416708E-2,6.674241E-2,1.9662488E-2,-3.1857282E-2,-5.8853757E-2,-3.5413574E-2,1.7790946E-3,-7.165058E-2,-5.9084762E-2,1.3541053E-2,-5.248742E-2,-2.6521042E-2,4.3533795E-2,5.703483E-2,-2.175973E-2],"split_indices":[1,0,0,1,1,1,1,1,1,1,0,1,1,0,0,0,0,0,0,0,0,0,0,0,0,0,0,0,0,0,0],"split_type":[0,0,0,0,0,0,0,0,0,0,0,0,0,0,0,0,0,0,0,0,0,0,0,0,0,0,0,0,0,0,0],"sum_hessian":[6.39E3,1.757E3,4.633E3,2.17E2,1.54E3,8.14E2,3.819E3,1.01E2,1.16E2,6.42E2,8.98E2,2.14E2,6E2,2.121E3,1.698E3,1.9E1,8.2E1,6.9E1,4.7E1,5.59E2,8.3E1,3.78E2,5.2E2,7.3E1,1.41E2,3.55E2,2.45E2,3.9E2,1.731E3,3.2E2,1.378E3],"tree_param":{"num_deleted":"0","num_feature":"2","num_nodes":"31","size_leaf_vector":"1"}},{"base_weights":[-1.3366041E-3,2.9490985E-2,-3.444153E-1,5.965475E-2,-3.0674306E-1,-3.8391808E-1,3.7329204E-2,-2.4524863E-1,1.01506785E-1,-4.7467995E-1,-1.0881354E-1,-2.1535282E-1,-4.34278E-1,-1.5404343E-2,-4.2039182E-2,-1.3761314E-2,1.4856768E-2,-3.43205E-2,-5.6524266E-2,2.3043675E-3,-6.613099E-2,-2.6842697E-2,1.3229578E-3,-9.6642025E-2,-3.9293133E-2],"categories":[],"categories_nodes":[],"categories_segments":[],"categories_sizes":[],"default_left":[0,0,0,0,0,0,0,0,0,0,0,0,0,0,0,0,0,0,0,0,0,0,0,0,0],"id":35,"left_children":[1,3,5,7,9,11,-1,13,15,17,19,21,23,-1,-1,-1,-1,-1,-1,-1,-1,-1,-1,-1,-1],"loss_changes":[6.760321E1,5.9501617E1,1.508453E1,6.871642E1,1.6003109E1,4.1509323E0,0E0,1.0318317E1,5.3293087E1,2.9136658E0,1.6260931E1,1.4229732E0,8.06916E0,0E0,0E0,0E0,0E0,0E0,0E0,0E0,0E0,0E0,0E0,0E0,0E0],"parents":[2147483647,0,0,1,1,2,2,3,3,4,4,5,5,7,7,8,8,9,9,10,10,11,11,12,12],"right_children":[2,4,6,8,10,12,-1,14,16,18,20,22,24,-1,-1,-1,-1,-1,-1,-1,-1,-1,-1,-1,-1],"split_conditions":[7E0,2.1E1,1E1,7E0,4E0,4E0,3.7329204E-2,5E0,2E0,2.2E1,2.3E1,3E0,5E0,-1.5404343E-2,-4.2039182E-2,-1.3761314E-2,1.4856768E-2,-3.43205E-2,-5.6524266E-2,2.3043675E-3,-6.613099E-2,-2.6842697E-2,1.3229578E-3,-9.6642025E-2,-3.9293133E-2],"split_indices":[0,1,1,1,0,1,0,0,0,1,1,1,1,0,0,0,0,0,0,0,0,0,0,0,0],"split_type":[0,0,0,0,0,0,0,0,0,0,0,0,0,0,0,0,0,0,0,0,0,0,0,0,0],"sum_hessian":[6.39E3,5.864E3,5.26E2,5.382E3,4.82E2,4.99E2,2.7E1,6.49E2,4.733E3,2.6E2,2.22E2,1.16E2,3.83E2,4.28E2,2.21E2,7.78E2,3.955E3,1.08E2,1.52E2,1.8E2,4.2E1,9.4E1,2.2E1,2.6E1,3.57E2],"tree_param":{"num_deleted":"0","num_feature":"2","num_nodes":"25","size_leaf_vector":"1"}},{"base_weights":[-1.2550611E-3,-1.5504129E-1,5.7087075E-2,1.3072415E-1,-1.9536695E-1,-2.2267705E-1,1.1676003E-1,-2.3338857E-1,4.4703844E-1,-2.8178746E-1,-1.1454964E-1,-5.6007177E-1,-1.0160793E-1,2.644639E-1,-6.778639E-2,2.4409152E-3,-2.926966E-2,6.1632663E-2,1.908465E-2,-1.6562177E-2,-6.319009E-2,7.003662E-3,-3.486278E-2,-6.3224696E-2,-5.185152E-2,1.3563118E-2,-4.4451654E-2,-2.535749E-2,3.8125876E-2,5.1496882E-2,-2.0338945E-2],"categories":[],"categories_nodes":[],"categories_segments":[],"categories_sizes":[],"default_left":[0,0,0,0,0,0,0,0,0,0,0,0,0,0,0,0,0,0,0,0,0,0,0,0,0,0,0,0,0,0,0],"id":36,"left_children":[1,3,5,7,9,11,13,15,17,19,21,23,25,27,29,-1,-1,-1,-1,-1,-1,-1,-1,-1,-1,-1,-1,-1,-1,-1,-1],"loss_changes":[5.7350296E1,2.028416E1,7.7387634E1,2.5212278E1,1.0730488E1,3.323427E1,1.0414432E2,1.5666709E0,4.9566975E0,3.0154686E1,3.450409E1,3.170395E-1,4.895244E1,1.2848674E2,1.3436546E2,0E0,0E0,0E0,0E0,0E0,0E0,0E0,0E0,0E0,0E0,0E0,0E0,0E0,0E0,0E0,0E0],"parents":[2147483647,0,0,1,1,2,2,3,3,4,4,5,5,6,6,7,7,8,8,9,9,10,10,11,11,12,12,13,13,14,14],"right_children":[2,4,6,8,10,12,14,16,18,20,22,24,26,28,30,-1,-1,-1,-1,-1,-1,-1,-1,-1,-1,-1,-1,-1,-1,-1,-1],"split_conditions":[9E0,2E0,2E0,4E0,6E0,1.1E1,1.2E1,2E0,8E0,8E0,7E0,1E1,1.7E1,3E0,3E0,2.4409152E-3,-2.926966E-2,6.1632663E-2,1.908465E-2,-1.6562177E-2,-6.319009E-2,7.003662E-3,-3.486278E-2,-6.3224696E-2,-5.185152E-2,1.3563118E-2,-4.4451654E-2,-2.535749E-2,3.8125876E-2,5.1496882E-2,-2.0338945E-2],"split_indices":[1,0,0,1,0,1,1,1,1,1,0,1,1,0,0,0,0,0,0,0,0,0,0,0,0,0,0,0,0,0,0],"split_type":[0,0,0,0,0,0,0,0,0,0,0,0,0,0,0,0,0,0,0,0,0,0,0,0,0,0,0,0,0,0,0],"sum_hessian":[6.39E3,1.757E3,4.633E3,2.17E2,1.54E3,8.14E2,3.819E3,1.01E2,1.16E2,7.43E2,7.97E2,2.14E2,6E2,2.121E3,1.698E3,1.9E1,8.2E1,6.9E1,4.7E1,5.59E2,1.84E2,4.46E2,3.51E2,7.3E1,1.41E2,3.55E2,2.45E2,3.9E2,1.731E3,3.2E2,1.378E3],"tree_param":{"num_deleted":"0","num_feature":"2","num_nodes":"31","size_leaf_vector":"1"}},{"base_weights":[-1.1540414E-3,2.5667513E-2,-2.996498E-1,-3.1844223E-1,4.782924E-2,-3.3266068E-1,3.0053213E-2,-2.555395E-1,-5.5793572E-2,9.564282E-2,-1.5684402E-1,-1.5947068E-1,-3.845632E-1,-3.5222884E-2,2.5027797E-2,2.1280251E-2,-5.671545E-4,-4.7275692E-2,2.0943864E-3,-2.0737093E-2,4.5311637E-3,-8.3978586E-2,-3.491566E-2],"categories":[],"categories_nodes":[],"categories_segments":[],"categories_sizes":[],"default_left":[0,0,0,0,0,0,0,0,0,0,0,0,0,0,0,0,0,0,0,0,0,0,0],"id":37,"left_children":[1,3,5,7,9,11,-1,13,-1,15,17,19,21,-1,-1,-1,-1,-1,-1,-1,-1,-1,-1],"loss_changes":[5.117481E1,4.4742107E1,1.054118E1,5.205429E0,5.3946533E1,4.433174E0,0E0,1.3928879E1,0E0,5.3036186E1,5.8646667E1,1.1570632E0,5.896057E0,0E0,0E0,0E0,0E0,0E0,0E0,0E0,0E0,0E0,0E0],"parents":[2147483647,0,0,1,1,2,2,3,3,4,4,5,5,7,7,9,9,10,10,11,11,12,12],"right_children":[2,4,6,8,10,12,-1,14,-1,16,18,20,22,-1,-1,-1,-1,-1,-1,-1,-1,-1,-1],"split_conditions":[7E0,4E0,1E1,6E0,1.8E1,4E0,3.0053213E-2,5E0,-5.5793572E-2,4E0,3E0,3E0,5E0,-3.5222884E-2,2.5027797E-2,2.1280251E-2,-5.671545E-4,-4.7275692E-2,2.0943864E-3,-2.0737093E-2,4.5311637E-3,-8.3978586E-2,-3.491566E-2],"split_indices":[0,1,1,0,1,1,0,0,0,0,0,1,1,0,0,0,0,0,0,0,0,0,0],"split_type":[0,0,0,0,0,0,0,0,0,0,0,0,0,0,0,0,0,0,0,0,0,0,0],"sum_hessian":[6.39E3,5.864E3,5.26E2,3.54E2,5.51E3,4.99E2,2.7E1,2.82E2,7.2E1,4.467E3,1.043E3,1.16E2,3.83E2,2.37E2,4.5E1,2.071E3,2.396E3,3.75E2,6.68E2,9.4E1,2.2E1,2.6E1,3.57E2],"tree_param":{"num_deleted":"0","num_feature":"2","num_nodes":"23","size_leaf_vector":"1"}},{"base_weights":[-1.0694603E-3,2.3085073E-2,-2.6988402E-1,4.1392438E-2,-3.3682618E-1,-2.9966462E-1,2.715514E-2,-2.014578E-1,7.338337E-2,-5.960054E-1,-1.7439799E-1,-1.4366214E-1,-3.4641626E-1,-1.1734261E-2,-3.6309723E-2,-1.2894303E-2,1.136931E-2,-5.2253462E-2,-6.85269E-2,-4.3294705E-3,-5.788967E-2,-1.8685205E-2,4.0977187E-3,-7.5891756E-2,-3.1433817E-2],"categories":[],"categories_nodes":[],"categories_segments":[],"categories_sizes":[],"default_left":[0,0,0,0,0,0,0,0,0,0,0,0,0,0,0,0,0,0,0,0,0,0,0,0,0],"id":38,"left_children":[1,3,5,7,9,11,-1,13,15,17,19,21,23,-1,-1,-1,-1,-1,-1,-1,-1,-1,-1,-1,-1],"loss_changes":[4.150357E1,3.8658585E1,8.578865E0,4.338137E1,1.1851894E1,3.59692E0,0E0,8.795006E0,4.024685E1,3.5677338E-1,9.308413E0,9.4068027E-1,4.8426247E0,0E0,0E0,0E0,0E0,0E0,0E0,0E0,0E0,0E0,0E0,0E0,0E0],"parents":[2147483647,0,0,1,1,2,2,3,3,4,4,5,5,7,7,8,8,9,9,10,10,11,11,12,12],"right_children":[2,4,6,8,10,12,-1,14,16,18,20,22,24,-1,-1,-1,-1,-1,-1,-1,-1,-1,-1,-1,-1],"split_conditions":[7E0,2.2E1,1E1,7E0,3E0,4E0,2.715514E-2,5E0,2E0,2E0,2.3E1,3E0,5E0,-1.1734261E-2,-3.6309723E-2,-1.2894303E-2,1.136931E-2,-5.2253462E-2,-6.85269E-2,-4.3294705E-3,-5.788967E-2,-1.8685205E-2,4.0977187E-3,-7.5891756E-2,-3.1433817E-2],"split_indices":[0,1,1,1,0,1,0,0,0,0,1,1,1,0,0,0,0,0,0,0,0,0,0,0,0],"split_type":[0,0,0,0,0,0,0,0,0,0,0,0,0,0,0,0,0,0,0,0,0,0,0,0,0],"sum_hessian":[6.39E3,5.864E3,5.26E2,5.581E3,2.83E2,4.99E2,2.7E1,6.49E2,4.932E3,1.08E2,1.75E2,1.16E2,3.83E2,4.28E2,2.21E2,8.19E2,4.113E3,6.3E1,4.5E1,1.33E2,4.2E1,9.4E1,2.2E1,2.6E1,3.57E2],"tree_param":{"num_deleted":"0","num_feature":"2","num_nodes":"25","size_leaf_vector":"1"}},{"base_weights":[-1.0140258E-3,-1.21754795E-1,4.4791605E-2,1.3493638E-1,-1.5798901E-1,-1.8935099E-1,9.4734386E-2,-1.6381614E-1,3.9423397E-1,-2.530889E-1,-6.912648E-2,-5.1294756E-1,-7.3273435E-2,2.2361504E-1,-6.628944E-2,6.669946E-3,-2.173884E-2,5.4651298E-2,1.6394727E-2,-1.4127358E-2,-5.901888E-2,-2.9753253E-2,5.288121E-3,-5.7814993E-2,-4.7535658E-2,1.1374306E-2,-3.4361735E-2,-2.6084809E-2,3.3285376E-2,-6.2437404E-2,7.585482E-3],"categories":[],"categories_nodes":[],"categories_segments":[],"categories_sizes":[],"default_left":[0,0,0,0,0,0,0,0,0,0,0,0,0,0,0,0,0,0,0,0,0,0,0,0,0,0,0,0,0,0,0],"id":39,"left_children":[1,3,5,7,9,11,13,15,17,19,21,23,25,27,29,-1,-1,-1,-1,-1,-1,-1,-1,-1,-1,-1,-1,-1,-1,-1,-1],"loss_changes":[3.535156E1,1.637248E1,5.420669E1,1.6952131E1,1.3005215E1,3.057569E1,7.9290726E1,1.2741218E0,4.013336E0,2.7960163E1,2.2253834E1,2.5214005E-1,3.0424906E1,1.1238759E2,1.348265E2,0E0,0E0,0E0,0E0,0E0,0E0,0E0,0E0,0E0,0E0,0E0,0E0,0E0,0E0,0E0,0E0],"parents":[2147483647,0,0,1,1,2,2,3,3,4,4,5,5,6,6,7,7,8,8,9,9,10,10,11,11,12,12,13,13,14,14],"right_children":[2,4,6,8,10,12,14,16,18,20,22,24,26,28,30,-1,-1,-1,-1,-1,-1,-1,-1,-1,-1,-1,-1,-1,-1,-1,-1],"split_conditions":[9E0,2E0,2E0,4E0,6E0,1.1E1,1.2E1,2E0,8E0,8E0,7E0,1E1,1.7E1,3E0,1.5E1,6.669946E-3,-2.173884E-2,5.4651298E-2,1.6394727E-2,-1.4127358E-2,-5.901888E-2,-2.9753253E-2,5.288121E-3,-5.7814993E-2,-4.7535658E-2,1.1374306E-2,-3.4361735E-2,-2.6084809E-2,3.3285376E-2,-6.2437404E-2,7.585482E-3],"split_indices":[1,0,0,1,0,1,1,1,1,1,1,1,1,0,1,0,0,0,0,0,0,0,0,0,0,0,0,0,0,0,0],"split_type":[0,0,0,0,0,0,0,0,0,0,0,0,0,0,0,0,0,0,0,0,0,0,0,0,0,0,0,0,0,0,0],"sum_hessian":[6.39E3,1.757E3,4.633E3,2.17E2,1.54E3,8.14E2,3.819E3,1.01E2,1.16E2,7.43E2,7.97E2,2.14E2,6E2,2.121E3,1.698E3,1.9E1,8.2E1,6.9E1,4.7E1,5.59E2,1.84E2,2.77E2,5.2E2,7.3E1,1.41E2,3.55E2,2.45E2,3.9E2,1.731E3,3.44E2,1.354E3],"tree_param":{"num_deleted":"0","num_feature":"2","num_nodes":"31","size_leaf_vector":"1"}},{"base_weights":[-9.4654236E-4,2.1271348E-2,-2.4820836E-1,4.3642342E-2,-2.2809578E-1,-2.7355474E-1,2.1326993E-2,-1.6876163E-1,7.2797164E-2,-3.540843E-1,-7.961551E-2,-9.992159E-2,-3.257462E-1,-9.870299E-3,-3.0338502E-2,-9.710296E-3,1.0623483E-2,-2.6580816E-2,-4.146596E-2,2.7765264E-3,-5.2976217E-2,-1.3892337E-2,6.551709E-3,-6.57185E-2,-2.998395E-2],"categories":[],"categories_nodes":[],"categories_segments":[],"categories_sizes":[],"default_left":[0,0,0,0,0,0,0,0,0,0,0,0,0,0,0,0,0,0,0,0,0,0,0,0,0],"id":40,"left_children":[1,3,5,7,9,11,-1,13,15,17,19,21,23,-1,-1,-1,-1,-1,-1,-1,-1,-1,-1,-1,-1],"loss_changes":[3.511511E1,3.2728386E1,6.2225456E0,3.3347054E1,9.0072E0,4.498539E0,0E0,6.1005497E0,2.6904467E1,1.2854385E0,1.0793882E1,7.6403296E-1,3.1001625E0,0E0,0E0,0E0,0E0,0E0,0E0,0E0,0E0,0E0,0E0,0E0,0E0],"parents":[2147483647,0,0,1,1,2,2,3,3,4,4,5,5,7,7,8,8,9,9,10,10,11,11,12,12],"right_children":[2,4,6,8,10,12,-1,14,16,18,20,22,24,-1,-1,-1,-1,-1,-1,-1,-1,-1,-1,-1,-1],"split_conditions":[7E0,2.1E1,1E1,7E0,4E0,4E0,2.1326993E-2,5E0,2E0,2.2E1,2.3E1,3E0,5E0,-9.870299E-3,-3.0338502E-2,-9.710296E-3,1.0623483E-2,-2.6580816E-2,-4.146596E-2,2.7765264E-3,-5.2976217E-2,-1.3892337E-2,6.551709E-3,-6.57185E-2,-2.998395E-2],"split_indices":[0,1,1,1,0,1,0,0,0,1,1,1,1,0,0,0,0,0,0,0,0,0,0,0,0],"split_type":[0,0,0,0,0,0,0,0,0,0,0,0,0,0,0,0,0,0,0,0,0,0,0,0,0],"sum_hessian":[6.39E3,5.864E3,5.26E2,5.382E3,4.82E2,4.99E2,2.7E1,6.49E2,4.733E3,2.6E2,2.22E2,1.16E2,3.83E2,4.28E2,2.21E2,7.78E2,3.955E3,1.08E2,1.52E2,1.8E2,4.2E1,9.4E1,2.2E1,2.6E1,3.57E2],"tree_param":{"num_deleted":"0","num_feature":"2","num_nodes":"25","size_leaf_vector":"1"}},{"base_weights":[-8.896056E-4,6.0279362E-2,-8.9067906E-2,1.20349765E-1,-3.270389E-1,-4.840944E-1,-6.4104423E-3,-1.1868371E-1,2.9165247E-1,-2.6756987E-1,-5.0103265E-1,-1.5115719E-1,-1.3101526E0,2.2383073E-1,-2.5315416E-1,-3.9353255E-2,1.1813256E-2,-8.821082E-3,4.72524E-2,-1.9533535E-2,-3.7346464E-2,-2.515106E-1,-1.6991235E-2,-1.2718536E-2,-4.909799E-2,-1.467596E-1,-9.325903E-2,9.452699E-2,1.0306177E-3,-3.6439624E-2,3.8383186E-2],"categories":[],"categories_nodes":[],"categories_segments":[],"categories_sizes":[],"default_left":[0,0,0,0,0,0,0,0,0,0,0,0,0,0,0,0,0,0,0,0,0,0,0,0,0,0,0,0,0,0,0],"id":41,"left_children":[1,3,5,7,9,11,13,15,17,19,21,23,25,27,29,-1,-1,-1,-1,-1,-1,-1,-1,-1,-1,-1,-1,-1,-1,-1,-1],"loss_changes":[3.447699E1,8.784663E1,8.5479546E1,1.3384967E2,5.111992E0,1.2438853E2,1.2310834E2,8.889252E1,1.3085876E2,2.833767E0,8.493592E1,2.5769134E0,6.359146E0,1.7267465E2,7.425905E1,0E0,0E0,0E0,0E0,0E0,0E0,0E0,0E0,0E0,0E0,0E0,0E0,0E0,0E0,0E0,0E0],"parents":[2147483647,0,0,1,1,2,2,3,3,4,4,5,5,6,6,7,7,8,8,9,9,10,10,11,11,12,12,13,13,14,14],"right_children":[2,4,6,8,10,12,14,16,18,20,22,24,26,28,30,-1,-1,-1,-1,-1,-1,-1,-1,-1,-1,-1,-1,-1,-1,-1,-1],"split_conditions":[5E0,2E1,8E0,1E1,4E0,6E0,1E1,3E0,2E0,2.2E1,2.1E1,5E0,6E0,6E0,2E1,-3.9353255E-2,1.1813256E-2,-8.821082E-3,4.72524E-2,-1.9533535E-2,-3.7346464E-2,-2.515106E-1,-1.6991235E-2,-1.2718536E-2,-4.909799E-2,-1.467596E-1,-9.325903E-2,9.452699E-2,1.0306177E-3,-3.6439624E-2,3.8383186E-2],"split_indices":[0,1,1,1,0,1,1,0,0,1,1,1,0,0,1,0,0,0,0,0,0,0,0,0,0,0,0,0,0,0,0],"split_type":[0,0,0,0,0,0,0,0,0,0,0,0,0,0,0,0,0,0,0,0,0,0,0,0,0,0,0,0,0,0,0],"sum_hessian":[6.39E3,3.773E3,2.617E3,3.267E3,5.06E2,4.52E2,2.165E3,1.364E3,1.903E3,3.79E2,1.27E2,3.23E2,1.29E2,1.12E3,1.045E3,6.31E2,7.33E2,6.14E2,1.289E3,2.27E2,1.52E2,1.7E1,1.1E2,3.03E2,2E1,8.9E1,4E1,2.55E2,8.65E2,8.9E2,1.55E2],"tree_param":{"num_deleted":"0","num_feature":"2","num_nodes":"31","size_leaf_vector":"1"}},{"base_weights":[-8.818847E-4,5.4167844E-2,-8.0238946E-2,1.0831783E-1,-2.949768E-1,-4.363513E-1,-5.7241134E-3,-1.0683615E-1,2.6250735E-1,-2.409627E-1,-4.5302665E-1,-1.3623212E-1,-1.180984E0,1.3505389E-1,-3.60979E-1,2.052962E-2,-3.2030918E-2,-7.940367E-3,4.2530797E-2,-1.7588763E-2,-3.363624E-2,-2.2775681E-1,-1.5307373E-2,-1.1450852E-2,-4.4421986E-2,-1.3224676E-1,-8.4160596E-2,2.5704665E-2,-2.3539439E-2,-1.5313719E-1,-1.6003536E-2],"categories":[],"categories_nodes":[],"categories_segments":[],"categories_sizes":[],"default_left":[0,0,0,0,0,0,0,0,0,0,0,0,0,0,0,0,0,0,0,0,0,0,0,0,0,0,0,0,0,0,0],"id":42,"left_children":[1,3,5,7,9,11,13,15,17,19,21,23,25,27,29,-1,-1,-1,-1,-1,-1,-1,-1,-1,-1,-1,-1,-1,-1,-1,-1],"loss_changes":[2.792397E1,7.1383865E1,6.946784E1,1.08442276E2,4.219055E0,1.010749E2,1.0837491E2,9.101822E1,1.06016754E2,2.2999325E0,6.970277E1,2.1168885E0,5.1291504E0,7.01985E1,1.4439249E2,0E0,0E0,0E0,0E0,0E0,0E0,0E0,0E0,0E0,0E0,0E0,0E0,0E0,0E0,0E0,0E0],"parents":[2147483647,0,0,1,1,2,2,3,3,4,4,5,5,6,6,7,7,8,8,9,9,10,10,11,11,12,12,13,13,14,14],"right_children":[2,4,6,8,10,12,14,16,18,20,22,24,26,28,30,-1,-1,-1,-1,-1,-1,-1,-1,-1,-1,-1,-1,-1,-1,-1,-1],"split_conditions":[5E0,2E1,8E0,1E1,4E0,6E0,1.4E1,8E0,2E0,2.2E1,2.1E1,5E0,6E0,7E0,1.5E1,2.052962E-2,-3.2030918E-2,-7.940367E-3,4.2530797E-2,-1.7588763E-2,-3.363624E-2,-2.2775681E-1,-1.5307373E-2,-1.1450852E-2,-4.4421986E-2,-1.3224676E-1,-8.4160596E-2,2.5704665E-2,-2.3539439E-2,-1.5313719E-1,-1.6003536E-2],"split_indices":[0,1,1,1,0,1,1,1,0,1,1,1,0,0,1,0,0,0,0,0,0,0,0,0,0,0,0,0,0,0,0],"split_type":[0,0,0,0,0,0,0,0,0,0,0,0,0,0,0,0,0,0,0,0,0,0,0,0,0,0,0,0,0,0,0],"sum_hessian":[6.39E3,3.773E3,2.617E3,3.267E3,5.06E2,4.52E2,2.165E3,1.364E3,1.903E3,3.79E2,1.27E2,3.23E2,1.29E2,1.551E3,6.14E2,5.54E2,8.1E2,6.14E2,1.289E3,2.27E2,1.52E2,1.7E1,1.1E2,3.03E2,2E1,8.9E1,4E1,1.167E3,3.84E2,8.9E1,5.25E2],"tree_param":{"num_deleted":"0","num_feature":"2","num_nodes":"31","size_leaf_vector":"1"}},{"base_weights":[-9.049989E-4,4.8679266E-2,-7.238327E-2,9.74932E-2,-2.6605964E-1,-3.933174E-1,-5.22928E-3,1.27048725E-2,4.4835827E-1,-2.1700127E-1,-4.09623E-1,-1.2278143E-1,-1.0645508E0,1.9153364E-1,-2.1609545E-1,-1.5777687E-2,1.9303266E-2,1.8996678E-2,1.16703235E-1,-1.5837612E-2,-3.0294597E-2,-2.0624648E-1,-1.37904305E-2,-1.0309543E-2,-4.0191304E-2,-1.1916909E-1,-7.594978E-2,8.2550794E-2,3.9020667E-4,-4.1620106E-2,9.038511E-3],"categories":[],"categories_nodes":[],"categories_segments":[],"categories_sizes":[],"default_left":[0,0,0,0,0,0,0,0,0,0,0,0,0,0,0,0,0,0,0,0,0,0,0,0,0,0,0,0,0,0,0],"id":43,"left_children":[1,3,5,7,9,11,13,15,17,19,21,23,25,27,29,-1,-1,-1,-1,-1,-1,-1,-1,-1,-1,-1,-1,-1,-1,-1,-1],"loss_changes":[2.2654491E1,5.800833E1,5.64211E1,9.721488E1,3.4818993E0,8.21308E1,8.9910126E1,8.09757E1,1.1788303E2,1.8666592E0,5.720141E1,1.7389398E0,4.136902E0,1.3334375E2,6.41872E1,0E0,0E0,0E0,0E0,0E0,0E0,0E0,0E0,0E0,0E0,0E0,0E0,0E0,0E0,0E0,0E0],"parents":[2147483647,0,0,1,1,2,2,3,3,4,4,5,5,6,6,7,7,8,8,9,9,10,10,11,11,12,12,13,13,14,14],"right_children":[2,4,6,8,10,12,14,16,18,20,22,24,26,28,30,-1,-1,-1,-1,-1,-1,-1,-1,-1,-1,-1,-1,-1,-1,-1,-1],"split_conditions":[5E0,2E1,8E0,1.4E1,4E0,6E0,1E1,3E0,4E0,2.2E1,2.1E1,5E0,6E0,6E0,6E0,-1.5777687E-2,1.9303266E-2,1.8996678E-2,1.16703235E-1,-1.5837612E-2,-3.0294597E-2,-2.0624648E-1,-1.37904305E-2,-1.0309543E-2,-4.0191304E-2,-1.1916909E-1,-7.594978E-2,8.2550794E-2,3.9020667E-4,-4.1620106E-2,9.038511E-3],"split_indices":[0,1,1,1,0,1,1,0,0,1,1,1,0,0,0,0,0,0,0,0,0,0,0,0,0,0,0,0,0,0,0],"split_type":[0,0,0,0,0,0,0,0,0,0,0,0,0,0,0,0,0,0,0,0,0,0,0,0,0,0,0,0,0,0,0],"sum_hessian":[6.39E3,3.773E3,2.617E3,3.267E3,5.06E2,4.52E2,2.165E3,2.632E3,6.35E2,3.79E2,1.27E2,3.23E2,1.29E2,1.12E3,1.045E3,1.353E3,1.279E3,4.68E2,1.67E2,2.27E2,1.52E2,1.7E1,1.1E2,3.03E2,2E1,8.9E1,4E1,2.55E2,8.65E2,6.32E2,4.13E2],"tree_param":{"num_deleted":"0","num_feature":"2","num_nodes":"31","size_leaf_vector":"1"}},{"base_weights":[-8.6481933E-4,1.6728438E-2,-1.966591E-1,-2.196521E-1,3.195224E-2,-2.2082095E-1,2.4182579E-2,-2.8025627E-3,-2.7674842E-1,6.9627374E-2,-9.719778E-2,-5.580784E-2,-2.705233E-1,1.9720273E-2,-3.455687E-2,-1.0354656E-2,-3.7335865E-2,2.6857534E-3,4.5823358E-2,-1.6969496E-2,-1.1878752E-3,-9.106119E-3,9.223026E-3,-5.6069832E-2,-2.4788296E-2],"categories":[],"categories_nodes":[],"categories_segments":[],"categories_sizes":[],"default_left":[0,0,0,0,0,0,0,0,0,0,0,0,0,0,0,0,0,0,0,0,0,0,0,0,0],"id":44,"left_children":[1,3,5,7,9,11,-1,13,15,17,19,21,23,-1,-1,-1,-1,-1,-1,-1,-1,-1,-1,-1,-1],"loss_changes":[2.2018108E1,2.1112865E1,5.636755E0,4.3945904E0,2.6821888E1,4.0856743E0,0E0,5.2097754E0,4.663334E0,7.090791E1,7.6987934E0,6.190028E-1,2.3837643E0,0E0,0E0,0E0,0E0,0E0,0E0,0E0,0E0,0E0,0E0,0E0,0E0],"parents":[2147483647,0,0,1,1,2,2,3,3,4,4,5,5,7,7,8,8,9,9,10,10,11,11,12,12],"right_children":[2,4,6,8,10,12,-1,14,16,18,20,22,24,-1,-1,-1,-1,-1,-1,-1,-1,-1,-1,-1,-1],"split_conditions":[7E0,4E0,1E1,1E0,1.7E1,4E0,2.4182579E-2,6E0,2E0,1.5E1,4E0,3E0,5E0,1.9720273E-2,-3.455687E-2,-1.0354656E-2,-3.7335865E-2,2.6857534E-3,4.5823358E-2,-1.6969496E-2,-1.1878752E-3,-9.106119E-3,9.223026E-3,-5.6069832E-2,-2.4788296E-2],"split_indices":[0,1,1,1,1,1,0,0,0,1,0,1,1,0,0,0,0,0,0,0,0,0,0,0,0],"split_type":[0,0,0,0,0,0,0,0,0,0,0,0,0,0,0,0,0,0,0,0,0,0,0,0,0],"sum_hessian":[6.39E3,5.864E3,5.26E2,3.54E2,5.51E3,4.99E2,2.7E1,7.4E1,2.8E2,4.266E3,1.244E3,1.16E2,3.83E2,4.7E1,2.7E1,1.01E2,1.79E2,3.844E3,4.22E2,6.72E2,5.72E2,9.4E1,2.2E1,2.6E1,3.57E2],"tree_param":{"num_deleted":"0","num_feature":"2","num_nodes":"25","size_leaf_vector":"1"}},{"base_weights":[-7.9211505E-4,4.346317E-2,-6.458839E-2,8.540906E-2,-2.2699568E-1,1.1898463E-2,-3.137186E-1,-9.79676E-2,2.1682909E-1,-1.7849758E-1,-3.69201E-1,-3.444316E-1,1.15896925E-1,-1.365638E0,-1.3313596E-1,1.917199E-2,-2.9609164E-2,-6.979454E-3,3.5330717E-2,-1.257127E-2,-2.5599077E-2,-1.8665543E-1,-1.2306081E-2,-9.547385E-3,-9.622615E-2,2.1716325E-2,-1.9162245E-2,-1.5898965E-1,-1.0950518E-1,-3.5868928E-2,4.041296E-2],"categories":[],"categories_nodes":[],"categories_segments":[],"categories_sizes":[],"default_left":[0,0,0,0,0,0,0,0,0,0,0,0,0,0,0,0,0,0,0,0,0,0,0,0,0,0,0,0,0,0,0],"id":45,"left_children":[1,3,5,7,9,11,13,15,17,19,21,23,25,27,29,-1,-1,-1,-1,-1,-1,-1,-1,-1,-1,-1,-1,-1,-1,-1,-1],"loss_changes":[1.8046661E1,4.283405E1,4.9890213E1,7.877797E1,3.4307175E0,7.43037E1,1.1664256E2,7.839966E1,7.450502E1,1.5221977E0,4.6945824E1,6.958566E1,4.8372997E1,3.7203064E0,6.3886703E1,0E0,0E0,0E0,0E0,0E0,0E0,0E0,0E0,0E0,0E0,0E0,0E0,0E0,0E0,0E0,0E0],"parents":[2147483647,0,0,1,1,2,2,3,3,4,4,5,5,6,6,7,7,8,8,9,9,10,10,11,11,12,12,13,13,14,14],"right_children":[2,4,6,8,10,12,14,16,18,20,22,24,26,28,30,-1,-1,-1,-1,-1,-1,-1,-1,-1,-1,-1,-1,-1,-1,-1,-1],"split_conditions":[5E0,2E1,1.4E1,1E1,4E0,8E0,1.5E1,8E0,2E0,2.2E1,2.1E1,6E0,7E0,6E0,2E1,1.917199E-2,-2.9609164E-2,-6.979454E-3,3.5330717E-2,-1.257127E-2,-2.5599077E-2,-1.8665543E-1,-1.2306081E-2,-9.547385E-3,-9.622615E-2,2.1716325E-2,-1.9162245E-2,-1.5898965E-1,-1.0950518E-1,-3.5868928E-2,4.041296E-2],"split_indices":[0,1,1,1,0,1,1,1,0,1,1,1,0,0,1,0,0,0,0,0,0,0,0,0,0,0,0,0,0,0,0],"split_type":[0,0,0,0,0,0,0,0,0,0,0,0,0,0,0,0,0,0,0,0,0,0,0,0,0,0,0,0,0,0,0],"sum_hessian":[6.39E3,3.773E3,2.617E3,3.267E3,5.06E2,2.003E3,6.14E2,1.364E3,1.903E3,3.79E2,1.27E2,4.52E2,1.551E3,8.9E1,5.25E2,5.54E2,8.1E2,6.14E2,1.289E3,2.27E2,1.52E2,1.7E1,1.1E2,3.23E2,1.29E2,1.167E3,3.84E2,4.6E1,4.3E1,3.7E2,1.55E2],"tree_param":{"num_deleted":"0","num_feature":"2","num_nodes":"31","size_leaf_vector":"1"}},{"base_weights":[-8.046122E-4,5.3401943E-2,-4.3680575E-2,1.318663E-1,-2.6462165E-1,7.295242E-4,-1.469875E-1,4.0586464E-2,5.8029467E-1,-1.1391054E0,-9.881764E-2,-2.7527189E-2,4.136262E-1,-8.64533E-1,7.545584E-2,-1.726755E-2,4.9689945E-2,9.817599E-2,-5.3532757E-2,4.255328E-3,-1.527748E-1,1.5805691E-2,-1.6074827E-2,1.118077E-3,-1.6056571E-2,-1.4287146E-3,1.0232949E-1,-1.5535043E-1,3.705628E-3,4.2337485E-2,-1.1981328E-2],"categories":[],"categories_nodes":[],"categories_segments":[],"categories_sizes":[],"default_left":[0,0,0,0,0,0,0,0,0,0,0,0,0,0,0,0,0,0,0,0,0,0,0,0,0,0,0,0,0,0,0],"id":46,"left_children":[1,3,5,7,9,11,13,15,17,19,21,23,25,27,29,-1,-1,-1,-1,-1,-1,-1,-1,-1,-1,-1,-1,-1,-1,-1,-1],"loss_changes":[1.4856029E1,7.047868E1,1.6374218E1,9.2688484E1,8.093848E1,2.914414E1,1.713302E2,1.8332843E2,1.7206493E2,4.0937614E1,7.5182657E0,1.2041675E1,4.1756283E1,1.5783455E2,5.575975E1,0E0,0E0,0E0,0E0,0E0,0E0,0E0,0E0,0E0,0E0,0E0,0E0,0E0,0E0,0E0,0E0],"parents":[2147483647,0,0,1,1,2,2,3,3,4,4,5,5,6,6,7,7,8,8,9,9,10,10,11,11,12,12,13,13,14,14],"right_children":[2,4,6,8,10,12,14,16,18,20,22,24,26,28,30,-1,-1,-1,-1,-1,-1,-1,-1,-1,-1,-1,-1,-1,-1,-1,-1],"split_conditions":[4E0,1.8E1,1.2E1,1.3E1,1.9E1,1.1E1,1.5E1,3E0,3E0,2E0,2E1,7E0,6E0,6E0,5E0,-1.726755E-2,4.9689945E-2,9.817599E-2,-5.3532757E-2,4.255328E-3,-1.527748E-1,1.5805691E-2,-1.6074827E-2,1.118077E-3,-1.6056571E-2,-1.4287146E-3,1.0232949E-1,-1.5535043E-1,3.705628E-3,4.2337485E-2,-1.1981328E-2],"split_indices":[0,1,1,1,1,1,1,0,0,0,1,0,0,0,0,0,0,0,0,0,0,0,0,0,0,0,0,0,0,0,0],"split_type":[0,0,0,0,0,0,0,0,0,0,0,0,0,0,0,0,0,0,0,0,0,0,0,0,0,0,0,0,0,0,0],"sum_hessian":[6.39E3,2.822E3,3.568E3,2.264E3,5.58E2,2.496E3,1.072E3,1.882E3,3.82E2,8.8E1,4.7E2,2.337E3,1.59E2,2.53E2,8.19E2,1.283E3,5.99E2,2.81E2,1.01E2,2.2E1,6.6E1,9.1E1,3.79E2,1.811E3,5.26E2,9.4E1,6.5E1,1.43E2,1.1E2,2.94E2,5.25E2],"tree_param":{"num_deleted":"0","num_feature":"2","num_nodes":"31","size_leaf_vector":"1"}},{"base_weights":[-7.408036E-4,-1.7844121E-1,1.1343542E-2,-3.1314373E-1,-2.2948617E-2,7.187203E-2,-3.6741547E-2,-1.4870308E-1,-4.0928236E-1,3.5478523E-1,-1.4262316E-1,1.547518E-1,-2.3842551E-1,8.61187E-3,-1.3240175E-1,1.1063882E-2,-2.2867348E-2,-5.713596E-3,-4.8356887E-2,4.2147685E-2,2.6976854E-2,-2.998486E-2,-5.6716627E-3,7.2320574E-3,5.2238267E-2,-1.0268637E-1,-8.893629E-3,-1.9081141E-3,3.7289422E-2,-7.786773E-2,6.79475E-3],"categories":[],"categories_nodes":[],"categories_segments":[],"categories_sizes":[],"default_left":[0,0,0,0,0,0,0,0,0,0,0,0,0,0,0,0,0,0,0,0,0,0,0,0,0,0,0,0,0,0,0],"id":47,"left_children":[1,3,5,7,9,11,13,15,17,19,21,23,25,27,29,-1,-1,-1,-1,-1,-1,-1,-1,-1,-1,-1,-1,-1,-1,-1,-1],"loss_changes":[1.3726013E1,8.5175295E0,1.742209E1,3.385521E0,8.639574E0,6.8187965E1,1.4474432E1,1.7259535E0,3.5562553E0,1.4711428E-1,1.9414637E0,6.3358746E1,6.5794106E1,2.2846514E1,1.3898581E2,0E0,0E0,0E0,0E0,0E0,0E0,0E0,0E0,0E0,0E0,0E0,0E0,0E0,0E0,0E0,0E0],"parents":[2147483647,0,0,1,1,2,2,3,3,4,4,5,5,6,6,7,7,8,8,9,9,10,10,11,11,12,12,13,13,14,14],"right_children":[2,4,6,8,10,12,14,16,18,20,22,24,26,28,30,-1,-1,-1,-1,-1,-1,-1,-1,-1,-1,-1,-1,-1,-1,-1,-1],"split_conditions":[3E0,5E0,4E0,2E0,6E0,1.8E1,1.2E1,2E0,1E0,1E0,7E0,1.3E1,1.9E1,1.1E1,1.5E1,1.1063882E-2,-2.2867348E-2,-5.713596E-3,-4.8356887E-2,4.2147685E-2,2.6976854E-2,-2.998486E-2,-5.6716627E-3,7.2320574E-3,5.2238267E-2,-1.0268637E-1,-8.893629E-3,-1.9081141E-3,3.7289422E-2,-7.786773E-2,6.79475E-3],"split_indices":[1,0,0,0,0,1,1,1,1,1,0,1,1,1,1,0,0,0,0,0,0,0,0,0,0,0,0,0,0,0,0],"split_type":[0,0,0,0,0,0,0,0,0,0,0,0,0,0,0,0,0,0,0,0,0,0,0,0,0,0,0,0,0,0,0],"sum_hessian":[6.39E3,4.06E2,5.984E3,2.17E2,1.89E2,2.649E3,3.335E3,8.1E1,1.36E2,4.5E1,1.44E2,2.091E3,5.58E2,2.263E3,1.072E3,1.9E1,6.2E1,2.4E1,1.12E2,2.3E1,2.2E1,5E1,9.4E1,1.709E3,3.82E2,8.8E1,4.7E2,2.104E3,1.59E2,2.53E2,8.19E2],"tree_param":{"num_deleted":"0","num_feature":"2","num_nodes":"31","size_leaf_vector":"1"}},{"base_weights":[-6.857844E-4,3.670399E-3,-4.313927E-1,-1.2072658E-1,1.9288503E-2,-5.5614565E-2,-1.05537236E-1,-2.4109861E-1,-3.170364E-2,8.0056906E-2,-2.945312E-2,-3.1420883E-2,2.3161983E-2,-1.16992E-2,-5.3875327E-2,1.4456621E-2,-7.7305376E-3,-2.462996E-3,3.0417288E-2,-6.9442005E-3,9.10654E-3],"categories":[],"categories_nodes":[],"categories_segments":[],"categories_sizes":[],"default_left":[0,0,0,0,0,0,0,0,0,0,0,0,0,0,0,0,0,0,0,0,0],"id":48,"left_children":[1,3,5,7,9,11,-1,13,15,17,19,-1,-1,-1,-1,-1,-1,-1,-1,-1,-1],"loss_changes":[1.1992622E1,1.2296651E1,1.4947892E1,7.557762E0,1.6657404E1,3.1181407E0,0E0,1.1019243E1,3.282728E0,5.873287E1,1.5047676E1,0E0,0E0,0E0,0E0,0E0,0E0,0E0,0E0,0E0,0E0],"parents":[2147483647,0,0,1,1,2,2,3,3,4,4,5,5,7,7,8,8,9,9,10,10],"right_children":[2,4,6,8,10,12,-1,14,16,18,20,-1,-1,-1,-1,-1,-1,-1,-1,-1,-1],"split_conditions":[2.3E1,6E0,5E0,4E0,4E0,2E0,-1.05537236E-1,3E0,5E0,3E0,1.5E1,-3.1420883E-2,2.3161983E-2,-1.16992E-2,-5.3875327E-2,1.4456621E-2,-7.7305376E-3,-2.462996E-3,3.0417288E-2,-6.9442005E-3,9.10654E-3],"split_indices":[1,1,0,0,0,0,0,0,0,0,1,0,0,0,0,0,0,0,0,0,0],"split_type":[0,0,0,0,0,0,0,0,0,0,0,0,0,0,0,0,0,0,0,0,0],"sum_hessian":[6.39E3,6.327E3,6.3E1,7.05E2,5.622E3,4E1,2.3E1,2.99E2,4.06E2,2.502E3,3.12E3,2.1E1,1.9E1,2.12E2,8.7E1,8.3E1,3.23E2,1.706E3,7.96E2,2.343E3,7.77E2],"tree_param":{"num_deleted":"0","num_feature":"2","num_nodes":"21","size_leaf_vector":"1"}},{"base_weights":[-6.393283E-4,2.0331496E-2,-8.733507E-2,-9.915691E-3,3.5815096E-1,-7.087153E-2,-3.900314E-1,1.0677E-2,-1.070558E0,1.595666E0,-1.1464195E-1,-2.1727191E-1,-3.641333E-2,-5.0254483E-2,-9.542323E-2,-1.3775808E-2,7.1892478E-3,-1.1992383E-1,-9.08773E-2,4.9957752E-2,3.0544332E-1,-1.61321E-1,2.483771E-2,-7.292188E-2,-7.4318983E-3,-1.7213796E-3,-2.4407728E-2,-2.8421609E-2,2.09616E-2],"categories":[],"categories_nodes":[],"categories_segments":[],"categories_sizes":[],"default_left":[0,0,0,0,0,0,0,0,0,0,0,0,0,0,0,0,0,0,0,0,0,0,0,0,0,0,0,0,0],"id":49,"left_children":[1,3,5,7,9,11,13,15,17,19,21,23,25,27,-1,-1,-1,-1,-1,-1,-1,-1,-1,-1,-1,-1,-1,-1,-1],"loss_changes":[1.1621133E1,5.2596054E1,6.176755E0,1.0321241E2,2.476753E2,5.954917E0,1.2221002E1,4.213503E1,7.8382874E-1,1.8554984E2,1.6741135E2,1.6412273E1,3.815394E0,2.5523643E0,0E0,0E0,0E0,0E0,0E0,0E0,0E0,0E0,0E0,0E0,0E0,0E0,0E0,0E0,0E0],"parents":[2147483647,0,0,1,1,2,2,3,3,4,4,5,5,6,6,7,7,8,8,9,9,10,10,11,11,12,12,13,13],"right_children":[2,4,6,8,10,12,14,16,18,20,22,24,26,28,-1,-1,-1,-1,-1,-1,-1,-1,-1,-1,-1,-1,-1,-1,-1],"split_conditions":[1.7E1,1.5E1,2.3E1,1.4E1,3E0,2E0,5E0,3E0,6E0,2E0,4E0,1.8E1,6E0,2E0,-9.542323E-2,-1.3775808E-2,7.1892478E-3,-1.1992383E-1,-9.08773E-2,4.9957752E-2,3.0544332E-1,-1.61321E-1,2.483771E-2,-7.292188E-2,-7.4318983E-3,-1.7213796E-3,-2.4407728E-2,-2.8421609E-2,2.09616E-2],"split_indices":[1,1,1,1,0,0,0,0,0,0,0,1,0,0,0,0,0,0,0,0,0,0,0,0,0,0,0,0,0],"split_type":[0,0,0,0,0,0,0,0,0,0,0,0,0,0,0,0,0,0,0,0,0,0,0,0,0,0,0,0,0],"sum_hessian":[6.39E3,5.146E3,1.244E3,4.724E3,4.22E2,1.181E3,6.3E1,4.635E3,8.9E1,1.16E2,3.06E2,2.24E2,9.57E2,4E1,2.3E1,1.353E3,3.282E3,4.6E1,4.3E1,6.7E1,4.9E1,5.9E1,2.47E2,4.8E1,1.76E2,8.77E2,8E1,2.1E1,1.9E1],"tree_param":{"num_deleted":"0","num_feature":"2","num_nodes":"29","size_leaf_vector":"1"}}]},"name":"gbtree"},"learner_model_param":{"base_score":"[1.5831612E1]","boost_from_average":"1","num_class":"0","num_feature":"2","num_target":"1"},"objective":{"name":"reg:squarederror","reg_loss_param":{"scale_pos_weight":"1"}}},"version":[3,2,0]}