{"learner":{"attributes":{},"feature_names":["day_of_week","hour_of_day"],"feature_types":[],"gradient_booster":{"model":{"cats":{"enc":[],"feature_segments":[],"sorted_idx":[]},"gbtree_model_param":{"num_parallel_tree":"1","num_trees":"50"},"iteration_indptr":[0,1,2,3,4,5,6,7,8,9,10,11,12,13,14,15,16,17,18,19,20,21,22,23,24,25,26,27,28,29,30,31,32,33,34,35,36,37,38,39,40,41,42,43,44,45,46,47,48,49,50],"tree_info":[0,0,0,0,0,0,0,0,0,0,0,0,0,0,0,0,0,0,0,0,0,0,0,0,0,0,0,0,0,0,0,0,0,0,0,0,0,0,0,0,0,0,0,0,0,0,0,0,0,0],"trees":[{"base_weights":[9.0692293E-7,-1.2663787E1,8.9303416E-1,-1.3157189E1,-9.180315E0,1.9433118E0,-6.2355247E0,-1.4157844E0,-1.1814699E0,-4.6578828E-1,-1.0965104E0,-4.2560476E-1,2.97184E0,-4.207701E0,-9.734665E0,4.7023382E-2,-4.1183695E-1,3.1173256E-1,-4.14144E-2,-6.015746E-1,-1.704099E-1,-1.2772893E0,-5.954154E-1],"categories":[],"categories_nodes":[],"categories_segments":[],"categories_sizes":[],"default_left":[0,0,0,0,0,0,0,0,0,0,0,0,0,0,0,0,0,0,0,0,0,0,0],"id":0,"left_children":[1,3,5,7,9,11,13,-1,-1,-1,-1,15,17,19,21,-1,-1,-1,-1,-1,-1,-1,-1],"loss_changes":[7.983152E4,6.784375E2,4.938117E4,3.7678906E2,4.4129248E2,1.400625E4,5.969043E3,0E0,0E0,0E0,0E0,5.761376E3,1.9756836E3,2.4250723E3,3.484621E3,0E0,0E0,0E0,0E0,0E0,0E0,0E0,0E0],"parents":[2147483647,0,0,1,1,2,2,3,3,4,4,5,5,6,6,11,11,12,12,13,13,14,14],"right_children":[2,4,6,8,10,12,14,-1,-1,-1,-1,16,18,20,22,-1,-1,-1,-1,-1,-1,-1,-1],"split_conditions":[4E0,3E0,1.9E1,5E0,2E0,9E0,2.2E1,-1.4157844E0,-1.1814699E0,-4.6578828E-1,-1.0965104E0,7E0,7E0,4E0,4E0,4.7023382E-2,-4.1183695E-1,3.1173256E-1,-4.14144E-2,-6.015746E-1,-1.704099E-1,-1.2772893E0,-5.954154E-1],"split_indices":[1,1,1,0,0,1,1,0,0,0,0,0,0,0,0,0,0,0,0,0,0,0,0],"split_type":[0,0,0,0,0,0,0,0,0,0,0,0,0,0,0,0,0,0,0,0,0,0,0],"sum_hessian":[7.057E3,4.64E2,6.593E3,4.04E2,6E1,5.747E3,8.46E2,2.26E2,1.78E2,1.8E1,4.2E1,1.74E3,4.007E3,5.37E2,3.09E2,1.401E3,3.39E2,3.842E3,1.65E2,3.11E2,2.26E2,1.7E2,1.39E2],"tree_param":{"num_deleted":"0","num_feature":"2","num_nodes":"23","size_leaf_vector":"1"}},{"base_weights":[-9.770573E-4,-1.1406353E1,8.0331486E-1,-1.1847882E1,-8.287896E0,1.7489636E0,-5.615094E0,-1.2748296E0,-1.063983E0,-4.21661E-1,-9.8940945E-1,-3.832542E-1,2.6747227E0,-3.7883656E0,-8.76724E0,1.6036285E-1,-1.7992882E-1,2.8056735E-1,-3.7297923E-2,-5.4160994E-1,-1.5344395E-1,-1.1503072E0,-5.3629917E-1],"categories":[],"categories_nodes":[],"categories_segments":[],"categories_sizes":[],"default_left":[0,0,0,0,0,0,0,0,0,0,0,0,0,0,0,0,0,0,0,0,0,0,0],"id":1,"left_children":[1,3,5,7,9,11,13,-1,-1,-1,-1,15,17,19,21,-1,-1,-1,-1,-1,-1,-1,-1],"loss_changes":[6.4753973E4,5.420586E2,4.0032504E4,3.0489844E2,3.5717773E2,1.1347117E4,4.84391E3,0E0,0E0,0E0,0E0,4.9011777E3,1.6006367E3,1.9654985E3,2.8254785E3,0E0,0E0,0E0,0E0,0E0,0E0,0E0,0E0],"parents":[2147483647,0,0,1,1,2,2,3,3,4,4,5,5,6,6,11,11,12,12,13,13,14,14],"right_children":[2,4,6,8,10,12,14,-1,-1,-1,-1,16,18,20,22,-1,-1,-1,-1,-1,-1,-1,-1],"split_conditions":[4E0,3E0,1.9E1,5E0,2E0,9E0,2.2E1,-1.2748296E0,-1.063983E0,-4.21661E-1,-9.8940945E-1,5E0,7E0,4E0,4E0,1.6036285E-1,-1.7992882E-1,2.8056735E-1,-3.7297923E-2,-5.4160994E-1,-1.5344395E-1,-1.1503072E0,-5.3629917E-1],"split_indices":[1,1,1,0,0,1,1,0,0,0,0,0,0,0,0,0,0,0,0,0,0,0,0],"split_type":[0,0,0,0,0,0,0,0,0,0,0,0,0,0,0,0,0,0,0,0,0,0,0],"sum_hessian":[7.057E3,4.64E2,6.593E3,4.04E2,6E1,5.747E3,8.46E2,2.26E2,1.78E2,1.8E1,4.2E1,1.74E3,4.007E3,5.37E2,3.09E2,7.24E2,1.016E3,3.842E3,1.65E2,3.11E2,2.26E2,1.7E2,1.39E2],"tree_param":{"num_deleted":"0","num_feature":"2","num_nodes":"23","size_leaf_vector":"1"}},{"base_weights":[-1.7162253E-3,-1.0273782E1,7.2265625E-1,-1.0668869E1,-7.4822383E0,1.5741063E0,-5.0563965E0,-1.1479082E0,-9.58179E-1,-3.8171414E-1,-8.9276946E-1,-3.4493983E-1,2.4073112E0,-3.410821E0,-7.895956E0,4.2731594E-2,-3.5283446E-1,2.5251794E-1,-3.359057E-2,-4.8762256E-1,-1.3816713E-1,-1.0359491E0,-4.830524E-1],"categories":[],"categories_nodes":[],"categories_segments":[],"categories_sizes":[],"default_left":[0,0,0,0,0,0,0,0,0,0,0,0,0,0,0,0,0,0,0,0,0,0,0],"id":2,"left_children":[1,3,5,7,9,11,13,-1,-1,-1,-1,15,17,19,21,-1,-1,-1,-1,-1,-1,-1,-1],"loss_changes":[5.25246E4,4.3302344E2,3.2454234E4,2.4671875E2,2.8908374E2,9.1916455E3,3.9308516E3,0E0,0E0,0E0,0E0,4.281587E3,1.2967852E3,1.593019E3,2.2910156E3,0E0,0E0,0E0,0E0,0E0,0E0,0E0,0E0],"parents":[2147483647,0,0,1,1,2,2,3,3,4,4,5,5,6,6,11,11,12,12,13,13,14,14],"right_children":[2,4,6,8,10,12,14,-1,-1,-1,-1,16,18,20,22,-1,-1,-1,-1,-1,-1,-1,-1],"split_conditions":[4E0,3E0,1.9E1,5E0,2E0,9E0,2.2E1,-1.1479082E0,-9.58179E-1,-3.8171414E-1,-8.9276946E-1,7E0,7E0,4E0,4E0,4.2731594E-2,-3.5283446E-1,2.5251794E-1,-3.359057E-2,-4.8762256E-1,-1.3816713E-1,-1.0359491E0,-4.830524E-1],"split_indices":[1,1,1,0,0,1,1,0,0,0,0,0,0,0,0,0,0,0,0,0,0,0,0],"split_type":[0,0,0,0,0,0,0,0,0,0,0,0,0,0,0,0,0,0,0,0,0,0,0],"sum_hessian":[7.057E3,4.64E2,6.593E3,4.04E2,6E1,5.747E3,8.46E2,2.26E2,1.78E2,1.8E1,4.2E1,1.74E3,4.007E3,5.37E2,3.09E2,1.401E3,3.39E2,3.842E3,1.65E2,3.11E2,2.26E2,1.7E2,1.39E2],"tree_param":{"num_deleted":"0","num_feature":"2","num_nodes":"23","size_leaf_vector":"1"}},{"base_weights":[-2.3402763E-3,-9.253674E0,6.5005165E-1,-9.6071825E0,-6.7549076E0,1.41668E0,-4.5532894E0,-1.0336231E0,-8.628964E-1,-3.4555176E-1,-8.055687E-1,-3.1062403E-1,2.166635E0,-2.0831785E0,-6.181415E0,1.4008142E-1,-1.5303706E-1,2.2727273E-1,-3.0251775E-2,-3.244413E-1,-3.1299293E-2,-8.255316E-1,-3.6607265E-1],"categories":[],"categories_nodes":[],"categories_segments":[],"categories_sizes":[],"default_left":[0,0,0,0,0,0,0,0,0,0,0,0,0,0,0,0,0,0,0,0,0,0,0],"id":3,"left_children":[1,3,5,7,9,11,13,-1,-1,-1,-1,15,17,19,21,-1,-1,-1,-1,-1,-1,-1,-1],"loss_changes":[4.2604535E4,3.4585547E2,2.6310107E4,1.9964453E2,2.3396167E2,7.446634E3,3.393463E3,0E0,0E0,0E0,0E0,3.636517E3,1.0506152E3,6.9377734E2,2.6358848E3,0E0,0E0,0E0,0E0,0E0,0E0,0E0,0E0],"parents":[2147483647,0,0,1,1,2,2,3,3,4,4,5,5,6,6,11,11,12,12,13,13,14,14],"right_children":[2,4,6,8,10,12,14,-1,-1,-1,-1,16,18,20,22,-1,-1,-1,-1,-1,-1,-1,-1],"split_conditions":[4E0,3E0,1.9E1,5E0,2E0,9E0,2.1E1,-1.0336231E0,-8.628964E-1,-3.4555176E-1,-8.055687E-1,5E0,7E0,4E0,4E0,1.4008142E-1,-1.5303706E-1,2.2727273E-1,-3.0251775E-2,-3.244413E-1,-3.1299293E-2,-8.255316E-1,-3.6607265E-1],"split_indices":[1,1,1,0,0,1,1,0,0,0,0,0,0,0,0,0,0,0,0,0,0,0,0],"split_type":[0,0,0,0,0,0,0,0,0,0,0,0,0,0,0,0,0,0,0,0,0,0,0],"sum_hessian":[7.057E3,4.64E2,6.593E3,4.04E2,6E1,5.747E3,8.46E2,2.26E2,1.78E2,1.8E1,4.2E1,1.74E3,4.007E3,3.37E2,5.09E2,7.24E2,1.016E3,3.842E3,1.65E2,2.03E2,1.34E2,2.78E2,2.31E2],"tree_param":{"num_deleted":"0","num_feature":"2","num_nodes":"23","size_leaf_vector":"1"}},{"base_weights":[-2.7308366E-3,-6.703981E0,7.513583E-1,-8.334861E0,-3.6437292E0,1.498434E0,-4.099787E0,-8.651147E0,-6.0982876E0,-3.2244915E-1,-9.648265E-1,1.8198111E0,-1.8202574E0,-2.712367E0,-6.494407E0,-9.3071616E-1,-7.770888E-1,-3.128153E-1,-7.268852E-1,1.4628765E-1,-6.28387E-2,-1.3631774E-1,1.8762925E-1,-2.1207504E-1,2.988226E-1,-3.8933104E-1,-1.07727185E-1,-8.508897E-1,-3.9874643E-1],"categories":[],"categories_nodes":[],"categories_segments":[],"categories_sizes":[],"default_left":[0,0,0,0,0,0,0,0,0,0,0,0,0,0,0,0,0,0,0,0,0,0,0,0,0,0,0,0,0],"id":4,"left_children":[1,3,5,7,9,11,13,15,17,19,-1,21,23,25,27,-1,-1,-1,-1,-1,-1,-1,-1,-1,-1,-1,-1,-1,-1],"loss_changes":[3.567151E4,3.5331348E3,2.3001518E4,2.7618164E2,4.982575E3,5.868282E3,2.7964092E3,1.6154688E2,1.8934253E2,8.940344E1,0E0,9.0396875E2,7.0856604E2,1.0346592E3,1.5316367E3,0E0,0E0,0E0,0E0,0E0,0E0,0E0,0E0,0E0,0E0,0E0,0E0,0E0,0E0],"parents":[2147483647,0,0,1,1,2,2,3,3,4,4,5,5,6,6,7,7,8,8,9,9,11,11,12,12,13,13,14,14],"right_children":[2,4,6,8,10,12,14,16,18,20,-1,22,24,26,28,-1,-1,-1,-1,-1,-1,-1,-1,-1,-1,-1,-1,-1,-1],"split_conditions":[6E0,4E0,1.9E1,3E0,5E0,7E0,2.2E1,5E0,2E0,2E0,-9.648265E-1,7E0,1E1,4E0,4E0,-9.3071616E-1,-7.770888E-1,-3.128153E-1,-7.268852E-1,1.4628765E-1,-6.28387E-2,-1.3631774E-1,1.8762925E-1,-2.1207504E-1,2.988226E-1,-3.8933104E-1,-1.07727185E-1,-8.508897E-1,-3.9874643E-1],"split_indices":[1,1,1,1,0,0,1,0,0,0,0,1,1,0,0,0,0,0,0,0,0,0,0,0,0,0,0,0,0],"split_type":[0,0,0,0,0,0,0,0,0,0,0,0,0,0,0,0,0,0,0,0,0,0,0,0,0,0,0,0,0],"sum_hessian":[7.057E3,7.13E2,6.344E3,4.64E2,2.49E2,5.498E3,8.46E2,4.04E2,6E1,1.61E2,8.8E1,5.013E3,4.85E2,5.37E2,3.09E2,2.26E2,1.78E2,1.8E1,4.2E1,2.3E1,1.38E2,8.7E1,4.926E3,4.57E2,2.8E1,3.11E2,2.26E2,1.7E2,1.39E2],"tree_param":{"num_deleted":"0","num_feature":"2","num_nodes":"29","size_leaf_vector":"1"}},{"base_weights":[-3.2000316E-3,-6.038665E0,6.7596865E-1,-7.5072827E0,-3.2828815E0,1.3486153E0,-3.691871E0,-7.790249E0,-5.505503E0,-2.896885E-1,-8.6942786E-1,1.6378399E0,-1.6380532E0,-1.599376E0,-5.0714226E0,-8.380545E-1,-6.998141E-1,-2.8318015E-1,-6.558871E-1,-1.0878129E-1,3.1416528E-2,1.9721243E-1,1.1080287E-1,-1.9091383E-1,2.6997066E-1,-4.061369E-1,-9.642764E-2,-6.7635715E-1,-3.0146083E-1],"categories":[],"categories_nodes":[],"categories_segments":[],"categories_sizes":[],"default_left":[0,0,0,0,0,0,0,0,0,0,0,0,0,0,0,0,0,0,0,0,0,0,0,0,0,0,0,0,0],"id":5,"left_children":[1,3,5,7,9,11,13,15,17,19,-1,21,23,25,27,-1,-1,-1,-1,-1,-1,-1,-1,-1,-1,-1,-1,-1,-1],"loss_changes":[2.8935521E4,2.8650488E3,1.864667E4,2.205039E2,4.0468203E3,4.7528193E3,2.4369268E3,1.3072266E2,1.5322644E2,7.8417725E1,0E0,8.8583105E2,5.766426E2,5.24584E2,1.7546338E3,0E0,0E0,0E0,0E0,0E0,0E0,0E0,0E0,0E0,0E0,0E0,0E0,0E0,0E0],"parents":[2147483647,0,0,1,1,2,2,3,3,4,4,5,5,6,6,7,7,8,8,9,9,11,11,12,12,13,13,14,14],"right_children":[2,4,6,8,10,12,14,16,18,20,-1,22,24,26,28,-1,-1,-1,-1,-1,-1,-1,-1,-1,-1,-1,-1,-1,-1],"split_conditions":[6E0,4E0,1.9E1,3E0,5E0,7E0,2.1E1,5E0,2E0,3E0,-8.6942786E-1,5E0,1E1,2E0,4E0,-8.380545E-1,-6.998141E-1,-2.8318015E-1,-6.558871E-1,-1.0878129E-1,3.1416528E-2,1.9721243E-1,1.1080287E-1,-1.9091383E-1,2.6997066E-1,-4.061369E-1,-9.642764E-2,-6.7635715E-1,-3.0146083E-1],"split_indices":[1,1,1,1,0,0,1,0,0,0,0,0,1,0,0,0,0,0,0,0,0,0,0,0,0,0,0,0,0],"split_type":[0,0,0,0,0,0,0,0,0,0,0,0,0,0,0,0,0,0,0,0,0,0,0,0,0,0,0,0,0],"sum_hessian":[7.057E3,7.13E2,6.344E3,4.64E2,2.49E2,5.498E3,8.46E2,4.04E2,6E1,1.61E2,8.8E1,5.013E3,4.85E2,3.37E2,5.09E2,2.26E2,1.78E2,1.8E1,4.2E1,6.9E1,9.2E1,3.072E3,1.941E3,4.57E2,2.8E1,6.8E1,2.69E2,2.78E2,2.31E2],"tree_param":{"num_deleted":"0","num_feature":"2","num_nodes":"29","size_leaf_vector":"1"}},{"base_weights":[-3.5200608E-3,-5.4395933E0,6.081994E-1,-6.7618814E0,-2.9583802E0,1.213824E0,-3.3244314E0,-7.0150213E0,-4.970347E0,-2.6119664E-1,-7.83462E-1,1.4741173E0,-1.4740849E0,-2.155182E0,-5.342921E0,-7.5461817E-1,-6.302237E-1,-2.5635254E-1,-5.9182376E-1,1.4269333E-1,-5.507932E-2,1.5588449E-1,-4.5239534E-2,-2.2132777E-1,-3.5801877E-3,-3.539927E-1,-1.1711525E-1,-6.990581E-1,-3.292258E-1],"categories":[],"categories_nodes":[],"categories_segments":[],"categories_sizes":[],"default_left":[0,0,0,0,0,0,0,0,0,0,0,0,0,0,0,0,0,0,0,0,0,0,0,0,0,0,0,0,0],"id":6,"left_children":[1,3,5,7,9,11,13,15,17,19,-1,21,23,25,27,-1,-1,-1,-1,-1,-1,-1,-1,-1,-1,-1,-1,-1,-1],"loss_changes":[2.347364E4,2.322545E3,1.5115912E4,1.7601367E2,3.2859822E3,3.8495166E3,1.9875049E3,1.0577734E2,1.239939E2,7.998394E1,0E0,8.1913477E2,5.166206E2,7.289492E2,1.0244121E3,0E0,0E0,0E0,0E0,0E0,0E0,0E0,0E0,0E0,0E0,0E0,0E0,0E0,0E0],"parents":[2147483647,0,0,1,1,2,2,3,3,4,4,5,5,6,6,7,7,8,8,9,9,11,11,12,12,13,13,14,14],"right_children":[2,4,6,8,10,12,14,16,18,20,-1,22,24,26,28,-1,-1,-1,-1,-1,-1,-1,-1,-1,-1,-1,-1,-1,-1],"split_conditions":[6E0,4E0,1.9E1,3E0,5E0,7E0,2.2E1,5E0,2E0,2E0,-7.83462E-1,1.8E1,9E0,3E0,4E0,-7.5461817E-1,-6.302237E-1,-2.5635254E-1,-5.9182376E-1,1.4269333E-1,-5.507932E-2,1.5588449E-1,-4.5239534E-2,-2.2132777E-1,-3.5801877E-3,-3.539927E-1,-1.1711525E-1,-6.990581E-1,-3.292258E-1],"split_indices":[1,1,1,1,0,0,1,0,0,0,0,1,1,0,0,0,0,0,0,0,0,0,0,0,0,0,0,0,0],"split_type":[0,0,0,0,0,0,0,0,0,0,0,0,0,0,0,0,0,0,0,0,0,0,0,0,0,0,0,0,0],"sum_hessian":[7.057E3,7.13E2,6.344E3,4.64E2,2.49E2,5.498E3,8.46E2,4.04E2,6E1,1.61E2,8.8E1,5.013E3,4.85E2,5.37E2,3.09E2,2.26E2,1.78E2,1.8E1,4.2E1,2.3E1,1.38E2,4.802E3,2.11E2,3.2E2,1.65E2,2.22E2,3.15E2,1.7E2,1.39E2],"tree_param":{"num_deleted":"0","num_feature":"2","num_nodes":"29","size_leaf_vector":"1"}},{"base_weights":[-3.8112178E-3,-4.899737E0,5.471257E-1,-6.0904956E0,-2.665326E0,9.5808816E-1,-4.156647E0,-6.316939E0,-4.487217E0,-2.3453672E-1,-7.0599616E-1,1.165463E0,-1.3271391E0,-5.5436397E0,-2.4707527E0,-6.7948884E-1,-5.675534E-1,-2.3206651E-1,-5.340177E-1,-9.912754E-2,3.375734E-2,1.4029935E-1,-9.147276E-2,-1.5629305E-1,2.4425025E-1,-4.3130833E-1,-6.295611E-1,-1.9324332E-1,-4.3915877E-1],"categories":[],"categories_nodes":[],"categories_segments":[],"categories_sizes":[],"default_left":[0,0,0,0,0,0,0,0,0,0,0,0,0,0,0,0,0,0,0,0,0,0,0,0,0,0,0,0,0],"id":7,"left_children":[1,3,5,7,9,11,13,15,17,19,-1,21,23,25,27,-1,-1,-1,-1,-1,-1,-1,-1,-1,-1,-1,-1,-1,-1],"loss_changes":[1.9040549E4,1.8834668E3,1.226934E4,1.4047266E2,2.6689521E3,2.7672183E3,1.1788467E3,8.55918E1,1.0033411E2,7.0470566E1,0E0,2.6452598E3,4.3579816E2,2.310166E2,2.3140698E2,0E0,0E0,0E0,0E0,0E0,0E0,0E0,0E0,0E0,0E0,0E0,0E0,0E0,0E0],"parents":[2147483647,0,0,1,1,2,2,3,3,4,4,5,5,6,6,7,7,8,8,9,9,11,11,12,12,13,13,14,14],"right_children":[2,4,6,8,10,12,14,16,18,20,-1,22,24,26,28,-1,-1,-1,-1,-1,-1,-1,-1,-1,-1,-1,-1,-1,-1],"split_conditions":[6E0,4E0,2.1E1,3E0,5E0,7E0,4E0,5E0,2E0,3E0,-7.0599616E-1,1.8E1,1E1,2.2E1,2.3E1,-6.7948884E-1,-5.675534E-1,-2.3206651E-1,-5.340177E-1,-9.912754E-2,3.375734E-2,1.4029935E-1,-9.147276E-2,-1.5629305E-1,2.4425025E-1,-4.3130833E-1,-6.295611E-1,-1.9324332E-1,-4.3915877E-1],"split_indices":[1,1,1,1,0,0,0,0,0,0,0,1,1,1,1,0,0,0,0,0,0,0,0,0,0,0,0,0,0],"split_type":[0,0,0,0,0,0,0,0,0,0,0,0,0,0,0,0,0,0,0,0,0,0,0,0,0,0,0,0,0],"sum_hessian":[7.057E3,7.13E2,6.344E3,4.64E2,2.49E2,5.835E3,5.09E2,4.04E2,6E1,1.61E2,8.8E1,5.35E3,4.85E2,2.78E2,2.31E2,2.26E2,1.78E2,1.8E1,4.2E1,6.9E1,9.2E1,4.802E3,5.48E2,4.57E2,2.8E1,1.08E2,1.7E2,1.82E2,4.9E1],"tree_param":{"num_deleted":"0","num_feature":"2","num_nodes":"29","size_leaf_vector":"1"}},{"base_weights":[-4.044809E-3,-4.413663E0,4.9216816E-1,-5.485775E0,-2.4018793E0,9.8516065E-1,-2.709081E0,-5.688324E0,-4.0510545E0,-2.1148735E-1,-6.3618976E-1,1.1962109E0,-1.1942443E0,-1.1390446E0,-3.7443027E0,-6.1183923E-1,-5.1111513E-1,-2.100813E-1,-4.8185784E-1,1.3851826E-1,-4.856499E-2,4.666058E-2,1.4184074E-1,-1.8368332E-1,5.5546775E-3,-3.2221094E-1,-6.024872E-2,-4.9930778E-1,-2.2264038E-1],"categories":[],"categories_nodes":[],"categories_segments":[],"categories_sizes":[],"default_left":[0,0,0,0,0,0,0,0,0,0,0,0,0,0,0,0,0,0,0,0,0,0,0,0,0,0,0,0,0],"id":8,"left_children":[1,3,5,7,9,11,13,15,17,19,-1,21,23,25,27,-1,-1,-1,-1,-1,-1,-1,-1,-1,-1,-1,-1,-1,-1],"loss_changes":[1.5445851E4,1.5268203E3,1.0016296E4,1.1208594E2,2.1671528E3,2.53077E3,1.3723945E3,6.925879E1,8.1185425E1,7.158774E1,0E0,8.1218555E2,3.904096E2,3.7583585E2,9.555957E2,0E0,0E0,0E0,0E0,0E0,0E0,0E0,0E0,0E0,0E0,0E0,0E0,0E0,0E0],"parents":[2147483647,0,0,1,1,2,2,3,3,4,4,5,5,6,6,7,7,8,8,9,9,11,11,12,12,13,13,14,14],"right_children":[2,4,6,8,10,12,14,16,18,20,-1,22,24,26,28,-1,-1,-1,-1,-1,-1,-1,-1,-1,-1,-1,-1,-1,-1],"split_conditions":[6E0,4E0,1.9E1,3E0,5E0,7E0,2.1E1,5E0,2E0,2E0,-6.3618976E-1,9E0,9E0,2E0,4E0,-6.1183923E-1,-5.1111513E-1,-2.100813E-1,-4.8185784E-1,1.3851826E-1,-4.856499E-2,4.666058E-2,1.4184074E-1,-1.8368332E-1,5.5546775E-3,-3.2221094E-1,-6.024872E-2,-4.9930778E-1,-2.2264038E-1],"split_indices":[1,1,1,1,0,0,1,0,0,0,0,1,1,0,0,0,0,0,0,0,0,0,0,0,0,0,0,0,0],"split_type":[0,0,0,0,0,0,0,0,0,0,0,0,0,0,0,0,0,0,0,0,0,0,0,0,0,0,0,0,0],"sum_hessian":[7.057E3,7.13E2,6.344E3,4.64E2,2.49E2,5.498E3,8.46E2,4.04E2,6E1,1.61E2,8.8E1,5.013E3,4.85E2,3.37E2,5.09E2,2.26E2,1.78E2,1.8E1,4.2E1,2.3E1,1.38E2,1.171E3,3.842E3,3.2E2,1.65E2,6.8E1,2.69E2,2.78E2,2.31E2],"tree_param":{"num_deleted":"0","num_feature":"2","num_nodes":"29","size_leaf_vector":"1"}},{"base_weights":[-4.129629E-3,-3.7327719E0,4.7312292E-1,-4.9411006E0,-2.0544167E0,9.288692E-1,-2.439477E0,-5.1222644E0,-3.657292E0,7.4590164E-1,-6.4090466E0,1.126361E0,-1.0751864E0,-1.5544592E0,-3.9675415E0,-5.509249E-1,-4.6028915E-1,-1.9017889E-1,-4.347926E-1,-1.897833E-2,4.0977916E-1,-5.7328564E-1,-7.6311344E-1,1.197322E-1,-4.574981E-2,-1.2803029E-1,2.2013128E-1,-2.3776291E-1,-4.16206E-2,-5.1733434E-1,-2.4664012E-1],"categories":[],"categories_nodes":[],"categories_segments":[],"categories_sizes":[],"default_left":[0,0,0,0,0,0,0,0,0,0,0,0,0,0,0,0,0,0,0,0,0,0,0,0,0,0,0,0,0,0,0],"id":9,"left_children":[1,3,5,7,9,11,13,15,17,19,21,23,25,27,29,-1,-1,-1,-1,-1,-1,-1,-1,-1,-1,-1,-1,-1,-1,-1,-1],"loss_changes":[1.2561506E4,1.6142812E3,8.309176E3,8.941504E1,4.1142764E3,2.1431973E3,1.1392852E3,5.6041992E1,6.568817E1,6.468582E2,6.533203E1,5.543037E2,3.2944128E2,5.031034E2,5.4836426E2,0E0,0E0,0E0,0E0,0E0,0E0,0E0,0E0,0E0,0E0,0E0,0E0,0E0,0E0,0E0,0E0],"parents":[2147483647,0,0,1,1,2,2,3,3,4,4,5,5,6,6,7,7,8,8,9,9,10,10,11,11,12,12,13,13,14,14],"right_children":[2,4,6,8,10,12,14,16,18,20,22,24,26,28,30,-1,-1,-1,-1,-1,-1,-1,-1,-1,-1,-1,-1,-1,-1,-1,-1],"split_conditions":[7E0,4E0,1.9E1,3E0,5E0,7E0,2.2E1,5E0,2E0,5E0,6E0,1.8E1,1E1,4E0,4E0,-5.509249E-1,-4.6028915E-1,-1.9017889E-1,-4.347926E-1,-1.897833E-2,4.0977916E-1,-5.7328564E-1,-7.6311344E-1,1.197322E-1,-4.574981E-2,-1.2803029E-1,2.2013128E-1,-2.3776291E-1,-4.16206E-2,-5.1733434E-1,-2.4664012E-1],"split_indices":[1,1,1,1,0,0,1,0,0,1,1,1,1,0,0,0,0,0,0,0,0,0,0,0,0,0,0,0,0,0,0],"split_type":[0,0,0,0,0,0,0,0,0,0,0,0,0,0,0,0,0,0,0,0,0,0,0,0,0,0,0,0,0,0,0],"sum_hessian":[7.057E3,8E2,6.257E3,4.64E2,3.36E2,5.411E3,8.46E2,4.04E2,6E1,2.05E2,1.31E2,4.926E3,4.85E2,5.37E2,3.09E2,2.26E2,1.78E2,1.8E1,4.2E1,1.61E2,4.4E1,8.8E1,4.3E1,4.715E3,2.11E2,4.57E2,2.8E1,3.11E2,2.26E2,1.7E2,1.39E2],"tree_param":{"num_deleted":"0","num_feature":"2","num_nodes":"31","size_leaf_vector":"1"}},{"base_weights":[-4.206624E-3,-3.3627179E0,4.256706E-1,-4.4505095E0,-1.8517809E0,7.360352E-1,-3.0737643E0,-4.6125345E0,-3.301808E0,6.7320853E-1,-5.778266E0,8.931727E-1,-9.674787E-1,-4.088301E0,-1.8404473E0,-4.9607512E-1,-4.1451737E-1,-1.7216194E-1,-3.923245E-1,-1.7092234E-2,3.6971197E-1,-5.166012E-1,-6.885365E-1,1.07761554E-1,-6.9284774E-2,-1.5260911E-1,1.1855789E-2,-3.1554234E-1,-4.6590343E-1,-1.3766004E-1,-3.5013178E-1],"categories":[],"categories_nodes":[],"categories_segments":[],"categories_sizes":[],"default_left":[0,0,0,0,0,0,0,0,0,0,0,0,0,0,0,0,0,0,0,0,0,0,0,0,0,0,0,0,0,0,0],"id":10,"left_children":[1,3,5,7,9,11,13,15,17,19,21,23,25,27,29,-1,-1,-1,-1,-1,-1,-1,-1,-1,-1,-1,-1,-1,-1,-1,-1],"loss_changes":[1.01914E4,1.3082705E3,6.7990806E3,7.131641E1,3.3450205E3,1.53979E3,6.306113E2,4.534668E1,5.314685E1,5.2646265E2,5.3902832E1,1.540625E3,2.9502426E2,1.3384473E2,1.7391046E2,0E0,0E0,0E0,0E0,0E0,0E0,0E0,0E0,0E0,0E0,0E0,0E0,0E0,0E0,0E0,0E0],"parents":[2147483647,0,0,1,1,2,2,3,3,4,4,5,5,6,6,7,7,8,8,9,9,10,10,11,11,12,12,13,13,14,14],"right_children":[2,4,6,8,10,12,14,16,18,20,22,24,26,28,30,-1,-1,-1,-1,-1,-1,-1,-1,-1,-1,-1,-1,-1,-1,-1,-1],"split_conditions":[7E0,4E0,2.1E1,3E0,5E0,7E0,4E0,5E0,2E0,5E0,6E0,1.8E1,9E0,2.2E1,2.3E1,-4.9607512E-1,-4.1451737E-1,-1.7216194E-1,-3.923245E-1,-1.7092234E-2,3.6971197E-1,-5.166012E-1,-6.885365E-1,1.07761554E-1,-6.9284774E-2,-1.5260911E-1,1.1855789E-2,-3.1554234E-1,-4.6590343E-1,-1.3766004E-1,-3.5013178E-1],"split_indices":[1,1,1,1,0,0,0,0,0,1,1,1,1,1,1,0,0,0,0,0,0,0,0,0,0,0,0,0,0,0,0],"split_type":[0,0,0,0,0,0,0,0,0,0,0,0,0,0,0,0,0,0,0,0,0,0,0,0,0,0,0,0,0,0,0],"sum_hessian":[7.057E3,8E2,6.257E3,4.64E2,3.36E2,5.748E3,5.09E2,4.04E2,6E1,2.05E2,1.31E2,5.263E3,4.85E2,2.78E2,2.31E2,2.26E2,1.78E2,1.8E1,4.2E1,1.61E2,4.4E1,8.8E1,4.3E1,4.715E3,5.48E2,3.2E2,1.65E2,1.08E2,1.7E2,1.82E2,4.9E1],"tree_param":{"num_deleted":"0","num_feature":"2","num_nodes":"31","size_leaf_vector":"1"}},{"base_weights":[-4.3100114E-3,-3.029352E0,3.8288444E-1,-4.0086308E0,-1.6691327E0,6.6241395E-1,-2.7688766E0,-4.1535296E0,-2.9808812E0,6.0759884E-1,-5.209569E0,8.038628E-1,-8.710207E-1,-3.682272E0,-1.658505E0,-4.466861E-1,-3.732972E-1,-1.5585184E-1,-3.5400444E-1,-1.5393607E-2,3.3356225E-1,-4.6552148E-1,-6.212477E-1,9.698769E-2,-6.2368948E-2,-1.0494727E-1,1.9773255E-1,-2.8427762E-1,-4.1958556E-1,-1.2396926E-1,-3.1581885E-1],"categories":[],"categories_nodes":[],"categories_segments":[],"categories_sizes":[],"default_left":[0,0,0,0,0,0,0,0,0,0,0,0,0,0,0,0,0,0,0,0,0,0,0,0,0,0,0,0,0,0,0],"id":11,"left_children":[1,3,5,7,9,11,13,15,17,19,21,23,25,27,29,-1,-1,-1,-1,-1,-1,-1,-1,-1,-1,-1,-1,-1,-1,-1,-1],"loss_changes":[8.268051E3,1.0602676E3,5.5151963E3,5.68667E1,2.7195952E3,1.2476733E3,5.1113916E2,3.6693848E1,4.2998047E1,4.2847546E2,4.4467285E1,1.2481399E3,2.4910562E2,1.08363525E2,1.4180072E2,0E0,0E0,0E0,0E0,0E0,0E0,0E0,0E0,0E0,0E0,0E0,0E0,0E0,0E0,0E0,0E0],"parents":[2147483647,0,0,1,1,2,2,3,3,4,4,5,5,6,6,7,7,8,8,9,9,10,10,11,11,12,12,13,13,14,14],"right_children":[2,4,6,8,10,12,14,16,18,20,22,24,26,28,30,-1,-1,-1,-1,-1,-1,-1,-1,-1,-1,-1,-1,-1,-1,-1,-1],"split_conditions":[7E0,4E0,2.1E1,3E0,5E0,7E0,4E0,5E0,2E0,5E0,6E0,1.8E1,1E1,2.2E1,2.3E1,-4.466861E-1,-3.732972E-1,-1.5585184E-1,-3.5400444E-1,-1.5393607E-2,3.3356225E-1,-4.6552148E-1,-6.212477E-1,9.698769E-2,-6.2368948E-2,-1.0494727E-1,1.9773255E-1,-2.8427762E-1,-4.1958556E-1,-1.2396926E-1,-3.1581885E-1],"split_indices":[1,1,1,1,0,0,0,0,0,1,1,1,1,1,1,0,0,0,0,0,0,0,0,0,0,0,0,0,0,0,0],"split_type":[0,0,0,0,0,0,0,0,0,0,0,0,0,0,0,0,0,0,0,0,0,0,0,0,0,0,0,0,0,0,0],"sum_hessian":[7.057E3,8E2,6.257E3,4.64E2,3.36E2,5.748E3,5.09E2,4.04E2,6E1,2.05E2,1.31E2,5.263E3,4.85E2,2.78E2,2.31E2,2.26E2,1.78E2,1.8E1,4.2E1,1.61E2,4.4E1,8.8E1,4.3E1,4.715E3,5.48E2,4.57E2,2.8E1,1.08E2,1.7E2,1.82E2,4.9E1],"tree_param":{"num_deleted":"0","num_feature":"2","num_nodes":"31","size_leaf_vector":"1"}},{"base_weights":[-4.3196883E-3,-2.7290363E0,3.444343E-1,-3.6106272E0,-1.5044999E0,6.792678E-1,-1.7954282E0,-3.9371226E0,-3.2160234E0,5.4838383E-1,-4.696845E0,8.234401E-1,-7.837279E-1,-7.357091E-1,-2.4942312E0,-4.2204377E-1,-3.3578032E-1,-3.4006464E-1,-2.6911512E-1,-1.386369E-2,3.0094722E-1,-4.1949233E-1,-5.605349E-1,2.6899023E-2,9.7976446E-2,-1.2693374E-1,1.600336E-2,-2.5405055E-1,-2.717585E-2,-3.3165675E-1,-1.4945504E-1],"categories":[],"categories_nodes":[],"categories_segments":[],"categories_sizes":[],"default_left":[0,0,0,0,0,0,0,0,0,0,0,0,0,0,0,0,0,0,0,0,0,0,0,0,0,0,0,0,0,0,0],"id":12,"left_children":[1,3,5,7,9,11,13,15,17,19,21,23,25,27,29,-1,-1,-1,-1,-1,-1,-1,-1,-1,-1,-1,-1,-1,-1,-1,-1],"loss_changes":[6.7078447E3,8.592798E2,4.4850615E3,4.7246582E1,2.2111096E3,1.1421626E3,6.253982E2,2.6861084E1,1.1779297E1,3.4872592E2,3.6677734E1,4.2677954E2,2.2293677E2,2.8232922E2,4.1430078E2,0E0,0E0,0E0,0E0,0E0,0E0,0E0,0E0,0E0,0E0,0E0,0E0,0E0,0E0,0E0,0E0],"parents":[2147483647,0,0,1,1,2,2,3,3,4,4,5,5,6,6,7,7,8,8,9,9,10,10,11,11,12,12,13,13,14,14],"right_children":[2,4,6,8,10,12,14,16,18,20,22,24,26,28,30,-1,-1,-1,-1,-1,-1,-1,-1,-1,-1,-1,-1,-1,-1,-1,-1],"split_conditions":[7E0,4E0,1.9E1,2E0,5E0,7E0,2.1E1,5E0,3E0,5E0,6E0,9E0,9E0,2E0,4E0,-4.2204377E-1,-3.3578032E-1,-3.4006464E-1,-2.6911512E-1,-1.386369E-2,3.0094722E-1,-4.1949233E-1,-5.605349E-1,2.6899023E-2,9.7976446E-2,-1.2693374E-1,1.600336E-2,-2.5405055E-1,-2.717585E-2,-3.3165675E-1,-1.4945504E-1],"split_indices":[1,1,1,1,0,0,1,0,1,1,1,1,1,0,0,0,0,0,0,0,0,0,0,0,0,0,0,0,0,0,0],"split_type":[0,0,0,0,0,0,0,0,0,0,0,0,0,0,0,0,0,0,0,0,0,0,0,0,0,0,0,0,0,0,0],"sum_hessian":[7.057E3,8E2,6.257E3,4.64E2,3.36E2,5.411E3,8.46E2,2.49E2,2.15E2,2.05E2,1.31E2,4.926E3,4.85E2,3.37E2,5.09E2,1.63E2,8.6E1,1.55E2,6E1,1.61E2,4.4E1,8.8E1,4.3E1,1.084E3,3.842E3,3.2E2,1.65E2,6.8E1,2.69E2,2.78E2,2.31E2],"tree_param":{"num_deleted":"0","num_feature":"2","num_nodes":"31","size_leaf_vector":"1"}},{"base_weights":[-4.285762E-3,-2.4587042E0,3.0987108E-1,-3.2525043E0,-1.3561057E0,6.113434E-1,-1.6167854E0,-3.5464416E0,-2.8972414E0,4.949397E-1,-4.234585E0,7.411211E-1,-7.0558316E-1,-1.0140827E0,-2.6575508E0,-3.8009673E-1,-3.0258825E-1,-3.0627617E-1,-2.4264479E-1,-1.2485797E-2,2.7152127E-1,-3.7801442E-1,-5.057554E-1,2.9818168E-2,9.403431E-2,-8.608543E-2,1.7709601E-1,-2.523568E-1,-6.157772E-2,-3.449006E-1,-1.6718622E-1],"categories":[],"categories_nodes":[],"categories_segments":[],"categories_sizes":[],"default_left":[0,0,0,0,0,0,0,0,0,0,0,0,0,0,0,0,0,0,0,0,0,0,0,0,0,0,0,0,0,0,0],"id":13,"left_children":[1,3,5,7,9,11,13,15,17,19,21,23,25,27,29,-1,-1,-1,-1,-1,-1,-1,-1,-1,-1,-1,-1,-1,-1,-1,-1],"loss_changes":[5.4429907E3,6.966582E2,3.635845E3,3.8283203E1,1.7976979E3,9.2547546E2,5.286045E2,2.1622559E1,9.400391E0,2.8381976E2,3.0248535E1,4.344944E2,1.8840883E2,3.219112E2,2.3607324E2,0E0,0E0,0E0,0E0,0E0,0E0,0E0,0E0,0E0,0E0,0E0,0E0,0E0,0E0,0E0,0E0],"parents":[2147483647,0,0,1,1,2,2,3,3,4,4,5,5,6,6,7,7,8,8,9,9,10,10,11,11,12,12,13,13,14,14],"right_children":[2,4,6,8,10,12,14,16,18,20,22,24,26,28,30,-1,-1,-1,-1,-1,-1,-1,-1,-1,-1,-1,-1,-1,-1,-1,-1],"split_conditions":[7E0,4E0,1.9E1,2E0,5E0,7E0,2.2E1,5E0,3E0,5E0,6E0,3E0,1E1,2E0,4E0,-3.8009673E-1,-3.0258825E-1,-3.0627617E-1,-2.4264479E-1,-1.2485797E-2,2.7152127E-1,-3.7801442E-1,-5.057554E-1,2.9818168E-2,9.403431E-2,-8.608543E-2,1.7709601E-1,-2.523568E-1,-6.157772E-2,-3.449006E-1,-1.6718622E-1],"split_indices":[1,1,1,1,0,0,1,0,1,1,1,0,1,0,0,0,0,0,0,0,0,0,0,0,0,0,0,0,0,0,0],"split_type":[0,0,0,0,0,0,0,0,0,0,0,0,0,0,0,0,0,0,0,0,0,0,0,0,0,0,0,0,0,0,0],"sum_hessian":[7.057E3,8E2,6.257E3,4.64E2,3.36E2,5.411E3,8.46E2,2.49E2,2.15E2,2.05E2,1.31E2,4.926E3,4.85E2,5.37E2,3.09E2,1.63E2,8.6E1,1.55E2,6E1,1.61E2,4.4E1,8.8E1,4.3E1,1.529E3,3.397E3,4.57E2,2.8E1,1.11E2,4.26E2,1.7E2,1.39E2],"tree_param":{"num_deleted":"0","num_feature":"2","num_nodes":"31","size_leaf_vector":"1"}},{"base_weights":[-4.2066043E-3,-2.2151513E0,2.787865E-1,-2.9299023E0,-1.2223489E0,5.9126973E-1,-1.2576069E0,-3.1945279E0,-2.6100585E0,4.467031E-1,-3.8178215E0,-1.1737706E-1,8.533339E-1,-2.18643E0,-2.0078206E-1,-3.423188E-1,-2.726772E-1,-2.758449E-1,-2.1877806E-1,-1.1244953E-2,2.4497259E-1,-3.4063768E-1,-4.5632932E-1,1.6071556E-2,-1.0569817E-1,1.0765242E-1,4.7770265E-2,-1.7806952E-1,-3.1061226E-1,6.932818E-2,-1.2211534E-1],"categories":[],"categories_nodes":[],"categories_segments":[],"categories_sizes":[],"default_left":[0,0,0,0,0,0,0,0,0,0,0,0,0,0,0,0,0,0,0,0,0,0,0,0,0,0,0,0,0,0,0],"id":14,"left_children":[1,3,5,7,9,11,13,15,17,19,21,23,25,27,29,-1,-1,-1,-1,-1,-1,-1,-1,-1,-1,-1,-1,-1,-1,-1,-1],"loss_changes":[4.416682E3,5.648135E2,3.0051917E3,3.1019287E1,1.4615823E3,9.659828E2,1.0380973E3,1.740503E1,7.500122E0,2.309945E2,2.4942749E1,3.6729233E2,3.1781567E2,2.0455298E2,4.5333606E2,0E0,0E0,0E0,0E0,0E0,0E0,0E0,0E0,0E0,0E0,0E0,0E0,0E0,0E0,0E0,0E0],"parents":[2147483647,0,0,1,1,2,2,3,3,4,4,5,5,6,6,7,7,8,8,9,9,10,10,11,11,12,12,13,13,14,14],"right_children":[2,4,6,8,10,12,14,16,18,20,22,24,26,28,30,-1,-1,-1,-1,-1,-1,-1,-1,-1,-1,-1,-1,-1,-1,-1,-1],"split_conditions":[7E0,4E0,1.8E1,2E0,5E0,9E0,4E0,5E0,3E0,5E0,6E0,7E0,5E0,2.2E1,2.1E1,-3.423188E-1,-2.726772E-1,-2.758449E-1,-2.1877806E-1,-1.1244953E-2,2.4497259E-1,-3.4063768E-1,-4.5632932E-1,1.6071556E-2,-1.0569817E-1,1.0765242E-1,4.7770265E-2,-1.7806952E-1,-3.1061226E-1,6.932818E-2,-1.2211534E-1],"split_indices":[1,1,1,1,0,1,0,0,1,1,1,0,0,1,1,0,0,0,0,0,0,0,0,0,0,0,0,0,0,0,0],"split_type":[0,0,0,0,0,0,0,0,0,0,0,0,0,0,0,0,0,0,0,0,0,0,0,0,0,0,0,0,0,0,0],"sum_hessian":[7.057E3,8E2,6.257E3,4.64E2,3.36E2,5.2E3,1.057E3,2.49E2,2.15E2,2.05E2,1.31E2,1.404E3,3.796E3,5.62E2,4.95E2,1.63E2,8.6E1,1.55E2,6E1,1.61E2,4.4E1,8.8E1,4.3E1,1.084E3,3.2E2,2.38E3,1.416E3,3.92E2,1.7E2,2.64E2,2.31E2],"tree_param":{"num_deleted":"0","num_feature":"2","num_nodes":"31","size_leaf_vector":"1"}},{"base_weights":[-4.090235E-3,-1.9957243E0,2.5083193E-1,-2.6392982E0,-1.1017848E0,4.3701592E-1,-1.8484278E0,-2.8775349E0,-2.3513424E0,4.0316805E-1,-3.4420767E0,5.3096396E-1,-5.814602E-1,-2.4645133E0,-1.0995646E0,-3.0829564E-1,-2.4572289E-1,-2.0851386E-1,-2.571234E-1,-1.0127322E-2,2.2101974E-1,-3.0695662E-1,-4.1173348E-1,6.468047E-2,-4.650941E-2,-7.153958E-2,1.5538491E-1,-1.9197829E-1,-2.7973267E-1,-7.331352E-2,-2.4187051E-1],"categories":[],"categories_nodes":[],"categories_segments":[],"categories_sizes":[],"default_left":[0,0,0,0,0,0,0,0,0,0,0,0,0,0,0,0,0,0,0,0,0,0,0,0,0,0,0,0,0,0,0],"id":15,"left_children":[1,3,5,7,9,11,13,15,17,19,21,23,25,27,29,-1,-1,-1,-1,-1,-1,-1,-1,-1,-1,-1,-1,-1,-1,-1,-1],"loss_changes":[3.5839297E3,4.579204E2,2.4467378E3,2.5133545E1,1.1883115E3,5.503948E2,2.325857E2,1.40095215E1,7.2823486E0,1.8800111E2,2.0564941E1,6.076826E2,1.4010466E2,4.521057E1,1.1036905E2,0E0,0E0,0E0,0E0,0E0,0E0,0E0,0E0,0E0,0E0,0E0,0E0,0E0,0E0,0E0,0E0],"parents":[2147483647,0,0,1,1,2,2,3,3,4,4,5,5,6,6,7,7,8,8,9,9,10,10,11,11,12,12,13,13,14,14],"right_children":[2,4,6,8,10,12,14,16,18,20,22,24,26,28,30,-1,-1,-1,-1,-1,-1,-1,-1,-1,-1,-1,-1,-1,-1,-1,-1],"split_conditions":[7E0,4E0,2.1E1,2E0,5E0,7E0,4E0,5E0,7E0,5E0,6E0,1.8E1,1E1,2.2E1,2.3E1,-3.0829564E-1,-2.4572289E-1,-2.0851386E-1,-2.571234E-1,-1.0127322E-2,2.2101974E-1,-3.0695662E-1,-4.1173348E-1,6.468047E-2,-4.650941E-2,-7.153958E-2,1.5538491E-1,-1.9197829E-1,-2.7973267E-1,-7.331352E-2,-2.4187051E-1],"split_indices":[1,1,1,1,0,0,0,0,0,1,1,1,1,1,1,0,0,0,0,0,0,0,0,0,0,0,0,0,0,0,0],"split_type":[0,0,0,0,0,0,0,0,0,0,0,0,0,0,0,0,0,0,0,0,0,0,0,0,0,0,0,0,0,0,0],"sum_hessian":[7.057E3,8E2,6.257E3,4.64E2,3.36E2,5.748E3,5.09E2,2.49E2,2.15E2,2.05E2,1.31E2,5.263E3,4.85E2,2.78E2,2.31E2,1.63E2,8.6E1,1.02E2,1.13E2,1.61E2,4.4E1,8.8E1,4.3E1,4.715E3,5.48E2,4.57E2,2.8E1,1.08E2,1.7E2,1.82E2,4.9E1],"tree_param":{"num_deleted":"0","num_feature":"2","num_nodes":"31","size_leaf_vector":"1"}},{"base_weights":[-3.9943852E-3,-1.7980587E0,2.2563961E-1,-2.3775613E0,-9.9311304E-1,3.933324E-1,-1.6651278E0,-2.4660978E0,-1.7507591E0,3.6387533E-1,-3.1033137E0,-1.3931173E-1,5.654777E-1,-1.9929724E0,-4.823139E-1,-2.629297E-1,-2.1164246E-1,-1.09650865E-1,-2.8607258E-1,-9.120801E-3,1.9940893E-1,-2.766059E-1,-3.7149587E-1,8.003856E-3,-8.802954E-2,7.0762455E-2,-4.1866947E-2,-2.6114982E-1,-1.7394589E-1,4.5709023E-3,-2.6444852E-1],"categories":[],"categories_nodes":[],"categories_segments":[],"categories_sizes":[],"default_left":[0,0,0,0,0,0,0,0,0,0,0,0,0,0,0,0,0,0,0,0,0,0,0,0,0,0,0,0,0,0,0],"id":16,"left_children":[1,3,5,7,9,11,13,15,17,19,21,23,25,27,29,-1,-1,-1,-1,-1,-1,-1,-1,-1,-1,-1,-1,-1,-1,-1,-1],"loss_changes":[2.9081477E3,3.712798E2,1.9848667E3,2.1487549E1,9.6613477E2,5.2721735E2,1.9680615E2,1.7547363E1,4.1161148E1,1.5300981E2,1.6953247E1,2.2843211E2,6.0813293E2,5.802246E1,1.2798859E2,0E0,0E0,0E0,0E0,0E0,0E0,0E0,0E0,0E0,0E0,0E0,0E0,0E0,0E0,0E0,0E0],"parents":[2147483647,0,0,1,1,2,2,3,3,4,4,5,5,6,6,7,7,8,8,9,9,10,10,11,11,12,12,13,13,14,14],"right_children":[2,4,6,8,10,12,14,16,18,20,22,24,26,28,30,-1,-1,-1,-1,-1,-1,-1,-1,-1,-1,-1,-1,-1,-1,-1,-1],"split_conditions":[7E0,4E0,2.1E1,3E0,5E0,9E0,5E0,6E0,7E0,5E0,6E0,7E0,1.8E1,2E0,2.3E1,-2.629297E-1,-2.1164246E-1,-1.09650865E-1,-2.8607258E-1,-9.120801E-3,1.9940893E-1,-2.766059E-1,-3.7149587E-1,8.003856E-3,-8.802954E-2,7.0762455E-2,-4.1866947E-2,-2.6114982E-1,-1.7394589E-1,4.5709023E-3,-2.6444852E-1],"split_indices":[1,1,1,1,0,1,0,0,0,1,1,0,1,0,1,0,0,0,0,0,0,0,0,0,0,0,0,0,0,0,0],"split_type":[0,0,0,0,0,0,0,0,0,0,0,0,0,0,0,0,0,0,0,0,0,0,0,0,0,0,0,0,0,0,0],"sum_hessian":[7.057E3,8E2,6.257E3,4.64E2,3.36E2,5.748E3,5.09E2,4.04E2,6E1,2.05E2,1.31E2,1.404E3,4.344E3,3.98E2,1.11E2,2.71E2,1.33E2,3.9E1,2.1E1,1.61E2,4.4E1,8.8E1,4.3E1,1.084E3,3.2E2,3.796E3,5.48E2,1.13E2,2.85E2,9E1,2.1E1],"tree_param":{"num_deleted":"0","num_feature":"2","num_nodes":"31","size_leaf_vector":"1"}},{"base_weights":[-3.8888287E-3,-1.619911E0,2.0295642E-1,-2.1416767E0,-8.9516026E-1,3.5399026E-1,-1.499978E0,-2.3385305E0,-1.9039214E0,3.2841152E-1,-2.7978923E0,-1.2543698E-1,5.0893646E-1,-2.011111E0,-8.7883073E-1,-2.4442048E-1,-1.7569952E-1,-1.6763097E-1,-2.0928696E-1,-8.214338E-3,1.7991112E-1,-2.4925612E-1,-3.3519056E-1,7.2042705E-3,-7.925398E-2,6.3688055E-2,-3.768788E-2,-1.5228145E-1,-2.3106037E-1,-5.75022E-2,-1.973194E-1],"categories":[],"categories_nodes":[],"categories_segments":[],"categories_sizes":[],"default_left":[0,0,0,0,0,0,0,0,0,0,0,0,0,0,0,0,0,0,0,0,0,0,0,0,0,0,0,0,0,0,0],"id":17,"left_children":[1,3,5,7,9,11,13,15,17,19,21,23,25,27,29,-1,-1,-1,-1,-1,-1,-1,-1,-1,-1,-1,-1,-1,-1,-1,-1],"loss_changes":[2.3595818E3,3.009807E2,1.610093E3,1.7311035E1,7.854983E2,4.2713092E2,1.6015198E2,1.1068848E1,5.781189E0,1.2453118E2,1.3973999E1,1.8515073E2,4.926797E2,3.7282593E1,7.6000046E1,0E0,0E0,0E0,0E0,0E0,0E0,0E0,0E0,0E0,0E0,0E0,0E0,0E0,0E0,0E0,0E0],"parents":[2147483647,0,0,1,1,2,2,3,3,4,4,5,5,6,6,7,7,8,8,9,9,10,10,11,11,12,12,13,13,14,14],"right_children":[2,4,6,8,10,12,14,16,18,20,22,24,26,28,30,-1,-1,-1,-1,-1,-1,-1,-1,-1,-1,-1,-1,-1,-1,-1,-1],"split_conditions":[7E0,4E0,2.1E1,2E0,5E0,9E0,4E0,6E0,7E0,5E0,6E0,7E0,1.8E1,2.2E1,2.3E1,-2.4442048E-1,-1.7569952E-1,-1.6763097E-1,-2.0928696E-1,-8.214338E-3,1.7991112E-1,-2.4925612E-1,-3.3519056E-1,7.2042705E-3,-7.925398E-2,6.3688055E-2,-3.768788E-2,-1.5228145E-1,-2.3106037E-1,-5.75022E-2,-1.973194E-1],"split_indices":[1,1,1,1,0,1,0,0,0,1,1,0,1,1,1,0,0,0,0,0,0,0,0,0,0,0,0,0,0,0,0],"split_type":[0,0,0,0,0,0,0,0,0,0,0,0,0,0,0,0,0,0,0,0,0,0,0,0,0,0,0,0,0,0,0],"sum_hessian":[7.057E3,8E2,6.257E3,4.64E2,3.36E2,5.748E3,5.09E2,2.49E2,2.15E2,2.05E2,1.31E2,1.404E3,4.344E3,2.78E2,2.31E2,2.08E2,4.1E1,1.02E2,1.13E2,1.61E2,4.4E1,8.8E1,4.3E1,1.084E3,3.2E2,3.796E3,5.48E2,1.08E2,1.7E2,1.82E2,4.9E1],"tree_param":{"num_deleted":"0","num_feature":"2","num_nodes":"31","size_leaf_vector":"1"}},{"base_weights":[-3.7683672E-3,-1.45943E0,1.8255134E-1,-1.9292228E0,-8.0686873E-1,3.185831E-1,-1.3512315E0,-2.0037258E0,-1.4029467E0,2.9640424E-1,-2.5225306E0,-9.299986E-2,4.8611996E-1,-1.6279944E0,-3.5319895E-1,-2.1813641E-1,-1.7672583E-1,-8.261587E-2,-2.387882E-1,-7.3979357E-3,1.6231984E-1,-2.2461057E-1,-3.0243328E-1,-1.0812757E-1,3.8536627E-2,1.6140962E-1,2.063023E-2,-2.1533203E-1,-1.4129065E-1,9.805809E-3,-2.2037077E-1],"categories":[],"categories_nodes":[],"categories_segments":[],"categories_sizes":[],"default_left":[0,0,0,0,0,0,0,0,0,0,0,0,0,0,0,0,0,0,0,0,0,0,0,0,0,0,0,0,0,0,0],"id":18,"left_children":[1,3,5,7,9,11,13,15,17,19,21,23,25,27,29,-1,-1,-1,-1,-1,-1,-1,-1,-1,-1,-1,-1,-1,-1,-1,-1],"loss_changes":[1.9145262E3,2.4400476E2,1.3061196E3,1.5421265E1,6.3863586E2,3.964693E2,1.4029639E2,1.3157227E1,3.2681274E1,1.0135318E2,1.1516846E1,7.870854E2,1.2893218E3,4.2041138E1,9.374226E1,0E0,0E0,0E0,0E0,0E0,0E0,0E0,0E0,0E0,0E0,0E0,0E0,0E0,0E0,0E0,0E0],"parents":[2147483647,0,0,1,1,2,2,3,3,4,4,5,5,6,6,7,7,8,8,9,9,10,10,11,11,12,12,13,13,14,14],"right_children":[2,4,6,8,10,12,14,16,18,20,22,24,26,28,30,-1,-1,-1,-1,-1,-1,-1,-1,-1,-1,-1,-1,-1,-1,-1,-1],"split_conditions":[7E0,4E0,2.1E1,3E0,5E0,3E0,5E0,5E0,7E0,5E0,6E0,1E1,4E0,2E0,2.3E1,-2.1813641E-1,-1.7672583E-1,-8.261587E-2,-2.387882E-1,-7.3979357E-3,1.6231984E-1,-2.2461057E-1,-3.0243328E-1,-1.0812757E-1,3.8536627E-2,1.6140962E-1,2.063023E-2,-2.1533203E-1,-1.4129065E-1,9.805809E-3,-2.2037077E-1],"split_indices":[1,1,1,1,0,0,0,0,0,1,1,1,0,0,1,0,0,0,0,0,0,0,0,0,0,0,0,0,0,0,0],"split_type":[0,0,0,0,0,0,0,0,0,0,0,0,0,0,0,0,0,0,0,0,0,0,0,0,0,0,0,0,0,0,0],"sum_hessian":[7.057E3,8E2,6.257E3,4.64E2,3.36E2,5.748E3,5.09E2,4.04E2,6E1,2.05E2,1.31E2,1.663E3,4.085E3,3.98E2,1.11E2,2.26E2,1.78E2,3.9E1,2.1E1,1.61E2,4.4E1,8.8E1,4.3E1,5.42E2,1.121E3,8.11E2,3.274E3,1.13E2,2.85E2,9E1,2.1E1],"tree_param":{"num_deleted":"0","num_feature":"2","num_nodes":"31","size_leaf_vector":"1"}},{"base_weights":[-3.6098948E-3,-1.3148457E0,1.6422383E-1,-1.737841E0,-7.2728586E-1,3.5842413E-1,-7.9059654E-1,-1.9033393E0,-1.5382466E0,2.6751631E-1,-2.2742705E0,6.365931E-1,7.838356E-3,-1.5393394E0,6.0880926E-2,-2.0554772E-1,-1.5946728E-1,-1.3456012E-1,-1.69881E-1,-6.662669E-3,1.4644864E-1,-2.0240188E-1,-2.7287734E-1,4.265774E-2,2.0759514E-1,6.3018086E-3,-1.364923E-1,-2.4825184E-1,-1.375688E-1,2.9523417E-2,-2.2944203E-1],"categories":[],"categories_nodes":[],"categories_segments":[],"categories_sizes":[],"default_left":[0,0,0,0,0,0,0,0,0,0,0,0,0,0,0,0,0,0,0,0,0,0,0,0,0,0,0,0,0,0,0],"id":19,"left_children":[1,3,5,7,9,11,13,15,17,19,21,23,25,27,29,-1,-1,-1,-1,-1,-1,-1,-1,-1,-1,-1,-1,-1,-1,-1,-1],"loss_changes":[1.5534672E3,1.9781274E2,1.1606819E3,1.2432251E1,5.192324E2,5.072074E2,6.746085E2,8.462158E0,4.395355E0,8.248917E1,9.490601E0,8.7574927E2,1.744593E2,8.348547E1,2.7445575E2,0E0,0E0,0E0,0E0,0E0,0E0,0E0,0E0,0E0,0E0,0E0,0E0,0E0,0E0,0E0,0E0],"parents":[2147483647,0,0,1,1,2,2,3,3,4,4,5,5,6,6,7,7,8,8,9,9,10,10,11,11,12,12,13,13,14,14],"right_children":[2,4,6,8,10,12,14,16,18,20,22,24,26,28,30,-1,-1,-1,-1,-1,-1,-1,-1,-1,-1,-1,-1,-1,-1,-1,-1],"split_conditions":[7E0,4E0,1.8E1,2E0,5E0,5E0,4E0,5E0,7E0,5E0,6E0,1.4E1,1.7E1,1.9E1,6E0,-2.0554772E-1,-1.5946728E-1,-1.3456012E-1,-1.69881E-1,-6.662669E-3,1.4644864E-1,-2.0240188E-1,-2.7287734E-1,4.265774E-2,2.0759514E-1,6.3018086E-3,-1.364923E-1,-2.4825184E-1,-1.375688E-1,2.9523417E-2,-2.2944203E-1],"split_indices":[1,1,1,1,0,0,0,0,0,1,1,1,1,1,0,0,0,0,0,0,0,0,0,0,0,0,0,0,0,0,0],"split_type":[0,0,0,0,0,0,0,0,0,0,0,0,0,0,0,0,0,0,0,0,0,0,0,0,0,0,0,0,0,0,0],"sum_hessian":[7.057E3,8E2,6.257E3,4.64E2,3.36E2,5.2E3,1.057E3,2.49E2,2.15E2,2.05E2,1.31E2,2.899E3,2.301E3,5.62E2,4.95E2,1.63E2,8.6E1,1.02E2,1.13E2,1.61E2,4.4E1,8.8E1,4.3E1,2.531E3,3.68E2,2.213E3,8.8E1,8.1E1,4.81E2,4.51E2,4.4E1],"tree_param":{"num_deleted":"0","num_feature":"2","num_nodes":"31","size_leaf_vector":"1"}},{"base_weights":[-3.4574103E-3,-1.1846157E0,1.4772688E-1,-1.6282175E0,-7.29091E-1,2.6332113E-1,-1.1556046E0,-1.7503877E0,-1.3680793E-1,2.1756227E-1,-1.9435809E0,-1.2458688E-1,4.2123E-1,-1.3791182E0,-3.4901932E-1,-1.4966618E-1,-1.8577142E-1,-5.957901E-3,1.3212927E-1,-1.7545862E-1,-2.4620974E-1,-1.0159265E-1,3.0689443E-2,1.4201634E-1,1.7342692E-2,-9.7277254E-2,-1.635979E-1,5.916076E-3,-2.021536E-1],"categories":[],"categories_nodes":[],"categories_segments":[],"categories_sizes":[],"default_left":[0,0,0,0,0,0,0,0,0,0,0,0,0,0,0,0,0,0,0,0,0,0,0,0,0,0,0,0,0],"id":20,"left_children":[1,3,5,7,9,11,13,15,-1,17,19,21,23,25,27,-1,-1,-1,-1,-1,-1,-1,-1,-1,-1,-1,-1,-1,-1],"loss_changes":[1.2605404E3,1.6067224E2,9.431197E2,1.0476685E1,4.5685403E2,3.5220236E2,9.146295E1,4.626587E0,0E0,6.8597916E1,1.2731567E1,6.402802E2,1.011197E3,4.0053833E1,7.658064E1,0E0,0E0,0E0,0E0,0E0,0E0,0E0,0E0,0E0,0E0,0E0,0E0,0E0,0E0],"parents":[2147483647,0,0,1,1,2,2,3,3,4,4,5,5,6,6,7,7,9,9,10,10,11,11,12,12,13,13,14,14],"right_children":[2,4,6,8,10,12,14,16,-1,18,20,22,24,26,28,-1,-1,-1,-1,-1,-1,-1,-1,-1,-1,-1,-1,-1,-1],"split_conditions":[7E0,3E0,2.1E1,6E0,5E0,3E0,5E0,2E0,-1.3680793E-1,5E0,6E0,1E1,4E0,2.2E1,2.3E1,-1.4966618E-1,-1.8577142E-1,-5.957901E-3,1.3212927E-1,-1.7545862E-1,-2.4620974E-1,-1.0159265E-1,3.0689443E-2,1.4201634E-1,1.7342692E-2,-9.7277254E-2,-1.635979E-1,5.916076E-3,-2.021536E-1],"split_indices":[1,1,1,0,0,0,0,0,0,1,1,1,0,1,1,0,0,0,0,0,0,0,0,0,0,0,0,0,0],"split_type":[0,0,0,0,0,0,0,0,0,0,0,0,0,0,0,0,0,0,0,0,0,0,0,0,0,0,0,0,0],"sum_hessian":[7.057E3,8E2,6.257E3,4.04E2,3.96E2,5.748E3,5.09E2,2.71E2,1.33E2,2.23E2,1.73E2,1.663E3,4.085E3,3.98E2,1.11E2,8.5E1,1.86E2,1.79E2,4.4E1,1.3E2,4.3E1,5.42E2,1.121E3,8.11E2,3.274E3,1.56E2,2.42E2,9E1,2.1E1],"tree_param":{"num_deleted":"0","num_feature":"2","num_nodes":"29","size_leaf_vector":"1"}},{"base_weights":[-3.2728028E-3,-1.0671126E0,1.3289514E-1,-1.4665618E0,-6.5692616E-1,2.9833993E-1,-6.8053705E-1,-1.6078144E0,-1.2792383E-1,1.9636948E-1,-1.7516463E0,-1.6328356E-1,4.690754E-1,-1.3544725E0,8.580605E-2,-1.3487358E-1,-1.7533986E-1,-5.3653866E-3,1.1920991E-1,-1.5804671E-1,-2.221483E-1,1.2717353E-3,-7.576689E-2,1.4444457E-2,6.3274845E-2,-2.3178425E-1,-1.18776955E-1,3.0193884E-2,-2.0870344E-1],"categories":[],"categories_nodes":[],"categories_segments":[],"categories_sizes":[],"default_left":[0,0,0,0,0,0,0,0,0,0,0,0,0,0,0,0,0,0,0,0,0,0,0,0,0,0,0,0,0],"id":21,"left_children":[1,3,5,7,9,11,13,15,-1,17,19,21,23,25,27,-1,-1,-1,-1,-1,-1,-1,-1,-1,-1,-1,-1,-1,-1],"loss_changes":[1.0225698E3,1.302793E2,8.423929E2,8.659485E0,3.711895E2,4.0999606E2,5.465369E2,6.1970215E0,0E0,5.5830032E1,1.0483215E1,1.4698999E2,2.0165576E2,8.7662964E1,2.3356271E2,0E0,0E0,0E0,0E0,0E0,0E0,0E0,0E0,0E0,0E0,0E0,0E0,0E0,0E0],"parents":[2147483647,0,0,1,1,2,2,3,3,4,4,5,5,6,6,7,7,9,9,10,10,11,11,12,12,13,13,14,14],"right_children":[2,4,6,8,10,12,14,16,-1,18,20,22,24,26,28,-1,-1,-1,-1,-1,-1,-1,-1,-1,-1,-1,-1,-1,-1],"split_conditions":[7E0,3E0,1.8E1,5E0,5E0,9E0,4E0,2E0,-1.2792383E-1,5E0,6E0,7E0,3E0,1.9E1,6E0,-1.3487358E-1,-1.7533986E-1,-5.3653866E-3,1.1920991E-1,-1.5804671E-1,-2.221483E-1,1.2717353E-3,-7.576689E-2,1.4444457E-2,6.3274845E-2,-2.3178425E-1,-1.18776955E-1,3.0193884E-2,-2.0870344E-1],"split_indices":[1,1,1,0,0,1,0,0,0,1,1,0,0,1,0,0,0,0,0,0,0,0,0,0,0,0,0,0,0],"split_type":[0,0,0,0,0,0,0,0,0,0,0,0,0,0,0,0,0,0,0,0,0,0,0,0,0,0,0,0,0],"sum_hessian":[7.057E3,8E2,6.257E3,4.04E2,3.96E2,5.2E3,1.057E3,2.26E2,1.78E2,2.23E2,1.73E2,1.404E3,3.796E3,5.62E2,4.95E2,8.5E1,1.41E2,1.79E2,4.4E1,1.3E2,4.3E1,1.084E3,3.2E2,1.273E3,2.523E3,8.1E1,4.81E2,4.51E2,4.4E1],"tree_param":{"num_deleted":"0","num_feature":"2","num_nodes":"29","size_leaf_vector":"1"}},{"base_weights":[-3.1197455E-3,-9.612808E-1,1.1952169E-1,-1.3209873E0,-5.919044E-1,2.522327E-1,-7.285911E-1,-1.4223771E0,-1.10532306E-1,1.7724088E-1,-1.5786667E0,4.8571715E-1,-4.452762E-2,-9.5411354E-1,1.2437879E-1,-1.0989839E-1,-1.485046E-1,-4.83183E-3,1.0755389E-1,-1.3710289E-1,-1.8976648E-1,-2.3782272E-3,1.0050827E-1,1.0313789E-2,-4.377803E-2,-1.560429E-1,-7.2649896E-2,4.0128715E-2,-1.8573934E-1],"categories":[],"categories_nodes":[],"categories_segments":[],"categories_sizes":[],"default_left":[0,0,0,0,0,0,0,0,0,0,0,0,0,0,0,0,0,0,0,0,0,0,0,0,0,0,0,0,0],"id":22,"left_children":[1,3,5,7,9,11,13,15,-1,17,19,21,23,25,27,-1,-1,-1,-1,-1,-1,-1,-1,-1,-1,-1,-1,-1,-1],"loss_changes":[8.2950226E2,1.05644714E2,7.045461E2,7.2835693E0,3.0158832E2,3.7501328E2,1.6305084E2,3.8805542E0,0E0,4.5438705E1,8.92334E0,8.015472E2,1.3848369E2,9.1330505E1,9.842626E1,0E0,0E0,0E0,0E0,0E0,0E0,0E0,0E0,0E0,0E0,0E0,0E0,0E0,0E0],"parents":[2147483647,0,0,1,1,2,2,3,3,4,4,5,5,6,6,7,7,9,9,10,10,11,11,12,12,13,13,14,14],"right_children":[2,4,6,8,10,12,14,16,-1,18,20,22,24,26,28,-1,-1,-1,-1,-1,-1,-1,-1,-1,-1,-1,-1,-1,-1],"split_conditions":[7E0,3E0,1.9E1,6E0,5E0,5E0,5E0,1E0,-1.10532306E-1,5E0,5E0,3E0,1.1E1,2E0,2.3E1,-1.0989839E-1,-1.485046E-1,-4.83183E-3,1.0755389E-1,-1.3710289E-1,-1.8976648E-1,-2.3782272E-3,1.0050827E-1,1.0313789E-2,-4.377803E-2,-1.560429E-1,-7.2649896E-2,4.0128715E-2,-1.8573934E-1],"split_indices":[1,1,1,0,0,0,0,1,0,1,1,0,1,0,1,0,0,0,0,0,0,0,0,0,0,0,0,0,0],"split_type":[0,0,0,0,0,0,0,0,0,0,0,0,0,0,0,0,0,0,0,0,0,0,0,0,0,0,0,0,0],"sum_hessian":[7.057E3,8E2,6.257E3,4.04E2,3.96E2,5.411E3,8.46E2,2.71E2,1.33E2,2.23E2,1.73E2,3.028E3,2.383E3,6.69E2,1.77E2,4.7E1,2.24E2,1.79E2,4.4E1,1.08E2,6.5E1,1.529E3,1.499E3,1.733E3,6.5E2,1.81E2,4.88E2,1.56E2,2.1E1],"tree_param":{"num_deleted":"0","num_feature":"2","num_nodes":"29","size_leaf_vector":"1"}},{"base_weights":[-2.9354165E-3,-8.658931E-1,1.07520334E-1,-1.1897995E0,-5.332785E-1,1.9813351E-1,-9.1413194E-1,-1.2810894E0,-9.9561565E-2,1.5997529E-1,-1.4226784E0,-1.7510757E-1,3.187792E-1,-1.0720985E0,-3.4321395E-1,-1.0686529E-1,-1.371937E-1,-4.3513537E-3,9.703756E-2,-1.2787263E-1,-1.8189298E-1,-2.1897915E-3,-6.924202E-2,-4.5448407E-3,5.0141215E-2,-7.086118E-2,-1.302532E-1,-1.6239984E-3,-1.6800965E-1],"categories":[],"categories_nodes":[],"categories_segments":[],"categories_sizes":[],"default_left":[0,0,0,0,0,0,0,0,0,0,0,0,0,0,0,0,0,0,0,0,0,0,0,0,0,0,0,0,0],"id":23,"left_children":[1,3,5,7,9,11,13,15,-1,17,19,21,23,25,27,-1,-1,-1,-1,-1,-1,-1,-1,-1,-1,-1,-1,-1,-1],"loss_changes":[6.728521E2,8.566205E1,5.795164E2,5.9039917E0,2.450098E2,2.589329E2,4.5626892E1,3.7832947E0,0E0,3.6981483E1,7.5992737E0,1.11341324E2,2.8905203E2,3.249707E1,4.8930805E1,0E0,0E0,0E0,0E0,0E0,0E0,0E0,0E0,0E0,0E0,0E0,0E0,0E0,0E0],"parents":[2147483647,0,0,1,1,2,2,3,3,4,4,5,5,6,6,7,7,9,9,10,10,11,11,12,12,13,13,14,14],"right_children":[2,4,6,8,10,12,14,16,-1,18,20,22,24,26,28,-1,-1,-1,-1,-1,-1,-1,-1,-1,-1,-1,-1,-1,-1],"split_conditions":[7E0,3E0,2.1E1,6E0,5E0,9E0,5E0,2E0,-9.9561565E-2,5E0,6E0,7E0,3E0,2.2E1,2.3E1,-1.0686529E-1,-1.371937E-1,-4.3513537E-3,9.703756E-2,-1.2787263E-1,-1.8189298E-1,-2.1897915E-3,-6.924202E-2,-4.5448407E-3,5.0141215E-2,-7.086118E-2,-1.302532E-1,-1.6239984E-3,-1.6800965E-1],"split_indices":[1,1,1,0,0,1,0,0,0,1,1,0,0,1,1,0,0,0,0,0,0,0,0,0,0,0,0,0,0],"split_type":[0,0,0,0,0,0,0,0,0,0,0,0,0,0,0,0,0,0,0,0,0,0,0,0,0,0,0,0,0],"sum_hessian":[7.057E3,8E2,6.257E3,4.04E2,3.96E2,5.748E3,5.09E2,2.71E2,1.33E2,2.23E2,1.73E2,1.404E3,4.344E3,3.98E2,1.11E2,8.5E1,1.86E2,1.79E2,4.4E1,1.3E2,4.3E1,1.084E3,3.2E2,1.451E3,2.893E3,1.56E2,2.42E2,9E1,2.1E1],"tree_param":{"num_deleted":"0","num_feature":"2","num_nodes":"29","size_leaf_vector":"1"}},{"base_weights":[-2.7771574E-3,-7.8000396E-1,9.670533E-2,-1.071668E0,-4.8049772E-1,2.2471118E-1,-5.326473E-1,-1.1797383E0,-9.286311E-2,1.4439115E-1,-1.2821908E0,4.480008E-1,-5.6680895E-2,-1.092268E0,1.03641085E-1,-9.630303E-2,-1.302676E-1,-7.2415755E-3,8.812541E-2,-1.1084843E-1,-1.549643E-1,2.6318232E-2,1.714972E-1,-6.033531E-4,-1.3159685E-1,-2.1531443E-1,-9.095208E-2,3.018131E-2,-1.88919E-1],"categories":[],"categories_nodes":[],"categories_segments":[],"categories_sizes":[],"default_left":[0,0,0,0,0,0,0,0,0,0,0,0,0,0,0,0,0,0,0,0,0,0,0,0,0,0,0,0,0],"id":24,"left_children":[1,3,5,7,9,11,13,15,-1,17,19,21,23,25,27,-1,-1,-1,-1,-1,-1,-1,-1,-1,-1,-1,-1,-1,-1],"loss_changes":[5.458032E2,6.945657E1,5.0426932E2,5.1649475E0,1.9906987E2,3.2681424E2,3.7684592E2,4.793152E0,0E0,3.5849377E1,6.3659973E0,6.7861163E2,1.4681268E2,1.0719171E2,1.9645215E2,0E0,0E0,0E0,0E0,0E0,0E0,0E0,0E0,0E0,0E0,0E0,0E0,0E0,0E0],"parents":[2147483647,0,0,1,1,2,2,3,3,4,4,5,5,6,6,7,7,9,9,10,10,11,11,12,12,13,13,14,14],"right_children":[2,4,6,8,10,12,14,16,-1,18,20,22,24,26,28,-1,-1,-1,-1,-1,-1,-1,-1,-1,-1,-1,-1,-1,-1],"split_conditions":[7E0,3E0,1.8E1,5E0,5E0,5E0,4E0,2E0,-9.286311E-2,4E0,5E0,1.4E1,1.7E1,1.9E1,6E0,-9.630303E-2,-1.302676E-1,-7.2415755E-3,8.812541E-2,-1.1084843E-1,-1.549643E-1,2.6318232E-2,1.714972E-1,-6.033531E-4,-1.3159685E-1,-2.1531443E-1,-9.095208E-2,3.018131E-2,-1.88919E-1],"split_indices":[1,1,1,0,0,0,0,0,0,0,1,1,1,1,0,0,0,0,0,0,0,0,0,0,0,0,0,0,0],"split_type":[0,0,0,0,0,0,0,0,0,0,0,0,0,0,0,0,0,0,0,0,0,0,0,0,0,0,0,0,0],"sum_hessian":[7.057E3,8E2,6.257E3,4.04E2,3.96E2,5.2E3,1.057E3,2.26E2,1.78E2,2.23E2,1.73E2,2.899E3,2.301E3,5.62E2,4.95E2,8.5E1,1.41E2,1.73E2,5E1,1.08E2,6.5E1,2.531E3,3.68E2,2.213E3,8.8E1,8.1E1,4.81E2,4.51E2,4.4E1],"tree_param":{"num_deleted":"0","num_feature":"2","num_nodes":"29","size_leaf_vector":"1"}},{"base_weights":[-2.6273788E-3,-7.5206864E-1,8.170732E-2,-9.6529E-1,-4.7107917E-1,1.8272413E-1,-5.742232E-1,-1.0627626E0,-8.3628684E-2,7.903874E-1,-6.662855E-1,3.8970217E-1,-7.9421E-2,-1.2462536E0,-3.8971305E-1,-8.6784706E-2,-1.1733258E-1,-2.6519324E-3,1.4041725E-1,-1.8356755E-1,-4.1683435E-2,-2.9287732E-3,8.291025E-2,-1.18248224E-1,-5.719448E-4,-1.1618376E-1,-1.7535831E-1,-1.1665013E-2,-8.739137E-2],"categories":[],"categories_nodes":[],"categories_segments":[],"categories_sizes":[],"default_left":[0,0,0,0,0,0,0,0,0,0,0,0,0,0,0,0,0,0,0,0,0,0,0,0,0,0,0,0,0],"id":25,"left_children":[1,3,5,7,9,11,13,15,-1,17,19,21,23,25,27,-1,-1,-1,-1,-1,-1,-1,-1,-1,-1,-1,-1,-1,-1],"loss_changes":[4.4615457E2,4.232312E1,4.205247E2,4.2037964E0,7.686299E1,2.9839722E2,1.0453934E2,3.8736877E0,0E0,2.1096252E1,7.770366E1,5.657766E2,1.9730185E2,5.75708E0,8.7954735E1,0E0,0E0,0E0,0E0,0E0,0E0,0E0,0E0,0E0,0E0,0E0,0E0,0E0,0E0],"parents":[2147483647,0,0,1,1,2,2,3,3,4,4,5,5,6,6,7,7,9,9,10,10,11,11,12,12,13,13,14,14],"right_children":[2,4,6,8,10,12,14,16,-1,18,20,22,24,26,28,-1,-1,-1,-1,-1,-1,-1,-1,-1,-1,-1,-1,-1,-1],"split_conditions":[6E0,3E0,1.9E1,5E0,2E0,5E0,2E0,2E0,-8.3628684E-2,4E0,3E0,3E0,8E0,2.3E1,2.2E1,-8.6784706E-2,-1.1733258E-1,-2.6519324E-3,1.4041725E-1,-1.8356755E-1,-4.1683435E-2,-2.9287732E-3,8.291025E-2,-1.18248224E-1,-5.719448E-4,-1.1618376E-1,-1.7535831E-1,-1.1665013E-2,-8.739137E-2],"split_indices":[1,1,1,0,0,0,0,0,0,1,0,0,1,1,1,0,0,0,0,0,0,0,0,0,0,0,0,0,0],"split_type":[0,0,0,0,0,0,0,0,0,0,0,0,0,0,0,0,0,0,0,0,0,0,0,0,0,0,0,0,0],"sum_hessian":[7.057E3,7.13E2,6.344E3,4.04E2,3.09E2,5.498E3,8.46E2,2.26E2,1.78E2,4.1E1,2.68E2,3.072E3,2.426E3,1.81E2,6.65E2,8.5E1,1.41E2,1.8E1,2.3E1,4.6E1,2.22E2,1.573E3,1.499E3,1.51E2,2.275E3,1.58E2,2.3E1,4.26E2,2.39E2],"tree_param":{"num_deleted":"0","num_feature":"2","num_nodes":"29","size_leaf_vector":"1"}},{"base_weights":[-2.4784105E-3,-3.4036747E-1,1.510131E-1,-8.356432E-1,-2.0788984E-1,3.3957085E-1,-3.8940912E-1,-6.5109885E-1,-8.86353E-1,8.024552E-2,-4.1309163E-1,2.325636E-1,1.1276486E0,-1.2189202E0,-1.8513939E-1,-7.820716E-2,-2.4006693E-3,-1.05681956E-1,-7.728118E-2,6.1457634E-2,-3.6523283E-2,-1.0666245E-1,-2.1095669E-2,-1.5827836E-2,4.309405E-2,1.5666759E-1,-6.2123727E-2,-1.8883227E-1,-1.0571339E-1,9.07863E-3,-6.107245E-2],"categories":[],"categories_nodes":[],"categories_segments":[],"categories_sizes":[],"default_left":[0,0,0,0,0,0,0,0,0,0,0,0,0,0,0,0,0,0,0,0,0,0,0,0,0,0,0,0,0,0,0],"id":26,"left_children":[1,3,5,7,9,11,13,15,17,19,21,23,25,27,29,-1,-1,-1,-1,-1,-1,-1,-1,-1,-1,-1,-1,-1,-1,-1,-1],"loss_changes":[3.661012E2,1.4450282E2,4.9475864E2,3.7744446E0,1.0297131E2,3.0324155E2,2.12596E2,8.522953E0,6.1898193E0,1.7279825E2,1.3412256E2,2.4585106E2,3.3113104E2,2.4862244E1,1.1854219E2,0E0,0E0,0E0,0E0,0E0,0E0,0E0,0E0,0E0,0E0,0E0,0E0,0E0,0E0,0E0,0E0],"parents":[2147483647,0,0,1,1,2,2,3,3,4,4,5,5,6,6,7,7,8,8,9,9,10,10,11,11,12,12,13,13,14,14],"right_children":[2,4,6,8,10,12,14,16,18,20,22,24,26,28,30,-1,-1,-1,-1,-1,-1,-1,-1,-1,-1,-1,-1,-1,-1,-1,-1],"split_conditions":[9E0,4E0,1.7E1,2E0,5E0,1.5E1,2E0,3E0,5E0,8E0,8E0,3E0,6E0,1.8E1,2.1E1,-7.820716E-2,-2.4006693E-3,-1.05681956E-1,-7.728118E-2,6.1457634E-2,-3.6523283E-2,-1.0666245E-1,-2.1095669E-2,-1.5827836E-2,4.309405E-2,1.5666759E-1,-6.2123727E-2,-1.8883227E-1,-1.0571339E-1,9.07863E-3,-6.107245E-2],"split_indices":[1,1,1,0,0,1,0,1,0,1,1,0,0,1,1,0,0,0,0,0,0,0,0,0,0,0,0,0,0,0,0],"split_type":[0,0,0,0,0,0,0,0,0,0,0,0,0,0,0,0,0,0,0,0,0,0,0,0,0,0,0,0,0,0,0],"sum_hessian":[7.057E3,2.204E3,4.853E3,4.64E2,1.74E3,3.598E3,1.255E3,1.03E2,3.61E2,7.24E2,1.016E3,3.169E3,4.29E2,2.47E2,1.008E3,8.5E1,1.8E1,1.41E2,2.2E2,3.29E2,3.95E2,2.39E2,7.77E2,1.067E3,2.102E3,3.43E2,8.6E1,4.6E1,2.01E2,6.12E2,3.96E2],"tree_param":{"num_deleted":"0","num_feature":"2","num_nodes":"31","size_leaf_vector":"1"}},{"base_weights":[-2.3146442E-3,-6.2404656E-1,6.764893E-2,-7.822993E-1,-4.1528398E-1,1.5029582E-1,-4.6900147E-1,-8.471036E-1,-6.449181E-1,6.820018E-1,-5.8506364E-1,3.341865E-1,-8.260334E-2,-6.348737E-1,1.579838E-1,-5.5465292E-2,-9.057282E-2,-5.4603923E-2,-6.826384E-2,-2.1732582E-3,1.2107082E-1,-1.716163E-1,-3.4404688E-2,-1.0427209E-2,6.6091105E-2,-9.590512E-2,-2.4034507E-3,-1.3808581E-2,-7.623068E-2,3.7624907E-2,-1.4068177E-1],"categories":[],"categories_nodes":[],"categories_segments":[],"categories_sizes":[],"default_left":[0,0,0,0,0,0,0,0,0,0,0,0,0,0,0,0,0,0,0,0,0,0,0,0,0,0,0,0,0,0,0],"id":27,"left_children":[1,3,5,7,9,11,13,15,17,19,21,23,25,27,29,-1,-1,-1,-1,-1,-1,-1,-1,-1,-1,-1,-1,-1,-1,-1,-1],"loss_changes":[3.0705524E2,2.3263702E1,2.8148706E2,3.0593567E0,5.8151016E1,2.3553867E2,8.818782E1,4.1610107E0,1.2704086E-1,1.5653198E1,7.27427E1,4.4029208E2,1.24561005E2,4.2310577E1,6.132376E1,0E0,0E0,0E0,0E0,0E0,0E0,0E0,0E0,0E0,0E0,0E0,0E0,0E0,0E0,0E0,0E0],"parents":[2147483647,0,0,1,1,2,2,3,3,4,4,5,5,6,6,7,7,8,8,9,9,10,10,11,11,12,12,13,13,14,14],"right_children":[2,4,6,8,10,12,14,16,18,20,22,24,26,28,30,-1,-1,-1,-1,-1,-1,-1,-1,-1,-1,-1,-1,-1,-1,-1,-1],"split_conditions":[6E0,3E0,1.9E1,6E0,2E0,5E0,5E0,1E0,7E0,4E0,3E0,1E1,8E0,2E1,2.3E1,-5.5465292E-2,-9.057282E-2,-5.4603923E-2,-6.826384E-2,-2.1732582E-3,1.2107082E-1,-1.716163E-1,-3.4404688E-2,-1.0427209E-2,6.6091105E-2,-9.590512E-2,-2.4034507E-3,-1.3808581E-2,-7.623068E-2,3.7624907E-2,-1.4068177E-1],"split_indices":[1,1,1,0,0,0,0,1,0,1,0,1,1,1,1,0,0,0,0,0,0,0,0,0,0,0,0,0,0,0,0],"split_type":[0,0,0,0,0,0,0,0,0,0,0,0,0,0,0,0,0,0,0,0,0,0,0,0,0,0,0,0,0,0,0],"sum_hessian":[7.057E3,7.13E2,6.344E3,4.04E2,3.09E2,5.498E3,8.46E2,2.71E2,1.33E2,4.1E1,2.68E2,3.072E3,2.426E3,6.69E2,1.77E2,4.7E1,2.24E2,4.1E1,9.2E1,1.8E1,2.3E1,4.6E1,2.22E2,1.312E3,1.76E3,1.51E2,2.275E3,1.37E2,5.32E2,1.56E2,2.1E1],"tree_param":{"num_deleted":"0","num_feature":"2","num_nodes":"31","size_leaf_vector":"1"}},{"base_weights":[-2.1671406E-3,-5.6214046E-1,6.084675E-2,-6.818966E-1,-3.3714548E-1,1.5765491E-1,-3.3152142E-1,-5.12362E-1,-7.28719E-1,1.09468184E-1,-4.870429E-1,8.208746E-2,9.7640437E-1,-1.070992E0,-1.4943995E-1,-6.1525412E-2,-1.96736E-3,-8.6837515E-2,-6.3568786E-2,-1.548198E-1,-2.088035E-2,1.443774E-2,-4.5331355E-2,1.6090512E-1,1.807907E-3,-1.7681944E-1,-9.034696E-2,1.1865423E-3,-6.6633865E-2],"categories":[],"categories_nodes":[],"categories_segments":[],"categories_sizes":[],"default_left":[0,0,0,0,0,0,0,0,0,0,0,0,0,0,0,0,0,0,0,0,0,0,0,0,0,0,0,0,0],"id":28,"left_children":[1,3,5,7,9,11,13,15,17,-1,19,21,23,25,27,-1,-1,-1,-1,-1,-1,-1,-1,-1,-1,-1,-1,-1,-1],"loss_changes":[2.4908348E2,1.9008484E1,2.4106355E2,3.3178253E0,5.4189957E1,3.148423E2,1.6895268E2,5.260046E0,4.1512146E0,0E0,6.669965E1,1.5551025E2,2.6067197E2,2.7368134E1,8.413685E1,0E0,0E0,0E0,0E0,0E0,0E0,0E0,0E0,0E0,0E0,0E0,0E0,0E0,0E0],"parents":[2147483647,0,0,1,1,2,2,3,3,4,4,5,5,6,6,7,7,8,8,10,10,11,11,12,12,13,13,14,14],"right_children":[2,4,6,8,10,12,14,16,18,-1,20,22,24,26,28,-1,-1,-1,-1,-1,-1,-1,-1,-1,-1,-1,-1,-1,-1],"split_conditions":[6E0,4E0,1.7E1,2E0,2E0,1.5E1,2E0,3E0,5E0,1.09468184E-1,3E0,7E0,5E0,1.8E1,2.2E1,-6.1525412E-2,-1.96736E-3,-8.6837515E-2,-6.3568786E-2,-1.548198E-1,-2.088035E-2,1.443774E-2,-4.5331355E-2,1.6090512E-1,1.807907E-3,-1.7681944E-1,-9.034696E-2,1.1865423E-3,-6.6633865E-2],"split_indices":[1,1,1,0,0,1,0,1,0,0,0,0,0,1,1,0,0,0,0,0,0,0,0,0,0,0,0,0,0],"split_type":[0,0,0,0,0,0,0,0,0,0,0,0,0,0,0,0,0,0,0,0,0,0,0,0,0,0,0,0,0],"sum_hessian":[7.057E3,7.13E2,6.344E3,4.64E2,2.49E2,5.089E3,1.255E3,1.03E2,3.61E2,2.3E1,2.26E2,4.66E3,4.29E2,2.47E2,1.008E3,8.5E1,1.8E1,1.41E2,2.2E2,4.6E1,1.8E2,4.175E3,4.85E2,2.58E2,1.71E2,4.6E1,2.01E2,7.69E2,2.39E2],"tree_param":{"num_deleted":"0","num_feature":"2","num_nodes":"29","size_leaf_vector":"1"}},{"base_weights":[-2.0191288E-3,-2.5938788E-1,1.14894785E-1,-6.1416703E-1,-1.644817E-1,2.5917855E-1,-2.9863396E-1,-4.6173632E-1,-6.562627E-1,8.9554176E-2,-3.4541732E-1,1.7500082E-1,8.791418E-1,-9.6497E-1,-1.3456066E-1,-5.544441E-2,-1.7809768E-3,-7.821491E-2,-5.724069E-2,5.9611052E-2,-3.3280227E-2,-8.888789E-2,-1.773245E-2,-1.9927723E-2,3.6499318E-2,1.2403627E-1,-5.5923887E-2,-1.5951377E-1,-8.135698E-2,1.0680588E-3,-5.9998233E-2],"categories":[],"categories_nodes":[],"categories_segments":[],"categories_sizes":[],"default_left":[0,0,0,0,0,0,0,0,0,0,0,0,0,0,0,0,0,0,0,0,0,0,0,0,0,0,0,0,0,0,0],"id":29,"left_children":[1,3,5,7,9,11,13,15,17,19,21,23,25,27,29,-1,-1,-1,-1,-1,-1,-1,-1,-1,-1,-1,-1,-1,-1,-1,-1],"loss_changes":[2.1240494E2,7.4142975E1,2.8969363E2,2.6807098E0,8.00545E1,1.876675E2,1.371861E2,4.2702923E0,3.3736725E0,1.553102E2,9.274736E1,2.2549136E2,2.241101E2,2.2363312E1,6.821321E1,0E0,0E0,0E0,0E0,0E0,0E0,0E0,0E0,0E0,0E0,0E0,0E0,0E0,0E0,0E0,0E0],"parents":[2147483647,0,0,1,1,2,2,3,3,4,4,5,5,6,6,7,7,8,8,9,9,10,10,11,11,12,12,13,13,14,14],"right_children":[2,4,6,8,10,12,14,16,18,20,22,24,26,28,30,-1,-1,-1,-1,-1,-1,-1,-1,-1,-1,-1,-1,-1,-1,-1,-1],"split_conditions":[9E0,4E0,1.7E1,2E0,5E0,1.5E1,2E0,3E0,5E0,8E0,8E0,3E0,6E0,1.8E1,2.2E1,-5.544441E-2,-1.7809768E-3,-7.821491E-2,-5.724069E-2,5.9611052E-2,-3.3280227E-2,-8.888789E-2,-1.773245E-2,-1.9927723E-2,3.6499318E-2,1.2403627E-1,-5.5923887E-2,-1.5951377E-1,-8.135698E-2,1.0680588E-3,-5.9998233E-2],"split_indices":[1,1,1,0,0,1,0,1,0,1,1,0,0,1,1,0,0,0,0,0,0,0,0,0,0,0,0,0,0,0,0],"split_type":[0,0,0,0,0,0,0,0,0,0,0,0,0,0,0,0,0,0,0,0,0,0,0,0,0,0,0,0,0,0,0],"sum_hessian":[7.057E3,2.204E3,4.853E3,4.64E2,1.74E3,3.598E3,1.255E3,1.03E2,3.61E2,7.24E2,1.016E3,3.169E3,4.29E2,2.47E2,1.008E3,8.5E1,1.8E1,1.41E2,2.2E2,3.29E2,3.95E2,2.39E2,7.77E2,1.067E3,2.102E3,3.43E2,8.6E1,4.6E1,2.01E2,7.69E2,2.39E2],"tree_param":{"num_deleted":"0","num_feature":"2","num_nodes":"31","size_leaf_vector":"1"}},{"base_weights":[-1.8862922E-3,-4.6907687E-1,5.068675E-2,-1.645055E-1,-5.340624E-1,1.23305336E-1,-3.123168E-1,-4.16113E-1,9.32648E-2,-1.1271069E0,-4.1749784E-1,3.6645362E-1,-5.4677535E-2,-7.4861187E-1,1.8354292E-1,-4.996444E-2,-1.6122919E-3,-3.9857186E-2,-1.3920118E-1,-1.0747497E-2,-6.0175907E-2,-5.190317E-4,1.17133856E-1,-2.0468337E-3,-1.19411364E-1,-1.9823483E-1,-5.3716995E-2,3.7191626E-2,-1.7126413E-1],"categories":[],"categories_nodes":[],"categories_segments":[],"categories_sizes":[],"default_left":[0,0,0,0,0,0,0,0,0,0,0,0,0,0,0,0,0,0,0,0,0,0,0,0,0,0,0,0,0],"id":30,"left_children":[1,3,5,7,9,11,13,15,-1,17,19,21,23,25,27,-1,-1,-1,-1,-1,-1,-1,-1,-1,-1,-1,-1,-1,-1],"loss_changes":[1.7337976E2,1.4044144E1,1.6729782E2,3.5446697E1,4.0176697E1,2.2886472E2,2.2902634E2,3.4667625E0,0E0,1.7972443E1,2.8098045E1,6.68563E2,1.1901802E2,1.458013E2,1.7780347E2,0E0,0E0,0E0,0E0,0E0,0E0,0E0,0E0,0E0,0E0,0E0,0E0,0E0,0E0],"parents":[2147483647,0,0,1,1,2,2,3,3,4,4,5,5,6,6,7,7,9,9,10,10,11,11,12,12,13,13,14,14],"right_children":[2,4,6,8,10,12,14,16,-1,18,20,22,24,26,28,-1,-1,-1,-1,-1,-1,-1,-1,-1,-1,-1,-1,-1,-1],"split_conditions":[6E0,2E0,1.8E1,4E0,3E0,4E0,4E0,3E0,9.32648E-2,1E0,5E0,3E0,1.7E1,1.9E1,6E0,-4.996444E-2,-1.6122919E-3,-3.9857186E-2,-1.3920118E-1,-1.0747497E-2,-6.0175907E-2,-5.190317E-4,1.17133856E-1,-2.0468337E-3,-1.19411364E-1,-1.9823483E-1,-5.3716995E-2,3.7191626E-2,-1.7126413E-1],"split_indices":[1,0,1,1,0,0,0,1,0,1,0,0,1,1,0,0,0,0,0,0,0,0,0,0,0,0,0,0,0],"split_type":[0,0,0,0,0,0,0,0,0,0,0,0,0,0,0,0,0,0,0,0,0,0,0,0,0,0,0,0,0],"sum_hessian":[7.057E3,7.13E2,6.344E3,1.26E2,5.87E2,5.287E3,1.057E3,1.03E2,2.3E1,9.5E1,4.92E2,2.234E3,3.053E3,5.62E2,4.95E2,8.5E1,1.8E1,2.6E1,6.9E1,1.84E2,3.08E2,1.529E3,7.05E2,2.965E3,8.8E1,8.1E1,4.81E2,4.51E2,4.4E1],"tree_param":{"num_deleted":"0","num_feature":"2","num_nodes":"29","size_leaf_vector":"1"}},{"base_weights":[-1.7827172E-3,-2.2586569E-1,1.00010596E-1,-1.4025675E-1,-5.566529E-1,2.0627482E-1,-2.8144994E-1,-5.42999E-1,-5.267966E-2,-4.360696E-2,-5.861753E-1,4.11415E-1,1.7416658E-2,-6.741983E-1,1.6491857E-1,-3.535448E-2,-5.941392E-2,-2.920398E-2,2.2359106E-3,-9.8124586E-2,-5.3388853E-2,4.026092E-3,1.2751059E-1,3.605635E-2,-2.4686497E-2,-1.786531E-1,-4.8356455E-2,3.3480715E-2,-1.5451825E-1],"categories":[],"categories_nodes":[],"categories_segments":[],"categories_sizes":[],"default_left":[0,0,0,0,0,0,0,0,0,0,0,0,0,0,0,0,0,0,0,0,0,0,0,0,0,0,0,0,0],"id":31,"left_children":[1,3,5,7,9,11,13,15,17,-1,19,21,23,25,27,-1,-1,-1,-1,-1,-1,-1,-1,-1,-1,-1,-1,-1,-1],"loss_changes":[1.6101662E2,6.236387E1,1.968179E2,6.1801445E1,1.3570251E0,1.4709772E2,1.855897E2,2.8225174E0,2.5888746E1,0E0,6.9332886E0,5.833722E2,1.7946869E2,1.1851927E2,1.4461852E2,0E0,0E0,0E0,0E0,0E0,0E0,0E0,0E0,0E0,0E0,0E0,0E0,0E0,0E0],"parents":[2147483647,0,0,1,1,2,2,3,3,4,4,5,5,6,6,7,7,8,8,10,10,11,11,12,12,13,13,14,14],"right_children":[2,4,6,8,10,12,14,16,18,-1,20,22,24,26,28,-1,-1,-1,-1,-1,-1,-1,-1,-1,-1,-1,-1,-1,-1],"split_conditions":[9E0,7E0,1.8E1,3E0,3E0,4E0,4E0,1E0,3E0,-4.360696E-2,5E0,3E0,1E1,1.9E1,6E0,-3.535448E-2,-5.941392E-2,-2.920398E-2,2.2359106E-3,-9.8124586E-2,-5.3388853E-2,4.026092E-3,1.2751059E-1,3.605635E-2,-2.4686497E-2,-1.786531E-1,-4.8356455E-2,3.3480715E-2,-1.5451825E-1],"split_indices":[1,0,1,1,1,0,0,1,0,0,1,0,1,1,0,0,0,0,0,0,0,0,0,0,0,0,0,0,0],"split_type":[0,0,0,0,0,0,0,0,0,0,0,0,0,0,0,0,0,0,0,0,0,0,0,0,0,0,0,0,0],"sum_hessian":[7.057E3,2.204E3,4.853E3,1.752E3,4.52E2,3.796E3,1.057E3,3.12E2,1.44E3,9.2E1,3.6E2,1.819E3,1.977E3,5.62E2,4.95E2,6.8E1,2.44E2,3.43E2,1.097E3,4E1,3.2E2,1.273E3,5.46E2,8.6E2,1.117E3,8.1E1,4.81E2,4.51E2,4.4E1],"tree_param":{"num_deleted":"0","num_feature":"2","num_nodes":"29","size_leaf_vector":"1"}},{"base_weights":[-1.6783817E-3,-2.0342273E-1,8.9967266E-2,-1.2630032E-1,-5.0141865E-1,1.773276E-1,-3.235277E-1,-4.890019E-1,-4.7430173E-2,-3.9293166E-2,-5.279779E-1,-2.4530271E-2,2.7612782E-1,-4.402407E-1,1.1760293E-1,-3.187027E-2,-5.3496778E-2,7.317126E-3,-1.7555526E-2,-8.855147E-2,-4.806664E-2,-1.2177374E-1,3.7524313E-2,9.834512E-2,8.004007E-3,-2.8659792E-3,-5.459779E-2,3.0416442E-2,-1.21911325E-1],"categories":[],"categories_nodes":[],"categories_segments":[],"categories_sizes":[],"default_left":[0,0,0,0,0,0,0,0,0,0,0,0,0,0,0,0,0,0,0,0,0,0,0,0,0,0,0,0,0],"id":32,"left_children":[1,3,5,7,9,11,13,15,17,-1,19,21,23,25,27,-1,-1,-1,-1,-1,-1,-1,-1,-1,-1,-1,-1,-1,-1],"loss_changes":[1.305136E2,5.061235E1,1.7539871E2,5.0123703E1,1.097786E0,7.994074E1,4.366015E1,2.2796555E0,2.2279276E1,0E0,5.680893E0,6.291594E2,3.731561E2,2.914238E1,4.4760403E1,0E0,0E0,0E0,0E0,0E0,0E0,0E0,0E0,0E0,0E0,0E0,0E0,0E0,0E0],"parents":[2147483647,0,0,1,1,2,2,3,3,4,4,5,5,6,6,7,7,8,8,10,10,11,11,12,12,13,13,14,14],"right_children":[2,4,6,8,10,12,14,16,18,-1,20,22,24,26,28,-1,-1,-1,-1,-1,-1,-1,-1,-1,-1,-1,-1,-1,-1],"split_conditions":[9E0,7E0,1.9E1,3E0,3E0,3E0,5E0,1E0,5E0,-3.9293166E-2,5E0,1E1,4E0,2E1,2.3E1,-3.187027E-2,-5.3496778E-2,7.317126E-3,-1.7555526E-2,-8.855147E-2,-4.806664E-2,-1.2177374E-1,3.7524313E-2,9.834512E-2,8.004007E-3,-2.8659792E-3,-5.459779E-2,3.0416442E-2,-1.21911325E-1],"split_indices":[1,0,1,1,1,0,0,1,0,0,1,1,0,1,1,0,0,0,0,0,0,0,0,0,0,0,0,0,0],"split_type":[0,0,0,0,0,0,0,0,0,0,0,0,0,0,0,0,0,0,0,0,0,0,0,0,0,0,0,0,0],"sum_hessian":[7.057E3,2.204E3,4.853E3,1.752E3,4.52E2,4.007E3,8.46E2,3.12E2,1.44E3,9.2E1,3.6E2,1.317E3,2.69E3,6.69E2,1.77E2,6.8E1,2.44E2,7.42E2,6.98E2,4E1,3.2E2,3.3E2,9.87E2,5.83E2,2.107E3,1.37E2,5.32E2,1.56E2,2.1E1],"tree_param":{"num_deleted":"0","num_feature":"2","num_nodes":"29","size_leaf_vector":"1"}},{"base_weights":[-1.5667678E-3,-1.8320341E-1,8.094464E-2,-1.1372472E-1,-4.5166466E-1,1.400199E-1,-4.2251208E-1,-4.4037437E-1,-4.2694144E-2,-3.5406087E-2,-4.7555798E-1,-6.41957E-2,2.4243213E-1,-3.321552E-1,-9.5886566E-2,-4.7144346E-2,-2.2867994E-2,-2.702166E-2,2.8626819E-3,-7.991229E-2,-4.327489E-2,-1.09633066E-1,2.4035055E-2,7.864239E-2,8.388216E-3,-4.15826E-2,-8.533226E-4],"categories":[],"categories_nodes":[],"categories_segments":[],"categories_sizes":[],"default_left":[0,0,0,0,0,0,0,0,0,0,0,0,0,0,0,0,0,0,0,0,0,0,0,0,0,0,0],"id":33,"left_children":[1,3,5,7,9,11,13,15,17,-1,19,21,23,25,-1,-1,-1,-1,-1,-1,-1,-1,-1,-1,-1,-1,-1],"loss_changes":[1.05793755E2,4.107704E1,1.4442603E2,4.0654503E1,8.8804626E-1,9.0887665E1,2.4397766E1,1.95084E0,2.3391016E1,0E0,4.654579E0,4.5667477E2,2.4954121E2,1.1856491E1,0E0,0E0,0E0,0E0,0E0,0E0,0E0,0E0,0E0,0E0,0E0,0E0,0E0],"parents":[2147483647,0,0,1,1,2,2,3,3,4,4,5,5,6,6,7,7,8,8,10,10,11,11,12,12,13,13],"right_children":[2,4,6,8,10,12,14,16,18,-1,20,22,24,26,-1,-1,-1,-1,-1,-1,-1,-1,-1,-1,-1,-1,-1],"split_conditions":[9E0,7E0,2.1E1,3E0,3E0,3E0,2.3E1,6E0,3E0,-3.5406087E-2,5E0,1E1,4E0,5E0,-9.5886566E-2,-4.7144346E-2,-2.2867994E-2,-2.702166E-2,2.8626819E-3,-7.991229E-2,-4.327489E-2,-1.09633066E-1,2.4035055E-2,7.864239E-2,8.388216E-3,-4.15826E-2,-8.533226E-4],"split_indices":[1,0,1,1,1,0,1,0,0,0,1,1,0,0,0,0,0,0,0,0,0,0,0,0,0,0,0],"split_type":[0,0,0,0,0,0,0,0,0,0,0,0,0,0,0,0,0,0,0,0,0,0,0,0,0,0,0],"sum_hessian":[7.057E3,2.204E3,4.853E3,1.752E3,4.52E2,4.344E3,5.09E2,3.12E2,1.44E3,9.2E1,3.6E2,1.451E3,2.893E3,4.37E2,7.2E1,2.71E2,4.1E1,3.43E2,1.097E3,4E1,3.2E2,3.3E2,1.121E3,6.52E2,2.241E3,3.47E2,9E1],"tree_param":{"num_deleted":"0","num_feature":"2","num_nodes":"27","size_leaf_vector":"1"}},{"base_weights":[-1.4653485E-3,-1.6499785E-1,7.282197E-2,-1.0240614E-1,-4.0684834E-1,1.6814941E-1,-2.0039164E-1,-3.9656055E-1,-3.844171E-2,-3.1903546E-2,-4.283435E-1,9.461523E-2,7.098592E-1,-7.333159E-1,-6.92067E-2,-2.482215E-2,-4.3671906E-2,7.6801213E-3,-1.6088385E-2,-7.211598E-2,-3.896089E-2,1.30009055E-2,-1.1464504E-1,1.0121931E-1,-4.937354E-2,-1.5027009E-1,-5.506703E-2,1.0746575E-2,-3.4182888E-2],"categories":[],"categories_nodes":[],"categories_segments":[],"categories_sizes":[],"default_left":[0,0,0,0,0,0,0,0,0,0,0,0,0,0,0,0,0,0,0,0,0,0,0,0,0,0,0,0,0],"id":34,"left_children":[1,3,5,7,9,11,13,15,17,-1,19,21,23,25,27,-1,-1,-1,-1,-1,-1,-1,-1,-1,-1,-1,-1,-1,-1],"loss_changes":[8.5755356E1,3.333728E1,1.26454926E2,3.296818E1,7.1839905E-1,1.4329607E2,8.7758255E1,1.7561646E0,2.0345713E1,0E0,3.8135376E0,1.3939465E2,1.5697139E2,3.402266E1,4.8635048E1,0E0,0E0,0E0,0E0,0E0,0E0,0E0,0E0,0E0,0E0,0E0,0E0,0E0,0E0],"parents":[2147483647,0,0,1,1,2,2,3,3,4,4,5,5,6,6,7,7,8,8,10,10,11,11,12,12,13,13,14,14],"right_children":[2,4,6,8,10,12,14,16,18,-1,20,22,24,26,28,-1,-1,-1,-1,-1,-1,-1,-1,-1,-1,-1,-1,-1,-1],"split_conditions":[9E0,7E0,1.7E1,3E0,3E0,1.5E1,2E0,1E0,5E0,-3.1903546E-2,5E0,1.4E1,6E0,1.8E1,2.1E1,-2.482215E-2,-4.3671906E-2,7.6801213E-3,-1.6088385E-2,-7.211598E-2,-3.896089E-2,1.30009055E-2,-1.1464504E-1,1.0121931E-1,-4.937354E-2,-1.5027009E-1,-5.506703E-2,1.0746575E-2,-3.4182888E-2],"split_indices":[1,0,1,1,1,1,0,1,0,0,1,1,0,1,1,0,0,0,0,0,0,0,0,0,0,0,0,0,0],"split_type":[0,0,0,0,0,0,0,0,0,0,0,0,0,0,0,0,0,0,0,0,0,0,0,0,0,0,0,0,0],"sum_hessian":[7.057E3,2.204E3,4.853E3,1.752E3,4.52E2,3.598E3,1.255E3,3.12E2,1.44E3,9.2E1,3.6E2,3.169E3,4.29E2,2.47E2,1.008E3,6.8E1,2.44E2,7.42E2,6.98E2,4E1,3.2E2,3.082E3,8.7E1,3.43E2,8.6E1,4.6E1,2.01E2,6.12E2,3.96E2],"tree_param":{"num_deleted":"0","num_feature":"2","num_nodes":"29","size_leaf_vector":"1"}},{"base_weights":[-1.3893306E-3,2.9748414E-2,-3.2591495E-1,-1.4545922E-1,1.1665361E-1,-3.9444748E-1,1.079606E-1,-5.7672906E-1,1.1685193E-1,4.753853E-1,1.2064739E-2,-3.664795E-1,-4.833971E-2,-9.828175E-3,-8.7125614E-2,3.9853122E-2,-5.723245E-2,8.795086E-2,-3.7827857E-2,1.4859977E-2,-1.38777485E-2,-2.8747484E-2,-3.858173E-2],"categories":[],"categories_nodes":[],"categories_segments":[],"categories_sizes":[],"default_left":[0,0,0,0,0,0,0,0,0,0,0,0,0,0,0,0,0,0,0,0,0,0,0],"id":35,"left_children":[1,3,5,7,9,11,-1,13,15,17,19,21,-1,-1,-1,-1,-1,-1,-1,-1,-1,-1,-1],"loss_changes":[7.133075E1,9.809054E1,5.9954018E1,2.4170645E2,1.6155257E2,1.2906113E0,0E0,1.137742E2,2.582225E2,3.3565857E2,6.870577E1,5.811691E-1,0E0,0E0,0E0,0E0,0E0,0E0,0E0,0E0,0E0,0E0,0E0],"parents":[2147483647,0,0,1,1,2,2,3,3,4,4,5,5,7,7,8,8,9,9,10,10,11,11],"right_children":[2,4,6,8,10,12,-1,14,16,18,20,22,-1,-1,-1,-1,-1,-1,-1,-1,-1,-1,-1],"split_conditions":[7E0,3E0,1E1,1E1,4E0,9E0,1.079606E-1,8E0,1.8E1,1.2E1,1E1,3E0,-4.833971E-2,-9.828175E-3,-8.7125614E-2,3.9853122E-2,-5.723245E-2,8.795086E-2,-3.7827857E-2,1.4859977E-2,-1.38777485E-2,-2.8747484E-2,-3.858173E-2],"split_indices":[0,0,1,1,0,1,0,1,1,1,1,1,0,0,0,0,0,0,0,0,0,0,0],"split_type":[0,0,0,0,0,0,0,0,0,0,0,0,0,0,0,0,0,0,0,0,0,0,0],"sum_hessian":[7.057E3,6.44E3,6.17E2,2.135E3,4.305E3,5.89E2,2.8E1,8.07E2,1.328E3,9.71E2,3.334E3,4.52E2,1.37E2,3.08E2,4.99E2,9.43E2,3.85E2,6.59E2,3.12E2,1.75E3,1.584E3,9.2E1,3.6E2],"tree_param":{"num_deleted":"0","num_feature":"2","num_nodes":"23","size_leaf_vector":"1"}},{"base_weights":[-1.2606052E-3,-3.0431095E-1,3.2841712E-2,1.1686539E-2,-3.7204456E-1,5.6134656E-2,-4.2080042E-1,-1.9162059E-1,8.921971E-2,-9.002729E-1,-2.6843002E-1,8.4828004E-2,-2.7171087E-1,-3.037504E-1,-7.966511E-1,-2.3918903E-2,3.3774525E-3,-2.1669064E-2,-1.1510793E-1,-5.540864E-3,-3.9509844E-2,-6.5130214E-3,1.5651068E-2,-3.5008118E-2,9.753689E-2,-4.2878784E-2,2.1350358E-2,-7.0996255E-2,-9.653399E-2],"categories":[],"categories_nodes":[],"categories_segments":[],"categories_sizes":[],"default_left":[0,0,0,0,0,0,0,0,0,0,0,0,0,0,0,0,0,0,0,0,0,0,0,0,0,0,0,0,0],"id":36,"left_children":[1,3,5,7,9,11,13,15,-1,17,19,21,23,25,27,-1,-1,-1,-1,-1,-1,-1,-1,-1,-1,-1,-1,-1,-1],"loss_changes":[7.295244E1,1.5286552E1,6.7069084E1,2.290575E1,3.1940834E1,5.680362E1,1.339595E1,1.1231351E0,0E0,1.6209465E1,1.3280762E1,5.9680145E1,4.78402E1,1.5484463E1,3.8215637E-1,0E0,0E0,0E0,0E0,0E0,0E0,0E0,0E0,0E0,0E0,0E0,0E0,0E0,0E0],"parents":[2147483647,0,0,1,1,2,2,3,3,4,4,5,5,6,6,7,7,9,9,10,10,11,11,12,12,13,13,14,14],"right_children":[2,4,6,8,10,12,14,16,-1,18,20,22,24,26,28,-1,-1,-1,-1,-1,-1,-1,-1,-1,-1,-1,-1,-1,-1],"split_conditions":[6E0,2E0,2.2E1,4E0,3E0,7E0,2.3E1,3E0,8.921971E-2,1E0,5E0,3E0,1E1,5E0,5E0,-2.3918903E-2,3.3774525E-3,-2.1669064E-2,-1.1510793E-1,-5.540864E-3,-3.9509844E-2,-6.5130214E-3,1.5651068E-2,-3.5008118E-2,9.753689E-2,-4.2878784E-2,2.1350358E-2,-7.0996255E-2,-9.653399E-2],"split_indices":[1,0,1,1,0,0,1,1,0,1,0,0,1,0,0,0,0,0,0,0,0,0,0,0,0,0,0,0,0],"split_type":[0,0,0,0,0,0,0,0,0,0,0,0,0,0,0,0,0,0,0,0,0,0,0,0,0,0,0,0,0],"sum_hessian":[7.057E3,7.13E2,6.344E3,1.26E2,5.87E2,6.035E3,3.09E2,1.03E2,2.3E1,9.5E1,4.92E2,5.55E3,4.85E2,2.37E2,7.2E1,8.5E1,1.8E1,2.6E1,6.9E1,1.84E2,3.08E2,1.795E3,3.755E3,4.57E2,2.8E1,1.91E2,4.6E1,5.1E1,2.1E1],"tree_param":{"num_deleted":"0","num_feature":"2","num_nodes":"29","size_leaf_vector":"1"}},{"base_weights":[-1.1673572E-3,-1.4071786E-1,6.2225726E-2,-2.740384E-1,-7.68227E-2,1.3581796E-1,-1.4869837E-1,1.1058522E-2,-3.351494E-1,1.7549564E-1,-1.4559086E-1,6.8389654E-2,6.325898E-1,-6.024594E-1,-3.702202E-2,-1.7265612E-2,8.0669455E-2,-8.116706E-2,-2.4167847E-2,1.0425957E-1,-7.897373E-2,-5.2238878E-2,-8.16454E-3,9.985827E-3,-1.03486195E-1,9.037065E-2,-4.4668272E-2,-1.3882588E-1,-4.166424E-2,3.135996E-3,-7.620743E-2],"categories":[],"categories_nodes":[],"categories_segments":[],"categories_sizes":[],"default_left":[0,0,0,0,0,0,0,0,0,0,0,0,0,0,0,0,0,0,0,0,0,0,0,0,0,0,0,0,0,0,0],"id":37,"left_children":[1,3,5,7,9,11,13,15,17,19,21,23,25,27,29,-1,-1,-1,-1,-1,-1,-1,-1,-1,-1,-1,-1,-1,-1,-1,-1],"loss_changes":[6.2447617E1,1.8762321E1,7.53658E1,1.2443417E1,2.5913937E1,1.2051058E2,6.362471E1,1.8702868E1,2.5993874E1,2.686485E2,2.8220213E1,1.10158775E2,1.2622542E2,3.5633286E1,5.0050632E1,0E0,0E0,0E0,0E0,0E0,0E0,0E0,0E0,0E0,0E0,0E0,0E0,0E0,0E0,0E0,0E0],"parents":[2147483647,0,0,1,1,2,2,3,3,4,4,5,5,6,6,7,7,8,8,9,9,10,10,11,11,12,12,13,13,14,14],"right_children":[2,4,6,8,10,12,14,16,18,20,22,24,26,28,30,-1,-1,-1,-1,-1,-1,-1,-1,-1,-1,-1,-1,-1,-1,-1,-1],"split_conditions":[9E0,6E0,1.7E1,2E0,8E0,1.5E1,2E0,4E0,3E0,5E0,3E0,1.4E1,6E0,1.8E1,6E0,-1.7265612E-2,8.0669455E-2,-8.116706E-2,-2.4167847E-2,1.0425957E-1,-7.897373E-2,-5.2238878E-2,-8.16454E-3,9.985827E-3,-1.03486195E-1,9.037065E-2,-4.4668272E-2,-1.3882588E-1,-4.166424E-2,3.135996E-3,-7.620743E-2],"split_indices":[1,1,1,0,1,1,0,1,0,0,0,1,0,1,0,0,0,0,0,0,0,0,0,0,0,0,0,0,0,0,0],"split_type":[0,0,0,0,0,0,0,0,0,0,0,0,0,0,0,0,0,0,0,0,0,0,0,0,0,0,0,0,0,0,0],"sum_hessian":[7.057E3,2.204E3,4.853E3,7.13E2,1.491E3,3.598E3,1.255E3,1.26E2,5.87E2,3.19E2,1.172E3,3.169E3,4.29E2,2.47E2,1.008E3,1.03E2,2.3E1,9.5E1,4.92E2,1.68E2,1.51E2,1.69E2,1.003E3,3.082E3,8.7E1,3.43E2,8.6E1,4.6E1,2.01E2,9.22E2,8.6E1],"tree_param":{"num_deleted":"0","num_feature":"2","num_nodes":"31","size_leaf_vector":"1"}},{"base_weights":[-1.1037267E-3,-1.2668078E-1,5.5941697E-2,-2.466932E-1,-6.916364E-2,1.10119425E-1,-2.0049311E-1,1.0451877E-2,-3.0181348E-1,1.5802513E-1,-1.3108286E-1,-3.5734914E-2,1.8151516E-1,-2.9016837E-1,1.3817494E-1,-1.555566E-2,7.293865E-2,-7.313489E-2,-2.175595E-2,9.389531E-2,-7.112831E-2,-4.704576E-2,-7.348846E-3,-9.16589E-2,2.594052E-2,6.9784634E-2,3.8384725E-3,-4.5180666E-5,-3.64635E-2,6.29828E-2,-1.5717266E-2],"categories":[],"categories_nodes":[],"categories_segments":[],"categories_sizes":[],"default_left":[0,0,0,0,0,0,0,0,0,0,0,0,0,0,0,0,0,0,0,0,0,0,0,0,0,0,0,0,0,0,0],"id":38,"left_children":[1,3,5,7,9,11,13,15,17,19,21,23,25,27,29,-1,-1,-1,-1,-1,-1,-1,-1,-1,-1,-1,-1,-1,-1,-1,-1],"loss_changes":[5.056774E1,1.5203548E1,6.745897E1,1.0123325E1,2.1009203E1,4.1743305E1,2.57636E1,1.5270815E1,2.1120644E1,2.1790532E2,2.2892986E1,3.4288525E2,1.9884538E2,1.4454563E1,2.5946112E1,0E0,0E0,0E0,0E0,0E0,0E0,0E0,0E0,0E0,0E0,0E0,0E0,0E0,0E0,0E0,0E0],"parents":[2147483647,0,0,1,1,2,2,3,3,4,4,5,5,6,6,7,7,8,8,9,9,10,10,11,11,12,12,13,13,14,14],"right_children":[2,4,6,8,10,12,14,16,18,20,22,24,26,28,30,-1,-1,-1,-1,-1,-1,-1,-1,-1,-1,-1,-1,-1,-1,-1,-1],"split_conditions":[9E0,6E0,1.9E1,2E0,8E0,3E0,5E0,4E0,3E0,5E0,3E0,1E1,4E0,2E1,2.1E1,-1.555566E-2,7.293865E-2,-7.313489E-2,-2.175595E-2,9.389531E-2,-7.112831E-2,-4.704576E-2,-7.348846E-3,-9.16589E-2,2.594052E-2,6.9784634E-2,3.8384725E-3,-4.5180666E-5,-3.64635E-2,6.29828E-2,-1.5717266E-2],"split_indices":[1,1,1,0,1,0,0,1,0,0,0,1,0,1,1,0,0,0,0,0,0,0,0,0,0,0,0,0,0,0,0],"split_type":[0,0,0,0,0,0,0,0,0,0,0,0,0,0,0,0,0,0,0,0,0,0,0,0,0,0,0,0,0,0,0],"sum_hessian":[7.057E3,2.204E3,4.853E3,7.13E2,1.491E3,4.007E3,8.46E2,1.26E2,5.87E2,3.19E2,1.172E3,1.317E3,2.69E3,6.69E2,1.77E2,1.03E2,2.3E1,9.5E1,4.92E2,1.68E2,1.51E2,1.69E2,1.003E3,3.3E2,9.87E2,5.83E2,2.107E3,1.37E2,5.32E2,6.6E1,1.11E2],"tree_param":{"num_deleted":"0","num_feature":"2","num_nodes":"31","size_leaf_vector":"1"}},{"base_weights":[-1.0000505E-3,2.2821724E-2,-2.4927683E-1,-1.0875448E-1,8.808506E-2,-3.0376396E-1,8.678502E-2,-4.532829E-1,1.00792326E-1,3.6574176E-1,7.1344255E-3,-2.6939666E-1,-4.1437715E-2,-1.9478928E-2,-8.2520634E-2,3.2693963E-2,-4.5253366E-2,7.2622634E-2,-3.9555393E-2,1.3950151E-2,-1.3910021E-2,-1.7452108E-2,-2.9309204E-2],"categories":[],"categories_nodes":[],"categories_segments":[],"categories_sizes":[],"default_left":[0,0,0,0,0,0,0,0,0,0,0,0,0,0,0,0,0,0,0,0,0,0,0],"id":39,"left_children":[1,3,5,7,9,11,-1,13,15,17,19,21,-1,-1,-1,-1,-1,-1,-1,-1,-1,-1,-1],"loss_changes":[4.1749477E1,5.5319107E1,3.788069E1,1.5425381E2,9.678114E1,2.1312447E0,0E0,7.752025E1,1.6644995E2,2.6703842E2,6.457384E1,9.672432E-1,0E0,0E0,0E0,0E0,0E0,0E0,0E0,0E0,0E0,0E0,0E0],"parents":[2147483647,0,0,1,1,2,2,3,3,4,4,5,5,7,7,8,8,9,9,10,10,11,11],"right_children":[2,4,6,8,10,12,-1,14,16,18,20,22,-1,-1,-1,-1,-1,-1,-1,-1,-1,-1,-1],"split_conditions":[7E0,3E0,1E1,1E1,4E0,9E0,8.678502E-2,9E0,1.8E1,1.2E1,1E1,3E0,-4.1437715E-2,-1.9478928E-2,-8.2520634E-2,3.2693963E-2,-4.5253366E-2,7.2622634E-2,-3.9555393E-2,1.3950151E-2,-1.3910021E-2,-1.7452108E-2,-2.9309204E-2],"split_indices":[0,0,1,1,0,1,0,1,1,1,1,1,0,0,0,0,0,0,0,0,0,0,0],"split_type":[0,0,0,0,0,0,0,0,0,0,0,0,0,0,0,0,0,0,0,0,0,0,0],"sum_hessian":[7.057E3,6.44E3,6.17E2,2.135E3,4.305E3,5.89E2,2.8E1,8.07E2,1.328E3,9.71E2,3.334E3,4.52E2,1.37E2,4.77E2,3.3E2,9.43E2,3.85E2,6.59E2,3.12E2,1.75E3,1.584E3,9.2E1,3.6E2],"tree_param":{"num_deleted":"0","num_feature":"2","num_nodes":"23","size_leaf_vector":"1"}},{"base_weights":[-9.116475E-4,-1.1898207E-1,5.2723747E-2,1.1087907E-1,-1.4425667E-1,-1.4601953E-1,9.83071E-2,-1.638562E-1,2.8637424E-1,-4.1576964E-1,-1.0332053E-1,-1.2986572E-2,-4.9893364E-1,1.3233739E-1,-2.0649873E-1,5.430819E-3,-2.3969878E-2,4.1738205E-2,4.2956513E-3,-6.397001E-2,-2.8296301E-2,8.636776E-3,-1.7868297E-2,-1.2967906E-2,9.401824E-2,-1.3097726E-1,-3.0780315E-2,2.7115572E-2,5.104303E-3,-1.4725777E-2,-6.1468583E-2],"categories":[],"categories_nodes":[],"categories_segments":[],"categories_sizes":[],"default_left":[0,0,0,0,0,0,0,0,0,0,0,0,0,0,0,0,0,0,0,0,0,0,0,0,0,0,0,0,0,0,0],"id":40,"left_children":[1,3,5,7,9,11,13,15,17,19,21,23,25,27,29,-1,-1,-1,-1,-1,-1,-1,-1,-1,-1,-1,-1,-1,-1,-1,-1],"loss_changes":[4.4702847E1,1.2826265E1,4.3988613E1,1.0605947E1,2.2041927E1,4.2529507E1,4.0988846E1,1.4359865E0,4.2552786E0,7.5512505E0,2.4717834E1,7.342095E1,3.8030895E1,4.0082283E1,9.509499E0,0E0,0E0,0E0,0E0,0E0,0E0,0E0,0E0,0E0,0E0,0E0,0E0,0E0,0E0,0E0,0E0],"parents":[2147483647,0,0,1,1,2,2,3,3,4,4,5,5,6,6,7,7,8,8,9,9,10,10,11,11,12,12,13,13,14,14],"right_children":[2,4,6,8,10,12,14,16,18,20,22,24,26,28,30,-1,-1,-1,-1,-1,-1,-1,-1,-1,-1,-1,-1,-1,-1,-1,-1],"split_conditions":[9E0,2E0,2E0,3E0,3E0,1.7E1,2.1E1,2E0,8E0,5E0,5E0,1.4E1,1.8E1,4E0,2.3E1,5.430819E-3,-2.3969878E-2,4.1738205E-2,4.2956513E-3,-6.397001E-2,-2.8296301E-2,8.636776E-3,-1.7868297E-2,-1.2967906E-2,9.401824E-2,-1.3097726E-1,-3.0780315E-2,2.7115572E-2,5.104303E-3,-1.4725777E-2,-6.1468583E-2],"split_indices":[1,0,0,1,0,1,1,1,1,1,0,1,1,0,1,0,0,0,0,0,0,0,0,0,0,0,0,0,0,0,0],"split_type":[0,0,0,0,0,0,0,0,0,0,0,0,0,0,0,0,0,0,0,0,0,0,0,0,0,0,0,0,0,0,0],"sum_hessian":[7.057E3,2.204E3,4.853E3,2.18E2,1.986E3,9.05E2,3.948E3,8.5E1,1.33E2,2.59E2,1.727E3,6.58E2,2.47E2,3.552E3,3.96E2,2.2E1,6.3E1,8.6E1,4.7E1,9.5E1,1.64E2,4.91E2,1.236E3,5.87E2,7.1E1,4.6E1,2.01E2,1.311E3,2.241E3,3.47E2,4.9E1],"tree_param":{"num_deleted":"0","num_feature":"2","num_nodes":"31","size_leaf_vector":"1"}},{"base_weights":[-8.48476E-4,-2.0637748E-1,2.5458584E-2,-7.4305676E-2,-3.7463298E-1,-9.669907E-2,7.75396E-2,-1.5297368E-1,6.3710576E-1,-1.8101409E-1,-6.959598E-1,-5.53495E-1,9.0010405E-2,3.6395133E-1,5.383554E-3,-3.0847851E-2,4.398506E-3,2.7062574E-3,1.2736481E-1,-2.6058573E-2,-1.5918847E-2,-1.03085235E-1,-5.1679935E-2,-1.5365622E-2,-8.5127294E-2,2.8786927E-2,-3.941056E-2,7.676453E-2,-3.7366282E-2,-5.6240773E-3,2.0571211E-2],"categories":[],"categories_nodes":[],"categories_segments":[],"categories_sizes":[],"default_left":[0,0,0,0,0,0,0,0,0,0,0,0,0,0,0,0,0,0,0,0,0,0,0,0,0,0,0,0,0,0,0],"id":41,"left_children":[1,3,5,7,9,11,13,15,17,19,21,23,25,27,29,-1,-1,-1,-1,-1,-1,-1,-1,-1,-1,-1,-1,-1,-1,-1,-1],"loss_changes":[3.81669E1,1.7771828E1,3.9821484E1,2.5281853E1,2.177369E1,1.596239E2,9.0681946E1,1.2448551E1,1.7439856E1,3.4232903E-1,7.387184E0,6.452051E1,1.2741392E2,2.6321808E2,4.3293533E1,0E0,0E0,0E0,0E0,0E0,0E0,0E0,0E0,0E0,0E0,0E0,0E0,0E0,0E0,0E0,0E0],"parents":[2147483647,0,0,1,1,2,2,3,3,4,4,5,5,6,6,7,7,8,8,9,9,10,10,11,11,12,12,13,13,14,14],"right_children":[2,4,6,8,10,12,14,16,18,20,22,24,26,28,30,-1,-1,-1,-1,-1,-1,-1,-1,-1,-1,-1,-1,-1,-1,-1,-1],"split_conditions":[7E0,5E0,3E0,5E0,4E0,1E1,4E0,3E0,2E0,6E0,6E0,2E0,1.8E1,1.2E1,1.5E1,-3.0847851E-2,4.398506E-3,2.7062574E-3,1.2736481E-1,-2.6058573E-2,-1.5918847E-2,-1.03085235E-1,-5.1679935E-2,-1.5365622E-2,-8.5127294E-2,2.8786927E-2,-3.941056E-2,7.676453E-2,-3.7366282E-2,-5.6240773E-3,2.0571211E-2],"split_indices":[1,0,0,1,1,1,0,1,0,0,0,0,1,1,1,0,0,0,0,0,0,0,0,0,0,0,0,0,0,0,0],"split_type":[0,0,0,0,0,0,0,0,0,0,0,0,0,0,0,0,0,0,0,0,0,0,0,0,0,0,0,0,0,0,0],"sum_hessian":[7.057E3,8E2,6.257E3,4.49E2,3.51E2,1.87E3,4.387E3,4.05E2,4.4E1,2.2E2,1.31E2,5.42E2,1.328E3,8.82E2,3.505E3,2.26E2,1.79E2,2.3E1,2.1E1,4.5E1,1.75E2,4.4E1,8.7E1,2.32E2,3.1E2,9.43E2,3.85E2,5.7E2,3.12E2,2.681E3,8.24E2],"tree_param":{"num_deleted":"0","num_feature":"2","num_nodes":"31","size_leaf_vector":"1"}},{"base_weights":[-7.847561E-4,-1.8585601E-1,2.2903781E-2,-6.664481E-2,-3.377287E-1,-8.708896E-2,6.979838E-2,-1.3774139E-1,5.7628536E-1,-2.2583868E-1,-8.1916374E-1,-4.983308E-1,8.1000894E-2,3.2760057E-1,4.849975E-3,-2.7776657E-2,3.961115E-3,2.446874E-3,1.1520723E-1,-5.6331147E-2,-1.20502375E-2,-6.244235E-2,-9.023424E-2,-1.38356555E-2,-7.664198E-2,2.5911218E-2,-3.5479717E-2,6.9101475E-2,-3.3641566E-2,1.0907124E-2,-1.1753064E-2],"categories":[],"categories_nodes":[],"categories_segments":[],"categories_sizes":[],"default_left":[0,0,0,0,0,0,0,0,0,0,0,0,0,0,0,0,0,0,0,0,0,0,0,0,0,0,0,0,0,0,0],"id":42,"left_children":[1,3,5,7,9,11,13,15,17,19,21,23,25,27,29,-1,-1,-1,-1,-1,-1,-1,-1,-1,-1,-1,-1,-1,-1,-1,-1],"loss_changes":[3.0947004E1,1.4479538E1,3.2285255E1,2.0648941E1,1.8776463E1,1.2937433E2,7.347037E1,1.00935335E1,1.4269608E1,1.0134433E1,5.056381E-1,5.229625E1,1.0324964E2,2.1331172E2,4.4730663E1,0E0,0E0,0E0,0E0,0E0,0E0,0E0,0E0,0E0,0E0,0E0,0E0,0E0,0E0,0E0,0E0],"parents":[2147483647,0,0,1,1,2,2,3,3,4,4,5,5,6,6,7,7,8,8,9,9,10,10,11,11,12,12,13,13,14,14],"right_children":[2,4,6,8,10,12,14,16,18,20,22,24,26,28,30,-1,-1,-1,-1,-1,-1,-1,-1,-1,-1,-1,-1,-1,-1,-1,-1],"split_conditions":[7E0,5E0,3E0,5E0,5E0,1E1,4E0,3E0,2E0,6E0,6E0,2E0,1.8E1,1.2E1,1E1,-2.7776657E-2,3.961115E-3,2.446874E-3,1.1520723E-1,-5.6331147E-2,-1.20502375E-2,-6.244235E-2,-9.023424E-2,-1.38356555E-2,-7.664198E-2,2.5911218E-2,-3.5479717E-2,6.9101475E-2,-3.3641566E-2,1.0907124E-2,-1.1753064E-2],"split_indices":[1,0,0,1,1,1,0,1,0,0,0,0,1,1,1,0,0,0,0,0,0,0,0,0,0,0,0,0,0,0,0],"split_type":[0,0,0,0,0,0,0,0,0,0,0,0,0,0,0,0,0,0,0,0,0,0,0,0,0,0,0,0,0,0,0],"sum_hessian":[7.057E3,8E2,6.257E3,4.49E2,3.51E2,1.87E3,4.387E3,4.05E2,4.4E1,2.86E2,6.5E1,5.42E2,1.328E3,8.82E2,3.505E3,2.26E2,1.79E2,2.3E1,2.1E1,6.7E1,2.19E2,2.2E1,4.3E1,2.32E2,3.1E2,9.43E2,3.85E2,5.7E2,3.12E2,1.893E3,1.612E3],"tree_param":{"num_deleted":"0","num_feature":"2","num_nodes":"31","size_leaf_vector":"1"}},{"base_weights":[-7.334435E-4,1.9219797E-2,-2.0869151E-1,-7.870426E-2,6.779076E-2,-2.5771645E-1,7.95909E-2,-3.2795516E-1,7.28935E-2,2.4961287E-1,1.47776E-2,-2.1881373E-1,-3.835514E-2,-1.0133315E-2,-6.5423116E-2,2.3322828E-2,-3.1940944E-2,5.1125087E-2,-3.0288136E-2,1.3877533E-2,-1.2221597E-2,-1.1191196E-2,-2.457474E-2],"categories":[],"categories_nodes":[],"categories_segments":[],"categories_sizes":[],"default_left":[0,0,0,0,0,0,0,0,0,0,0,0,0,0,0,0,0,0,0,0,0,0,0],"id":43,"left_children":[1,3,5,7,9,11,-1,13,15,17,19,21,-1,-1,-1,-1,-1,-1,-1,-1,-1,-1,-1],"loss_changes":[2.9290737E1,3.0640444E1,3.0641918E1,8.073454E1,4.1501694E1,2.8043137E0,0E0,5.9678276E1,8.3668335E1,1.4066083E2,5.666824E1,1.2768002E0,0E0,0E0,0E0,0E0,0E0,0E0,0E0,0E0,0E0,0E0,0E0],"parents":[2147483647,0,0,1,1,2,2,3,3,4,4,5,5,7,7,8,8,9,9,10,10,11,11],"right_children":[2,4,6,8,10,12,-1,14,16,18,20,22,-1,-1,-1,-1,-1,-1,-1,-1,-1,-1,-1],"split_conditions":[7E0,3E0,1E1,1E1,4E0,9E0,7.95909E-2,9E0,1.8E1,1.2E1,1E1,3E0,-3.835514E-2,-1.0133315E-2,-6.5423116E-2,2.3322828E-2,-3.1940944E-2,5.1125087E-2,-3.0288136E-2,1.3877533E-2,-1.2221597E-2,-1.1191196E-2,-2.457474E-2],"split_indices":[0,0,1,1,0,1,0,1,1,1,1,1,0,0,0,0,0,0,0,0,0,0,0],"split_type":[0,0,0,0,0,0,0,0,0,0,0,0,0,0,0,0,0,0,0,0,0,0,0],"sum_hessian":[7.057E3,6.44E3,6.17E2,2.135E3,4.305E3,5.89E2,2.8E1,8.07E2,1.328E3,9.71E2,3.334E3,4.52E2,1.37E2,4.77E2,3.3E2,9.43E2,3.85E2,6.59E2,3.12E2,1.75E3,1.584E3,9.2E1,3.6E2],"tree_param":{"num_deleted":"0","num_feature":"2","num_nodes":"23","size_leaf_vector":"1"}},{"base_weights":[-6.6796027E-4,-1.00099504E-1,4.45004E-2,1.3985185E-1,-1.264957E-1,-1.373707E-1,8.621494E-2,-5.8208264E-2,3.1621736E-1,-2.2758828E-1,-7.7065416E-2,-4.6765067E-2,-3.7757933E-1,1.8987978E-1,2.4266215E-2,1.14881685E-2,-1.06048025E-2,4.7786128E-2,7.726642E-3,-1.33380145E-2,-3.0750036E-2,1.5686631E-2,-1.2083321E-2,-1.467626E-2,7.705309E-2,-1.2579437E-1,-1.7087292E-2,3.725472E-2,-3.7378516E-2,2.4797922E-2,-9.516413E-3],"categories":[],"categories_nodes":[],"categories_segments":[],"categories_sizes":[],"default_left":[0,0,0,0,0,0,0,0,0,0,0,0,0,0,0,0,0,0,0,0,0,0,0,0,0,0,0,0,0,0,0],"id":44,"left_children":[1,3,5,7,9,11,13,15,17,19,21,23,25,27,29,-1,-1,-1,-1,-1,-1,-1,-1,-1,-1,-1,-1,-1,-1,-1,-1],"loss_changes":[3.1703058E1,1.39837265E1,3.683754E1,7.66829E0,9.911566E0,1.970076E1,2.535549E1,8.733635E-1,4.443571E0,4.867481E0,1.3697826E1,5.3971565E1,4.491533E1,1.5221593E2,6.609752E1,0E0,0E0,0E0,0E0,0E0,0E0,0E0,0E0,0E0,0E0,0E0,0E0,0E0,0E0,0E0,0E0],"parents":[2147483647,0,0,1,1,2,2,3,3,4,4,5,5,6,6,7,7,8,8,9,9,10,10,11,11,12,12,13,13,14,14],"right_children":[2,4,6,8,10,12,14,16,18,20,22,24,26,28,30,-1,-1,-1,-1,-1,-1,-1,-1,-1,-1,-1,-1,-1,-1,-1,-1],"split_conditions":[9E0,2E0,2E0,4E0,7E0,1.7E1,4E0,2E0,8E0,5E0,8E0,1.4E1,1.8E1,1.8E1,1E1,1.14881685E-2,-1.06048025E-2,4.7786128E-2,7.726642E-3,-1.33380145E-2,-3.0750036E-2,1.5686631E-2,-1.2083321E-2,-1.467626E-2,7.705309E-2,-1.2579437E-1,-1.7087292E-2,3.725472E-2,-3.7378516E-2,2.4797922E-2,-9.516413E-3],"split_indices":[1,0,0,1,1,1,0,1,1,0,1,1,1,1,1,0,0,0,0,0,0,0,0,0,0,0,0,0,0,0,0],"split_type":[0,0,0,0,0,0,0,0,0,0,0,0,0,0,0,0,0,0,0,0,0,0,0,0,0,0,0,0,0,0,0],"sum_hessian":[7.057E3,2.204E3,4.853E3,2.18E2,1.986E3,9.05E2,3.948E3,1.03E2,1.15E2,6.51E2,1.335E3,6.58E2,2.47E2,1.476E3,2.472E3,2.2E1,8.1E1,6.8E1,4.7E1,3E2,3.51E2,2.1E2,1.125E3,5.87E2,7.1E1,4.6E1,2.01E2,1.115E3,3.61E2,8.6E2,1.612E3],"tree_param":{"num_deleted":"0","num_feature":"2","num_nodes":"31","size_leaf_vector":"1"}},{"base_weights":[-6.081443E-4,-3.4835335E-2,1.08553596E-1,-2.0612063E-2,-8.889673E-1,5.082538E-1,-2.8372876E-2,-1.4949332E-1,3.2591823E-2,-2.8201994E-1,1.1063605E-1,7.326472E-1,-3.8484454E-1,1.9292114E-2,-6.690587E-1,-1.1194806E-2,-1.0026479E-1,4.0030524E-2,-5.2424665E-3,3.404006E-2,1.2031726E-1,6.7158192E-3,-1.9024117E-1,-3.403978E-2,1.15915965E-2,3.8561446E-3,-1.3303612E-1],"categories":[],"categories_nodes":[],"categories_segments":[],"categories_sizes":[],"default_left":[0,0,0,0,0,0,0,0,0,0,0,0,0,0,0,0,0,0,0,0,0,0,0,0,0,0,0],"id":45,"left_children":[1,3,5,7,9,11,13,15,17,-1,-1,19,21,23,25,-1,-1,-1,-1,-1,-1,-1,-1,-1,-1,-1,-1],"loss_changes":[2.6374586E1,6.5268E1,9.223371E1,3.6257744E1,3.4222302E2,8.645624E1,3.8368996E1,4.9377064E1,1.1703355E2,0E0,0E0,6.3079742E1,5.980494E1,4.0702366E1,4.076303E1,0E0,0E0,0E0,0E0,0E0,0E0,0E0,0E0,0E0,0E0,0E0,0E0],"parents":[2147483647,0,0,1,1,2,2,3,3,4,4,5,5,6,6,7,7,8,8,11,11,12,12,13,13,14,14],"right_children":[2,4,6,8,10,12,14,16,18,-1,-1,20,22,24,26,-1,-1,-1,-1,-1,-1,-1,-1,-1,-1,-1,-1],"split_conditions":[1.5E1,1.4E1,1.7E1,3E0,6E0,6E0,6E0,1.3E1,4E0,-2.8201994E-1,1.1063605E-1,4E0,1.6E1,2E0,1.8E1,-1.1194806E-2,-1.0026479E-1,4.0030524E-2,-5.2424665E-3,3.404006E-2,1.2031726E-1,6.7158192E-3,-1.9024117E-1,-3.403978E-2,1.15915965E-2,3.8561446E-3,-1.3303612E-1],"split_indices":[1,1,1,0,0,0,0,1,0,0,0,0,1,0,1,0,0,0,0,0,0,0,0,0,0,0,0],"split_type":[0,0,0,0,0,0,0,0,0,0,0,0,0,0,0,0,0,0,0,0,0,0,0,0,0,0,0],"sum_hessian":[7.057E3,5.373E3,1.684E3,5.286E3,8.7E1,4.29E2,1.255E3,1.544E3,3.742E3,4.4E1,4.3E1,3.43E2,8.6E1,1.169E3,8.6E1,1.48E3,6.4E1,7.02E2,3.04E3,1.88E2,1.55E2,6.7E1,1.9E1,2.47E2,9.22E2,4.2E1,4.4E1],"tree_param":{"num_deleted":"0","num_feature":"2","num_nodes":"27","size_leaf_vector":"1"}},{"base_weights":[-6.080407E-4,-8.8646516E-2,3.938484E-2,1.3726737E-1,-1.1350132E-1,4.8420478E-2,-5.53051E-1,-4.129177E-2,2.9617152E-1,-2.4008551E-1,-6.997546E-2,-4.742162E-2,9.822959E-2,-4.430292E-1,-7.879639E-2,1.1460093E-2,-8.451421E-3,4.41799E-2,8.066174E-3,-8.467881E-3,-4.1055452E-2,2.108014E-2,-1.2530252E-2,-5.8941275E-2,8.997998E-3,2.6975123E-2,1.2462832E-3,-5.298111E-2,-3.5593282E-2],"categories":[],"categories_nodes":[],"categories_segments":[],"categories_sizes":[],"default_left":[0,0,0,0,0,0,0,0,0,0,0,0,0,0,0,0,0,0,0,0,0,0,0,0,0,0,0,0,0],"id":46,"left_children":[1,3,5,7,9,11,13,15,17,19,21,23,25,27,-1,-1,-1,-1,-1,-1,-1,-1,-1,-1,-1,-1,-1,-1,-1],"loss_changes":[2.485409E1,1.2396755E1,2.6010422E1,6.22609E0,1.0930943E1,2.2833012E1,1.5376339E0,7.10444E-1,3.6049252E0,1.3423187E1,2.3017561E1,1.2188668E2,4.6291695E1,2.0445824E-1,0E0,0E0,0E0,0E0,0E0,0E0,0E0,0E0,0E0,0E0,0E0,0E0,0E0,0E0,0E0],"parents":[2147483647,0,0,1,1,2,2,3,3,4,4,5,5,6,6,7,7,8,8,9,9,10,10,11,11,12,12,13,13],"right_children":[2,4,6,8,10,12,14,16,18,20,22,24,26,28,-1,-1,-1,-1,-1,-1,-1,-1,-1,-1,-1,-1,-1,-1,-1],"split_conditions":[9E0,2E0,2.3E1,4E0,4E0,3E0,5E0,2E0,8E0,8E0,5E0,1E1,1E1,2E0,-7.879639E-2,1.1460093E-2,-8.451421E-3,4.41799E-2,8.066174E-3,-8.467881E-3,-4.1055452E-2,2.108014E-2,-1.2530252E-2,-5.8941275E-2,8.997998E-3,2.6975123E-2,1.2462832E-3,-5.298111E-2,-3.5593282E-2],"split_indices":[1,0,1,1,0,0,0,1,1,1,0,1,1,0,0,0,0,0,0,0,0,0,0,0,0,0,0,0,0],"split_type":[0,0,0,0,0,0,0,0,0,0,0,0,0,0,0,0,0,0,0,0,0,0,0,0,0,0,0,0,0],"sum_hessian":[7.057E3,2.204E3,4.853E3,2.18E2,1.986E3,4.781E3,7.2E1,1.03E2,1.15E2,5.07E2,1.479E3,1.635E3,3.146E3,5.1E1,2.1E1,2.2E1,8.1E1,6.8E1,4.7E1,2.66E2,2.41E2,2.43E2,1.236E3,3.3E2,1.305E3,1.048E3,2.098E3,2.3E1,2.8E1],"tree_param":{"num_deleted":"0","num_feature":"2","num_nodes":"29","size_leaf_vector":"1"}},{"base_weights":[-5.720553E-4,-3.0877618E-2,9.6082345E-2,-1.8015964E-2,-8.03249E-1,4.5400813E-1,-2.6532438E-2,-1.2423705E-1,2.5833782E-2,-2.545664E-1,9.9702194E-2,8.0735725E-1,-8.070948E-2,1.6494775E-2,-6.048693E-1,-8.9544365E-3,-9.127854E-2,3.6114924E-2,-5.1690913E-3,3.0050162E-2,2.1452215E-1,1.9234812E-2,-3.4970082E-2,-3.09709E-2,1.04124285E-2,3.3577941E-3,-1.2014996E-1],"categories":[],"categories_nodes":[],"categories_segments":[],"categories_sizes":[],"default_left":[0,0,0,0,0,0,0,0,0,0,0,0,0,0,0,0,0,0,0,0,0,0,0,0,0,0,0],"id":47,"left_children":[1,3,5,7,9,11,13,15,17,-1,-1,19,21,23,25,-1,-1,-1,-1,-1,-1,-1,-1,-1,-1,-1,-1],"loss_changes":[2.067702E1,5.33707E1,7.3961624E1,2.462883E1,2.7857816E2,8.131022E1,3.1264565E1,4.2184616E1,9.73188E1,0E0,0E0,1.7498427E2,1.27006855E1,3.3476788E1,3.3180122E1,0E0,0E0,0E0,0E0,0E0,0E0,0E0,0E0,0E0,0E0,0E0,0E0],"parents":[2147483647,0,0,1,1,2,2,3,3,4,4,5,5,6,6,7,7,8,8,11,11,12,12,13,13,14,14],"right_children":[2,4,6,8,10,12,14,16,18,-1,-1,20,22,24,26,-1,-1,-1,-1,-1,-1,-1,-1,-1,-1,-1,-1],"split_conditions":[1.5E1,1.4E1,1.7E1,3E0,6E0,5E0,6E0,1.3E1,4E0,-2.545664E-1,9.9702194E-2,4E0,6E0,2E0,1.8E1,-8.9544365E-3,-9.127854E-2,3.6114924E-2,-5.1690913E-3,3.0050162E-2,2.1452215E-1,1.9234812E-2,-3.4970082E-2,-3.09709E-2,1.04124285E-2,3.3577941E-3,-1.2014996E-1],"split_indices":[1,1,1,0,0,0,0,1,0,0,0,0,0,0,1,0,0,0,0,0,0,0,0,0,0,0,0],"split_type":[0,0,0,0,0,0,0,0,0,0,0,0,0,0,0,0,0,0,0,0,0,0,0,0,0,0,0],"sum_hessian":[7.057E3,5.373E3,1.684E3,5.286E3,8.7E1,4.29E2,1.255E3,1.544E3,3.742E3,4.4E1,4.3E1,2.58E2,1.71E2,1.169E3,8.6E1,1.48E3,6.4E1,7.02E2,3.04E3,1.88E2,7E1,8.5E1,8.6E1,2.47E2,9.22E2,4.2E1,4.4E1],"tree_param":{"num_deleted":"0","num_feature":"2","num_nodes":"27","size_leaf_vector":"1"}},{"base_weights":[-5.33693E-4,-1.4903896E-1,1.8474495E-2,6.584916E-2,-1.982478E-1,2.4557726E-2,-4.9726984E-1,-2.8265275E-2,2.7270135E-1,2.2579825E-2,-2.2399928E-1,4.1306164E-2,-1.7195958E-1,-3.9233768E-1,-7.2268814E-2,1.1220435E-2,-6.732059E-3,5.7103015E-2,-3.6990007E-3,1.17988605E-2,-1.8661113E-2,-3.840699E-2,-1.6321035E-2,-3.8463983E-3,7.954538E-3,-2.2914467E-2,7.371E-2,-4.4935714E-2,-3.316203E-2],"categories":[],"categories_nodes":[],"categories_segments":[],"categories_sizes":[],"default_left":[0,0,0,0,0,0,0,0,0,0,0,0,0,0,0,0,0,0,0,0,0,0,0,0,0,0,0,0,0],"id":48,"left_children":[1,3,5,7,9,11,13,15,17,19,21,23,25,27,-1,-1,-1,-1,-1,-1,-1,-1,-1,-1,-1,-1,-1,-1,-1],"loss_changes":[1.9926188E1,8.483149E0,1.964601E1,2.9278746E0,3.7127457E0,2.0367445E1,1.4431782E0,5.781065E-1,4.3634453E0,1.399165E0,5.619938E0,1.7393093E1,2.5433445E1,3.1011581E-2,0E0,0E0,0E0,0E0,0E0,0E0,0E0,0E0,0E0,0E0,0E0,0E0,0E0,0E0,0E0],"parents":[2147483647,0,0,1,1,2,2,3,3,4,4,5,5,6,6,7,7,8,8,9,9,10,10,11,11,12,12,13,13],"right_children":[2,4,6,8,10,12,14,16,18,20,22,24,26,28,-1,-1,-1,-1,-1,-1,-1,-1,-1,-1,-1,-1,-1,-1,-1],"split_conditions":[7E0,2E0,2.3E1,4E0,1E0,7E0,5E0,2E0,5E0,6E0,2E0,3E0,1E1,2E0,-7.2268814E-2,1.1220435E-2,-6.732059E-3,5.7103015E-2,-3.6990007E-3,1.17988605E-2,-1.8661113E-2,-3.840699E-2,-1.6321035E-2,-3.8463983E-3,7.954538E-3,-2.2914467E-2,7.371E-2,-4.4935714E-2,-3.316203E-2],"split_indices":[1,0,1,1,1,0,0,1,1,0,1,0,1,0,0,0,0,0,0,0,0,0,0,0,0,0,0,0,0],"split_type":[0,0,0,0,0,0,0,0,0,0,0,0,0,0,0,0,0,0,0,0,0,0,0,0,0,0,0,0,0],"sum_hessian":[7.057E3,8E2,6.257E3,1.49E2,6.51E2,6.185E3,7.2E1,1.03E2,4.6E1,6.8E1,5.83E2,5.7E3,4.85E2,5.1E1,2.1E1,2.2E1,8.1E1,2.3E1,2.3E1,4.7E1,2.1E1,1.59E2,4.24E2,1.847E3,3.853E3,4.57E2,2.8E1,2.3E1,2.8E1],"tree_param":{"num_deleted":"0","num_feature":"2","num_nodes":"29","size_leaf_vector":"1"}},{"base_weights":[-4.937621E-4,-7.247085E-2,3.2202978E-2,1.2967306E-1,-9.4713956E-2,3.9551288E-2,-4.4960275E-1,-2.5395636E-2,2.675823E-1,-2.2245592E-1,-5.0803393E-2,-7.6034866E-2,6.571104E-2,-3.546058E-1,-6.537046E-2,1.0147172E-2,-6.067068E-3,3.9051007E-2,8.5299015E-3,-7.4402425E-3,-3.8488496E-2,2.0055892E-2,-1.0034389E-2,-2.6063899E-2,2.3796677E-3,1.452406E-2,1.7224698E-3,-4.0629376E-2,-2.996018E-2],"categories":[],"categories_nodes":[],"categories_segments":[],"categories_sizes":[],"default_left":[0,0,0,0,0,0,0,0,0,0,0,0,0,0,0,0,0,0,0,0,0,0,0,0,0,0,0,0,0],"id":49,"left_children":[1,3,5,7,9,11,13,15,17,19,21,23,25,27,-1,-1,-1,-1,-1,-1,-1,-1,-1,-1,-1,-1,-1,-1,-1],"loss_changes":[1.6612745E1,9.926643E0,1.7203163E1,4.6902E0,1.113422E1,1.4464354E1,1.1835938E0,4.7158247E-1,2.56598E0,1.2187841E1,1.8449995E1,1.6279285E1,1.503628E1,2.611208E-2,0E0,0E0,0E0,0E0,0E0,0E0,0E0,0E0,0E0,0E0,0E0,0E0,0E0,0E0,0E0],"parents":[2147483647,0,0,1,1,2,2,3,3,4,4,5,5,6,6,7,7,8,8,9,9,10,10,11,11,12,12,13,13],"right_children":[2,4,6,8,10,12,14,16,18,20,22,24,26,28,-1,-1,-1,-1,-1,-1,-1,-1,-1,-1,-1,-1,-1,-1,-1],"split_conditions":[9E0,2E0,2.3E1,4E0,4E0,2E0,5E0,2E0,8E0,8E0,5E0,1.1E1,4E0,2E0,-6.537046E-2,1.0147172E-2,-6.067068E-3,3.9051007E-2,8.5299015E-3,-7.4402425E-3,-3.8488496E-2,2.0055892E-2,-1.0034389E-2,-2.6063899E-2,2.3796677E-3,1.452406E-2,1.7224698E-3,-4.0629376E-2,-2.996018E-2],"split_indices":[1,0,1,1,0,0,0,1,1,1,0,1,0,0,0,0,0,0,0,0,0,0,0,0,0,0,0,0,0],"split_type":[0,0,0,0,0,0,0,0,0,0,0,0,0,0,0,0,0,0,0,0,0,0,0,0,0,0,0,0,0],"sum_hessian":[7.057E3,2.204E3,4.853E3,2.18E2,1.986E3,4.781E3,7.2E1,1.03E2,1.15E2,5.07E2,1.479E3,8.82E2,3.899E3,5.1E1,2.1E1,2.2E1,8.1E1,6.8E1,4.7E1,2.66E2,2.41E2,2.43E2,1.236E3,3.09E2,5.73E2,1.476E3,2.423E3,2.3E1,2.8E1],"tree_param":{"num_deleted":"0","num_feature":"2","num_nodes":"29","size_leaf_vector":"1"}}]},"name":"gbtree"},"learner_model_param":{"base_score":"[1.608332E1]","boost_from_average":"1","num_class":"0","num_feature":"2","num_target":"1"},"objective":{"name":"reg:squarederror","reg_loss_param":{"scale_pos_weight":"1"}}},"version":[3,2,1]}