{"learner":{"attributes":{},"feature_names":["day_of_week","hour_of_day"],"feature_types":[],"gradient_booster":{"model":{"cats":{"enc":[],"feature_segments":[],"sorted_idx":[]},"gbtree_model_param":{"num_parallel_tree":"1","num_trees":"50"},"iteration_indptr":[0,1,2,3,4,5,6,7,8,9,10,11,12,13,14,15,16,17,18,19,20,21,22,23,24,25,26,27,28,29,30,31,32,33,34,35,36,37,38,39,40,41,42,43,44,45,46,47,48,49,50],"tree_info":[0,0,0,0,0,0,0,0,0,0,0,0,0,0,0,0,0,0,0,0,0,0,0,0,0,0,0,0,0,0,0,0,0,0,0,0,0,0,0,0,0,0,0,0,0,0,0,0,0,0],"trees":[{"base_weights":[3.2783188E-7,-1.1308641E1,1.2144941E0,-1.189427E1,-7.851643E0,2.4628124E0,-5.278535E0,-1.2953743E0,-1.0414647E0,-3.841028E-1,-9.77345E-1,-1.8555776E0,2.9205668E0,-7.8687377E0,-2.1566937E0,2.4891189E-1,-8.142134E-1,3.135879E-1,-2.2230177E-1,-5.565901E-1,-1.1308821E0,-3.525418E-2,-4.3707046E-1],"categories":[],"categories_nodes":[],"categories_segments":[],"categories_sizes":[],"default_left":[0,0,0,0,0,0,0,0,0,0,0,0,0,0,0,0,0,0,0,0,0,0,0],"id":0,"left_children":[1,3,5,7,9,11,13,-1,-1,-1,-1,15,17,19,21,-1,-1,-1,-1,-1,-1,-1,-1],"loss_changes":[6.4578555E4,8.297969E2,3.4428395E4,4.7332422E2,4.9428613E2,7.0466445E3,5.522078E3,0E0,0E0,0E0,0E0,9.361373E3,3.5741562E3,2.8998672E3,1.2447158E3,0E0,0E0,0E0,0E0,0E0,0E0,0E0,0E0],"parents":[2147483647,0,0,1,1,2,2,3,3,4,4,5,5,6,6,11,11,12,12,13,13,14,14],"right_children":[2,4,6,8,10,12,14,-1,-1,-1,-1,16,18,20,22,-1,-1,-1,-1,-1,-1,-1,-1],"split_conditions":[4E0,3E0,2E1,5E0,2E0,7E0,4E0,-1.2953743E0,-1.0414647E0,-3.841028E-1,-9.77345E-1,5E0,7E0,2.2E1,2.2E1,2.4891189E-1,-8.142134E-1,3.135879E-1,-2.2230177E-1,-5.565901E-1,-1.1308821E0,-3.525418E-2,-4.3707046E-1],"split_indices":[1,1,1,0,0,1,0,0,0,0,0,0,0,1,1,0,0,0,0,0,0,0,0],"split_type":[0,0,0,0,0,0,0,0,0,0,0,0,0,0,0,0,0,0,0,0,0,0,0],"sum_hessian":[4.7E3,4.55E2,4.245E3,3.87E2,6.8E1,3.561E3,6.84E2,2.21E2,1.66E2,2.3E1,4.5E1,3.41E2,3.22E3,3.73E2,3.11E2,2.02E2,1.39E2,3.091E3,1.29E2,2.25E2,1.48E2,1.72E2,1.39E2],"tree_param":{"num_deleted":"0","num_feature":"2","num_nodes":"23","size_leaf_vector":"1"}},{"base_weights":[-1.3467231E-3,-1.0185887E1,1.0924243E0,-1.0710866E1,-7.0862103E0,2.3871238E0,-4.1290855E0,-1.1664205E0,-9.3794173E-1,-3.4729296E-1,-8.8173527E-1,-1.6716727E0,2.839678E0,-6.283639E0,-1.4177014E0,2.2414331E-1,-7.333736E-1,3.0533275E-1,-2.0024262E-1,-4.4585916E-1,-1.0185529E0,8.266023E-3,-3.936756E-1],"categories":[],"categories_nodes":[],"categories_segments":[],"categories_sizes":[],"default_left":[0,0,0,0,0,0,0,0,0,0,0,0,0,0,0,0,0,0,0,0,0,0,0],"id":1,"left_children":[1,3,5,7,9,11,13,-1,-1,-1,-1,15,17,19,21,-1,-1,-1,-1,-1,-1,-1,-1],"loss_changes":[5.2378176E4,6.661367E2,2.8714031E4,3.8309375E2,4.0097974E2,6.255465E3,4.92159E3,0E0,0E0,0E0,0E0,7.5938755E3,3.173793E3,3.3015176E3,1.4176353E3,0E0,0E0,0E0,0E0,0E0,0E0,0E0,0E0],"parents":[2147483647,0,0,1,1,2,2,3,3,4,4,5,5,6,6,11,11,12,12,13,13,14,14],"right_children":[2,4,6,8,10,12,14,-1,-1,-1,-1,16,18,20,22,-1,-1,-1,-1,-1,-1,-1,-1],"split_conditions":[4E0,3E0,1.9E1,5E0,2E0,7E0,4E0,-1.1664205E0,-9.3794173E-1,-3.4729296E-1,-8.8173527E-1,5E0,7E0,2.2E1,2.2E1,2.2414331E-1,-7.333736E-1,3.0533275E-1,-2.0024262E-1,-4.4585916E-1,-1.0185529E0,8.266023E-3,-3.936756E-1],"split_indices":[1,1,1,0,0,1,0,0,0,0,0,0,0,1,1,0,0,0,0,0,0,0,0],"split_type":[0,0,0,0,0,0,0,0,0,0,0,0,0,0,0,0,0,0,0,0,0,0,0],"sum_hessian":[4.7E3,4.55E2,4.245E3,3.87E2,6.8E1,3.402E3,8.43E2,2.21E2,1.66E2,2.3E1,4.5E1,3.41E2,3.061E3,4.69E2,3.74E2,2.02E2,1.39E2,2.932E3,1.29E2,3.21E2,1.48E2,2.35E2,1.39E2],"tree_param":{"num_deleted":"0","num_feature":"2","num_nodes":"23","size_leaf_vector":"1"}},{"base_weights":[-2.4009803E-3,-9.174609E0,9.8265064E-1,-9.645204E0,-6.3954015E0,2.148292E0,-3.718369E0,-1.0503038E0,-8.447092E-1,-3.140107E-1,-7.954786E-1,3.5199222E-1,3.0211873E0,-5.658391E0,-1.2769592E0,2.383888E-1,-1.5431756E-1,3.2040554E-1,1.2772425E-1,-2.8211105E-1,-7.823745E-1,7.4428814E-3,-3.5458922E-1],"categories":[],"categories_nodes":[],"categories_segments":[],"categories_sizes":[],"default_left":[0,0,0,0,0,0,0,0,0,0,0,0,0,0,0,0,0,0,0,0,0,0,0],"id":2,"left_children":[1,3,5,7,9,11,13,-1,-1,-1,-1,15,17,19,21,-1,-1,-1,-1,-1,-1,-1,-1],"loss_changes":[4.248301E4,5.3470703E2,2.327481E4,3.100586E2,3.252827E2,5.3347773E3,3.990287E3,0E0,0E0,0E0,0E0,4.293451E3,7.2621484E2,2.8654746E3,1.150092E3,0E0,0E0,0E0,0E0,0E0,0E0,0E0,0E0],"parents":[2147483647,0,0,1,1,2,2,3,3,4,4,5,5,6,6,11,11,12,12,13,13,14,14],"right_children":[2,4,6,8,10,12,14,-1,-1,-1,-1,16,18,20,22,-1,-1,-1,-1,-1,-1,-1,-1],"split_conditions":[4E0,3E0,1.9E1,5E0,2E0,9E0,4E0,-1.0503038E0,-8.447092E-1,-3.140107E-1,-7.954786E-1,5E0,1.8E1,2.1E1,2.2E1,2.383888E-1,-1.5431756E-1,3.2040554E-1,1.2772425E-1,-2.8211105E-1,-7.823745E-1,7.4428814E-3,-3.5458922E-1],"split_indices":[1,1,1,0,0,1,0,0,0,0,0,0,1,1,1,0,0,0,0,0,0,0,0],"split_type":[0,0,0,0,0,0,0,0,0,0,0,0,0,0,0,0,0,0,0,0,0,0,0],"sum_hessian":[4.7E3,4.55E2,4.245E3,3.87E2,6.8E1,3.402E3,8.43E2,2.21E2,1.66E2,2.3E1,4.5E1,1.113E3,2.289E3,4.69E2,3.74E2,5.37E2,5.76E2,2.071E3,2.18E2,2.04E2,2.65E2,2.35E2,1.39E2],"tree_param":{"num_deleted":"0","num_feature":"2","num_nodes":"23","size_leaf_vector":"1"}},{"base_weights":[-2.9872619E-3,-8.263737E0,8.841783E-1,-8.685568E0,-5.7719407E0,1.933619E0,-3.3482046E0,-9.457466E-1,-7.6074415E-1,-2.8391802E-1,-7.1766E-1,-1.5840772E0,2.325885E0,-5.0948167E0,-1.1501887E0,1.7811795E-1,-6.4523846E-1,2.5013423E-1,-1.6505928E-1,-3.5511097E-1,-8.3966887E-1,6.701787E-3,-3.1938356E-1],"categories":[],"categories_nodes":[],"categories_segments":[],"categories_sizes":[],"default_left":[0,0,0,0,0,0,0,0,0,0,0,0,0,0,0,0,0,0,0,0,0,0,0],"id":3,"left_children":[1,3,5,7,9,11,13,-1,-1,-1,-1,15,17,19,21,-1,-1,-1,-1,-1,-1,-1,-1],"loss_changes":[3.44593E4,4.2917578E2,1.8865656E4,2.5094922E2,2.6387183E2,4.6993916E3,3.2343252E3,0E0,0E0,0E0,0E0,5.6145146E3,2.1404922E3,2.36583E3,9.330415E2,0E0,0E0,0E0,0E0,0E0,0E0,0E0,0E0],"parents":[2147483647,0,0,1,1,2,2,3,3,4,4,5,5,6,6,11,11,12,12,13,13,14,14],"right_children":[2,4,6,8,10,12,14,-1,-1,-1,-1,16,18,20,22,-1,-1,-1,-1,-1,-1,-1,-1],"split_conditions":[4E0,3E0,1.9E1,5E0,2E0,7E0,4E0,-9.457466E-1,-7.6074415E-1,-2.8391802E-1,-7.1766E-1,5E0,7E0,2.2E1,2.2E1,1.7811795E-1,-6.4523846E-1,2.5013423E-1,-1.6505928E-1,-3.5511097E-1,-8.3966887E-1,6.701787E-3,-3.1938356E-1],"split_indices":[1,1,1,0,0,1,0,0,0,0,0,0,0,1,1,0,0,0,0,0,0,0,0],"split_type":[0,0,0,0,0,0,0,0,0,0,0,0,0,0,0,0,0,0,0,0,0,0,0],"sum_hessian":[4.7E3,4.55E2,4.245E3,3.87E2,6.8E1,3.402E3,8.43E2,2.21E2,1.66E2,2.3E1,4.5E1,3.41E2,3.061E3,4.69E2,3.74E2,2.02E2,1.39E2,2.932E3,1.29E2,3.21E2,1.48E2,2.35E2,1.39E2],"tree_param":{"num_deleted":"0","num_feature":"2","num_nodes":"23","size_leaf_vector":"1"}},{"base_weights":[-3.6665373E-3,-7.443302E0,7.9531544E-1,-7.8214087E0,-5.2092624E0,1.4881891E0,-4.410467E0,-8.5159796E-1,-6.851253E-1,-2.567092E-1,-6.4745414E-1,-2.0236237E0,1.7408309E0,-6.420932E0,-2.106219E0,5.6155175E-2,-6.4494777E-1,2.0405033E-1,-9.941628E-2,-4.9248502E-1,-7.562655E-1,-9.485539E-2,-2.8767332E-1],"categories":[],"categories_nodes":[],"categories_segments":[],"categories_sizes":[],"default_left":[0,0,0,0,0,0,0,0,0,0,0,0,0,0,0,0,0,0,0,0,0,0,0],"id":4,"left_children":[1,3,5,7,9,11,13,-1,-1,-1,-1,15,17,19,21,-1,-1,-1,-1,-1,-1,-1,-1],"loss_changes":[2.79493E4,3.444414E2,1.5321671E4,2.0310547E2,2.1405188E2,3.3288633E3,2.2981484E3,0E0,0E0,0E0,0E0,2.8869072E3,2.8681768E3,4.171123E2,2.0599866E2,0E0,0E0,0E0,0E0,0E0,0E0,0E0,0E0],"parents":[2147483647,0,0,1,1,2,2,3,3,4,4,5,5,6,6,11,11,12,12,13,13,14,14],"right_children":[2,4,6,8,10,12,14,-1,-1,-1,-1,16,18,20,22,-1,-1,-1,-1,-1,-1,-1,-1],"split_conditions":[4E0,3E0,2.1E1,5E0,2E0,6E0,4E0,-8.5159796E-1,-6.851253E-1,-2.567092E-1,-6.4745414E-1,5E0,1.9E1,2.2E1,2.2E1,5.6155175E-2,-6.4494777E-1,2.0405033E-1,-9.941628E-2,-4.9248502E-1,-7.562655E-1,-9.485539E-2,-2.8767332E-1],"split_indices":[1,1,1,0,0,1,0,0,0,0,0,0,1,1,1,0,0,0,0,0,0,0,0],"split_type":[0,0,0,0,0,0,0,0,0,0,0,0,0,0,0,0,0,0,0,0,0,0,0],"sum_hessian":[4.7E3,4.55E2,4.245E3,3.87E2,6.8E1,3.747E3,4.98E2,2.21E2,1.66E2,2.3E1,4.5E1,2.51E2,3.496E3,2.65E2,2.33E2,1.59E2,9.2E1,3.151E3,3.45E2,1.17E2,1.48E2,9.4E1,1.39E2],"tree_param":{"num_deleted":"0","num_feature":"2","num_nodes":"23","size_leaf_vector":"1"}},{"base_weights":[-4.269421E-3,-6.7043247E0,7.1528536E-1,-7.0432286E0,-4.70144E0,1.3392406E0,-3.9726896E0,-7.668218E-1,-6.17023E-1,-2.3210791E-1,-5.841162E-1,-1.8235978E0,1.5667773E0,-5.783533E0,-1.897232E0,5.057474E-2,-5.811465E-1,1.8365172E-1,-8.950334E-2,-4.4365388E-1,-6.811465E-1,-1.436346E-1,-3.70041E-1],"categories":[],"categories_nodes":[],"categories_segments":[],"categories_sizes":[],"default_left":[0,0,0,0,0,0,0,0,0,0,0,0,0,0,0,0,0,0,0,0,0,0,0],"id":5,"left_children":[1,3,5,7,9,11,13,-1,-1,-1,-1,15,17,19,21,-1,-1,-1,-1,-1,-1,-1,-1],"loss_changes":[2.2668582E4,2.7641406E2,1.2425237E4,1.6438477E2,1.7363574E2,2.700151E3,1.8644331E3,0E0,0E0,0E0,0E0,2.3437969E3,2.3238203E3,3.3808984E2,1.8915302E2,0E0,0E0,0E0,0E0,0E0,0E0,0E0,0E0],"parents":[2147483647,0,0,1,1,2,2,3,3,4,4,5,5,6,6,11,11,12,12,13,13,14,14],"right_children":[2,4,6,8,10,12,14,-1,-1,-1,-1,16,18,20,22,-1,-1,-1,-1,-1,-1,-1,-1],"split_conditions":[4E0,3E0,2.1E1,5E0,2E0,6E0,4E0,-7.668218E-1,-6.17023E-1,-2.3210791E-1,-5.841162E-1,5E0,1.9E1,2.2E1,2.3E1,5.057474E-2,-5.811465E-1,1.8365172E-1,-8.950334E-2,-4.4365388E-1,-6.811465E-1,-1.436346E-1,-3.70041E-1],"split_indices":[1,1,1,0,0,1,0,0,0,0,0,0,1,1,1,0,0,0,0,0,0,0,0],"split_type":[0,0,0,0,0,0,0,0,0,0,0,0,0,0,0,0,0,0,0,0,0,0,0],"sum_hessian":[4.7E3,4.55E2,4.245E3,3.87E2,6.8E1,3.747E3,4.98E2,2.21E2,1.66E2,2.3E1,4.5E1,2.51E2,3.496E3,2.65E2,2.33E2,1.59E2,9.2E1,3.151E3,3.45E2,1.17E2,1.48E2,1.87E2,4.6E1],"tree_param":{"num_deleted":"0","num_feature":"2","num_nodes":"23","size_leaf_vector":"1"}},{"base_weights":[-4.751419E-3,-6.038717E0,6.432686E-1,-6.342472E0,-4.2431254E0,1.3194624E0,-2.8738782E0,-6.9048506E-1,-5.556901E-1,-2.0986421E-1,-5.2697444E-1,2.5841998E-2,1.9073651E0,-4.317122E0,-1.1346246E0,1.6193698E-1,-1.4600225E-1,2.2462754E-1,4.458794E-3,-3.09958E-1,-6.13489E-1,-1.2500991E-2,-2.3741154E-1],"categories":[],"categories_nodes":[],"categories_segments":[],"categories_sizes":[],"default_left":[0,0,0,0,0,0,0,0,0,0,0,0,0,0,0,0,0,0,0,0,0,0,0],"id":6,"left_children":[1,3,5,7,9,11,13,-1,-1,-1,-1,15,17,19,21,-1,-1,-1,-1,-1,-1,-1,-1],"loss_changes":[1.8385406E4,2.2180078E2,1.01019375E4,1.330459E2,1.4084875E2,2.7089336E3,1.7145664E3,0E0,0E0,0E0,0E0,2.640056E3,1.5459893E3,8.087241E2,3.901426E2,0E0,0E0,0E0,0E0,0E0,0E0,0E0,0E0],"parents":[2147483647,0,0,1,1,2,2,3,3,4,4,5,5,6,6,11,11,12,12,13,13,14,14],"right_children":[2,4,6,8,10,12,14,-1,-1,-1,-1,16,18,20,22,-1,-1,-1,-1,-1,-1,-1,-1],"split_conditions":[4E0,3E0,2E1,5E0,2E0,9E0,4E0,-6.9048506E-1,-5.556901E-1,-2.0986421E-1,-5.2697444E-1,5E0,1.8E1,2.2E1,2.2E1,1.6193698E-1,-1.4600225E-1,2.2462754E-1,4.458794E-3,-3.09958E-1,-6.13489E-1,-1.2500991E-2,-2.3741154E-1],"split_indices":[1,1,1,0,0,1,0,0,0,0,0,0,1,1,1,0,0,0,0,0,0,0,0],"split_type":[0,0,0,0,0,0,0,0,0,0,0,0,0,0,0,0,0,0,0,0,0,0,0],"sum_hessian":[4.7E3,4.55E2,4.245E3,3.87E2,6.8E1,3.561E3,6.84E2,2.21E2,1.66E2,2.3E1,4.5E1,1.113E3,2.448E3,3.73E2,3.11E2,5.37E2,5.76E2,2.071E3,3.77E2,2.25E2,1.48E2,1.72E2,1.39E2],"tree_param":{"num_deleted":"0","num_feature":"2","num_nodes":"23","size_leaf_vector":"1"}},{"base_weights":[-4.896084E-3,-5.4391937E0,5.7872254E-1,-5.7114367E0,-3.8294911E0,1.0890589E0,-3.2555842E0,-6.2174755E-1,-5.004539E-1,-1.8975218E-1,-4.7542253E0,-1.2851622E0,1.3270671E0,-4.7317333E0,-1.5636557E0,-3.9534798E-1,-5.4480624E-1,1.27708E-1,-4.991234E-1,1.636613E-1,-2.3618693E-2,-3.6893126E-1,-5.525518E-1,-1.1697818E-1,-3.1058824E-1],"categories":[],"categories_nodes":[],"categories_segments":[],"categories_sizes":[],"default_left":[0,0,0,0,0,0,0,0,0,0,0,0,0,0,0,0,0,0,0,0,0,0,0,0,0],"id":7,"left_children":[1,3,5,7,9,11,13,-1,-1,-1,15,17,19,21,23,-1,-1,-1,-1,-1,-1,-1,-1,-1,-1],"loss_changes":[1.4912641E4,1.7795996E2,8.312058E3,1.0767871E2,1.1425128E2,2.119642E3,1.2388735E3,0E0,0E0,0E0,4.0183105E0,3.2539558E3,1.6490293E3,1.9971875E2,1.3850842E2,0E0,0E0,0E0,0E0,0E0,0E0,0E0,0E0,0E0,0E0],"parents":[2147483647,0,0,1,1,2,2,3,3,4,4,5,5,6,6,10,10,11,11,12,12,13,13,14,14],"right_children":[2,4,6,8,10,12,14,-1,-1,-1,16,18,20,22,24,-1,-1,-1,-1,-1,-1,-1,-1,-1,-1],"split_conditions":[4E0,3E0,2.1E1,5E0,2E0,7E0,4E0,-6.2174755E-1,-5.004539E-1,-1.8975218E-1,7E0,5E0,1.8E1,2.2E1,2.3E1,-3.9534798E-1,-5.4480624E-1,1.27708E-1,-4.991234E-1,1.636613E-1,-2.3618693E-2,-3.6893126E-1,-5.525518E-1,-1.1697818E-1,-3.1058824E-1],"split_indices":[1,1,1,0,0,1,0,0,0,0,0,0,1,1,1,0,0,0,0,0,0,0,0,0,0],"split_type":[0,0,0,0,0,0,0,0,0,0,0,0,0,0,0,0,0,0,0,0,0,0,0,0,0],"sum_hessian":[4.7E3,4.55E2,4.245E3,3.87E2,6.8E1,3.747E3,4.98E2,2.21E2,1.66E2,2.3E1,4.5E1,3.41E2,3.406E3,2.65E2,2.33E2,2.4E1,2.1E1,2.02E2,1.39E2,2.843E3,5.63E2,1.17E2,1.48E2,1.87E2,4.6E1],"tree_param":{"num_deleted":"0","num_feature":"2","num_nodes":"25","size_leaf_vector":"1"}},{"base_weights":[-5.2220267E-3,-4.9002132E0,5.204778E-1,-5.1431856E0,-3.4629176E0,1.1490723E0,-2.0146263E0,-5.598529E-1,-4.5070815E0,-1.7156756E-1,-4.299241E0,-5.1024113E-2,1.7323729E0,-3.2034624E0,-5.192461E-1,-3.8273072E-1,-4.6979022E-1,-3.5739464E-1,-4.92802E-1,1.3078749E-1,-1.3179854E-1,1.8581724E-1,5.342498E-2,-1.8142873E-1,-4.262024E-1,9.508178E-2,-1.4091171E-1],"categories":[],"categories_nodes":[],"categories_segments":[],"categories_sizes":[],"default_left":[0,0,0,0,0,0,0,0,0,0,0,0,0,0,0,0,0,0,0,0,0,0,0,0,0,0,0],"id":8,"left_children":[1,3,5,7,9,11,13,-1,15,-1,17,19,21,23,25,-1,-1,-1,-1,-1,-1,-1,-1,-1,-1,-1,-1],"loss_changes":[1.2099614E4,1.4143555E2,6.7685396E3,8.7149414E1,9.3450806E1,2.382246E3,1.4987683E3,0E0,3.682129E0,0E0,3.3658447E0,1.9196666E3,3.4416406E2,6.8341504E2,4.919026E2,0E0,0E0,0E0,0E0,0E0,0E0,0E0,0E0,0E0,0E0,0E0,0E0],"parents":[2147483647,0,0,1,1,2,2,3,3,4,4,5,5,6,6,8,8,10,10,11,11,12,12,13,13,14,14],"right_children":[2,4,6,8,10,12,14,-1,16,-1,18,20,22,24,26,-1,-1,-1,-1,-1,-1,-1,-1,-1,-1,-1,-1],"split_conditions":[4E0,3E0,1.9E1,5E0,2E0,9E0,4E0,-5.598529E-1,6E0,-1.7156756E-1,7E0,5E0,1.8E1,2.1E1,2.1E1,-3.8273072E-1,-4.6979022E-1,-3.5739464E-1,-4.92802E-1,1.3078749E-1,-1.3179854E-1,1.8581724E-1,5.342498E-2,-1.8142873E-1,-4.262024E-1,9.508178E-2,-1.4091171E-1],"split_indices":[1,1,1,0,0,1,0,0,0,0,0,0,1,1,1,0,0,0,0,0,0,0,0,0,0,0,0],"split_type":[0,0,0,0,0,0,0,0,0,0,0,0,0,0,0,0,0,0,0,0,0,0,0,0,0,0,0],"sum_hessian":[4.7E3,4.55E2,4.245E3,3.87E2,6.8E1,3.402E3,8.43E2,2.21E2,1.66E2,2.3E1,4.5E1,1.113E3,2.289E3,4.69E2,3.74E2,4.1E1,1.25E2,2.4E1,2.1E1,5.37E2,5.76E2,2.071E3,2.18E2,2.04E2,2.65E2,1.41E2,2.33E2],"tree_param":{"num_deleted":"0","num_feature":"2","num_nodes":"27","size_leaf_vector":"1"}},{"base_weights":[-5.3060073E-3,-4.4155297E0,4.683321E-1,-4.632507E0,-3.131434E0,1.034235E0,-1.8139377E0,-5.041198E0,-4.061478E0,-1.5512563E-1,-3.8878E0,-4.5922246E-2,1.5592397E0,-2.884409E0,-4.6744335E-1,-4.565053E-1,-5.303294E-1,-3.4536895E-1,-4.23184E-1,-3.230848E-1,-4.4576183E-1,1.1773311E-1,-1.1864151E-1,1.6724445E-1,4.810689E-2,-2.1031852E-1,-4.5533323E-1,3.361521E-2,-1.8187366E-1],"categories":[],"categories_nodes":[],"categories_segments":[],"categories_sizes":[],"default_left":[0,0,0,0,0,0,0,0,0,0,0,0,0,0,0,0,0,0,0,0,0,0,0,0,0,0,0,0,0],"id":9,"left_children":[1,3,5,7,9,11,13,15,17,-1,19,21,23,25,27,-1,-1,-1,-1,-1,-1,-1,-1,-1,-1,-1,-1,-1,-1],"loss_changes":[9.821751E3,1.1254492E2,5.485767E3,7.007422E1,7.6437256E1,1.9298708E3,1.2151792E3,3.4951172E0,2.6765137E0,0E0,2.8179932E0,1.5555511E3,2.7869922E2,6.032107E2,4.0782132E2,0E0,0E0,0E0,0E0,0E0,0E0,0E0,0E0,0E0,0E0,0E0,0E0,0E0,0E0],"parents":[2147483647,0,0,1,1,2,2,3,3,4,4,5,5,6,6,7,7,8,8,10,10,11,11,12,12,13,13,14,14],"right_children":[2,4,6,8,10,12,14,16,18,-1,20,22,24,26,28,-1,-1,-1,-1,-1,-1,-1,-1,-1,-1,-1,-1,-1,-1],"split_conditions":[4E0,3E0,1.9E1,5E0,2E0,9E0,4E0,2E0,6E0,-1.5512563E-1,7E0,5E0,1.8E1,2.2E1,2.2E1,-4.565053E-1,-5.303294E-1,-3.4536895E-1,-4.23184E-1,-3.230848E-1,-4.4576183E-1,1.1773311E-1,-1.1864151E-1,1.6724445E-1,4.810689E-2,-2.1031852E-1,-4.5533323E-1,3.361521E-2,-1.8187366E-1],"split_indices":[1,1,1,0,0,1,0,0,0,0,0,0,1,1,1,0,0,0,0,0,0,0,0,0,0,0,0,0,0],"split_type":[0,0,0,0,0,0,0,0,0,0,0,0,0,0,0,0,0,0,0,0,0,0,0,0,0,0,0,0,0],"sum_hessian":[4.7E3,4.55E2,4.245E3,3.87E2,6.8E1,3.402E3,8.43E2,2.21E2,1.66E2,2.3E1,4.5E1,1.113E3,2.289E3,4.69E2,3.74E2,8.5E1,1.36E2,4.1E1,1.25E2,2.4E1,2.1E1,5.37E2,5.76E2,2.071E3,2.18E2,3.21E2,1.48E2,2.35E2,1.39E2],"tree_param":{"num_deleted":"0","num_feature":"2","num_nodes":"29","size_leaf_vector":"1"}},{"base_weights":[-5.472641E-3,-3.157159E0,5.522865E-1,-4.1737804E0,-1.9146397E0,1.137394E0,-1.6335083E0,-4.541523E0,-3.6599324E0,-2.5329095E-1,-4.1038585E0,1.2564787E0,-1.6405322E-1,-3.7583091E0,-1.0477659E0,-4.113856E-1,-4.776836E-1,-3.0601224E-1,-3.807108E-1,-7.5574175E-2,1.3043523E-1,-3.7789753E-1,-4.691306E-1,9.042152E-2,1.5022974E-1,-3.324114E-1,-4.525691E-1,2.8966649E-2,-1.9731073E-1],"categories":[],"categories_nodes":[],"categories_segments":[],"categories_sizes":[],"default_left":[0,0,0,0,0,0,0,0,0,0,0,0,0,0,0,0,0,0,0,0,0,0,0,0,0,0,0,0,0],"id":10,"left_children":[1,3,5,7,9,11,13,15,17,19,21,23,-1,25,27,-1,-1,-1,-1,-1,-1,-1,-1,-1,-1,-1,-1,-1,-1],"loss_changes":[8.265547E3,8.850718E2,5.111162E3,5.6696777E1,1.1628186E3,1.0447698E3,1.0464929E3,2.6899414E0,3.092041E0,1.4420871E2,8.608887E0,2.6041162E2,0E0,4.5597168E1,8.21088E2,0E0,0E0,0E0,0E0,0E0,0E0,0E0,0E0,0E0,0E0,0E0,0E0,0E0,0E0],"parents":[2147483647,0,0,1,1,2,2,3,3,4,4,5,5,6,6,7,7,8,8,9,9,10,10,11,11,13,13,14,14],"right_children":[2,4,6,8,10,12,14,16,18,20,22,24,-1,26,28,-1,-1,-1,-1,-1,-1,-1,-1,-1,-1,-1,-1,-1,-1],"split_conditions":[6E0,3E0,1.9E1,5E0,5E0,7E0,2E0,2E0,1E0,4E0,7E0,1E1,-1.6405322E-1,2.2E1,2.1E1,-4.113856E-1,-4.776836E-1,-3.0601224E-1,-3.807108E-1,-7.5574175E-2,1.3043523E-1,-3.7789753E-1,-4.691306E-1,9.042152E-2,1.5022974E-1,-3.324114E-1,-4.525691E-1,2.8966649E-2,-1.9731073E-1],"split_indices":[1,1,1,0,0,0,0,0,1,0,0,1,0,1,1,0,0,0,0,0,0,0,0,0,0,0,0,0,0],"split_type":[0,0,0,0,0,0,0,0,0,0,0,0,0,0,0,0,0,0,0,0,0,0,0,0,0,0,0,0,0],"sum_hessian":[4.7E3,7.06E2,3.994E3,3.87E2,3.19E2,3.151E3,8.43E2,2.21E2,1.66E2,1.82E2,1.37E2,3.022E3,1.29E2,1.81E2,6.62E2,8.5E1,1.36E2,3.7E1,1.29E2,1.38E2,4.4E1,9.3E1,4.4E1,1.244E3,1.778E3,1.19E2,6.2E1,2.71E2,3.91E2],"tree_param":{"num_deleted":"0","num_feature":"2","num_nodes":"29","size_leaf_vector":"1"}},{"base_weights":[-5.615907E-3,-2.8447926E0,4.9683803E-1,-3.760464E0,-1.7256511E0,1.0236784E0,-1.4712871E0,-4.091376E0,-3.2980514E0,-2.2766183E-1,-3.6996107E0,1.1309099E0,-1.4777413E-1,-2.395202E0,-3.0939046E-1,-3.707254E-1,-4.302639E-1,-2.776911E-1,-3.44559E-1,-6.8071075E-2,1.17681496E-1,-3.1044018E-1,-3.954234E-1,8.1386626E-2,1.3521513E-1,-1.7382477E-1,-3.7988535E-1,3.639626E-2,-1.4422615E-1],"categories":[],"categories_nodes":[],"categories_segments":[],"categories_sizes":[],"default_left":[0,0,0,0,0,0,0,0,0,0,0,0,0,0,0,0,0,0,0,0,0,0,0,0,0,0,0,0,0],"id":11,"left_children":[1,3,5,7,9,11,13,15,17,19,21,23,-1,25,27,-1,-1,-1,-1,-1,-1,-1,-1,-1,-1,-1,-1,-1,-1],"loss_changes":[6.7076514E3,7.1801953E2,4.143873E3,4.587744E1,9.453882E2,8.471355E2,9.052876E2,2.0646973E0,3.2722168E0,1.17243355E2,8.638916E0,2.1094214E2,0E0,4.267998E2,2.8658325E2,0E0,0E0,0E0,0E0,0E0,0E0,0E0,0E0,0E0,0E0,0E0,0E0,0E0,0E0],"parents":[2147483647,0,0,1,1,2,2,3,3,4,4,5,5,6,6,7,7,8,8,9,9,10,10,11,11,13,13,14,14],"right_children":[2,4,6,8,10,12,14,16,18,20,22,24,-1,26,28,-1,-1,-1,-1,-1,-1,-1,-1,-1,-1,-1,-1,-1,-1],"split_conditions":[6E0,3E0,1.9E1,5E0,5E0,7E0,4E0,2E0,6E0,4E0,4E0,1E1,-1.4777413E-1,2.2E1,2.2E1,-3.707254E-1,-4.302639E-1,-2.776911E-1,-3.44559E-1,-6.8071075E-2,1.17681496E-1,-3.1044018E-1,-3.954234E-1,8.1386626E-2,1.3521513E-1,-1.7382477E-1,-3.7988535E-1,3.639626E-2,-1.4422615E-1],"split_indices":[1,1,1,0,0,0,0,0,0,0,1,1,0,1,1,0,0,0,0,0,0,0,0,0,0,0,0,0,0],"split_type":[0,0,0,0,0,0,0,0,0,0,0,0,0,0,0,0,0,0,0,0,0,0,0,0,0,0,0,0,0],"sum_hessian":[4.7E3,7.06E2,3.994E3,3.87E2,3.19E2,3.151E3,8.43E2,2.21E2,1.66E2,1.82E2,1.37E2,3.022E3,1.29E2,4.69E2,3.74E2,8.5E1,1.36E2,4.1E1,1.25E2,1.38E2,4.4E1,4.5E1,9.2E1,1.244E3,1.778E3,3.21E2,1.48E2,2.35E2,1.39E2],"tree_param":{"num_deleted":"0","num_feature":"2","num_nodes":"29","size_leaf_vector":"1"}},{"base_weights":[-5.623004E-3,-2.5632546E0,4.4700557E-1,-3.3880856E0,-1.5551368E0,8.6645544E-1,-1.5810902E0,-3.6858463E0,-2.9719722E0,-2.0462433E-1,-3.3347647E0,9.55964E-1,-1.3311043E-1,-2.4187553E0,-5.7189834E-1,-3.3408397E-1,-3.8755158E-1,-2.4583459E-1,-3.099248E-1,-6.131291E-2,1.06174864E-1,-3.0355796E-1,-3.8856232E-1,1.0853628E-1,-6.786064E-4,-1.7469396E-1,-3.421518E-1,-2.9060775E-2,-2.1517153E-1],"categories":[],"categories_nodes":[],"categories_segments":[],"categories_sizes":[],"default_left":[0,0,0,0,0,0,0,0,0,0,0,0,0,0,0,0,0,0,0,0,0,0,0,0,0,0,0,0,0],"id":12,"left_children":[1,3,5,7,9,11,13,15,17,19,21,23,-1,25,27,-1,-1,-1,-1,-1,-1,-1,-1,-1,-1,-1,-1,-1,-1],"loss_changes":[5.4432925E3,5.826201E2,3.3998545E3,3.7120117E1,7.684087E2,6.5254785E2,5.7769165E2,1.5795898E0,3.2980957E0,9.532043E1,1.0948486E1,3.964165E2,0E0,2.4597607E2,1.3802365E2,0E0,0E0,0E0,0E0,0E0,0E0,0E0,0E0,0E0,0E0,0E0,0E0,0E0,0E0],"parents":[2147483647,0,0,1,1,2,2,3,3,4,4,5,5,6,6,7,7,8,8,9,9,10,10,11,11,13,13,14,14],"right_children":[2,4,6,8,10,12,14,16,18,20,22,24,-1,26,28,-1,-1,-1,-1,-1,-1,-1,-1,-1,-1,-1,-1,-1,-1],"split_conditions":[6E0,3E0,2E1,5E0,5E0,7E0,4E0,2E0,1E0,4E0,7E0,1.8E1,-1.3311043E-1,2.2E1,2.3E1,-3.3408397E-1,-3.8755158E-1,-2.4583459E-1,-3.099248E-1,-6.131291E-2,1.06174864E-1,-3.0355796E-1,-3.8856232E-1,1.0853628E-1,-6.786064E-4,-1.7469396E-1,-3.421518E-1,-2.9060775E-2,-2.1517153E-1],"split_indices":[1,1,1,0,0,0,0,0,1,0,0,1,0,1,1,0,0,0,0,0,0,0,0,0,0,0,0,0,0],"split_type":[0,0,0,0,0,0,0,0,0,0,0,0,0,0,0,0,0,0,0,0,0,0,0,0,0,0,0,0,0],"sum_hessian":[4.7E3,7.06E2,3.994E3,3.87E2,3.19E2,3.31E3,6.84E2,2.21E2,1.66E2,1.82E2,1.37E2,3.181E3,1.29E2,3.73E2,3.11E2,8.5E1,1.36E2,3.7E1,1.29E2,1.38E2,4.4E1,9.3E1,4.4E1,2.804E3,3.77E2,2.25E2,1.48E2,2.65E2,4.6E1],"tree_param":{"num_deleted":"0","num_feature":"2","num_nodes":"29","size_leaf_vector":"1"}},{"base_weights":[-5.6371302E-3,-2.3096514E0,4.0210846E-1,-3.0525694E0,-1.4016454E0,7.17815E-1,-1.8111739E0,-3.320512E0,-2.6781032E0,-1.8391621E-1,-3.0063035E0,7.915889E-1,-1.1990181E-1,-2.657621E0,-8.412334E-1,-3.01064E-1,-3.4907928E-1,-2.2307535E-1,-2.805965E-1,9.785656E-2,-6.163056E-2,-2.4649456E-1,-3.241746E-1,9.768656E-2,-1.3127062E-2,-2.0996563E-1,-3.0816624E-1,-5.6178667E-2,-1.9411217E-1],"categories":[],"categories_nodes":[],"categories_segments":[],"categories_sizes":[],"default_left":[0,0,0,0,0,0,0,0,0,0,0,0,0,0,0,0,0,0,0,0,0,0,0,0,0,0,0,0,0],"id":13,"left_children":[1,3,5,7,9,11,13,15,17,19,21,23,-1,25,27,-1,-1,-1,-1,-1,-1,-1,-1,-1,-1,-1,-1,-1,-1],"loss_changes":[4.4172905E3,4.7264526E2,2.7927974E3,3.0037598E1,6.247396E2,4.9546777E2,4.0744495E2,1.2041016E0,3.2928467E0,9.258709E1,9.598633E0,5.760034E2,0E0,5.646521E1,7.083177E1,0E0,0E0,0E0,0E0,0E0,0E0,0E0,0E0,0E0,0E0,0E0,0E0,0E0,0E0],"parents":[2147483647,0,0,1,1,2,2,3,3,4,4,5,5,6,6,7,7,8,8,9,9,10,10,11,11,13,13,14,14],"right_children":[2,4,6,8,10,12,14,16,18,20,22,24,-1,26,28,-1,-1,-1,-1,-1,-1,-1,-1,-1,-1,-1,-1,-1,-1],"split_conditions":[6E0,3E0,2.1E1,5E0,5E0,7E0,4E0,2E0,6E0,2E0,4E0,1.8E1,-1.1990181E-1,2.2E1,2.3E1,-3.01064E-1,-3.4907928E-1,-2.2307535E-1,-2.805965E-1,9.785656E-2,-6.163056E-2,-2.4649456E-1,-3.241746E-1,9.768656E-2,-1.3127062E-2,-2.0996563E-1,-3.0816624E-1,-5.6178667E-2,-1.9411217E-1],"split_indices":[1,1,1,0,0,0,0,0,0,0,1,1,0,1,1,0,0,0,0,0,0,0,0,0,0,0,0,0,0],"split_type":[0,0,0,0,0,0,0,0,0,0,0,0,0,0,0,0,0,0,0,0,0,0,0,0,0,0,0,0,0],"sum_hessian":[4.7E3,7.06E2,3.994E3,3.87E2,3.19E2,3.496E3,4.98E2,2.21E2,1.66E2,1.82E2,1.37E2,3.367E3,1.29E2,2.65E2,2.33E2,8.5E1,1.36E2,4.1E1,1.25E2,4.9E1,1.33E2,4.5E1,9.2E1,2.804E3,5.63E2,1.17E2,1.48E2,1.87E2,4.6E1],"tree_param":{"num_deleted":"0","num_feature":"2","num_nodes":"29","size_leaf_vector":"1"}},{"base_weights":[-5.603659E-3,-2.0810742E0,3.6169627E-1,-2.6329062E0,-1.0742626E0,6.460232E-1,-1.6315963E0,-2.7502863E0,-1.9346979E0,5.900705E-3,-2.921057E0,7.124549E-1,-1.0800387E-1,-2.3938067E0,-7.581794E-1,-2.9913896E-1,-2.4133089E-1,-1.5519735E-1,-2.6817924E-1,2.790083E-1,-5.5513527E-2,-2.4823646E-1,-3.3531836E-1,8.792137E-2,-1.1816691E-2,-1.8914701E-1,-2.7755648E-1,-5.059064E-2,-1.7511399E-1],"categories":[],"categories_nodes":[],"categories_segments":[],"categories_sizes":[],"default_left":[0,0,0,0,0,0,0,0,0,0,0,0,0,0,0,0,0,0,0,0,0,0,0,0,0,0,0,0,0],"id":14,"left_children":[1,3,5,7,9,11,13,15,17,19,21,23,-1,25,27,-1,-1,-1,-1,-1,-1,-1,-1,-1,-1,-1,-1,-1,-1],"loss_changes":[3.5844194E3,3.8997437E2,2.2652075E3,3.2051025E1,5.0271683E2,4.0175378E2,3.3038306E2,2.4304443E1,1.5567169E1,2.5147308E2,9.306152E0,4.666173E2,0E0,4.576123E1,5.7730423E1,0E0,0E0,0E0,0E0,0E0,0E0,0E0,0E0,0E0,0E0,0E0,0E0,0E0,0E0],"parents":[2147483647,0,0,1,1,2,2,3,3,4,4,5,5,6,6,7,7,8,8,9,9,10,10,11,11,13,13,14,14],"right_children":[2,4,6,8,10,12,14,16,18,20,22,24,-1,26,28,-1,-1,-1,-1,-1,-1,-1,-1,-1,-1,-1,-1,-1,-1],"split_conditions":[6E0,4E0,2.1E1,3E0,5E0,7E0,4E0,5E0,7E0,2E0,6E0,1.8E1,-1.0800387E-1,2.2E1,2.3E1,-2.9913896E-1,-2.4133089E-1,-1.5519735E-1,-2.6817924E-1,2.790083E-1,-5.5513527E-2,-2.4823646E-1,-3.3531836E-1,8.792137E-2,-1.1816691E-2,-1.8914701E-1,-2.7755648E-1,-5.059064E-2,-1.7511399E-1],"split_indices":[1,1,1,1,0,0,0,0,0,0,0,1,0,1,1,0,0,0,0,0,0,0,0,0,0,0,0,0,0],"split_type":[0,0,0,0,0,0,0,0,0,0,0,0,0,0,0,0,0,0,0,0,0,0,0,0,0,0,0,0,0],"sum_hessian":[4.7E3,7.06E2,3.994E3,4.55E2,2.51E2,3.496E3,4.98E2,3.87E2,6.8E1,1.59E2,9.2E1,3.367E3,1.29E2,2.65E2,2.33E2,2.21E2,1.66E2,4.7E1,2.1E1,2.6E1,1.33E2,4.9E1,4.3E1,2.804E3,5.63E2,1.17E2,1.48E2,1.87E2,4.6E1],"tree_param":{"num_deleted":"0","num_feature":"2","num_nodes":"29","size_leaf_vector":"1"}},{"base_weights":[-5.4788827E-3,-1.8748392E0,3.2534546E-1,-2.3717291E0,-9.6826524E-1,6.3433564E-1,-1.1686573E0,-2.4766505E0,-1.747364E0,6.707251E-3,-2.6352258E0,6.997982E-1,-9.72866E-2,-1.8144193E0,-3.9082512E-1,-2.693598E-1,-2.1734229E-1,-1.4000097E-1,-2.4258028E-1,2.5214076E-1,-5.0003618E-2,-2.2390926E-1,-3.025486E-1,8.176125E-2,1.6193619E-2,-1.3544779E-1,-2.4998711E-1,1.1801893E-2,-1.0168194E-1],"categories":[],"categories_nodes":[],"categories_segments":[],"categories_sizes":[],"default_left":[0,0,0,0,0,0,0,0,0,0,0,0,0,0,0,0,0,0,0,0,0,0,0,0,0,0,0,0,0],"id":15,"left_children":[1,3,5,7,9,11,13,15,17,19,21,23,-1,25,27,-1,-1,-1,-1,-1,-1,-1,-1,-1,-1,-1,-1,-1,-1],"loss_changes":[2.907849E3,3.1618384E2,1.8449619E3,2.5544922E1,4.0957837E2,3.4903625E2,3.4336255E2,1.9669922E1,1.2864304E1,2.0515005E2,7.6030273E0,2.015039E2,0E0,1.1452417E2,9.950244E1,0E0,0E0,0E0,0E0,0E0,0E0,0E0,0E0,0E0,0E0,0E0,0E0,0E0,0E0],"parents":[2147483647,0,0,1,1,2,2,3,3,4,4,5,5,6,6,7,7,8,8,9,9,10,10,11,11,13,13,14,14],"right_children":[2,4,6,8,10,12,14,16,18,20,22,24,-1,26,28,-1,-1,-1,-1,-1,-1,-1,-1,-1,-1,-1,-1,-1,-1],"split_conditions":[6E0,4E0,2E1,3E0,5E0,7E0,4E0,5E0,7E0,2E0,6E0,1.7E1,-9.72866E-2,2.2E1,2.2E1,-2.693598E-1,-2.1734229E-1,-1.4000097E-1,-2.4258028E-1,2.5214076E-1,-5.0003618E-2,-2.2390926E-1,-3.025486E-1,8.176125E-2,1.6193619E-2,-1.3544779E-1,-2.4998711E-1,1.1801893E-2,-1.0168194E-1],"split_indices":[1,1,1,1,0,0,0,0,0,0,0,1,0,1,1,0,0,0,0,0,0,0,0,0,0,0,0,0,0],"split_type":[0,0,0,0,0,0,0,0,0,0,0,0,0,0,0,0,0,0,0,0,0,0,0,0,0,0,0,0,0],"sum_hessian":[4.7E3,7.06E2,3.994E3,4.55E2,2.51E2,3.31E3,6.84E2,3.87E2,6.8E1,1.59E2,9.2E1,3.181E3,1.29E2,3.73E2,3.11E2,2.21E2,1.66E2,4.7E1,2.1E1,2.6E1,1.33E2,4.9E1,4.3E1,2.609E3,5.72E2,2.25E2,1.48E2,1.72E2,1.39E2],"tree_param":{"num_deleted":"0","num_feature":"2","num_nodes":"29","size_leaf_vector":"1"}},{"base_weights":[-5.285407E-3,-1.6890436E0,2.9269266E-1,-2.1364627E0,-8.7272567E-1,5.25273E-1,-1.3378208E0,-2.2302399E0,-1.5781722E0,7.3000253E-3,-2.3773642E0,5.7921684E-1,-8.763281E-2,-1.9575136E0,-6.276664E-1,-2.4254517E-1,-1.957382E-1,-1.2629253E-1,-2.1942487E-1,2.2786061E-1,-4.504057E-2,-2.1377335E-1,-2.9772303E-1,7.1415074E-2,-9.289096E-3,-1.5696263E-1,-2.2515617E-1,-4.111859E-2,-1.4802338E-1],"categories":[],"categories_nodes":[],"categories_segments":[],"categories_sizes":[],"default_left":[0,0,0,0,0,0,0,0,0,0,0,0,0,0,0,0,0,0,0,0,0,0,0,0,0,0,0,0,0],"id":16,"left_children":[1,3,5,7,9,11,13,15,17,19,21,23,-1,25,27,-1,-1,-1,-1,-1,-1,-1,-1,-1,-1,-1,-1,-1,-1],"loss_changes":[2.3590942E3,2.563573E2,1.515708E3,2.0354248E1,3.336958E2,2.6490796E2,2.1837006E2,1.5919434E1,1.0629761E1,1.6736066E2,7.0039062E0,3.0551062E2,0E0,2.6805298E1,4.2579376E1,0E0,0E0,0E0,0E0,0E0,0E0,0E0,0E0,0E0,0E0,0E0,0E0,0E0,0E0],"parents":[2147483647,0,0,1,1,2,2,3,3,4,4,5,5,6,6,7,7,8,8,9,9,10,10,11,11,13,13,14,14],"right_children":[2,4,6,8,10,12,14,16,18,20,22,24,-1,26,28,-1,-1,-1,-1,-1,-1,-1,-1,-1,-1,-1,-1,-1,-1],"split_conditions":[6E0,4E0,2.1E1,3E0,5E0,7E0,4E0,5E0,7E0,2E0,7E0,1.8E1,-8.763281E-2,2.2E1,2.3E1,-2.4254517E-1,-1.957382E-1,-1.2629253E-1,-2.1942487E-1,2.2786061E-1,-4.504057E-2,-2.1377335E-1,-2.9772303E-1,7.1415074E-2,-9.289096E-3,-1.5696263E-1,-2.2515617E-1,-4.111859E-2,-1.4802338E-1],"split_indices":[1,1,1,1,0,0,0,0,0,0,0,1,0,1,1,0,0,0,0,0,0,0,0,0,0,0,0,0,0],"split_type":[0,0,0,0,0,0,0,0,0,0,0,0,0,0,0,0,0,0,0,0,0,0,0,0,0,0,0,0,0],"sum_hessian":[4.7E3,7.06E2,3.994E3,4.55E2,2.51E2,3.496E3,4.98E2,3.87E2,6.8E1,1.59E2,9.2E1,3.367E3,1.29E2,2.65E2,2.33E2,2.21E2,1.66E2,4.7E1,2.1E1,2.6E1,1.33E2,6.9E1,2.3E1,2.804E3,5.63E2,1.17E2,1.48E2,1.87E2,4.6E1],"tree_param":{"num_deleted":"0","num_feature":"2","num_nodes":"29","size_leaf_vector":"1"}},{"base_weights":[-5.1204604E-3,-1.5217131E0,2.6327407E-1,-1.9245356E0,-7.867576E-1,5.5109364E-1,-8.119279E-1,-2.0083454E0,-1.4253654E0,7.7121435E-3,-2.1451275E0,3.4776196E-1,1.1103257E0,-2.4028344E0,-3.7398386E-1,-2.1839991E-1,-1.7628157E-1,-1.1392639E-1,-1.9847979E-1,2.0591842E-1,-4.057017E-2,-2.3313072E-1,-1.545466E-1,4.152891E-2,-7.89369E-2,1.9375704E-1,2.5442297E-2,-3.1483552E-1,-2.0885603E-1,1.20629504E-1,-6.8367116E-2],"categories":[],"categories_nodes":[],"categories_segments":[],"categories_sizes":[],"default_left":[0,0,0,0,0,0,0,0,0,0,0,0,0,0,0,0,0,0,0,0,0,0,0,0,0,0,0,0,0,0,0],"id":17,"left_children":[1,3,5,7,9,11,13,15,17,19,21,23,25,27,29,-1,-1,-1,-1,-1,-1,-1,-1,-1,-1,-1,-1,-1,-1,-1,-1],"loss_changes":[1.9139199E3,2.0779797E2,1.2367567E3,1.6214355E1,2.7197086E2,3.580265E2,5.871399E2,1.2883789E1,8.782547E0,1.3653252E2,6.7800293E0,1.7793655E2,5.942616E2,3.606665E1,3.2529175E2,0E0,0E0,0E0,0E0,0E0,0E0,0E0,0E0,0E0,0E0,0E0,0E0,0E0,0E0,0E0,0E0],"parents":[2147483647,0,0,1,1,2,2,3,3,4,4,5,5,6,6,7,7,8,8,9,9,10,10,11,11,12,12,13,13,14,14],"right_children":[2,4,6,8,10,12,14,16,18,20,22,24,26,28,30,-1,-1,-1,-1,-1,-1,-1,-1,-1,-1,-1,-1,-1,-1,-1,-1],"split_conditions":[6E0,4E0,1.9E1,3E0,5E0,1.5E1,2E0,5E0,7E0,2E0,5E0,7E0,1.7E1,2E1,2E1,-2.1839991E-1,-1.7628157E-1,-1.1392639E-1,-1.9847979E-1,2.0591842E-1,-4.057017E-2,-2.3313072E-1,-1.545466E-1,4.152891E-2,-7.89369E-2,1.9375704E-1,2.5442297E-2,-3.1483552E-1,-2.0885603E-1,1.20629504E-1,-6.8367116E-2],"split_indices":[1,1,1,1,0,1,0,0,0,0,1,0,1,1,1,0,0,0,0,0,0,0,0,0,0,0,0,0,0,0,0],"split_type":[0,0,0,0,0,0,0,0,0,0,0,0,0,0,0,0,0,0,0,0,0,0,0,0,0,0,0,0,0,0,0],"sum_hessian":[4.7E3,7.06E2,3.994E3,4.55E2,2.51E2,3.151E3,8.43E2,3.87E2,6.8E1,1.59E2,9.2E1,2.312E3,8.39E2,1.81E2,6.62E2,2.21E2,1.66E2,4.7E1,2.1E1,2.6E1,1.33E2,6.8E1,2.4E1,2.183E3,1.29E2,4.26E2,4.13E2,5.1E1,1.3E2,1.08E2,5.54E2],"tree_param":{"num_deleted":"0","num_feature":"2","num_nodes":"31","size_leaf_vector":"1"}},{"base_weights":[-4.867573E-3,-1.2831746E0,2.560327E-1,-2.3341405E-1,-1.7939099E0,4.5556653E-1,-1.1068286E0,-1.0442255E0,3.8075203E-1,-1.5143358E0,-4.604698E-1,1.3256511E-2,6.4036304E-1,-1.6385764E0,-4.9763313E-1,-1.6788055E-1,3.5962697E-2,-1.7550227E-1,-1.1058328E-1,4.0189154E-2,-1.7582195E-1,1.0186587E-3,8.613973E-2,-1.2926303E-1,-1.9015498E-1,-3.0228266E-2,-1.2684472E-1],"categories":[],"categories_nodes":[],"categories_segments":[],"categories_sizes":[],"default_left":[0,0,0,0,0,0,0,0,0,0,0,0,0,0,0,0,0,0,0,0,0,0,0,0,0,0,0],"id":18,"left_children":[1,3,5,7,9,11,13,15,-1,17,-1,19,21,23,25,-1,-1,-1,-1,-1,-1,-1,-1,-1,-1,-1,-1],"loss_changes":[1.5681621E3,4.2689258E2,1.062418E3,8.62402E2,4.142284E2,2.7847064E2,1.6082977E2,1.9570135E2,0E0,4.6138428E1,0E0,6.9260645E2,3.3470642E2,2.1741272E1,3.485203E1,0E0,0E0,0E0,0E0,0E0,0E0,0E0,0E0,0E0,0E0,0E0,0E0],"parents":[2147483647,0,0,1,1,2,2,3,3,4,4,5,5,6,6,7,7,9,9,11,11,12,12,13,13,14,14],"right_children":[2,4,6,8,10,12,14,16,-1,18,-1,20,22,24,26,-1,-1,-1,-1,-1,-1,-1,-1,-1,-1,-1,-1],"split_conditions":[7E0,3E0,2.1E1,5E0,6E0,3E0,4E0,4E0,3.8075203E-1,4E0,-4.604698E-1,1.8E1,9E0,2.2E1,2.3E1,-1.6788055E-1,3.5962697E-2,-1.7550227E-1,-1.1058328E-1,4.0189154E-2,-1.7582195E-1,1.0186587E-3,8.613973E-2,-1.2926303E-1,-1.9015498E-1,-3.0228266E-2,-1.2684472E-1],"split_indices":[1,0,1,1,1,0,0,1,0,1,0,1,1,1,1,0,0,0,0,0,0,0,0,0,0,0,0],"split_type":[0,0,0,0,0,0,0,0,0,0,0,0,0,0,0,0,0,0,0,0,0,0,0,0,0,0,0],"sum_hessian":[4.7E3,7.96E2,3.904E3,2.61E2,5.35E2,3.406E3,4.98E2,2.18E2,4.3E1,4.88E2,4.7E1,1.004E3,2.402E3,2.65E2,2.33E2,1.5E2,6.8E1,3.05E2,1.83E2,8.24E2,1.8E2,6.24E2,1.778E3,1.17E2,1.48E2,1.87E2,4.6E1],"tree_param":{"num_deleted":"0","num_feature":"2","num_nodes":"27","size_leaf_vector":"1"}},{"base_weights":[-4.5984252E-3,-1.1554817E0,2.3029493E-1,-5.6763875E-1,-1.9008102E0,4.0999556E-1,-9.971005E-1,-1.0022105E0,3.435421E-1,-1.538819E0,-4.1538215E-1,1.1795433E-2,5.763631E-1,-1.4759195E0,-4.485408E-1,-1.7962314E-1,-3.3495538E-3,-9.932985E-2,-1.6106953E-1,3.617505E-2,-1.5833688E-1,9.169699E-4,7.75306E-2,-1.16446294E-1,-1.712671E-1,-2.7221475E-2,-1.1443017E-1],"categories":[],"categories_nodes":[],"categories_segments":[],"categories_sizes":[],"default_left":[0,0,0,0,0,0,0,0,0,0,0,0,0,0,0,0,0,0,0,0,0,0,0,0,0,0,0],"id":19,"left_children":[1,3,5,7,9,11,13,15,-1,17,-1,19,21,23,25,-1,-1,-1,-1,-1,-1,-1,-1,-1,-1,-1,-1],"loss_changes":[1.2711102E3,3.4811548E2,8.617102E2,7.8105164E2,2.798733E2,2.2569867E2,1.3040573E2,3.106885E2,0E0,1.0319885E1,0E0,5.6159973E2,2.7114532E2,1.7619934E1,2.8395798E1,0E0,0E0,0E0,0E0,0E0,0E0,0E0,0E0,0E0,0E0,0E0,0E0],"parents":[2147483647,0,0,1,1,2,2,3,3,4,4,5,5,6,6,7,7,9,9,11,11,12,12,13,13,14,14],"right_children":[2,4,6,8,10,12,14,16,-1,18,-1,20,22,24,26,-1,-1,-1,-1,-1,-1,-1,-1,-1,-1,-1,-1],"split_conditions":[7E0,5E0,2.1E1,5E0,6E0,3E0,4E0,3E0,3.435421E-1,1E0,-4.1538215E-1,1.8E1,9E0,2.2E1,2.3E1,-1.7962314E-1,-3.3495538E-3,-9.932985E-2,-1.6106953E-1,3.617505E-2,-1.5833688E-1,9.169699E-4,7.75306E-2,-1.16446294E-1,-1.712671E-1,-2.7221475E-2,-1.1443017E-1],"split_indices":[1,0,1,1,1,0,0,1,0,1,0,1,1,1,1,0,0,0,0,0,0,0,0,0,0,0,0],"split_type":[0,0,0,0,0,0,0,0,0,0,0,0,0,0,0,0,0,0,0,0,0,0,0,0,0,0,0],"sum_hessian":[4.7E3,7.96E2,3.904E3,4.46E2,3.5E2,3.406E3,4.98E2,4.03E2,4.3E1,3.03E2,4.7E1,1.004E3,2.402E3,2.65E2,2.33E2,2.21E2,1.82E2,3.7E1,2.66E2,8.24E2,1.8E2,6.24E2,1.778E3,1.17E2,1.48E2,1.87E2,4.6E1],"tree_param":{"num_deleted":"0","num_feature":"2","num_nodes":"27","size_leaf_vector":"1"}},{"base_weights":[-4.348613E-3,-1.04058E0,2.0714456E-1,-1.7727338E-1,-1.4606282E0,3.6898345E-1,-8.9825076E-1,-8.348486E-1,3.0996868E-1,-1.2332029E0,-3.7470928E-1,1.04945265E-2,5.187597E-1,-1.3294091E0,-4.0429184E-1,-1.3604528E-1,3.274859E-2,-1.4213166E-1,-9.136596E-2,3.2561958E-2,-1.4259069E-1,8.2537293E-4,6.978196E-2,-1.0490032E-1,-1.5425535E-1,-2.4513787E-2,-1.0323059E-1],"categories":[],"categories_nodes":[],"categories_segments":[],"categories_sizes":[],"default_left":[0,0,0,0,0,0,0,0,0,0,0,0,0,0,0,0,0,0,0,0,0,0,0,0,0,0,0],"id":20,"left_children":[1,3,5,7,9,11,13,15,-1,17,-1,19,21,23,25,-1,-1,-1,-1,-1,-1,-1,-1,-1,-1,-1,-1],"loss_changes":[1.0304673E3,2.8875732E2,6.989201E2,5.6715784E2,2.74099E2,1.8292706E2,1.0573682E2,1.3423874E2,0E0,2.8095398E1,0E0,4.5537357E2,2.1965521E2,1.4279877E1,2.3135464E1,0E0,0E0,0E0,0E0,0E0,0E0,0E0,0E0,0E0,0E0,0E0,0E0],"parents":[2147483647,0,0,1,1,2,2,3,3,4,4,5,5,6,6,7,7,9,9,11,11,12,12,13,13,14,14],"right_children":[2,4,6,8,10,12,14,16,-1,18,-1,20,22,24,26,-1,-1,-1,-1,-1,-1,-1,-1,-1,-1,-1,-1],"split_conditions":[7E0,3E0,2.1E1,5E0,6E0,3E0,4E0,4E0,3.0996868E-1,4E0,-3.7470928E-1,1.8E1,9E0,2.2E1,2.3E1,-1.3604528E-1,3.274859E-2,-1.4213166E-1,-9.136596E-2,3.2561958E-2,-1.4259069E-1,8.2537293E-4,6.978196E-2,-1.0490032E-1,-1.5425535E-1,-2.4513787E-2,-1.0323059E-1],"split_indices":[1,0,1,1,1,0,0,1,0,1,0,1,1,1,1,0,0,0,0,0,0,0,0,0,0,0,0],"split_type":[0,0,0,0,0,0,0,0,0,0,0,0,0,0,0,0,0,0,0,0,0,0,0,0,0,0,0],"sum_hessian":[4.7E3,7.96E2,3.904E3,2.61E2,5.35E2,3.406E3,4.98E2,2.18E2,4.3E1,4.88E2,4.7E1,1.004E3,2.402E3,2.65E2,2.33E2,1.5E2,6.8E1,3.05E2,1.83E2,8.24E2,1.8E2,6.24E2,1.778E3,1.17E2,1.48E2,1.87E2,4.6E1],"tree_param":{"num_deleted":"0","num_feature":"2","num_nodes":"27","size_leaf_vector":"1"}},{"base_weights":[-4.09004E-3,-9.370259E-1,1.863207E-1,-5.5275446E-1,-1.7240632E0,3.3207324E-1,-8.092008E-1,-8.49973E-1,2.7967626E-1,-1.3445392E0,-3.38019E-1,9.3353605E-3,4.6691284E-1,-1.1974424E0,-3.6440825E-1,-1.3703428E-1,-2.5640756E-2,-1.1951878E-1,-1.8944152E-1,2.9309679E-2,-1.284104E-1,8.219009E-2,2.2894382E-2,-1.4779983E-1,-9.993451E-2,-6.912111E-4,-6.04392E-2],"categories":[],"categories_nodes":[],"categories_segments":[],"categories_sizes":[],"default_left":[0,0,0,0,0,0,0,0,0,0,0,0,0,0,0,0,0,0,0,0,0,0,0,0,0,0,0],"id":21,"left_children":[1,3,5,7,9,11,13,15,-1,17,-1,19,21,23,25,-1,-1,-1,-1,-1,-1,-1,-1,-1,-1,-1,-1],"loss_changes":[8.35265E2,2.400885E2,5.6688336E2,5.3698145E2,1.5950409E2,1.4826096E2,8.573447E1,1.5223215E2,0E0,1.5310516E1,0E0,3.692397E2,2.0280804E2,1.330658E1,2.0071447E1,0E0,0E0,0E0,0E0,0E0,0E0,0E0,0E0,0E0,0E0,0E0,0E0],"parents":[2147483647,0,0,1,1,2,2,3,3,4,4,5,5,6,6,7,7,9,9,11,11,12,12,13,13,14,14],"right_children":[2,4,6,8,10,12,14,16,-1,18,-1,20,22,24,26,-1,-1,-1,-1,-1,-1,-1,-1,-1,-1,-1,-1],"split_conditions":[7E0,6E0,2.1E1,6E0,5E0,3E0,4E0,3E0,2.7967626E-1,4E0,-3.38019E-1,1.8E1,5E0,2E0,2.2E1,-1.3703428E-1,-2.5640756E-2,-1.1951878E-1,-1.8944152E-1,2.9309679E-2,-1.284104E-1,8.219009E-2,2.2894382E-2,-1.4779983E-1,-9.993451E-2,-6.912111E-4,-6.04392E-2],"split_indices":[1,0,1,1,1,0,0,1,0,1,0,1,0,0,1,0,0,0,0,0,0,0,0,0,0,0,0],"split_type":[0,0,0,0,0,0,0,0,0,0,0,0,0,0,0,0,0,0,0,0,0,0,0,0,0,0,0],"sum_hessian":[4.7E3,7.96E2,3.904E3,5.36E2,2.6E2,3.406E3,4.98E2,4.93E2,4.3E1,2.13E2,4.7E1,1.004E3,2.402E3,2.65E2,2.33E2,2.62E2,2.31E2,1.7E2,4.3E1,8.24E2,1.8E2,9.63E2,1.439E3,1.07E2,1.58E2,9.4E1,1.39E2],"tree_param":{"num_deleted":"0","num_feature":"2","num_nodes":"27","size_leaf_vector":"1"}},{"base_weights":[-3.8581218E-3,-8.439883E-1,1.6761118E-1,-3.9988732E-1,-1.4071482E0,3.2648942E-1,-5.797092E-1,-7.172799E-1,2.5234422E-1,-1.1432462E0,-3.0492127E-1,1.7591159E-1,6.612322E-1,-8.0535614E-1,1.0860595E-1,-1.342991E-1,4.5698932E-3,-9.9250995E-2,-1.474567E-1,-3.7324715E-2,3.9140727E-2,1.5010327E-1,3.4258242E-3,-1.2898278E-1,-6.388506E-2,3.5982575E-2,-1.2966049E-1],"categories":[],"categories_nodes":[],"categories_segments":[],"categories_sizes":[],"default_left":[0,0,0,0,0,0,0,0,0,0,0,0,0,0,0,0,0,0,0,0,0,0,0,0,0,0,0],"id":22,"left_children":[1,3,5,7,9,11,13,15,-1,17,-1,19,21,23,25,-1,-1,-1,-1,-1,-1,-1,-1,-1,-1,-1,-1],"loss_changes":[6.7735126E2,1.9876697E2,4.6384137E2,4.1655594E2,1.486178E2,1.622377E2,1.06479126E2,1.9293271E2,0E0,1.3718872E1,0E0,2.6321887E2,5.259551E2,4.0800262E1,6.0479412E1,0E0,0E0,0E0,0E0,0E0,0E0,0E0,0E0,0E0,0E0,0E0,0E0],"parents":[2147483647,0,0,1,1,2,2,3,3,4,4,5,5,6,6,7,7,9,9,11,11,12,12,13,13,14,14],"right_children":[2,4,6,8,10,12,14,16,-1,18,-1,20,22,24,26,-1,-1,-1,-1,-1,-1,-1,-1,-1,-1,-1,-1],"split_conditions":[7E0,5E0,2E1,5E0,6E0,1.5E1,5E0,3E0,2.5234422E-1,4E0,-3.0492127E-1,3E0,1.7E1,2E0,2.3E1,-1.342991E-1,4.5698932E-3,-9.9250995E-2,-1.474567E-1,-3.7324715E-2,3.9140727E-2,1.5010327E-1,3.4258242E-3,-1.2898278E-1,-6.388506E-2,3.5982575E-2,-1.2966049E-1],"split_indices":[1,0,1,1,1,1,0,1,0,1,0,0,1,0,1,0,0,0,0,0,0,0,0,0,0,0,0],"split_type":[0,0,0,0,0,0,0,0,0,0,0,0,0,0,0,0,0,0,0,0,0,0,0,0,0,0,0],"sum_hessian":[4.7E3,7.96E2,3.904E3,4.46E2,3.5E2,3.22E3,6.84E2,4.03E2,4.3E1,3.03E2,4.7E1,2.222E3,9.98E2,5.15E2,1.69E2,2.21E2,1.82E2,2.11E2,9.2E1,6.26E2,1.596E3,4.26E2,5.72E2,1.3E2,3.85E2,1.44E2,2.5E1],"tree_param":{"num_deleted":"0","num_feature":"2","num_nodes":"27","size_leaf_vector":"1"}},{"base_weights":[-3.5913805E-3,-7.6012784E-1,1.508166E-1,-1.07231095E-1,-1.0778495E0,2.704793E-1,-6.6650116E-1,-5.8573157E-1,2.2768334E-1,-9.1144466E-1,-2.7506444E-1,3.1187212E-1,-7.753377E-2,-9.8879886E-1,-2.972803E-1,-9.938916E-2,3.1597715E-2,-1.0752179E-1,-7.2080605E-2,1.962663E-3,4.408936E-2,-7.394818E-2,-1.1796083E-1,9.678811E-4,-5.034506E-2],"categories":[],"categories_nodes":[],"categories_segments":[],"categories_sizes":[],"default_left":[0,0,0,0,0,0,0,0,0,0,0,0,0,0,0,0,0,0,0,0,0,0,0,0,0],"id":23,"left_children":[1,3,5,7,9,11,13,15,-1,17,-1,19,-1,21,23,-1,-1,-1,-1,-1,-1,-1,-1,-1,-1],"loss_changes":[5.4926324E2,1.6521371E2,3.820988E2,3.002169E2,1.4669452E2,1.4772855E2,5.908658E1,8.091514E1,0E0,1.4492279E1,0E0,1.2359143E2,0E0,1.178186E1,1.4813761E1,0E0,0E0,0E0,0E0,0E0,0E0,0E0,0E0,0E0,0E0],"parents":[2147483647,0,0,1,1,2,2,3,3,4,4,5,5,6,6,7,7,9,9,11,11,13,13,14,14],"right_children":[2,4,6,8,10,12,14,16,-1,18,-1,20,-1,22,24,-1,-1,-1,-1,-1,-1,-1,-1,-1,-1],"split_conditions":[7E0,3E0,2.1E1,5E0,6E0,7E0,4E0,4E0,2.2768334E-1,3E0,-2.7506444E-1,3E0,-7.753377E-2,2.2E1,2.2E1,-9.938916E-2,3.1597715E-2,-1.0752179E-1,-7.2080605E-2,1.962663E-3,4.408936E-2,-7.394818E-2,-1.1796083E-1,9.678811E-4,-5.034506E-2],"split_indices":[1,0,1,1,1,0,0,1,0,1,0,0,0,1,1,0,0,0,0,0,0,0,0,0,0],"split_type":[0,0,0,0,0,0,0,0,0,0,0,0,0,0,0,0,0,0,0,0,0,0,0,0,0],"sum_hessian":[4.7E3,7.96E2,3.904E3,2.61E2,5.35E2,3.406E3,4.98E2,2.18E2,4.3E1,4.88E2,4.7E1,3.277E3,1.29E2,2.65E2,2.33E2,1.5E2,6.8E1,2.6E2,2.28E2,1.004E3,2.273E3,1.17E2,1.48E2,9.4E1,1.39E2],"tree_param":{"num_deleted":"0","num_feature":"2","num_nodes":"25","size_leaf_vector":"1"}},{"base_weights":[-3.3533687E-3,-6.8448496E-1,1.3566461E-1,-3.9136136E-1,-1.2849559E0,2.8555113E-1,-4.0827876E-1,-6.0840344E-1,2.054324E-1,-1.0106102E0,-2.4813102E-1,1.3317189E-1,6.8847203E-1,-1.421281E0,-1.2958391E-1,-1.0023192E-1,-1.5922997E-2,-8.8013105E-2,-1.4947312E-1,-3.379413E-2,3.1805277E-2,1.2477616E-1,-7.91426E-3,-2.2513369E-1,-1.0809437E-1,9.421011E-2,-3.3982553E-2],"categories":[],"categories_nodes":[],"categories_segments":[],"categories_sizes":[],"default_left":[0,0,0,0,0,0,0,0,0,0,0,0,0,0,0,0,0,0,0,0,0,0,0,0,0,0,0],"id":24,"left_children":[1,3,5,7,9,11,13,15,-1,17,-1,19,21,23,25,-1,-1,-1,-1,-1,-1,-1,-1,-1,-1,-1,-1],"loss_changes":[4.452284E2,1.3977881E2,3.184904E2,2.862984E2,8.315643E1,1.879053E2,2.3809265E2,8.7247055E1,0E0,1.2202316E1,0E0,1.937304E2,3.607266E2,4.898123E1,1.497025E2,0E0,0E0,0E0,0E0,0E0,0E0,0E0,0E0,0E0,0E0,0E0,0E0],"parents":[2147483647,0,0,1,1,2,2,3,3,4,4,5,5,6,6,7,7,9,9,11,11,12,12,13,13,14,14],"right_children":[2,4,6,8,10,12,14,16,-1,18,-1,20,22,24,26,-1,-1,-1,-1,-1,-1,-1,-1,-1,-1,-1,-1],"split_conditions":[7E0,6E0,1.9E1,6E0,5E0,1.5E1,2E0,3E0,2.054324E-1,4E0,-2.4813102E-1,3E0,5E0,2E1,2E1,-1.0023192E-1,-1.5922997E-2,-8.8013105E-2,-1.4947312E-1,-3.379413E-2,3.1805277E-2,1.2477616E-1,-7.91426E-3,-2.2513369E-1,-1.0809437E-1,9.421011E-2,-3.3982553E-2],"split_indices":[1,0,1,1,1,1,0,1,0,1,0,0,0,1,1,0,0,0,0,0,0,0,0,0,0,0,0],"split_type":[0,0,0,0,0,0,0,0,0,0,0,0,0,0,0,0,0,0,0,0,0,0,0,0,0,0,0],"sum_hessian":[4.7E3,7.96E2,3.904E3,5.36E2,2.6E2,3.061E3,8.43E2,4.93E2,4.3E1,2.13E2,4.7E1,2.222E3,8.39E2,1.81E2,6.62E2,2.62E2,2.31E2,1.7E2,4.3E1,6.26E2,1.596E3,4.85E2,3.54E2,5.1E1,1.3E2,1.08E2,5.54E2],"tree_param":{"num_deleted":"0","num_feature":"2","num_nodes":"27","size_leaf_vector":"1"}},{"base_weights":[-3.1360218E-3,-6.165339E-1,1.2205763E-1,-2.794203E-1,-1.0440929E0,2.826766E-1,-3.0818948E-1,-9.480139E-1,5.288795E-1,-8.520917E-1,-2.2383487E-1,1.1985404E-1,8.6414266E-1,-9.189745E-1,3.597119E-1,-6.731134E-2,-1.1598106E-1,1.8293713E-1,9.192556E-3,-7.042743E-2,-1.1798896E-1,-3.042008E-2,2.8626764E-2,1.8016212E-1,-3.8906515E-2,-2.2533706E-1,-6.728532E-2,1.1008604E-1,-1.09409755E-2],"categories":[],"categories_nodes":[],"categories_segments":[],"categories_sizes":[],"default_left":[0,0,0,0,0,0,0,0,0,0,0,0,0,0,0,0,0,0,0,0,0,0,0,0,0,0,0,0,0],"id":25,"left_children":[1,3,5,7,9,11,13,15,17,19,-1,21,23,25,27,-1,-1,-1,-1,-1,-1,-1,-1,-1,-1,-1,-1,-1,-1],"loss_changes":[3.6108157E2,1.14584625E2,2.6994543E2,2.4207092E2,7.857651E1,2.6915442E2,4.3356726E2,1.3483963E1,1.1518759E2,1.3899124E1,0E0,1.5696085E2,7.3146094E2,1.8075876E2,1.7674632E2,0E0,0E0,0E0,0E0,0E0,0E0,0E0,0E0,0E0,0E0,0E0,0E0,0E0,0E0],"parents":[2147483647,0,0,1,1,2,2,3,3,4,4,5,5,6,6,7,7,8,8,9,9,11,11,12,12,13,13,14,14],"right_children":[2,4,6,8,10,12,14,16,18,20,-1,22,24,26,28,-1,-1,-1,-1,-1,-1,-1,-1,-1,-1,-1,-1,-1,-1],"split_conditions":[7E0,5E0,1.8E1,4E0,6E0,1.5E1,4E0,2E0,2E0,4E0,-2.2383487E-1,3E0,5E0,1.9E1,2E1,-6.731134E-2,-1.1598106E-1,1.8293713E-1,9.192556E-3,-7.042743E-2,-1.1798896E-1,-3.042008E-2,2.8626764E-2,1.8016212E-1,-3.8906515E-2,-2.2533706E-1,-6.728532E-2,1.1008604E-1,-1.09409755E-2],"split_indices":[1,0,1,1,1,1,0,0,0,1,0,0,0,1,1,0,0,0,0,0,0,0,0,0,0,0,0,0,0],"split_type":[0,0,0,0,0,0,0,0,0,0,0,0,0,0,0,0,0,0,0,0,0,0,0,0,0,0,0,0,0],"sum_hessian":[4.7E3,7.96E2,3.904E3,4.46E2,3.5E2,2.843E3,1.061E3,2.44E2,2.02E2,3.03E2,4.7E1,2.222E3,6.21E2,5.54E2,5.07E2,1.08E2,1.36E2,5E1,1.52E2,2.11E2,9.2E1,6.26E2,1.596E3,3.55E2,2.66E2,8.5E1,4.69E2,1.96E2,3.11E2],"tree_param":{"num_deleted":"0","num_feature":"2","num_nodes":"29","size_leaf_vector":"1"}},{"base_weights":[-2.919949E-3,-5.978984E-1,1.0237484E-1,-7.947184E-1,-3.5738572E-1,2.6161292E-1,-2.44686E-1,-3.7724522E-1,-8.669493E-1,6.937072E-2,-9.207121E-1,9.5054224E-2,1.1632257E0,-1.3085554E0,1.5472664E-2,-5.4166008E-2,-2.7213017E-2,-9.926703E-2,-7.1134195E-2,-3.9540473E-2,1.5034689E-1,-7.6289736E-2,-1.2299093E-1,1.3947966E-2,-9.436309E-2,2.1310067E-1,-1.5126544E-2,-1.7470847E-1,-9.069028E-2,2.7318636E-2,-3.921752E-2],"categories":[],"categories_nodes":[],"categories_segments":[],"categories_sizes":[],"default_left":[0,0,0,0,0,0,0,0,0,0,0,0,0,0,0,0,0,0,0,0,0,0,0,0,0,0,0,0,0,0,0],"id":26,"left_children":[1,3,5,7,9,11,13,15,17,19,21,23,25,27,29,-1,-1,-1,-1,-1,-1,-1,-1,-1,-1,-1,-1,-1,-1,-1,-1],"loss_changes":[2.945701E2,3.318373E1,2.2084888E2,1.1372894E1,7.699289E1,4.112091E2,3.479262E2,8.722639E-1,5.74971E0,1.2257012E2,5.79554E0,1.0686278E2,5.4352594E2,4.1921265E1,1.063192E2,0E0,0E0,0E0,0E0,0E0,0E0,0E0,0E0,0E0,0E0,0E0,0E0,0E0,0E0,0E0,0E0],"parents":[2147483647,0,0,1,1,2,2,3,3,4,4,5,5,6,6,7,7,8,8,9,9,10,10,11,11,12,12,13,13,14,14],"right_children":[2,4,6,8,10,12,14,16,18,20,22,24,26,28,30,-1,-1,-1,-1,-1,-1,-1,-1,-1,-1,-1,-1,-1,-1,-1,-1],"split_conditions":[6E0,3E0,1.7E1,1E0,5E0,1.5E1,2E0,3E0,2E0,4E0,7E0,1.4E1,5E0,2E1,2.1E1,-5.4166008E-2,-2.7213017E-2,-9.926703E-2,-7.1134195E-2,-3.9540473E-2,1.5034689E-1,-7.6289736E-2,-1.2299093E-1,1.3947966E-2,-9.436309E-2,2.1310067E-1,-1.5126544E-2,-1.7470847E-1,-9.069028E-2,2.7318636E-2,-3.921752E-2],"split_indices":[1,1,1,1,0,1,0,0,1,0,0,1,0,1,1,0,0,0,0,0,0,0,0,0,0,0,0,0,0,0,0],"split_type":[0,0,0,0,0,0,0,0,0,0,0,0,0,0,0,0,0,0,0,0,0,0,0,0,0,0,0,0,0,0,0],"sum_hessian":[4.7E3,7.06E2,3.994E3,3.87E2,3.19E2,2.738E3,1.256E3,5.8E1,3.29E2,1.82E2,1.37E2,2.312E3,4.26E2,2.46E2,1.01E3,2.1E1,3.7E1,1.79E2,1.5E2,1.38E2,4.4E1,9.3E1,4.4E1,2.218E3,9.4E1,2.45E2,1.81E2,1.16E2,1.3E2,6.19E2,3.91E2],"tree_param":{"num_deleted":"0","num_feature":"2","num_nodes":"31","size_leaf_vector":"1"}},{"base_weights":[-2.7345303E-3,-5.043506E-1,9.964465E-2,-1.7243208E-2,-7.415106E-1,2.5149226E-1,-2.2043803E-1,-3.694493E-1,1.7361745E-1,-6.1323845E-1,-2.0328347E-1,9.8505266E-2,1.0473672E0,-1.1787741E0,1.391355E-2,-6.5690205E-2,2.6496822E-2,-9.846641E-2,-5.2235574E-2,-2.8775522E-2,2.5009377E-2,1.9187728E-1,-1.362214E-2,-1.5738691E-1,-8.169047E-2,1.7169673E-2,-5.3489834E-2],"categories":[],"categories_nodes":[],"categories_segments":[],"categories_sizes":[],"default_left":[0,0,0,0,0,0,0,0,0,0,0,0,0,0,0,0,0,0,0,0,0,0,0,0,0,0,0],"id":27,"left_children":[1,3,5,7,9,11,13,15,-1,17,-1,19,21,23,25,-1,-1,-1,-1,-1,-1,-1,-1,-1,-1,-1,-1],"loss_changes":[2.414703E2,9.205858E1,1.8985321E2,1.624433E2,8.7536896E1,3.224351E2,2.8232297E2,4.0111996E1,0E0,1.5992416E1,0E0,1.302345E2,4.4066306E2,3.4028564E1,8.763764E1,0E0,0E0,0E0,0E0,0E0,0E0,0E0,0E0,0E0,0E0,0E0,0E0],"parents":[2147483647,0,0,1,1,2,2,3,3,4,4,5,5,6,6,7,7,9,9,11,11,12,12,13,13,14,14],"right_children":[2,4,6,8,10,12,14,16,-1,18,-1,20,22,24,26,-1,-1,-1,-1,-1,-1,-1,-1,-1,-1,-1,-1],"split_conditions":[7E0,3E0,1.7E1,5E0,6E0,1.5E1,2E0,4E0,1.7361745E-1,4E0,-2.0328347E-1,3E0,5E0,2E1,2.2E1,-6.5690205E-2,2.6496822E-2,-9.846641E-2,-5.2235574E-2,-2.8775522E-2,2.5009377E-2,1.9187728E-1,-1.362214E-2,-1.5738691E-1,-8.169047E-2,1.7169673E-2,-5.3489834E-2],"split_indices":[1,0,1,1,1,1,0,1,0,0,0,0,0,1,1,0,0,0,0,0,0,0,0,0,0,0,0],"split_type":[0,0,0,0,0,0,0,0,0,0,0,0,0,0,0,0,0,0,0,0,0,0,0,0,0,0,0],"sum_hessian":[4.7E3,7.96E2,3.904E3,2.61E2,5.35E2,2.648E3,1.256E3,2.18E2,4.3E1,4.88E2,4.7E1,2.222E3,4.26E2,2.46E2,1.01E3,1.5E2,6.8E1,9.4E1,3.94E2,6.26E2,1.596E3,2.45E2,1.81E2,1.16E2,1.3E2,7.85E2,2.25E2],"tree_param":{"num_deleted":"0","num_feature":"2","num_nodes":"27","size_leaf_vector":"1"}},{"base_weights":[-2.5291592E-3,-4.541911E-1,8.9654475E-2,-2.3217194E-1,-9.0924895E-1,2.2640918E-1,-1.9861354E-1,-3.9190772E-1,1.5665022E-1,-6.976272E-1,-1.8337867E-1,1.4719927E-1,1.4999727E0,-1.0618646E0,1.2486013E-2,-6.595598E-2,-8.680257E-3,-5.9430193E-2,-1.0833313E-1,1.990175E-2,-7.970249E-2,2.0979051E-1,-2.2101608E-1,-1.4178275E-1,-7.358378E-2,3.18118E-2,-2.3920104E-2],"categories":[],"categories_nodes":[],"categories_segments":[],"categories_sizes":[],"default_left":[0,0,0,0,0,0,0,0,0,0,0,0,0,0,0,0,0,0,0,0,0,0,0,0,0,0,0],"id":28,"left_children":[1,3,5,7,9,11,13,15,-1,17,-1,19,21,23,25,-1,-1,-1,-1,-1,-1,-1,-1,-1,-1,-1,-1],"loss_changes":[1.9577078E2,8.0311066E1,1.5398792E2,1.549008E2,4.9785934E1,2.6700732E2,2.290788E2,4.0283783E1,0E0,7.884712E0,0E0,1.2223406E2,3.4849017E2,2.7621918E1,7.784587E1,0E0,0E0,0E0,0E0,0E0,0E0,0E0,0E0,0E0,0E0,0E0,0E0],"parents":[2147483647,0,0,1,1,2,2,3,3,4,4,5,5,6,6,7,7,9,9,11,11,12,12,13,13,14,14],"right_children":[2,4,6,8,10,12,14,16,-1,18,-1,20,22,24,26,-1,-1,-1,-1,-1,-1,-1,-1,-1,-1,-1,-1],"split_conditions":[7E0,6E0,1.7E1,6E0,5E0,1.6E1,2E0,3E0,1.5665022E-1,4E0,-1.8337867E-1,7E0,6E0,2E1,2E1,-6.595598E-2,-8.680257E-3,-5.9430193E-2,-1.0833313E-1,1.990175E-2,-7.970249E-2,2.0979051E-1,-2.2101608E-1,-1.4178275E-1,-7.358378E-2,3.18118E-2,-2.3920104E-2],"split_indices":[1,0,1,1,1,1,0,1,0,1,0,0,0,1,1,0,0,0,0,0,0,0,0,0,0,0,0],"split_type":[0,0,0,0,0,0,0,0,0,0,0,0,0,0,0,0,0,0,0,0,0,0,0,0,0,0,0],"sum_hessian":[4.7E3,7.96E2,3.904E3,5.36E2,2.6E2,2.648E3,1.256E3,4.93E2,4.3E1,2.13E2,4.7E1,2.494E3,1.54E2,2.46E2,1.01E3,2.62E2,2.31E2,1.7E2,4.3E1,2.365E3,1.29E2,1.33E2,2.1E1,1.16E2,1.3E2,4.56E2,5.54E2],"tree_param":{"num_deleted":"0","num_feature":"2","num_nodes":"27","size_leaf_vector":"1"}},{"base_weights":[-2.392586E-3,-4.091097E-1,8.06179E-2,1.9354631E-1,-5.5842614E-1,1.493856E-1,-3.8906583E-1,-4.1909003E-1,1.4991114E-1,-3.770463E-1,-8.1966954E-1,1.8373653E-1,-7.1793556E-2,-5.277307E-1,5.81643E-2,-4.7870588E-2,-1.8800458E-2,-4.8091494E-2,1.5114413E-1,-6.286485E-2,-1.6542289E-1,2.5120785E-2,-4.052097E-3,-3.4703977E-2,-6.6562675E-2,3.4142938E-2,-9.681851E-2],"categories":[],"categories_nodes":[],"categories_segments":[],"categories_sizes":[],"default_left":[0,0,0,0,0,0,0,0,0,0,0,0,0,0,0,0,0,0,0,0,0,0,0,0,0,0,0],"id":29,"left_children":[1,3,5,7,9,11,13,15,-1,17,19,21,-1,23,25,-1,-1,-1,-1,-1,-1,-1,-1,-1,-1,-1,-1],"loss_changes":[1.5874712E2,7.182727E1,1.26186E2,1.27802284E2,2.9969513E1,1.0163765E2,3.0976234E1,1.411623E0,0E0,7.506947E1,4.0568268E1,4.9609436E1,0E0,9.262207E0,3.4927307E1,0E0,0E0,0E0,0E0,0E0,0E0,0E0,0E0,0E0,0E0,0E0,0E0],"parents":[2147483647,0,0,1,1,2,2,3,3,4,4,5,5,6,6,7,7,9,9,10,10,11,11,13,13,14,14],"right_children":[2,4,6,8,10,12,14,16,-1,18,20,22,-1,24,26,-1,-1,-1,-1,-1,-1,-1,-1,-1,-1,-1,-1],"split_conditions":[7E0,2E0,2.1E1,4E0,6E0,7E0,5E0,3E0,1.4991114E-1,6E0,5E0,1.7E1,-7.1793556E-2,2.2E1,2.3E1,-4.7870588E-2,-1.8800458E-2,-4.8091494E-2,1.5114413E-1,-6.286485E-2,-1.6542289E-1,2.5120785E-2,-4.052097E-3,-3.4703977E-2,-6.6562675E-2,3.4142938E-2,-9.681851E-2],"split_indices":[1,0,1,1,0,0,0,1,0,1,1,1,0,1,1,0,0,0,0,0,0,0,0,0,0,0,0],"split_type":[0,0,0,0,0,0,0,0,0,0,0,0,0,0,0,0,0,0,0,0,0,0,0,0,0,0,0],"sum_hessian":[4.7E3,7.96E2,3.904E3,1.58E2,6.38E2,3.406E3,4.98E2,1.08E2,5E1,3.78E2,2.6E2,3.277E3,1.29E2,3.8E2,1.18E2,8.5E1,2.3E1,3.59E2,1.9E1,2.13E2,4.7E1,2.519E3,7.58E2,1.66E2,2.14E2,9.3E1,2.5E1],"tree_param":{"num_deleted":"0","num_feature":"2","num_nodes":"27","size_leaf_vector":"1"}},{"base_weights":[-2.2084652E-3,-2.3611848E-1,1.149339E-1,5.383729E-1,-3.6416262E-1,2.997685E-1,-1.6115956E-1,1.14371315E-1,2.4753208E-1,-1.5536141E-1,-5.1208717E-1,2.0737047E-1,1.3249428E0,-9.312393E-1,2.7140008E-2,-3.777926E-2,8.187331E-2,1.4841779E-2,-8.772736E-2,-8.0369994E-2,-1.2548061E-2,-4.512829E-3,3.3190858E-2,2.4781446E-1,-3.53487E-2,-1.2732396E-1,-6.1868012E-2,2.9041788E-2,-1.8969806E-2],"categories":[],"categories_nodes":[],"categories_segments":[],"categories_sizes":[],"default_left":[0,0,0,0,0,0,0,0,0,0,0,0,0,0,0,0,0,0,0,0,0,0,0,0,0,0,0,0,0],"id":30,"left_children":[1,3,5,7,9,11,13,15,-1,17,19,21,23,25,27,-1,-1,-1,-1,-1,-1,-1,-1,-1,-1,-1,-1,-1,-1],"loss_changes":[1.2883817E2,1.5579234E2,1.5993039E2,1.8285988E2,4.152498E1,1.7752232E2,1.8229742E2,6.4095024E1,0E0,1.2293927E2,8.873781E1,5.4195923E1,3.0088907E2,2.5615417E1,5.777173E1,0E0,0E0,0E0,0E0,0E0,0E0,0E0,0E0,0E0,0E0,0E0,0E0,0E0,0E0],"parents":[2147483647,0,0,1,1,2,2,3,3,4,4,5,5,6,6,7,7,9,9,10,10,11,11,12,12,13,13,14,14],"right_children":[2,4,6,8,10,12,14,16,-1,18,20,22,24,26,28,-1,-1,-1,-1,-1,-1,-1,-1,-1,-1,-1,-1,-1,-1],"split_conditions":[9E0,2E0,1.7E1,8E0,5E0,1.6E1,2E0,4E0,2.4753208E-1,8E0,8E0,3E0,5E0,2E1,2E1,-3.777926E-2,8.187331E-2,1.4841779E-2,-8.772736E-2,-8.0369994E-2,-1.2548061E-2,-4.512829E-3,3.3190858E-2,2.4781446E-1,-3.53487E-2,-1.2732396E-1,-6.1868012E-2,2.9041788E-2,-1.8969806E-2],"split_indices":[1,0,1,1,0,1,0,1,0,1,1,0,0,1,1,0,0,0,0,0,0,0,0,0,0,0,0,0,0],"split_type":[0,0,0,0,0,0,0,0,0,0,0,0,0,0,0,0,0,0,0,0,0,0,0,0,0,0,0,0,0],"sum_hessian":[4.7E3,1.568E3,3.132E3,2.22E2,1.346E3,1.876E3,1.256E3,1.83E2,3.9E1,5.59E2,7.87E2,1.722E3,1.54E2,2.46E2,1.01E3,1.08E2,7.5E1,3.94E2,1.65E2,4.48E2,3.39E2,5.69E2,1.153E3,9.1E1,6.3E1,1.16E2,1.3E2,4.56E2,5.54E2],"tree_param":{"num_deleted":"0","num_feature":"2","num_nodes":"29","size_leaf_vector":"1"}},{"base_weights":[-1.9478394E-3,-3.383373E-1,6.670885E-2,1.7463018E-1,-4.6544763E-1,1.23673126E-1,-3.223573E-1,-3.4036E-1,1.2718713E0,-3.312626E-1,-6.5851533E-1,1.5369307E-1,-6.342424E-2,-4.4425586E-1,7.0631854E-2,-3.9405182E-2,-1.3378247E-2,1.424703E-1,1.0559382E-1,-4.2395454E-2,1.3537554E-1,-3.928223E-2,-1.1505484E-1,1.5624005E-3,2.2870062E-2,-2.8212791E-2,-5.681215E-2,3.26418E-2,-8.5685E-2],"categories":[],"categories_nodes":[],"categories_segments":[],"categories_sizes":[],"default_left":[0,0,0,0,0,0,0,0,0,0,0,0,0,0,0,0,0,0,0,0,0,0,0,0,0,0,0,0,0],"id":31,"left_children":[1,3,5,7,9,11,13,15,17,19,21,23,-1,25,27,-1,-1,-1,-1,-1,-1,-1,-1,-1,-1,-1,-1,-1,-1],"loss_changes":[1.0859397E2,5.2048447E1,8.6585884E1,9.027877E1,1.6336304E1,7.76155E1,2.3935883E1,1.1562605E0,1.7868042E-1,5.9769028E1,3.366851E1,3.394413E1,0E0,7.4909897E0,2.8510891E1,0E0,0E0,0E0,0E0,0E0,0E0,0E0,0E0,0E0,0E0,0E0,0E0,0E0,0E0],"parents":[2147483647,0,0,1,1,2,2,3,3,4,4,5,5,6,6,7,7,8,8,9,9,10,10,11,11,13,13,14,14],"right_children":[2,4,6,8,10,12,14,16,18,20,22,24,-1,26,28,-1,-1,-1,-1,-1,-1,-1,-1,-1,-1,-1,-1,-1,-1],"split_conditions":[7E0,2E0,2.1E1,4E0,6E0,7E0,5E0,3E0,5E0,6E0,4E0,1E1,-6.342424E-2,2.2E1,2.3E1,-3.9405182E-2,-1.3378247E-2,1.424703E-1,1.0559382E-1,-4.2395454E-2,1.3537554E-1,-3.928223E-2,-1.1505484E-1,1.5624005E-3,2.2870062E-2,-2.8212791E-2,-5.681215E-2,3.26418E-2,-8.5685E-2],"split_indices":[1,0,1,1,0,0,0,1,1,1,1,1,0,1,1,0,0,0,0,0,0,0,0,0,0,0,0,0,0],"split_type":[0,0,0,0,0,0,0,0,0,0,0,0,0,0,0,0,0,0,0,0,0,0,0,0,0,0,0,0,0],"sum_hessian":[4.7E3,7.96E2,3.904E3,1.58E2,6.38E2,3.406E3,4.98E2,1.08E2,5E1,3.78E2,2.6E2,3.277E3,1.29E2,3.8E2,1.18E2,8.5E1,2.3E1,2.6E1,2.4E1,3.59E2,1.9E1,1.7E2,9E1,1.154E3,2.123E3,1.66E2,2.14E2,9.3E1,2.5E1],"tree_param":{"num_deleted":"0","num_feature":"2","num_nodes":"29","size_leaf_vector":"1"}},{"base_weights":[-1.7618085E-3,-4.5934102E-1,3.939315E-2,-8.419717E-2,-5.2502024E-1,6.721434E-2,-6.2294555E-1,-2.9208725E-2,3.8375955E-2,-6.5669596E-1,-3.6457885E-2,1.6021527E-1,-1.4628997E-1,-7.582831E-1,-5.7130612E-2,1.6889637E-2,-8.753724E-3,-7.44616E-2,-3.7638877E-2,5.472911E-3,7.67312E-2,-8.323509E-2,2.1468033E-3,-5.1131584E-2,-9.5307454E-2],"categories":[],"categories_nodes":[],"categories_segments":[],"categories_sizes":[],"default_left":[0,0,0,0,0,0,0,0,0,0,0,0,0,0,0,0,0,0,0,0,0,0,0,0,0],"id":32,"left_children":[1,3,5,7,9,11,13,-1,15,17,-1,19,21,23,-1,-1,-1,-1,-1,-1,-1,-1,-1,-1,-1],"loss_changes":[8.8545685E1,9.515793E0,7.953617E1,1.5146316E0,6.7322464E0,8.224755E1,7.828369E-1,0E0,6.392859E-1,4.1557617E0,0E0,1.847143E2,1.4468878E2,1.6774979E0,0E0,0E0,0E0,0E0,0E0,0E0,0E0,0E0,0E0,0E0,0E0],"parents":[2147483647,0,0,1,1,2,2,3,3,4,4,5,5,6,6,8,8,9,9,11,11,12,12,13,13],"right_children":[2,4,6,8,10,12,14,-1,16,18,-1,20,22,24,-1,-1,-1,-1,-1,-1,-1,-1,-1,-1,-1],"split_conditions":[3E0,1E0,7E0,3E0,2E0,1.7E1,5E0,-2.9208725E-2,6E0,5E0,-3.6457885E-2,1.5E1,2E0,4E0,-5.7130612E-2,1.6889637E-2,-8.753724E-3,-7.44616E-2,-3.7638877E-2,5.472911E-3,7.67312E-2,-8.323509E-2,2.1468033E-3,-5.1131584E-2,-9.5307454E-2],"split_indices":[1,1,0,0,1,1,1,0,0,0,0,1,0,1,0,0,0,0,0,0,0,0,0,0,0],"split_type":[0,0,0,0,0,0,0,0,0,0,0,0,0,0,0,0,0,0,0,0,0,0,0,0,0],"sum_hessian":[4.7E3,3.87E2,4.313E3,5.8E1,3.29E2,4.14E3,1.73E2,2.1E1,3.7E1,1.79E2,1.5E2,2.884E3,1.256E3,4.4E1,1.29E2,1.8E1,1.9E1,1.35E2,4.4E1,2.458E3,4.26E2,2.46E2,1.01E3,2.1E1,2.3E1],"tree_param":{"num_deleted":"0","num_feature":"2","num_nodes":"25","size_leaf_vector":"1"}},{"base_weights":[-1.6644648E-3,-2.805952E-1,5.526498E-2,1.8015315E-1,-3.9480242E-1,1.4397469E-1,-1.3172571E-1,-2.725596E-1,1.1441833E0,-2.7509922E-1,-5.671116E-1,3.888172E-2,6.907609E-1,-7.4945295E-1,1.93231E-2,-3.1023297E-2,-1.26206875E-2,1.2822407E-1,9.4931394E-2,-3.5739332E-2,1.2199497E-1,-3.9867174E-2,-1.3062581E-1,-3.2848362E-2,1.830891E-2,2.2566457E-1,1.2683794E-2,-1.08715475E-1,-4.421204E-2,1.2609459E-2,-3.5210043E-2],"categories":[],"categories_nodes":[],"categories_segments":[],"categories_sizes":[],"default_left":[0,0,0,0,0,0,0,0,0,0,0,0,0,0,0,0,0,0,0,0,0,0,0,0,0,0,0,0,0,0,0],"id":33,"left_children":[1,3,5,7,9,11,13,15,17,19,21,23,25,27,29,-1,-1,-1,-1,-1,-1,-1,-1,-1,-1,-1,-1,-1,-1,-1,-1],"loss_changes":[7.466444E1,4.2009888E1,6.4794685E1,6.970403E1,1.3023964E1,1.5219366E2,1.1730134E2,5.618286E-1,1.5481567E-1,4.7065777E1,3.1974197E1,1.1782756E2,3.7677115E2,2.5154678E1,4.0138073E1,0E0,0E0,0E0,0E0,0E0,0E0,0E0,0E0,0E0,0E0,0E0,0E0,0E0,0E0,0E0,0E0],"parents":[2147483647,0,0,1,1,2,2,3,3,4,4,5,5,6,6,7,7,8,8,9,9,10,10,11,11,12,12,13,13,14,14],"right_children":[2,4,6,8,10,12,14,16,18,20,22,24,26,28,30,-1,-1,-1,-1,-1,-1,-1,-1,-1,-1,-1,-1,-1,-1,-1,-1],"split_conditions":[7E0,2E0,1.7E1,4E0,6E0,1.5E1,2E0,3E0,5E0,6E0,5E0,3E0,3E0,2E1,2.2E1,-3.1023297E-2,-1.26206875E-2,1.2822407E-1,9.4931394E-2,-3.5739332E-2,1.2199497E-1,-3.9867174E-2,-1.3062581E-1,-3.2848362E-2,1.830891E-2,2.2566457E-1,1.2683794E-2,-1.08715475E-1,-4.421204E-2,1.2609459E-2,-3.5210043E-2],"split_indices":[1,0,1,1,0,1,0,1,1,1,1,0,0,1,1,0,0,0,0,0,0,0,0,0,0,0,0,0,0,0,0],"split_type":[0,0,0,0,0,0,0,0,0,0,0,0,0,0,0,0,0,0,0,0,0,0,0,0,0,0,0,0,0,0,0],"sum_hessian":[4.7E3,7.96E2,3.904E3,1.58E2,6.38E2,2.648E3,1.256E3,1.08E2,5E1,3.78E2,2.6E2,2.222E3,4.26E2,2.46E2,1.01E3,8.5E1,2.3E1,2.6E1,2.4E1,3.59E2,1.9E1,2.13E2,4.7E1,6.26E2,1.596E3,1.12E2,3.14E2,1.16E2,1.3E2,7.85E2,2.25E2],"tree_param":{"num_deleted":"0","num_feature":"2","num_nodes":"31","size_leaf_vector":"1"}},{"base_weights":[-1.4673756E-3,-1.6593511E-1,8.08982E-2,4.851501E-1,-2.7360108E-1,2.1451837E-1,-1.1869285E-1,9.6862145E-2,2.259146E-1,-1.0084465E-1,-3.9602497E-1,1.3892817E-1,1.0534048E0,-6.7512697E-1,1.7368397E-2,-2.45704E-2,5.868996E-2,1.9123014E-2,-7.952344E-2,-6.270065E-2,-8.98286E-3,2.851401E-2,-8.9612175E-3,1.56271E-1,-2.0966084E-1,-9.793689E-2,-3.9824586E-2,2.2389593E-2,-1.52722495E-2],"categories":[],"categories_nodes":[],"categories_segments":[],"categories_sizes":[],"default_left":[0,0,0,0,0,0,0,0,0,0,0,0,0,0,0,0,0,0,0,0,0,0,0,0,0,0,0,0,0],"id":34,"left_children":[1,3,5,7,9,11,13,15,-1,17,19,21,23,25,27,-1,-1,-1,-1,-1,-1,-1,-1,-1,-1,-1,-1,-1,-1],"loss_changes":[6.3695435E1,1.1011921E2,8.358066E1,1.533883E2,2.8448448E1,1.1887722E2,9.51781E1,3.103233E1,0E0,1.1372776E2,5.5675552E1,5.7600155E1,2.5194568E2,2.0416962E1,3.5549057E1,0E0,0E0,0E0,0E0,0E0,0E0,0E0,0E0,0E0,0E0,0E0,0E0,0E0,0E0],"parents":[2147483647,0,0,1,1,2,2,3,3,4,4,5,5,6,6,7,7,9,9,10,10,11,11,12,12,13,13,14,14],"right_children":[2,4,6,8,10,12,14,16,-1,18,20,22,24,26,28,-1,-1,-1,-1,-1,-1,-1,-1,-1,-1,-1,-1,-1,-1],"split_conditions":[9E0,2E0,1.7E1,8E0,5E0,1.6E1,2E0,4E0,2.259146E-1,8E0,8E0,1.2E1,6E0,2E1,2E1,-2.45704E-2,5.868996E-2,1.9123014E-2,-7.952344E-2,-6.270065E-2,-8.98286E-3,2.851401E-2,-8.9612175E-3,1.56271E-1,-2.0966084E-1,-9.793689E-2,-3.9824586E-2,2.2389593E-2,-1.52722495E-2],"split_indices":[1,0,1,1,0,1,0,1,0,1,1,1,0,1,1,0,0,0,0,0,0,0,0,0,0,0,0,0,0],"split_type":[0,0,0,0,0,0,0,0,0,0,0,0,0,0,0,0,0,0,0,0,0,0,0,0,0,0,0,0,0],"sum_hessian":[4.7E3,1.568E3,3.132E3,2.22E2,1.346E3,1.876E3,1.256E3,1.83E2,3.9E1,5.59E2,7.87E2,1.722E3,1.54E2,2.46E2,1.01E3,1.08E2,7.5E1,3.94E2,1.65E2,4.48E2,3.39E2,1.05E3,6.72E2,1.33E2,2.1E1,1.16E2,1.3E2,4.56E2,5.54E2],"tree_param":{"num_deleted":"0","num_feature":"2","num_nodes":"29","size_leaf_vector":"1"}},{"base_weights":[-1.328725E-3,-1.22328006E-1,9.465901E-2,4.5173636E-1,-2.1335585E-1,5.370277E-1,-2.0066755E-2,-2.2135895E-1,8.636892E-1,-1.2675143E0,-1.6169451E-2,2.2390892E-1,8.563443E-1,1.5108816E-1,-3.2194468E-1,-2.5528563E-2,-9.056512E-3,5.289827E-2,1.1046108E-1,-3.5215706E-2,-3.0468857E-1,-2.2897685E-2,6.792468E-2,4.7321435E-2,-5.9986482E-3,1.6885273E-1,5.8566332E-2,8.285861E-2,-3.232668E-2,-7.562301E-2,4.1593928E-2],"categories":[],"categories_nodes":[],"categories_segments":[],"categories_sizes":[],"default_left":[0,0,0,0,0,0,0,0,0,0,0,0,0,0,0,0,0,0,0,0,0,0,0,0,0,0,0,0,0,0,0],"id":35,"left_children":[1,3,5,7,9,11,13,15,17,19,21,23,25,27,29,-1,-1,-1,-1,-1,-1,-1,-1,-1,-1,-1,-1,-1,-1,-1,-1],"loss_changes":[5.461109E1,1.0878853E2,1.3308014E2,7.921698E1,3.7330634E2,5.379962E1,1.07672874E2,4.605565E-1,1.3688614E1,4.5986633E2,2.2421194E2,1.9421196E1,5.915448E1,4.2769592E2,2.4193555E2,0E0,0E0,0E0,0E0,0E0,0E0,0E0,0E0,0E0,0E0,0E0,0E0,0E0,0E0,0E0,0E0],"parents":[2147483647,0,0,1,1,2,2,3,3,4,4,5,5,6,6,7,7,8,8,9,9,10,10,11,11,12,12,13,13,14,14],"right_children":[2,4,6,8,10,12,14,16,18,20,22,24,26,28,30,-1,-1,-1,-1,-1,-1,-1,-1,-1,-1,-1,-1,-1,-1,-1,-1],"split_conditions":[1E1,2E0,1.2E1,4E0,3E0,4E0,5E0,3E0,8E0,9E0,9E0,1.1E1,5E0,1.8E1,1.8E1,-2.5528563E-2,-9.056512E-3,5.289827E-2,1.1046108E-1,-3.5215706E-2,-3.0468857E-1,-2.2897685E-2,6.792468E-2,4.7321435E-2,-5.9986482E-3,1.6885273E-1,5.8566332E-2,8.285861E-2,-3.232668E-2,-7.562301E-2,4.1593928E-2],"split_indices":[1,0,1,1,0,0,0,1,1,1,1,1,0,1,1,0,0,0,0,0,0,0,0,0,0,0,0,0,0,0,0],"split_type":[0,0,0,0,0,0,0,0,0,0,0,0,0,0,0,0,0,0,0,0,0,0,0,0,0,0,0,0,0,0,0],"sum_hessian":[4.7E3,2.079E3,2.621E3,2.84E2,1.795E3,5.39E2,2.082E3,1.08E2,1.76E2,2.82E2,1.513E3,2.73E2,2.66E2,1.329E3,7.53E2,8.5E1,2.3E1,7.5E1,1.01E2,1.87E2,9.5E1,1.159E3,3.54E2,1.45E2,1.28E2,6.4E1,2.02E2,5.47E2,7.82E2,4.74E2,2.79E2],"tree_param":{"num_deleted":"0","num_feature":"2","num_nodes":"31","size_leaf_vector":"1"}},{"base_weights":[-1.1705674E-3,2.294791E-2,-4.14905E-1,-3.635377E-1,5.1221803E-2,-2.291142E-1,-5.4212534E-1,-4.783091E-1,-4.8381783E-2,7.929139E-2,-3.2458174E-1,-1.9738166E-2,-3.4274545E-2,-7.415002E-2,-5.0114747E-2,-3.581346E-2,-9.0648055E-2,2.2100115E-2,-3.23155E-2,-1.2293721E-3,1.5563269E-2,-7.62574E-2,-8.3941175E-3],"categories":[],"categories_nodes":[],"categories_segments":[],"categories_sizes":[],"default_left":[0,0,0,0,0,0,0,0,0,0,0,0,0,0,0,0,0,0,0,0,0,0,0],"id":36,"left_children":[1,3,5,7,9,11,13,15,17,19,21,-1,-1,-1,-1,-1,-1,-1,-1,-1,-1,-1,-1],"loss_changes":[4.6919125E1,4.856929E1,5.997612E0,1.0936634E1,4.3707703E1,3.1817007E-1,8.784027E-1,1.1098434E1,6.1409926E0,2.694803E1,3.0290812E1,0E0,0E0,0E0,0E0,0E0,0E0,0E0,0E0,0E0,0E0,0E0,0E0],"parents":[2147483647,0,0,1,1,2,2,3,3,4,4,5,5,6,6,7,7,8,8,9,9,10,10],"right_children":[2,4,6,8,10,12,14,16,18,20,22,-1,-1,-1,-1,-1,-1,-1,-1,-1,-1,-1,-1],"split_conditions":[7E0,3E0,4E0,5E0,2.2E1,3E0,5E0,4E0,6E0,4E0,3E0,-1.9738166E-2,-3.4274545E-2,-7.415002E-2,-5.0114747E-2,-3.581346E-2,-9.0648055E-2,2.2100115E-2,-3.23155E-2,-1.2293721E-3,1.5563269E-2,-7.62574E-2,-8.3941175E-3],"split_indices":[0,1,1,0,1,1,1,0,0,0,0,0,0,0,0,0,0,0,0,0,0,0,0],"split_type":[0,0,0,0,0,0,0,0,0,0,0,0,0,0,0,0,0,0,0,0,0,0,0],"sum_hessian":[4.7E3,4.442E3,2.58E2,3.02E2,4.14E3,1.06E2,1.52E2,2.21E2,8.1E1,3.853E3,2.87E2,8.5E1,2.1E1,2.3E1,1.29E2,1.74E2,4.7E1,4.1E1,4E1,1.752E3,2.101E3,1.01E2,1.86E2],"tree_param":{"num_deleted":"0","num_feature":"2","num_nodes":"23","size_leaf_vector":"1"}},{"base_weights":[-1.1354795E-3,-1.0597418E-1,8.2032196E-2,4.18555E-1,-1.891506E-1,4.767777E-1,-2.0341597E-2,-1.7135294E-1,7.794669E-1,-1.1356057E0,-1.2112332E-2,2.0289461E-1,7.560556E-1,1.3992846E-1,-3.030191E-1,-1.9465666E-2,-8.0708265E-3,9.880243E-2,3.8639445E-2,-3.0817945E-2,-2.7441528E-1,-1.9957863E-2,6.004877E-2,4.021755E-2,-9.787118E-3,1.5069486E-1,5.1189747E-2,7.432755E-2,-2.8251607E-2,-6.9629796E-2,3.6523256E-2],"categories":[],"categories_nodes":[],"categories_segments":[],"categories_sizes":[],"default_left":[0,0,0,0,0,0,0,0,0,0,0,0,0,0,0,0,0,0,0,0,0,0,0,0,0,0,0,0,0,0,0],"id":37,"left_children":[1,3,5,7,9,11,13,15,17,19,21,23,25,27,29,-1,-1,-1,-1,-1,-1,-1,-1,-1,-1,-1,-1,-1,-1,-1,-1],"loss_changes":[4.099761E1,9.0826355E1,1.0596891E2,6.0811436E1,3.0092175E2,4.115091E1,9.441218E1,2.1453643E-1,1.4128365E1,3.7581433E2,1.739904E2,1.6462063E1,4.8179474E1,3.392012E2,1.9841245E2,0E0,0E0,0E0,0E0,0E0,0E0,0E0,0E0,0E0,0E0,0E0,0E0,0E0,0E0,0E0,0E0],"parents":[2147483647,0,0,1,1,2,2,3,3,4,4,5,5,6,6,7,7,8,8,9,9,10,10,11,11,12,12,13,13,14,14],"right_children":[2,4,6,8,10,12,14,16,18,20,22,24,26,28,30,-1,-1,-1,-1,-1,-1,-1,-1,-1,-1,-1,-1,-1,-1,-1,-1],"split_conditions":[1E1,2E0,1.2E1,4E0,3E0,4E0,5E0,3E0,9E0,9E0,9E0,2E0,5E0,1.8E1,1.8E1,-1.9465666E-2,-8.0708265E-3,9.880243E-2,3.8639445E-2,-3.0817945E-2,-2.7441528E-1,-1.9957863E-2,6.004877E-2,4.021755E-2,-9.787118E-3,1.5069486E-1,5.1189747E-2,7.432755E-2,-2.8251607E-2,-6.9629796E-2,3.6523256E-2],"split_indices":[1,0,1,1,0,0,0,1,1,1,1,0,0,1,1,0,0,0,0,0,0,0,0,0,0,0,0,0,0,0,0],"split_type":[0,0,0,0,0,0,0,0,0,0,0,0,0,0,0,0,0,0,0,0,0,0,0,0,0,0,0,0,0,0,0],"sum_hessian":[4.7E3,2.079E3,2.621E3,2.84E2,1.795E3,5.39E2,2.082E3,1.08E2,1.76E2,2.82E2,1.513E3,2.73E2,2.66E2,1.329E3,7.53E2,8.5E1,2.3E1,1.14E2,6.2E1,1.87E2,9.5E1,1.159E3,3.54E2,1.64E2,1.09E2,6.4E1,2.02E2,5.47E2,7.82E2,4.74E2,2.79E2],"tree_param":{"num_deleted":"0","num_feature":"2","num_nodes":"31","size_leaf_vector":"1"}},{"base_weights":[-1.0027576E-3,1.958802E-2,-3.5422215E-1,-3.0637562E-1,4.343429E-2,-1.869361E-1,-4.6889788E-1,5.9633434E-2,-3.9326605E-1,6.764347E-2,-2.806824E-1,-1.5814705E-2,-2.9097801E-2,-6.513133E-2,-4.3161433E-2,-1.5112743E-2,1.8008357E-2,-1.7541735E-2,-5.0790187E-2,-1.7755887E-3,1.3883159E-2,-6.590895E-2,-7.2777583E-3],"categories":[],"categories_nodes":[],"categories_segments":[],"categories_sizes":[],"default_left":[0,0,0,0,0,0,0,0,0,0,0,0,0,0,0,0,0,0,0,0,0,0,0],"id":38,"left_children":[1,3,5,7,9,11,13,15,17,19,21,-1,-1,-1,-1,-1,-1,-1,-1,-1,-1,-1,-1],"loss_changes":[3.4197605E1,3.4548817E1,4.880913E0,9.659668E0,3.2511753E1,2.7447653E-1,7.594528E-1,1.5249999E0,6.029354E0,2.3432547E1,2.2609764E1,0E0,0E0,0E0,0E0,0E0,0E0,0E0,0E0,0E0,0E0,0E0,0E0],"parents":[2147483647,0,0,1,1,2,2,3,3,4,4,5,5,6,6,7,7,8,8,9,9,10,10],"right_children":[2,4,6,8,10,12,14,16,18,20,22,-1,-1,-1,-1,-1,-1,-1,-1,-1,-1,-1,-1],"split_conditions":[7E0,3E0,4E0,1E0,2.2E1,3E0,5E0,3E0,2E0,4E0,3E0,-1.5814705E-2,-2.9097801E-2,-6.513133E-2,-4.3161433E-2,-1.5112743E-2,1.8008357E-2,-1.7541735E-2,-5.0790187E-2,-1.7755887E-3,1.3883159E-2,-6.590895E-2,-7.2777583E-3],"split_indices":[0,1,1,1,1,1,1,0,0,0,0,0,0,0,0,0,0,0,0,0,0,0,0],"split_type":[0,0,0,0,0,0,0,0,0,0,0,0,0,0,0,0,0,0,0,0,0,0,0],"sum_hessian":[4.7E3,4.442E3,2.58E2,3.02E2,4.14E3,1.06E2,1.52E2,5.8E1,2.44E2,3.853E3,2.87E2,8.5E1,2.1E1,2.3E1,1.29E2,2.1E1,3.7E1,8.5E1,1.59E2,1.752E3,2.101E3,1.01E2,1.86E2],"tree_param":{"num_deleted":"0","num_feature":"2","num_nodes":"23","size_leaf_vector":"1"}},{"base_weights":[-9.621264E-4,-9.192053E-2,7.119442E-2,3.8355675E-1,-1.6732092E-1,4.235886E-1,-2.0194955E-2,7.4702084E-2,9.3694603E-1,-1.0167274E0,-8.437586E-3,2.9371238E-1,9.172789E-1,1.2970331E-1,-2.8457758E-1,-1.404163E-2,3.822442E-2,1.8377793E-1,3.5011623E-2,-2.687948E-2,-2.4708381E-1,-1.735027E-2,5.309538E-2,4.0818762E-2,-1.3005224E-2,5.388393E-2,1.136645E-1,6.672842E-2,-2.4670027E-2,-6.4066924E-2,3.2052282E-2],"categories":[],"categories_nodes":[],"categories_segments":[],"categories_sizes":[],"default_left":[0,0,0,0,0,0,0,0,0,0,0,0,0,0,0,0,0,0,0,0,0,0,0,0,0,0,0,0,0,0,0],"id":39,"left_children":[1,3,5,7,9,11,13,15,17,19,21,23,25,27,29,-1,-1,-1,-1,-1,-1,-1,-1,-1,-1,-1,-1,-1,-1,-1,-1],"loss_changes":[3.0860355E1,7.463461E1,8.445028E1,4.8641315E1,2.4237341E2,3.4354652E1,8.258724E1,1.2226739E1,5.3277412E1,3.071201E2,1.3489066E2,2.0864113E1,8.68541E0,2.6928662E2,1.6267062E2,0E0,0E0,0E0,0E0,0E0,0E0,0E0,0E0,0E0,0E0,0E0,0E0,0E0,0E0,0E0,0E0],"parents":[2147483647,0,0,1,1,2,2,3,3,4,4,5,5,6,6,7,7,8,8,9,9,10,10,11,11,12,12,13,13,14,14],"right_children":[2,4,6,8,10,12,14,16,18,20,22,24,26,28,30,-1,-1,-1,-1,-1,-1,-1,-1,-1,-1,-1,-1,-1,-1,-1,-1],"split_conditions":[1E1,2E0,1.2E1,8E0,3E0,6E0,5E0,4E0,9E0,9E0,9E0,5E0,1.1E1,1.8E1,1.8E1,-1.404163E-2,3.822442E-2,1.8377793E-1,3.5011623E-2,-2.687948E-2,-2.4708381E-1,-1.735027E-2,5.309538E-2,4.0818762E-2,-1.3005224E-2,5.388393E-2,1.136645E-1,6.672842E-2,-2.4670027E-2,-6.4066924E-2,3.2052282E-2],"split_indices":[1,0,1,1,0,0,0,1,1,1,1,0,1,1,1,0,0,0,0,0,0,0,0,0,0,0,0,0,0,0,0],"split_type":[0,0,0,0,0,0,0,0,0,0,0,0,0,0,0,0,0,0,0,0,0,0,0,0,0,0,0,0,0,0,0],"sum_hessian":[4.7E3,2.079E3,2.621E3,2.84E2,1.795E3,5.39E2,2.082E3,1.83E2,1.01E2,2.82E2,1.513E3,4.28E2,1.11E2,1.329E3,7.53E2,1.08E2,7.5E1,3.9E1,6.2E1,1.87E2,9.5E1,1.159E3,3.54E2,3.37E2,9.1E1,4.2E1,6.9E1,5.47E2,7.82E2,4.74E2,2.79E2],"tree_param":{"num_deleted":"0","num_feature":"2","num_nodes":"31","size_leaf_vector":"1"}},{"base_weights":[-8.2109997E-4,-8.272588E-2,6.415326E-2,3.4605342E-1,-1.5072109E-1,3.8159105E-1,-1.817058E-2,6.736307E-2,8.453963E-1,-9.160226E-1,-7.569799E-3,1.438146E-1,6.2417215E-1,-4.1379243E-1,7.6103054E-2,1.6774764E-2,-5.4911803E-2,1.658595E-1,3.1566065E-2,-2.4205787E-2,-2.2263281E-1,-1.5616699E-2,4.7800854E-2,3.5694007E-2,-9.851201E-3,1.30471E-1,4.0319122E-2,1.01786265E-2,-8.879211E-2,5.3376205E-2,-7.94232E-3],"categories":[],"categories_nodes":[],"categories_segments":[],"categories_sizes":[],"default_left":[0,0,0,0,0,0,0,0,0,0,0,0,0,0,0,0,0,0,0,0,0,0,0,0,0,0,0,0,0,0,0],"id":40,"left_children":[1,3,5,7,9,11,13,15,17,19,21,23,25,27,29,-1,-1,-1,-1,-1,-1,-1,-1,-1,-1,-1,-1,-1,-1,-1,-1],"loss_changes":[2.502267E1,6.0694416E1,6.852687E1,3.9604237E1,1.9675186E2,3.105748E1,7.7720535E1,1.1478988E1,4.341604E1,2.4937834E2,1.0931819E2,1.418616E1,3.9627E1,9.81151E1,1.19834946E2,0E0,0E0,0E0,0E0,0E0,0E0,0E0,0E0,0E0,0E0,0E0,0E0,0E0,0E0,0E0,0E0],"parents":[2147483647,0,0,1,1,2,2,3,3,4,4,5,5,6,6,7,7,8,8,9,9,10,10,11,11,12,12,13,13,14,14],"right_children":[2,4,6,8,10,12,14,16,18,20,22,24,26,28,30,-1,-1,-1,-1,-1,-1,-1,-1,-1,-1,-1,-1,-1,-1,-1,-1],"split_conditions":[1E1,2E0,1.2E1,8E0,3E0,4E0,1.5E1,7E0,9E0,9E0,9E0,1.1E1,5E0,5E0,1.7E1,1.6774764E-2,-5.4911803E-2,1.658595E-1,3.1566065E-2,-2.4205787E-2,-2.2263281E-1,-1.5616699E-2,4.7800854E-2,3.5694007E-2,-9.851201E-3,1.30471E-1,4.0319122E-2,1.01786265E-2,-8.879211E-2,5.3376205E-2,-7.94232E-3],"split_indices":[1,0,1,1,0,0,1,1,1,1,1,1,0,0,1,0,0,0,0,0,0,0,0,0,0,0,0,0,0,0,0],"split_type":[0,0,0,0,0,0,0,0,0,0,0,0,0,0,0,0,0,0,0,0,0,0,0,0,0,0,0,0,0,0,0],"sum_hessian":[4.7E3,2.079E3,2.621E3,2.84E2,1.795E3,5.39E2,2.082E3,1.83E2,1.01E2,2.82E2,1.513E3,2.73E2,2.66E2,4E2,1.682E3,1.58E2,2.5E1,3.9E1,6.2E1,1.87E2,9.5E1,1.159E3,3.54E2,1.45E2,1.28E2,6.4E1,2.02E2,1.92E2,2.08E2,4.26E2,1.256E3],"tree_param":{"num_deleted":"0","num_feature":"2","num_nodes":"31","size_leaf_vector":"1"}},{"base_weights":[-7.1596884E-4,1.5946696E-2,-2.865519E-1,-6.3537374E-2,8.555982E-2,-1.360031E-1,-3.8996473E-1,7.2031E-2,-4.349535E-1,3.1248406E-1,-1.3513516E-2,-1.0993238E-2,-2.3173405E-2,-5.573025E-2,-3.560719E-2,-5.9312303E-3,6.3940264E-2,-1.8546417E-1,-1.7425535E-2,-2.3364002E-2,7.076111E-2,-5.9074003E-2,1.2527386E-2],"categories":[],"categories_nodes":[],"categories_segments":[],"categories_sizes":[],"default_left":[0,0,0,0,0,0,0,0,0,0,0,0,0,0,0,0,0,0,0,0,0,0,0],"id":41,"left_children":[1,3,5,7,9,11,13,15,17,19,21,-1,-1,-1,-1,-1,-1,-1,-1,-1,-1,-1,-1],"loss_changes":[2.2394438E1,2.4589151E1,3.9792519E0,1.04512314E2,5.3264412E1,2.415731E-1,6.693077E-1,1.1338355E2,2.0508792E2,1.5553296E2,1.3225839E2,0E0,0E0,0E0,0E0,0E0,0E0,0E0,0E0,0E0,0E0,0E0,0E0],"parents":[2147483647,0,0,1,1,2,2,3,3,4,4,5,5,6,6,7,7,8,8,9,9,10,10],"right_children":[2,4,6,8,10,12,14,16,18,20,22,-1,-1,-1,-1,-1,-1,-1,-1,-1,-1,-1,-1],"split_conditions":[7E0,4E0,4E0,1.8E1,5E0,3E0,5E0,1.4E1,1.9E1,1E1,8E0,-1.0993238E-2,-2.3173405E-2,-5.573025E-2,-3.560719E-2,-5.9312303E-3,6.3940264E-2,-1.8546417E-1,-1.7425535E-2,-2.3364002E-2,7.076111E-2,-5.9074003E-2,1.2527386E-2],"split_indices":[0,0,1,1,0,1,1,1,1,1,1,0,0,0,0,0,0,0,0,0,0,0,0],"split_type":[0,0,0,0,0,0,0,0,0,0,0,0,0,0,0,0,0,0,0,0,0,0,0],"sum_hessian":[4.7E3,4.442E3,2.58E2,2.074E3,2.368E3,1.06E2,1.52E2,1.52E3,5.54E2,7.19E2,1.649E3,8.5E1,2.1E1,2.3E1,1.29E2,1.235E3,2.85E2,8.5E1,4.69E2,3.02E2,4.17E2,3.19E2,1.33E3],"tree_param":{"num_deleted":"0","num_feature":"2","num_nodes":"23","size_leaf_vector":"1"}},{"base_weights":[-7.016019E-4,1.5250252E-2,-2.4518348E-1,-5.8425587E-2,8.0873586E-2,-5.4427934E-1,-8.0729134E-2,3.1791764E-1,-1.1811344E-1,2.0387061E-1,-1.2161287E-1,-2.1384679E-1,-1.0511037E-1,2.4575949E-2,-1.9209145E-1,-1.3724761E-2,5.9642103E-2,-8.1938155E-2,1.3047046E-3,1.395698E-3,7.978506E-2,-2.9428696E-2,4.4371072E-2,-2.7211083E-2,-9.2611316E-4,-9.368179E-3,-3.848237E-2],"categories":[],"categories_nodes":[],"categories_segments":[],"categories_sizes":[],"default_left":[0,0,0,0,0,0,0,0,0,0,0,0,0,0,0,0,0,0,0,0,0,0,0,0,0,0,0],"id":42,"left_children":[1,3,5,7,9,11,13,15,17,19,21,23,-1,-1,25,-1,-1,-1,-1,-1,-1,-1,-1,-1,-1,-1,-1],"loss_changes":[1.8337355E1,2.1345772E1,1.4122093E1,4.6760845E1,5.8178513E1,1.6857296E1,6.846253E0,3.62099E1,1.6520436E2,1.6389435E2,8.632616E1,7.484391E-1,0E0,0E0,2.6192894E0,0E0,0E0,0E0,0E0,0E0,0E0,0E0,0E0,0E0,0E0,0E0,0E0],"parents":[2147483647,0,0,1,1,2,2,3,3,4,4,5,5,6,6,7,7,8,8,9,9,10,10,11,11,14,14],"right_children":[2,4,6,8,10,12,14,16,18,20,22,24,-1,-1,26,-1,-1,-1,-1,-1,-1,-1,-1,-1,-1,-1,-1],"split_conditions":[2.2E1,1E1,3E0,2E0,5E0,2E0,4E0,4E0,3E0,4E0,1.8E1,2.3E1,-1.0511037E-1,2.4575949E-2,2.3E1,-1.3724761E-2,5.9642103E-2,-8.1938155E-2,1.3047046E-3,1.395698E-3,7.978506E-2,-2.9428696E-2,4.4371072E-2,-2.7211083E-2,-9.2611316E-4,-9.368179E-3,-3.848237E-2],"split_indices":[1,1,0,0,0,0,0,1,0,0,1,1,0,0,1,0,0,0,0,0,0,0,0,0,0,0,0],"split_type":[0,0,0,0,0,0,0,0,0,0,0,0,0,0,0,0,0,0,0,0,0,0,0,0,0,0,0],"sum_hessian":[4.7E3,4.413E3,2.87E2,2.079E3,2.334E3,1.01E2,1.86E2,2.84E2,1.795E3,1.452E3,8.82E2,6.2E1,3.9E1,4.7E1,1.39E2,1.08E2,1.76E2,2.82E2,1.513E3,1.101E3,3.51E2,6.76E2,2.06E2,4.8E1,1.4E1,9.3E1,4.6E1],"tree_param":{"num_deleted":"0","num_feature":"2","num_nodes":"27","size_leaf_vector":"1"}},{"base_weights":[-6.517189E-4,1.4448256E-2,-2.596808E-1,3.705926E-2,-1.6433902E-1,-1.24014765E-1,-3.5286114E-1,-2.1332261E-1,5.7874147E-2,-2.0672323E-1,-2.7257327E-2,-1.003567E-2,-2.108593E-2,-5.051444E-2,-3.2203298E-2,1.600801E-2,-3.0237338E-2,-4.75084E-4,1.0886847E-2,-2.3919558E-2,1.111145E-2,1.829677E-2,-7.862534E-2],"categories":[],"categories_nodes":[],"categories_segments":[],"categories_sizes":[],"default_left":[0,0,0,0,0,0,0,0,0,0,0,0,0,0,0,0,0,0,0,0,0,0,0],"id":43,"left_children":[1,3,5,7,9,11,13,15,17,19,21,-1,-1,-1,-1,-1,-1,-1,-1,-1,-1,-1,-1],"loss_changes":[1.8390928E1,1.796718E1,3.2303658E0,2.0572388E1,2.8936062E0,1.9867826E-1,5.556011E-1,1.0123699E1,1.1634505E1,3.9588547E0,1.9131493E1,0E0,0E0,0E0,0E0,0E0,0E0,0E0,0E0,0E0,0E0,0E0,0E0],"parents":[2147483647,0,0,1,1,2,2,3,3,4,4,5,5,6,6,7,7,8,8,9,9,10,10],"right_children":[2,4,6,8,10,12,14,16,18,20,22,-1,-1,-1,-1,-1,-1,-1,-1,-1,-1,-1,-1],"split_conditions":[7E0,2.1E1,4E0,3E0,5E0,3E0,5E0,1E0,4E0,2.3E1,2.3E1,-1.003567E-2,-2.108593E-2,-5.051444E-2,-3.2203298E-2,1.600801E-2,-3.0237338E-2,-4.75084E-4,1.0886847E-2,-2.3919558E-2,1.111145E-2,1.829677E-2,-7.862534E-2],"split_indices":[0,1,1,1,0,1,1,1,0,1,1,0,0,0,0,0,0,0,0,0,0,0,0],"split_type":[0,0,0,0,0,0,0,0,0,0,0,0,0,0,0,0,0,0,0,0,0,0,0],"sum_hessian":[4.7E3,4.442E3,2.58E2,3.944E3,4.98E2,1.06E2,1.52E2,3.02E2,3.642E3,3.8E2,1.18E2,8.5E1,2.1E1,2.3E1,1.29E2,5.8E1,2.44E2,1.635E3,2.007E3,3.45E2,3.5E1,9.3E1,2.5E1],"tree_param":{"num_deleted":"0","num_feature":"2","num_nodes":"23","size_leaf_vector":"1"}},{"base_weights":[-6.273154E-4,1.298591E-2,-2.3415215E-1,5.0303377E-2,-8.163919E-2,-1.1190427E-1,-3.1811538E-1,1.3974888E-2,7.608453E-1,-5.0467795E-1,2.1795243E-2,-9.043783E-3,-1.90732E-2,-4.56735E-2,-2.9007703E-2,5.6357207E-3,-1.3473036E-2,1.1706778E-1,-1.769991E-1,-8.920109E-2,-1.5488681E-2,3.4379408E-2,-6.6123675E-3],"categories":[],"categories_nodes":[],"categories_segments":[],"categories_sizes":[],"default_left":[0,0,0,0,0,0,0,0,0,0,0,0,0,0,0,0,0,0,0,0,0,0,0],"id":44,"left_children":[1,3,5,7,9,11,13,15,17,19,21,-1,-1,-1,-1,-1,-1,-1,-1,-1,-1,-1,-1],"loss_changes":[1.4947642E1,1.5693091E1,2.6228638E0,8.225513E1,5.501326E1,1.6381073E-1,4.6217155E-1,1.9122993E1,1.6284103E2,3.3326794E1,2.864393E1,0E0,0E0,0E0,0E0,0E0,0E0,0E0,0E0,0E0,0E0,0E0,0E0],"parents":[2147483647,0,0,1,1,2,2,3,3,4,4,5,5,6,6,7,7,8,8,9,9,10,10],"right_children":[2,4,6,8,10,12,14,16,18,20,22,-1,-1,-1,-1,-1,-1,-1,-1,-1,-1,-1,-1],"split_conditions":[7E0,1.7E1,4E0,1.6E1,2E0,3E0,5E0,1.2E1,6E0,2E1,3E0,-9.043783E-3,-1.90732E-2,-4.56735E-2,-2.9007703E-2,5.6357207E-3,-1.3473036E-2,1.1706778E-1,-1.769991E-1,-8.920109E-2,-1.5488681E-2,3.4379408E-2,-6.6123675E-3],"split_indices":[0,1,1,1,0,1,1,1,0,1,0,0,0,0,0,0,0,0,0,0,0,0,0],"split_type":[0,0,0,0,0,0,0,0,0,0,0,0,0,0,0,0,0,0,0,0,0,0,0],"sum_hessian":[4.7E3,4.442E3,2.58E2,3.186E3,1.256E3,1.06E2,1.52E2,3.032E3,1.54E2,2.46E2,1.01E3,8.5E1,2.1E1,2.3E1,1.29E2,2.36E3,6.72E2,1.33E2,2.1E1,1.16E2,1.3E2,2.16E2,7.94E2],"tree_param":{"num_deleted":"0","num_feature":"2","num_nodes":"23","size_leaf_vector":"1"}},{"base_weights":[-6.1725435E-4,-1.7241812E-1,1.4834612E-2,-3.023643E-1,1.357167E-3,2.6967216E-2,-2.739927E-1,-1.9966811E-1,-6.704783E-2,3.317785E-2,-1.0879405E-1,7.0747405E-2,-7.353622E-2,-1.7252598E-2,-2.8679186E-1,-1.17037855E-2,-2.764074E-2,1.3816181E-2,-1.5393726E-2,3.5894618E-3,6.8437465E-2,-4.546341E-2,1.9643512E-3,-4.1296467E-2,-2.6129235E-2],"categories":[],"categories_nodes":[],"categories_segments":[],"categories_sizes":[],"default_left":[0,0,0,0,0,0,0,0,0,0,0,0,0,0,0,0,0,0,0,0,0,0,0,0,0],"id":45,"left_children":[1,3,5,7,9,11,13,15,-1,-1,17,19,21,-1,23,-1,-1,-1,-1,-1,-1,-1,-1,-1,-1],"loss_changes":[1.2482039E1,8.762008E0,1.5124624E1,8.258591E0,6.1142797E0,1.8225847E1,1.7649364E-1,1.0773225E0,0E0,0E0,1.425964E0,6.1675827E1,4.4645752E1,0E0,3.8435078E-1,0E0,0E0,0E0,0E0,0E0,0E0,0E0,0E0,0E0,0E0],"parents":[2147483647,0,0,1,1,2,2,3,3,4,4,5,5,6,6,7,7,10,10,11,11,12,12,14,14],"right_children":[2,4,6,8,10,12,14,16,-1,-1,18,20,22,-1,24,-1,-1,-1,-1,-1,-1,-1,-1,-1,-1],"split_conditions":[3E0,5E0,7E0,4E0,6E0,1.7E1,4E0,2E0,-6.704783E-2,3.317785E-2,1E0,1.6E1,2E0,-1.7252598E-2,5E0,-1.17037855E-2,-2.764074E-2,1.3816181E-2,-1.5393726E-2,3.5894618E-3,6.8437465E-2,-4.546341E-2,1.9643512E-3,-4.1296467E-2,-2.6129235E-2],"split_indices":[1,0,0,0,0,1,1,0,0,0,1,1,0,0,1,0,0,0,0,0,0,0,0,0,0],"split_type":[0,0,0,0,0,0,0,0,0,0,0,0,0,0,0,0,0,0,0,0,0,0,0,0,0],"sum_hessian":[4.7E3,3.87E2,4.313E3,2.21E2,1.66E2,4.14E3,1.73E2,1.74E2,4.7E1,4.1E1,1.25E2,2.884E3,1.256E3,2.1E1,1.52E2,8.5E1,8.9E1,1.9E1,1.06E2,2.73E3,1.54E2,2.46E2,1.01E3,2.3E1,1.29E2],"tree_param":{"num_deleted":"0","num_feature":"2","num_nodes":"25","size_leaf_vector":"1"}},{"base_weights":[-5.835408E-4,1.1952571E-2,-1.9271483E-1,-4.9972747E-2,6.711005E-2,-4.4912776E-1,-5.1822666E-2,2.910043E-1,-1.0405319E-1,1.8311699E-1,-1.2385847E-1,-1.17169015E-1,-9.607346E-2,2.4966747E-2,-1.5482055E-1,6.217437E-3,7.009425E-2,-7.408327E-2,1.5043668E-3,4.159648E-2,-1.7936705E-2,-2.8132364E-2,3.9173473E-2,-1.6231552E-2,3.8120844E-3,-7.770733E-3,-3.0575294E-2],"categories":[],"categories_nodes":[],"categories_segments":[],"categories_sizes":[],"default_left":[0,0,0,0,0,0,0,0,0,0,0,0,0,0,0,0,0,0,0,0,0,0,0,0,0,0,0],"id":46,"left_children":[1,3,5,7,9,11,13,15,17,19,21,23,-1,-1,25,-1,-1,-1,-1,-1,-1,-1,-1,-1,-1,-1,-1],"loss_changes":[1.1325034E1,1.5080008E1,1.0381178E1,3.8385876E1,5.1751503E1,1.7210333E1,5.845536E0,2.669117E1,1.3621698E2,1.2271305E2,7.1799194E1,4.478678E-1,0E0,0E0,1.605684E0,0E0,0E0,0E0,0E0,0E0,0E0,0E0,0E0,0E0,0E0,0E0,0E0],"parents":[2147483647,0,0,1,1,2,2,3,3,4,4,5,5,6,6,7,7,8,8,9,9,10,10,11,11,14,14],"right_children":[2,4,6,8,10,12,14,16,18,20,22,24,-1,-1,26,-1,-1,-1,-1,-1,-1,-1,-1,-1,-1,-1,-1],"split_conditions":[2.2E1,1E1,3E0,2E0,5E0,2E0,4E0,8E0,3E0,1.8E1,1.8E1,2.3E1,-9.607346E-2,2.4966747E-2,2.3E1,6.217437E-3,7.009425E-2,-7.408327E-2,1.5043668E-3,4.159648E-2,-1.7936705E-2,-2.8132364E-2,3.9173473E-2,-1.6231552E-2,3.8120844E-3,-7.770733E-3,-3.0575294E-2],"split_indices":[1,1,0,0,0,0,0,1,0,1,1,1,0,0,1,0,0,0,0,0,0,0,0,0,0,0,0],"split_type":[0,0,0,0,0,0,0,0,0,0,0,0,0,0,0,0,0,0,0,0,0,0,0,0,0,0,0],"sum_hessian":[4.7E3,4.413E3,2.87E2,2.079E3,2.334E3,1.01E2,1.86E2,2.84E2,1.795E3,1.452E3,8.82E2,6.2E1,3.9E1,4.7E1,1.39E2,1.83E2,1.01E2,2.82E2,1.513E3,8.84E2,5.68E2,6.76E2,2.06E2,4.8E1,1.4E1,9.3E1,4.6E1],"tree_param":{"num_deleted":"0","num_feature":"2","num_nodes":"27","size_leaf_vector":"1"}},{"base_weights":[-5.4332614E-4,1.0471839E-2,-1.8950023E-1,-1.3084218E-2,1.2232671E-1,-8.685247E-2,-2.60048E-1,-7.132369E-2,7.106541E-2,3.4007198E-1,-2.239988E-1,-6.7771534E-3,-1.5749378E-2,-3.7483063E-2,-2.36857E-2,-4.89083E-3,-1.1532831E-1,6.5989055E-2,-9.5938025E-3,-1.0144559E-2,1.2435692E-1,-4.7627237E-2,3.9621122E-2],"categories":[],"categories_nodes":[],"categories_segments":[],"categories_sizes":[],"default_left":[0,0,0,0,0,0,0,0,0,0,0,0,0,0,0,0,0,0,0,0,0,0,0],"id":47,"left_children":[1,3,5,7,9,11,13,15,17,19,21,-1,-1,-1,-1,-1,-1,-1,-1,-1,-1,-1,-1],"loss_changes":[9.786607E0,1.1708282E1,1.8529806E0,1.7996016E1,5.836868E1,1.3355196E-1,3.1849384E-1,5.257162E1,1.477637E2,1.8960832E2,4.6971016E1,0E0,0E0,0E0,0E0,0E0,0E0,0E0,0E0,0E0,0E0,0E0,0E0],"parents":[2147483647,0,0,1,1,2,2,3,3,4,4,5,5,6,6,7,7,8,8,9,9,10,10],"right_children":[2,4,6,8,10,12,14,16,18,20,22,-1,-1,-1,-1,-1,-1,-1,-1,-1,-1,-1,-1],"split_conditions":[7E0,6E0,4E0,1.5E1,1.2E1,3E0,5E0,1.4E1,1.7E1,9E0,1.7E1,-6.7771534E-3,-1.5749378E-2,-3.7483063E-2,-2.36857E-2,-4.89083E-3,-1.1532831E-1,6.5989055E-2,-9.5938025E-3,-1.0144559E-2,1.2435692E-1,-4.7627237E-2,3.9621122E-2],"split_indices":[0,0,1,1,1,1,1,1,1,1,1,0,0,0,0,0,0,0,0,0,0,0,0],"split_type":[0,0,0,0,0,0,0,0,0,0,0,0,0,0,0,0,0,0,0,0,0,0,0],"sum_hessian":[4.7E3,4.442E3,2.58E2,3.67E3,7.72E2,1.06E2,1.52E2,2.169E3,1.501E3,4.74E2,2.98E2,8.5E1,2.1E1,2.3E1,1.29E2,2.126E3,4.3E1,3.31E2,1.17E3,3.19E2,1.55E2,2.12E2,8.6E1],"tree_param":{"num_deleted":"0","num_feature":"2","num_nodes":"23","size_leaf_vector":"1"}},{"base_weights":[-4.9788743E-4,-1.4388682E-1,1.239859E-2,1.6599518E-1,-1.9885395E-1,2.2335535E-2,-2.2416054E-1,7.7045537E-3,2.1312404E-1,-2.919966E-1,-5.3311415E-2,7.959562E-2,-3.4275528E-2,-1.4246024E-2,-2.3444319E-1,2.8599069E-2,1.3324452E-2,-1.9362839E-2,-6.015114E-2,3.0330941E-2,-1.3280289E-2,7.445905E-4,3.4893744E-2,-3.5619564E-2,4.2447136E-3,-3.3890925E-2,-2.1335375E-2],"categories":[],"categories_nodes":[],"categories_segments":[],"categories_sizes":[],"default_left":[0,0,0,0,0,0,0,0,0,0,0,0,0,0,0,0,0,0,0,0,0,0,0,0,0,0,0],"id":48,"left_children":[1,3,5,7,9,11,13,-1,15,17,19,21,23,-1,25,-1,-1,-1,-1,-1,-1,-1,-1,-1,-1,-1,-1],"loss_changes":[8.694931E0,6.641938E0,1.0145819E1,2.309134E-1,4.457986E0,1.3426003E1,1.1277866E-1,0E0,1.8307436E-1,6.0032597E0,3.7255611E0,4.0009815E1,5.1462234E1,0E0,2.6477146E-1,0E0,0E0,0E0,0E0,0E0,0E0,0E0,0E0,0E0,0E0,0E0,0E0],"parents":[2147483647,0,0,1,1,2,2,3,3,4,4,5,5,6,6,8,8,9,9,10,10,11,11,12,12,14,14],"right_children":[2,4,6,8,10,12,14,-1,16,18,20,22,24,-1,26,-1,-1,-1,-1,-1,-1,-1,-1,-1,-1,-1,-1],"split_conditions":[3E0,1E0,7E0,3E0,5E0,1.2E1,4E0,7.7045537E-3,6E0,4E0,6E0,6E0,1.5E1,-1.4246024E-2,5E0,2.8599069E-2,1.3324452E-2,-1.9362839E-2,-6.015114E-2,3.0330941E-2,-1.3280289E-2,7.445905E-4,3.4893744E-2,-3.5619564E-2,4.2447136E-3,-3.3890925E-2,-2.1335375E-2],"split_indices":[1,1,0,0,0,1,1,0,0,0,0,0,1,0,1,0,0,0,0,0,0,0,0,0,0,0,0],"split_type":[0,0,0,0,0,0,0,0,0,0,0,0,0,0,0,0,0,0,0,0,0,0,0,0,0,0,0],"sum_hessian":[4.7E3,3.87E2,4.313E3,5.8E1,3.29E2,4.14E3,1.73E2,2.1E1,3.7E1,2E2,1.29E2,2.058E3,2.082E3,2.1E1,1.52E2,1.8E1,1.9E1,1.53E2,4.7E1,2.3E1,1.06E2,1.624E3,4.34E2,4E2,1.682E3,2.3E1,1.29E2],"tree_param":{"num_deleted":"0","num_feature":"2","num_nodes":"27","size_leaf_vector":"1"}},{"base_weights":[-4.642679E-4,1.0502006E-2,-1.6853604E-1,-4.162785E-2,5.6934383E-2,-3.9998218E-1,-4.1391406E-2,2.7230006E-1,-9.142063E-2,1.6178963E-1,-1.156722E-1,-1.0038522E-1,-8.618479E-2,2.3045855E-2,-1.3430145E-1,-8.355561E-3,4.899044E-2,-6.6190384E-2,1.5275651E-3,-6.887991E-5,6.699983E-2,-2.5708321E-2,3.4737572E-2,-1.4117546E-2,3.9555295E-3,-6.472727E-3,-2.7059233E-2],"categories":[],"categories_nodes":[],"categories_segments":[],"categories_sizes":[],"default_left":[0,0,0,0,0,0,0,0,0,0,0,0,0,0,0,0,0,0,0,0,0,0,0,0,0,0,0],"id":49,"left_children":[1,3,5,7,9,11,13,15,17,19,21,23,-1,-1,25,-1,-1,-1,-1,-1,-1,-1,-1,-1,-1,-1,-1],"loss_changes":[8.666283E0,1.0686515E1,8.45846E0,3.2538086E1,4.227919E1,1.4027584E1,4.754121E0,2.211012E1,1.0932982E2,1.1997894E2,5.7908203E1,3.652013E-1,0E0,0E0,1.3100109E0,0E0,0E0,0E0,0E0,0E0,0E0,0E0,0E0,0E0,0E0,0E0,0E0],"parents":[2147483647,0,0,1,1,2,2,3,3,4,4,5,5,6,6,7,7,8,8,9,9,10,10,11,11,14,14],"right_children":[2,4,6,8,10,12,14,16,18,20,22,24,-1,-1,26,-1,-1,-1,-1,-1,-1,-1,-1,-1,-1,-1,-1],"split_conditions":[2.2E1,1E1,3E0,2E0,5E0,2E0,4E0,4E0,3E0,4E0,1.8E1,2.3E1,-8.618479E-2,2.3045855E-2,2.3E1,-8.355561E-3,4.899044E-2,-6.6190384E-2,1.5275651E-3,-6.887991E-5,6.699983E-2,-2.5708321E-2,3.4737572E-2,-1.4117546E-2,3.9555295E-3,-6.472727E-3,-2.7059233E-2],"split_indices":[1,1,0,0,0,0,0,1,0,0,1,1,0,0,1,0,0,0,0,0,0,0,0,0,0,0,0],"split_type":[0,0,0,0,0,0,0,0,0,0,0,0,0,0,0,0,0,0,0,0,0,0,0,0,0,0,0],"sum_hessian":[4.7E3,4.413E3,2.87E2,2.079E3,2.334E3,1.01E2,1.86E2,2.84E2,1.795E3,1.452E3,8.82E2,6.2E1,3.9E1,4.7E1,1.39E2,1.08E2,1.76E2,2.82E2,1.513E3,1.101E3,3.51E2,6.76E2,2.06E2,4.8E1,1.4E1,9.3E1,4.6E1],"tree_param":{"num_deleted":"0","num_feature":"2","num_nodes":"27","size_leaf_vector":"1"}}]},"name":"gbtree"},"learner_model_param":{"base_score":"[1.4790638E1]","boost_from_average":"1","num_class":"0","num_feature":"2","num_target":"1"},"objective":{"name":"reg:squarederror","reg_loss_param":{"scale_pos_weight":"1"}}},"version":[3,2,1]}