{"learner":{"attributes":{},"feature_names":["day_of_week","hour_of_day"],"feature_types":[],"gradient_booster":{"model":{"cats":{"enc":[],"feature_segments":[],"sorted_idx":[]},"gbtree_model_param":{"num_parallel_tree":"1","num_trees":"50"},"iteration_indptr":[0,1,2,3,4,5,6,7,8,9,10,11,12,13,14,15,16,17,18,19,20,21,22,23,24,25,26,27,28,29,30,31,32,33,34,35,36,37,38,39,40,41,42,43,44,45,46,47,48,49,50],"tree_info":[0,0,0,0,0,0,0,0,0,0,0,0,0,0,0,0,0,0,0,0,0,0,0,0,0,0,0,0,0,0,0,0,0,0,0,0,0,0,0,0,0,0,0,0,0,0,0,0,0,0],"trees":[{"base_weights":[-4.7447966E-7,-1.0965773E1,1.5572305E0,-1.1412354E1,-7.7258263E0,3.4872699E0,-4.2232876E0,-1.250015E0,-1.0028199E0,-3.8730034E-1,-1.0293815E0,-9.32988E-1,4.1781726E0,-2.1802533E0,-7.9523935E0,3.122163E-1,-7.0983064E-1,5.114481E-1,3.0299687E-1,-4.4381234E-1,8.043983E-2,-1.0641888E0,-4.48953E-1],"categories":[],"categories_nodes":[],"categories_segments":[],"categories_sizes":[],"default_left":[0,0,0,0,0,0,0,0,0,0,0,0,0,0,0,0,0,0,0,0,0,0,0],"id":0,"left_children":[1,3,5,7,9,11,13,-1,-1,-1,-1,15,17,19,21,-1,-1,-1,-1,-1,-1,-1,-1],"loss_changes":[6.564107E4,6.034492E2,3.7567938E4,5.0401562E2,5.6366626E2,7.712115E3,6.4052188E3,0E0,0E0,0E0,0E0,8.572605E3,2.3313867E3,3.6830393E3,2.7276016E3,0E0,0E0,0E0,0E0,0E0,0E0,0E0,0E0],"parents":[2147483647,0,0,1,1,2,2,3,3,4,4,5,5,6,6,11,11,12,12,13,13,14,14],"right_children":[2,4,6,8,10,12,14,-1,-1,-1,-1,16,18,20,22,-1,-1,-1,-1,-1,-1,-1,-1],"split_conditions":[4E0,3E0,1.9E1,5E0,2E0,7E0,2.2E1,-1.250015E0,-1.0028199E0,-3.8730034E-1,-1.0293815E0,5E0,5E0,4E0,4E0,3.122163E-1,-7.0983064E-1,5.114481E-1,3.0299687E-1,-4.4381234E-1,8.043983E-2,-1.0641888E0,-4.48953E-1],"split_indices":[1,1,1,0,0,1,1,0,0,0,0,0,0,0,0,0,0,0,0,0,0,0,0],"split_type":[0,0,0,0,0,0,0,0,0,0,0,0,0,0,0,0,0,0,0,0,0,0,0],"sum_hessian":[3.842E3,4.77E2,3.365E3,4.17E2,6E1,2.523E3,8.42E2,2.29E2,1.88E2,2.5E1,3.5E1,3.41E2,2.182E3,5.45E2,2.97E2,2.06E2,1.35E2,1.2E3,9.82E2,3.1E2,2.35E2,1.66E2,1.31E2],"tree_param":{"num_deleted":"0","num_feature":"2","num_nodes":"23","size_leaf_vector":"1"}},{"base_weights":[-1.3350359E-3,-9.876872E0,1.4010738E0,-1.0276508E1,-6.9764676E0,3.138708E0,-3.8031847E0,-1.125557E0,-9.030685E-1,-3.500599E-1,-9.293027E-1,4.1415244E-1,4.109136E0,-1.9628934E0,-7.162232E0,3.397153E-1,-3.8441226E-1,4.3744108E-1,2.2089727E-1,-3.9957377E-1,7.242995E-2,-9.584071E-1,-4.0439788E-1],"categories":[],"categories_nodes":[],"categories_segments":[],"categories_sizes":[],"default_left":[0,0,0,0,0,0,0,0,0,0,0,0,0,0,0,0,0,0,0,0,0,0,0],"id":1,"left_children":[1,3,5,7,9,11,13,-1,-1,-1,-1,15,17,19,21,-1,-1,-1,-1,-1,-1,-1,-1],"loss_changes":[5.323762E4,4.8236328E2,3.0451004E4,4.0820312E2,4.586443E2,6.671715E3,5.1970537E3,0E0,0E0,0E0,0E0,8.447477E3,9.284043E2,2.9854985E3,2.21171E3,0E0,0E0,0E0,0E0,0E0,0E0,0E0,0E0],"parents":[2147483647,0,0,1,1,2,2,3,3,4,4,5,5,6,6,11,11,12,12,13,13,14,14],"right_children":[2,4,6,8,10,12,14,-1,-1,-1,-1,16,18,20,22,-1,-1,-1,-1,-1,-1,-1,-1],"split_conditions":[4E0,3E0,1.9E1,5E0,2E0,9E0,2.2E1,-1.125557E0,-9.030685E-1,-3.500599E-1,-9.293027E-1,5E0,1.8E1,4E0,4E0,3.397153E-1,-3.8441226E-1,4.3744108E-1,2.2089727E-1,-3.9957377E-1,7.242995E-2,-9.584071E-1,-4.0439788E-1],"split_indices":[1,1,1,0,0,1,1,0,0,0,0,0,1,0,0,0,0,0,0,0,0,0,0],"split_type":[0,0,0,0,0,0,0,0,0,0,0,0,0,0,0,0,0,0,0,0,0,0,0],"sum_hessian":[3.842E3,4.77E2,3.365E3,4.17E2,6E1,2.523E3,8.42E2,2.29E2,1.88E2,2.5E1,3.5E1,6.63E2,1.86E3,5.45E2,2.97E2,3.9E2,2.73E2,1.631E3,2.29E2,3.1E2,2.35E2,1.66E2,1.31E2],"tree_param":{"num_deleted":"0","num_feature":"2","num_nodes":"23","size_leaf_vector":"1"}},{"base_weights":[-2.3422274E-3,-8.896106E0,1.2606468E0,-9.253711E0,-6.299794E0,2.6299064E0,-4.1319084E0,-1.0134906E0,-8.132395E-1,-3.1640035E-1,-8.389538E-1,-8.9373434E-1,3.1428993E0,-6.181505E0,-1.43824E0,2.4733809E-1,-6.01211E-1,3.4063953E-1,-4.271894E-2,-2.3774698E-1,-7.683551E-1,3.3399995E-2,-3.6426443E-1],"categories":[],"categories_nodes":[],"categories_segments":[],"categories_sizes":[],"default_left":[0,0,0,0,0,0,0,0,0,0,0,0,0,0,0,0,0,0,0,0,0,0,0],"id":2,"left_children":[1,3,5,7,9,11,13,-1,-1,-1,-1,15,17,19,21,-1,-1,-1,-1,-1,-1,-1,-1],"loss_changes":[4.3178582E4,3.855078E2,2.4864766E4,3.3060156E2,3.7318848E2,4.8562227E3,3.7563857E3,0E0,0E0,0E0,0E0,5.908953E3,2.2064668E3,2.1929863E3,1.1576097E3,0E0,0E0,0E0,0E0,0E0,0E0,0E0,0E0],"parents":[2147483647,0,0,1,1,2,2,3,3,4,4,5,5,6,6,11,11,12,12,13,13,14,14],"right_children":[2,4,6,8,10,12,14,-1,-1,-1,-1,16,18,20,22,-1,-1,-1,-1,-1,-1,-1,-1],"split_conditions":[4E0,3E0,2E1,5E0,2E0,7E0,4E0,-1.0134906E0,-8.132395E-1,-3.1640035E-1,-8.389538E-1,5E0,1.9E1,2.1E1,2.2E1,2.4733809E-1,-6.01211E-1,3.4063953E-1,-4.271894E-2,-2.3774698E-1,-7.683551E-1,3.3399995E-2,-3.6426443E-1],"split_indices":[1,1,1,0,0,1,0,0,0,0,0,0,1,1,1,0,0,0,0,0,0,0,0],"split_type":[0,0,0,0,0,0,0,0,0,0,0,0,0,0,0,0,0,0,0,0,0,0,0],"sum_hessian":[3.842E3,4.77E2,3.365E3,4.17E2,6E1,2.684E3,6.81E2,2.29E2,1.88E2,2.5E1,3.5E1,3.41E2,2.343E3,3.86E2,2.95E2,2.06E2,1.35E2,2.182E3,1.61E2,1.1E2,2.76E2,1.64E2,1.31E2],"tree_param":{"num_deleted":"0","num_feature":"2","num_nodes":"23","size_leaf_vector":"1"}},{"base_weights":[-3.2462673E-3,-8.012733E0,1.1341685E0,-8.332709E0,-5.6887546E0,2.3668952E0,-3.7206779E0,-9.125822E-1,-7.323458E-1,-2.859772E-1,-7.573888E-1,-8.0539584E-1,2.8287368E0,-5.565954E0,-1.2955334E0,2.2272375E-1,-5.4153204E-1,3.2310206E-1,8.111123E-2,-2.1418646E-1,-6.917969E-1,3.0080294E-2,-3.2811394E-1],"categories":[],"categories_nodes":[],"categories_segments":[],"categories_sizes":[],"default_left":[0,0,0,0,0,0,0,0,0,0,0,0,0,0,0,0,0,0,0,0,0,0,0],"id":3,"left_children":[1,3,5,7,9,11,13,-1,-1,-1,-1,15,17,19,21,-1,-1,-1,-1,-1,-1,-1,-1],"loss_changes":[3.5019242E4,3.0804688E2,2.01533E4,2.677539E2,3.0365405E2,3.9360596E3,3.0447822E3,0E0,0E0,0E0,0E0,4.793293E3,1.8999043E3,1.7767676E3,9.392167E2,0E0,0E0,0E0,0E0,0E0,0E0,0E0,0E0],"parents":[2147483647,0,0,1,1,2,2,3,3,4,4,5,5,6,6,11,11,12,12,13,13,14,14],"right_children":[2,4,6,8,10,12,14,-1,-1,-1,-1,16,18,20,22,-1,-1,-1,-1,-1,-1,-1,-1],"split_conditions":[4E0,3E0,2E1,5E0,2E0,7E0,4E0,-9.125822E-1,-7.323458E-1,-2.859772E-1,-7.573888E-1,5E0,1.8E1,2.1E1,2.2E1,2.2272375E-1,-5.4153204E-1,3.2310206E-1,8.111123E-2,-2.1418646E-1,-6.917969E-1,3.0080294E-2,-3.2811394E-1],"split_indices":[1,1,1,0,0,1,0,0,0,0,0,0,1,1,1,0,0,0,0,0,0,0,0],"split_type":[0,0,0,0,0,0,0,0,0,0,0,0,0,0,0,0,0,0,0,0,0,0,0],"sum_hessian":[3.842E3,4.77E2,3.365E3,4.17E2,6E1,2.684E3,6.81E2,2.29E2,1.88E2,2.5E1,3.5E1,3.41E2,2.343E3,3.86E2,2.95E2,2.06E2,1.35E2,1.953E3,3.9E2,1.1E2,2.76E2,1.64E2,1.31E2],"tree_param":{"num_deleted":"0","num_feature":"2","num_nodes":"23","size_leaf_vector":"1"}},{"base_weights":[-3.9121103E-3,-7.2170844E0,1.0204195E0,-7.503374E0,-5.1369834E0,2.295988E0,-2.7999308E0,-8.217207E-1,-6.5949875E-1,-2.584794E-1,-6.837537E-1,1.3729753E-1,3.0649695E0,-1.4123722E0,-5.3328404E0,2.4983037E-1,-3.2323766E-1,3.661912E-1,2.342892E-1,-2.9322588E-1,5.9651382E-2,-7.179994E-1,-2.9555115E-1],"categories":[],"categories_nodes":[],"categories_segments":[],"categories_sizes":[],"default_left":[0,0,0,0,0,0,0,0,0,0,0,0,0,0,0,0,0,0,0,0,0,0,0],"id":4,"left_children":[1,3,5,7,9,11,13,-1,-1,-1,-1,15,17,19,21,-1,-1,-1,-1,-1,-1,-1,-1],"loss_changes":[2.8402064E4,2.4610938E2,1.6409346E4,2.1685156E2,2.470747E2,4.1894023E3,2.9552427E3,0E0,0E0,0E0,0E0,5.290741E3,7.93584E2,1.6688394E3,1.2873838E3,0E0,0E0,0E0,0E0,0E0,0E0,0E0,0E0],"parents":[2147483647,0,0,1,1,2,2,3,3,4,4,5,5,6,6,11,11,12,12,13,13,14,14],"right_children":[2,4,6,8,10,12,14,-1,-1,-1,-1,16,18,20,22,-1,-1,-1,-1,-1,-1,-1,-1],"split_conditions":[4E0,3E0,1.9E1,5E0,2E0,9E0,2.2E1,-8.217207E-1,-6.5949875E-1,-2.584794E-1,-6.837537E-1,5E0,5E0,4E0,4E0,2.4983037E-1,-3.2323766E-1,3.661912E-1,2.342892E-1,-2.9322588E-1,5.9651382E-2,-7.179994E-1,-2.9555115E-1],"split_indices":[1,1,1,0,0,1,1,0,0,0,0,0,0,0,0,0,0,0,0,0,0,0,0],"split_type":[0,0,0,0,0,0,0,0,0,0,0,0,0,0,0,0,0,0,0,0,0,0,0],"sum_hessian":[3.842E3,4.77E2,3.365E3,4.17E2,6E1,2.523E3,8.42E2,2.29E2,1.88E2,2.5E1,3.5E1,6.63E2,1.86E3,5.45E2,2.97E2,3.9E2,2.73E2,1.016E3,8.44E2,3.1E2,2.35E2,1.66E2,1.31E2],"tree_param":{"num_deleted":"0","num_feature":"2","num_nodes":"23","size_leaf_vector":"1"}},{"base_weights":[-4.338767E-3,-6.5004454E0,9.181637E-1,-6.75658E0,-4.6387315E0,1.7497246E0,-3.9084246E0,-7.399059E-1,-5.9389776E-1,-2.3362564E-1,-6.172776E-1,-7.486777E-1,2.0866287E0,-5.681944E0,-1.6473591E0,1.7569661E-1,-4.55691E-1,2.506707E-1,-5.469465E-2,-4.450698E-1,-6.466294E-1,-1.0637898E-2,-2.6621994E-1],"categories":[],"categories_nodes":[],"categories_segments":[],"categories_sizes":[],"default_left":[0,0,0,0,0,0,0,0,0,0,0,0,0,0,0,0,0,0,0,0,0,0,0],"id":5,"left_children":[1,3,5,7,9,11,13,-1,-1,-1,-1,15,17,19,21,-1,-1,-1,-1,-1,-1,-1,-1],"loss_changes":[2.3035816E4,1.9659375E2,1.3516624E4,1.756289E2,2.0103687E2,2.4189873E3,1.9756113E3,0E0,0E0,0E0,0E0,3.2713955E3,2.8014355E3,2.3872754E2,3.4219965E2,0E0,0E0,0E0,0E0,0E0,0E0,0E0,0E0],"parents":[2147483647,0,0,1,1,2,2,3,3,4,4,5,5,6,6,11,11,12,12,13,13,14,14],"right_children":[2,4,6,8,10,12,14,-1,-1,-1,-1,16,18,20,22,-1,-1,-1,-1,-1,-1,-1,-1],"split_conditions":[4E0,3E0,2.1E1,5E0,2E0,7E0,4E0,-7.399059E-1,-5.9389776E-1,-2.3362564E-1,-6.172776E-1,5E0,1.9E1,2.2E1,2.2E1,1.7569661E-1,-4.55691E-1,2.506707E-1,-5.469465E-2,-4.450698E-1,-6.466294E-1,-1.0637898E-2,-2.6621994E-1],"split_indices":[1,1,1,0,0,1,0,0,0,0,0,0,1,1,1,0,0,0,0,0,0,0,0],"split_type":[0,0,0,0,0,0,0,0,0,0,0,0,0,0,0,0,0,0,0,0,0,0,0],"sum_hessian":[3.842E3,4.77E2,3.365E3,4.17E2,6E1,2.871E3,4.94E2,2.29E2,1.88E2,2.5E1,3.5E1,3.41E2,2.53E3,2.76E2,2.18E2,2.06E2,1.35E2,2.182E3,3.48E2,1.1E2,1.66E2,8.7E1,1.31E2],"tree_param":{"num_deleted":"0","num_feature":"2","num_nodes":"23","size_leaf_vector":"1"}},{"base_weights":[-4.8516416E-3,-5.8549714E0,8.2591546E-1,-6.0841126E0,-4.1888075E0,1.5747225E0,-3.5203469E0,-6.66237E-1,-5.348222E-1,-2.1116164E-1,-5.572645E-1,4.0036786E-2,2.0353186E0,-5.117691E0,-1.4838871E0,2.038583E-1,-2.8120497E-1,2.7177936E-1,1.0480947E-2,-4.0096384E-1,-5.8235365E-1,-9.586153E-3,-2.397996E-1],"categories":[],"categories_nodes":[],"categories_segments":[],"categories_sizes":[],"default_left":[0,0,0,0,0,0,0,0,0,0,0,0,0,0,0,0,0,0,0,0,0,0,0],"id":6,"left_children":[1,3,5,7,9,11,13,-1,-1,-1,-1,15,17,19,21,-1,-1,-1,-1,-1,-1,-1,-1],"loss_changes":[1.868215E4,1.5700977E2,1.096023E4,1.4224121E2,1.635769E2,2.0300498E3,1.602605E3,0E0,0E0,0E0,0E0,3.7905503E3,2.910126E3,1.9329541E2,2.776387E2,0E0,0E0,0E0,0E0,0E0,0E0,0E0,0E0],"parents":[2147483647,0,0,1,1,2,2,3,3,4,4,5,5,6,6,11,11,12,12,13,13,14,14],"right_children":[2,4,6,8,10,12,14,-1,-1,-1,-1,16,18,20,22,-1,-1,-1,-1,-1,-1,-1,-1],"split_conditions":[4E0,3E0,2.1E1,5E0,2E0,9E0,4E0,-6.66237E-1,-5.348222E-1,-2.1116164E-1,-5.572645E-1,5E0,1.8E1,2.2E1,2.2E1,2.038583E-1,-2.8120497E-1,2.7177936E-1,1.0480947E-2,-4.0096384E-1,-5.8235365E-1,-9.586153E-3,-2.397996E-1],"split_indices":[1,1,1,0,0,1,0,0,0,0,0,0,1,1,1,0,0,0,0,0,0,0,0],"split_type":[0,0,0,0,0,0,0,0,0,0,0,0,0,0,0,0,0,0,0,0,0,0,0],"sum_hessian":[3.842E3,4.77E2,3.365E3,4.17E2,6E1,2.871E3,4.94E2,2.29E2,1.88E2,2.5E1,3.5E1,6.63E2,2.208E3,2.76E2,2.18E2,3.9E2,2.73E2,1.631E3,5.77E2,1.1E2,1.66E2,8.7E1,1.31E2],"tree_param":{"num_deleted":"0","num_feature":"2","num_nodes":"23","size_leaf_vector":"1"}},{"base_weights":[-5.146627E-3,-5.2735944E0,7.430183E-1,-5.4785748E0,-3.7825239E0,1.5642207E0,-2.4911041E0,-5.9990296E0,-4.8162293E-1,-1.9085763E-1,-5.0308603E-1,-1.1998798E0,1.841009E0,-3.7568264E0,-8.2784194E-1,-5.457786E-1,-6.3203096E-1,6.1094638E-2,-4.4375005E-1,2.4285384E-1,1.06555216E-1,-1.5952079E-1,-4.609472E-1,2.4291223E-2,-2.160013E-1],"categories":[],"categories_nodes":[],"categories_segments":[],"categories_sizes":[],"default_left":[0,0,0,0,0,0,0,0,0,0,0,0,0,0,0,0,0,0,0,0,0,0,0,0,0],"id":7,"left_children":[1,3,5,7,9,11,13,15,-1,-1,-1,17,19,21,23,-1,-1,-1,-1,-1,-1,-1,-1,-1,-1],"loss_changes":[1.5151748E4,1.2537207E2,8.943552E3,1.1520117E2,1.3309662E2,2.0564243E3,1.4326553E3,5.5E0,0E0,0E0,0E0,1.4390894E3,1.109541E3,7.059248E2,4.2274725E2,0E0,0E0,0E0,0E0,0E0,0E0,0E0,0E0,0E0,0E0],"parents":[2147483647,0,0,1,1,2,2,3,3,4,4,5,5,6,6,7,7,11,11,12,12,13,13,14,14],"right_children":[2,4,6,8,10,12,14,16,-1,-1,-1,18,20,22,24,-1,-1,-1,-1,-1,-1,-1,-1,-1,-1],"split_conditions":[4E0,3E0,2E1,5E0,2E0,6E0,4E0,2E0,-4.8162293E-1,-1.9085763E-1,-5.0308603E-1,5E0,5E0,2.1E1,2.2E1,-5.457786E-1,-6.3203096E-1,6.1094638E-2,-4.4375005E-1,2.4285384E-1,1.06555216E-1,-1.5952079E-1,-4.609472E-1,2.4291223E-2,-2.160013E-1],"split_indices":[1,1,1,0,0,1,0,0,0,0,0,0,0,1,1,0,0,0,0,0,0,0,0,0,0],"split_type":[0,0,0,0,0,0,0,0,0,0,0,0,0,0,0,0,0,0,0,0,0,0,0,0,0],"sum_hessian":[3.842E3,4.77E2,3.365E3,4.17E2,6E1,2.684E3,6.81E2,2.29E2,1.88E2,2.5E1,3.5E1,2.44E2,2.44E3,3.86E2,2.95E2,9.2E1,1.37E2,1.57E2,8.7E1,1.387E3,1.053E3,1.1E2,2.76E2,1.64E2,1.31E2],"tree_param":{"num_deleted":"0","num_feature":"2","num_nodes":"25","size_leaf_vector":"1"}},{"base_weights":[-5.464268E-3,-4.751158E0,6.684654E-1,-4.934687E0,-3.4156475E0,1.5301043E0,-1.9121338E0,-5.4042473E0,-4.337155E-1,-1.7250592E-1,-4.5417485E-1,-3.5452902E-2,2.087869E0,-3.0861092E0,-3.8107556E-1,-4.9178758E-1,-5.692858E-1,1.6659969E-1,-2.4633048E-1,2.565444E-1,1.5106127E-1,-1.6043371E-1,-4.150189E-1,4.9563896E-2,-1.945648E-1],"categories":[],"categories_nodes":[],"categories_segments":[],"categories_sizes":[],"default_left":[0,0,0,0,0,0,0,0,0,0,0,0,0,0,0,0,0,0,0,0,0,0,0,0,0],"id":8,"left_children":[1,3,5,7,9,11,13,15,-1,-1,-1,17,19,21,23,-1,-1,-1,-1,-1,-1,-1,-1,-1,-1],"loss_changes":[1.2294105E4,1.0030469E2,7.4873774E3,9.38418E1,1.0829547E2,2.204062E3,1.5140527E3,4.288574E0,0E0,0E0,0E0,2.7470002E3,5.091709E2,7.4543945E2,5.0437213E2,0E0,0E0,0E0,0E0,0E0,0E0,0E0,0E0,0E0,0E0],"parents":[2147483647,0,0,1,1,2,2,3,3,4,4,5,5,6,6,7,7,11,11,12,12,13,13,14,14],"right_children":[2,4,6,8,10,12,14,16,-1,-1,-1,18,20,22,24,-1,-1,-1,-1,-1,-1,-1,-1,-1,-1],"split_conditions":[4E0,3E0,1.9E1,5E0,2E0,9E0,4E0,2E0,-4.337155E-1,-1.7250592E-1,-4.5417485E-1,5E0,5E0,2.1E1,2.2E1,-4.9178758E-1,-5.692858E-1,1.6659969E-1,-2.4633048E-1,2.565444E-1,1.5106127E-1,-1.6043371E-1,-4.150189E-1,4.9563896E-2,-1.945648E-1],"split_indices":[1,1,1,0,0,1,0,0,0,0,0,0,0,1,1,0,0,0,0,0,0,0,0,0,0],"split_type":[0,0,0,0,0,0,0,0,0,0,0,0,0,0,0,0,0,0,0,0,0,0,0,0,0],"sum_hessian":[3.842E3,4.77E2,3.365E3,4.17E2,6E1,2.523E3,8.42E2,2.29E2,1.88E2,2.5E1,3.5E1,6.63E2,1.86E3,4.76E2,3.66E2,9.2E1,1.37E2,3.9E2,2.73E2,1.016E3,8.44E2,2E2,2.76E2,2.35E2,1.31E2],"tree_param":{"num_deleted":"0","num_feature":"2","num_nodes":"25","size_leaf_vector":"1"}},{"base_weights":[-5.5720606E-3,-4.2804804E0,6.015022E-1,-4.444794E0,-3.0843558E0,1.3772237E0,-1.7217752E0,-4.868436E0,-3.905734E-1,-1.5591876E-1,-4.1001898E-1,-3.2027535E-2,1.879301E0,-3.1886754E0,-7.091042E-1,-4.4313765E-1,-5.127698E-1,1.4998238E-1,-2.2178736E-1,2.057756E-1,6.048748E-2,-2.3685311E-1,-4.699874E-1,6.42662E-2,-1.7145705E-1],"categories":[],"categories_nodes":[],"categories_segments":[],"categories_sizes":[],"default_left":[0,0,0,0,0,0,0,0,0,0,0,0,0,0,0,0,0,0,0,0,0,0,0,0,0],"id":9,"left_children":[1,3,5,7,9,11,13,15,-1,-1,-1,17,19,21,23,-1,-1,-1,-1,-1,-1,-1,-1,-1,-1],"loss_changes":[9.975877E3,8.0237305E1,6.068632E3,7.644336E1,8.811536E1,1.7859233E3,1.2500046E3,3.3393555E0,0E0,0E0,0E0,2.226658E3,4.2199902E2,4.1522217E2,6.8067957E2,0E0,0E0,0E0,0E0,0E0,0E0,0E0,0E0,0E0,0E0],"parents":[2147483647,0,0,1,1,2,2,3,3,4,4,5,5,6,6,7,7,11,11,12,12,13,13,14,14],"right_children":[2,4,6,8,10,12,14,16,-1,-1,-1,18,20,22,24,-1,-1,-1,-1,-1,-1,-1,-1,-1,-1],"split_conditions":[4E0,3E0,1.9E1,5E0,2E0,9E0,3E0,2E0,-3.905734E-1,-1.5591876E-1,-4.1001898E-1,5E0,1.8E1,2.2E1,2.1E1,-4.4313765E-1,-5.127698E-1,1.4998238E-1,-2.2178736E-1,2.057756E-1,6.048748E-2,-2.3685311E-1,-4.699874E-1,6.42662E-2,-1.7145705E-1],"split_indices":[1,1,1,0,0,1,0,0,0,0,0,0,1,1,1,0,0,0,0,0,0,0,0,0,0],"split_type":[0,0,0,0,0,0,0,0,0,0,0,0,0,0,0,0,0,0,0,0,0,0,0,0,0],"sum_hessian":[3.842E3,4.77E2,3.365E3,4.17E2,6E1,2.523E3,8.42E2,2.29E2,1.88E2,2.5E1,3.5E1,6.63E2,1.86E3,3.43E2,4.99E2,9.2E1,1.37E2,3.9E2,2.73E2,1.631E3,2.29E2,2.24E2,1.19E2,2.13E2,2.86E2],"tree_param":{"num_deleted":"0","num_feature":"2","num_nodes":"25","size_leaf_vector":"1"}},{"base_weights":[-5.674005E-3,-3.8564334E0,5.4116756E-1,-4.003536E0,-2.785198E0,1.239578E0,-1.5505633E0,-4.3857484E0,-3.5172272E-1,-1.4092655E-1,-3.7015602E-1,-1.1180944E0,1.4923807E0,-2.5345426E0,-2.674334E-1,-3.9930034E-1,-4.6186438E-1,2.3566065E-2,-3.535995E-1,2.1193765E-1,7.3075406E-2,-1.7444189E-1,-3.9907935E-1,4.6918888E-2,-1.5823989E-1],"categories":[],"categories_nodes":[],"categories_segments":[],"categories_sizes":[],"default_left":[0,0,0,0,0,0,0,0,0,0,0,0,0,0,0,0,0,0,0,0,0,0,0,0,0],"id":10,"left_children":[1,3,5,7,9,11,13,15,-1,-1,-1,17,19,21,23,-1,-1,-1,-1,-1,-1,-1,-1,-1,-1],"loss_changes":[8.0945044E3,6.417334E1,4.9192666E3,6.226953E1,7.1695526E1,1.5060383E3,1.0636714E3,2.5957031E0,0E0,0E0,0E0,8.0277826E2,1.0872354E3,5.418833E2,3.5623062E2,0E0,0E0,0E0,0E0,0E0,0E0,0E0,0E0,0E0,0E0],"parents":[2147483647,0,0,1,1,2,2,3,3,4,4,5,5,6,6,7,7,11,11,12,12,13,13,14,14],"right_children":[2,4,6,8,10,12,14,16,-1,-1,-1,18,20,22,24,-1,-1,-1,-1,-1,-1,-1,-1,-1,-1],"split_conditions":[4E0,3E0,1.9E1,5E0,2E0,6E0,4E0,2E0,-3.5172272E-1,-1.4092655E-1,-3.7015602E-1,5E0,5E0,2.2E1,2.2E1,-3.9930034E-1,-4.6186438E-1,2.3566065E-2,-3.535995E-1,2.1193765E-1,7.3075406E-2,-1.7444189E-1,-3.9907935E-1,4.6918888E-2,-1.5823989E-1],"split_indices":[1,1,1,0,0,1,0,0,0,0,0,0,0,1,1,0,0,0,0,0,0,0,0,0,0],"split_type":[0,0,0,0,0,0,0,0,0,0,0,0,0,0,0,0,0,0,0,0,0,0,0,0,0],"sum_hessian":[3.842E3,4.77E2,3.365E3,4.17E2,6E1,2.523E3,8.42E2,2.29E2,1.88E2,2.5E1,3.5E1,2.44E2,2.279E3,4.76E2,3.66E2,9.2E1,1.37E2,1.57E2,8.7E1,1.249E3,1.03E3,3.1E2,1.66E2,2.35E2,1.31E2],"tree_param":{"num_deleted":"0","num_feature":"2","num_nodes":"25","size_leaf_vector":"1"}},{"base_weights":[-5.744986E-3,-3.4743967E0,4.868341E-1,-3.606084E0,-2.5150566E0,1.1156025E0,-1.3963192E0,-3.950918E0,-3.1673655E-1,-1.2737595E-1,-3.3416864E-1,-8.301411E-2,1.5426663E0,-2.620219E0,-5.514834E-1,-3.597997E-1,-4.1601261E-1,1.21446766E-1,-1.9342272E-1,1.780018E-1,7.139327E-2,-1.959064E-1,-3.8380498E-1,5.992323E-2,-1.4075868E-1],"categories":[],"categories_nodes":[],"categories_segments":[],"categories_sizes":[],"default_left":[0,0,0,0,0,0,0,0,0,0,0,0,0,0,0,0,0,0,0,0,0,0,0,0,0],"id":11,"left_children":[1,3,5,7,9,11,13,15,-1,-1,-1,17,19,21,23,-1,-1,-1,-1,-1,-1,-1,-1,-1,-1],"loss_changes":[6.567785E3,5.1317383E1,3.987128E3,5.0723145E1,5.8335205E1,1.2921274E3,8.702123E2,2.0136719E0,0E0,0E0,0E0,1.5972206E3,3.6479053E2,2.6946118E2,4.9340936E2,0E0,0E0,0E0,0E0,0E0,0E0,0E0,0E0,0E0,0E0],"parents":[2147483647,0,0,1,1,2,2,3,3,4,4,5,5,6,6,7,7,11,11,12,12,13,13,14,14],"right_children":[2,4,6,8,10,12,14,16,-1,-1,-1,18,20,22,24,-1,-1,-1,-1,-1,-1,-1,-1,-1,-1],"split_conditions":[4E0,3E0,1.9E1,5E0,2E0,9E0,3E0,2E0,-3.1673655E-1,-1.2737595E-1,-3.3416864E-1,5E0,1.7E1,2.2E1,2.1E1,-3.597997E-1,-4.1601261E-1,1.21446766E-1,-1.9342272E-1,1.780018E-1,7.139327E-2,-1.959064E-1,-3.8380498E-1,5.992323E-2,-1.4075868E-1],"split_indices":[1,1,1,0,0,1,0,0,0,0,0,0,1,1,1,0,0,0,0,0,0,0,0,0,0],"split_type":[0,0,0,0,0,0,0,0,0,0,0,0,0,0,0,0,0,0,0,0,0,0,0,0,0],"sum_hessian":[3.842E3,4.77E2,3.365E3,4.17E2,6E1,2.523E3,8.42E2,2.29E2,1.88E2,2.5E1,3.5E1,6.63E2,1.86E3,3.43E2,4.99E2,9.2E1,1.37E2,3.9E2,2.73E2,1.445E3,4.15E2,2.24E2,1.19E2,2.13E2,2.86E2],"tree_param":{"num_deleted":"0","num_feature":"2","num_nodes":"25","size_leaf_vector":"1"}},{"base_weights":[-5.7005174E-3,-3.1302083E0,4.3800727E-1,-3.2480893E0,-2.2711177E0,1.0041126E0,-1.2574708E0,-3.559199E0,-2.8523046E-1,-1.1512828E-1,-3.0168006E-1,-1.0167719E0,1.2208287E0,-2.0826416E0,-1.8154716E-1,-3.242066E-1,-3.747128E-1,9.156655E-3,-2.995189E-1,1.7602488E-1,5.656435E-2,-1.0206286E-1,-2.8457537E-1,4.367796E-2,-1.285665E-1],"categories":[],"categories_nodes":[],"categories_segments":[],"categories_sizes":[],"default_left":[0,0,0,0,0,0,0,0,0,0,0,0,0,0,0,0,0,0,0,0,0,0,0,0,0],"id":12,"left_children":[1,3,5,7,9,11,13,15,-1,-1,-1,17,19,21,23,-1,-1,-1,-1,-1,-1,-1,-1,-1,-1],"loss_changes":[5.3291846E3,4.103076E1,3.2320142E3,4.1316895E1,4.7464325E1,1.1066477E3,7.4805493E2,1.5593262E0,0E0,0E0,0E0,5.3749945E2,8.04802E2,3.836731E2,2.5111452E2,0E0,0E0,0E0,0E0,0E0,0E0,0E0,0E0,0E0,0E0],"parents":[2147483647,0,0,1,1,2,2,3,3,4,4,5,5,6,6,7,7,11,11,12,12,13,13,14,14],"right_children":[2,4,6,8,10,12,14,16,-1,-1,-1,18,20,22,24,-1,-1,-1,-1,-1,-1,-1,-1,-1,-1],"split_conditions":[4E0,3E0,1.9E1,5E0,2E0,6E0,4E0,2E0,-2.8523046E-1,-1.1512828E-1,-3.0168006E-1,5E0,5E0,2.1E1,2.2E1,-3.242066E-1,-3.747128E-1,9.156655E-3,-2.995189E-1,1.7602488E-1,5.656435E-2,-1.0206286E-1,-2.8457537E-1,4.367796E-2,-1.285665E-1],"split_indices":[1,1,1,0,0,1,0,0,0,0,0,0,0,1,1,0,0,0,0,0,0,0,0,0,0],"split_type":[0,0,0,0,0,0,0,0,0,0,0,0,0,0,0,0,0,0,0,0,0,0,0,0,0],"sum_hessian":[3.842E3,4.77E2,3.365E3,4.17E2,6E1,2.523E3,8.42E2,2.29E2,1.88E2,2.5E1,3.5E1,2.44E2,2.279E3,4.76E2,3.66E2,9.2E1,1.37E2,1.57E2,8.7E1,1.249E3,1.03E3,2E2,2.76E2,2.35E2,1.31E2],"tree_param":{"num_deleted":"0","num_feature":"2","num_nodes":"25","size_leaf_vector":"1"}},{"base_weights":[-5.6328992E-3,-2.8201182E0,3.9404908E-1,-2.9256346E0,-2.0508387E0,7.6034546E-1,-1.7320058E0,-3.206318E0,-2.5685832E-1,-1.0405824E-1,-2.7235004E-1,-9.162803E-1,9.163625E-1,-2.5622056E0,-6.740272E-1,-2.9213452E-1,-3.3751306E-1,3.375424E-1,-1.3548136E-1,1.1995311E-1,-9.00303E-3,-1.8832748E-1,-2.9981282E-1,5.9699896E-3,-1.15807235E-1],"categories":[],"categories_nodes":[],"categories_segments":[],"categories_sizes":[],"default_left":[0,0,0,0,0,0,0,0,0,0,0,0,0,0,0,0,0,0,0,0,0,0,0,0,0],"id":13,"left_children":[1,3,5,7,9,11,13,15,-1,-1,-1,17,19,21,23,-1,-1,-1,-1,-1,-1,-1,-1,-1,-1],"loss_changes":[4.324098E3,3.2799805E1,2.6226438E3,3.365576E1,3.86192E1,7.52104E2,4.330481E2,1.2045898E0,0E0,0E0,0E0,4.6567667E2,7.490325E2,7.633496E1,7.784853E1,0E0,0E0,0E0,0E0,0E0,0E0,0E0,0E0,0E0,0E0],"parents":[2147483647,0,0,1,1,2,2,3,3,4,4,5,5,6,6,7,7,11,11,12,12,13,13,14,14],"right_children":[2,4,6,8,10,12,14,16,-1,-1,-1,18,20,22,24,-1,-1,-1,-1,-1,-1,-1,-1,-1,-1],"split_conditions":[4E0,3E0,2.1E1,5E0,2E0,6E0,4E0,2E0,-2.5685832E-1,-1.0405824E-1,-2.7235004E-1,2E0,1.8E1,2.2E1,2.2E1,-2.9213452E-1,-3.3751306E-1,3.375424E-1,-1.3548136E-1,1.1995311E-1,-9.00303E-3,-1.8832748E-1,-2.9981282E-1,5.9699896E-3,-1.15807235E-1],"split_indices":[1,1,1,0,0,1,0,0,0,0,0,0,1,1,1,0,0,0,0,0,0,0,0,0,0],"split_type":[0,0,0,0,0,0,0,0,0,0,0,0,0,0,0,0,0,0,0,0,0,0,0,0,0],"sum_hessian":[3.842E3,4.77E2,3.365E3,4.17E2,6E1,2.871E3,4.94E2,2.29E2,1.88E2,2.5E1,3.5E1,2.44E2,2.627E3,2.76E2,2.18E2,9.2E1,1.37E2,2.2E1,2.22E2,2.05E3,5.77E2,1.1E2,1.66E2,8.7E1,1.31E2],"tree_param":{"num_deleted":"0","num_feature":"2","num_nodes":"25","size_leaf_vector":"1"}},{"base_weights":[-5.472465E-3,-2.5407484E0,3.5455942E-1,-2.6351922E0,-1.8519255E0,8.160429E-1,-1.0275744E0,-2.8884237E0,-2.3130836E0,-9.4052635E-2,-2.4587159E-1,2.4627389E-1,1.515339E0,-1.9917878E0,-3.621405E-1,-2.632352E-1,-3.040063E-1,-1.977731E-1,-2.4012065E-1,3.7582833E-2,-2.2817545E-1,2.1186481E-1,4.70408E-2,-1.5103291E-1,-2.877925E-1,5.493429E-2,-1.0405213E-1],"categories":[],"categories_nodes":[],"categories_segments":[],"categories_sizes":[],"default_left":[0,0,0,0,0,0,0,0,0,0,0,0,0,0,0,0,0,0,0,0,0,0,0,0,0,0,0],"id":14,"left_children":[1,3,5,7,9,11,13,15,17,-1,-1,19,21,23,25,-1,-1,-1,-1,-1,-1,-1,-1,-1,-1,-1,-1],"loss_changes":[3.5087153E3,2.6216064E1,2.147781E3,2.7414307E1,3.1422226E1,1.0052825E3,5.401645E2,9.2858887E-1,8.3636475E-1,0E0,0E0,4.5676166E2,7.1326514E2,1.4241711E2,3.0973798E2,0E0,0E0,0E0,0E0,0E0,0E0,0E0,0E0,0E0,0E0,0E0,0E0],"parents":[2147483647,0,0,1,1,2,2,3,3,4,4,5,5,6,6,7,7,8,8,11,11,12,12,13,13,14,14],"right_children":[2,4,6,8,10,12,14,16,18,-1,-1,20,22,24,26,-1,-1,-1,-1,-1,-1,-1,-1,-1,-1,-1,-1],"split_conditions":[4E0,3E0,1.9E1,5E0,2E0,1.3E1,3E0,2E0,6E0,-9.4052635E-2,-2.4587159E-1,7E0,1.7E1,2.2E1,2.1E1,-2.632352E-1,-3.040063E-1,-1.977731E-1,-2.4012065E-1,3.7582833E-2,-2.2817545E-1,2.1186481E-1,4.70408E-2,-1.5103291E-1,-2.877925E-1,5.493429E-2,-1.0405213E-1],"split_indices":[1,1,1,0,0,1,0,0,0,0,0,0,1,1,1,0,0,0,0,0,0,0,0,0,0,0,0],"split_type":[0,0,0,0,0,0,0,0,0,0,0,0,0,0,0,0,0,0,0,0,0,0,0,0,0,0,0],"sum_hessian":[3.842E3,4.77E2,3.365E3,4.17E2,6E1,2.523E3,8.42E2,2.29E2,1.88E2,2.5E1,3.5E1,1.391E3,1.132E3,3.43E2,4.99E2,9.2E1,1.37E2,4.4E1,1.44E2,1.324E3,6.7E1,7.17E2,4.15E2,2.24E2,1.19E2,2.13E2,2.86E2],"tree_param":{"num_deleted":"0","num_feature":"2","num_nodes":"27","size_leaf_vector":"1"}},{"base_weights":[-5.3842445E-3,-1.800648E0,4.097938E-1,-2.2894876E0,-8.395624E-1,9.032828E-1,-9.2539585E-1,-2.3740776E0,-1.6723056E0,5.3874004E-1,-2.023554E0,1.3862383E0,3.1686422E-1,-1.5735759E0,-8.041692E-2,-2.602048E-1,-2.0840922E-1,-8.5009135E-2,-2.2196741E-1,3.0166098E-1,-8.65833E-3,-1.6494137E-1,-3.92261E-1,7.583236E-2,2.0395902E-1,-2.597289E-1,6.119845E-2,-1.0894372E-1,-2.4657528E-1,4.006393E-2,-9.3987785E-2],"categories":[],"categories_nodes":[],"categories_segments":[],"categories_sizes":[],"default_left":[0,0,0,0,0,0,0,0,0,0,0,0,0,0,0,0,0,0,0,0,0,0,0,0,0,0,0,0,0,0,0],"id":15,"left_children":[1,3,5,7,9,11,13,15,17,19,21,23,25,27,29,-1,-1,-1,-1,-1,-1,-1,-1,-1,-1,-1,-1,-1,-1,-1,-1],"loss_changes":[2.8651338E3,3.372854E2,2.0579263E3,2.0984863E1,4.0090536E2,6.452888E2,4.6158313E2,2.2210205E1,2.556636E1,1.7690076E2,8.731781E1,5.112649E2,8.8827606E2,2.0334778E2,1.5211234E2,0E0,0E0,0E0,0E0,0E0,0E0,0E0,0E0,0E0,0E0,0E0,0E0,0E0,0E0,0E0,0E0],"parents":[2147483647,0,0,1,1,2,2,3,3,4,4,5,5,6,6,7,7,8,8,9,9,10,10,11,11,12,12,13,13,14,14],"right_children":[2,4,6,8,10,12,14,16,18,20,22,24,26,28,30,-1,-1,-1,-1,-1,-1,-1,-1,-1,-1,-1,-1,-1,-1,-1,-1],"split_conditions":[6E0,4E0,1.9E1,3E0,4E0,5E0,4E0,5E0,2E0,2E0,7E0,1.3E1,8E0,2.2E1,2.2E1,-2.602048E-1,-2.0840922E-1,-8.5009135E-2,-2.2196741E-1,3.0166098E-1,-8.65833E-3,-1.6494137E-1,-3.92261E-1,7.583236E-2,2.0395902E-1,-2.597289E-1,6.119845E-2,-1.0894372E-1,-2.4657528E-1,4.006393E-2,-9.3987785E-2],"split_indices":[1,1,1,1,0,0,0,0,0,0,0,1,1,1,1,0,0,0,0,0,0,0,0,0,0,0,0,0,0,0,0],"split_type":[0,0,0,0,0,0,0,0,0,0,0,0,0,0,0,0,0,0,0,0,0,0,0,0,0,0,0,0,0,0,0],"sum_hessian":[3.842E3,7.21E2,3.121E3,4.77E2,2.44E2,2.279E3,8.42E2,4.17E2,6E1,1.13E2,1.31E2,1.249E3,1.03E3,4.76E2,3.66E2,2.29E2,1.88E2,2.5E1,3.5E1,2.2E1,9.1E1,1.11E2,2E1,6.38E2,6.11E2,9.4E1,9.36E2,3.1E2,1.66E2,2.35E2,1.31E2],"tree_param":{"num_deleted":"0","num_feature":"2","num_nodes":"31","size_leaf_vector":"1"}},{"base_weights":[-5.201849E-3,-1.6220233E0,3.687092E-1,-2.0621612E0,-7.5668466E-1,9.0202475E-1,-6.519987E-1,-2.137791E0,-1.5101074E0,1.2279834E-1,-2.3271577E0,4.9182928E-1,1.8839139E0,-1.5240082E0,3.0831698E-1,-2.3429744E-1,-1.8767856E-1,-7.683515E-2,-2.0038727E-1,2.728065E-1,-3.1870116E-2,-1.9155924E-1,-3.5490286E-1,8.900466E-2,2.680486E-3,2.6578206E-1,8.905371E-2,-2.1539915E-1,-1.1477639E-1,1.1118752E-1,-2.7910495E-2],"categories":[],"categories_nodes":[],"categories_segments":[],"categories_sizes":[],"default_left":[0,0,0,0,0,0,0,0,0,0,0,0,0,0,0,0,0,0,0,0,0,0,0,0,0,0,0,0,0,0,0],"id":16,"left_children":[1,3,5,7,9,11,13,15,17,19,21,23,25,27,29,-1,-1,-1,-1,-1,-1,-1,-1,-1,-1,-1,-1,-1,-1,-1,-1],"loss_changes":[2.323874E3,2.734265E2,1.700078E3,1.6729126E1,3.386808E2,8.251476E2,8.9816736E2,1.7988281E1,2.0801773E1,1.8260481E2,3.7454926E1,2.6811792E2,4.6197656E2,1.3073718E2,2.4151646E2,0E0,0E0,0E0,0E0,0E0,0E0,0E0,0E0,0E0,0E0,0E0,0E0,0E0,0E0,0E0,0E0],"parents":[2147483647,0,0,1,1,2,2,3,3,4,4,5,5,6,6,7,7,8,8,9,9,10,10,11,11,12,12,13,13,14,14],"right_children":[2,4,6,8,10,12,14,16,18,20,22,24,26,28,30,-1,-1,-1,-1,-1,-1,-1,-1,-1,-1,-1,-1,-1,-1,-1,-1],"split_conditions":[6E0,4E0,1.8E1,3E0,5E0,1.5E1,4E0,5E0,2E0,2E0,7E0,5E0,5E0,2E0,2E1,-2.3429744E-1,-1.8767856E-1,-7.683515E-2,-2.0038727E-1,2.728065E-1,-3.1870116E-2,-1.9155924E-1,-3.5490286E-1,8.900466E-2,2.680486E-3,2.6578206E-1,8.905371E-2,-2.1539915E-1,-1.1477639E-1,1.1118752E-1,-2.7910495E-2],"split_indices":[1,1,1,1,0,1,0,0,0,0,0,0,0,0,1,0,0,0,0,0,0,0,0,0,0,0,0,0,0,0,0],"split_type":[0,0,0,0,0,0,0,0,0,0,0,0,0,0,0,0,0,0,0,0,0,0,0,0,0,0,0,0,0,0,0],"sum_hessian":[3.842E3,7.21E2,3.121E3,4.77E2,2.44E2,2.05E3,1.071E3,4.17E2,6E1,1.57E2,8.7E1,1.447E3,6.03E2,5.61E2,5.1E2,2.29E2,1.88E2,2.5E1,3.5E1,2.2E1,1.35E2,6.7E1,2E1,7.79E2,6.68E2,3.38E2,2.65E2,2.08E2,3.53E2,2.15E2,2.95E2],"tree_param":{"num_deleted":"0","num_feature":"2","num_nodes":"31","size_leaf_vector":"1"}},{"base_weights":[-4.891059E-3,-1.4612128E0,3.3190238E-1,-1.857408E0,-6.8226343E-1,8.120402E-1,-5.8702916E-1,-2.0325072E0,-1.6514854E0,1.12043284E-1,-2.100652E0,4.4270992E-1,1.6961101E0,-1.3721948E0,2.7764818E-1,-2.1926038E-1,-1.731774E-1,-1.7478916E-1,-1.3636415E-1,2.46712E-1,-2.870656E-2,-1.7268506E-1,-3.211026E-1,8.011562E-2,2.4128768E-3,2.2613421E-1,4.2358056E-2,-1.076312E-1,-2.0655926E-1,6.57825E-2,-8.189036E-2],"categories":[],"categories_nodes":[],"categories_segments":[],"categories_sizes":[],"default_left":[0,0,0,0,0,0,0,0,0,0,0,0,0,0,0,0,0,0,0,0,0,0,0,0,0,0,0,0,0,0,0],"id":17,"left_children":[1,3,5,7,9,11,13,15,17,19,21,23,25,27,29,-1,-1,-1,-1,-1,-1,-1,-1,-1,-1,-1,-1,-1,-1,-1,-1],"loss_changes":[1.885398E3,2.2155371E2,1.3779463E3,1.3878418E1,2.7626108E2,6.6892883E2,7.2817773E2,8.432129E0,3.8602905E0,1.4921748E2,3.0980255E1,2.1723694E2,4.3348376E2,1.1307922E2,2.135662E2,0E0,0E0,0E0,0E0,0E0,0E0,0E0,0E0,0E0,0E0,0E0,0E0,0E0,0E0,0E0,0E0],"parents":[2147483647,0,0,1,1,2,2,3,3,4,4,5,5,6,6,7,7,8,8,9,9,10,10,11,11,12,12,13,13,14,14],"right_children":[2,4,6,8,10,12,14,16,18,20,22,24,26,28,30,-1,-1,-1,-1,-1,-1,-1,-1,-1,-1,-1,-1,-1,-1,-1,-1],"split_conditions":[6E0,4E0,1.8E1,2E0,5E0,1.5E1,4E0,5E0,3E0,2E0,7E0,5E0,1.7E1,2.2E1,2.2E1,-2.1926038E-1,-1.731774E-1,-1.7478916E-1,-1.3636415E-1,2.46712E-1,-2.870656E-2,-1.7268506E-1,-3.211026E-1,8.011562E-2,2.4128768E-3,2.2613421E-1,4.2358056E-2,-1.076312E-1,-2.0655926E-1,6.57825E-2,-8.189036E-2],"split_indices":[1,1,1,1,0,1,0,0,1,0,0,0,1,1,1,0,0,0,0,0,0,0,0,0,0,0,0,0,0,0,0],"split_type":[0,0,0,0,0,0,0,0,0,0,0,0,0,0,0,0,0,0,0,0,0,0,0,0,0,0,0,0,0,0,0],"sum_hessian":[3.842E3,7.21E2,3.121E3,4.77E2,2.44E2,2.05E3,1.071E3,2.53E2,2.24E2,1.57E2,8.7E1,1.447E3,6.03E2,5.61E2,5.1E2,1.61E2,9.2E1,1.64E2,6E1,2.2E1,1.35E2,6.7E1,2E1,7.79E2,6.68E2,4.17E2,1.86E2,3.95E2,1.66E2,3.79E2,1.31E2],"tree_param":{"num_deleted":"0","num_feature":"2","num_nodes":"31","size_leaf_vector":"1"}},{"base_weights":[-4.6514682E-3,-1.3164479E0,2.987187E-1,-1.6731392E0,-6.1516225E-1,7.310073E-1,-5.286345E-1,-1.8308015E0,-1.4877199E0,4.355334E-1,-1.517921E0,3.984956E-1,1.5269442E0,-1.2355345E0,2.4985172E-1,-1.974697E-1,-1.560459E-1,-1.5741618E-1,-1.2295129E-1,2.2311349E-1,-1.8101009E-3,-1.24425076E-1,-2.9052135E-1,7.211426E-2,2.171961E-3,2.222652E-1,6.345688E-2,-1.80032E-1,-8.985976E-2,9.357246E-2,-2.514942E-2],"categories":[],"categories_nodes":[],"categories_segments":[],"categories_sizes":[],"default_left":[0,0,0,0,0,0,0,0,0,0,0,0,0,0,0,0,0,0,0,0,0,0,0,0,0,0,0,0,0,0,0],"id":18,"left_children":[1,3,5,7,9,11,13,15,17,19,21,23,25,27,29,-1,-1,-1,-1,-1,-1,-1,-1,-1,-1,-1,-1,-1,-1,-1,-1],"loss_changes":[1.5297529E3,1.7957361E2,1.1169865E3,1.1250122E1,2.3304964E2,5.422057E2,5.9024304E2,6.7994385E0,3.0864868E0,9.28987E1,4.6500366E1,1.7601135E2,3.735724E2,1.0532916E2,1.7594757E2,0E0,0E0,0E0,0E0,0E0,0E0,0E0,0E0,0E0,0E0,0E0,0E0,0E0,0E0,0E0,0E0],"parents":[2147483647,0,0,1,1,2,2,3,3,4,4,5,5,6,6,7,7,8,8,9,9,10,10,11,11,12,12,13,13,14,14],"right_children":[2,4,6,8,10,12,14,16,18,20,22,24,26,28,30,-1,-1,-1,-1,-1,-1,-1,-1,-1,-1,-1,-1,-1,-1,-1,-1],"split_conditions":[6E0,4E0,1.8E1,2E0,4E0,1.5E1,4E0,5E0,3E0,2E0,7E0,5E0,5E0,2E0,2E1,-1.974697E-1,-1.560459E-1,-1.5741618E-1,-1.2295129E-1,2.2311349E-1,-1.8101009E-3,-1.24425076E-1,-2.9052135E-1,7.211426E-2,2.171961E-3,2.222652E-1,6.345688E-2,-1.80032E-1,-8.985976E-2,9.357246E-2,-2.514942E-2],"split_indices":[1,1,1,1,0,1,0,0,1,0,0,0,0,0,1,0,0,0,0,0,0,0,0,0,0,0,0,0,0,0,0],"split_type":[0,0,0,0,0,0,0,0,0,0,0,0,0,0,0,0,0,0,0,0,0,0,0,0,0,0,0,0,0,0,0],"sum_hessian":[3.842E3,7.21E2,3.121E3,4.77E2,2.44E2,2.05E3,1.071E3,2.53E2,2.24E2,1.13E2,1.31E2,1.447E3,6.03E2,5.61E2,5.1E2,1.61E2,9.2E1,1.64E2,6E1,2.2E1,9.1E1,1.11E2,2E1,7.79E2,6.68E2,3.38E2,2.65E2,2.08E2,3.53E2,2.15E2,2.95E2],"tree_param":{"num_deleted":"0","num_feature":"2","num_nodes":"31","size_leaf_vector":"1"}},{"base_weights":[-4.3606386E-3,-1.1859491E0,2.688973E-1,-1.5071514E0,-5.544364E-1,5.067634E-1,-9.944989E-1,-1.6491132E0,-1.3401939E0,1.0684583E-1,-1.7354381E0,-1.9654241E-1,6.4329594E-1,-1.2798387E0,9.05753E-2,-1.7784461E-1,-1.406091E-1,-1.4176996E-1,-1.108577E-1,2.0177214E-1,-2.171026E-2,-1.4341103E-1,-2.6285267E-1,5.244633E-2,-1.7652768E-1,1.0739853E-1,2.1436466E-2,-1.4707516E-1,-8.129191E-2,1.0215964E-1,-6.092001E-2],"categories":[],"categories_nodes":[],"categories_segments":[],"categories_sizes":[],"default_left":[0,0,0,0,0,0,0,0,0,0,0,0,0,0,0,0,0,0,0,0,0,0,0,0,0,0,0,0,0,0,0],"id":19,"left_children":[1,3,5,7,9,11,13,15,17,19,21,23,25,27,29,-1,-1,-1,-1,-1,-1,-1,-1,-1,-1,-1,-1,-1,-1,-1,-1],"loss_changes":[1.2411406E3,1.4561737E2,9.3872485E2,9.119263E0,1.9152441E2,2.5247784E2,1.5337527E2,5.482666E0,2.4674683E0,9.824401E1,1.9912323E1,4.8502225E2,4.0637396E2,3.374768E1,6.8378944E1,0E0,0E0,0E0,0E0,0E0,0E0,0E0,0E0,0E0,0E0,0E0,0E0,0E0,0E0,0E0,0E0],"parents":[2147483647,0,0,1,1,2,2,3,3,4,4,5,5,6,6,7,7,8,8,9,9,10,10,11,11,12,12,13,13,14,14],"right_children":[2,4,6,8,10,12,14,16,18,20,22,24,26,28,30,-1,-1,-1,-1,-1,-1,-1,-1,-1,-1,-1,-1,-1,-1,-1,-1],"split_conditions":[6E0,4E0,2.1E1,2E0,5E0,2E0,5E0,5E0,3E0,2E0,7E0,1.7E1,5E0,4E0,2.2E1,-1.7784461E-1,-1.406091E-1,-1.4176996E-1,-1.108577E-1,2.0177214E-1,-2.171026E-2,-1.4341103E-1,-2.6285267E-1,5.244633E-2,-1.7652768E-1,1.0739853E-1,2.1436466E-2,-1.4707516E-1,-8.129191E-2,1.0215964E-1,-6.092001E-2],"split_indices":[1,1,1,1,0,0,0,0,1,0,0,1,0,0,1,0,0,0,0,0,0,0,0,0,0,0,0,0,0,0,0],"split_type":[0,0,0,0,0,0,0,0,0,0,0,0,0,0,0,0,0,0,0,0,0,0,0,0,0,0,0,0,0,0,0],"sum_hessian":[3.842E3,7.21E2,3.121E3,4.77E2,2.44E2,2.627E3,4.94E2,2.53E2,2.24E2,1.57E2,8.7E1,4.27E2,2.2E3,3.91E2,1.03E2,1.61E2,9.2E1,1.64E2,6E1,2.2E1,1.35E2,6.7E1,2E1,2.93E2,1.34E2,1.097E3,1.103E3,2.76E2,1.15E2,4.4E1,5.9E1],"tree_param":{"num_deleted":"0","num_feature":"2","num_nodes":"31","size_leaf_vector":"1"}},{"base_weights":[-4.1797375E-3,-1.0684587E0,2.4194889E-1,-1.357631E0,-4.999166E-1,6.0308856E-1,-4.4922587E-1,-1.4854555E0,-1.2072973E0,3.7231207E-1,-1.2494178E0,2.997194E-1,1.3293723E0,-1.0467016E0,2.0875952E-1,-1.6016994E-1,-1.2669937E-1,-1.2767889E-1,-9.995366E-2,1.8247215E-1,5.162861E-4,-1.0266173E-1,-2.378191E-1,3.5382997E-2,-1.2858763E-1,1.821277E-1,2.2271207E-2,-8.157679E-2,-1.5880372E-1,5.034261E-2,-6.411046E-2],"categories":[],"categories_nodes":[],"categories_segments":[],"categories_sizes":[],"default_left":[0,0,0,0,0,0,0,0,0,0,0,0,0,0,0,0,0,0,0,0,0,0,0,0,0,0,0,0,0,0,0],"id":20,"left_children":[1,3,5,7,9,11,13,15,17,19,21,23,25,27,29,-1,-1,-1,-1,-1,-1,-1,-1,-1,-1,-1,-1,-1,-1,-1,-1],"loss_changes":[1.0069305E3,1.1802289E2,7.7955524E2,7.39209E0,1.606306E2,4.5150262E2,4.2165414E2,4.4208984E0,1.9722595E0,6.078119E1,3.0755356E1,1.2468967E2,3.2839453E2,6.896167E1,1.2829071E2,0E0,0E0,0E0,0E0,0E0,0E0,0E0,0E0,0E0,0E0,0E0,0E0,0E0,0E0,0E0,0E0],"parents":[2147483647,0,0,1,1,2,2,3,3,4,4,5,5,6,6,7,7,8,8,9,9,10,10,11,11,12,12,13,13,14,14],"right_children":[2,4,6,8,10,12,14,16,18,20,22,24,26,28,30,-1,-1,-1,-1,-1,-1,-1,-1,-1,-1,-1,-1,-1,-1,-1,-1],"split_conditions":[6E0,4E0,1.8E1,2E0,4E0,1.5E1,4E0,5E0,3E0,2E0,7E0,7E0,1.7E1,2.2E1,2.2E1,-1.6016994E-1,-1.2669937E-1,-1.2767889E-1,-9.995366E-2,1.8247215E-1,5.162861E-4,-1.0266173E-1,-2.378191E-1,3.5382997E-2,-1.2858763E-1,1.821277E-1,2.2271207E-2,-8.157679E-2,-1.5880372E-1,5.034261E-2,-6.411046E-2],"split_indices":[1,1,1,1,0,1,0,0,1,0,0,0,1,1,1,0,0,0,0,0,0,0,0,0,0,0,0,0,0,0,0],"split_type":[0,0,0,0,0,0,0,0,0,0,0,0,0,0,0,0,0,0,0,0,0,0,0,0,0,0,0,0,0,0,0],"sum_hessian":[3.842E3,7.21E2,3.121E3,4.77E2,2.44E2,2.05E3,1.071E3,2.53E2,2.24E2,1.13E2,1.31E2,1.447E3,6.03E2,5.61E2,5.1E2,1.61E2,9.2E1,1.64E2,6E1,2.2E1,9.1E1,1.11E2,2E1,1.4E3,4.7E1,4.17E2,1.86E2,3.95E2,1.66E2,3.79E2,1.31E2],"tree_param":{"num_deleted":"0","num_feature":"2","num_nodes":"31","size_leaf_vector":"1"}},{"base_weights":[-3.973872E-3,-9.625436E-1,2.1770817E-1,-1.2229443E0,-4.5056784E-1,5.428338E-1,-4.045403E-1,-1.3380394E0,-1.0875794E0,1.001843E-1,-1.4342983E0,2.6968288E-1,1.1967736E0,-1.156358E0,2.5347602E-2,-1.5714087E-1,-1.24250494E-1,-1.1498839E-1,-9.0122156E-2,1.6501829E-1,-1.6268445E-2,-1.1401866E-1,-2.2159103E-1,5.2265447E-2,-2.5664722E-3,1.8035069E-1,4.1903194E-2,-2.4577132E-1,-9.751951E-2,4.770264E-2,-5.9953686E-2],"categories":[],"categories_nodes":[],"categories_segments":[],"categories_sizes":[],"default_left":[0,0,0,0,0,0,0,0,0,0,0,0,0,0,0,0,0,0,0,0,0,0,0,0,0,0,0,0,0,0,0],"id":21,"left_children":[1,3,5,7,9,11,13,15,17,19,21,23,25,27,29,-1,-1,-1,-1,-1,-1,-1,-1,-1,-1,-1,-1,-1,-1,-1,-1],"loss_changes":[8.1683826E2,9.570514E1,6.31828E2,5.9919434E0,1.3288264E2,3.660357E2,3.464969E2,3.7103882E0,1.5761414E0,6.464495E1,1.7703003E1,1.08200096E2,2.842608E2,8.9548584E1,1.9306075E2,0E0,0E0,0E0,0E0,0E0,0E0,0E0,0E0,0E0,0E0,0E0,0E0,0E0,0E0,0E0,0E0],"parents":[2147483647,0,0,1,1,2,2,3,3,4,4,5,5,6,6,7,7,8,8,9,9,10,10,11,11,12,12,13,13,14,14],"right_children":[2,4,6,8,10,12,14,16,18,20,22,24,26,28,30,-1,-1,-1,-1,-1,-1,-1,-1,-1,-1,-1,-1,-1,-1,-1,-1],"split_conditions":[6E0,4E0,1.8E1,2E0,5E0,1.5E1,3E0,3E0,3E0,2E0,5E0,5E0,5E0,1.9E1,2.1E1,-1.5714087E-1,-1.24250494E-1,-1.1498839E-1,-9.0122156E-2,1.6501829E-1,-1.6268445E-2,-1.1401866E-1,-2.2159103E-1,5.2265447E-2,-2.5664722E-3,1.8035069E-1,4.1903194E-2,-2.4577132E-1,-9.751951E-2,4.770264E-2,-5.9953686E-2],"split_indices":[1,1,1,1,0,1,0,0,1,0,1,0,0,1,1,0,0,0,0,0,0,0,0,0,0,0,0,0,0,0,0],"split_type":[0,0,0,0,0,0,0,0,0,0,0,0,0,0,0,0,0,0,0,0,0,0,0,0,0,0,0,0,0,0,0],"sum_hessian":[3.842E3,7.21E2,3.121E3,4.77E2,2.44E2,2.05E3,1.071E3,2.53E2,2.24E2,1.57E2,8.7E1,1.447E3,6.03E2,3.89E2,6.82E2,6.9E1,1.84E2,1.64E2,6E1,2.2E1,1.35E2,6.5E1,2.2E1,7.79E2,6.68E2,3.38E2,2.65E2,4.6E1,3.43E2,3.96E2,2.86E2],"tree_param":{"num_deleted":"0","num_feature":"2","num_nodes":"31","size_leaf_vector":"1"}},{"base_weights":[-3.7733368E-3,-8.6722195E-1,1.9591074E-1,-1.1016676E0,-4.06274E-1,3.7217858E-1,-7.403071E-1,-1.2053434E0,-9.79733E-1,3.1782562E-1,-1.0285549E0,-2.4902032E-1,4.9280602E-1,-9.763106E-1,1.5636313E-1,-1.305026E-1,-1.01874225E-1,-1.0355923E-1,-8.125767E-2,1.4923394E-1,2.0742542E-3,-8.152574E-2,-2.0039535E-1,3.2501817E-2,-1.497304E-1,8.638201E-2,1.2336195E-2,-8.903685E-2,-1.5736797E-1,9.3110465E-2,-4.2729907E-2],"categories":[],"categories_nodes":[],"categories_segments":[],"categories_sizes":[],"default_left":[0,0,0,0,0,0,0,0,0,0,0,0,0,0,0,0,0,0,0,0,0,0,0,0,0,0,0,0,0,0,0],"id":22,"left_children":[1,3,5,7,9,11,13,15,17,19,21,23,25,27,29,-1,-1,-1,-1,-1,-1,-1,-1,-1,-1,-1,-1,-1,-1,-1,-1],"loss_changes":[6.6276825E2,7.757703E1,5.154839E2,4.8617554E0,1.1072229E2,1.9704825E2,1.0490329E2,3.3951416E0,1.2593994E0,3.9746857E1,2.5828873E1,3.0717554E2,3.0158215E2,1.8723785E1,4.742534E1,0E0,0E0,0E0,0E0,0E0,0E0,0E0,0E0,0E0,0E0,0E0,0E0,0E0,0E0,0E0,0E0],"parents":[2147483647,0,0,1,1,2,2,3,3,4,4,5,5,6,6,7,7,8,8,9,9,10,10,11,11,12,12,13,13,14,14],"right_children":[2,4,6,8,10,12,14,16,18,20,22,24,26,28,30,-1,-1,-1,-1,-1,-1,-1,-1,-1,-1,-1,-1,-1,-1,-1,-1],"split_conditions":[6E0,4E0,2.1E1,2E0,4E0,2E0,5E0,5E0,3E0,2E0,5E0,1.7E1,5E0,2.3E1,2.2E1,-1.305026E-1,-1.01874225E-1,-1.0355923E-1,-8.125767E-2,1.4923394E-1,2.0742542E-3,-8.152574E-2,-2.0039535E-1,3.2501817E-2,-1.497304E-1,8.638201E-2,1.2336195E-2,-8.903685E-2,-1.5736797E-1,9.3110465E-2,-4.2729907E-2],"split_indices":[1,1,1,1,0,0,0,0,1,0,1,1,0,1,1,0,0,0,0,0,0,0,0,0,0,0,0,0,0,0,0],"split_type":[0,0,0,0,0,0,0,0,0,0,0,0,0,0,0,0,0,0,0,0,0,0,0,0,0,0,0,0,0,0,0],"sum_hessian":[3.842E3,7.21E2,3.121E3,4.77E2,2.44E2,2.627E3,4.94E2,2.53E2,2.24E2,1.13E2,1.31E2,4.27E2,2.2E3,3.91E2,1.03E2,1.61E2,9.2E1,1.64E2,6E1,2.2E1,9.1E1,1.09E2,2.2E1,2.93E2,1.34E2,1.097E3,1.103E3,3.44E2,4.7E1,4.4E1,5.9E1],"tree_param":{"num_deleted":"0","num_feature":"2","num_nodes":"31","size_leaf_vector":"1"}},{"base_weights":[-3.594381E-3,-7.8125864E-1,1.7625096E-1,-9.9237365E-1,-3.661801E-1,4.4821367E-1,-3.442451E-1,-1.0857238E0,-8.825812E-1,9.183572E-2,-1.1843655E0,1.9910733E-1,1.044667E0,-8.2189006E-1,1.8174458E-1,-1.2878741E-1,-1.0033657E-1,-9.326609E-2,-7.32651E-2,1.3495933E-1,-1.2154851E-2,-9.257268E-2,-1.9654639E-1,2.4585655E-2,-1.16953336E-1,1.4737532E-1,7.994677E-3,-1.6023412E-1,-6.794568E-2,3.4787033E-2,-1.465707E-1],"categories":[],"categories_nodes":[],"categories_segments":[],"categories_sizes":[],"default_left":[0,0,0,0,0,0,0,0,0,0,0,0,0,0,0,0,0,0,0,0,0,0,0,0,0,0,0,0,0,0,0],"id":23,"left_children":[1,3,5,7,9,11,13,15,17,19,21,23,25,27,29,-1,-1,-1,-1,-1,-1,-1,-1,-1,-1,-1,-1,-1,-1,-1,-1],"loss_changes":[5.37617E2,6.2905E1,4.4209067E2,3.9408264E0,9.192052E1,3.0453015E2,2.694747E2,2.9365845E0,1.0061035E0,4.2568966E1,1.5958481E1,9.293474E1,2.499068E2,6.138446E1,1.4036246E2,0E0,0E0,0E0,0E0,0E0,0E0,0E0,0E0,0E0,0E0,0E0,0E0,0E0,0E0,0E0,0E0],"parents":[2147483647,0,0,1,1,2,2,3,3,4,4,5,5,6,6,7,7,8,8,9,9,10,10,11,11,12,12,13,13,14,14],"right_children":[2,4,6,8,10,12,14,16,18,20,22,24,26,28,30,-1,-1,-1,-1,-1,-1,-1,-1,-1,-1,-1,-1,-1,-1,-1,-1],"split_conditions":[6E0,4E0,1.8E1,2E0,5E0,1.5E1,4E0,3E0,3E0,2E0,7E0,7E0,1.7E1,1.9E1,6E0,-1.2878741E-1,-1.0033657E-1,-9.326609E-2,-7.32651E-2,1.3495933E-1,-1.2154851E-2,-9.257268E-2,-1.9654639E-1,2.4585655E-2,-1.16953336E-1,1.4737532E-1,7.994677E-3,-1.6023412E-1,-6.794568E-2,3.4787033E-2,-1.465707E-1],"split_indices":[1,1,1,1,0,1,0,0,1,0,0,0,1,1,0,0,0,0,0,0,0,0,0,0,0,0,0,0,0,0,0],"split_type":[0,0,0,0,0,0,0,0,0,0,0,0,0,0,0,0,0,0,0,0,0,0,0,0,0,0,0,0,0,0,0],"sum_hessian":[3.842E3,7.21E2,3.121E3,4.77E2,2.44E2,2.05E3,1.071E3,2.53E2,2.24E2,1.57E2,8.7E1,1.447E3,6.03E2,5.61E2,5.1E2,6.9E1,1.84E2,1.64E2,6E1,2.2E1,1.35E2,6.7E1,2E1,1.4E3,4.7E1,4.17E2,1.86E2,8.5E1,4.76E2,4.64E2,4.6E1],"tree_param":{"num_deleted":"0","num_feature":"2","num_nodes":"31","size_leaf_vector":"1"}},{"base_weights":[-3.4533036E-3,-7.0391107E-1,1.5853707E-1,-8.9396405E-1,-3.302408E-1,3.0965987E-1,-6.441079E-1,-7.2084635E-1,-9.4807464E-1,2.7102757E-1,-8.4701616E-1,-2.4027137E-1,4.164572E-1,-8.416743E-1,1.06759116E-1,-9.126119E-2,-7.190925E-4,-1.3979197E-1,-8.7959066E-2,1.22050084E-1,3.071331E-3,-6.648422E-2,-1.7782767E-1,2.7472657E-1,-4.24549E-2,7.547601E-2,7.961562E-3,-7.60641E-2,-1.406567E-1,8.0604985E-2,-4.1948825E-2],"categories":[],"categories_nodes":[],"categories_segments":[],"categories_sizes":[],"default_left":[0,0,0,0,0,0,0,0,0,0,0,0,0,0,0,0,0,0,0,0,0,0,0,0,0,0,0,0,0,0,0],"id":24,"left_children":[1,3,5,7,9,11,13,15,17,19,21,23,25,27,29,-1,-1,-1,-1,-1,-1,-1,-1,-1,-1,-1,-1,-1,-1,-1,-1],"loss_changes":[4.3616687E2,5.0979156E1,3.7889163E2,3.7942505E0,7.6356125E1,1.5444563E2,7.352121E1,1.6142273E1,9.891815E0,2.5974117E1,2.1211716E1,2.3679584E2,2.5075378E2,1.6873962E1,3.8610115E1,0E0,0E0,0E0,0E0,0E0,0E0,0E0,0E0,0E0,0E0,0E0,0E0,0E0,0E0,0E0,0E0],"parents":[2147483647,0,0,1,1,2,2,3,3,4,4,5,5,6,6,7,7,8,8,9,9,10,10,11,11,12,12,13,13,14,14],"right_children":[2,4,6,8,10,12,14,16,18,20,22,24,26,28,30,-1,-1,-1,-1,-1,-1,-1,-1,-1,-1,-1,-1,-1,-1,-1,-1],"split_conditions":[6E0,4E0,2.1E1,2E0,4E0,2E0,5E0,3E0,3E0,2E0,7E0,7E0,5E0,2.3E1,2.2E1,-9.126119E-2,-7.190925E-4,-1.3979197E-1,-8.7959066E-2,1.22050084E-1,3.071331E-3,-6.648422E-2,-1.7782767E-1,2.7472657E-1,-4.24549E-2,7.547601E-2,7.961562E-3,-7.60641E-2,-1.406567E-1,8.0604985E-2,-4.1948825E-2],"split_indices":[1,1,1,0,0,0,0,1,0,0,0,1,0,1,1,0,0,0,0,0,0,0,0,0,0,0,0,0,0,0,0],"split_type":[0,0,0,0,0,0,0,0,0,0,0,0,0,0,0,0,0,0,0,0,0,0,0,0,0,0,0,0,0,0,0],"sum_hessian":[3.842E3,7.21E2,3.121E3,4.77E2,2.44E2,2.627E3,4.94E2,1.17E2,3.6E2,1.13E2,1.31E2,4.27E2,2.2E3,3.91E2,1.03E2,9.2E1,2.5E1,4.5E1,3.15E2,2.2E1,9.1E1,1.11E2,2E1,2.4E1,4.03E2,1.097E3,1.103E3,3.44E2,4.7E1,4.4E1,5.9E1],"tree_param":{"num_deleted":"0","num_feature":"2","num_nodes":"31","size_leaf_vector":"1"}},{"base_weights":[-3.18609E-3,-5.1925445E-1,1.7876452E-1,-5.7807323E-2,-1.1993189E0,5.173406E-1,-2.479619E-1,-9.4530183E-1,4.955302E-1,-7.446764E-1,-2.3120742E0,2.3725781E-1,1.2987267E0,-1.0109123E0,-6.056363E-2,-1.2775852E-1,-9.0401426E-2,7.089437E-3,9.0843305E-2,-6.0960215E-2,-9.007147E-2,-1.6601293E-1,-2.4455757E-1,1.4518084E-3,7.473223E-2,1.5717563E-1,2.7177721E-2,-9.187742E-2,-1.8723159E-1,2.2747543E-2,-5.354433E-2],"categories":[],"categories_nodes":[],"categories_segments":[],"categories_sizes":[],"default_left":[0,0,0,0,0,0,0,0,0,0,0,0,0,0,0,0,0,0,0,0,0,0,0,0,0,0,0,0,0,0,0],"id":25,"left_children":[1,3,5,7,9,11,13,15,17,19,21,23,25,27,29,-1,-1,-1,-1,-1,-1,-1,-1,-1,-1,-1,-1,-1,-1,-1,-1],"loss_changes":[3.609465E2,3.143721E2,4.1073865E2,2.941367E2,2.031701E2,3.4657355E2,1.7980206E2,2.0004578E0,6.463359E1,5.5421143E0,6.12323E0,1.3268752E2,1.1677478E2,1.7963013E1,1.3841032E2,0E0,0E0,0E0,0E0,0E0,0E0,0E0,0E0,0E0,0E0,0E0,0E0,0E0,0E0,0E0,0E0],"parents":[2147483647,0,0,1,1,2,2,3,3,4,4,5,5,6,6,7,7,8,8,9,9,10,10,11,11,12,12,13,13,14,14],"right_children":[2,4,6,8,10,12,14,16,18,20,22,24,26,28,30,-1,-1,-1,-1,-1,-1,-1,-1,-1,-1,-1,-1,-1,-1,-1,-1],"split_conditions":[8E0,5E0,1.7E1,3E0,5E0,1.5E1,2E0,1E0,5E0,7E0,6E0,6E0,6E0,2.3E1,2.1E1,-1.2775852E-1,-9.0401426E-2,7.089437E-3,9.0843305E-2,-6.0960215E-2,-9.007147E-2,-1.6601293E-1,-2.4455757E-1,1.4518084E-3,7.473223E-2,1.5717563E-1,2.7177721E-2,-9.187742E-2,-1.8723159E-1,2.2747543E-2,-5.354433E-2],"split_indices":[1,0,1,1,1,1,0,1,1,0,1,0,0,1,1,0,0,0,0,0,0,0,0,0,0,0,0,0,0,0,0],"split_type":[0,0,0,0,0,0,0,0,0,0,0,0,0,0,0,0,0,0,0,0,0,0,0,0,0,0,0,0,0,0,0],"sum_hessian":[3.842E3,1.001E3,2.841E3,5.97E2,4.04E2,1.584E3,1.257E3,2.29E2,3.68E2,2.88E2,1.16E2,1.167E3,4.17E2,2.47E2,1.01E3,2.2E1,2.07E2,1.82E2,1.86E2,1.57E2,1.31E2,2.2E1,9.4E1,8.13E2,3.54E2,3.29E2,8.8E1,2.25E2,2.2E1,6.29E2,3.81E2],"tree_param":{"num_deleted":"0","num_feature":"2","num_nodes":"31","size_leaf_vector":"1"}},{"base_weights":[-3.057609E-3,-4.680094E-1,1.6087088E-1,-5.222766E-2,-1.0807736E0,4.657713E-1,-2.2341211E-1,-8.517202E-1,4.4624257E-1,-6.707312E-1,-2.0843759E0,2.135976E-1,1.1692954E0,-9.109467E-1,-5.4537732E-2,-1.15538135E-1,-8.1404746E-2,6.3843527E-3,8.180756E-2,-5.490277E-2,-8.113253E-2,-1.5013345E-1,-2.2035925E-1,1.306838E-3,6.72801E-2,1.4150575E-1,2.449048E-2,-1.15411855E-1,-6.1498936E-2,2.0476406E-2,-4.8203927E-2],"categories":[],"categories_nodes":[],"categories_segments":[],"categories_sizes":[],"default_left":[0,0,0,0,0,0,0,0,0,0,0,0,0,0,0,0,0,0,0,0,0,0,0,0,0,0,0,0,0,0,0],"id":26,"left_children":[1,3,5,7,9,11,13,15,17,19,21,23,25,27,29,-1,-1,-1,-1,-1,-1,-1,-1,-1,-1,-1,-1,-1,-1,-1,-1],"loss_changes":[2.9298434E2,2.5522928E2,3.3309564E2,2.3869698E2,1.652674E2,2.809455E2,1.460129E2,1.6905975E0,5.2415367E1,4.4995728E0,4.8240967E0,1.0754497E2,9.4614746E1,1.7138412E1,1.1217E2,0E0,0E0,0E0,0E0,0E0,0E0,0E0,0E0,0E0,0E0,0E0,0E0,0E0,0E0,0E0,0E0],"parents":[2147483647,0,0,1,1,2,2,3,3,4,4,5,5,6,6,7,7,8,8,9,9,10,10,11,11,12,12,13,13,14,14],"right_children":[2,4,6,8,10,12,14,16,18,20,22,24,26,28,30,-1,-1,-1,-1,-1,-1,-1,-1,-1,-1,-1,-1,-1,-1,-1,-1],"split_conditions":[8E0,5E0,1.7E1,3E0,5E0,1.5E1,2E0,1E0,5E0,7E0,6E0,6E0,6E0,2.1E1,2.1E1,-1.15538135E-1,-8.1404746E-2,6.3843527E-3,8.180756E-2,-5.490277E-2,-8.113253E-2,-1.5013345E-1,-2.2035925E-1,1.306838E-3,6.72801E-2,1.4150575E-1,2.449048E-2,-1.15411855E-1,-6.1498936E-2,2.0476406E-2,-4.8203927E-2],"split_indices":[1,0,1,1,1,1,0,1,1,0,1,0,0,1,1,0,0,0,0,0,0,0,0,0,0,0,0,0,0,0,0],"split_type":[0,0,0,0,0,0,0,0,0,0,0,0,0,0,0,0,0,0,0,0,0,0,0,0,0,0,0,0,0,0,0],"sum_hessian":[3.842E3,1.001E3,2.841E3,5.97E2,4.04E2,1.584E3,1.257E3,2.29E2,3.68E2,2.88E2,1.16E2,1.167E3,4.17E2,2.47E2,1.01E3,2.2E1,2.07E2,1.82E2,1.86E2,1.57E2,1.31E2,2.2E1,9.4E1,8.13E2,3.54E2,3.29E2,8.8E1,1.34E2,1.13E2,6.29E2,3.81E2],"tree_param":{"num_deleted":"0","num_feature":"2","num_nodes":"31","size_leaf_vector":"1"}},{"base_weights":[-2.9042412E-3,-4.2182267E-1,1.4479427E-1,-4.7186807E-2,-9.739471E-1,4.1934228E-1,-2.0123388E-1,-7.674045E-1,4.0185726E-1,-6.0412896E-1,-1.8791053E0,1.9229685E-1,1.0527626E0,-8.205654E-1,-4.9111776E-2,-1.0448667E-1,-7.330342E-2,7.516438E-2,2.6376336E-3,-4.944726E-2,-7.3080756E-2,-1.3577284E-1,-1.9855534E-1,2.5182182E-2,-1.20186545E-1,1.4368187E-1,5.4686148E-2,-7.341107E-2,-1.6343997E-1,1.8431969E-2,-4.3396182E-2],"categories":[],"categories_nodes":[],"categories_segments":[],"categories_sizes":[],"default_left":[0,0,0,0,0,0,0,0,0,0,0,0,0,0,0,0,0,0,0,0,0,0,0,0,0,0,0,0,0,0,0],"id":27,"left_children":[1,3,5,7,9,11,13,15,17,19,21,23,25,27,29,-1,-1,-1,-1,-1,-1,-1,-1,-1,-1,-1,-1,-1,-1,-1,-1],"loss_changes":[2.3784142E2,2.0721335E2,2.700782E2,1.9370726E2,1.344361E2,2.2774469E2,1.1848092E2,1.4274597E0,4.8443962E1,3.6531754E0,3.797577E0,9.7232025E1,8.042929E1,1.6249405E1,9.090429E1,0E0,0E0,0E0,0E0,0E0,0E0,0E0,0E0,0E0,0E0,0E0,0E0,0E0,0E0,0E0,0E0],"parents":[2147483647,0,0,1,1,2,2,3,3,4,4,5,5,6,6,7,7,8,8,9,9,10,10,11,11,12,12,13,13,14,14],"right_children":[2,4,6,8,10,12,14,16,18,20,22,24,26,28,30,-1,-1,-1,-1,-1,-1,-1,-1,-1,-1,-1,-1,-1,-1,-1,-1],"split_conditions":[8E0,5E0,1.7E1,3E0,5E0,1.5E1,2E0,1E0,3E0,7E0,6E0,7E0,5E0,2.3E1,2.1E1,-1.0448667E-1,-7.330342E-2,7.516438E-2,2.6376336E-3,-4.944726E-2,-7.3080756E-2,-1.3577284E-1,-1.9855534E-1,2.5182182E-2,-1.20186545E-1,1.4368187E-1,5.4686148E-2,-7.341107E-2,-1.6343997E-1,1.8431969E-2,-4.3396182E-2],"split_indices":[1,0,1,1,1,1,0,1,0,0,1,0,0,1,1,0,0,0,0,0,0,0,0,0,0,0,0,0,0,0,0],"split_type":[0,0,0,0,0,0,0,0,0,0,0,0,0,0,0,0,0,0,0,0,0,0,0,0,0,0,0,0,0,0,0],"sum_hessian":[3.842E3,1.001E3,2.841E3,5.97E2,4.04E2,1.584E3,1.257E3,2.29E2,3.68E2,2.88E2,1.16E2,1.167E3,4.17E2,2.47E2,1.01E3,2.2E1,2.07E2,1.9E2,1.78E2,1.57E2,1.31E2,2.2E1,9.4E1,1.12E3,4.7E1,2.36E2,1.81E2,2.25E2,2.2E1,6.29E2,3.81E2],"tree_param":{"num_deleted":"0","num_feature":"2","num_nodes":"31","size_leaf_vector":"1"}},{"base_weights":[-2.800201E-3,-4.7251922E-1,1.0582886E-1,-5.922589E-1,-2.36976E-1,2.7794996E-1,-2.2357993E-1,-6.5681183E-1,-5.1675357E-2,1.0189735E-1,-3.654507E-1,3.0759407E-2,5.915526E-1,-5.9700525E-1,1.8755239E-1,-3.5550598E-2,-6.867068E-2,-2.5908351E-2,-1.3762647E-1,1.1898774E-2,-9.0530634E-2,1.1648231E-1,-5.7297642E-3,-1.456408E-1,-4.4080894E-2,3.4664024E-2,-1.3903922E-1],"categories":[],"categories_nodes":[],"categories_segments":[],"categories_sizes":[],"default_left":[0,0,0,0,0,0,0,0,0,0,0,0,0,0,0,0,0,0,0,0,0,0,0,0,0,0,0],"id":28,"left_children":[1,3,5,7,9,11,13,15,-1,-1,17,19,21,23,25,-1,-1,-1,-1,-1,-1,-1,-1,-1,-1,-1,-1],"loss_changes":[1.9613959E2,2.0222855E1,1.7707394E2,1.9904022E0,3.9905033E1,1.5897456E2,1.6469316E2,2.043785E0,0E0,0E0,2.3619827E1,9.49182E1,3.363246E2,7.479837E1,1.2875922E2,0E0,0E0,0E0,0E0,0E0,0E0,0E0,0E0,0E0,0E0,0E0,0E0],"parents":[2147483647,0,0,1,1,2,2,3,3,4,4,5,5,6,6,7,7,10,10,11,11,12,12,13,13,14,14],"right_children":[2,4,6,8,10,12,14,16,-1,-1,18,20,22,24,26,-1,-1,-1,-1,-1,-1,-1,-1,-1,-1,-1,-1],"split_conditions":[6E0,4E0,1.8E1,2E0,2E0,1.3E1,4E0,2E0,-5.1675357E-2,1.0189735E-1,7E0,1.2E1,5E0,1.9E1,6E0,-3.5550598E-2,-6.867068E-2,-2.5908351E-2,-1.3762647E-1,1.1898774E-2,-9.0530634E-2,1.1648231E-1,-5.7297642E-3,-1.456408E-1,-4.4080894E-2,3.4664024E-2,-1.3903922E-1],"split_indices":[1,1,1,1,0,1,0,0,0,0,0,1,0,1,0,0,0,0,0,0,0,0,0,0,0,0,0],"split_type":[0,0,0,0,0,0,0,0,0,0,0,0,0,0,0,0,0,0,0,0,0,0,0,0,0,0,0],"sum_hessian":[3.842E3,7.21E2,3.121E3,4.77E2,2.44E2,2.05E3,1.071E3,2.53E2,2.24E2,2.2E1,2.22E2,1.147E3,9.03E2,5.61E2,5.1E2,2.4E1,2.29E2,2.02E2,2E1,1.049E3,9.8E1,4.79E2,4.24E2,8.5E1,4.76E2,4.64E2,4.6E1],"tree_param":{"num_deleted":"0","num_feature":"2","num_nodes":"27","size_leaf_vector":"1"}},{"base_weights":[-2.6447917E-3,-3.496906E-1,1.1971359E-1,-1.9040726E-2,-8.3704597E-1,3.50821E-1,-1.7156221E-1,-6.315456E-1,3.6278898E-1,-4.8529735E-1,-1.6987408E0,1.5946598E-1,8.8467705E-1,-7.113917E-1,-3.8971424E-2,-8.792379E-2,-6.011203E-2,3.2331236E-3,6.842381E-2,-2.9484654E-2,-5.3924587E-2,-1.2030768E-1,-1.8008623E-1,-3.2351704E-3,5.9884667E-2,1.0741265E-1,1.7228372E-2,-1.19223416E-1,-5.4470103E-2,1.7493818E-2,-3.9165225E-2],"categories":[],"categories_nodes":[],"categories_segments":[],"categories_sizes":[],"default_left":[0,0,0,0,0,0,0,0,0,0,0,0,0,0,0,0,0,0,0,0,0,0,0,0,0,0,0,0,0,0,0],"id":29,"left_children":[1,3,5,7,9,11,13,15,17,19,21,23,25,27,29,-1,-1,-1,-1,-1,-1,-1,-1,-1,-1,-1,-1,-1,-1,-1,-1],"loss_changes":[1.6323087E2,1.6145032E2,1.9137224E2,1.4008493E2,1.2193109E2,1.6177621E2,9.001541E1,1.204773E0,3.9175034E1,2.810341E0,3.7557373E0,9.8459564E1,5.622931E1,1.9228271E1,7.6340195E1,0E0,0E0,0E0,0E0,0E0,0E0,0E0,0E0,0E0,0E0,0E0,0E0,0E0,0E0,0E0,0E0],"parents":[2147483647,0,0,1,1,2,2,3,3,4,4,5,5,6,6,7,7,8,8,9,9,10,10,11,11,12,12,13,13,14,14],"right_children":[2,4,6,8,10,12,14,16,18,20,22,24,26,28,30,-1,-1,-1,-1,-1,-1,-1,-1,-1,-1,-1,-1,-1,-1,-1,-1],"split_conditions":[8E0,5E0,1.7E1,3E0,5E0,1.5E1,2E0,1E0,5E0,6E0,6E0,6E0,6E0,1.9E1,2.1E1,-8.792379E-2,-6.011203E-2,3.2331236E-3,6.842381E-2,-2.9484654E-2,-5.3924587E-2,-1.2030768E-1,-1.8008623E-1,-3.2351704E-3,5.9884667E-2,1.0741265E-1,1.7228372E-2,-1.19223416E-1,-5.4470103E-2,1.7493818E-2,-3.9165225E-2],"split_indices":[1,0,1,1,1,1,0,1,1,0,1,0,0,1,1,0,0,0,0,0,0,0,0,0,0,0,0,0,0,0,0],"split_type":[0,0,0,0,0,0,0,0,0,0,0,0,0,0,0,0,0,0,0,0,0,0,0,0,0,0,0,0,0,0,0],"sum_hessian":[3.842E3,1.001E3,2.841E3,5.97E2,4.04E2,1.584E3,1.257E3,2.29E2,3.68E2,2.88E2,1.16E2,1.167E3,4.17E2,2.47E2,1.01E3,2.2E1,2.07E2,1.82E2,1.86E2,6.5E1,2.23E2,2.2E1,9.4E1,8.13E2,3.54E2,3.29E2,8.8E1,6.2E1,1.85E2,6.29E2,3.81E2],"tree_param":{"num_deleted":"0","num_feature":"2","num_nodes":"31","size_leaf_vector":"1"}},{"base_weights":[-2.5038868E-3,-3.1518087E-1,1.0773708E-1,-1.7264472E-2,-7.5428903E-1,3.1585306E-1,-1.5456147E-1,-5.690347E-1,3.2670414E-1,-4.3705624E-1,-1.5314343E0,1.4356758E-1,7.9650766E-1,-6.4095306E-1,-3.509593E-2,-4.7343407E-2,-6.293378E-2,6.352336E-2,-4.3339652E-4,-3.4790393E-2,-5.4045785E-2,-1.3330767E-1,-1.7984973E-1,1.9902011E-2,-1.15447104E-1,9.670397E-2,1.5524826E-2,-1.0749036E-1,-4.9052384E-2,1.0163893E-2,-4.9984187E-2],"categories":[],"categories_nodes":[],"categories_segments":[],"categories_sizes":[],"default_left":[0,0,0,0,0,0,0,0,0,0,0,0,0,0,0,0,0,0,0,0,0,0,0,0,0,0,0,0,0,0,0],"id":30,"left_children":[1,3,5,7,9,11,13,15,17,19,21,23,25,27,29,-1,-1,-1,-1,-1,-1,-1,-1,-1,-1,-1,-1,-1,-1,-1,-1],"loss_changes":[1.3250145E2,1.3106613E2,1.551894E2,1.1368131E2,9.9177765E1,1.3113918E2,7.307615E1,1.0280075E0,3.7690567E1,2.4761162E0,3.800415E0,8.430185E1,4.5560394E1,1.5661896E1,6.429679E1,0E0,0E0,0E0,0E0,0E0,0E0,0E0,0E0,0E0,0E0,0E0,0E0,0E0,0E0,0E0,0E0],"parents":[2147483647,0,0,1,1,2,2,3,3,4,4,5,5,6,6,7,7,8,8,9,9,10,10,11,11,12,12,13,13,14,14],"right_children":[2,4,6,8,10,12,14,16,18,20,22,24,26,28,30,-1,-1,-1,-1,-1,-1,-1,-1,-1,-1,-1,-1,-1,-1,-1,-1],"split_conditions":[8E0,5E0,1.7E1,3E0,5E0,1.5E1,2E0,2E0,3E0,7E0,7E0,7E0,6E0,1.9E1,2.2E1,-4.7343407E-2,-6.293378E-2,6.352336E-2,-4.3339652E-4,-3.4790393E-2,-5.4045785E-2,-1.3330767E-1,-1.7984973E-1,1.9902011E-2,-1.15447104E-1,9.670397E-2,1.5524826E-2,-1.0749036E-1,-4.9052384E-2,1.0163893E-2,-4.9984187E-2],"split_indices":[1,0,1,1,1,1,0,0,0,0,1,0,0,1,1,0,0,0,0,0,0,0,0,0,0,0,0,0,0,0,0],"split_type":[0,0,0,0,0,0,0,0,0,0,0,0,0,0,0,0,0,0,0,0,0,0,0,0,0,0,0,0,0,0,0],"sum_hessian":[3.842E3,1.001E3,2.841E3,5.97E2,4.04E2,1.584E3,1.257E3,2.29E2,3.68E2,2.88E2,1.16E2,1.167E3,4.17E2,2.47E2,1.01E3,9.2E1,1.37E2,1.9E2,1.78E2,1.57E2,1.31E2,7E1,4.6E1,1.12E3,4.7E1,3.29E2,8.8E1,6.2E1,1.85E2,7.81E2,2.29E2],"tree_param":{"num_deleted":"0","num_feature":"2","num_nodes":"31","size_leaf_vector":"1"}},{"base_weights":[-2.4170917E-3,-3.5212725E-1,7.845836E-2,-4.3601274E-1,-1.8702766E-1,1.4071152E-1,-5.119565E-1,-4.847122E-1,-3.7909865E-1,8.576509E-2,-2.939361E-1,1.6108662E-1,-1.0414292E-1,-7.544335E-1,-2.01308E-1,-4.317721E-2,-6.973848E-2,-3.4956325E-2,-4.5277484E-2,-2.0471983E-2,-1.14236295E-1,-2.049699E-2,2.361012E-2,-6.568425E-2,-1.33688E-1,-8.129228E-4,-5.7460632E-2],"categories":[],"categories_nodes":[],"categories_segments":[],"categories_sizes":[],"default_left":[0,0,0,0,0,0,0,0,0,0,0,0,0,0,0,0,0,0,0,0,0,0,0,0,0,0,0],"id":31,"left_children":[1,3,5,7,9,11,13,15,17,-1,19,21,-1,23,25,-1,-1,-1,-1,-1,-1,-1,-1,-1,-1,-1,-1],"loss_changes":[1.0871907E2,9.917763E0,1.1482175E2,1.1411057E0,2.7614906E1,6.821139E1,2.2295006E1,2.558651E0,3.313408E-1,0E0,1.6645779E1,7.6331116E1,0E0,8.614433E0,9.514286E0,0E0,0E0,0E0,0E0,0E0,0E0,0E0,0E0,0E0,0E0,0E0,0E0],"parents":[2147483647,0,0,1,1,2,2,3,3,4,4,5,5,6,6,7,7,8,8,10,10,11,11,13,13,14,14],"right_children":[2,4,6,8,10,12,14,16,18,-1,20,22,-1,24,26,-1,-1,-1,-1,-1,-1,-1,-1,-1,-1,-1,-1],"split_conditions":[6E0,4E0,2.2E1,2E0,2E0,7E0,4E0,6E0,3E0,8.576509E-2,7E0,2E0,-1.0414292E-1,2.3E1,2.3E1,-4.317721E-2,-6.973848E-2,-3.4956325E-2,-4.5277484E-2,-2.0471983E-2,-1.14236295E-1,-2.049699E-2,2.361012E-2,-6.568425E-2,-1.33688E-1,-8.129228E-4,-5.7460632E-2],"split_indices":[1,1,1,1,0,0,0,0,1,0,0,0,0,1,1,0,0,0,0,0,0,0,0,0,0,0,0],"split_type":[0,0,0,0,0,0,0,0,0,0,0,0,0,0,0,0,0,0,0,0,0,0,0,0,0,0,0],"sum_hessian":[3.842E3,7.21E2,3.121E3,4.77E2,2.44E2,2.824E3,2.97E2,2.53E2,2.24E2,2.2E1,2.22E2,2.777E3,4.7E1,1.66E2,1.31E2,2.05E2,4.8E1,1.64E2,6E1,2.02E2,2E1,4.72E2,2.305E3,1.44E2,2.2E1,8.7E1,4.4E1],"tree_param":{"num_deleted":"0","num_feature":"2","num_nodes":"27","size_leaf_vector":"1"}},{"base_weights":[-2.3321998E-3,-2.6337695E-1,8.9704804E-2,-3.145622E-4,-6.5114963E-1,-3.6079434E-1,1.837122E-1,-2.5980622E-1,5.7140136E-1,-3.4731287E-1,-1.3960869E0,3.1990968E-2,-4.3357137E-1,3.095918E-1,-2.3422185E-1,-4.7205172E-2,8.370123E-4,1.463847E-1,2.439109E-2,-2.6856128E-2,-4.3894503E-2,-9.409067E-2,-1.4915928E-1,-1.9679174E-1,-2.7258849E-2,3.434616E-2,-9.394557E-2,-3.9597355E-2,1.7903065E-2],"categories":[],"categories_nodes":[],"categories_segments":[],"categories_sizes":[],"default_left":[0,0,0,0,0,0,0,0,0,0,0,0,0,0,0,0,0,0,0,0,0,0,0,0,0,0,0,0,0],"id":32,"left_children":[1,3,5,7,9,11,13,15,17,19,21,-1,23,25,27,-1,-1,-1,-1,-1,-1,-1,-1,-1,-1,-1,-1,-1,-1],"loss_changes":[9.235468E1,1.0221222E2,1.204257E2,8.886504E1,9.118257E1,2.4462646E1,1.2380977E2,2.3454672E1,5.4296963E1,1.9675941E0,3.6828156E0,0E0,1.091331E2,7.681004E1,3.650103E1,0E0,0E0,0E0,0E0,0E0,0E0,0E0,0E0,0E0,0E0,0E0,0E0,0E0,0E0],"parents":[2147483647,0,0,1,1,2,2,3,3,4,4,5,5,6,6,7,7,8,8,9,9,10,10,12,12,13,13,14,14],"right_children":[2,4,6,8,10,12,14,16,18,20,22,-1,24,26,28,-1,-1,-1,-1,-1,-1,-1,-1,-1,-1,-1,-1,-1,-1],"split_conditions":[8E0,5E0,2E0,5E0,5E0,9E0,2E1,3E0,7E0,7E0,6E0,3.1990968E-2,1E1,7E0,5E0,-4.7205172E-2,8.370123E-4,1.463847E-1,2.439109E-2,-2.6856128E-2,-4.3894503E-2,-9.409067E-2,-1.4915928E-1,-1.9679174E-1,-2.7258849E-2,3.434616E-2,-9.394557E-2,-3.9597355E-2,1.7903065E-2],"split_indices":[1,0,0,1,1,1,1,1,1,0,1,0,1,0,0,0,0,0,0,0,0,0,0,0,0,0,0,0,0],"split_type":[0,0,0,0,0,0,0,0,0,0,0,0,0,0,0,0,0,0,0,0,0,0,0,0,0,0,0,0,0],"sum_hessian":[3.842E3,1.001E3,2.841E3,5.97E2,4.04E2,4.9E2,2.351E3,4.11E2,1.86E2,2.88E2,1.16E2,4.7E1,4.43E2,1.807E3,5.44E2,2.29E2,1.82E2,4.9E1,1.37E2,1.57E2,1.31E2,2.2E1,9.4E1,4.1E1,4.02E2,1.76E3,4.7E1,3.91E2,1.53E2],"tree_param":{"num_deleted":"0","num_feature":"2","num_nodes":"29","size_leaf_vector":"1"}},{"base_weights":[-2.2192972E-3,-2.372286E-1,8.063839E-2,-7.52087E-5,-5.868101E-1,2.5278646E-1,-1.3632134E-1,-2.3393826E-1,5.1517427E-1,-3.128266E-1,-1.2585572E0,1.0129338E-1,6.754925E-1,-5.1150316E-1,-4.4153765E-2,-4.2505175E-2,7.537373E-4,1.3203895E-1,2.1969648E-2,-2.5188742E-2,-4.2376403E-2,-1.0812701E-1,-1.4995962E-1,1.8243592E-2,-8.171107E-2,9.453308E-2,3.203982E-2,-7.452879E-2,-2.3016592E-2,2.3083726E-3,-7.409634E-2],"categories":[],"categories_nodes":[],"categories_segments":[],"categories_sizes":[],"default_left":[0,0,0,0,0,0,0,0,0,0,0,0,0,0,0,0,0,0,0,0,0,0,0,0,0,0,0,0,0,0,0],"id":33,"left_children":[1,3,5,7,9,11,13,15,17,19,21,23,25,27,29,-1,-1,-1,-1,-1,-1,-1,-1,-1,-1,-1,-1,-1,-1,-1,-1],"loss_changes":[7.485128E1,8.307019E1,1.0618088E2,7.2178215E1,7.4145584E1,1.0143029E2,4.3478546E1,1.9016693E1,4.4201553E1,1.8470249E0,3.378296E0,8.719035E1,3.974904E1,1.614E1,4.7384197E1,0E0,0E0,0E0,0E0,0E0,0E0,0E0,0E0,0E0,0E0,0E0,0E0,0E0,0E0,0E0,0E0],"parents":[2147483647,0,0,1,1,2,2,3,3,4,4,5,5,6,6,7,7,8,8,9,9,10,10,11,11,12,12,13,13,14,14],"right_children":[2,4,6,8,10,12,14,16,18,20,22,24,26,28,30,-1,-1,-1,-1,-1,-1,-1,-1,-1,-1,-1,-1,-1,-1,-1,-1],"split_conditions":[8E0,5E0,1.7E1,5E0,5E0,1.5E1,2E0,3E0,7E0,3E0,7E0,1.4E1,5E0,2.1E1,6E0,-4.2505175E-2,7.537373E-4,1.3203895E-1,2.1969648E-2,-2.5188742E-2,-4.2376403E-2,-1.0812701E-1,-1.4995962E-1,1.8243592E-2,-8.171107E-2,9.453308E-2,3.203982E-2,-7.452879E-2,-2.3016592E-2,2.3083726E-3,-7.409634E-2],"split_indices":[1,0,1,1,1,1,0,1,1,1,1,1,0,1,0,0,0,0,0,0,0,0,0,0,0,0,0,0,0,0,0],"split_type":[0,0,0,0,0,0,0,0,0,0,0,0,0,0,0,0,0,0,0,0,0,0,0,0,0,0,0,0,0,0,0],"sum_hessian":[3.842E3,1.001E3,2.841E3,5.97E2,4.04E2,1.584E3,1.257E3,4.11E2,1.86E2,2.88E2,1.16E2,1.167E3,4.17E2,2.47E2,1.01E3,2.29E2,1.82E2,4.9E1,1.37E2,1.88E2,1E2,7E1,4.6E1,1.073E3,9.4E1,2.36E2,1.81E2,1.34E2,1.13E2,9.22E2,8.8E1],"tree_param":{"num_deleted":"0","num_feature":"2","num_nodes":"31","size_leaf_vector":"1"}},{"base_weights":[-2.0805958E-3,-2.1371847E-1,7.253701E-2,1.20388024E-4,-5.289331E-1,-3.1844243E-1,1.5412645E-1,-2.1064562E-1,4.644812E-1,-2.8177756E-1,-1.1349076E0,2.7072236E-2,-3.814187E-1,2.6475045E-1,-2.1314389E-1,-3.8273137E-2,6.788087E-4,1.19099215E-1,1.978868E-2,-2.0977495E-2,-3.6582787E-2,-7.474812E-2,-1.2167591E-1,-1.7936197E-1,-2.33295E-2,2.95403E-2,-8.653311E-2,-3.587798E-2,1.5894972E-2],"categories":[],"categories_nodes":[],"categories_segments":[],"categories_sizes":[],"default_left":[0,0,0,0,0,0,0,0,0,0,0,0,0,0,0,0,0,0,0,0,0,0,0,0,0,0,0,0,0],"id":34,"left_children":[1,3,5,7,9,11,13,15,17,19,21,-1,23,25,27,-1,-1,-1,-1,-1,-1,-1,-1,-1,-1,-1,-1,-1,-1],"loss_changes":[6.0703815E1,6.754001E1,9.0708305E1,5.8624985E1,6.033703E1,1.8321033E1,9.561563E1,1.5418501E1,3.5983177E1,1.6722412E0,2.8007507E0,0E0,9.2457664E1,6.2884544E1,2.959068E1,0E0,0E0,0E0,0E0,0E0,0E0,0E0,0E0,0E0,0E0,0E0,0E0,0E0,0E0],"parents":[2147483647,0,0,1,1,2,2,3,3,4,4,5,5,6,6,7,7,8,8,9,9,10,10,12,12,13,13,14,14],"right_children":[2,4,6,8,10,12,14,16,18,20,22,-1,24,26,28,-1,-1,-1,-1,-1,-1,-1,-1,-1,-1,-1,-1,-1,-1],"split_conditions":[8E0,5E0,2E0,5E0,5E0,9E0,2E1,3E0,7E0,7E0,6E0,2.7072236E-2,1E1,7E0,5E0,-3.8273137E-2,6.788087E-4,1.19099215E-1,1.978868E-2,-2.0977495E-2,-3.6582787E-2,-7.474812E-2,-1.2167591E-1,-1.7936197E-1,-2.33295E-2,2.95403E-2,-8.653311E-2,-3.587798E-2,1.5894972E-2],"split_indices":[1,0,0,1,1,1,1,1,1,0,1,0,1,0,0,0,0,0,0,0,0,0,0,0,0,0,0,0,0],"split_type":[0,0,0,0,0,0,0,0,0,0,0,0,0,0,0,0,0,0,0,0,0,0,0,0,0,0,0,0,0],"sum_hessian":[3.842E3,1.001E3,2.841E3,5.97E2,4.04E2,4.9E2,2.351E3,4.11E2,1.86E2,2.88E2,1.16E2,4.7E1,4.43E2,1.807E3,5.44E2,2.29E2,1.82E2,4.9E1,1.37E2,1.57E2,1.31E2,2.2E1,9.4E1,4.1E1,4.02E2,1.76E3,4.7E1,3.91E2,1.53E2],"tree_param":{"num_deleted":"0","num_feature":"2","num_nodes":"29","size_leaf_vector":"1"}},{"base_weights":[-1.9783077E-3,3.233179E-2,-4.1023883E-1,-1.9249904E-1,1.2083795E-1,-6.072765E-1,-1.5784843E-1,2.7769964E-4,-4.7666693E-1,-2.4306735E-1,1.9328783E-1,-5.1880956E-1,-1.1385997E-1,1.5339527E-3,-4.9301937E-1,-1.896724E-2,4.1877594E-2,-2.537989E-2,-1.02309585E-1,-3.1717908E-2,3.712217E-2,2.1571238E-2,-7.806003E-2,-2.529831E-2,-6.397695E-2,-3.6864173E-2,-6.300594E-2],"categories":[],"categories_nodes":[],"categories_segments":[],"categories_sizes":[],"default_left":[0,0,0,0,0,0,0,0,0,0,0,0,0,0,0,0,0,0,0,0,0,0,0,0,0,0,0],"id":35,"left_children":[1,3,5,7,9,11,13,15,17,19,21,23,-1,-1,25,-1,-1,-1,-1,-1,-1,-1,-1,-1,-1,-1,-1],"loss_changes":[5.3843925E1,7.05848E1,1.4723808E1,5.489065E1,6.7145645E1,7.259037E0,7.669842E0,4.7616707E1,4.906186E1,1.9375254E1,4.653257E1,4.500534E0,0E0,0E0,5.3474426E-1,0E0,0E0,0E0,0E0,0E0,0E0,0E0,0E0,0E0,0E0,0E0,0E0],"parents":[2147483647,0,0,1,1,2,2,3,3,4,4,5,5,6,6,7,7,8,8,9,9,10,10,11,11,14,14],"right_children":[2,4,6,8,10,12,14,16,18,20,22,24,-1,-1,26,-1,-1,-1,-1,-1,-1,-1,-1,-1,-1,-1,-1],"split_conditions":[2.2E1,8E0,4E0,5E0,2E0,2.3E1,2.3E1,5E0,5E0,2.1E1,7E0,2E0,-1.1385997E-1,1.5339527E-3,5E0,-1.896724E-2,4.1877594E-2,-2.537989E-2,-1.02309585E-1,-3.1717908E-2,3.712217E-2,2.1571238E-2,-7.806003E-2,-2.529831E-2,-6.397695E-2,-3.6864173E-2,-6.300594E-2],"split_indices":[1,1,0,0,0,1,1,1,1,1,0,0,0,0,0,0,0,0,0,0,0,0,0,0,0,0,0],"split_type":[0,0,0,0,0,0,0,0,0,0,0,0,0,0,0,0,0,0,0,0,0,0,0,0,0,0,0],"sum_hessian":[3.842E3,3.545E3,2.97E2,1.001E3,2.544E3,1.66E2,1.31E2,5.97E2,4.04E2,4.22E2,2.122E3,1.44E2,2.2E1,8.7E1,4.4E1,4.11E2,1.86E2,2.88E2,1.16E2,3.77E2,4.5E1,2.075E3,4.7E1,4.6E1,9.8E1,2.5E1,1.9E1],"tree_param":{"num_deleted":"0","num_feature":"2","num_nodes":"27","size_leaf_vector":"1"}},{"base_weights":[-1.8999048E-3,2.9054187E-2,-3.7022644E-1,-1.733539E-1,1.087335E-1,-5.4776525E-1,-1.428082E-1,2.8811212E-4,-4.2931578E-1,-2.1874818E-1,1.739318E-1,-4.6754432E-1,-1.0296901E-1,1.3823444E-3,-4.4593656E-1,-3.257399E-2,2.0350263E-2,-2.2850709E-2,-9.216611E-2,-6.0072858E-2,-1.1661385E-2,1.9415088E-2,-7.0416644E-2,-2.2822304E-2,-5.764388E-2,-3.3319537E-2,-5.7020333E-2],"categories":[],"categories_nodes":[],"categories_segments":[],"categories_sizes":[],"default_left":[0,0,0,0,0,0,0,0,0,0,0,0,0,0,0,0,0,0,0,0,0,0,0,0,0,0,0],"id":36,"left_children":[1,3,5,7,9,11,13,15,17,19,21,23,-1,-1,25,-1,-1,-1,-1,-1,-1,-1,-1,-1,-1,-1,-1],"loss_changes":[4.3825623E1,5.72078E1,1.1953693E1,4.4534756E1,5.4376984E1,5.9748726E0,6.2734575E0,3.9685955E1,3.983062E1,1.6432579E1,3.7829155E1,3.647255E0,0E0,0E0,4.404602E-1,0E0,0E0,0E0,0E0,0E0,0E0,0E0,0E0,0E0,0E0,0E0,0E0],"parents":[2147483647,0,0,1,1,2,2,3,3,4,4,5,5,6,6,7,7,8,8,9,9,10,10,11,11,14,14],"right_children":[2,4,6,8,10,12,14,16,18,20,22,24,-1,-1,26,-1,-1,-1,-1,-1,-1,-1,-1,-1,-1,-1,-1],"split_conditions":[2.2E1,8E0,4E0,5E0,2E0,2.3E1,2.3E1,3E0,5E0,1E1,7E0,2E0,-1.0296901E-1,1.3823444E-3,5E0,-3.257399E-2,2.0350263E-2,-2.2850709E-2,-9.216611E-2,-6.0072858E-2,-1.1661385E-2,1.9415088E-2,-7.0416644E-2,-2.2822304E-2,-5.764388E-2,-3.3319537E-2,-5.7020333E-2],"split_indices":[1,1,0,0,0,1,1,1,1,1,0,0,0,0,0,0,0,0,0,0,0,0,0,0,0,0,0],"split_type":[0,0,0,0,0,0,0,0,0,0,0,0,0,0,0,0,0,0,0,0,0,0,0,0,0,0,0],"sum_hessian":[3.842E3,3.545E3,2.97E2,1.001E3,2.544E3,1.66E2,1.31E2,5.97E2,4.04E2,4.22E2,2.122E3,1.44E2,2.2E1,8.7E1,4.4E1,2.29E2,3.68E2,2.88E2,1.16E2,8.8E1,3.34E2,2.075E3,4.7E1,4.6E1,9.8E1,2.5E1,1.9E1],"tree_param":{"num_deleted":"0","num_feature":"2","num_nodes":"27","size_leaf_vector":"1"}},{"base_weights":[-1.845707E-3,2.6078407E-2,-3.341177E-1,-8.388406E-2,1.4854191E-1,-4.940871E-1,-1.2920101E-1,-3.6257703E-2,-9.350194E-1,4.2516023E-1,-5.8284827E-2,-4.2134476E-1,-9.311982E-2,1.245722E-3,-4.033504E-1,-1.5614537E-2,1.1979905E-2,-1.6637228E-1,1.545206E-1,8.770295E-2,-7.6985653E-3,1.1019445E-3,-7.374348E-2,-2.0588612E-2,-5.1937718E-2,-3.0115727E-2,-5.1603403E-2],"categories":[],"categories_nodes":[],"categories_segments":[],"categories_sizes":[],"default_left":[0,0,0,0,0,0,0,0,0,0,0,0,0,0,0,0,0,0,0,0,0,0,0,0,0,0,0],"id":37,"left_children":[1,3,5,7,9,11,13,15,17,19,21,23,-1,-1,25,-1,-1,-1,-1,-1,-1,-1,-1,-1,-1,-1,-1],"loss_changes":[3.5665607E1,4.7764275E1,9.704727E0,7.572877E1,9.602663E1,4.917656E0,5.1313133E0,3.315284E1,1.8149832E2,1.629848E2,4.524047E1,2.9557476E0,0E0,0E0,3.627901E-1,0E0,0E0,0E0,0E0,0E0,0E0,0E0,0E0,0E0,0E0,0E0,0E0],"parents":[2147483647,0,0,1,1,2,2,3,3,4,4,5,5,6,6,7,7,8,8,9,9,10,10,11,11,14,14],"right_children":[2,4,6,8,10,12,14,16,18,20,22,24,-1,-1,26,-1,-1,-1,-1,-1,-1,-1,-1,-1,-1,-1,-1],"split_conditions":[2.2E1,1.3E1,4E0,1.2E1,1.7E1,2.3E1,2.3E1,8E0,6E0,5E0,6E0,2E0,-9.311982E-2,1.245722E-3,5E0,-1.5614537E-2,1.1979905E-2,-1.6637228E-1,1.545206E-1,8.770295E-2,-7.6985653E-3,1.1019445E-3,-7.374348E-2,-2.0588612E-2,-5.1937718E-2,-3.0115727E-2,-5.1603403E-2],"split_indices":[1,1,0,1,1,1,1,1,0,0,0,0,0,0,0,0,0,0,0,0,0,0,0,0,0,0,0],"split_type":[0,0,0,0,0,0,0,0,0,0,0,0,0,0,0,0,0,0,0,0,0,0,0,0,0,0,0],"sum_hessian":[3.842E3,3.545E3,2.97E2,1.868E3,1.677E3,1.66E2,1.31E2,1.77E3,9.8E1,7.17E2,9.6E2,1.44E2,2.2E1,8.7E1,4.4E1,1.001E3,7.69E2,7.6E1,2.2E1,3.77E2,3.4E2,8.72E2,8.8E1,4.6E1,9.8E1,2.5E1,1.9E1],"tree_param":{"num_deleted":"0","num_feature":"2","num_nodes":"27","size_leaf_vector":"1"}},{"base_weights":[-1.7273413E-3,2.3468215E-2,-3.0153176E-1,-7.550384E-2,1.3369188E-1,-5.048276E-1,-1.6355951E-1,-3.263389E-2,-8.4163696E-1,3.82755E-1,-5.253186E-2,-4.205142E-1,-8.42127E-2,-9.5257364E-2,-3.648313E-1,-1.4054614E-2,1.0783456E-2,-1.4995112E-1,1.3974042E-1,7.8955784E-2,-6.9310167E-3,9.918809E-4,-6.645196E-2,-1.8573565E-2,-6.2463105E-2,-2.884923E-2,1.1225983E-3,-2.7219957E-2,-4.67011E-2],"categories":[],"categories_nodes":[],"categories_segments":[],"categories_sizes":[],"default_left":[0,0,0,0,0,0,0,0,0,0,0,0,0,0,0,0,0,0,0,0,0,0,0,0,0,0,0,0,0],"id":38,"left_children":[1,3,5,7,9,11,13,15,17,19,21,23,-1,25,27,-1,-1,-1,-1,-1,-1,-1,-1,-1,-1,-1,-1,-1,-1],"loss_changes":[2.9036095E1,3.869363E1,8.276089E0,6.135814E1,7.7848206E1,3.0585346E0,2.4260125E0,2.6860447E1,1.4792316E2,1.3209592E2,3.673509E1,4.580366E0,0E0,2.7810395E0,2.9880905E-1,0E0,0E0,0E0,0E0,0E0,0E0,0E0,0E0,0E0,0E0,0E0,0E0,0E0,0E0],"parents":[2147483647,0,0,1,1,2,2,3,3,4,4,5,5,6,6,7,7,8,8,9,9,10,10,11,11,13,13,14,14],"right_children":[2,4,6,8,10,12,14,16,18,20,22,24,-1,26,28,-1,-1,-1,-1,-1,-1,-1,-1,-1,-1,-1,-1,-1,-1],"split_conditions":[2.2E1,1.3E1,3E0,1.2E1,1.7E1,2.3E1,2.3E1,8E0,6E0,5E0,6E0,2E0,-8.42127E-2,4E0,5E0,-1.4054614E-2,1.0783456E-2,-1.4995112E-1,1.3974042E-1,7.8955784E-2,-6.9310167E-3,9.918809E-4,-6.645196E-2,-1.8573565E-2,-6.2463105E-2,-2.884923E-2,1.1225983E-3,-2.7219957E-2,-4.67011E-2],"split_indices":[1,1,0,1,1,1,1,1,0,0,0,0,0,0,0,0,0,0,0,0,0,0,0,0,0,0,0,0,0],"split_type":[0,0,0,0,0,0,0,0,0,0,0,0,0,0,0,0,0,0,0,0,0,0,0,0,0,0,0,0,0],"sum_hessian":[3.842E3,3.545E3,2.97E2,1.868E3,1.677E3,1.19E2,1.78E2,1.77E3,9.8E1,7.17E2,9.6E2,9.7E1,2.2E1,1.34E2,4.4E1,1.001E3,7.69E2,7.6E1,2.2E1,3.77E2,3.4E2,8.72E2,8.8E1,4.6E1,5.1E1,4.7E1,8.7E1,2.5E1,1.9E1],"tree_param":{"num_deleted":"0","num_feature":"2","num_nodes":"29","size_leaf_vector":"1"}},{"base_weights":[-1.6259496E-3,1.5990134E-2,-3.6230373E-1,5.8451686E-2,-1.6981816E-1,-2.5582989E-3,-7.5145566E-1,-2.3358911E-1,9.936862E-2,-2.6039663E-1,1.4242749E-1,-8.558481E-2,-6.57506E-2,-1.9521283E-2,-3.9650097E-2,-9.612049E-3,1.3729793E-2,-2.3617612E-2,-4.9818616E-2,3.149381E-2,-1.3308808E-2],"categories":[],"categories_nodes":[],"categories_segments":[],"categories_sizes":[],"default_left":[0,0,0,0,0,0,0,0,0,0,0,0,0,0,0,0,0,0,0,0,0],"id":39,"left_children":[1,3,5,7,9,-1,11,13,15,17,19,-1,-1,-1,-1,-1,-1,-1,-1,-1,-1],"loss_changes":[2.4423178E1,2.8925709E1,2.3436134E1,3.568026E1,1.9325912E1,0E0,2.5130844E-1,2.217064E0,1.9425053E1,2.929058E0,7.361435E0,0E0,0E0,0E0,0E0,0E0,0E0,0E0,0E0,0E0,0E0],"parents":[2147483647,0,0,1,1,2,2,3,3,4,4,6,6,7,7,8,8,9,9,10,10],"right_children":[2,4,6,8,10,-1,12,14,16,18,20,-1,-1,-1,-1,-1,-1,-1,-1,-1,-1],"split_conditions":[7E0,2E1,3E0,4E0,5E0,-2.5582989E-3,5E0,6E0,2E0,2.3E1,2.2E1,-8.558481E-2,-6.57506E-2,-1.9521283E-2,-3.9650097E-2,-9.612049E-3,1.3729793E-2,-2.3617612E-2,-4.9818616E-2,3.149381E-2,-1.3308808E-2],"split_indices":[0,1,1,1,0,0,1,0,0,1,1,0,0,0,0,0,0,0,0,0,0],"split_type":[0,0,0,0,0,0,0,0,0,0,0,0,0,0,0,0,0,0,0,0,0],"sum_hessian":[3.842E3,3.664E3,1.78E2,2.983E3,6.81E2,9.6E1,8.2E1,3.66E2,2.617E3,5.28E2,1.53E2,3.5E1,4.7E1,2.98E2,6.8E1,4.25E2,2.192E3,4.81E2,4.7E1,9.4E1,5.9E1],"tree_param":{"num_deleted":"0","num_feature":"2","num_nodes":"21","size_leaf_vector":"1"}},{"base_weights":[-1.5318767E-3,1.436127E-2,-3.2693326E-1,6.682248E-2,-1.12596504E-1,-2.3051153E-3,-6.7813367E-1,-3.9331008E-2,2.6531664E-1,-3.5009742E-1,1.4882836E-1,-7.726406E-2,-5.9312563E-2,-1.5013064E-2,3.7511397E-2,7.086753E-2,-2.3604214E-2,-1.3249116E-1,-1.7361082E-2,2.8593669E-2,-1.21083535E-1],"categories":[],"categories_nodes":[],"categories_segments":[],"categories_sizes":[],"default_left":[0,0,0,0,0,0,0,0,0,0,0,0,0,0,0,0,0,0,0,0,0],"id":40,"left_children":[1,3,5,7,9,-1,11,13,15,17,19,-1,-1,-1,-1,-1,-1,-1,-1,-1,-1],"loss_changes":[1.9879354E1,2.4417738E1,1.908788E1,5.4668213E1,6.661112E1,0E0,2.0853806E-1,7.770764E1,2.0110999E2,9.6457375E1,9.560747E1,0E0,0E0,0E0,0E0,0E0,0E0,0E0,0E0,0E0,0E0],"parents":[2147483647,0,0,1,1,2,2,3,3,4,4,6,6,7,7,8,8,9,9,10,10],"right_children":[2,4,6,8,10,-1,12,14,16,18,20,-1,-1,-1,-1,-1,-1,-1,-1,-1,-1],"split_conditions":[7E0,1.8E1,3E0,1.3E1,4E0,-2.3051153E-3,5E0,6E0,5E0,1.9E1,6E0,-7.726406E-2,-5.9312563E-2,-1.5013064E-2,3.7511397E-2,7.086753E-2,-2.3604214E-2,-1.3249116E-1,-1.7361082E-2,2.8593669E-2,-1.21083535E-1],"split_indices":[0,1,1,1,0,0,1,0,0,1,0,0,0,0,0,0,0,0,0,0,0],"split_type":[0,0,0,0,0,0,0,0,0,0,0,0,0,0,0,0,0,0,0,0,0],"sum_hessian":[3.842E3,3.664E3,1.78E2,2.593E3,1.071E3,9.6E1,8.2E1,1.69E3,9.03E2,5.61E2,5.1E2,3.5E1,4.7E1,1.334E3,3.56E2,4.79E2,4.24E2,8.5E1,4.76E2,4.64E2,4.6E1],"tree_param":{"num_deleted":"0","num_feature":"2","num_nodes":"21","size_leaf_vector":"1"}},{"base_weights":[-1.4599503E-3,1.9388983E-2,-2.4954335E-1,-6.026947E-2,1.0810308E-1,-4.102812E-1,-1.4039204E-1,-2.097726E-2,-7.6255465E-1,3.076644E-1,-4.1109327E-2,-3.3872917E-1,-6.973168E-2,-7.7931784E-2,-3.24653E-1,-1.1138683E-2,9.669984E-3,-1.343268E-1,1.2147268E-1,6.318092E-2,-5.255381E-3,9.662473E-4,-5.3866744E-2,-1.274505E-2,-5.2317858E-2,-2.2011902E-2,5.1047584E-5,-2.2561807E-2,-4.3716576E-2],"categories":[],"categories_nodes":[],"categories_segments":[],"categories_sizes":[],"default_left":[0,0,0,0,0,0,0,0,0,0,0,0,0,0,0,0,0,0,0,0,0,0,0,0,0,0,0,0,0],"id":41,"left_children":[1,3,5,7,9,11,13,15,17,19,21,23,-1,25,27,-1,-1,-1,-1,-1,-1,-1,-1,-1,-1,-1,-1,-1,-1],"loss_changes":[1.9881887E1,2.5065489E1,5.1707344E0,5.1557816E1,4.9978493E1,2.2283573E0,2.034808E0,1.8852678E1,1.1530682E2,8.3868935E1,2.4281914E1,3.7524023E0,0E0,1.5058331E0,4.0278864E-1,0E0,0E0,0E0,0E0,0E0,0E0,0E0,0E0,0E0,0E0,0E0,0E0,0E0,0E0],"parents":[2147483647,0,0,1,1,2,2,3,3,4,4,5,5,6,6,7,7,8,8,9,9,10,10,11,11,13,13,14,14],"right_children":[2,4,6,8,10,12,14,16,18,20,22,24,-1,26,28,-1,-1,-1,-1,-1,-1,-1,-1,-1,-1,-1,-1,-1,-1],"split_conditions":[2.2E1,1.3E1,3E0,1.2E1,1.7E1,2.3E1,2.3E1,8E0,6E0,5E0,6E0,2E0,-6.973168E-2,4E0,5E0,-1.1138683E-2,9.669984E-3,-1.343268E-1,1.2147268E-1,6.318092E-2,-5.255381E-3,9.662473E-4,-5.3866744E-2,-1.274505E-2,-5.2317858E-2,-2.2011902E-2,5.1047584E-5,-2.2561807E-2,-4.3716576E-2],"split_indices":[1,1,0,1,1,1,1,1,0,0,0,0,0,0,0,0,0,0,0,0,0,0,0,0,0,0,0,0,0],"split_type":[0,0,0,0,0,0,0,0,0,0,0,0,0,0,0,0,0,0,0,0,0,0,0,0,0,0,0,0,0],"sum_hessian":[3.842E3,3.545E3,2.97E2,1.868E3,1.677E3,1.19E2,1.78E2,1.77E3,9.8E1,7.17E2,9.6E2,9.7E1,2.2E1,1.34E2,4.4E1,1.001E3,7.69E2,7.6E1,2.2E1,3.77E2,3.4E2,8.72E2,8.8E1,4.6E1,5.1E1,4.7E1,8.7E1,2.5E1,1.9E1],"tree_param":{"num_deleted":"0","num_feature":"2","num_nodes":"29","size_leaf_vector":"1"}},{"base_weights":[-1.3745071E-3,2.9696062E-2,-1.4542696E-1,-5.4250203E-2,1.5092163E-1,-2.1796337E-1,1.046847E-1,-1.888038E-2,-6.864291E-1,3.2907575E-1,-9.452152E-2,-1.9812535E-1,-4.1262937E-1,1.7803071E-1,-3.9563514E-2,-1.7294977E-2,3.8047011E-3,-1.2106855E-1,1.098535E-1,4.891988E-3,1.0888604E-1,-1.6051365E-2,1.3447456E-1,-2.894366E-3,-2.5105981E-2,-6.30617E-2,-2.039238E-2,-1.4653568E-2,3.7067607E-2],"categories":[],"categories_nodes":[],"categories_segments":[],"categories_sizes":[],"default_left":[0,0,0,0,0,0,0,0,0,0,0,0,0,0,0,0,0,0,0,0,0,0,0,0,0,0,0,0,0],"id":42,"left_children":[1,3,5,7,9,11,13,15,17,19,21,23,25,27,-1,-1,-1,-1,-1,-1,-1,-1,-1,-1,-1,-1,-1,-1,-1],"loss_changes":[1.7204784E1,3.218607E1,1.2395802E1,4.1777985E1,5.661347E1,1.961134E0,5.721691E0,1.5539611E1,9.397208E1,1.5959033E2,5.198011E1,4.309307E0,2.055173E0,8.495356E0,0E0,0E0,0E0,0E0,0E0,0E0,0E0,0E0,0E0,0E0,0E0,0E0,0E0,0E0,0E0],"parents":[2147483647,0,0,1,1,2,2,3,3,4,4,5,5,6,6,7,7,8,8,9,9,10,10,11,11,12,12,13,13],"right_children":[2,4,6,8,10,12,14,16,18,20,22,24,26,28,-1,-1,-1,-1,-1,-1,-1,-1,-1,-1,-1,-1,-1,-1,-1],"split_conditions":[2E1,1.3E1,5E0,1.2E1,5E0,2.3E1,2.3E1,4E0,6E0,4E0,1.9E1,2E0,2E0,2.1E1,-3.9563514E-2,-1.7294977E-2,3.8047011E-3,-1.2106855E-1,1.098535E-1,4.891988E-3,1.0888604E-1,-1.6051365E-2,1.3447456E-1,-2.894366E-3,-2.5105981E-2,-6.30617E-2,-2.039238E-2,-1.4653568E-2,3.7067607E-2],"split_indices":[1,1,0,1,0,1,1,1,0,0,1,0,0,1,0,0,0,0,0,0,0,0,0,0,0,0,0,0,0],"split_type":[0,0,0,0,0,0,0,0,0,0,0,0,0,0,0,0,0,0,0,0,0,0,0,0,0,0,0,0,0],"sum_hessian":[3.842E3,3.161E3,6.81E2,1.868E3,1.293E3,5.28E2,1.53E2,1.77E3,9.8E1,7.49E2,5.44E2,4.81E2,4.7E1,1.34E2,1.9E1,4.77E2,1.293E3,7.6E1,2.2E1,5.48E2,2.01E2,5.21E2,2.3E1,1.15E2,3.66E2,2.2E1,2.5E1,5E1,8.4E1],"tree_param":{"num_deleted":"0","num_feature":"2","num_nodes":"29","size_leaf_vector":"1"}},{"base_weights":[-1.216619E-3,1.2404606E-2,-2.801025E-1,5.083684E-2,-1.16310224E-1,7.370782E-4,-6.1269052E-2,-2.4329493E-2,1.6297756E-1,-2.124777E-1,2.4674073E-1,-1.171991E-2,3.230242E-2,4.2496484E-2,-1.44492155E-2,-1.2891734E-2,-4.200474E-2,1.2158737E-1,9.41048E-3],"categories":[],"categories_nodes":[],"categories_segments":[],"categories_sizes":[],"default_left":[0,0,0,0,0,0,0,0,0,0,0,0,0,0,0,0,0,0,0],"id":43,"left_children":[1,3,5,7,9,-1,-1,11,13,15,17,-1,-1,-1,-1,-1,-1,-1,-1],"loss_changes":[1.4602136E1,1.813593E1,1.7118736E1,2.3799614E1,2.948467E1,0E0,0E0,5.4587154E1,9.1328125E1,1.1514696E1,2.606822E1,0E0,0E0,0E0,0E0,0E0,0E0,0E0,0E0],"parents":[2147483647,0,0,1,1,2,2,3,3,4,4,7,7,8,8,9,9,10,10],"right_children":[2,4,6,8,10,-1,-1,12,14,16,18,-1,-1,-1,-1,-1,-1,-1,-1],"split_conditions":[7E0,1.9E1,3E0,1.3E1,5E0,7.370782E-4,-6.1269052E-2,6E0,5E0,4E0,2E1,-1.171991E-2,3.230242E-2,4.2496484E-2,-1.44492155E-2,-1.2891734E-2,-4.200474E-2,1.2158737E-1,9.41048E-3],"split_indices":[0,1,1,1,0,0,0,0,0,0,1,0,0,0,0,0,0,0,0],"split_type":[0,0,0,0,0,0,0,0,0,0,0,0,0,0,0,0,0,0,0],"sum_hessian":[3.842E3,3.664E3,1.78E2,2.822E3,8.42E2,9.6E1,8.2E1,1.69E3,1.132E3,6.66E2,1.76E2,1.334E3,3.56E2,6.11E2,5.21E2,4.76E2,1.9E2,2.3E1,1.53E2],"tree_param":{"num_deleted":"0","num_feature":"2","num_nodes":"19","size_leaf_vector":"1"}},{"base_weights":[-1.0778966E-3,-1.5120518E-1,2.0241749E-2,-7.843907E-2,-1.7457138E-1,3.171584E-2,-5.3671815E-2,9.575605E-3,-1.2393311E-1,-4.514817E-2,-1.337092E-1,1.01339094E-1,-8.132263E-2,-1.8170001E-2,3.413802E-3,-1.035825E-2,-3.6515087E-2,3.2207053E-3,3.698516E-2,-3.2370746E-2,-2.1784783E-3],"categories":[],"categories_nodes":[],"categories_segments":[],"categories_sizes":[],"default_left":[0,0,0,0,0,0,0,0,0,0,0,0,0,0,0,0,0,0,0,0,0],"id":44,"left_children":[1,3,5,7,9,11,-1,-1,13,-1,15,17,19,-1,-1,-1,-1,-1,-1,-1,-1],"loss_changes":[1.2303199E1,7.990341E-1,2.1527813E1,9.469983E-1,4.0244045E0,2.5971722E1,0E0,0E0,8.645432E-1,0E0,2.1655116E0,3.789336E1,1.8147236E1,0E0,0E0,0E0,0E0,0E0,0E0,0E0,0E0],"parents":[2147483647,0,0,1,1,2,2,3,3,4,4,5,5,8,8,10,10,11,11,12,12],"right_children":[2,4,6,8,10,12,-1,-1,14,-1,16,18,20,-1,-1,-1,-1,-1,-1,-1,-1],"split_conditions":[4E0,2E0,7E0,2E0,3E0,1.7E1,-5.3671815E-2,9.575605E-3,3E0,-4.514817E-2,3E0,1.5E1,2E0,-1.8170001E-2,3.413802E-3,-1.035825E-2,-3.6515087E-2,3.2207053E-3,3.698516E-2,-3.2370746E-2,-2.1784783E-3],"split_indices":[1,0,0,1,0,1,0,0,1,0,1,1,0,0,0,0,0,0,0,0,0],"split_type":[0,0,0,0,0,0,0,0,0,0,0,0,0,0,0,0,0,0,0,0,0],"sum_hessian":[3.842E3,4.77E2,3.365E3,1.17E2,3.6E2,3.298E3,6.7E1,2.4E1,9.3E1,4.5E1,3.15E2,2.041E3,1.257E3,6.8E1,2.5E1,2.8E2,3.5E1,1.624E3,4.17E2,2.47E2,1.01E3],"tree_param":{"num_deleted":"0","num_feature":"2","num_nodes":"21","size_leaf_vector":"1"}},{"base_weights":[-1.0082511E-3,1.43900225E-2,-1.84234E-1,-8.135365E-2,5.2079912E-2,-3.1498182E-1,-9.555256E-2,8.074103E-2,-3.2049257E-1,-2.197597E-1,1.06218435E-1,-2.218801E-1,-4.3246333E-2,-4.531738E-2,-2.4413474E-1,-6.8745464E-3,4.096592E-2,-1.4047915E-2,-9.064261E-2,-2.983128E-2,4.3051902E-2,3.3670556E-2,6.4671743E-3,-6.7844093E-3,-5.2700233E-2,-1.5922656E-2,1.7329867E-3,-1.4183228E-2,-3.649212E-2],"categories":[],"categories_nodes":[],"categories_segments":[],"categories_sizes":[],"default_left":[0,0,0,0,0,0,0,0,0,0,0,0,0,0,0,0,0,0,0,0,0,0,0,0,0,0,0,0,0],"id":45,"left_children":[1,3,5,7,9,11,13,15,17,19,21,23,-1,25,27,-1,-1,-1,-1,-1,-1,-1,-1,-1,-1,-1,-1,-1,-1],"loss_changes":[1.0845138E1,1.28002205E1,3.4251842E0,3.886655E1,3.7478096E1,1.2165718E0,1.3250018E0,2.9431122E1,4.2590412E1,2.1735855E1,2.0308031E1,3.207233E0,0E0,9.661324E-1,5.042963E-1,0E0,0E0,0E0,0E0,0E0,0E0,0E0,0E0,0E0,0E0,0E0,0E0,0E0,0E0],"parents":[2147483647,0,0,1,1,2,2,3,3,4,4,5,5,6,6,7,7,8,8,9,9,10,10,11,11,13,13,14,14],"right_children":[2,4,6,8,10,12,14,16,18,20,22,24,-1,26,28,-1,-1,-1,-1,-1,-1,-1,-1,-1,-1,-1,-1,-1,-1],"split_conditions":[2.2E1,8E0,3E0,5E0,2E0,2E0,2.3E1,5E0,6E0,2.1E1,1E1,2.3E1,-4.3246333E-2,4E0,5E0,-6.8745464E-3,4.096592E-2,-1.4047915E-2,-9.064261E-2,-2.983128E-2,4.3051902E-2,3.3670556E-2,6.4671743E-3,-6.7844093E-3,-5.2700233E-2,-1.5922656E-2,1.7329867E-3,-1.4183228E-2,-3.649212E-2],"split_indices":[1,1,0,0,0,0,1,1,1,1,1,1,0,0,0,0,0,0,0,0,0,0,0,0,0,0,0,0,0],"split_type":[0,0,0,0,0,0,0,0,0,0,0,0,0,0,0,0,0,0,0,0,0,0,0,0,0,0,0,0,0],"sum_hessian":[3.842E3,3.545E3,2.97E2,1.001E3,2.544E3,1.19E2,1.78E2,5.97E2,4.04E2,4.22E2,2.122E3,6.8E1,5.1E1,1.34E2,4.4E1,4.11E2,1.86E2,3.1E2,9.4E1,3.77E2,4.5E1,3.23E2,1.799E3,4.6E1,2.2E1,4.7E1,8.7E1,2.5E1,1.9E1],"tree_param":{"num_deleted":"0","num_feature":"2","num_nodes":"29","size_leaf_vector":"1"}},{"base_weights":[-9.5575943E-4,2.9854365E-2,-8.062433E-2,-2.4295714E-2,2.2426109E-1,-3.7791006E-2,-1.0139512E-1,9.216007E-3,-7.560065E-1,4.7383282E-1,-9.464521E-2,-2.6863506E-1,2.4128889E-1,-4.0866793E-3,4.6136837E-2,-1.0491856E-1,-4.3426644E-2,1.4853817E-2,2.0150864E-1,6.2069386E-2,-6.270244E-2,-1.2282103E-1,-9.506671E-3,1.462991E-1,-8.892852E-3],"categories":[],"categories_nodes":[],"categories_segments":[],"categories_sizes":[],"default_left":[0,0,0,0,0,0,0,0,0,0,0,0,0,0,0,0,0,0,0,0,0,0,0,0,0],"id":46,"left_children":[1,3,5,7,9,11,-1,13,15,17,19,21,23,-1,-1,-1,-1,-1,-1,-1,-1,-1,-1,-1,-1],"loss_changes":[9.435429E0,2.918668E1,4.281756E1,5.3192776E1,4.8117207E1,6.616377E1,0E0,4.7007347E1,8.505482E0,1.6966225E2,1.0169039E2,9.348541E1,1.877238E2,0E0,0E0,0E0,0E0,0E0,0E0,0E0,0E0,0E0,0E0,0E0,0E0],"parents":[2147483647,0,0,1,1,2,2,3,3,4,4,5,5,7,7,8,8,9,9,10,10,11,11,12,12],"right_children":[2,4,6,8,10,12,-1,14,16,18,20,22,24,-1,-1,-1,-1,-1,-1,-1,-1,-1,-1,-1,-1],"split_conditions":[1.8E1,1.5E1,6E0,1.4E1,5E0,4E0,-1.0139512E-1,1.3E1,6E0,4E0,1.6E1,1.9E1,1.9E1,-4.0866793E-3,4.6136837E-2,-1.0491856E-1,-4.3426644E-2,1.4853817E-2,2.0150864E-1,6.2069386E-2,-6.270244E-2,-1.2282103E-1,-9.506671E-3,1.462991E-1,-8.892852E-3],"split_indices":[1,1,0,1,0,0,0,1,0,0,1,1,1,0,0,0,0,0,0,0,0,0,0,0,0],"split_type":[0,0,0,0,0,0,0,0,0,0,0,0,0,0,0,0,0,0,0,0,0,0,0,0,0],"sum_hessian":[3.842E3,2.771E3,1.071E3,2.168E3,6.03E2,1.025E3,4.6E1,2.074E3,9.4E1,3.38E2,2.65E2,5.61E2,4.64E2,1.868E3,2.06E2,4.8E1,4.6E1,2.8E2,5.8E1,1.13E2,1.52E2,8.5E1,4.76E2,9.8E1,3.66E2],"tree_param":{"num_deleted":"0","num_feature":"2","num_nodes":"25","size_leaf_vector":"1"}},{"base_weights":[-8.5665233E-4,9.7597875E-3,-2.1822199E-1,-1.4372205E-2,1.2738761E-1,3.484038E-3,-5.113404E-2,-1.02602765E-1,5.4598622E-2,3.233287E-1,-7.6154363E-1,-4.309218E-3,-1.0743071E-1,1.8875076E-2,-8.327841E-3,-3.4498584E-2,5.757723E-2,-2.0983088E-1,-3.774912E-2],"categories":[],"categories_nodes":[],"categories_segments":[],"categories_sizes":[],"default_left":[0,0,0,0,0,0,0,0,0,0,0,0,0,0,0,0,0,0,0],"id":47,"left_children":[1,3,5,7,9,-1,-1,11,13,15,17,-1,-1,-1,-1,-1,-1,-1,-1],"loss_changes":[8.870414E0,1.0405276E1,1.3295542E1,1.8517189E1,1.0893341E2,0E0,0E0,7.715234E1,3.1607735E1,8.657904E1,5.722075E1,0E0,0E0,0E0,0E0,0E0,0E0,0E0,0E0],"parents":[2147483647,0,0,1,1,2,2,3,3,4,4,7,7,8,8,9,9,10,10],"right_children":[2,4,6,8,10,-1,-1,12,14,16,18,-1,-1,-1,-1,-1,-1,-1,-1],"split_conditions":[7E0,6E0,3E0,1.3E1,1.6E1,3.484038E-3,-5.113404E-2,1.2E1,1.9E1,7E0,1.7E1,-4.309218E-3,-1.0743071E-1,1.8875076E-2,-8.327841E-3,-3.4498584E-2,5.757723E-2,-2.0983088E-1,-3.774912E-2],"split_indices":[0,0,1,1,1,0,0,1,1,1,1,0,0,0,0,0,0,0,0],"split_type":[0,0,0,0,0,0,0,0,0,0,0,0,0,0,0,0,0,0,0],"sum_hessian":[3.842E3,3.664E3,1.78E2,3.041E3,6.23E2,9.6E1,8.2E1,1.334E3,1.707E3,5.11E2,1.12E2,1.258E3,7.6E1,8.65E2,8.42E2,1.4E2,3.71E2,2.4E1,8.8E1],"tree_param":{"num_deleted":"0","num_feature":"2","num_nodes":"19","size_leaf_vector":"1"}},{"base_weights":[-8.68293E-4,8.694784E-3,-1.966661E-1,-1.512678E-1,2.409528E-2,3.1392023E-3,-4.608224E-2,-1.02440245E-1,-4.212164E-1,7.373808E-2,-5.8280423E-2,-1.5685081E-2,1.7793467E-2,-1.3460742E-2,-7.141588E-2,2.2174183E-3,2.7957058E-2,-2.5958765E-2,-8.8417775E-4],"categories":[],"categories_nodes":[],"categories_segments":[],"categories_sizes":[],"default_left":[0,0,0,0,0,0,0,0,0,0,0,0,0,0,0,0,0,0,0],"id":48,"left_children":[1,3,5,7,9,-1,-1,11,13,15,17,-1,-1,-1,-1,-1,-1,-1,-1],"loss_changes":[7.197457E0,9.032385E0,1.079796E1,4.201109E0,1.367912E1,0E0,0E0,4.207877E0,4.017905E0,2.214423E1,1.2517769E1,0E0,0E0,0E0,0E0,0E0,0E0,0E0,0E0],"parents":[2147483647,0,0,1,1,2,2,3,3,4,4,7,7,8,8,9,9,10,10],"right_children":[2,4,6,8,10,-1,-1,12,14,16,18,-1,-1,-1,-1,-1,-1,-1,-1],"split_conditions":[7E0,3E0,3E0,6E0,1.7E1,3.1392023E-3,-4.608224E-2,5E0,1E0,1.5E1,2E0,-1.5685081E-2,1.7793467E-2,-1.3460742E-2,-7.141588E-2,2.2174183E-3,2.7957058E-2,-2.5958765E-2,-8.8417775E-4],"split_indices":[0,1,1,0,1,0,0,0,1,1,0,0,0,0,0,0,0,0,0],"split_type":[0,0,0,0,0,0,0,0,0,0,0,0,0,0,0,0,0,0,0],"sum_hessian":[3.842E3,3.664E3,1.78E2,3.21E2,3.343E3,9.6E1,8.2E1,2.73E2,4.8E1,2.086E3,1.257E3,2.29E2,4.4E1,2.5E1,2.3E1,1.669E3,4.17E2,2.47E2,1.01E3],"tree_param":{"num_deleted":"0","num_feature":"2","num_nodes":"19","size_leaf_vector":"1"}},{"base_weights":[-8.1360736E-4,1.1073994E-2,-1.4226536E-1,-1.0288024E-1,2.881888E-2,-2.515682E-1,-6.819494E-2,-1.3670641E-1,-6.423701E-2,3.859434E-2,-4.031628E-2,-1.573957E-1,-3.7169002E-2,-2.2706386E-2,-2.0314518E-1,-7.7975276E-3,-3.8082696E-2,-3.910952E-3,-1.3115177E-2,1.0256333E-3,1.6324274E-2,-1.8342662E-3,-4.347043E-2,-1.2530698E-2,3.3515606E-3,-1.1078651E-2,-3.1305417E-2],"categories":[],"categories_nodes":[],"categories_segments":[],"categories_sizes":[],"default_left":[0,0,0,0,0,0,0,0,0,0,0,0,0,0,0,0,0,0,0,0,0,0,0,0,0,0,0],"id":49,"left_children":[1,3,5,7,9,11,13,15,17,19,-1,21,-1,23,25,-1,-1,-1,-1,-1,-1,-1,-1,-1,-1,-1,-1],"loss_changes":[6.463665E0,7.173349E0,2.395484E0,6.160369E-1,1.2975393E1,1.2989583E0,1.0942132E0,3.6120234E0,3.7318575E-1,1.0602253E1,0E0,2.6527083E0,0E0,7.82935E-1,4.2211497E-1,0E0,0E0,0E0,0E0,0E0,0E0,0E0,0E0,0E0,0E0,0E0,0E0],"parents":[2147483647,0,0,1,1,2,2,3,3,4,4,5,5,6,6,7,7,8,8,9,9,11,11,13,13,14,14],"right_children":[2,4,6,8,10,12,14,16,18,20,-1,22,-1,24,26,-1,-1,-1,-1,-1,-1,-1,-1,-1,-1,-1,-1],"split_conditions":[2.2E1,4E0,3E0,2E0,7E0,2E0,2.3E1,6E0,3E0,6E0,-4.031628E-2,2.3E1,-3.7169002E-2,4E0,5E0,-7.7975276E-3,-3.8082696E-2,-3.910952E-3,-1.3115177E-2,1.0256333E-3,1.6324274E-2,-1.8342662E-3,-4.347043E-2,-1.2530698E-2,3.3515606E-3,-1.1078651E-2,-3.1305417E-2],"split_indices":[1,1,0,1,0,0,1,0,1,0,0,1,0,0,0,0,0,0,0,0,0,0,0,0,0,0,0],"split_type":[0,0,0,0,0,0,0,0,0,0,0,0,0,0,0,0,0,0,0,0,0,0,0,0,0,0,0],"sum_hessian":[3.842E3,3.545E3,2.97E2,4.77E2,3.068E3,1.19E2,1.78E2,2.53E2,2.24E2,3.001E3,6.7E1,6.8E1,5.1E1,1.34E2,4.4E1,2.05E2,4.8E1,1.64E2,6E1,2.446E3,5.55E2,4.6E1,2.2E1,4.7E1,8.7E1,2.5E1,1.9E1],"tree_param":{"num_deleted":"0","num_feature":"2","num_nodes":"27","size_leaf_vector":"1"}}]},"name":"gbtree"},"learner_model_param":{"base_score":"[1.4187923E1]","boost_from_average":"1","num_class":"0","num_feature":"2","num_target":"1"},"objective":{"name":"reg:squarederror","reg_loss_param":{"scale_pos_weight":"1"}}},"version":[3,2,1]}