{"learner":{"attributes":{},"feature_names":["day_of_week","hour_of_day"],"feature_types":[],"gradient_booster":{"model":{"cats":{"enc":[],"feature_segments":[],"sorted_idx":[]},"gbtree_model_param":{"num_parallel_tree":"1","num_trees":"50"},"iteration_indptr":[0,1,2,3,4,5,6,7,8,9,10,11,12,13,14,15,16,17,18,19,20,21,22,23,24,25,26,27,28,29,30,31,32,33,34,35,36,37,38,39,40,41,42,43,44,45,46,47,48,49,50],"tree_info":[0,0,0,0,0,0,0,0,0,0,0,0,0,0,0,0,0,0,0,0,0,0,0,0,0,0,0,0,0,0,0,0,0,0,0,0,0,0,0,0,0,0,0,0,0,0,0,0,0,0],"trees":[{"base_weights":[1.7120833E-7,-1.1804141E1,1.0869114E0,-1.2265001E1,-8.829018E0,2.41199E0,-5.4937086E0,-1.3572448E0,-1.0551268E0,-4.5562384E-1,-1.1060392E0,2.8223462E0,-3.6991382E0,-7.7650113E0,-2.5396497E0,7.2576046E-2,3.575541E-1,-9.483512E-1,-3.2316393E-1,-5.668737E-1,-1.1691293E0,-8.791489E-2,-5.2526504E-1],"categories":[],"categories_nodes":[],"categories_segments":[],"categories_sizes":[],"default_left":[0,0,0,0,0,0,0,0,0,0,0,0,0,0,0,0,0,0,0,0,0,0,0],"id":0,"left_children":[1,3,5,7,9,11,13,-1,-1,-1,-1,15,17,19,21,-1,-1,-1,-1,-1,-1,-1,-1],"loss_changes":[6.969285E4,5.196836E2,4.3385723E4,7.3959375E2,5.6932666E2,1.0394988E4,5.5760547E3,0E0,0E0,0E0,0E0,6.126035E3,6.75146E2,3.8103203E3,1.6351802E3,0E0,0E0,0E0,0E0,0E0,0E0,0E0,0E0],"parents":[2147483647,0,0,1,1,2,2,3,3,4,4,5,5,6,6,11,11,12,12,13,13,14,14],"right_children":[2,4,6,8,10,12,14,-1,-1,-1,-1,16,18,20,22,-1,-1,-1,-1,-1,-1,-1,-1],"split_conditions":[4E0,3E0,1.9E1,5E0,2E0,7E0,4E0,-1.3572448E0,-1.0551268E0,-4.5562384E-1,-1.1060392E0,9E0,5E0,2.2E1,2.2E1,7.2576046E-2,3.575541E-1,-9.483512E-1,-3.2316393E-1,-5.668737E-1,-1.1691293E0,-8.791489E-2,-5.2526504E-1],"split_indices":[1,1,1,0,0,0,0,0,0,0,0,1,1,1,1,0,0,0,0,0,0,0,0],"split_type":[0,0,0,0,0,0,0,0,0,0,0,0,0,0,0,0,0,0,0,0,0,0,0],"sum_hessian":[5.43E3,4.57E2,4.973E3,3.93E2,6.4E1,4.14E3,8.33E2,2.19E2,1.74E2,2.3E1,4.1E1,3.88E3,2.6E2,4.7E2,3.63E2,1.026E3,2.854E3,1.8E1,2.42E2,3.08E2,1.62E2,2.26E2,1.37E2],"tree_param":{"num_deleted":"0","num_feature":"2","num_nodes":"23","size_leaf_vector":"1"}},{"base_weights":[-1.3190345E-3,-1.0632403E1,9.775789E-1,-1.1044623E1,-7.970142E0,2.1705878E0,-4.9471545E0,-1.2221373E0,-9.5021695E-1,-4.119599E-1,-9.9806875E-1,2.5402224E0,-3.334096E0,-6.992196E0,-2.2873697E0,-1.4465792E-1,2.884298E-1,-8.5850745E-1,-2.9098052E-1,-3.868408E-1,-9.243631E-1,-7.916217E-2,-4.7311917E-1],"categories":[],"categories_nodes":[],"categories_segments":[],"categories_sizes":[],"default_left":[0,0,0,0,0,0,0,0,0,0,0,0,0,0,0,0,0,0,0,0,0,0,0],"id":1,"left_children":[1,3,5,7,9,11,13,-1,-1,-1,-1,15,17,19,21,-1,-1,-1,-1,-1,-1,-1,-1],"loss_changes":[5.6529438E4,4.1459766E2,3.5168266E4,5.990156E2,4.6209326E2,8.43425E3,4.5204414E3,0E0,0E0,0E0,0E0,5.3279746E3,5.565122E2,3.276787E3,1.3267993E3,0E0,0E0,0E0,0E0,0E0,0E0,0E0,0E0],"parents":[2147483647,0,0,1,1,2,2,3,3,4,4,5,5,6,6,11,11,12,12,13,13,14,14],"right_children":[2,4,6,8,10,12,14,-1,-1,-1,-1,16,18,20,22,-1,-1,-1,-1,-1,-1,-1,-1],"split_conditions":[4E0,3E0,1.9E1,5E0,2E0,7E0,4E0,-1.2221373E0,-9.5021695E-1,-4.119599E-1,-9.9806875E-1,7E0,5E0,2.1E1,2.2E1,-1.4465792E-1,2.884298E-1,-8.5850745E-1,-2.9098052E-1,-3.868408E-1,-9.243631E-1,-7.916217E-2,-4.7311917E-1],"split_indices":[1,1,1,0,0,0,0,0,0,0,0,1,1,1,1,0,0,0,0,0,0,0,0],"split_type":[0,0,0,0,0,0,0,0,0,0,0,0,0,0,0,0,0,0,0,0,0,0,0],"sum_hessian":[5.43E3,4.57E2,4.973E3,3.93E2,6.4E1,4.14E3,8.33E2,2.19E2,1.74E2,2.3E1,4.1E1,3.88E3,2.6E2,4.7E2,3.63E2,3.08E2,3.572E3,1.8E1,2.42E2,1.98E2,2.72E2,2.26E2,1.37E2],"tree_param":{"num_deleted":"0","num_feature":"2","num_nodes":"23","size_leaf_vector":"1"}},{"base_weights":[-2.3753915E-3,-9.576985E0,8.7924373E-1,-9.945675E0,-7.1948204E0,1.9532857E0,-4.4546733E0,-1.100479E0,-8.5573816E-1,-3.7248042E-1,-9.006382E-1,-8.717155E-2,2.7986279E0,-6.29576E0,-2.06015E0,1.9509624E-1,-1.7727153E-1,2.9297826E-1,-2.2992837E-1,-4.526758E-1,-9.6106434E-1,-7.128078E-2,-4.2615014E-1],"categories":[],"categories_nodes":[],"categories_segments":[],"categories_sizes":[],"default_left":[0,0,0,0,0,0,0,0,0,0,0,0,0,0,0,0,0,0,0,0,0,0,0],"id":2,"left_children":[1,3,5,7,9,11,13,-1,-1,-1,-1,15,17,19,21,-1,-1,-1,-1,-1,-1,-1,-1],"loss_changes":[4.585236E4,3.306914E2,2.8504004E4,4.8515234E2,3.750525E2,7.142992E3,3.6637383E3,0E0,0E0,0E0,0E0,4.1739897E3,1.9644414E3,2.718455E3,1.0765765E3,0E0,0E0,0E0,0E0,0E0,0E0,0E0,0E0],"parents":[2147483647,0,0,1,1,2,2,3,3,4,4,5,5,6,6,11,11,12,12,13,13,14,14],"right_children":[2,4,6,8,10,12,14,-1,-1,-1,-1,16,18,20,22,-1,-1,-1,-1,-1,-1,-1,-1],"split_conditions":[4E0,3E0,1.9E1,5E0,2E0,9E0,4E0,-1.100479E0,-8.5573816E-1,-3.7248042E-1,-9.006382E-1,5E0,7E0,2.2E1,2.2E1,1.9509624E-1,-1.7727153E-1,2.9297826E-1,-2.2992837E-1,-4.526758E-1,-9.6106434E-1,-7.128078E-2,-4.2615014E-1],"split_indices":[1,1,1,0,0,1,0,0,0,0,0,0,0,1,1,0,0,0,0,0,0,0,0],"split_type":[0,0,0,0,0,0,0,0,0,0,0,0,0,0,0,0,0,0,0,0,0,0,0],"sum_hessian":[5.43E3,4.57E2,4.973E3,3.93E2,6.4E1,4.14E3,8.33E2,2.19E2,1.74E2,2.3E1,4.1E1,1.213E3,2.927E3,4.7E2,3.63E2,5.49E2,6.64E2,2.854E3,7.3E1,3.08E2,1.62E2,2.26E2,1.37E2],"tree_param":{"num_deleted":"0","num_feature":"2","num_nodes":"23","size_leaf_vector":"1"}},{"base_weights":[-3.0688478E-3,-8.626337E0,7.909521E-1,-8.956072E0,-6.4949245E0,1.7579775E0,-4.0114975E0,-9.9093145E-1,-7.7065337E-1,-3.367844E-1,-8.127187E-1,2.064978E0,-2.8137705E0,-5.6691856E0,-1.8555015E0,-1.3703212E-1,2.3614912E-1,-7.6038104E-1,-2.4276614E-1,-3.0331096E-1,-7.569955E-1,-6.4184144E-2,-3.838439E-1],"categories":[],"categories_nodes":[],"categories_segments":[],"categories_sizes":[],"default_left":[0,0,0,0,0,0,0,0,0,0,0,0,0,0,0,0,0,0,0,0,0,0,0],"id":3,"left_children":[1,3,5,7,9,11,13,-1,-1,-1,-1,15,17,19,21,-1,-1,-1,-1,-1,-1,-1,-1],"loss_changes":[3.7193184E4,2.6371484E2,2.310676E4,3.929336E2,3.0440308E2,5.8178203E3,2.9701719E3,0E0,0E0,0E0,0E0,3.9564688E3,4.642544E2,2.3370195E3,8.735432E2,0E0,0E0,0E0,0E0,0E0,0E0,0E0,0E0],"parents":[2147483647,0,0,1,1,2,2,3,3,4,4,5,5,6,6,11,11,12,12,13,13,14,14],"right_children":[2,4,6,8,10,12,14,-1,-1,-1,-1,16,18,20,22,-1,-1,-1,-1,-1,-1,-1,-1],"split_conditions":[4E0,3E0,1.9E1,5E0,2E0,7E0,4E0,-9.9093145E-1,-7.7065337E-1,-3.367844E-1,-8.127187E-1,7E0,5E0,2.1E1,2.2E1,-1.3703212E-1,2.3614912E-1,-7.6038104E-1,-2.4276614E-1,-3.0331096E-1,-7.569955E-1,-6.4184144E-2,-3.838439E-1],"split_indices":[1,1,1,0,0,0,0,0,0,0,0,1,1,1,1,0,0,0,0,0,0,0,0],"split_type":[0,0,0,0,0,0,0,0,0,0,0,0,0,0,0,0,0,0,0,0,0,0,0],"sum_hessian":[5.43E3,4.57E2,4.973E3,3.93E2,6.4E1,4.14E3,8.33E2,2.19E2,1.74E2,2.3E1,4.1E1,3.88E3,2.6E2,4.7E2,3.63E2,3.08E2,3.572E3,1.8E1,2.42E2,1.98E2,2.72E2,2.26E2,1.37E2],"tree_param":{"num_deleted":"0","num_feature":"2","num_nodes":"23","size_leaf_vector":"1"}},{"base_weights":[-3.7419368E-3,-7.7700596E0,7.113721E-1,-8.064936E0,-5.863117E0,1.5819616E0,-3.6121564E0,-8.922887E-1,-6.940283E-1,-3.0450922E-1,-7.333819E-1,-1.3827023E-1,2.2946596E0,-2.3312361E0,-5.884424E0,1.6582395E-1,-1.6238974E-1,2.400842E-1,-1.8329772E-1,-3.611712E-1,-5.7793982E-2,-7.903124E-1,-3.457377E-1],"categories":[],"categories_nodes":[],"categories_segments":[],"categories_sizes":[],"default_left":[0,0,0,0,0,0,0,0,0,0,0,0,0,0,0,0,0,0,0,0,0,0,0],"id":4,"left_children":[1,3,5,7,9,11,13,-1,-1,-1,-1,15,17,19,21,-1,-1,-1,-1,-1,-1,-1,-1],"loss_changes":[3.0168229E4,2.102539E2,1.8727943E4,3.182422E2,2.470586E2,5.077207E3,2.4137188E3,0E0,0E0,0E0,0E0,3.2427903E3,1.2876904E3,1.1990161E3,1.4425195E3,0E0,0E0,0E0,0E0,0E0,0E0,0E0,0E0],"parents":[2147483647,0,0,1,1,2,2,3,3,4,4,5,5,6,6,11,11,12,12,13,13,14,14],"right_children":[2,4,6,8,10,12,14,-1,-1,-1,-1,16,18,20,22,-1,-1,-1,-1,-1,-1,-1,-1],"split_conditions":[4E0,3E0,1.9E1,5E0,2E0,9E0,2.2E1,-8.922887E-1,-6.940283E-1,-3.0450922E-1,-7.333819E-1,5E0,7E0,4E0,4E0,1.6582395E-1,-1.6238974E-1,2.400842E-1,-1.8329772E-1,-3.611712E-1,-5.7793982E-2,-7.903124E-1,-3.457377E-1],"split_indices":[1,1,1,0,0,1,1,0,0,0,0,0,0,0,0,0,0,0,0,0,0,0,0],"split_type":[0,0,0,0,0,0,0,0,0,0,0,0,0,0,0,0,0,0,0,0,0,0,0],"sum_hessian":[5.43E3,4.57E2,4.973E3,3.93E2,6.4E1,4.14E3,8.33E2,2.19E2,1.74E2,2.3E1,4.1E1,1.213E3,2.927E3,5.34E2,2.99E2,5.49E2,6.64E2,2.854E3,7.3E1,3.08E2,2.26E2,1.62E2,1.37E2],"tree_param":{"num_deleted":"0","num_feature":"2","num_nodes":"23","size_leaf_vector":"1"}},{"base_weights":[-4.126006E-3,-6.9987836E0,6.3993454E-1,-7.262469E0,-5.292773E0,1.4237803E0,-3.2528055E0,-8.034655E-1,-6.250221E-1,-2.753271E-1,-6.6178983E-1,2.304628E0,2.7012727E-1,-2.098896E0,-5.2997684E0,1.3882644E-1,2.8961417E-1,-7.2150296E-1,8.2541704E-2,-3.25171E-1,-5.204009E-2,-7.1176594E-1,-3.1141448E-1],"categories":[],"categories_nodes":[],"categories_segments":[],"categories_sizes":[],"default_left":[0,0,0,0,0,0,0,0,0,0,0,0,0,0,0,0,0,0,0,0,0,0,0],"id":5,"left_children":[1,3,5,7,9,11,13,-1,-1,-1,-1,15,17,19,21,-1,-1,-1,-1,-1,-1,-1,-1],"loss_changes":[2.4471043E4,1.675918E2,1.5181838E4,2.5774805E2,2.0051453E2,4.2074297E3,1.958793E3,0E0,0E0,0E0,0E0,1.2686934E3,7.462593E3,9.718533E2,1.1698018E3,0E0,0E0,0E0,0E0,0E0,0E0,0E0,0E0],"parents":[2147483647,0,0,1,1,2,2,3,3,4,4,5,5,6,6,11,11,12,12,13,13,14,14],"right_children":[2,4,6,8,10,12,14,-1,-1,-1,-1,16,18,20,22,-1,-1,-1,-1,-1,-1,-1,-1],"split_conditions":[4E0,3E0,1.9E1,5E0,2E0,5E0,2.2E1,-8.034655E-1,-6.250221E-1,-2.753271E-1,-6.6178983E-1,1E1,7E0,4E0,4E0,1.3882644E-1,2.8961417E-1,-7.2150296E-1,8.2541704E-2,-3.25171E-1,-5.204009E-2,-7.1176594E-1,-3.1141448E-1],"split_indices":[1,1,1,0,0,0,1,0,0,0,0,1,1,0,0,0,0,0,0,0,0,0,0],"split_type":[0,0,0,0,0,0,0,0,0,0,0,0,0,0,0,0,0,0,0,0,0,0,0],"sum_hessian":[5.43E3,4.57E2,4.973E3,3.93E2,6.4E1,4.14E3,8.33E2,2.19E2,1.74E2,2.3E1,4.1E1,2.347E3,1.793E3,5.34E2,2.99E2,9.22E2,1.425E3,1.23E2,1.67E3,3.08E2,2.26E2,1.62E2,1.37E2],"tree_param":{"num_deleted":"0","num_feature":"2","num_nodes":"23","size_leaf_vector":"1"}},{"base_weights":[-4.4455705E-3,-6.30407E0,5.7561725E-1,-6.5398474E0,-4.7779126E0,1.2813514E0,-2.929204E0,-7.2348404E-1,-5.628771E-1,-2.4894162E-1,-5.971865E-1,1.5282851E0,-2.395395E0,-1.8897115E0,-4.773202E0,-1.13352254E-1,1.7580557E-1,-6.0460776E-1,-2.1000932E-1,-2.9275915E-1,-4.6859004E-2,-6.41026E-1,-2.8049868E-1],"categories":[],"categories_nodes":[],"categories_segments":[],"categories_sizes":[],"default_left":[0,0,0,0,0,0,0,0,0,0,0,0,0,0,0,0,0,0,0,0,0,0,0],"id":6,"left_children":[1,3,5,7,9,11,13,-1,-1,-1,-1,15,17,19,21,-1,-1,-1,-1,-1,-1,-1,-1],"loss_changes":[1.9849469E4,1.3355664E2,1.2306806E4,2.0875586E2,1.627367E2,3.7633271E3,1.5896089E3,0E0,0E0,0E0,0E0,2.37563E3,2.6867444E2,7.877284E2,9.4864404E2,0E0,0E0,0E0,0E0,0E0,0E0,0E0,0E0],"parents":[2147483647,0,0,1,1,2,2,3,3,4,4,5,5,6,6,11,11,12,12,13,13,14,14],"right_children":[2,4,6,8,10,12,14,-1,-1,-1,-1,16,18,20,22,-1,-1,-1,-1,-1,-1,-1,-1],"split_conditions":[4E0,3E0,1.9E1,5E0,2E0,7E0,2.2E1,-7.2348404E-1,-5.628771E-1,-2.4894162E-1,-5.971865E-1,7E0,5E0,4E0,4E0,-1.13352254E-1,1.7580557E-1,-6.0460776E-1,-2.1000932E-1,-2.9275915E-1,-4.6859004E-2,-6.41026E-1,-2.8049868E-1],"split_indices":[1,1,1,0,0,0,1,0,0,0,0,1,1,0,0,0,0,0,0,0,0,0,0],"split_type":[0,0,0,0,0,0,0,0,0,0,0,0,0,0,0,0,0,0,0,0,0,0,0],"sum_hessian":[5.43E3,4.57E2,4.973E3,3.93E2,6.4E1,4.14E3,8.33E2,2.19E2,1.74E2,2.3E1,4.1E1,3.88E3,2.6E2,5.34E2,2.99E2,3.08E2,3.572E3,1.8E1,2.42E2,3.08E2,2.26E2,1.62E2,1.37E2],"tree_param":{"num_deleted":"0","num_feature":"2","num_nodes":"23","size_leaf_vector":"1"}},{"base_weights":[-4.7646547E-3,-5.6783195E0,5.176505E-1,-5.8891277E0,-4.313139E0,1.1530343E0,-2.637796E0,-6.514645E-1,-5.0691104E-1,-2.2508474E-1,-5.388898E-1,1.9236162E0,1.4384864E-1,-1.064351E0,-3.6919837E0,1.1375689E-1,2.4310482E-1,-6.3155955E-1,6.230989E-2,-3.015009E-1,-5.3968545E-2,-5.14949E-1,-1.9228594E-1],"categories":[],"categories_nodes":[],"categories_segments":[],"categories_sizes":[],"default_left":[0,0,0,0,0,0,0,0,0,0,0,0,0,0,0,0,0,0,0,0,0,0,0],"id":7,"left_children":[1,3,5,7,9,11,13,-1,-1,-1,-1,15,17,19,21,-1,-1,-1,-1,-1,-1,-1,-1],"loss_changes":[1.6100156E4,1.064082E2,9.975513E3,1.6907227E2,1.320747E2,3.2200142E3,1.3794312E3,0E0,0E0,0E0,0E0,9.337705E2,5.5576035E3,3.4224973E2,1.2767744E3,0E0,0E0,0E0,0E0,0E0,0E0,0E0,0E0],"parents":[2147483647,0,0,1,1,2,2,3,3,4,4,5,5,6,6,11,11,12,12,13,13,14,14],"right_children":[2,4,6,8,10,12,14,-1,-1,-1,-1,16,18,20,22,-1,-1,-1,-1,-1,-1,-1,-1],"split_conditions":[4E0,3E0,1.9E1,5E0,2E0,5E0,2.1E1,-6.514645E-1,-5.0691104E-1,-2.2508474E-1,-5.388898E-1,1E1,7E0,2E0,4E0,1.1375689E-1,2.4310482E-1,-6.3155955E-1,6.230989E-2,-3.015009E-1,-5.3968545E-2,-5.14949E-1,-1.9228594E-1],"split_indices":[1,1,1,0,0,0,1,0,0,0,0,1,1,0,0,0,0,0,0,0,0,0,0],"split_type":[0,0,0,0,0,0,0,0,0,0,0,0,0,0,0,0,0,0,0,0,0,0,0],"sum_hessian":[5.43E3,4.57E2,4.973E3,3.93E2,6.4E1,4.14E3,8.33E2,2.19E2,1.74E2,2.3E1,4.1E1,2.347E3,1.793E3,3.35E2,4.98E2,9.22E2,1.425E3,1.23E2,1.67E3,7E1,2.65E2,2.72E2,2.26E2],"tree_param":{"num_deleted":"0","num_feature":"2","num_nodes":"23","size_leaf_vector":"1"}},{"base_weights":[-4.8768013E-3,-5.1146846E0,4.6562922E-1,-5.303155E0,-3.8935788E0,9.698726E-1,-2.7694366E0,-5.866142E-1,-4.565096E-1,-2.0351414E-1,-4.8628387E-1,1.1724865E0,-2.173195E0,-3.8820353E0,-1.2943255E0,-8.8066354E-2,1.3419862E-1,-4.8749718E-1,-1.9530018E-1,-1.9744806E-1,-4.6364275E-1,-3.4665123E-2,-2.3356287E-1],"categories":[],"categories_nodes":[],"categories_segments":[],"categories_sizes":[],"default_left":[0,0,0,0,0,0,0,0,0,0,0,0,0,0,0,0,0,0,0,0,0,0,0],"id":8,"left_children":[1,3,5,7,9,11,13,-1,-1,-1,-1,15,17,19,21,-1,-1,-1,-1,-1,-1,-1,-1],"loss_changes":[1.3059566E4,8.475781E1,8.116575E3,1.3693457E2,1.0718848E2,2.743461E3,1.0962251E3,0E0,0E0,0E0,0E0,1.4085273E3,1.4575134E2,5.4056055E2,2.8536703E2,0E0,0E0,0E0,0E0,0E0,0E0,0E0,0E0],"parents":[2147483647,0,0,1,1,2,2,3,3,4,4,5,5,6,6,11,11,12,12,13,13,14,14],"right_children":[2,4,6,8,10,12,14,-1,-1,-1,-1,16,18,20,22,-1,-1,-1,-1,-1,-1,-1,-1],"split_conditions":[4E0,3E0,2E1,5E0,2E0,7E0,4E0,-5.866142E-1,-4.565096E-1,-2.0351414E-1,-4.8628387E-1,7E0,5E0,2.1E1,2.2E1,-8.8066354E-2,1.3419862E-1,-4.8749718E-1,-1.9530018E-1,-1.9744806E-1,-4.6364275E-1,-3.4665123E-2,-2.3356287E-1],"split_indices":[1,1,1,0,0,0,0,0,0,0,0,1,1,1,1,0,0,0,0,0,0,0,0],"split_type":[0,0,0,0,0,0,0,0,0,0,0,0,0,0,0,0,0,0,0,0,0,0,0],"sum_hessian":[5.43E3,4.57E2,4.973E3,3.93E2,6.4E1,4.303E3,6.7E2,2.19E2,1.74E2,2.3E1,4.1E1,4.043E3,2.6E2,3.81E2,2.89E2,3.08E2,3.735E3,1.8E1,2.42E2,1.09E2,2.72E2,1.52E2,1.37E2],"tree_param":{"num_deleted":"0","num_feature":"2","num_nodes":"23","size_leaf_vector":"1"}},{"base_weights":[-4.9968315E-3,-4.607E0,4.1875115E-1,-4.775487E0,-3.514833E0,9.4200313E-1,-2.1798165E0,-5.282194E-1,-4.1111952E-1,-1.8401071E-1,-4.3881327E-1,1.616481E0,5.8716677E-2,-1.3928112E0,-3.576043E0,9.3876585E-2,2.0540087E-1,-5.5437917E-1,4.744272E-2,-3.2876304E-1,-8.428806E-2,-4.800578E-1,-2.1037589E-1],"categories":[],"categories_nodes":[],"categories_segments":[],"categories_sizes":[],"default_left":[0,0,0,0,0,0,0,0,0,0,0,0,0,0,0,0,0,0,0,0,0,0,0],"id":9,"left_children":[1,3,5,7,9,11,13,-1,-1,-1,-1,15,17,19,21,-1,-1,-1,-1,-1,-1,-1,-1],"loss_changes":[1.0592864E4,6.749512E1,6.765229E3,1.109043E2,8.6990234E1,2.4669353E3,9.114497E2,0E0,0E0,0E0,0E0,6.942988E2,4.180895E3,5.54709E2,5.3076E2,0E0,0E0,0E0,0E0,0E0,0E0,0E0,0E0],"parents":[2147483647,0,0,1,1,2,2,3,3,4,4,5,5,6,6,11,11,12,12,13,13,14,14],"right_children":[2,4,6,8,10,12,14,-1,-1,-1,-1,16,18,20,22,-1,-1,-1,-1,-1,-1,-1,-1],"split_conditions":[4E0,3E0,1.9E1,5E0,2E0,5E0,2.2E1,-5.282194E-1,-4.1111952E-1,-1.8401071E-1,-4.3881327E-1,1E1,7E0,2E0,4E0,9.3876585E-2,2.0540087E-1,-5.5437917E-1,4.744272E-2,-3.2876304E-1,-8.428806E-2,-4.800578E-1,-2.1037589E-1],"split_indices":[1,1,1,0,0,0,1,0,0,0,0,1,1,0,0,0,0,0,0,0,0,0,0],"split_type":[0,0,0,0,0,0,0,0,0,0,0,0,0,0,0,0,0,0,0,0,0,0,0],"sum_hessian":[5.43E3,4.57E2,4.973E3,3.93E2,6.4E1,4.14E3,8.33E2,2.19E2,1.74E2,2.3E1,4.1E1,2.347E3,1.793E3,5.34E2,2.99E2,9.22E2,1.425E3,1.23E2,1.67E3,1.19E2,4.15E2,1.62E2,1.37E2],"tree_param":{"num_deleted":"0","num_feature":"2","num_nodes":"23","size_leaf_vector":"1"}},{"base_weights":[-5.0261472E-3,-4.1497107E0,3.7661248E-1,-4.3003225E0,-3.1729317E0,8.477528E-1,-1.9631581E0,-4.7563758E-1,-3.7024248E-1,-1.6637638E-1,-3.9597673E0,1.0366434E0,-1.9642472E0,-2.8001938E0,-8.746773E-1,-3.3604345E-1,-4.572187E-1,1.1964499E-2,1.3661428E-1,-3.8879308E-1,-1.8057525E-1,-1.3983814E-1,-3.811771E-1,-5.5522587E-2,-3.0709895E-1],"categories":[],"categories_nodes":[],"categories_segments":[],"categories_sizes":[],"default_left":[0,0,0,0,0,0,0,0,0,0,0,0,0,0,0,0,0,0,0,0,0,0,0,0,0],"id":10,"left_children":[1,3,5,7,9,11,13,-1,-1,-1,15,17,19,21,23,-1,-1,-1,-1,-1,-1,-1,-1,-1,-1],"loss_changes":[8.592166E3,5.3733887E1,5.4848047E3,8.982324E1,7.059723E1,2.201571E3,7.57406E2,0E0,0E0,0E0,5.126953E-2,1.1724824E3,7.255664E1,6.6256714E2,2.5368286E2,0E0,0E0,0E0,0E0,0E0,0E0,0E0,0E0,0E0,0E0],"parents":[2147483647,0,0,1,1,2,2,3,3,4,4,5,5,6,6,10,10,11,11,12,12,13,13,14,14],"right_children":[2,4,6,8,10,12,14,-1,-1,-1,16,18,20,22,24,-1,-1,-1,-1,-1,-1,-1,-1,-1,-1],"split_conditions":[4E0,3E0,1.9E1,5E0,2E0,7E0,4E0,-4.7563758E-1,-3.7024248E-1,-1.6637638E-1,7E0,9E0,5E0,2.1E1,2.3E1,-3.3604345E-1,-4.572187E-1,1.1964499E-2,1.3661428E-1,-3.8879308E-1,-1.8057525E-1,-1.3983814E-1,-3.811771E-1,-5.5522587E-2,-3.0709895E-1],"split_indices":[1,1,1,0,0,0,0,0,0,0,0,1,1,1,1,0,0,0,0,0,0,0,0,0,0],"split_type":[0,0,0,0,0,0,0,0,0,0,0,0,0,0,0,0,0,0,0,0,0,0,0,0,0],"sum_hessian":[5.43E3,4.57E2,4.973E3,3.93E2,6.4E1,4.14E3,8.33E2,2.19E2,1.74E2,2.3E1,4.1E1,3.88E3,2.6E2,4.7E2,3.63E2,2.4E1,1.7E1,1.026E3,2.854E3,1.8E1,2.42E2,1.98E2,2.72E2,3.18E2,4.5E1],"tree_param":{"num_deleted":"0","num_feature":"2","num_nodes":"25","size_leaf_vector":"1"}},{"base_weights":[-5.0959033E-3,-3.738682E0,3.386893E-1,-3.872437E0,-2.8704023E0,8.379125E-1,-1.5076722E0,-4.2829004E-1,-3.3342978E-1,-1.5043199E-1,-3.5826778E0,1.4764749E0,8.114087E-3,-2.5345006E0,-3.589603E-1,-3.037833E-1,-4.1403696E-1,1.1868363E-1,2.9444835E-1,-4.9475765E-1,3.9679058E-2,-1.9491476E-1,-3.9446267E-1,4.2879283E-2,-1.3117056E-1],"categories":[],"categories_nodes":[],"categories_segments":[],"categories_sizes":[],"default_left":[0,0,0,0,0,0,0,0,0,0,0,0,0,0,0,0,0,0,0,0,0,0,0,0,0],"id":11,"left_children":[1,3,5,7,9,11,13,-1,-1,-1,15,17,19,21,23,-1,-1,-1,-1,-1,-1,-1,-1,-1,-1],"loss_changes":[6.972235E3,4.2075684E1,4.586031E3,7.2748535E1,5.785724E1,2.074991E3,1.2482126E3,0E0,0E0,0E0,1.8414307E-1,9.374551E2,3.2841404E3,4.5372168E2,3.765769E2,0E0,0E0,0E0,0E0,0E0,0E0,0E0,0E0,0E0,0E0],"parents":[2147483647,0,0,1,1,2,2,3,3,4,4,5,5,6,6,10,10,11,11,12,12,13,13,14,14],"right_children":[2,4,6,8,10,12,14,-1,-1,-1,16,18,20,22,24,-1,-1,-1,-1,-1,-1,-1,-1,-1,-1],"split_conditions":[4E0,3E0,1.8E1,5E0,2E0,5E0,4E0,-4.2829004E-1,-3.3342978E-1,-1.5043199E-1,7E0,1.4E1,7E0,2.2E1,2.1E1,-3.037833E-1,-4.1403696E-1,1.1868363E-1,2.9444835E-1,-4.9475765E-1,3.9679058E-2,-1.9491476E-1,-3.9446267E-1,4.2879283E-2,-1.3117056E-1],"split_indices":[1,1,1,0,0,0,0,0,0,0,0,1,1,1,1,0,0,0,0,0,0,0,0,0,0],"split_type":[0,0,0,0,0,0,0,0,0,0,0,0,0,0,0,0,0,0,0,0,0,0,0,0,0],"sum_hessian":[5.43E3,4.57E2,4.973E3,3.93E2,6.4E1,3.915E3,1.058E3,2.19E2,1.74E2,2.3E1,4.1E1,2.212E3,1.703E3,5.58E2,5E2,2.4E1,1.7E1,1.849E3,3.63E2,1.23E2,1.58E3,3.96E2,1.62E2,2.74E2,2.26E2],"tree_param":{"num_deleted":"0","num_feature":"2","num_nodes":"25","size_leaf_vector":"1"}},{"base_weights":[-5.0186682E-3,-3.3683727E0,3.04676E-1,-3.4871268E0,-2.59672E0,7.5411093E-1,-1.357545E0,-3.8565573E-1,-3.0027732E-1,-1.3601564E-1,-3.241501E0,9.342906E-1,-1.7726737E0,-2.282105E0,-3.232405E-1,-2.746201E-1,-3.7493345E-1,8.045948E-3,1.2673515E-1,-3.0508825E-1,-1.6654365E-1,-1.4777245E-1,-3.1193766E-1,1.7213138E-2,-1.6275312E-1],"categories":[],"categories_nodes":[],"categories_segments":[],"categories_sizes":[],"default_left":[0,0,0,0,0,0,0,0,0,0,0,0,0,0,0,0,0,0,0,0,0,0,0,0,0],"id":12,"left_children":[1,3,5,7,9,11,13,-1,-1,-1,15,17,19,21,23,-1,-1,-1,-1,-1,-1,-1,-1,-1,-1],"loss_changes":[5.6580254E3,3.291455E1,3.7169014E3,5.891992E1,4.741638E1,1.7845134E3,1.0119592E3,0E0,0E0,0E0,2.6782227E-1,1.039583E3,3.069458E1,3.7186816E2,3.239807E2,0E0,0E0,0E0,0E0,0E0,0E0,0E0,0E0,0E0,0E0],"parents":[2147483647,0,0,1,1,2,2,3,3,4,4,5,5,6,6,10,10,11,11,12,12,13,13,14,14],"right_children":[2,4,6,8,10,12,14,-1,-1,-1,16,18,20,22,24,-1,-1,-1,-1,-1,-1,-1,-1,-1,-1],"split_conditions":[4E0,3E0,1.8E1,5E0,2E0,7E0,4E0,-3.8565573E-1,-3.0027732E-1,-1.3601564E-1,7E0,9E0,5E0,2.1E1,2.2E1,-2.746201E-1,-3.7493345E-1,8.045948E-3,1.2673515E-1,-3.0508825E-1,-1.6654365E-1,-1.4777245E-1,-3.1193766E-1,1.7213138E-2,-1.6275312E-1],"split_indices":[1,1,1,0,0,0,0,0,0,0,0,1,1,1,1,0,0,0,0,0,0,0,0,0,0],"split_type":[0,0,0,0,0,0,0,0,0,0,0,0,0,0,0,0,0,0,0,0,0,0,0,0,0],"sum_hessian":[5.43E3,4.57E2,4.973E3,3.93E2,6.4E1,3.915E3,1.058E3,2.19E2,1.74E2,2.3E1,4.1E1,3.655E3,2.6E2,5.58E2,5E2,2.4E1,1.7E1,1.026E3,2.629E3,1.8E1,2.42E2,2.86E2,2.72E2,3.63E2,1.37E2],"tree_param":{"num_deleted":"0","num_feature":"2","num_nodes":"25","size_leaf_vector":"1"}},{"base_weights":[-4.9613924E-3,-3.0347483E0,2.740188E-1,-3.140155E0,-2.3491335E0,6.786136E-1,-1.222362E0,-3.4726543E0,-2.704212E-1,-1.2298077E-1,-2.9328165E0,1.2317808E0,-4.0187724E-2,-2.3899224E0,-5.5460936E-1,-3.1431597E-1,-3.660665E-1,-2.4825656E-1,-3.3952308E-1,9.767723E-2,2.5244558E-1,-4.4193354E-1,3.0330023E-2,-1.8549998E-1,-3.6296973E-1,8.173711E-3,-1.3745871E-1],"categories":[],"categories_nodes":[],"categories_segments":[],"categories_sizes":[],"default_left":[0,0,0,0,0,0,0,0,0,0,0,0,0,0,0,0,0,0,0,0,0,0,0,0,0,0,0],"id":13,"left_children":[1,3,5,7,9,11,13,15,-1,-1,17,19,21,23,25,-1,-1,-1,-1,-1,-1,-1,-1,-1,-1,-1,-1],"loss_changes":[4.5913867E3,2.5722168E1,3.012228E3,4.7719727E1,3.885971E1,1.5571187E3,8.2431494E2,2.1225586E0,0E0,0E0,3.156128E-1,7.270342E2,2.5644705E3,2.4859229E2,3.5232053E2,0E0,0E0,0E0,0E0,0E0,0E0,0E0,0E0,0E0,0E0,0E0,0E0],"parents":[2147483647,0,0,1,1,2,2,3,3,4,4,5,5,6,6,7,7,10,10,11,11,12,12,13,13,14,14],"right_children":[2,4,6,8,10,12,14,16,-1,-1,18,20,22,24,26,-1,-1,-1,-1,-1,-1,-1,-1,-1,-1,-1,-1],"split_conditions":[4E0,3E0,1.8E1,5E0,2E0,5E0,3E0,2E0,-2.704212E-1,-1.2298077E-1,7E0,1.4E1,7E0,2.2E1,2.1E1,-3.1431597E-1,-3.660665E-1,-2.4825656E-1,-3.3952308E-1,9.767723E-2,2.5244558E-1,-4.4193354E-1,3.0330023E-2,-1.8549998E-1,-3.6296973E-1,8.173711E-3,-1.3745871E-1],"split_indices":[1,1,1,0,0,0,0,0,0,0,0,1,1,1,1,0,0,0,0,0,0,0,0,0,0,0,0],"split_type":[0,0,0,0,0,0,0,0,0,0,0,0,0,0,0,0,0,0,0,0,0,0,0,0,0,0,0],"sum_hessian":[5.43E3,4.57E2,4.973E3,3.93E2,6.4E1,3.915E3,1.058E3,2.19E2,1.74E2,2.3E1,4.1E1,2.212E3,1.703E3,3.84E2,6.74E2,8.6E1,1.33E2,2.4E1,1.7E1,1.849E3,3.63E2,1.23E2,1.58E3,2.7E2,1.14E2,3.8E2,2.94E2],"tree_param":{"num_deleted":"0","num_feature":"2","num_nodes":"27","size_leaf_vector":"1"}},{"base_weights":[-4.9074017E-3,-2.7349014E0,2.4646819E-1,-2.8285527E0,-2.125155E0,6.1073637E-1,-1.1007657E0,-3.1284816E0,-2.4353364E-1,-1.1119509E-1,-2.6535296E0,7.680255E-1,-1.5948566E0,-1.8759254E0,-2.336698E-1,-2.8324565E-1,-3.29733E-1,-2.2442392E-1,-3.0745706E-1,5.4403534E-3,1.0463988E-1,-1.7541341E-1,-1.16865374E-1,-1.430936E-1,-2.9482254E-1,1.8242229E-2,-1.3294949E-1],"categories":[],"categories_nodes":[],"categories_segments":[],"categories_sizes":[],"default_left":[0,0,0,0,0,0,0,0,0,0,0,0,0,0,0,0,0,0,0,0,0,0,0,0,0,0,0],"id":14,"left_children":[1,3,5,7,9,11,13,15,-1,-1,17,19,21,23,25,-1,-1,-1,-1,-1,-1,-1,-1,-1,-1,-1,-1],"loss_changes":[3.7277188E3,2.014209E1,2.441685E3,3.884839E1,3.184726E1,1.3597471E3,7.113557E2,1.6569824E0,0E0,0E0,3.3770752E-1,7.262195E2,1.5667969E1,2.62515E2,2.2868053E2,0E0,0E0,0E0,0E0,0E0,0E0,0E0,0E0,0E0,0E0,0E0,0E0],"parents":[2147483647,0,0,1,1,2,2,3,3,4,4,5,5,6,6,7,7,10,10,11,11,12,12,13,13,14,14],"right_children":[2,4,6,8,10,12,14,16,-1,-1,18,20,22,24,26,-1,-1,-1,-1,-1,-1,-1,-1,-1,-1,-1,-1],"split_conditions":[4E0,3E0,1.8E1,5E0,2E0,7E0,4E0,2E0,-2.4353364E-1,-1.1119509E-1,7E0,9E0,9E0,2.2E1,2.2E1,-2.8324565E-1,-3.29733E-1,-2.2442392E-1,-3.0745706E-1,5.4403534E-3,1.0463988E-1,-1.7541341E-1,-1.16865374E-1,-1.430936E-1,-2.9482254E-1,1.8242229E-2,-1.3294949E-1],"split_indices":[1,1,1,0,0,0,0,0,0,0,0,1,1,1,1,0,0,0,0,0,0,0,0,0,0,0,0],"split_type":[0,0,0,0,0,0,0,0,0,0,0,0,0,0,0,0,0,0,0,0,0,0,0,0,0,0,0],"sum_hessian":[5.43E3,4.57E2,4.973E3,3.93E2,6.4E1,3.915E3,1.058E3,2.19E2,1.74E2,2.3E1,4.1E1,3.655E3,2.6E2,5.58E2,5E2,8.6E1,1.33E2,2.4E1,1.7E1,1.026E3,2.629E3,1.87E2,7.3E1,3.96E2,1.62E2,3.63E2,1.37E2],"tree_param":{"num_deleted":"0","num_feature":"2","num_nodes":"27","size_leaf_vector":"1"}},{"base_weights":[-4.827581E-3,-2.4646857E0,2.2167419E-1,-2.5478714E0,-1.922533E0,5.950754E-1,-8.8178694E-1,-2.81842E0,-2.1931944E0,-1.0053893E-1,-2.4008405E0,4.1867036E-2,1.1861262E0,-2.2656145E0,-5.3289014E-1,-2.1999772E-1,-2.8760248E-1,-1.8940102E-1,-2.285198E-1,-2.0287924E-1,-2.7841946E-1,2.7414253E-2,-1.4364912E-1,8.8715956E-2,2.1581452E-1,-1.523631E-1,-2.853618E-1,-2.0377878E-2,-1.6361697E-1],"categories":[],"categories_nodes":[],"categories_segments":[],"categories_sizes":[],"default_left":[0,0,0,0,0,0,0,0,0,0,0,0,0,0,0,0,0,0,0,0,0,0,0,0,0,0,0,0,0],"id":15,"left_children":[1,3,5,7,9,11,13,15,17,-1,19,21,23,25,27,-1,-1,-1,-1,-1,-1,-1,-1,-1,-1,-1,-1,-1,-1],"loss_changes":[3.0264944E3,1.5757324E1,2.0499805E3,3.1625732E1,2.6100204E1,1.2153136E3,6.0617145E2,1.510498E0,4.8883057E-1,0E0,3.417511E-1,6.60039E2,5.202959E2,1.0603308E2,3.6494705E2,0E0,0E0,0E0,0E0,0E0,0E0,0E0,0E0,0E0,0E0,0E0,0E0,0E0,0E0],"parents":[2147483647,0,0,1,1,2,2,3,3,4,4,5,5,6,6,7,7,8,8,10,10,11,11,12,12,13,13,14,14],"right_children":[2,4,6,8,10,12,14,16,18,-1,20,22,24,26,28,-1,-1,-1,-1,-1,-1,-1,-1,-1,-1,-1,-1,-1,-1],"split_conditions":[4E0,3E0,1.7E1,5E0,2E0,1E1,2E0,1E0,6E0,-1.0053893E-1,7E0,7E0,1.5E1,2E1,2.2E1,-2.1999772E-1,-2.8760248E-1,-1.8940102E-1,-2.285198E-1,-2.0287924E-1,-2.7841946E-1,2.7414253E-2,-1.4364912E-1,8.8715956E-2,2.1581452E-1,-1.523631E-1,-2.853618E-1,-2.0377878E-2,-1.6361697E-1],"split_indices":[1,1,1,0,0,1,0,1,0,0,0,0,1,1,1,0,0,0,0,0,0,0,0,0,0,0,0,0,0],"split_type":[0,0,0,0,0,0,0,0,0,0,0,0,0,0,0,0,0,0,0,0,0,0,0,0,0,0,0,0,0],"sum_hessian":[5.43E3,4.57E2,4.973E3,3.93E2,6.4E1,3.716E3,1.257E3,2.19E2,1.74E2,2.3E1,4.1E1,1.92E3,1.796E3,2.52E2,1.005E3,2.2E1,1.97E2,4.6E1,1.28E2,2.4E1,1.7E1,1.66E3,2.6E2,1.375E3,4.21E2,1.13E2,1.39E2,7.75E2,2.3E2],"tree_param":{"num_deleted":"0","num_feature":"2","num_nodes":"29","size_leaf_vector":"1"}},{"base_weights":[-4.7023026E-3,-1.7777145E0,2.5628906E-1,-1.2048764E0,-2.5496845E0,6.3614416E-1,-7.9410225E-1,-2.538885E0,4.054338E-1,-2.0235143E0,-3.9213283E0,7.76053E-1,-1.229622E0,-2.0407832E0,-4.797838E-1,-2.2681701E-1,-2.6957008E-1,1.4535771E-1,6.3190064E-3,-1.7086387E-1,-2.0986651E-1,-4.948154E-1,-2.629179E-1,6.008626E-2,1.9428422E-1,-1.3607961E-1,-9.116598E-2,-1.3726048E-1,-2.570294E-1,-5.006715E-3,-1.1845682E-1],"categories":[],"categories_nodes":[],"categories_segments":[],"categories_sizes":[],"default_left":[0,0,0,0,0,0,0,0,0,0,0,0,0,0,0,0,0,0,0,0,0,0,0,0,0,0,0,0,0,0,0],"id":16,"left_children":[1,3,5,7,9,11,13,15,17,19,21,23,25,27,29,-1,-1,-1,-1,-1,-1,-1,-1,-1,-1,-1,-1,-1,-1,-1,-1],"loss_changes":[2.5136013E3,3.0515112E2,1.8897537E3,8.645928E2,2.056936E2,9.088417E2,4.919743E2,3.2253418E0,6.5553986E1,1.5253906E0,9.446228E1,6.603042E2,8.894562E0,8.598535E1,3.0461542E2,0E0,0E0,0E0,0E0,0E0,0E0,0E0,0E0,0E0,0E0,0E0,0E0,0E0,0E0,0E0,0E0],"parents":[2147483647,0,0,1,1,2,2,3,3,4,4,5,5,6,6,7,7,8,8,9,9,10,10,11,11,12,12,13,13,14,14],"right_children":[2,4,6,8,10,12,14,16,18,20,22,24,26,28,30,-1,-1,-1,-1,-1,-1,-1,-1,-1,-1,-1,-1,-1,-1,-1,-1],"split_conditions":[6E0,5E0,1.7E1,3E0,4E0,7E0,2E0,2E0,2E0,6E0,6E0,1.5E1,9E0,2E1,2.1E1,-2.2681701E-1,-2.6957008E-1,1.4535771E-1,6.3190064E-3,-1.7086387E-1,-2.0986651E-1,-4.948154E-1,-2.629179E-1,6.008626E-2,1.9428422E-1,-1.3607961E-1,-9.116598E-2,-1.3726048E-1,-2.570294E-1,-5.006715E-3,-1.1845682E-1],"split_indices":[1,0,1,1,1,0,0,0,0,0,0,1,1,1,1,0,0,0,0,0,0,0,0,0,0,0,0,0,0,0,0],"split_type":[0,0,0,0,0,0,0,0,0,0,0,0,0,0,0,0,0,0,0,0,0,0,0,0,0,0,0,0,0,0,0],"sum_hessian":[5.43E3,6.96E2,4.734E3,4.01E2,2.95E2,3.477E3,1.257E3,2.19E2,1.82E2,2.15E2,8E1,3.235E3,2.42E2,2.52E2,1.005E3,8.6E1,1.33E2,4.4E1,1.38E2,4.6E1,1.69E2,4.3E1,3.7E1,2.814E3,4.21E2,1.69E2,7.3E1,1.13E2,1.39E2,6.25E2,3.8E2],"tree_param":{"num_deleted":"0","num_feature":"2","num_nodes":"31","size_leaf_vector":"1"}},{"base_weights":[-4.5959796E-3,-1.6020709E0,2.30556E-1,-1.0852462E0,-2.2985623E0,5.7253677E-1,-7.1510357E-1,-2.1743038E0,5.7554257E-1,-1.8229254E0,-3.53855E0,6.985255E-1,-1.107595E0,-1.8382632E0,-4.319281E-1,-2.287253E-1,-1.0483408E-1,3.8261542E-1,5.6916694E-3,-1.5414105E-1,-1.8900329E-1,-4.4645843E-1,-2.3731802E-1,5.4079678E-2,1.7490181E-1,-1.2255166E-1,-8.217265E-2,-1.2365484E-1,-2.3151004E-1,-1.564968E-2,-1.3553168E-1],"categories":[],"categories_nodes":[],"categories_segments":[],"categories_sizes":[],"default_left":[0,0,0,0,0,0,0,0,0,0,0,0,0,0,0,0,0,0,0,0,0,0,0,0,0,0,0,0,0,0,0],"id":17,"left_children":[1,3,5,7,9,11,13,15,17,19,21,23,25,27,29,-1,-1,-1,-1,-1,-1,-1,-1,-1,-1,-1,-1,-1,-1,-1,-1],"loss_changes":[2.0405212E3,2.4840039E2,1.5316962E3,7.2834656E2,1.6812549E2,7.369885E2,3.993145E2,2.8506104E1,2.6951843E2,1.1673584E0,7.681769E1,5.352362E2,7.1844788E0,6.972803E1,2.5564403E2,0E0,0E0,0E0,0E0,0E0,0E0,0E0,0E0,0E0,0E0,0E0,0E0,0E0,0E0,0E0,0E0],"parents":[2147483647,0,0,1,1,2,2,3,3,4,4,5,5,6,6,7,7,8,8,9,9,10,10,11,11,12,12,13,13,14,14],"right_children":[2,4,6,8,10,12,14,16,18,20,22,24,26,28,30,-1,-1,-1,-1,-1,-1,-1,-1,-1,-1,-1,-1,-1,-1,-1,-1],"split_conditions":[6E0,5E0,1.7E1,4E0,4E0,7E0,2E0,3E0,2E0,6E0,6E0,1.5E1,9E0,2E1,2.2E1,-2.287253E-1,-1.0483408E-1,3.8261542E-1,5.6916694E-3,-1.5414105E-1,-1.8900329E-1,-4.4645843E-1,-2.3731802E-1,5.4079678E-2,1.7490181E-1,-1.2255166E-1,-8.217265E-2,-1.2365484E-1,-2.3151004E-1,-1.564968E-2,-1.3553168E-1],"split_indices":[1,0,1,1,1,0,0,1,0,0,0,1,1,1,1,0,0,0,0,0,0,0,0,0,0,0,0,0,0,0,0],"split_type":[0,0,0,0,0,0,0,0,0,0,0,0,0,0,0,0,0,0,0,0,0,0,0,0,0,0,0,0,0,0,0],"sum_hessian":[5.43E3,6.96E2,4.734E3,4.01E2,2.95E2,3.477E3,1.257E3,2.42E2,1.59E2,2.15E2,8E1,3.235E3,2.42E2,2.52E2,1.005E3,2.19E2,2.3E1,2.1E1,1.38E2,4.6E1,1.69E2,4.3E1,3.7E1,2.814E3,4.21E2,1.69E2,7.3E1,1.13E2,1.39E2,7.75E2,2.3E2],"tree_param":{"num_deleted":"0","num_feature":"2","num_nodes":"31","size_leaf_vector":"1"}},{"base_weights":[-4.4038245E-3,-1.4432586E0,2.0739897E-1,-9.765855E-1,-2.0721753E0,5.1529056E-1,-6.439956E-1,-1.9582462E0,5.204153E-1,-1.6422215E0,-3.1931365E0,6.287442E-1,-9.976779E-1,-1.6558404E0,-3.888855E-1,-2.0595674E-1,-9.478753E-2,3.46093E-1,5.126612E-3,-1.3905491E-1,-1.7021413E-1,-4.0282723E-1,-2.1421075E-1,4.867369E-2,1.5745306E-1,-1.10368565E-1,-7.406645E-2,-1.1139778E-1,-2.0852439E-1,-2.944357E-3,-9.78444E-2],"categories":[],"categories_nodes":[],"categories_segments":[],"categories_sizes":[],"default_left":[0,0,0,0,0,0,0,0,0,0,0,0,0,0,0,0,0,0,0,0,0,0,0,0,0,0,0,0,0,0,0],"id":18,"left_children":[1,3,5,7,9,11,13,15,17,19,21,23,25,27,29,-1,-1,-1,-1,-1,-1,-1,-1,-1,-1,-1,-1,-1,-1,-1,-1],"loss_changes":[1.6554153E3,2.025448E2,1.2415515E3,5.917769E2,1.3741675E2,5.976323E2,3.2408594E2,2.2924133E1,2.2054898E2,8.9038086E-1,6.2468994E1,4.338562E2,5.803177E0,5.6544556E1,2.1315466E2,0E0,0E0,0E0,0E0,0E0,0E0,0E0,0E0,0E0,0E0,0E0,0E0,0E0,0E0,0E0,0E0],"parents":[2147483647,0,0,1,1,2,2,3,3,4,4,5,5,6,6,7,7,8,8,9,9,10,10,11,11,12,12,13,13,14,14],"right_children":[2,4,6,8,10,12,14,16,18,20,22,24,26,28,30,-1,-1,-1,-1,-1,-1,-1,-1,-1,-1,-1,-1,-1,-1,-1,-1],"split_conditions":[6E0,5E0,1.7E1,4E0,4E0,7E0,2E0,3E0,2E0,6E0,6E0,1.5E1,9E0,2E1,2.1E1,-2.0595674E-1,-9.478753E-2,3.46093E-1,5.126612E-3,-1.3905491E-1,-1.7021413E-1,-4.0282723E-1,-2.1421075E-1,4.867369E-2,1.5745306E-1,-1.10368565E-1,-7.406645E-2,-1.1139778E-1,-2.0852439E-1,-2.944357E-3,-9.78444E-2],"split_indices":[1,0,1,1,1,0,0,1,0,0,0,1,1,1,1,0,0,0,0,0,0,0,0,0,0,0,0,0,0,0,0],"split_type":[0,0,0,0,0,0,0,0,0,0,0,0,0,0,0,0,0,0,0,0,0,0,0,0,0,0,0,0,0,0,0],"sum_hessian":[5.43E3,6.96E2,4.734E3,4.01E2,2.95E2,3.477E3,1.257E3,2.42E2,1.59E2,2.15E2,8E1,3.235E3,2.42E2,2.52E2,1.005E3,2.19E2,2.3E1,2.1E1,1.38E2,4.6E1,1.69E2,4.3E1,3.7E1,2.814E3,4.21E2,1.69E2,7.3E1,1.13E2,1.39E2,6.25E2,3.8E2],"tree_param":{"num_deleted":"0","num_feature":"2","num_nodes":"31","size_leaf_vector":"1"}},{"base_weights":[-4.1981633E-3,-1.3001894E0,1.8657482E-1,-8.7880147E-1,-1.8680872E0,4.6376774E-1,-5.7993037E-1,-1.7636592E0,4.705687E-1,-1.479431E0,-2.8814406E0,8.16778E-1,1.7957099E-2,-1.4915206E0,-3.5009706E-1,-1.8545468E-1,-8.5703716E-2,3.1305692E-1,4.617605E-3,-1.2461878E-1,-1.5369236E-1,-3.6346E-1,-1.933534E-1,5.9649866E-2,2.2975574E-1,-4.1072932E-1,1.3935714E-2,-1.0035566E-1,-1.878209E-1,-1.1958241E-2,-1.12295106E-1],"categories":[],"categories_nodes":[],"categories_segments":[],"categories_sizes":[],"default_left":[0,0,0,0,0,0,0,0,0,0,0,0,0,0,0,0,0,0,0,0,0,0,0,0,0,0,0,0,0,0,0],"id":19,"left_children":[1,3,5,7,9,11,13,15,17,19,21,23,25,27,29,-1,-1,-1,-1,-1,-1,-1,-1,-1,-1,-1,-1,-1,-1,-1,-1],"loss_changes":[1.3430037E3,1.6515417E2,1.0063134E3,4.8081815E2,1.1231555E2,5.4733826E2,2.630461E2,1.843396E1,1.80477E2,9.812317E-1,5.0800293E1,6.3175476E2,7.708113E2,4.58537E1,1.790888E2,0E0,0E0,0E0,0E0,0E0,0E0,0E0,0E0,0E0,0E0,0E0,0E0,0E0,0E0,0E0,0E0],"parents":[2147483647,0,0,1,1,2,2,3,3,4,4,5,5,6,6,7,7,8,8,9,9,10,10,11,11,12,12,13,13,14,14],"right_children":[2,4,6,8,10,12,14,16,18,20,22,24,26,28,30,-1,-1,-1,-1,-1,-1,-1,-1,-1,-1,-1,-1,-1,-1,-1,-1],"split_conditions":[6E0,5E0,1.7E1,4E0,4E0,5E0,2E0,3E0,2E0,1E0,6E0,1.4E1,7E0,2E1,2.2E1,-1.8545468E-1,-8.5703716E-2,3.1305692E-1,4.617605E-3,-1.2461878E-1,-1.5369236E-1,-3.6346E-1,-1.933534E-1,5.9649866E-2,2.2975574E-1,-4.1072932E-1,1.3935714E-2,-1.0035566E-1,-1.878209E-1,-1.1958241E-2,-1.12295106E-1],"split_indices":[1,0,1,1,1,0,0,1,0,1,0,1,1,1,1,0,0,0,0,0,0,0,0,0,0,0,0,0,0,0,0],"split_type":[0,0,0,0,0,0,0,0,0,0,0,0,0,0,0,0,0,0,0,0,0,0,0,0,0,0,0,0,0,0,0],"sum_hessian":[5.43E3,6.96E2,4.734E3,4.01E2,2.95E2,3.477E3,1.257E3,2.42E2,1.59E2,2.15E2,8E1,1.94E3,1.537E3,2.52E2,1.005E3,2.19E2,2.3E1,2.1E1,1.38E2,4.7E1,1.68E2,4.3E1,3.7E1,1.69E3,2.5E2,4.3E1,1.494E3,1.13E2,1.39E2,7.75E2,2.3E2],"tree_param":{"num_deleted":"0","num_feature":"2","num_nodes":"31","size_leaf_vector":"1"}},{"base_weights":[-4.019256E-3,-1.171302E0,1.6780758E-1,-7.9080576E-1,-1.6840999E0,4.1736004E-1,-5.2226496E-1,-1.5884092E0,4.2549703E-1,-1.3327764E0,-2.600171E0,5.170975E-1,-9.1254777E-1,-1.0608512E0,-1.9638962E-1,-1.6699351E-1,-7.7490434E-2,2.8317422E-1,4.1591357E-3,-1.11887656E-1,-1.3840736E-1,-3.2794008E-1,-1.7452689E-1,4.031919E-2,1.2756924E-1,-1.0078203E-1,-6.813469E-2,-7.483674E-2,-2.0298369E-1,-1.0859901E-2,-1.6044042E-1],"categories":[],"categories_nodes":[],"categories_segments":[],"categories_sizes":[],"default_left":[0,0,0,0,0,0,0,0,0,0,0,0,0,0,0,0,0,0,0,0,0,0,0,0,0,0,0,0,0,0,0],"id":20,"left_children":[1,3,5,7,9,11,13,15,17,19,21,23,25,27,29,-1,-1,-1,-1,-1,-1,-1,-1,-1,-1,-1,-1,-1,-1,-1,-1],"loss_changes":[1.089495E3,1.3466516E2,8.15629E2,3.9066708E2,9.179834E1,4.617992E2,2.2058572E2,1.4822144E1,1.476856E2,8.2144165E-1,4.131128E1,2.7910254E2,4.665924E0,1.4200452E2,9.685998E1,0E0,0E0,0E0,0E0,0E0,0E0,0E0,0E0,0E0,0E0,0E0,0E0,0E0,0E0,0E0,0E0],"parents":[2147483647,0,0,1,1,2,2,3,3,4,4,5,5,6,6,7,7,8,8,9,9,10,10,11,11,12,12,13,13,14,14],"right_children":[2,4,6,8,10,12,14,16,18,20,22,24,26,28,30,-1,-1,-1,-1,-1,-1,-1,-1,-1,-1,-1,-1,-1,-1,-1,-1],"split_conditions":[6E0,5E0,1.7E1,4E0,4E0,7E0,3E0,3E0,2E0,6E0,6E0,1.5E1,9E0,2.2E1,2.3E1,-1.6699351E-1,-7.7490434E-2,2.8317422E-1,4.1591357E-3,-1.11887656E-1,-1.3840736E-1,-3.2794008E-1,-1.7452689E-1,4.031919E-2,1.2756924E-1,-1.0078203E-1,-6.813469E-2,-7.483674E-2,-2.0298369E-1,-1.0859901E-2,-1.6044042E-1],"split_indices":[1,0,1,1,1,0,0,1,0,0,0,1,1,1,1,0,0,0,0,0,0,0,0,0,0,0,0,0,0,0,0],"split_type":[0,0,0,0,0,0,0,0,0,0,0,0,0,0,0,0,0,0,0,0,0,0,0,0,0,0,0,0,0,0,0],"sum_hessian":[5.43E3,6.96E2,4.734E3,4.01E2,2.95E2,3.477E3,1.257E3,2.42E2,1.59E2,2.15E2,8E1,3.235E3,2.42E2,4.73E2,7.84E2,2.19E2,2.3E1,2.1E1,1.38E2,4.6E1,1.69E2,4.3E1,3.7E1,2.814E3,4.21E2,1.69E2,7.3E1,3.59E2,1.14E2,7.39E2,4.5E1],"tree_param":{"num_deleted":"0","num_feature":"2","num_nodes":"31","size_leaf_vector":"1"}},{"base_weights":[-3.8310422E-3,-1.0551903E0,1.5093163E-1,-7.116184E-1,-1.5182332E0,2.8044838E-1,-9.490953E-1,-1.4305743E0,3.8474336E-1,-1.2006577E0,-2.3463573E0,5.486331E-1,-9.040416E-2,-1.2905685E0,2.0235045E-1,-1.6159914E-1,-1.1031083E-1,2.5614393E-1,3.7462413E-3,-1.0019012E-1,-1.2500049E-1,-2.7104694E-1,-1.0155461E-1,6.2548467E-3,1.05196856E-1,-3.7453017E-1,2.2835656E-4,-9.104316E-2,-1.5427892E-1,6.267071E-2,-1.432781E-1],"categories":[],"categories_nodes":[],"categories_segments":[],"categories_sizes":[],"default_left":[0,0,0,0,0,0,0,0,0,0,0,0,0,0,0,0,0,0,0,0,0,0,0,0,0,0,0,0,0,0,0],"id":21,"left_children":[1,3,5,7,9,11,13,15,17,19,21,23,25,27,29,-1,-1,-1,-1,-1,-1,-1,-1,-1,-1,-1,-1,-1,-1,-1,-1],"loss_changes":[8.8384357E2,1.0980426E2,6.748707E2,3.174212E2,7.502844E1,4.2144882E2,1.9646185E2,1.2971802E1,1.2085205E2,8.661499E-1,3.64971E1,6.015622E2,6.0266986E2,3.5508606E1,8.069401E1,0E0,0E0,0E0,0E0,0E0,0E0,0E0,0E0,0E0,0E0,0E0,0E0,0E0,0E0,0E0,0E0],"parents":[2147483647,0,0,1,1,2,2,3,3,4,4,5,5,6,6,7,7,8,8,9,9,10,10,11,11,12,12,13,13,14,14],"right_children":[2,4,6,8,10,12,14,16,18,20,22,24,26,28,30,-1,-1,-1,-1,-1,-1,-1,-1,-1,-1,-1,-1,-1,-1,-1,-1],"split_conditions":[6E0,5E0,2.1E1,4E0,4E0,5E0,5E0,2E0,2E0,1E0,7E0,3E0,7E0,2.2E1,2.3E1,-1.6159914E-1,-1.1031083E-1,2.5614393E-1,3.7462413E-3,-1.0019012E-1,-1.2500049E-1,-2.7104694E-1,-1.0155461E-1,6.2548467E-3,1.05196856E-1,-3.7453017E-1,2.2835656E-4,-9.104316E-2,-1.5427892E-1,6.267071E-2,-1.432781E-1],"split_indices":[1,0,1,1,1,0,0,1,0,1,0,0,1,1,1,0,0,0,0,0,0,0,0,0,0,0,0,0,0,0,0],"split_type":[0,0,0,0,0,0,0,0,0,0,0,0,0,0,0,0,0,0,0,0,0,0,0,0,0,0,0,0,0,0,0],"sum_hessian":[5.43E3,6.96E2,4.734E3,4.01E2,2.95E2,4.236E3,4.98E2,2.42E2,1.59E2,2.15E2,8E1,2.458E3,1.778E3,3.84E2,1.14E2,1.52E2,9E1,2.1E1,1.38E2,4.7E1,1.68E2,6.2E1,1.8E1,1.251E3,1.207E3,4.3E1,1.735E3,1.55E2,2.29E2,9.1E1,2.3E1],"tree_param":{"num_deleted":"0","num_feature":"2","num_nodes":"31","size_leaf_vector":"1"}},{"base_weights":[-3.6684554E-3,-9.5054615E-1,1.357143E-1,-6.404864E-1,-1.3684294E0,3.4941414E-1,-4.5521078E-1,-1.2886358E0,3.4789354E-1,-1.0816345E0,-2.1163218E0,4.3728697E-1,-8.2221496E-1,-1.1776215E0,-2.7307844E-1,-1.3584557E-1,-5.9492804E-2,2.3169385E-1,3.374333E-3,-8.99698E-2,-1.1255721E-1,-2.6940277E-1,-1.3917068E-1,3.3590864E-2,1.11250676E-1,-9.078573E-2,-6.143582E-2,-1.0647353E-1,-2.1645537E-1,-3.3204777E-3,-6.664848E-2],"categories":[],"categories_nodes":[],"categories_segments":[],"categories_sizes":[],"default_left":[0,0,0,0,0,0,0,0,0,0,0,0,0,0,0,0,0,0,0,0,0,0,0,0,0,0,0,0,0,0,0],"id":22,"left_children":[1,3,5,7,9,11,13,15,17,19,21,23,25,27,29,-1,-1,-1,-1,-1,-1,-1,-1,-1,-1,-1,-1,-1,-1,-1,-1],"loss_changes":[7.1690393E2,8.943298E1,5.9809766E2,2.5797668E2,6.12005E1,3.584348E2,1.6519894E2,1.0961365E1,9.889395E1,7.140045E-1,3.0158417E1,2.2113916E2,3.7679749E0,2.5882294E1,9.491192E1,0E0,0E0,0E0,0E0,0E0,0E0,0E0,0E0,0E0,0E0,0E0,0E0,0E0,0E0,0E0,0E0],"parents":[2147483647,0,0,1,1,2,2,3,3,4,4,5,5,6,6,7,7,8,8,9,9,10,10,11,11,12,12,13,13,14,14],"right_children":[2,4,6,8,10,12,14,16,18,20,22,24,26,28,30,-1,-1,-1,-1,-1,-1,-1,-1,-1,-1,-1,-1,-1,-1,-1,-1],"split_conditions":[6E0,5E0,1.7E1,4E0,4E0,7E0,2E0,3E0,2E0,6E0,6E0,1.5E1,9E0,2.3E1,2.1E1,-1.3584557E-1,-5.9492804E-2,2.3169385E-1,3.374333E-3,-8.99698E-2,-1.1255721E-1,-2.6940277E-1,-1.3917068E-1,3.3590864E-2,1.11250676E-1,-9.078573E-2,-6.143582E-2,-1.0647353E-1,-2.1645537E-1,-3.3204777E-3,-6.664848E-2],"split_indices":[1,0,1,1,1,0,0,1,0,0,0,1,1,1,1,0,0,0,0,0,0,0,0,0,0,0,0,0,0,0,0],"split_type":[0,0,0,0,0,0,0,0,0,0,0,0,0,0,0,0,0,0,0,0,0,0,0,0,0,0,0,0,0,0,0],"sum_hessian":[5.43E3,6.96E2,4.734E3,4.01E2,2.95E2,3.477E3,1.257E3,2.42E2,1.59E2,2.15E2,8E1,3.235E3,2.42E2,2.52E2,1.005E3,2.19E2,2.3E1,2.1E1,1.38E2,4.6E1,1.69E2,4.3E1,3.7E1,2.814E3,4.21E2,1.69E2,7.3E1,2.28E2,2.4E1,6.25E2,3.8E2],"tree_param":{"num_deleted":"0","num_feature":"2","num_nodes":"31","size_leaf_vector":"1"}},{"base_weights":[-3.4801303E-3,-8.5631114E-1,1.2205877E-1,-5.7633877E-1,-1.233651E0,2.9378852E-1,-4.7432682E-1,-1.160576E0,3.1457365E-1,-9.7440857E-1,-1.9097339E0,5.855313E-1,-7.53823E-2,-9.826315E-1,9.377027E-2,-9.172485E-2,-1.3516615E-1,2.0957766E-1,3.039352E-3,-8.048797E-2,-1.016793E-1,-2.217875E-1,-7.874908E-2,3.9009276E-1,5.1101472E-2,-3.4121117E-1,1.7528184E-3,-1.8030547E-1,-8.2551844E-2,2.277916E-2,-1.2368273E-1],"categories":[],"categories_nodes":[],"categories_segments":[],"categories_sizes":[],"default_left":[0,0,0,0,0,0,0,0,0,0,0,0,0,0,0,0,0,0,0,0,0,0,0,0,0,0,0,0,0,0,0],"id":23,"left_children":[1,3,5,7,9,11,13,15,17,19,21,23,25,27,29,-1,-1,-1,-1,-1,-1,-1,-1,-1,-1,-1,-1,-1,-1,-1,-1],"loss_changes":[5.815662E2,7.29234E1,4.850846E2,2.0960779E2,5.001886E1,3.960678E2,3.0589575E2,1.0058807E1,8.09255E1,7.336426E-1,2.6263947E1,5.0545154E2,5.0352762E2,7.056622E1,8.962428E1,0E0,0E0,0E0,0E0,0E0,0E0,0E0,0E0,0E0,0E0,0E0,0E0,0E0,0E0,0E0,0E0],"parents":[2147483647,0,0,1,1,2,2,3,3,4,4,5,5,6,6,7,7,8,8,9,9,10,10,11,11,12,12,13,13,14,14],"right_children":[2,4,6,8,10,12,14,16,18,20,22,24,26,28,30,-1,-1,-1,-1,-1,-1,-1,-1,-1,-1,-1,-1,-1,-1,-1,-1],"split_conditions":[6E0,5E0,1.8E1,4E0,4E0,5E0,4E0,2E0,2E0,1E0,7E0,7E0,7E0,1.9E1,2.3E1,-9.172485E-2,-1.3516615E-1,2.0957766E-1,3.039352E-3,-8.048797E-2,-1.016793E-1,-2.217875E-1,-7.874908E-2,3.9009276E-1,5.1101472E-2,-3.4121117E-1,1.7528184E-3,-1.8030547E-1,-8.2551844E-2,2.277916E-2,-1.2368273E-1],"split_indices":[1,0,1,1,1,0,0,0,0,1,0,1,1,1,1,0,0,0,0,0,0,0,0,0,0,0,0,0,0,0,0],"split_type":[0,0,0,0,0,0,0,0,0,0,0,0,0,0,0,0,0,0,0,0,0,0,0,0,0,0,0,0,0,0,0],"sum_hessian":[5.43E3,6.96E2,4.734E3,4.01E2,2.95E2,3.676E3,1.058E3,2.42E2,1.59E2,2.15E2,8E1,2.053E3,1.623E3,5.58E2,5E2,1.09E2,1.33E2,2.1E1,1.38E2,4.7E1,1.68E2,6.2E1,1.8E1,4.4E1,2.009E3,4.3E1,1.58E3,8.8E1,4.7E2,4.55E2,4.5E1],"tree_param":{"num_deleted":"0","num_feature":"2","num_nodes":"31","size_leaf_vector":"1"}},{"base_weights":[-3.2719714E-3,-7.7139306E-1,1.0979744E-1,-5.187404E-1,-1.1119167E0,2.8514406E-1,-3.750717E-1,-1.0454521E0,2.8444523E-1,-8.778111E-1,-1.7224709E0,-1.9919159E-2,5.7052594E-1,-9.9442637E-1,-2.189367E-1,-1.1056572E-1,-4.5001127E-2,1.8957253E-1,2.7376122E-3,-7.2294764E-2,-9.154627E-2,-2.214001E-1,-1.10800244E-1,1.0200747E-2,-7.4236535E-2,8.80918E-2,-2.0139092E-3,-8.936778E-2,-1.8775065E-1,-9.2678436E-4,-5.6285735E-2],"categories":[],"categories_nodes":[],"categories_segments":[],"categories_sizes":[],"default_left":[0,0,0,0,0,0,0,0,0,0,0,0,0,0,0,0,0,0,0,0,0,0,0,0,0,0,0,0,0,0,0],"id":24,"left_children":[1,3,5,7,9,11,13,15,17,19,21,23,25,27,29,-1,-1,-1,-1,-1,-1,-1,-1,-1,-1,-1,-1,-1,-1,-1,-1],"loss_changes":[4.717725E2,5.9389038E1,4.026775E2,1.7036241E2,4.079651E1,3.0280432E2,1.2143457E2,8.213623E0,6.622175E1,5.97641E-1,2.2011292E1,1.482354E2,3.2947565E2,2.0831284E1,7.253689E1,0E0,0E0,0E0,0E0,0E0,0E0,0E0,0E0,0E0,0E0,0E0,0E0,0E0,0E0,0E0,0E0],"parents":[2147483647,0,0,1,1,2,2,3,3,4,4,5,5,6,6,7,7,8,8,9,9,10,10,11,11,12,12,13,13,14,14],"right_children":[2,4,6,8,10,12,14,16,18,20,22,24,26,28,30,-1,-1,-1,-1,-1,-1,-1,-1,-1,-1,-1,-1,-1,-1,-1,-1],"split_conditions":[6E0,5E0,1.7E1,4E0,4E0,1E1,2E0,3E0,2E0,6E0,6E0,7E0,5E0,2.3E1,2.1E1,-1.1056572E-1,-4.5001127E-2,1.8957253E-1,2.7376122E-3,-7.2294764E-2,-9.154627E-2,-2.214001E-1,-1.10800244E-1,1.0200747E-2,-7.4236535E-2,8.80918E-2,-2.0139092E-3,-8.936778E-2,-1.8775065E-1,-9.2678436E-4,-5.6285735E-2],"split_indices":[1,0,1,1,1,1,0,1,0,0,0,0,0,1,1,0,0,0,0,0,0,0,0,0,0,0,0,0,0,0,0],"split_type":[0,0,0,0,0,0,0,0,0,0,0,0,0,0,0,0,0,0,0,0,0,0,0,0,0,0,0,0,0,0,0],"sum_hessian":[5.43E3,6.96E2,4.734E3,4.01E2,2.95E2,3.477E3,1.257E3,2.42E2,1.59E2,2.15E2,8E1,1.681E3,1.796E3,2.52E2,1.005E3,2.19E2,2.3E1,2.1E1,1.38E2,4.6E1,1.69E2,4.3E1,3.7E1,1.439E3,2.42E2,1.177E3,6.19E2,2.28E2,2.4E1,6.25E2,3.8E2],"tree_param":{"num_deleted":"0","num_feature":"2","num_nodes":"31","size_leaf_vector":"1"}},{"base_weights":[-3.0865474E-3,-6.949129E-1,9.875211E-2,-4.6677518E-1,-1.0024009E0,2.5663647E-1,-3.378302E-1,-9.415472E-1,2.5720212E-1,-7.9078865E-1,-1.554325E0,-1.7965065E-2,5.135219E-1,-6.995584E-1,-1.1898054E-1,-7.30506E-2,-1.1077636E-1,1.714769E-1,2.465771E-3,-6.4605534E-2,-8.272171E-2,-1.8150777E-1,-6.079176E-2,9.181405E-3,-6.6843405E-2,7.929018E-2,-1.8128179E-3,1.5579549E-2,-8.9769416E-2,-6.027603E-3,-1.0607709E-1],"categories":[],"categories_nodes":[],"categories_segments":[],"categories_sizes":[],"default_left":[0,0,0,0,0,0,0,0,0,0,0,0,0,0,0,0,0,0,0,0,0,0,0,0,0,0,0,0,0,0,0],"id":25,"left_children":[1,3,5,7,9,11,13,15,17,19,21,23,25,27,29,-1,-1,-1,-1,-1,-1,-1,-1,-1,-1,-1,-1,-1,-1,-1,-1],"loss_changes":[3.8270798E2,4.842636E1,3.2646796E2,1.3841928E2,3.3341858E1,2.4535132E2,9.950519E1,7.7148285E0,5.4189564E1,6.0440063E-1,1.8885605E1,1.2016947E2,2.6692703E2,8.047157E1,4.3336624E1,0E0,0E0,0E0,0E0,0E0,0E0,0E0,0E0,0E0,0E0,0E0,0E0,0E0,0E0,0E0,0E0],"parents":[2147483647,0,0,1,1,2,2,3,3,4,4,5,5,6,6,7,7,8,8,9,9,10,10,11,11,12,12,13,13,14,14],"right_children":[2,4,6,8,10,12,14,16,18,20,22,24,26,28,30,-1,-1,-1,-1,-1,-1,-1,-1,-1,-1,-1,-1,-1,-1,-1,-1],"split_conditions":[6E0,5E0,1.7E1,4E0,4E0,1E1,3E0,2E0,2E0,1E0,7E0,7E0,5E0,1.8E1,2.3E1,-7.30506E-2,-1.1077636E-1,1.714769E-1,2.465771E-3,-6.4605534E-2,-8.272171E-2,-1.8150777E-1,-6.079176E-2,9.181405E-3,-6.6843405E-2,7.929018E-2,-1.8128179E-3,1.5579549E-2,-8.9769416E-2,-6.027603E-3,-1.0607709E-1],"split_indices":[1,0,1,1,1,1,0,0,0,1,0,0,0,1,1,0,0,0,0,0,0,0,0,0,0,0,0,0,0,0,0],"split_type":[0,0,0,0,0,0,0,0,0,0,0,0,0,0,0,0,0,0,0,0,0,0,0,0,0,0,0,0,0,0,0],"sum_hessian":[5.43E3,6.96E2,4.734E3,4.01E2,2.95E2,3.477E3,1.257E3,2.42E2,1.59E2,2.15E2,8E1,1.681E3,1.796E3,4.73E2,7.84E2,1.09E2,1.33E2,2.1E1,1.38E2,4.7E1,1.68E2,6.2E1,1.8E1,1.439E3,2.42E2,1.177E3,6.19E2,8.9E1,3.84E2,7.39E2,4.5E1],"tree_param":{"num_deleted":"0","num_feature":"2","num_nodes":"31","size_leaf_vector":"1"}},{"base_weights":[-2.8824494E-3,-6.2599486E-1,8.884136E-2,-4.2012239E-1,-9.03477E-1,1.7085658E-1,-6.077265E-1,-8.4814894E-1,2.3256874E-1,-7.123918E-1,-1.4018836E0,3.5450867E-1,-8.309021E-2,-8.880331E-1,3.3597577E-1,-9.7639225E-2,-6.2321093E-2,1.551087E-1,2.2209238E-3,-5.8048017E-2,-7.44671E-2,-1.8202497E-1,-8.80568E-2,1.9394243E-1,2.254696E-2,-1.736285E-1,6.2474064E-3,-5.6898516E-2,-1.1005699E-1,6.697456E-2,-9.5747404E-2],"categories":[],"categories_nodes":[],"categories_segments":[],"categories_sizes":[],"default_left":[0,0,0,0,0,0,0,0,0,0,0,0,0,0,0,0,0,0,0,0,0,0,0,0,0,0,0,0,0,0,0],"id":26,"left_children":[1,3,5,7,9,11,13,15,17,19,21,23,25,27,29,-1,-1,-1,-1,-1,-1,-1,-1,-1,-1,-1,-1,-1,-1,-1,-1],"loss_changes":[3.1046027E2,3.9437195E1,2.7061047E2,1.1250366E2,2.7191788E1,1.9763406E2,1.3229683E2,6.4012604E0,4.4343605E1,4.874649E-1,1.6063293E1,5.024677E2,4.2821783E2,2.5480408E1,5.028843E1,0E0,0E0,0E0,0E0,0E0,0E0,0E0,0E0,0E0,0E0,0E0,0E0,0E0,0E0,0E0,0E0],"parents":[2147483647,0,0,1,1,2,2,3,3,4,4,5,5,6,6,7,7,8,8,9,9,10,10,11,11,12,12,13,13,14,14],"right_children":[2,4,6,8,10,12,14,16,18,20,22,24,26,28,30,-1,-1,-1,-1,-1,-1,-1,-1,-1,-1,-1,-1,-1,-1,-1,-1],"split_conditions":[6E0,5E0,2.1E1,4E0,4E0,5E0,5E0,2E0,2E0,6E0,6E0,8E0,8E0,2.2E1,2.3E1,-9.7639225E-2,-6.2321093E-2,1.551087E-1,2.2209238E-3,-5.8048017E-2,-7.44671E-2,-1.8202497E-1,-8.80568E-2,1.9394243E-1,2.254696E-2,-1.736285E-1,6.2474064E-3,-5.6898516E-2,-1.1005699E-1,6.697456E-2,-9.5747404E-2],"split_indices":[1,0,1,1,1,0,0,1,0,0,0,1,1,1,1,0,0,0,0,0,0,0,0,0,0,0,0,0,0,0,0],"split_type":[0,0,0,0,0,0,0,0,0,0,0,0,0,0,0,0,0,0,0,0,0,0,0,0,0,0,0,0,0,0,0],"sum_hessian":[5.43E3,6.96E2,4.734E3,4.01E2,2.95E2,4.236E3,4.98E2,2.42E2,1.59E2,2.15E2,8E1,2.458E3,1.778E3,3.84E2,1.14E2,1.52E2,9E1,2.1E1,1.38E2,4.6E1,1.69E2,4.3E1,3.7E1,1.84E2,2.274E3,1.43E2,1.635E3,1.55E2,2.29E2,9.1E1,2.3E1],"tree_param":{"num_deleted":"0","num_feature":"2","num_nodes":"31","size_leaf_vector":"1"}},{"base_weights":[-2.6955905E-3,-3.3765072E-1,1.4612459E-1,-6.3611016E-2,-5.839027E-1,-3.5812455E-1,3.9698657E-1,2.919881E-1,-1.0699756E0,-1.0621527E0,-1.0757768E-1,-2.0240524E0,-1.1172776E-1,8.721306E-1,1.28256325E-2,-3.7811678E-2,1.7465296E-1,-3.3093758E-2,-1.2790738E-1,-6.4176604E-2,-1.4627841E-1,2.5257556E-2,-6.853086E-2,-8.221315E-2,-2.829289E-1,2.4893576E-2,-7.728101E-2,1.9062193E-1,5.1484626E-2,3.9245244E-2,-3.3793997E-2],"categories":[],"categories_nodes":[],"categories_segments":[],"categories_sizes":[],"default_left":[0,0,0,0,0,0,0,0,0,0,0,0,0,0,0,0,0,0,0,0,0,0,0,0,0,0,0,0,0,0,0],"id":27,"left_children":[1,3,5,7,9,11,13,15,17,19,21,23,25,27,29,-1,-1,-1,-1,-1,-1,-1,-1,-1,-1,-1,-1,-1,-1,-1,-1],"loss_changes":[2.7077426E2,1.1272667E2,4.758972E2,2.8373944E2,2.003519E2,5.128729E2,4.5850858E2,5.7183185E2,3.1564743E1,7.299762E1,9.2140755E1,1.5349475E2,2.6007922E2,4.1392627E2,1.8522504E2,0E0,0E0,0E0,0E0,0E0,0E0,0E0,0E0,0E0,0E0,0E0,0E0,0E0,0E0,0E0,0E0],"parents":[2147483647,0,0,1,1,2,2,3,3,4,4,5,5,6,6,7,7,8,8,9,9,10,10,11,11,12,12,13,13,14,14],"right_children":[2,4,6,8,10,12,14,16,18,20,22,24,26,28,30,-1,-1,-1,-1,-1,-1,-1,-1,-1,-1,-1,-1,-1,-1,-1,-1],"split_conditions":[9E0,5E0,3E0,8E0,8E0,1E1,1.2E1,5E0,2E0,4E0,7E0,2E0,1.8E1,4E0,5E0,-3.7811678E-2,1.7465296E-1,-3.3093758E-2,-1.2790738E-1,-6.4176604E-2,-1.4627841E-1,2.5257556E-2,-6.853086E-2,-8.221315E-2,-2.829289E-1,2.4893576E-2,-7.728101E-2,1.9062193E-1,5.1484626E-2,3.9245244E-2,-3.3793997E-2],"split_indices":[1,0,0,1,1,1,1,1,0,1,0,0,1,0,0,0,0,0,0,0,0,0,0,0,0,0,0,0,0,0,0],"split_type":[0,0,0,0,0,0,0,0,0,0,0,0,0,0,0,0,0,0,0,0,0,0,0,0,0,0,0,0,0,0,0],"sum_hessian":[5.43E3,1.67E3,3.76E3,7.91E2,8.79E2,1.249E3,2.511E3,5.85E2,2.06E2,4.38E2,4.41E2,1.6E2,1.089E3,1.122E3,1.389E3,4.01E2,1.84E2,4.6E1,1.6E2,2.15E2,2.23E2,2.72E2,1.69E2,6.5E1,9.5E1,7.05E2,3.84E2,2.87E2,8.35E2,6.67E2,7.22E2],"tree_param":{"num_deleted":"0","num_feature":"2","num_nodes":"31","size_leaf_vector":"1"}},{"base_weights":[-2.508444E-3,-3.0405182E-1,1.3146697E-1,9.3873896E-2,-4.4200665E-1,-3.2264572E-1,3.5738632E-1,-6.3695896E-1,5.1496047E-1,-7.4997675E-1,-2.2250998E-1,-1.8239157E0,-1.00602515E-1,7.851327E-1,1.1547046E-2,-2.2370558E-2,-7.021639E-2,1.419097E-1,-7.2876945E-2,-5.0971564E-2,-2.3803984E-1,-1.0165445E-2,-6.1718073E-2,-7.411647E-2,-2.549308E-1,2.2407822E-2,-6.957298E-2,1.716259E-1,4.634228E-2,3.532656E-2,-3.0419229E-2],"categories":[],"categories_nodes":[],"categories_segments":[],"categories_sizes":[],"default_left":[0,0,0,0,0,0,0,0,0,0,0,0,0,0,0,0,0,0,0,0,0,0,0,0,0,0,0,0,0,0,0],"id":28,"left_children":[1,3,5,7,9,11,13,15,17,19,21,23,25,27,29,-1,-1,-1,-1,-1,-1,-1,-1,-1,-1,-1,-1,-1,-1,-1,-1],"loss_changes":[2.194491E2,9.177234E1,3.85967E2,1.3296562E2,8.372276E1,4.1650003E2,3.715949E2,4.1004105E0,3.091476E2,2.0091782E2,3.4566105E1,1.2456299E2,2.1077264E2,3.35602E2,1.5008011E2,0E0,0E0,0E0,0E0,0E0,0E0,0E0,0E0,0E0,0E0,0E0,0E0,0E0,0E0,0E0,0E0],"parents":[2147483647,0,0,1,1,2,2,3,3,4,4,5,5,6,6,7,7,8,8,9,9,10,10,11,11,12,12,13,13,14,14],"right_children":[2,4,6,8,10,12,14,16,18,20,22,24,26,28,30,-1,-1,-1,-1,-1,-1,-1,-1,-1,-1,-1,-1,-1,-1,-1,-1],"split_conditions":[9E0,3E0,3E0,4E0,7E0,1E1,1.2E1,1E0,8E0,5E0,7E0,2E0,1.8E1,4E0,5E0,-2.2370558E-2,-7.021639E-2,1.419097E-1,-7.2876945E-2,-5.0971564E-2,-2.3803984E-1,-1.0165445E-2,-6.1718073E-2,-7.411647E-2,-2.549308E-1,2.2407822E-2,-6.957298E-2,1.716259E-1,4.634228E-2,3.532656E-2,-3.0419229E-2],"split_indices":[1,0,0,1,1,1,1,1,1,1,0,0,1,0,0,0,0,0,0,0,0,0,0,0,0,0,0,0,0,0,0],"split_type":[0,0,0,0,0,0,0,0,0,0,0,0,0,0,0,0,0,0,0,0,0,0,0,0,0,0,0,0,0,0,0],"sum_hessian":[5.43E3,1.67E3,3.76E3,4.3E2,1.24E3,1.249E3,2.511E3,1.57E2,2.73E2,5.15E2,7.25E2,1.6E2,1.089E3,1.122E3,1.389E3,2.2E1,1.35E2,1.58E2,1.15E2,4.5E2,6.5E1,5.56E2,1.69E2,6.5E1,9.5E1,7.05E2,3.84E2,2.87E2,8.35E2,6.67E2,7.22E2],"tree_param":{"num_deleted":"0","num_feature":"2","num_nodes":"31","size_leaf_vector":"1"}},{"base_weights":[-2.3566042E-3,-6.027519E-1,5.2927554E-2,-7.053979E-1,-4.8242006E-1,1.1450668E-1,-4.9953952E-1,-3.4442005E-1,-8.449607E-1,-4.3207118E-1,-5.3549707E-1,2.6604813E-1,-9.8968334E-2,-7.5671506E-1,3.657832E-1,-1.5301528E-2,-7.049035E-2,-5.886643E-2,-8.722281E-2,-5.472603E-2,-2.5988514E-2,-4.1880127E-2,-1.0438446E-1,-6.562633E-3,6.023655E-2,-1.230348E-1,5.599989E-3,-4.588E-2,-9.554891E-2,6.6701464E-2,-8.0417834E-2],"categories":[],"categories_nodes":[],"categories_segments":[],"categories_sizes":[],"default_left":[0,0,0,0,0,0,0,0,0,0,0,0,0,0,0,0,0,0,0,0,0,0,0,0,0,0,0,0,0,0,0],"id":29,"left_children":[1,3,5,7,9,11,13,15,17,19,21,23,25,27,29,-1,-1,-1,-1,-1,-1,-1,-1,-1,-1,-1,-1,-1,-1,-1,-1],"loss_changes":[1.8029956E2,5.3167114E0,1.6927486E2,1.2051865E1,3.4051132E-1,1.4482634E2,1.1132418E2,4.7220163E0,7.165222E-1,2.1386814E0,5.495039E0,2.920719E2,3.2600345E2,2.2360458E1,4.1065758E1,0E0,0E0,0E0,0E0,0E0,0E0,0E0,0E0,0E0,0E0,0E0,0E0,0E0,0E0,0E0,0E0],"parents":[2147483647,0,0,1,1,2,2,3,3,4,4,5,5,6,6,7,7,8,8,9,9,10,10,11,11,12,12,13,13,14,14],"right_children":[2,4,6,8,10,12,14,16,18,20,22,24,26,28,30,-1,-1,-1,-1,-1,-1,-1,-1,-1,-1,-1,-1,-1,-1,-1,-1],"split_conditions":[4E0,2E0,2.1E1,1E0,7E0,5E0,5E0,6E0,2E0,3E0,3E0,3E0,8E0,2.2E1,2.3E1,-1.5301528E-2,-7.049035E-2,-5.886643E-2,-8.722281E-2,-5.472603E-2,-2.5988514E-2,-4.1880127E-2,-1.0438446E-1,-6.562633E-3,6.023655E-2,-1.230348E-1,5.599989E-3,-4.588E-2,-9.554891E-2,6.6701464E-2,-8.0417834E-2],"split_indices":[1,1,1,1,0,0,0,0,0,1,1,0,1,1,1,0,0,0,0,0,0,0,0,0,0,0,0,0,0,0,0],"split_type":[0,0,0,0,0,0,0,0,0,0,0,0,0,0,0,0,0,0,0,0,0,0,0,0,0,0,0,0,0,0,0],"sum_hessian":[5.43E3,4.57E2,4.973E3,2.44E2,2.13E2,4.475E3,4.98E2,6.9E1,1.75E2,1.14E2,9.9E1,2.617E3,1.858E3,3.84E2,1.14E2,4.6E1,2.3E1,1.9E1,1.56E2,6.7E1,4.7E1,8.2E1,1.7E1,1.318E3,1.299E3,2.23E2,1.635E3,1.55E2,2.29E2,9.1E1,2.3E1],"tree_param":{"num_deleted":"0","num_feature":"2","num_nodes":"31","size_leaf_vector":"1"}},{"base_weights":[-2.2455403E-3,-2.5156596E-1,1.085273E-1,3.1895795E-1,-3.3828837E-1,-2.7317783E-1,2.9842496E-1,-4.342837E-1,1.055901E0,-5.321001E-1,-1.8849899E-1,-1.6370459E0,-7.147514E-2,6.75141E-1,-6.14377E-3,-5.0806742E-2,-1.4872248E-2,2.7385008E-1,-3.2364142E-3,-1.8512744E-2,-8.314448E-2,2.8348459E-2,-3.5988756E-2,-6.617081E-2,-2.2905381E-1,-4.3797594E-2,3.715865E-2,1.4852028E-1,3.9526906E-2,2.9499099E-2,-2.8436214E-2],"categories":[],"categories_nodes":[],"categories_segments":[],"categories_sizes":[],"default_left":[0,0,0,0,0,0,0,0,0,0,0,0,0,0,0,0,0,0,0,0,0,0,0,0,0,0,0,0,0,0,0],"id":30,"left_children":[1,3,5,7,9,11,13,15,17,19,21,23,25,27,29,-1,-1,-1,-1,-1,-1,-1,-1,-1,-1,-1,-1,-1,-1,-1,-1],"loss_changes":[1.5002028E2,8.278432E1,2.7269727E2,1.2313482E2,4.2023575E1,3.4375284E2,2.8822076E2,2.242115E0,2.0517346E2,6.54884E1,6.643393E1,1.01101776E2,1.7715958E2,2.5401227E2,1.1653979E2,0E0,0E0,0E0,0E0,0E0,0E0,0E0,0E0,0E0,0E0,0E0,0E0,0E0,0E0,0E0,0E0],"parents":[2147483647,0,0,1,1,2,2,3,3,4,4,5,5,6,6,7,7,8,8,9,9,10,10,11,11,12,12,13,13,14,14],"right_children":[2,4,6,8,10,12,14,16,18,20,22,24,26,28,30,-1,-1,-1,-1,-1,-1,-1,-1,-1,-1,-1,-1,-1,-1,-1,-1],"split_conditions":[9E0,2E0,3E0,4E0,7E0,1E1,1.2E1,3E0,7E0,5E0,8E0,2E0,2E0,4E0,5E0,-5.0806742E-2,-1.4872248E-2,2.7385008E-1,-3.2364142E-3,-1.8512744E-2,-8.314448E-2,2.8348459E-2,-3.5988756E-2,-6.617081E-2,-2.2905381E-1,-4.3797594E-2,3.715865E-2,1.4852028E-1,3.9526906E-2,2.9499099E-2,-2.8436214E-2],"split_indices":[1,0,0,1,1,1,1,1,1,0,1,0,0,0,0,0,0,0,0,0,0,0,0,0,0,0,0,0,0,0,0],"split_type":[0,0,0,0,0,0,0,0,0,0,0,0,0,0,0,0,0,0,0,0,0,0,0,0,0,0,0,0,0,0,0],"sum_hessian":[5.43E3,1.67E3,3.76E3,2.2E2,1.45E3,1.249E3,2.511E3,1.09E2,1.11E2,6.31E2,8.19E2,1.6E2,1.089E3,1.122E3,1.389E3,8.6E1,2.3E1,4.3E1,6.8E1,2.93E2,3.38E2,2.18E2,6.01E2,6.5E1,9.5E1,5.96E2,4.93E2,2.87E2,8.35E2,6.67E2,7.22E2],"tree_param":{"num_deleted":"0","num_feature":"2","num_nodes":"31","size_leaf_vector":"1"}},{"base_weights":[-2.0239472E-3,-2.2635238E-1,9.764498E-2,2.879897E-1,-3.0453518E-1,2.7138E-1,-2.4824546E-1,-3.9145234E-1,9.5272756E-1,-4.7905084E-1,-1.6965905E-1,-1.19070195E-1,4.4678998E-1,-4.4832927E-1,-1.8765783E-2,-4.578447E-2,-1.3446959E-2,2.4708752E-1,-2.9174308E-3,-1.6667766E-2,-7.4854545E-2,2.5526498E-2,-3.239592E-2,-4.5820624E-2,1.8572931E-1,6.985881E-2,2.4176871E-2,4.7555044E-2,-6.3593924E-2,-8.410191E-2,1.2405818E-2],"categories":[],"categories_nodes":[],"categories_segments":[],"categories_sizes":[],"default_left":[0,0,0,0,0,0,0,0,0,0,0,0,0,0,0,0,0,0,0,0,0,0,0,0,0,0,0,0,0,0,0],"id":31,"left_children":[1,3,5,7,9,11,13,15,17,19,21,23,25,27,29,-1,-1,-1,-1,-1,-1,-1,-1,-1,-1,-1,-1,-1,-1,-1,-1],"loss_changes":[1.21451515E2,6.728314E1,2.2607822E2,1.0018778E2,3.4072357E1,1.715493E2,5.775286E1,1.815218E0,1.6702734E2,5.307881E1,5.3846695E1,5.2163995E2,8.903732E1,1.1677954E2,6.904013E1,0E0,0E0,0E0,0E0,0E0,0E0,0E0,0E0,0E0,0E0,0E0,0E0,0E0,0E0,0E0,0E0],"parents":[2147483647,0,0,1,1,2,2,3,3,4,4,5,5,6,6,7,7,8,8,9,9,10,10,11,11,12,12,13,13,14,14],"right_children":[2,4,6,8,10,12,14,16,18,20,22,24,26,28,30,-1,-1,-1,-1,-1,-1,-1,-1,-1,-1,-1,-1,-1,-1,-1,-1],"split_conditions":[9E0,2E0,1.7E1,4E0,7E0,3E0,4E0,3E0,7E0,5E0,8E0,1.4E1,5E0,1.8E1,1.8E1,-4.578447E-2,-1.3446959E-2,2.4708752E-1,-2.9174308E-3,-1.6667766E-2,-7.4854545E-2,2.5526498E-2,-3.239592E-2,-4.5820624E-2,1.8572931E-1,6.985881E-2,2.4176871E-2,4.7555044E-2,-6.3593924E-2,-8.410191E-2,1.2405818E-2],"split_indices":[1,0,1,1,1,0,0,1,1,0,1,1,0,1,1,0,0,0,0,0,0,0,0,0,0,0,0,0,0,0,0],"split_type":[0,0,0,0,0,0,0,0,0,0,0,0,0,0,0,0,0,0,0,0,0,0,0,0,0,0,0,0,0,0,0],"sum_hessian":[5.43E3,1.67E3,3.76E3,2.2E2,1.45E3,2.503E3,1.257E3,1.09E2,1.11E2,6.31E2,8.19E2,7.76E2,1.727E3,6.71E2,5.86E2,8.6E1,2.3E1,4.3E1,6.8E1,2.93E2,3.38E2,2.18E2,6.01E2,6.63E2,1.13E2,7.74E2,9.53E2,1.13E2,5.58E2,8.6E1,5E2],"tree_param":{"num_deleted":"0","num_feature":"2","num_nodes":"31","size_leaf_vector":"1"}},{"base_weights":[-1.7787179E-3,-2.0366512E-1,8.791922E-2,2.600278E-1,-2.7414924E-1,-3.9297023E-1,1.9058403E-1,-3.528456E-1,8.5963535E-1,-4.3129066E-1,-1.5270105E-1,-1.0417148E0,-1.4668235E-1,3.3265933E-1,-1.8527971E-1,-4.1258648E-2,-1.2158307E-2,2.2294033E-1,-2.6298359E-3,-1.5006669E-2,-6.739118E-2,2.298556E-2,-2.9161667E-2,-5.514131E-2,-1.3093917E-1,3.0764071E-2,-5.5732783E-2,5.010844E-2,1.3622152E-2,-6.086139E-2,1.1167755E-2],"categories":[],"categories_nodes":[],"categories_segments":[],"categories_sizes":[],"default_left":[0,0,0,0,0,0,0,0,0,0,0,0,0,0,0,0,0,0,0,0,0,0,0,0,0,0,0,0,0,0,0],"id":32,"left_children":[1,3,5,7,9,11,13,15,17,19,21,23,25,27,29,-1,-1,-1,-1,-1,-1,-1,-1,-1,-1,-1,-1,-1,-1,-1,-1],"loss_changes":[9.8366776E1,5.4684563E1,1.8575705E2,8.151717E1,2.7625809E1,1.0562016E2,1.656046E2,1.4695778E0,1.3597328E2,4.3020775E1,4.3644367E1,2.3164108E1,8.990955E1,7.437311E1,1.0704902E2,0E0,0E0,0E0,0E0,0E0,0E0,0E0,0E0,0E0,0E0,0E0,0E0,0E0,0E0,0E0,0E0],"parents":[2147483647,0,0,1,1,2,2,3,3,4,4,5,5,6,6,7,7,8,8,9,9,10,10,11,11,12,12,13,13,14,14],"right_children":[2,4,6,8,10,12,14,16,18,20,22,24,26,28,30,-1,-1,-1,-1,-1,-1,-1,-1,-1,-1,-1,-1,-1,-1,-1,-1],"split_conditions":[9E0,2E0,2E0,4E0,7E0,1.1E1,1.8E1,3E0,7E0,5E0,8E0,1E1,1.7E1,5E0,4E0,-4.1258648E-2,-1.2158307E-2,2.2294033E-1,-2.6298359E-3,-1.5006669E-2,-6.739118E-2,2.298556E-2,-2.9161667E-2,-5.514131E-2,-1.3093917E-1,3.0764071E-2,-5.5732783E-2,5.010844E-2,1.3622152E-2,-6.086139E-2,1.1167755E-2],"split_indices":[1,0,0,1,1,1,1,1,1,0,1,1,1,0,0,0,0,0,0,0,0,0,0,0,0,0,0,0,0,0,0],"split_type":[0,0,0,0,0,0,0,0,0,0,0,0,0,0,0,0,0,0,0,0,0,0,0,0,0,0,0,0,0,0,0],"sum_hessian":[5.43E3,1.67E3,3.76E3,2.2E2,1.45E3,6.61E2,3.099E3,1.09E2,1.11E2,6.31E2,8.19E2,1.81E2,4.8E2,2.249E3,8.5E2,8.6E1,2.3E1,4.3E1,6.8E1,2.93E2,3.38E2,2.18E2,6.01E2,6.5E1,1.16E2,2.28E2,2.52E2,1.21E3,1.039E3,3.5E2,5E2],"tree_param":{"num_deleted":"0","num_feature":"2","num_nodes":"31","size_leaf_vector":"1"}},{"base_weights":[-1.6225782E-3,3.808282E-2,-3.941378E-1,-1.8325178E-1,1.514178E-1,-6.1058193E-1,3.3390665E-1,2.3478027E-1,-2.4679543E-1,-1.4743963E-1,2.922895E-1,-3.4216827E-1,-7.8998166E-1,6.058486E-1,-7.224503E-2,-3.180467E-2,7.7563904E-2,-3.8829174E-2,-1.37438765E-2,-1.436944E-1,8.704982E-3,5.597804E-2,6.283093E-3,-1.5721552E-2,-5.9199452E-2,-7.3078886E-2,-1.0049071E-1,1.8995134E-2,9.8313056E-2],"categories":[],"categories_nodes":[],"categories_segments":[],"categories_sizes":[],"default_left":[0,0,0,0,0,0,0,0,0,0,0,0,0,0,0,0,0,0,0,0,0,0,0,0,0,0,0,0,0],"id":33,"left_children":[1,3,5,7,9,11,13,15,17,19,21,23,25,27,-1,-1,-1,-1,-1,-1,-1,-1,-1,-1,-1,-1,-1,-1,-1],"loss_changes":[8.4657E1,1.2377183E2,7.883677E1,4.4445187E1,1.374172E2,1.8268738E1,3.3473495E1,6.632599E1,2.2398773E1,3.164095E2,1.3610143E2,7.1150723E0,2.191681E0,1.4249016E1,0E0,0E0,0E0,0E0,0E0,0E0,0E0,0E0,0E0,0E0,0E0,0E0,0E0,0E0,0E0],"parents":[2147483647,0,0,1,1,2,2,3,3,4,4,5,5,6,6,7,7,8,8,9,9,10,10,11,11,12,12,13,13],"right_children":[2,4,6,8,10,12,14,16,18,20,22,24,26,28,-1,-1,-1,-1,-1,-1,-1,-1,-1,-1,-1,-1,-1,-1,-1],"split_conditions":[2.1E1,9E0,5E0,2E0,3E0,2.2E1,2.3E1,4E0,7E0,1E1,5E0,3E0,2.3E1,2.2E1,-7.224503E-2,-3.180467E-2,7.7563904E-2,-3.8829174E-2,-1.37438765E-2,-1.436944E-1,8.704982E-3,5.597804E-2,6.283093E-3,-1.5721552E-2,-5.9199452E-2,-7.3078886E-2,-1.0049071E-1,1.8995134E-2,9.8313056E-2],"split_indices":[1,1,0,0,0,1,1,1,1,1,0,0,1,1,0,0,0,0,0,0,0,0,0,0,0,0,0,0,0],"split_type":[0,0,0,0,0,0,0,0,0,0,0,0,0,0,0,0,0,0,0,0,0,0,0,0,0,0,0,0,0],"sum_hessian":[5.43E3,4.932E3,4.98E2,1.67E3,3.262E3,3.84E2,1.14E2,2.2E2,1.45E3,1.045E3,2.217E3,1.55E2,2.29E2,9.1E1,2.3E1,1.09E2,1.11E2,6.31E2,8.19E2,1.6E2,8.85E2,1.023E3,1.194E3,9E1,6.5E1,1.83E2,4.6E1,4.4E1,4.7E1],"tree_param":{"num_deleted":"0","num_feature":"2","num_nodes":"29","size_leaf_vector":"1"}},{"base_weights":[-1.5124944E-3,3.425834E-2,-3.5513175E-1,-1.6493063E-1,1.362536E-1,-5.5016917E-1,3.0090767E-1,9.0139166E-2,-2.533836E-1,-2.9554027E-1,2.2256227E-1,-3.084319E-1,-7.1173805E-1,5.465387E-1,-6.5321594E-2,-3.187509E-2,5.341494E-2,-4.1621063E-2,-1.3730632E-2,-8.927945E-2,4.7236515E-4,3.5241682E-2,5.655339E-3,-1.4166698E-2,-5.3369213E-2,-6.58107E-2,-9.065545E-2,1.7137848E-2,8.8686526E-2],"categories":[],"categories_nodes":[],"categories_segments":[],"categories_sizes":[],"default_left":[0,0,0,0,0,0,0,0,0,0,0,0,0,0,0,0,0,0,0,0,0,0,0,0,0,0,0,0,0],"id":34,"left_children":[1,3,5,7,9,11,13,15,17,19,21,23,25,27,-1,-1,-1,-1,-1,-1,-1,-1,-1,-1,-1,-1,-1,-1,-1],"loss_changes":[6.871027E1,1.0024292E2,6.40137E1,3.772342E1,1.21669815E2,1.48175125E1,2.7308685E1,7.841891E1,2.3398392E1,9.756186E1,5.8615128E1,5.7846127E0,1.8064728E0,1.159429E1,0E0,0E0,0E0,0E0,0E0,0E0,0E0,0E0,0E0,0E0,0E0,0E0,0E0,0E0,0E0],"parents":[2147483647,0,0,1,1,2,2,3,3,4,4,5,5,6,6,7,7,8,8,9,9,10,10,11,11,12,12,13,13],"right_children":[2,4,6,8,10,12,14,16,18,20,22,24,26,28,-1,-1,-1,-1,-1,-1,-1,-1,-1,-1,-1,-1,-1,-1,-1],"split_conditions":[2.1E1,9E0,5E0,3E0,2E0,2.2E1,2.3E1,5E0,7E0,1.1E1,5E0,3E0,2.3E1,2.2E1,-6.5321594E-2,-3.187509E-2,5.341494E-2,-4.1621063E-2,-1.3730632E-2,-8.927945E-2,4.7236515E-4,3.5241682E-2,5.655339E-3,-1.4166698E-2,-5.3369213E-2,-6.58107E-2,-9.065545E-2,1.7137848E-2,8.8686526E-2],"split_indices":[1,1,0,0,0,1,1,1,1,1,0,0,1,1,0,0,0,0,0,0,0,0,0,0,0,0,0,0,0],"split_type":[0,0,0,0,0,0,0,0,0,0,0,0,0,0,0,0,0,0,0,0,0,0,0,0,0,0,0,0,0],"sum_hessian":[5.43E3,4.932E3,4.98E2,1.67E3,3.262E3,3.84E2,1.14E2,4.3E2,1.24E3,5.43E2,2.719E3,1.55E2,2.29E2,9.1E1,2.3E1,2.24E2,2.06E2,5.15E2,7.25E2,1.81E2,3.62E2,1.525E3,1.194E3,9E1,6.5E1,1.83E2,4.6E1,4.4E1,4.7E1],"tree_param":{"num_deleted":"0","num_feature":"2","num_nodes":"29","size_leaf_vector":"1"}},{"base_weights":[-1.4101755E-3,5.848367E-2,-2.0013475E-1,-1.0922997E-2,6.756039E-1,-3.416705E-1,-3.7763067E-2,-1.4845768E-1,9.9413715E-2,1.2000847E0,-9.370003E-2,3.7949967E-1,-4.8813158E-1,-7.831498E-1,9.175072E-2,2.0850636E-2,-2.0272411E-2,-3.8056843E-2,3.2378606E-2,3.2955922E-2,3.537976E-1,3.3845443E-2,-8.856279E-2,-7.238763E-2,1.08339146E-1,-1.5123364E-1,-2.9356185E-2,-1.0465526E-1,-4.62099E-2,6.346994E-2,-1.1434453E-2],"categories":[],"categories_nodes":[],"categories_segments":[],"categories_sizes":[],"default_left":[0,0,0,0,0,0,0,0,0,0,0,0,0,0,0,0,0,0,0,0,0,0,0,0,0,0,0,0,0,0,0],"id":35,"left_children":[1,3,5,7,9,11,13,15,17,19,21,23,25,27,29,-1,-1,-1,-1,-1,-1,-1,-1,-1,-1,-1,-1,-1,-1,-1,-1],"loss_changes":[6.465353E1,1.7878925E2,2.8897701E1,5.6967003E1,1.7038316E2,7.116414E1,5.6739574E1,3.241149E1,2.2445131E2,5.096678E2,5.9164185E1,8.932316E1,1.1095314E2,6.8736E0,5.613404E1,0E0,0E0,0E0,0E0,0E0,0E0,0E0,0E0,0E0,0E0,0E0,0E0,0E0,0E0,0E0,0E0],"parents":[2147483647,0,0,1,1,2,2,3,3,4,4,5,5,6,6,7,7,8,8,9,9,10,10,11,11,12,12,13,13,14,14],"right_children":[2,4,6,8,10,12,14,16,18,20,22,24,26,28,30,-1,-1,-1,-1,-1,-1,-1,-1,-1,-1,-1,-1,-1,-1,-1,-1],"split_conditions":[1.7E1,1.5E1,4E0,9E0,5E0,1.8E1,1.8E1,2E0,3E0,4E0,1.6E1,2E0,1.9E1,6E0,1.9E1,2.0850636E-2,-2.0272411E-2,-3.8056843E-2,3.2378606E-2,3.2955922E-2,3.537976E-1,3.3845443E-2,-8.856279E-2,-7.238763E-2,1.08339146E-1,-1.5123364E-1,-2.9356185E-2,-1.0465526E-1,-4.62099E-2,6.346994E-2,-1.1434453E-2],"split_indices":[1,1,0,1,0,1,1,0,0,0,1,0,1,0,1,0,0,0,0,0,0,0,0,0,0,0,0,0,0,0,0],"split_type":[0,0,0,0,0,0,0,0,0,0,0,0,0,0,0,0,0,0,0,0,0,0,0,0,0,0,0,0,0,0,0],"sum_hessian":[5.43E3,4.173E3,1.257E3,3.752E3,4.21E2,6.71E2,5.86E2,1.67E3,2.082E3,2.5E2,1.71E2,1.13E2,5.58E2,8.6E1,5E2,2.2E2,1.45E3,6.63E2,1.419E3,1.83E2,6.7E1,1.11E2,6E1,4.4E1,6.9E1,8.8E1,4.7E2,4.6E1,4E1,1.37E2,3.63E2],"tree_param":{"num_deleted":"0","num_feature":"2","num_nodes":"31","size_leaf_vector":"1"}},{"base_weights":[-1.2538355E-3,5.2713625E-2,-1.8031499E-1,-9.832069E-3,6.088304E-1,-3.077188E-1,-3.4155373E-2,2.7980894E-2,-3.6629698E-1,1.5786248E0,2.4907184E-1,3.41865E-1,-4.396416E-1,-7.065696E-1,8.2679346E-2,-1.7624212E-2,1.2506564E-2,-1.1264226E-2,-4.879635E-2,2.921097E-2,3.3414975E-1,-1.7655651E-1,8.465202E-2,-6.5309726E-2,9.7659975E-2,-1.362802E-1,-2.6426813E-2,-9.44125E-2,-4.1701674E-2,5.716885E-2,-1.0294137E-2],"categories":[],"categories_nodes":[],"categories_segments":[],"categories_sizes":[],"default_left":[0,0,0,0,0,0,0,0,0,0,0,0,0,0,0,0,0,0,0,0,0,0,0,0,0,0,0,0,0,0,0],"id":36,"left_children":[1,3,5,7,9,11,13,15,17,19,21,23,25,27,29,-1,-1,-1,-1,-1,-1,-1,-1,-1,-1,-1,-1,-1,-1,-1,-1],"loss_changes":[5.249184E1,1.4518903E2,2.3415081E1,5.0596916E1,1.4683917E2,5.773727E1,4.6173923E1,6.7314674E1,1.1055096E1,2.575716E2,3.7341983E2,7.263305E1,9.014074E1,5.590561E0,4.553473E1,0E0,0E0,0E0,0E0,0E0,0E0,0E0,0E0,0E0,0E0,0E0,0E0,0E0,0E0,0E0,0E0],"parents":[2147483647,0,0,1,1,2,2,3,3,4,4,5,5,6,6,7,7,8,8,9,9,10,10,11,11,12,12,13,13,14,14],"right_children":[2,4,6,8,10,12,14,16,18,20,22,24,26,28,30,-1,-1,-1,-1,-1,-1,-1,-1,-1,-1,-1,-1,-1,-1,-1,-1],"split_conditions":[1.7E1,1.5E1,4E0,7E0,3E0,1.8E1,1.8E1,3E0,5E0,2E0,4E0,2E0,1.9E1,6E0,1.9E1,-1.7624212E-2,1.2506564E-2,-1.1264226E-2,-4.879635E-2,2.921097E-2,3.3414975E-1,-1.7655651E-1,8.465202E-2,-6.5309726E-2,9.7659975E-2,-1.362802E-1,-2.6426813E-2,-9.44125E-2,-4.1701674E-2,5.716885E-2,-1.0294137E-2],"split_indices":[1,1,0,0,0,1,1,0,1,0,0,0,1,0,1,0,0,0,0,0,0,0,0,0,0,0,0,0,0,0,0],"split_type":[0,0,0,0,0,0,0,0,0,0,0,0,0,0,0,0,0,0,0,0,0,0,0,0,0,0,0,0,0,0,0],"sum_hessian":[5.43E3,4.173E3,1.257E3,3.752E3,4.21E2,6.71E2,5.86E2,3.393E3,3.59E2,1.13E2,3.08E2,1.13E2,5.58E2,8.6E1,5E2,1.093E3,2.3E3,1.17E2,2.42E2,6.6E1,4.7E1,7E1,2.38E2,4.4E1,6.9E1,8.8E1,4.7E2,4.6E1,4E1,1.37E2,3.63E2],"tree_param":{"num_deleted":"0","num_feature":"2","num_nodes":"31","size_leaf_vector":"1"}},{"base_weights":[-1.130935E-3,-3.0649096E-1,2.6986478E-2,-4.4458002E-1,-1.4972179E-1,9.109577E-2,-1.6245805E-1,-2.5814307E-1,-5.9430754E-1,-1.19448766E-1,-2.7229458E-1,3.2493267E-2,5.485904E-1,-1.2958463E-1,-7.1851593E-1,-3.1204386E-2,-5.1996787E-3,-3.5787055E-3,-7.036974E-2,-1.8539954E-2,-4.4112992E-3,-6.28479E-4,-6.266251E-2,6.946555E-3,-3.976996E-2,1.03800885E-1,-1.6880848E-2,-2.5349036E-2,1.8792683E-3,-8.7907456E-2,-6.1563592E-2],"categories":[],"categories_nodes":[],"categories_segments":[],"categories_sizes":[],"default_left":[0,0,0,0,0,0,0,0,0,0,0,0,0,0,0,0,0,0,0,0,0,0,0,0,0,0,0,0,0,0,0],"id":37,"left_children":[1,3,5,7,9,11,13,15,17,19,21,23,25,27,29,-1,-1,-1,-1,-1,-1,-1,-1,-1,-1,-1,-1,-1,-1,-1,-1],"loss_changes":[4.6638474E1,9.848274E0,6.0424797E1,6.62986E0,7.6897526E-1,9.963618E1,2.2902538E1,1.2060337E0,8.161747E0,8.6130023E-1,3.954788E0,5.2451195E1,1.4834293E2,2.186429E1,6.150856E-1,0E0,0E0,0E0,0E0,0E0,0E0,0E0,0E0,0E0,0E0,0E0,0E0,0E0,0E0,0E0,0E0],"parents":[2147483647,0,0,1,1,2,2,3,3,4,4,5,5,6,6,7,7,8,8,9,9,10,10,11,11,12,12,13,13,14,14],"right_children":[2,4,6,8,10,12,14,16,18,20,22,24,26,28,30,-1,-1,-1,-1,-1,-1,-1,-1,-1,-1,-1,-1,-1,-1,-1,-1],"split_conditions":[4E0,5E0,1.7E1,2E0,3E0,1.5E1,2.3E1,3E0,1E0,7E0,7E0,7E0,5E0,4E0,2E0,-3.1204386E-2,-5.1996787E-3,-3.5787055E-3,-7.036974E-2,-1.8539954E-2,-4.4112992E-3,-6.28479E-4,-6.266251E-2,6.946555E-3,-3.976996E-2,1.03800885E-1,-1.6880848E-2,-2.5349036E-2,1.8792683E-3,-8.7907456E-2,-6.1563592E-2],"split_indices":[1,0,1,0,1,1,1,1,1,0,0,0,0,0,0,0,0,0,0,0,0,0,0,0,0,0,0,0,0,0,0],"split_type":[0,0,0,0,0,0,0,0,0,0,0,0,0,0,0,0,0,0,0,0,0,0,0,0,0,0,0,0,0,0,0],"sum_hessian":[5.43E3,4.57E2,4.973E3,2.42E2,2.15E2,3.716E3,1.257E3,1.09E2,1.33E2,1.74E2,4.1E1,3.295E3,4.21E2,1.188E3,6.9E1,8.6E1,2.3E1,2.2E1,1.11E2,9.2E1,8.2E1,2.4E1,1.7E1,3.035E3,2.6E2,2.5E2,1.71E2,6.47E2,5.41E2,2.4E1,4.5E1],"tree_param":{"num_deleted":"0","num_feature":"2","num_nodes":"31","size_leaf_vector":"1"}},{"base_weights":[-1.0760102E-3,-2.762711E-1,2.4263844E-2,-4.0057614E-1,-1.351489E-1,8.2000665E-2,-1.4634986E-1,-3.2891113E-1,-7.262528E-2,-1.0763507E-1,-2.4657199E-1,2.9233996E-2,4.9393654E-1,-1.1664604E-1,-6.4879966E-1,-3.2364007E-3,-3.6517747E-2,-1.6705895E-2,-3.975489E-3,-5.6814577E-4,-5.6744374E-2,4.9457685E-3,-7.4467E-2,9.346207E-2,-1.5202664E-2,-2.2818068E-2,1.6916863E-3,-7.946833E-2,-5.5541076E-2],"categories":[],"categories_nodes":[],"categories_segments":[],"categories_sizes":[],"default_left":[0,0,0,0,0,0,0,0,0,0,0,0,0,0,0,0,0,0,0,0,0,0,0,0,0,0,0,0,0],"id":38,"left_children":[1,3,5,7,9,11,13,15,-1,17,19,21,23,25,27,-1,-1,-1,-1,-1,-1,-1,-1,-1,-1,-1,-1,-1,-1],"loss_changes":[3.7879257E1,7.980194E0,4.900935E1,5.432659E0,6.356461E-1,8.078007E1,1.8699562E1,2.14987E0,0E0,6.992564E-1,3.2431645E0,5.162316E1,1.20271034E2,1.7716265E1,5.122986E-1,0E0,0E0,0E0,0E0,0E0,0E0,0E0,0E0,0E0,0E0,0E0,0E0,0E0,0E0],"parents":[2147483647,0,0,1,1,2,2,3,3,4,4,5,5,6,6,7,7,9,9,10,10,11,11,12,12,13,13,14,14],"right_children":[2,4,6,8,10,12,14,16,-1,18,20,22,24,26,28,-1,-1,-1,-1,-1,-1,-1,-1,-1,-1,-1,-1,-1,-1],"split_conditions":[4E0,5E0,1.7E1,4E0,3E0,1.5E1,2.3E1,1E0,-7.262528E-2,7E0,7E0,1.4E1,5E0,4E0,2E0,-3.2364007E-3,-3.6517747E-2,-1.6705895E-2,-3.975489E-3,-5.6814577E-4,-5.6744374E-2,4.9457685E-3,-7.4467E-2,9.346207E-2,-1.5202664E-2,-2.2818068E-2,1.6916863E-3,-7.946833E-2,-5.5541076E-2],"split_indices":[1,0,1,0,1,1,1,1,0,0,0,1,0,0,0,0,0,0,0,0,0,0,0,0,0,0,0,0,0],"split_type":[0,0,0,0,0,0,0,0,0,0,0,0,0,0,0,0,0,0,0,0,0,0,0,0,0,0,0,0,0],"sum_hessian":[5.43E3,4.57E2,4.973E3,2.42E2,2.15E2,3.716E3,1.257E3,2E2,4.2E1,1.74E2,4.1E1,3.295E3,4.21E2,1.188E3,6.9E1,2.2E1,1.78E2,9.2E1,8.2E1,2.4E1,1.7E1,3.212E3,8.3E1,2.5E2,1.71E2,6.47E2,5.41E2,2.4E1,4.5E1],"tree_param":{"num_deleted":"0","num_feature":"2","num_nodes":"29","size_leaf_vector":"1"}},{"base_weights":[-1.0306248E-3,1.9986384E-2,-2.9713404E-1,-3.250945E-1,4.259618E-2,-7.3130526E-2,-4.0468666E-1,-2.4927258E-2,-4.102246E-1,1.05209514E-1,-1.318392E-1,-1.22230105E-1,1.8913731E-2,-3.3382505E-2,-5.6200802E-2,1.1761463E-2,-3.0303314E-2,-2.4509994E-2,-4.991139E-2,5.8702114E-3,4.447287E-2,-1.0499944E-2,-5.8584847E-2,-3.5827425E-3,-5.138519E-2],"categories":[],"categories_nodes":[],"categories_segments":[],"categories_sizes":[],"default_left":[0,0,0,0,0,0,0,0,0,0,0,0,0,0,0,0,0,0,0,0,0,0,0,0,0],"id":39,"left_children":[1,3,5,7,9,11,13,15,17,19,21,23,-1,-1,-1,-1,-1,-1,-1,-1,-1,-1,-1,-1,-1],"loss_changes":[3.380418E1,3.958665E1,8.643583E0,7.962391E0,5.2013424E1,1.5426328E0,2.5213623E0,2.810563E0,3.444378E0,5.53026E1,1.5267849E1,3.3653073E0,0E0,0E0,0E0,0E0,0E0,0E0,0E0,0E0,0E0,0E0,0E0,0E0,0E0],"parents":[2147483647,0,0,1,1,2,2,3,3,4,4,5,5,6,6,7,7,8,8,9,9,10,10,11,11],"right_children":[2,4,6,8,10,12,14,16,18,20,22,24,-1,-1,-1,-1,-1,-1,-1,-1,-1,-1,-1,-1,-1],"split_conditions":[7E0,3E0,5E0,1E0,1.7E1,4E0,9E0,6E0,2E0,1.5E1,2.3E1,3E0,1.8913731E-2,-3.3382505E-2,-5.6200802E-2,1.1761463E-2,-3.0303314E-2,-2.4509994E-2,-4.991139E-2,5.8702114E-3,4.447287E-2,-1.0499944E-2,-5.8584847E-2,-3.5827425E-3,-5.138519E-2],"split_indices":[0,1,1,1,1,1,1,0,0,1,1,1,0,0,0,0,0,0,0,0,0,0,0,0,0],"split_type":[0,0,0,0,0,0,0,0,0,0,0,0,0,0,0,0,0,0,0,0,0,0,0,0,0],"sum_hessian":[5.43E3,5.071E3,3.59E2,3.11E2,4.76E3,1.17E2,2.42E2,6.9E1,2.42E2,3.503E3,1.257E3,9.9E1,1.8E1,1.69E2,7.3E1,4.6E1,2.3E1,8.6E1,1.56E2,3.082E3,4.21E2,1.188E3,6.9E1,8.2E1,1.7E1],"tree_param":{"num_deleted":"0","num_feature":"2","num_nodes":"25","size_leaf_vector":"1"}},{"base_weights":[-9.715942E-4,-1.1204026E-1,4.837611E-2,2.3599438E-1,-1.6497177E-1,-1.5337263E-1,1.4874934E-1,-1.7853878E-1,6.410181E-1,-2.5696006E-1,-9.387229E-2,-1.2412106E0,7.448727E-3,4.2950666E-1,-7.818536E-2,-2.2087174E-2,-1.7642736E-3,1.9037208E-1,-1.7347371E-2,8.78674E-4,-4.8667274E-2,-2.994045E-2,1.0354494E-2,-2.3032032E-2,-1.9232683E-1,-2.5398403E-2,3.2337565E-2,1.06431365E-1,2.1030342E-2,1.7019331E-2,-3.0756125E-2],"categories":[],"categories_nodes":[],"categories_segments":[],"categories_sizes":[],"default_left":[0,0,0,0,0,0,0,0,0,0,0,0,0,0,0,0,0,0,0,0,0,0,0,0,0,0,0,0,0,0,0],"id":40,"left_children":[1,3,5,7,9,11,13,15,17,19,21,23,25,27,29,-1,-1,-1,-1,-1,-1,-1,-1,-1,-1,-1,-1,-1,-1,-1,-1],"loss_changes":[2.9772642E1,3.082209E1,7.6183716E1,3.7219406E1,9.465881E0,2.1869371E2,1.6008208E2,7.453358E-1,1.1551787E2,3.8584976E1,3.330299E1,1.1056418E2,9.01092E1,1.560436E2,7.924352E1,0E0,0E0,0E0,0E0,0E0,0E0,0E0,0E0,0E0,0E0,0E0,0E0,0E0,0E0,0E0,0E0],"parents":[2147483647,0,0,1,1,2,2,3,3,4,4,5,5,6,6,7,7,8,8,9,9,10,10,11,11,12,12,13,13,14,14],"right_children":[2,4,6,8,10,12,14,16,18,20,22,24,26,28,30,-1,-1,-1,-1,-1,-1,-1,-1,-1,-1,-1,-1,-1,-1,-1,-1],"split_conditions":[9E0,2E0,3E0,4E0,7E0,1E1,1.2E1,3E0,7E0,5E0,6E0,2E0,2E0,4E0,5E0,-2.2087174E-2,-1.7642736E-3,1.9037208E-1,-1.7347371E-2,8.78674E-4,-4.8667274E-2,-2.994045E-2,1.0354494E-2,-2.3032032E-2,-1.9232683E-1,-2.5398403E-2,3.2337565E-2,1.06431365E-1,2.1030342E-2,1.7019331E-2,-3.0756125E-2],"split_indices":[1,0,0,1,1,1,1,1,1,0,0,0,0,0,0,0,0,0,0,0,0,0,0,0,0,0,0,0,0,0,0],"split_type":[0,0,0,0,0,0,0,0,0,0,0,0,0,0,0,0,0,0,0,0,0,0,0,0,0,0,0,0,0,0,0],"sum_hessian":[5.43E3,1.67E3,3.76E3,2.2E2,1.45E3,1.249E3,2.511E3,1.09E2,1.11E2,6.31E2,8.19E2,1.6E2,1.089E3,1.122E3,1.389E3,8.6E1,2.3E1,4.3E1,6.8E1,2.93E2,3.38E2,4.01E2,4.18E2,6.5E1,9.5E1,5.96E2,4.93E2,2.87E2,8.35E2,6.67E2,7.22E2],"tree_param":{"num_deleted":"0","num_feature":"2","num_nodes":"31","size_leaf_vector":"1"}},{"base_weights":[-8.7689265E-4,1.6353883E-2,-2.956351E-1,-1.00787446E-1,7.288965E-2,-5.259018E-1,4.5446315E-1,1.1080289E-1,-1.7419168E-1,-2.124356E-1,1.318182E-1,-3.4601268E-1,-6.00848E-1,8.5820116E-2,-3.719488E-2,3.8448628E-2,-6.357036E-2,-2.886577E-2,-9.259574E-3,-7.418828E-2,2.1962018E-3,1.4920967E-2,-5.2731287E-2,-1.7992709E-2,-6.377696E-2,-7.604422E-2,-5.3238094E-2],"categories":[],"categories_nodes":[],"categories_segments":[],"categories_sizes":[],"default_left":[0,0,0,0,0,0,0,0,0,0,0,0,0,0,0,0,0,0,0,0,0,0,0,0,0,0,0],"id":41,"left_children":[1,3,5,7,9,11,13,15,17,19,21,23,25,-1,-1,-1,-1,-1,-1,-1,-1,-1,-1,-1,-1,-1,-1],"loss_changes":[2.758841E1,3.399491E1,5.20558E1,2.5972649E1,5.82374E1,2.892952E0,2.4008636E1,8.830048E1,1.1564163E1,7.360828E1,3.297819E1,3.277213E0,1.3543968E0,0E0,0E0,0E0,0E0,0E0,0E0,0E0,0E0,0E0,0E0,0E0,0E0,0E0,0E0],"parents":[2147483647,0,0,1,1,2,2,3,3,4,4,5,5,6,6,7,7,8,8,9,9,10,10,11,11,12,12],"right_children":[2,4,6,8,10,12,14,16,18,20,22,24,26,-1,-1,-1,-1,-1,-1,-1,-1,-1,-1,-1,-1,-1,-1],"split_conditions":[2.2E1,9E0,5E0,3E0,2E0,2E0,2.3E1,8E0,7E0,1.1E1,7E0,2.3E1,3E0,8.5820116E-2,-3.719488E-2,3.8448628E-2,-6.357036E-2,-2.886577E-2,-9.259574E-3,-7.418828E-2,2.1962018E-3,1.4920967E-2,-5.2731287E-2,-1.7992709E-2,-6.377696E-2,-7.604422E-2,-5.3238094E-2],"split_indices":[1,1,0,0,0,0,1,1,1,1,0,1,0,0,0,0,0,0,0,0,0,0,0,0,0,0,0],"split_type":[0,0,0,0,0,0,0,0,0,0,0,0,0,0,0,0,0,0,0,0,0,0,0,0,0,0,0],"sum_hessian":[5.43E3,5.131E3,2.99E2,1.67E3,3.461E3,2.29E2,7E1,4.3E2,1.24E3,5.92E2,2.869E3,6.9E1,1.6E2,4.7E1,2.3E1,3.15E2,1.15E2,5.15E2,7.25E2,1.81E2,4.11E2,2.796E3,7.3E1,4.5E1,2.4E1,4.5E1,1.15E2],"tree_param":{"num_deleted":"0","num_feature":"2","num_nodes":"27","size_leaf_vector":"1"}},{"base_weights":[-8.510082E-4,2.3941156E-2,-1.7675957E-1,-9.074641E-2,8.593371E-2,-2.93836E-1,2.1162637E-1,9.966435E-2,-1.5680304E-1,-1.6941872E-1,1.378852E-1,-1.4824611E-1,-4.7422934E-1,3.0890974E-1,-3.3630338E-2,3.461595E-2,-5.7268154E-2,-2.5984783E-2,-8.334864E-3,-6.681021E-2,9.64579E-3,2.3660412E-2,1.6634007E-3,-2.8217394E-2,2.872299E-2,-3.125795E-2,-5.415664E-2,4.56383E-3,7.741688E-2],"categories":[],"categories_nodes":[],"categories_segments":[],"categories_sizes":[],"default_left":[0,0,0,0,0,0,0,0,0,0,0,0,0,0,0,0,0,0,0,0,0,0,0,0,0,0,0,0,0],"id":42,"left_children":[1,3,5,7,9,11,13,15,17,19,21,23,25,27,-1,-1,-1,-1,-1,-1,-1,-1,-1,-1,-1,-1,-1,-1,-1],"loss_changes":[2.368966E1,3.3857437E1,3.057312E1,2.103329E1,4.1028378E1,1.3481636E1,8.419382E0,7.162787E1,9.371582E0,6.9408104E1,3.0746449E1,1.6819567E1,2.3342705E0,1.6255758E1,0E0,0E0,0E0,0E0,0E0,0E0,0E0,0E0,0E0,0E0,0E0,0E0,0E0,0E0,0E0],"parents":[2147483647,0,0,1,1,2,2,3,3,4,4,5,5,6,6,7,7,8,8,9,9,10,10,11,11,12,12,13,13],"right_children":[2,4,6,8,10,12,14,16,18,20,22,24,26,28,-1,-1,-1,-1,-1,-1,-1,-1,-1,-1,-1,-1,-1,-1,-1],"split_conditions":[2E1,9E0,5E0,3E0,2E0,2.2E1,2.3E1,8E0,7E0,1.1E1,5E0,4E0,2E0,2.2E1,-3.3630338E-2,3.461595E-2,-5.7268154E-2,-2.5984783E-2,-8.334864E-3,-6.681021E-2,9.64579E-3,2.3660412E-2,1.6634007E-3,-2.8217394E-2,2.872299E-2,-3.125795E-2,-5.415664E-2,4.56383E-3,7.741688E-2],"split_indices":[1,1,0,0,0,1,1,1,1,1,0,0,0,1,0,0,0,0,0,0,0,0,0,0,0,0,0,0,0],"split_type":[0,0,0,0,0,0,0,0,0,0,0,0,0,0,0,0,0,0,0,0,0,0,0,0,0,0,0,0,0],"sum_hessian":[5.43E3,4.76E3,6.7E2,1.67E3,3.09E3,5.15E2,1.55E2,4.3E2,1.24E3,5.22E2,2.568E3,2.86E2,2.29E2,1.32E2,2.3E1,3.15E2,1.15E2,5.15E2,7.25E2,1.81E2,3.41E2,1.415E3,1.153E3,2.19E2,6.7E1,6.9E1,1.6E2,8.5E1,4.7E1],"tree_param":{"num_deleted":"0","num_feature":"2","num_nodes":"29","size_leaf_vector":"1"}},{"base_weights":[-7.8895874E-4,3.390571E-2,-1.15904026E-1,-5.27505E-3,3.8227415E-1,-2.0212452E-1,-1.7001005E-2,9.778016E-3,-6.628879E-1,1.162943E0,9.302326E-2,3.316466E-1,-3.1061786E-1,2.9873076E-1,-2.2271103E-1,-1.4452581E-2,7.5279996E-3,-1.7420545E-1,3.1110212E-2,3.8560354E-3,2.708166E-1,-1.8846469E-1,6.801428E-2,-5.1862027E-2,8.73509E-2,-1.2139564E-1,-1.3926387E-2,2.0266218E-1,-1.5120165E-2,-5.425165E-2,1.9077362E-2],"categories":[],"categories_nodes":[],"categories_segments":[],"categories_sizes":[],"default_left":[0,0,0,0,0,0,0,0,0,0,0,0,0,0,0,0,0,0,0,0,0,0,0,0,0,0,0,0,0,0,0],"id":43,"left_children":[1,3,5,7,9,11,13,15,17,19,21,23,25,27,29,-1,-1,-1,-1,-1,-1,-1,-1,-1,-1,-1,-1,-1,-1,-1,-1],"loss_changes":[2.1694689E1,5.6974365E1,1.0724117E1,3.7157764E1,9.518329E1,3.9018948E1,3.8191704E1,3.710433E1,8.8834145E1,1.9796164E2,3.600706E2,5.2975964E1,8.6358925E1,1.8067116E2,4.7179028E1,0E0,0E0,0E0,0E0,0E0,0E0,0E0,0E0,0E0,0E0,0E0,0E0,0E0,0E0,0E0,0E0],"parents":[2147483647,0,0,1,1,2,2,3,3,4,4,5,5,6,6,7,7,8,8,9,9,10,10,11,11,12,12,13,13,14,14],"right_children":[2,4,6,8,10,12,14,16,18,20,22,24,26,28,30,-1,-1,-1,-1,-1,-1,-1,-1,-1,-1,-1,-1,-1,-1,-1,-1],"split_conditions":[1.7E1,1.5E1,4E0,1.4E1,3E0,1.8E1,5E0,3E0,6E0,2E0,4E0,2E0,1.9E1,1.9E1,2E1,-1.4452581E-2,7.5279996E-3,-1.7420545E-1,3.1110212E-2,3.8560354E-3,2.708166E-1,-1.8846469E-1,6.801428E-2,-5.1862027E-2,8.73509E-2,-1.2139564E-1,-1.3926387E-2,2.0266218E-1,-1.5120165E-2,-5.425165E-2,1.9077362E-2],"split_indices":[1,1,0,1,0,1,0,0,0,0,0,0,1,1,1,0,0,0,0,0,0,0,0,0,0,0,0,0,0,0,0],"split_type":[0,0,0,0,0,0,0,0,0,0,0,0,0,0,0,0,0,0,0,0,0,0,0,0,0,0,0,0,0,0,0],"sum_hessian":[5.43E3,4.173E3,1.257E3,3.752E3,4.21E2,6.71E2,5.86E2,3.669E3,8.3E1,1.13E2,3.08E2,1.13E2,5.58E2,2.31E2,3.55E2,1.093E3,2.576E3,3.9E1,4.4E1,6.6E1,4.7E1,7E1,2.38E2,4.4E1,6.9E1,8.8E1,4.7E2,4.7E1,1.84E2,2E2,1.55E2],"tree_param":{"num_deleted":"0","num_feature":"2","num_nodes":"31","size_leaf_vector":"1"}},{"base_weights":[-6.998279E-4,1.5727706E-2,-2.3214358E-1,-2.7114534E-1,3.4523897E-2,2.9053753E-2,-3.580248E-1,-3.7313467E-1,-2.69647E-2,8.434426E-2,-1.0427187E-1,-1.5526405E-2,2.6215702E-2,-3.0092536E-2,-4.8436116E-2,-9.74224E-3,-4.0327735E-2,9.040729E-3,-1.4376298E-2,4.8718886E-3,3.444122E-2,-1.8206054E-2,-1.5041444E-3,6.2546036E-3,-3.746645E-2],"categories":[],"categories_nodes":[],"categories_segments":[],"categories_sizes":[],"default_left":[0,0,0,0,0,0,0,0,0,0,0,0,0,0,0,0,0,0,0,0,0,0,0,0,0],"id":44,"left_children":[1,3,5,7,9,11,13,15,17,19,21,23,-1,-1,-1,-1,-1,-1,-1,-1,-1,-1,-1,-1,-1],"loss_changes":[2.0652584E1,2.7358194E1,1.1847145E1,7.7599335E0,3.2930424E1,1.2303004E0,1.6071777E0,1.7890663E0,1.28792E0,3.2447845E1,8.729187E0,2.8273125E0,0E0,0E0,0E0,0E0,0E0,0E0,0E0,0E0,0E0,0E0,0E0,0E0,0E0],"parents":[2147483647,0,0,1,1,2,2,3,3,4,4,5,5,6,6,7,7,8,8,9,9,10,10,11,11],"right_children":[2,4,6,8,10,12,14,16,18,20,22,24,-1,-1,-1,-1,-1,-1,-1,-1,-1,-1,-1,-1,-1],"split_conditions":[7E0,3E0,5E0,5E0,1.7E1,4E0,9E0,1E0,6E0,1.5E1,4E0,3E0,2.6215702E-2,-3.0092536E-2,-4.8436116E-2,-9.74224E-3,-4.0327735E-2,9.040729E-3,-1.4376298E-2,4.8718886E-3,3.444122E-2,-1.8206054E-2,-1.5041444E-3,6.2546036E-3,-3.746645E-2],"split_indices":[0,1,1,0,1,1,1,1,0,1,0,1,0,0,0,0,0,0,0,0,0,0,0,0,0],"split_type":[0,0,0,0,0,0,0,0,0,0,0,0,0,0,0,0,0,0,0,0,0,0,0,0,0],"sum_hessian":[5.43E3,5.071E3,3.59E2,3.11E2,4.76E3,1.17E2,2.42E2,2.19E2,9.2E1,3.503E3,1.257E3,9.9E1,1.8E1,1.69E2,7.3E1,2.2E1,1.97E2,4.6E1,4.6E1,3.082E3,4.21E2,6.71E2,5.86E2,8.2E1,1.7E1],"tree_param":{"num_deleted":"0","num_feature":"2","num_nodes":"25","size_leaf_vector":"1"}},{"base_weights":[-6.515923E-4,1.4148126E-2,-2.0916137E-1,-1.6395818E-2,1.6047095E-1,2.610607E-2,-3.225457E-1,3.5240456E-2,-1.9196361E-1,-7.7026594E-1,3.2663697E-1,-1.4285898E-2,2.3732139E-2,-2.710101E-2,-4.3657962E-2,-1.5296951E-2,1.4063919E-2,8.374428E-3,-4.5986954E-2,-1.3414079E-2,-2.0539248E-1,5.2758332E-2,-8.7458156E-2,5.636675E-3,-3.3927944E-2],"categories":[],"categories_nodes":[],"categories_segments":[],"categories_sizes":[],"default_left":[0,0,0,0,0,0,0,0,0,0,0,0,0,0,0,0,0,0,0,0,0,0,0,0,0],"id":45,"left_children":[1,3,5,7,9,11,13,15,17,19,21,23,-1,-1,-1,-1,-1,-1,-1,-1,-1,-1,-1,-1,-1],"loss_changes":[1.6762405E1,2.2670801E1,9.611653E0,3.8055367E1,1.3573099E2,1.0100958E0,1.3097458E0,6.437303E1,7.050455E1,1.0832799E2,1.8004846E2,2.3152895E0,0E0,0E0,0E0,0E0,0E0,0E0,0E0,0E0,0E0,0E0,0E0,0E0,0E0],"parents":[2147483647,0,0,1,1,2,2,3,3,4,4,5,5,6,6,7,7,8,8,9,9,10,10,11,11],"right_children":[2,4,6,8,10,12,14,16,18,20,22,24,-1,-1,-1,-1,-1,-1,-1,-1,-1,-1,-1,-1,-1],"split_conditions":[7E0,6E0,5E0,5E0,7E0,4E0,9E0,1E1,1.1E1,5E0,1.6E1,3E0,2.3732139E-2,-2.710101E-2,-4.3657962E-2,-1.5296951E-2,1.4063919E-2,8.374428E-3,-4.5986954E-2,-1.3414079E-2,-2.0539248E-1,5.2758332E-2,-8.7458156E-2,5.636675E-3,-3.3927944E-2],"split_indices":[0,0,1,0,1,1,1,1,1,1,1,1,0,0,0,0,0,0,0,0,0,0,0,0,0],"split_type":[0,0,0,0,0,0,0,0,0,0,0,0,0,0,0,0,0,0,0,0,0,0,0,0,0],"sum_hessian":[5.43E3,5.071E3,3.59E2,4.196E3,8.75E2,1.17E2,2.42E2,3.243E3,9.53E2,1.32E2,7.43E2,9.9E1,1.8E1,1.69E2,7.3E1,1.164E3,2.079E3,4.7E2,4.83E2,8.9E1,4.3E1,6.37E2,1.06E2,8.2E1,1.7E1],"tree_param":{"num_deleted":"0","num_feature":"2","num_nodes":"25","size_leaf_vector":"1"}},{"base_weights":[-6.5452844E-4,1.6597353E-2,-1.7120138E-1,7.919329E-2,-6.972906E-2,-3.2105765E-1,3.3198002E-1,-9.278871E-2,2.9890022E-1,6.5604374E-2,-3.9539257E-1,-1.8240379E-1,-4.1370523E-1,4.871953E-1,-2.768444E-2,3.3764165E-2,-3.3998422E-2,2.4227127E-3,1.2137623E-1,-4.4643044E-2,2.8420135E-2,-6.1695572E-2,-1.3967085E-2,2.2514616E-3,-4.621791E-2,-2.6395759E-2,-4.762433E-2,2.2144414E-2,7.2618715E-2],"categories":[],"categories_nodes":[],"categories_segments":[],"categories_sizes":[],"default_left":[0,0,0,0,0,0,0,0,0,0,0,0,0,0,0,0,0,0,0,0,0,0,0,0,0,0,0,0,0],"id":46,"left_children":[1,3,5,7,9,11,13,15,17,19,21,23,25,27,-1,-1,-1,-1,-1,-1,-1,-1,-1,-1,-1,-1,-1,-1,-1],"loss_changes":[1.59822235E1,2.6661888E1,3.773362E1,1.08094666E2,9.143367E1,4.870224E0,1.1002246E1,1.7088751E2,3.1558832E2,1.6421518E2,3.441886E1,8.954058E0,2.028225E0,5.6823273E0,0E0,0E0,0E0,0E0,0E0,0E0,0E0,0E0,0E0,0E0,0E0,0E0,0E0,0E0,0E0],"parents":[2147483647,0,0,1,1,2,2,3,3,4,4,5,5,6,6,7,7,8,8,9,9,10,10,11,11,12,12,13,13],"right_children":[2,4,6,8,10,12,14,16,18,20,22,24,26,28,-1,-1,-1,-1,-1,-1,-1,-1,-1,-1,-1,-1,-1,-1,-1],"split_conditions":[2.1E1,5E0,5E0,1.1E1,1.2E1,2.2E1,2.3E1,8E0,4E0,8E0,6E0,3E0,2E0,2.2E1,-2.768444E-2,3.3764165E-2,-3.3998422E-2,2.4227127E-3,1.2137623E-1,-4.4643044E-2,2.8420135E-2,-6.1695572E-2,-1.3967085E-2,2.2514616E-3,-4.621791E-2,-2.6395759E-2,-4.762433E-2,2.2144414E-2,7.2618715E-2],"split_indices":[1,0,0,1,1,1,1,1,0,1,0,0,0,1,0,0,0,0,0,0,0,0,0,0,0,0,0,0,0],"split_type":[0,0,0,0,0,0,0,0,0,0,0,0,0,0,0,0,0,0,0,0,0,0,0,0,0,0,0,0,0],"sum_hessian":[5.43E3,4.932E3,4.98E2,2.859E3,2.073E3,3.84E2,1.14E2,1.604E3,1.255E3,1.465E3,6.08E2,1.55E2,2.29E2,9.1E1,2.3E1,5.85E2,1.019E3,9.66E2,2.89E2,4.38E2,1.027E3,3.25E2,2.83E2,9E1,6.5E1,6.9E1,1.6E2,4.4E1,4.7E1],"tree_param":{"num_deleted":"0","num_feature":"2","num_nodes":"29","size_leaf_vector":"1"}},{"base_weights":[-5.924273E-4,-2.4830477E-1,1.1108E-2,-4.111853E-1,2.2329915E-2,2.6328783E-2,-1.9305046E-1,-1.0576796E-2,-4.616694E-1,1.286236E-1,-8.907067E-2,6.556883E-2,-8.508022E-2,6.7721434E-2,-3.1888598E-1,-6.256438E-2,-3.685939E-2,3.5504065E-2,-1.1258678E-2,-1.4671259E-2,-3.0119221E-3,3.3987674E-3,3.0114952E-2,-1.6898816E-2,1.1122869E-3,3.1056309E-3,2.571315E-2,-2.7232224E-2,-4.2154755E-2],"categories":[],"categories_nodes":[],"categories_segments":[],"categories_sizes":[],"default_left":[0,0,0,0,0,0,0,0,0,0,0,0,0,0,0,0,0,0,0,0,0,0,0,0,0,0,0,0,0],"id":47,"left_children":[1,3,5,7,9,11,13,-1,15,17,19,21,23,25,27,-1,-1,-1,-1,-1,-1,-1,-1,-1,-1,-1,-1,-1,-1],"loss_changes":[1.5743644E1,1.0809056E1,1.6123432E1,2.3102322E0,1.1126863E0,2.1112118E1,1.1834768E1,0E0,1.7687149E0,2.6614513E0,1.5189257E-1,2.6557682E1,1.0156711E1,8.11494E-1,1.0468178E0,0E0,0E0,0E0,0E0,0E0,0E0,0E0,0E0,0E0,0E0,0E0,0E0,0E0,0E0],"parents":[2147483647,0,0,1,1,2,2,3,3,4,4,5,5,6,6,8,8,9,9,10,10,11,11,12,12,13,13,14,14],"right_children":[2,4,6,8,10,12,14,-1,16,18,20,22,24,26,28,-1,-1,-1,-1,-1,-1,-1,-1,-1,-1,-1,-1,-1,-1],"split_conditions":[2E0,5E0,7E0,1E0,1E0,1.7E1,5E0,-1.0576796E-2,3E0,6E0,6E0,1.5E1,4E0,4E0,9E0,-6.256438E-2,-3.685939E-2,3.5504065E-2,-1.1258678E-2,-1.4671259E-2,-3.0119221E-3,3.3987674E-3,3.0114952E-2,-1.6898816E-2,1.1122869E-3,3.1056309E-3,2.571315E-2,-2.7232224E-2,-4.2154755E-2],"split_indices":[1,0,0,1,1,1,1,0,0,0,0,1,0,1,1,0,0,0,0,0,0,0,0,0,0,0,0,0,0],"split_type":[0,0,0,0,0,0,0,0,0,0,0,0,0,0,0,0,0,0,0,0,0,0,0,0,0,0,0,0,0],"sum_hessian":[5.43E3,2.44E2,5.186E3,1.52E2,9.2E1,4.827E3,3.59E2,2.2E1,1.3E2,4.7E1,4.5E1,3.57E3,1.257E3,1.17E2,2.42E2,4.5E1,8.5E1,2.4E1,2.3E1,2.2E1,2.3E1,3.149E3,4.21E2,6.71E2,5.86E2,9.9E1,1.8E1,1.69E2,7.3E1],"tree_param":{"num_deleted":"0","num_feature":"2","num_nodes":"29","size_leaf_vector":"1"}},{"base_weights":[-5.564761E-4,-2.2389652E-1,9.992756E-3,-3.7078574E-1,2.0167459E-2,2.6535442E-2,-1.4547548E-1,-9.56511E-3,-4.162614E-1,1.1626638E-1,-8.05481E-2,9.577926E-2,-6.808555E-2,-2.776429E-1,2.9826307E-1,-5.6443956E-2,-3.321631E-2,3.2095686E-2,-1.0179731E-2,-1.3267915E-2,-2.7233006E-3,5.5194866E-2,8.714073E-4,-5.188894E-2,2.757277E-3,-1.528502E-2,-3.610778E-2,4.384061E-2,-2.513794E-2],"categories":[],"categories_nodes":[],"categories_segments":[],"categories_sizes":[],"default_left":[0,0,0,0,0,0,0,0,0,0,0,0,0,0,0,0,0,0,0,0,0,0,0,0,0,0,0,0,0],"id":48,"left_children":[1,3,5,7,9,11,13,-1,15,17,19,21,23,25,27,-1,-1,-1,-1,-1,-1,-1,-1,-1,-1,-1,-1,-1,-1],"loss_changes":[1.2798032E1,8.790818E0,1.334411E1,1.8745098E0,9.094801E-1,3.0728472E1,2.9348053E1,0E0,1.444973E0,2.1751795E0,1.24237865E-1,1.0754742E2,8.548437E1,3.9534512E0,8.968491E0,0E0,0E0,0E0,0E0,0E0,0E0,0E0,0E0,0E0,0E0,0E0,0E0,0E0,0E0],"parents":[2147483647,0,0,1,1,2,2,3,3,4,4,5,5,6,6,8,8,9,9,10,10,11,11,12,12,13,13,14,14],"right_children":[2,4,6,8,10,12,14,-1,16,18,20,22,24,26,28,-1,-1,-1,-1,-1,-1,-1,-1,-1,-1,-1,-1,-1,-1],"split_conditions":[2E0,5E0,2.1E1,1E0,1E0,5E0,5E0,-9.56511E-3,3E0,6E0,6E0,8E0,8E0,2.2E1,2.3E1,-5.6443956E-2,-3.321631E-2,3.2095686E-2,-1.0179731E-2,-1.3267915E-2,-2.7233006E-3,5.5194866E-2,8.714073E-4,-5.188894E-2,2.757277E-3,-1.528502E-2,-3.610778E-2,4.384061E-2,-2.513794E-2],"split_indices":[1,0,1,1,1,0,0,0,0,0,0,1,1,1,1,0,0,0,0,0,0,0,0,0,0,0,0,0,0],"split_type":[0,0,0,0,0,0,0,0,0,0,0,0,0,0,0,0,0,0,0,0,0,0,0,0,0,0,0,0,0],"sum_hessian":[5.43E3,2.44E2,5.186E3,1.52E2,9.2E1,4.688E3,4.98E2,2.2E1,1.3E2,4.7E1,4.5E1,2.707E3,1.981E3,3.84E2,1.14E2,4.5E1,8.5E1,2.4E1,2.3E1,2.2E1,2.3E1,4.33E2,2.274E3,3.46E2,1.635E3,1.55E2,2.29E2,9.1E1,2.3E1],"tree_param":{"num_deleted":"0","num_feature":"2","num_nodes":"29","size_leaf_vector":"1"}},{"base_weights":[-5.2302185E-4,-7.300736E-2,3.168167E-2,3.987059E-3,-1.9456488E-1,-1.1087622E-1,1.02607496E-1,2.8069955E-1,-3.6539224E-1,-7.5034016E-1,6.61592E-2,-1.0300014E0,2.4986206E-2,3.3652538E-1,-8.645177E-2,-1.4969647E-2,1.2144212E-1,-1.5530669E-3,-9.406734E-2,-4.6177235E-2,-1.1060306E-1,2.615416E-2,-2.479911E-2,-1.4997425E-3,-1.7170875E-1,-1.7631058E-2,2.682032E-2,9.244952E-2,1.3356862E-2,1.1002115E-2,-2.6785905E-2],"categories":[],"categories_nodes":[],"categories_segments":[],"categories_sizes":[],"default_left":[0,0,0,0,0,0,0,0,0,0,0,0,0,0,0,0,0,0,0,0,0,0,0,0,0,0,0,0,0,0,0],"id":49,"left_children":[1,3,5,7,9,11,13,15,17,19,21,23,25,27,29,-1,-1,-1,-1,-1,-1,-1,-1,-1,-1,-1,-1,-1,-1,-1,-1],"loss_changes":[1.268009E1,1.5640082E1,3.8038982E1,1.0476752E2,9.394743E1,1.5611896E2,1.1112065E2,2.3567766E2,8.834238E1,2.0735916E1,2.719457E1,1.1225487E2,5.3412373E1,1.3388689E2,4.9571316E1,0E0,0E0,0E0,0E0,0E0,0E0,0E0,0E0,0E0,0E0,0E0,0E0,0E0,0E0,0E0,0E0],"parents":[2147483647,0,0,1,1,2,2,3,3,4,4,5,5,6,6,7,7,8,8,9,9,10,10,11,11,12,12,13,13,14,14],"right_children":[2,4,6,8,10,12,14,16,18,20,22,24,26,28,30,-1,-1,-1,-1,-1,-1,-1,-1,-1,-1,-1,-1,-1,-1,-1,-1],"split_conditions":[9E0,8E0,3E0,5E0,5E0,1E1,1.2E1,5E0,5E0,3E0,7E0,2E0,2E0,4E0,5E0,-1.4969647E-2,1.2144212E-1,-1.5530669E-3,-9.406734E-2,-4.6177235E-2,-1.1060306E-1,2.615416E-2,-2.479911E-2,-1.4997425E-3,-1.7170875E-1,-1.7631058E-2,2.682032E-2,9.244952E-2,1.3356862E-2,1.1002115E-2,-2.6785905E-2],"split_indices":[1,1,0,0,0,1,1,1,1,0,0,0,0,0,0,0,0,0,0,0,0,0,0,0,0,0,0,0,0,0,0],"split_type":[0,0,0,0,0,0,0,0,0,0,0,0,0,0,0,0,0,0,0,0,0,0,0,0,0,0,0,0,0,0,0],"sum_hessian":[5.43E3,1.67E3,3.76E3,1.023E3,6.47E2,1.249E3,2.511E3,5.85E2,4.38E2,2.06E2,4.41E2,1.6E2,1.089E3,1.122E3,1.389E3,4.01E2,1.84E2,2.73E2,1.65E2,1.15E2,9.1E1,2.72E2,1.69E2,6.5E1,9.5E1,5.96E2,4.93E2,2.87E2,8.35E2,6.67E2,7.22E2],"tree_param":{"num_deleted":"0","num_feature":"2","num_nodes":"31","size_leaf_vector":"1"}}]},"name":"gbtree"},"learner_model_param":{"base_score":"[1.5232596E1]","boost_from_average":"1","num_class":"0","num_feature":"2","num_target":"1"},"objective":{"name":"reg:squarederror","reg_loss_param":{"scale_pos_weight":"1"}}},"version":[3,2,1]}